13 420
hipp_sf_0000_BG 0.005272 0.003284 -0.000154 -0.004103 -0.007452 -0.009196 -0.008696 -0.005837 -0.001076 0.004666 0.010218 0.014448 0.016543 0.016223 0.013829 0.010256 0.006754 0.004628 0.004912 0.008091 0.013940 0.021527 0.029370 0.035747 0.039055 0.038180 0.032757 0.023288 0.011066 -0.002067 -0.014093 -0.023227 -0.028288 -0.028940 -0.025750 -0.020055 -0.013660 -0.008432 -0.005888 -0.006861 -0.011315 -0.018369 -0.026500 -0.033900 -0.038901 -0.040362 -0.037943 -0.032200 -0.024467 -0.016556 -0.010348 -0.007344 -0.008305 -0.013039 -0.020406 -0.028530 -0.035191 -0.038301 -0.036368 -0.028854 -0.016332 -0.000419 0.016513 0.031789 0.042947 0.048223 0.046897 0.039428 0.027356 0.013002 -0.000996 -0.012184 -0.018741 -0.019799 -0.015545 -0.007121 0.003662 0.014729 0.024172 0.030605 0.033402 0.032736 0.029460 0.024841 0.020230 0.016740 0.015007 0.015080 0.016464 0.018294 0.019581 0.019491 0.017558 0.013809 0.008751 0.003246 -0.001708 -0.005225 -0.006746 -0.006177 -0.003909 -0.000720 0.002417 0.004564 0.005050 0.003619 0.000494 -0.003691 -0.008052 -0.011672 -0.013834 -0.014190 -0.012853 -0.010360 -0.007543 -0.005314 -0.004435 -0.005319 -0.007909 -0.011677 -0.015732 -0.019018 -0.020567 -0.019725 -0.016330 -0.010769 -0.003918 0.003021 0.008774 0.012248 0.012767 0.010206 0.005018 -0.001863 -0.009217 -0.015780 -0.020499 -0.022720 -0.022293 -0.019567 -0.015279 -0.010373 -0.005789 -0.002267 -0.000218 0.000328 -0.000321 -0.001631 -0.002998 -0.003904 -0.004035 -0.003341 -0.002019 -0.000443 0.000961 0.001832 0.001977 0.001424 0.000416 -0.000656 -0.001338 -0.001233 -0.000081 0.002182 0.005423 0.009346 0.013567 0.017684 0.021350 0.024299 0.026355 0.027398 0.027328 0.026026 0.023348 0.019152 0.013356 0.006024 -0.002558 -0.011834 -0.020986 -0.029010 -0.034851 -0.037586 -0.036610 -0.031785 -0.023518 -0.012741 -0.000777 0.010873 0.020793 0.027914 0.031711 0.032300 0.030398 0.027161 0.023924 0.021902 0.021905 0.024144 0.028166 0.032932 0.037028 0.038972 0.037539 0.032045 0.022523 0.009750 -0.004878 -0.019599 -0.032616 -0.042434 -0.048126 -0.049483 -0.047015 -0.041801 -0.035230 -0.028703 -0.023333 -0.019750 -0.018010 -0.017653 -0.017876 -0.017778 -0.016615 -0.014007 -0.010043 -0.005262 -0.000519 0.003229 0.005172 0.004853 0.002298 -0.001979 -0.007083 -0.011940 -0.015549 -0.017204 -0.016663 -0.014187 -0.010470 -0.006455 -0.003094 -0.001099 -0.000752 -0.001828 -0.003633 -0.005171 -0.005388 -0.003449 0.001032 0.007853 0.016222 0.024892 0.032399 0.037373 0.038834 0.036405 0.030420 0.021862 0.012182 0.003003 -0.004198 -0.008380 -0.009134 -0.006740 -0.002083 0.003562 0.008810 0.012465 0.013756 0.012479 0.008999 0.004140 -0.001030 -0.005446 -0.008282 -0.009106 -0.007942 -0.005217 -0.001615 0.002118 0.005371 0.007811 0.009449 0.010601 0.011770 0.013467 0.016033 0.019496 0.023516 0.027415 0.030305 0.031277 0.029610 0.024945 0.017394 0.007545 -0.003628 -0.014934 -0.025182 -0.033386 -0.038920 -0.041596 -0.041642 -0.039604 -0.036188 -0.032091 -0.027857 -0.023800 -0.019995 -0.016342 -0.012679 -0.008901 -0.005055 -0.001380 0.001727 0.003806 0.004476 0.003568 0.001230 -0.002050 -0.005500 -0.008215 -0.009355 -0.008357 -0.005107 -0.000027 0.005953 0.011546 0.015354 0.016159 0.013210 0.006432 -0.003488 -0.015163 -0.026715 -0.036093 -0.041446 -0.041464 -0.035640 -0.024385 -0.008979 0.008645 0.026218 0.041526 0.052770 0.058843 0.059473 0.055212 0.047264 0.037225 0.026750 0.017255 0.009683 0.004384 0.001132 -0.000742 -0.002137 -0.003932 -0.006764 -0.010868 -0.016016 -0.021569 -0.026605 -0.030119 -0.031231 -0.029367 -0.024380 -0.016589 -0.006730 0.004158 0.014898 0.024345 0.031545 0.035843 0.036942 0.034897 0.030071 0.023051 0.014553 0.005337 -0.003868 -0.012416 -0.019774 -0.025531 -0.029408 -0.031254 -0.031048 -0.028897 -0.025040 -0.019830 -0.013723 -0.007237 -0.000915 0.004730 0.009263 0.012374 0.013904 0.013855 0.012381 0.009756 0.006341 0.002532 -0.001279 -0.004741 -0.007568 -0.009553 -0.010572 -0.010582 -0.009613 -0.007760 -0.005179 -0.002072 0.001317 0.004723 0.007870 0.010499 0.012388 0.013376 
hipp_sf_0001_CA1 0.106973 0.076686 0.021151 -0.050375 -0.125923 -0.192749 -0.239399 -0.257540 -0.243280 -0.197758 -0.126902 -0.040436 0.049725 0.131397 0.194043 0.230382 0.237428 0.216794 0.174253 0.118641 0.060311 0.009412 -0.025715 -0.039772 -0.031183 -0.002147 0.041901 0.093303 0.143443 0.184069 0.208439 0.212159 0.193603 0.153938 0.096782 0.027631 -0.046860 -0.119604 -0.183765 -0.233338 -0.263627 -0.271623 -0.256289 -0.218742 -0.162308 -0.092393 -0.016125 0.058264 0.122308 0.168348 0.190631 0.186276 0.155920 0.103884 0.037743 -0.032682 -0.096814 -0.145054 -0.170467 -0.170101 -0.145661 -0.103362 -0.052939 -0.005949 0.026351 0.035163 0.015933 -0.030597 -0.098293 -0.176548 -0.252066 -0.311190 -0.342357 -0.338201 -0.296921 -0.222644 -0.124717 -0.016076 0.089022 0.177436 0.239332 0.269702 0.268972 0.242620 0.199909 0.152028 0.110006 0.082788 0.075826 0.090385 0.123652 0.169542 0.219997 0.266502 0.301531 0.319671 0.318283 0.297652 0.260670 0.212183 0.158148 0.104765 0.057682 0.021368 -0.001330 -0.009445 -0.003978 0.012185 0.034517 0.057292 0.074200 0.079147 0.067164 0.035309 -0.016581 -0.085461 -0.165125 -0.246796 -0.320259 -0.375406 -0.403940 -0.400955 -0.366062 -0.303794 -0.223156 -0.136326 -0.056704 0.003357 0.034720 0.033101 -0.000151 -0.058315 -0.130562 -0.203991 -0.266023 -0.306694 -0.320371 -0.306554 -0.269626 -0.217621 -0.160295 -0.106946 -0.064454 -0.035966 -0.020504 -0.013552 -0.008452 0.001725 0.022297 0.055526 0.099931 0.150540 0.199997 0.240261 0.264497 0.268693 0.252633 0.220001 0.177575 0.133735 0.096614 0.072357 0.063875 0.070391 0.087868 0.110198 0.130842 0.144508 0.148452 0.143083 0.131717 0.119562 0.112188 0.113890 0.126359 0.148028 0.174266 0.198404 0.213350 0.213395 0.195747 0.161411 0.115144 0.064472 0.017983 -0.016714 -0.034864 -0.035795 -0.023189 -0.004266 0.011934 0.016800 0.004392 -0.026885 -0.073608 -0.127872 -0.178978 -0.215911 -0.230045 -0.217454 -0.180242 -0.126520 -0.068986 -0.022334 -0.000044 -0.011253 -0.058410 -0.136275 -0.232544 -0.330020 -0.409913 -0.455605 -0.456066 -0.408217 -0.317707 -0.197943 -0.067542 0.053244 0.146405 0.199543 0.208054 0.175701 0.113508 0.037241 -0.035926 -0.090865 -0.117328 -0.111605 -0.076741 -0.021333 0.042722 0.102983 0.149089 0.174689 0.178308 0.163057 0.135350 0.103031 0.073404 0.051653 0.040006 0.037770 0.042149 0.049537 0.056884 0.062720 0.067549 0.073495 0.083316 0.099079 0.120911 0.146217 0.169665 0.184039 0.181807 0.157074 0.107438 0.035254 -0.052078 -0.142967 -0.223549 -0.280314 -0.302894 -0.286413 -0.232850 -0.151043 -0.055293 0.037227 0.109743 0.149171 0.148753 0.109472 0.039949 -0.045175 -0.128051 -0.191057 -0.220154 -0.207509 -0.152866 -0.063420 0.047716 0.164122 0.269164 0.348973 0.394691 0.403604 0.379014 0.328965 0.264173 0.195665 0.132631 0.080919 0.042433 0.015471 -0.004184 -0.021730 -0.041769 -0.067064 -0.097882 -0.132024 -0.165485 -0.193520 -0.211843 -0.217653 -0.210273 -0.191266 -0.164052 -0.133159 -0.103290 -0.078455 -0.061324 -0.052928 -0.052716 -0.058895 -0.068926 -0.080047 -0.089687 -0.095725 -0.096592 -0.091265 -0.079231 -0.060508 -0.035731 -0.006316 0.025403 0.056126 0.081757 0.097825 0.100158 0.085708 0.053373 0.004624 -0.056254 -0.122424 -0.185282 -0.235685 -0.265406 -0.268555 -0.242683 -0.189328 -0.113876 -0.024752 0.067931 0.153987 0.224738 0.274244 0.299967 0.302772 0.286299 0.255896 0.217376 0.175876 0.135066 0.096846 0.061559 0.028586 -0.002870 -0.033042 -0.061135 -0.085252 -0.102737 -0.110831 -0.107448 -0.091856 -0.065047 -0.029694 0.010326 0.050717 0.087659 0.118567 0.142501 0.160099 0.173039 0.183157 0.191469 0.197376 0.198322 0.190056 0.167519 0.126197 0.063651 -0.019149 -0.117057 -0.220806 -0.318005 -0.394957 -0.439003 -0.440949 -0.397077 -0.310304 -0.190186 -0.051717 0.086927 0.207279 0.293612 0.335515 0.329557 0.279720 0.196538 0.095131 -0.007485 -0.095302 -0.155886 -0.182189 -0.173304 -0.134123 -0.074030 -0.004962 0.060766 0.112468 0.142584 0.147493 0.127588 0.086735 0.031300 -0.031001 -0.092223 -0.145117 -0.183807 -0.204196 
hipp_sf_0002_CA2 0.012100 -0.003763 -0.031006 -0.061777 -0.086806 -0.097693 -0.088958 -0.059338 -0.012027 0.046191 0.106654 0.160926 0.202721 0.229154 0.240995 0.241892 0.236813 0.230153 0.224091 0.217684 0.206999 0.186295 0.149968 0.094710 0.021275 -0.064726 -0.153331 -0.232022 -0.288471 -0.313584 -0.304065 -0.263796 -0.203545 -0.138948 -0.087097 -0.062489 -0.073266 -0.118701 -0.188637 -0.265156 -0.326239 -0.350693 -0.323268 -0.238773 -0.104190 0.061830 0.232115 0.376186 0.466473 0.484196 0.423594 0.293527 0.116030 -0.077936 -0.254664 -0.384476 -0.447659 -0.438234 -0.364767 -0.248042 -0.116141 0.001950 0.082773 0.113414 0.093994 0.037106 -0.035636 -0.099105 -0.130911 -0.116941 -0.054892 0.045039 0.162450 0.271484 0.346935 0.370278 0.334215 0.244685 0.119840 -0.013775 -0.127004 -0.194502 -0.200350 -0.141613 -0.029045 0.115200 0.262312 0.382950 0.453392 0.460340 0.403379 0.294618 0.155666 0.012725 -0.109069 -0.190762 -0.223053 -0.207438 -0.154900 -0.082587 -0.009362 0.048665 0.081564 0.087239 0.070993 0.043262 0.016165 -0.000166 -0.000539 0.013816 0.035598 0.053484 0.055338 0.031734 -0.021114 -0.099785 -0.193857 -0.287868 -0.364584 -0.408794 -0.410740 -0.368365 -0.287869 -0.182439 -0.069487 0.032970 0.109930 0.152215 0.157868 0.131897 0.084510 0.028364 -0.024476 -0.065098 -0.089248 -0.097482 -0.094045 -0.084860 -0.075267 -0.068151 -0.063011 -0.056211 -0.042358 -0.016387 0.024251 0.077941 0.138356 0.195232 0.236383 0.250518 0.230162 0.173950 0.087654 -0.016413 -0.121560 -0.210027 -0.266723 -0.282506 -0.256245 -0.195124 -0.113082 -0.027699 0.043778 0.088350 0.100217 0.082061 0.044335 0.002698 -0.025810 -0.026980 0.006954 0.075173 0.168111 0.269352 0.359170 0.418910 0.435214 0.403123 0.327328 0.221274 0.104318 -0.002439 -0.080679 -0.118769 -0.114131 -0.073592 -0.011634 0.053021 0.101712 0.120039 0.101025 0.046558 -0.033183 -0.122139 -0.202021 -0.256378 -0.274124 -0.251798 -0.194065 -0.112445 -0.022610 0.059066 0.118893 0.148444 0.145780 0.115156 0.065371 0.007267 -0.048954 -0.095932 -0.130356 -0.152949 -0.167326 -0.178133 -0.189011 -0.201015 -0.211926 -0.216702 -0.208937 -0.182976 -0.136098 -0.070142 0.007911 0.086666 0.152290 0.191337 0.193817 0.155791 0.080857 -0.019884 -0.129465 -0.228009 -0.296434 -0.320147 -0.291951 -0.213565 -0.095426 0.045190 0.187329 0.310167 0.396680 0.436474 0.427232 0.374566 0.290394 0.190249 0.090123 0.003534 -0.060642 -0.099167 -0.114197 -0.111958 -0.100732 -0.088673 -0.081931 -0.083484 -0.092846 -0.106648 -0.119842 -0.127195 -0.124690 -0.110504 -0.085366 -0.052278 -0.015700 0.019538 0.049326 0.071089 0.084173 0.089722 0.090142 0.088301 0.086696 0.086796 0.088707 0.091232 0.092295 0.089591 0.081322 0.066820 0.046921 0.024011 0.001725 -0.015640 -0.023877 -0.019672 -0.001298 0.030895 0.074286 0.124110 0.173912 0.216284 0.243810 0.250115 0.230902 0.184818 0.114021 0.024303 -0.075314 -0.173527 -0.258183 -0.318037 -0.344561 -0.333525 -0.286021 -0.208688 -0.113006 -0.013682 0.073647 0.135039 0.160723 0.146947 0.096800 0.019806 -0.069719 -0.155258 -0.221162 -0.255611 -0.252859 -0.214297 -0.148095 -0.067487 0.011976 0.075620 0.112621 0.118124 0.094052 0.048441 -0.006560 -0.057544 -0.092935 -0.105579 -0.094272 -0.063852 -0.023850 0.013990 0.038719 0.043015 0.025139 -0.010476 -0.054169 -0.093344 -0.115590 -0.111887 -0.079135 -0.021343 0.050840 0.122243 0.176482 0.199769 0.184328 0.130619 0.047806 -0.047718 -0.135503 -0.195258 -0.211241 -0.175833 -0.091525 0.029180 0.165972 0.294618 0.391741 0.439491 0.429145 0.362864 0.253263 0.120867 -0.009988 -0.115965 -0.179257 -0.190912 -0.152319 -0.074607 0.023864 0.121331 0.196956 0.234775 0.226491 0.172627 0.081925 -0.030778 -0.147654 -0.251276 -0.327606 -0.368039 -0.370209 -0.337563 -0.277941 -0.201613 -0.119243 -0.040206 0.028469 0.082460 0.119920 0.140901 0.146684 0.139283 0.121210 0.095505 0.065894 0.036861 0.013463 0.000766 0.002943 0.022190 0.057738 0.105285 0.157082 0.202823 0.231269 0.232342 0.199305 0.130537 0.030475 -0.090544 -0.217620 -0.333604 -0.421977 -0.469737 
hipp_sf_0003_DG -0.033931 -0.023428 -0.005404 0.015032 0.032125 0.041152 0.039844 0.029127 0.012952 -0.002758 -0.011801 -0.009565 0.005435 0.030802 0.060558 0.086473 0.100161 0.095419 0.070223 0.027824 -0.023414 -0.071479 -0.103244 -0.107501 -0.077835 -0.014614 0.074394 0.175018 0.269139 0.338144 0.366637 0.345637 0.274550 0.161494 0.021892 -0.124364 -0.256580 -0.356974 -0.413697 -0.422548 -0.387124 -0.317459 -0.227560 -0.132448 -0.045379 0.024168 0.071395 0.095916 0.100564 0.089720 0.067692 0.037613 0.001128 -0.041109 -0.088373 -0.138652 -0.187783 -0.229304 -0.255246 -0.257757 -0.231222 -0.174320 -0.091437 0.007073 0.106027 0.187864 0.235988 0.238331 0.190331 0.096601 -0.029180 -0.166271 -0.290451 -0.378506 -0.412716 -0.384405 -0.295784 -0.159693 0.002772 0.166237 0.305851 0.401908 0.443372 0.429593 0.369934 0.281434 0.185085 0.101517 0.047029 0.030743 0.053406 0.107972 0.181703 0.259238 0.325884 0.370427 0.386893 0.375007 0.339389 0.287818 0.229093 0.171006 0.118922 0.075185 0.039385 0.009268 -0.018057 -0.045007 -0.072814 -0.101365 -0.129570 -0.156037 -0.179782 -0.200676 -0.219448 -0.237223 -0.254738 -0.271516 -0.285347 -0.292313 -0.287514 -0.266380 -0.226280 -0.168016 -0.096697 -0.021670 0.044685 0.089145 0.100418 0.071905 0.003761 -0.096311 -0.213852 -0.330004 -0.425016 -0.482187 -0.491398 -0.451387 -0.370207 -0.263665 -0.152012 -0.055573 0.009740 0.035990 0.025032 -0.011906 -0.056823 -0.089201 -0.090963 -0.051013 0.031728 0.147521 0.277502 0.397561 0.483564 0.516783 0.488292 0.401312 0.270955 0.121350 -0.019230 -0.124195 -0.174136 -0.160795 -0.088638 0.026301 0.160020 0.285768 0.379710 0.425779 0.418673 0.364376 0.278188 0.180786 0.093295 0.032532 0.007507 0.017943 0.055060 0.104331 0.149446 0.176472 0.177162 0.150639 0.103091 0.045644 -0.008963 -0.050003 -0.071674 -0.074552 -0.065180 -0.053915 -0.051616 -0.066078 -0.099230 -0.145899 -0.194611 -0.230305 -0.238388 -0.209112 -0.141136 -0.043281 0.066171 0.162638 0.220317 0.218106 0.145009 0.003738 -0.188468 -0.402165 -0.600851 -0.747947 -0.814181 -0.783800 -0.658233 -0.456338 -0.211117 0.036499 0.245529 0.382852 0.429519 0.384147 0.262741 0.095010 -0.081987 -0.231477 -0.324275 -0.344236 -0.290775 -0.178045 -0.031088 0.120084 0.247106 0.329118 0.356625 0.332639 0.270986 0.192345 0.119016 0.069687 0.055387 0.077478 0.128020 0.192300 0.252777 0.293450 0.303580 0.279909 0.226930 0.155263 0.078617 0.010188 -0.040599 -0.070184 -0.081322 -0.081842 -0.082078 -0.091672 -0.116612 -0.157252 -0.207861 -0.257802 -0.294073 -0.304580 -0.281342 -0.222819 -0.134796 -0.029568 0.076402 0.165833 0.224225 0.242891 0.220767 0.164580 0.087396 0.005871 -0.063152 -0.105950 -0.114440 -0.087412 -0.030290 0.046419 0.129564 0.206079 0.265380 0.300964 0.310924 0.297425 0.265393 0.220844 0.169326 0.114858 0.059591 0.004183 -0.051319 -0.106420 -0.159311 -0.206519 -0.243190 -0.263995 -0.264420 -0.242105 -0.197868 -0.136119 -0.064504 0.007169 0.068530 0.110421 0.126489 0.114254 0.075469 0.015733 -0.056520 -0.131407 -0.199057 -0.250882 -0.280464 -0.284017 -0.260449 -0.211182 -0.139864 -0.052101 0.044770 0.141915 0.229379 0.296728 0.334054 0.333322 0.289885 0.203897 0.081256 -0.066260 -0.221890 -0.365850 -0.478146 -0.541801 -0.545893 -0.487789 -0.374044 -0.219665 -0.045805 0.123779 0.266819 0.366394 0.413760 0.409565 0.363181 0.290305 0.209334 0.137318 0.086365 0.061301 0.059087 0.070104 0.080978 0.078285 0.052243 -0.000487 -0.075562 -0.161595 -0.242530 -0.301226 -0.323399 -0.301012 -0.234302 -0.131956 -0.009389 0.114500 0.221325 0.297049 0.334757 0.335713 0.308486 0.266346 0.223589 0.191690 0.176232 0.175395 0.180400 0.177850 0.153437 0.096133 0.001859 -0.124312 -0.268011 -0.407648 -0.518343 -0.576909 -0.566834 -0.482161 -0.329405 -0.127030 0.097455 0.312225 0.486757 0.597196 0.630426 0.586060 0.476017 0.321847 0.150431 -0.011048 -0.139833 -0.221147 -0.249966 -0.230842 -0.175974 -0.102101 -0.026947 0.034040 0.070057 0.076102 0.052878 0.005703 -0.057171 -0.126362 -0.192891 -0.249221 -0.289750 -0.310880 
hipp_sf_0004_CA3 -0.095937 -0.072485 -0.032762 0.010868 0.044340 0.055924 0.039770 -0.002032 -0.059453 -0.116675 -0.155935 -0.162123 -0.127007 -0.051982 0.051423 0.163531 0.260623 0.320294 0.326801 0.275156 0.172916 0.039160 -0.099222 -0.213175 -0.277834 -0.278156 -0.212546 -0.093577 0.054390 0.200259 0.312814 0.367486 0.351744 0.267928 0.132863 -0.025688 -0.174958 -0.284226 -0.331431 -0.307918 -0.220273 -0.088886 0.056466 0.183004 0.261941 0.274547 0.216025 0.096381 -0.061827 -0.228333 -0.371510 -0.464839 -0.492150 -0.450547 -0.350501 -0.213193 -0.065755 0.064482 0.155514 0.194810 0.181286 0.124818 0.043534 -0.040427 -0.105715 -0.136094 -0.123457 -0.068981 0.017651 0.120660 0.221594 0.302982 0.351483 0.359965 0.328223 0.262370 0.173182 0.073850 -0.022356 -0.104071 -0.163202 -0.195540 -0.200707 -0.181598 -0.143533 -0.093323 -0.038369 0.014138 0.057929 0.088288 0.102609 0.100813 0.085534 0.061945 0.037129 0.018981 0.014738 0.029371 0.064164 0.115823 0.176445 0.234458 0.276514 0.290024 0.265867 0.200703 0.098331 -0.030300 -0.168548 -0.296818 -0.396092 -0.451543 -0.455473 -0.408921 -0.321529 -0.209656 -0.093076 0.009043 0.082029 0.118601 0.120131 0.095973 0.060982 0.031794 0.022680 0.041936 0.089641 0.157328 0.229656 0.287761 0.313520 0.293793 0.223659 0.107925 -0.039470 -0.198039 -0.344744 -0.458548 -0.524496 -0.536454 -0.497915 -0.420738 -0.322148 -0.220722 -0.132302 -0.066760 -0.026348 -0.005953 0.004859 0.018553 0.045925 0.092901 0.158630 0.235329 0.309922 0.367080 0.392928 0.378533 0.322331 0.230899 0.117889 0.001357 -0.099914 -0.170227 -0.200070 -0.187811 -0.139611 -0.067644 0.012931 0.087495 0.145163 0.180881 0.195989 0.197148 0.193964 0.195933 0.209501 0.235989 0.270915 0.304891 0.325891 0.322319 0.286141 0.215283 0.114697 -0.004204 -0.125635 -0.232601 -0.310396 -0.349638 -0.348138 -0.311177 -0.250130 -0.179791 -0.115006 -0.067441 -0.043217 -0.041966 -0.057499 -0.079899 -0.098506 -0.105035 -0.096058 -0.074206 -0.047768 -0.028744 -0.029782 -0.060703 -0.125456 -0.220223 -0.333199 -0.446180 -0.537677 -0.586966 -0.578243 -0.504019 -0.367044 -0.180360 0.034565 0.251260 0.442581 0.585116 0.662878 0.669619 0.609431 0.495599 0.348026 0.189772 0.043357 -0.072508 -0.145293 -0.169811 -0.148151 -0.088556 -0.003573 0.092127 0.183877 0.258809 0.307138 0.322887 0.304092 0.252602 0.173561 0.074700 -0.034514 -0.143814 -0.243110 -0.323459 -0.377944 -0.402361 -0.395616 -0.359736 -0.299477 -0.221566 -0.133687 -0.043405 0.042790 0.120120 0.185756 0.238605 0.278783 0.306907 0.323454 0.328358 0.320990 0.300504 0.266464 0.219535 0.162002 0.097894 0.032607 -0.027959 -0.078579 -0.115903 -0.139346 -0.151370 -0.156995 -0.162564 -0.173986 -0.194871 -0.225022 -0.259756 -0.290341 -0.305592 -0.294406 -0.248716 -0.166203 -0.052072 0.080648 0.212568 0.321018 0.384274 0.386109 0.319716 0.190098 0.014296 -0.180796 -0.362737 -0.499249 -0.564235 -0.542942 -0.435170 -0.255827 -0.032634 0.198646 0.400575 0.540754 0.597612 0.564111 0.448683 0.273245 0.068750 -0.130795 -0.294603 -0.400433 -0.437937 -0.409466 -0.328326 -0.215002 -0.092297 0.019512 0.106423 0.162626 0.190289 0.197428 0.194515 0.190761 0.191035 0.194229 0.193458 0.178066 0.136909 0.062108 -0.047711 -0.185531 -0.335971 -0.477342 -0.585361 -0.637772 -0.618898 -0.523137 -0.356627 -0.136696 0.110818 0.355843 0.569088 0.726796 0.814317 0.827862 0.774180 0.668372 0.530398 0.381082 0.238469 0.115240 0.017591 -0.054355 -0.104907 -0.140480 -0.167245 -0.189335 -0.208022 -0.221952 -0.228269 -0.224204 -0.208599 -0.182882 -0.151175 -0.119460 -0.094016 -0.079554 -0.077588 -0.085543 -0.096930 -0.102672 -0.093328 -0.061743 -0.005479 0.071604 0.159108 0.241382 0.300206 0.318379 0.283509 0.191178 0.046766 -0.134550 -0.329744 -0.511557 -0.653132 -0.732818 -0.738184 -0.668465 -0.534908 -0.358925 -0.168362 0.007434 0.142811 0.220317 0.233650 0.188526 0.101310 -0.004315 -0.101973 -0.167663 -0.184277 -0.144762 -0.053327 0.075480 0.219644 0.353926 0.454671 0.504284 0.494531 0.428081 0.317996 0.185299 0.055065 -0.048221 -0.105197 
hipp_sf_0005_HEAD NaN NaN NaN NaN NaN NaN NaN NaN NaN NaN NaN NaN NaN NaN NaN NaN NaN NaN NaN NaN NaN NaN NaN NaN NaN NaN NaN NaN NaN NaN NaN NaN NaN NaN NaN NaN NaN NaN NaN NaN NaN NaN NaN NaN NaN NaN NaN NaN NaN NaN NaN NaN NaN NaN NaN NaN NaN NaN NaN NaN NaN NaN NaN NaN NaN NaN NaN NaN NaN NaN NaN NaN NaN NaN NaN NaN NaN NaN NaN NaN NaN NaN NaN NaN NaN NaN NaN NaN NaN NaN NaN NaN NaN NaN NaN NaN NaN NaN NaN NaN NaN NaN NaN NaN NaN NaN NaN NaN NaN NaN NaN NaN NaN NaN NaN NaN NaN NaN NaN NaN NaN NaN NaN NaN NaN NaN NaN NaN NaN NaN NaN NaN NaN NaN NaN NaN NaN NaN NaN NaN NaN NaN NaN NaN NaN NaN NaN NaN NaN NaN NaN NaN NaN NaN NaN NaN NaN NaN NaN NaN NaN NaN NaN NaN NaN NaN NaN NaN NaN NaN NaN NaN NaN NaN NaN NaN NaN NaN NaN NaN NaN NaN NaN NaN NaN NaN NaN NaN NaN NaN NaN NaN NaN NaN NaN NaN NaN NaN NaN NaN NaN NaN NaN NaN NaN NaN NaN NaN NaN NaN NaN NaN NaN NaN NaN NaN NaN NaN NaN NaN NaN NaN NaN NaN NaN NaN NaN NaN NaN NaN NaN NaN NaN NaN NaN NaN NaN NaN NaN NaN NaN NaN NaN NaN NaN NaN NaN NaN NaN NaN NaN NaN NaN NaN NaN NaN NaN NaN NaN NaN NaN NaN NaN NaN NaN NaN NaN NaN NaN NaN NaN NaN NaN NaN NaN NaN NaN NaN NaN NaN NaN NaN NaN NaN NaN NaN NaN NaN NaN NaN NaN NaN NaN NaN NaN NaN NaN NaN NaN NaN NaN NaN NaN NaN NaN NaN NaN NaN NaN NaN NaN NaN NaN NaN NaN NaN NaN NaN NaN NaN NaN NaN NaN NaN NaN NaN NaN NaN NaN NaN NaN NaN NaN NaN NaN NaN NaN NaN NaN NaN NaN NaN NaN NaN NaN NaN NaN NaN NaN NaN NaN NaN NaN NaN NaN NaN NaN NaN NaN NaN NaN NaN NaN NaN NaN NaN NaN NaN NaN NaN NaN NaN NaN NaN NaN NaN NaN NaN NaN NaN NaN NaN NaN NaN NaN NaN NaN NaN NaN NaN NaN NaN NaN NaN NaN NaN NaN NaN NaN NaN NaN NaN NaN NaN NaN NaN NaN NaN NaN NaN NaN NaN NaN NaN NaN NaN NaN NaN NaN NaN 
hipp_sf_0006_TAIL 0.168333 0.131934 0.066888 -0.013006 -0.090931 -0.150764 -0.180641 -0.175612 -0.138790 -0.080736 -0.017203 0.034302 0.058400 0.045344 -0.006594 -0.090384 -0.191301 -0.289586 -0.364188 -0.396799 -0.375402 -0.296627 -0.166458 0.000793 0.185020 0.363799 0.516133 0.625709 0.683102 0.686570 0.641416 0.558166 0.450073 0.330500 0.210774 0.098871 -0.000868 -0.087103 -0.160246 -0.221025 -0.269322 -0.303614 -0.321191 -0.319066 -0.295318 -0.250444 -0.188306 -0.116301 -0.044611 0.015421 0.053471 0.062522 0.040714 -0.007713 -0.072687 -0.139831 -0.193036 -0.217588 -0.203267 -0.146749 -0.052806 0.066000 0.191142 0.301155 0.375339 0.397446 0.358664 0.259343 0.109157 -0.074336 -0.268435 -0.448846 -0.593396 -0.685261 -0.715198 -0.682443 -0.594241 -0.464161 -0.309604 -0.148960 0.001064 0.127564 0.222717 0.284139 0.314394 0.319841 0.309109 0.291449 0.275235 0.266759 0.269442 0.283494 0.305997 0.331393 0.352309 0.360653 0.348889 0.311357 0.245496 0.152755 0.039011 -0.085665 -0.207985 -0.313112 -0.386848 -0.418012 -0.400603 -0.335315 -0.230022 -0.099035 0.038878 0.163441 0.256314 0.304396 0.302355 0.253803 0.170825 0.071856 -0.021772 -0.089969 -0.117912 -0.099150 -0.037107 0.055362 0.158348 0.248750 0.304879 0.310874 0.260017 0.156248 0.013552 -0.146679 -0.299775 -0.422535 -0.497632 -0.516729 -0.481687 -0.403633 -0.300119 -0.191051 -0.094288 -0.021905 0.022035 0.041745 0.047963 0.054635 0.074829 0.116867 0.181623 0.261652 0.342435 0.405480 0.432625 0.410560 0.334511 0.210203 0.053569 -0.111819 -0.259133 -0.363566 -0.407418 -0.383859 -0.298579 -0.168907 -0.020571 0.117249 0.217553 0.260681 0.237947 0.153033 0.020914 -0.135389 -0.289490 -0.416724 -0.498568 -0.525538 -0.498040 -0.425160 -0.321822 -0.205072 -0.090405 0.011012 0.093678 0.157462 0.205921 0.243827 0.274671 0.298881 0.313299 0.312082 0.288798 0.239145 0.163499 0.068515 -0.032816 -0.122847 -0.182493 -0.195331 -0.151667 -0.051608 0.093707 0.263150 0.428866 0.561223 0.634466 0.631905 0.549533 0.397230 0.197239 -0.019860 -0.220872 -0.376280 -0.465788 -0.481992 -0.431415 -0.332712 -0.212450 -0.099371 -0.018363 0.014601 -0.004512 -0.067370 -0.155502 -0.244628 -0.310114 -0.332377 -0.301066 -0.217193 -0.092797 0.051693 0.191774 0.303882 0.370050 0.381231 0.338681 0.253224 0.142662 0.028004 -0.070635 -0.137595 -0.164025 -0.148662 -0.097065 -0.019668 0.070771 0.161666 0.242501 0.305808 0.347178 0.364547 0.357157 0.324655 0.266705 0.183269 0.075481 -0.053196 -0.195971 -0.342353 -0.478721 -0.589917 -0.661663 -0.683327 -0.650422 -0.566181 -0.441742 -0.294724 -0.146377 -0.017794 0.074040 0.119525 0.118301 0.079240 0.018490 -0.044024 -0.088931 -0.101644 -0.075532 -0.013345 0.073468 0.167392 0.248882 0.300869 0.312742 0.282869 0.219082 0.136972 0.056372 -0.003203 -0.027124 -0.009166 0.046839 0.127631 0.213347 0.281929 0.314161 0.298207 0.232617 0.127101 0.000833 -0.121369 -0.214218 -0.257368 -0.239906 -0.162932 -0.039673 0.106943 0.248746 0.357900 0.412434 0.400598 0.323142 0.193083 0.033032 -0.129320 -0.266626 -0.357077 -0.388353 -0.359562 -0.280866 -0.170961 -0.053012 0.050067 0.120007 0.146400 0.128169 0.073096 -0.004335 -0.086249 -0.155091 -0.196963 -0.203958 -0.175144 -0.116112 -0.037370 0.048002 0.126858 0.188165 0.224480 0.232567 0.213208 0.170420 0.110375 0.040331 -0.032238 -0.100209 -0.157136 -0.197461 -0.216782 -0.212275 -0.183289 -0.132002 -0.063919 0.012047 0.084130 0.139017 0.163810 0.148400 0.087805 -0.016028 -0.153437 -0.307608 -0.456564 -0.576368 -0.645062 -0.646640 -0.574292 -0.432263 -0.235841 -0.009407 0.217230 0.413581 0.553472 0.619384 0.605325 0.517690 0.373958 0.199478 0.022948 -0.128536 -0.233943 -0.281460 -0.269795 -0.207468 -0.110310 0.002222 0.111141 0.201576 0.265254 0.301363 0.315711 0.318460 0.320990 0.332642 0.358084 0.395884 0.438601 0.474364 0.489579 0.472163 0.414571 0.315957 0.182958 0.028924 -0.128288 -0.269503 -0.377762 -0.441462 -0.456477 -0.426811 -0.363670 -0.283133 -0.202930 -0.138968 -0.102331 -0.097353 -0.121140 -0.164613 -0.214817 -0.258004 -0.282803 
hipp_sf_0007_MISC 0.021393 0.008953 -0.012415 -0.036480 -0.055700 -0.062981 -0.053396 -0.025514 0.017970 0.070463 0.122566 0.163842 0.184937 0.179643 0.146466 0.089348 0.017341 -0.056782 -0.118764 -0.155570 -0.158048 -0.123021 -0.054352 0.037276 0.135925 0.223071 0.280927 0.295824 0.260990 0.178179 0.057779 -0.082675 -0.221369 -0.335965 -0.407543 -0.424026 -0.382402 -0.289331 -0.160003 -0.015435 0.121258 0.228937 0.292076 0.303280 0.264222 0.184874 0.081201 -0.028153 -0.125526 -0.197488 -0.237041 -0.244381 -0.226107 -0.193128 -0.157757 -0.130669 -0.118390 -0.121870 -0.136425 -0.153058 -0.160820 -0.149683 -0.113258 -0.050734 0.032408 0.125110 0.212731 0.279943 0.313906 0.307059 0.258927 0.176556 0.073447 -0.032804 -0.123707 -0.183303 -0.201118 -0.174097 -0.107137 -0.012133 0.094262 0.193713 0.269513 0.309516 0.308138 0.267098 0.194808 0.104571 0.011988 -0.067922 -0.123336 -0.147509 -0.139616 -0.104459 -0.051153 0.008888 0.064273 0.105777 0.127943 0.129842 0.114906 0.089903 0.063287 0.043269 0.035988 0.044145 0.066343 0.097289 0.128786 0.151367 0.156243 0.137207 0.092132 0.023757 -0.060424 -0.149188 -0.229376 -0.288172 -0.315457 -0.305815 -0.259794 -0.184152 -0.090979 0.004194 0.085017 0.137200 0.151147 0.123827 0.059501 -0.030878 -0.131540 -0.224723 -0.293950 -0.327139 -0.318933 -0.271786 -0.195541 -0.105567 -0.019768 0.044943 0.076034 0.067910 0.023115 -0.048081 -0.129656 -0.202987 -0.250550 -0.259430 -0.223924 -0.146717 -0.038380 0.084682 0.203416 0.299767 0.360048 0.377334 0.352429 0.293243 0.212781 0.126206 0.047660 -0.012461 -0.049218 -0.063475 -0.060905 -0.049932 -0.039174 -0.035023 -0.039957 -0.051985 -0.065350 -0.072282 -0.065343 -0.039759 0.004885 0.064046 0.128904 0.188225 0.230954 0.248939 0.239100 0.204479 0.153863 0.099991 0.056718 0.035762 0.043787 0.080526 0.138439 0.204049 0.260716 0.292283 0.286781 0.239357 0.153741 0.041860 -0.078368 -0.186624 -0.264414 -0.299007 -0.286219 -0.231425 -0.148516 -0.057040 0.021914 0.070188 0.076430 0.038532 -0.035899 -0.131139 -0.226681 -0.301579 -0.338883 -0.329216 -0.272752 -0.179181 -0.065717 0.046429 0.136322 0.187427 0.190741 0.146302 0.062847 -0.044255 -0.156267 -0.254823 -0.325335 -0.359376 -0.355631 -0.319295 -0.260200 -0.190160 -0.120197 -0.058279 -0.008029 0.031360 0.064104 0.096023 0.132446 0.176370 0.227311 0.281108 0.330688 0.367590 0.383852 0.373821 0.335471 0.270940 0.186213 0.090056 -0.007536 -0.097014 -0.170724 -0.223855 -0.254768 -0.264719 -0.257135 -0.236666 -0.208272 -0.176506 -0.145111 -0.116901 -0.093847 -0.077216 -0.067651 -0.065121 -0.068757 -0.076659 -0.085817 -0.092264 -0.091542 -0.079457 -0.052982 -0.011131 0.044480 0.109551 0.177641 0.241261 0.293351 0.328817 0.345748 0.345996 0.334898 0.320125 0.309859 0.310680 0.325659 0.353129 0.386523 0.415382 0.427442 0.411359 0.359521 0.270276 0.149028 0.007853 -0.136380 -0.265076 -0.361549 -0.414469 -0.420347 -0.384470 -0.320008 -0.245419 -0.180644 -0.142883 -0.142853 -0.182348 -0.253669 -0.341085 -0.424064 -0.481595 -0.496697 -0.460152 -0.372638 -0.244799 -0.095220 0.053269 0.178175 0.261821 0.294777 0.277506 0.219906 0.138859 0.054367 -0.014870 -0.055455 -0.061996 -0.037944 0.005588 0.052728 0.086785 0.094324 0.068455 0.010602 -0.069643 -0.156528 -0.231557 -0.277551 -0.282435 -0.241944 -0.160641 -0.051061 0.068825 0.179245 0.262574 0.306743 0.307401 0.268415 0.200652 0.119380 0.040881 -0.020961 -0.057362 -0.066101 -0.051475 -0.022841 0.007869 0.029062 0.032182 0.013608 -0.024618 -0.075332 -0.127870 -0.170384 -0.192316 -0.186505 -0.150540 -0.087105 -0.003367 0.090417 0.182715 0.262555 0.321059 0.352406 0.354185 0.327177 0.274764 0.202166 0.115739 0.022431 -0.070548 -0.155925 -0.226541 -0.275640 -0.297358 -0.287417 -0.243915 -0.168062 -0.064635 0.058040 0.188676 0.314198 0.421352 0.498520 0.537399 0.534259 0.490519 0.412508 0.310458 0.196889 0.084683 -0.014812 -0.093329 -0.146613 -0.174642 -0.181138 -0.172519 -0.156533 -0.140844 -0.131805 -0.133616 -0.147943 -0.173980 -0.208889 -0.248456 -0.287841 -0.322292 -0.347738 -0.361231 
hipp_sf_0008_SUB 0.103610 0.093012 0.073035 0.046104 0.015763 -0.013583 -0.037172 -0.050661 -0.051073 -0.037756 -0.013068 0.017446 0.045596 0.061830 0.057134 0.025201 -0.035591 -0.120891 -0.220191 -0.317962 -0.396042 -0.436918 -0.427291 -0.361187 -0.241916 -0.082345 0.096692 0.269658 0.410689 0.498247 0.519115 0.470926 0.362668 0.213041 0.046985 -0.108922 -0.231264 -0.303800 -0.319919 -0.283084 -0.205268 -0.103823 0.002448 0.097135 0.169114 0.213926 0.233456 0.234126 0.224199 0.210957 0.198529 0.186940 0.172601 0.150062 0.114497 0.064167 0.002111 -0.063540 -0.120825 -0.156611 -0.160044 -0.125935 -0.057167 0.034619 0.130411 0.207176 0.242559 0.219935 0.132696 -0.013294 -0.199726 -0.398541 -0.576842 -0.703102 -0.753368 -0.716184 -0.595133 -0.408417 -0.185522 0.038404 0.229279 0.360554 0.418082 0.402395 0.327962 0.219652 0.107187 0.018820 -0.024431 -0.012792 0.050789 0.151907 0.268319 0.375044 0.449777 0.477444 0.452978 0.381804 0.278083 0.161223 0.051539 -0.033952 -0.084683 -0.098057 -0.079128 -0.038700 0.009581 0.052390 0.079387 0.084845 0.068011 0.032283 -0.016384 -0.071332 -0.126741 -0.178502 -0.224244 -0.262690 -0.292648 -0.312128 -0.317970 -0.306241 -0.273361 -0.217703 -0.141170 -0.050217 0.044141 0.127542 0.184630 0.202111 0.171866 0.093352 -0.025347 -0.168224 -0.313802 -0.438927 -0.523151 -0.552766 -0.523601 -0.441908 -0.323094 -0.188526 -0.061074 0.039635 0.101199 0.120782 0.105280 0.069285 0.031332 0.009305 0.016066 0.056345 0.125605 0.211165 0.295294 0.359564 0.389401 0.377777 0.327121 0.248997 0.161594 0.085587 0.039349 0.034607 0.073581 0.148276 0.242110 0.333520 0.400719 0.426520 0.402129 0.329049 0.218678 0.089728 -0.035930 -0.138007 -0.202044 -0.222210 -0.202052 -0.153097 -0.091707 -0.034983 0.003271 0.015564 0.002040 -0.030162 -0.069265 -0.102270 -0.118545 -0.112646 -0.085657 -0.044742 -0.001025 0.033606 0.049930 0.044131 0.019083 -0.016187 -0.048799 -0.065508 -0.056534 -0.018711 0.042886 0.115379 0.180586 0.219095 0.215000 0.160178 0.057033 -0.081029 -0.231664 -0.367837 -0.463399 -0.498788 -0.465580 -0.368817 -0.226513 -0.066364 0.079719 0.182117 0.219661 0.184129 0.082082 -0.066362 -0.231591 -0.380529 -0.483371 -0.519587 -0.481947 -0.377731 -0.226912 -0.057759 0.099190 0.217447 0.279865 0.281806 0.231566 0.148062 0.056358 -0.017962 -0.054321 -0.041422 0.020610 0.120564 0.238810 0.351621 0.436164 0.475088 0.459766 0.391593 0.281178 0.145749 0.005428 -0.120749 -0.218225 -0.279049 -0.302415 -0.293648 -0.262034 -0.218103 -0.171052 -0.126901 -0.087747 -0.052196 -0.016730 0.022413 0.067409 0.117561 0.168901 0.214803 0.247421 0.259624 0.246925 0.208913 0.149855 0.078256 0.005491 -0.056243 -0.096197 -0.107092 -0.086481 -0.037164 0.033394 0.114499 0.194207 0.261420 0.307692 0.328395 0.323070 0.294961 0.249878 0.194706 0.135889 0.078233 0.024251 -0.025827 -0.073442 -0.120665 -0.169006 -0.218375 -0.266462 -0.308723 -0.339013 -0.350773 -0.338556 -0.299577 -0.234946 -0.150287 -0.055531 0.036179 0.110372 0.153649 0.156203 0.114009 0.030213 -0.084598 -0.213446 -0.335272 -0.428209 -0.473329 -0.458221 -0.379736 -0.245308 -0.072519 0.113197 0.282402 0.406495 0.462710 0.438381 0.333649 0.162021 -0.051402 -0.273838 -0.470209 -0.609070 -0.668001 -0.637445 -0.522259 -0.340660 -0.120763 0.104636 0.304013 0.452654 0.536700 0.554924 0.517946 0.445111 0.359735 0.283769 0.233027 0.213995 0.222879 0.247048 0.268503 0.268562 0.232663 0.154217 0.036599 -0.107145 -0.256827 -0.389287 -0.483281 -0.523960 -0.505942 -0.434291 -0.323214 -0.192774 -0.064439 0.043536 0.119788 0.161763 0.175446 0.173005 0.168959 0.175819 0.200301 0.241081 0.288676 0.327559 0.340046 0.311073 0.232704 0.107274 -0.051688 -0.221086 -0.372213 -0.476266 -0.510258 -0.462059 -0.333449 -0.140461 0.089116 0.320614 0.518757 0.654072 0.708119 0.676528 0.569254 0.408098 0.222069 0.041620 -0.107029 -0.206352 -0.249914 -0.242379 -0.197300 -0.133352 -0.069923 -0.023087 -0.002779 -0.011656 -0.045733 -0.096394 -0.153175 -0.206505 -0.249763 -0.280178 -0.298505 -0.307719 -0.311229 
hipp_sf_0009_ERC 0.024080 0.001583 -0.036843 -0.079439 -0.111768 -0.119898 -0.093660 -0.029353 0.068675 0.187950 0.309442 0.410594 0.469359 0.468553 0.399686 0.265506 0.080635 -0.129990 -0.334770 -0.500645 -0.598990 -0.611111 -0.532268 -0.373350 -0.159733 0.072641 0.283342 0.434652 0.498549 0.462109 0.330246 0.125160 -0.117493 -0.355043 -0.545651 -0.656070 -0.667771 -0.580244 -0.410803 -0.190934 0.040055 0.242803 0.385480 0.449642 0.433206 0.349953 0.225771 0.092492 -0.019301 -0.086905 -0.100133 -0.062975 0.008022 0.088247 0.151314 0.175681 0.150084 0.076504 -0.030010 -0.144668 -0.238661 -0.285999 -0.269905 -0.187295 -0.050258 0.115843 0.277328 0.399189 0.452606 0.421384 0.305883 0.123566 -0.094017 -0.307213 -0.476003 -0.567911 -0.564450 -0.464807 -0.286021 -0.059661 0.174301 0.375153 0.509092 0.555368 0.509752 0.384757 0.206683 0.010193 -0.168410 -0.297874 -0.357360 -0.339560 -0.251119 -0.110475 0.056270 0.220538 0.356444 0.445022 0.476793 0.452421 0.381501 0.279955 0.166636 0.059843 -0.025636 -0.080532 -0.101959 -0.093160 -0.062338 -0.020890 0.018636 0.044542 0.047720 0.022959 -0.030292 -0.107730 -0.200638 -0.296903 -0.382586 -0.443895 -0.469341 -0.451797 -0.390101 -0.289860 -0.163210 -0.027402 0.097651 0.192561 0.241841 0.236844 0.177664 0.073516 -0.058581 -0.196673 -0.317819 -0.402369 -0.437706 -0.420681 -0.358159 -0.265521 -0.163355 -0.073016 -0.011963 0.010115 -0.006493 -0.051492 -0.106806 -0.150625 -0.162420 -0.127852 -0.042472 0.086637 0.241701 0.397467 0.526172 0.603219 0.612391 0.549472 0.423479 0.255228 0.073496 -0.090447 -0.208796 -0.262475 -0.244609 -0.161559 -0.031352 0.120109 0.264223 0.375156 0.434507 0.434261 0.377556 0.277235 0.152641 0.025444 -0.084579 -0.162939 -0.202390 -0.203196 -0.171864 -0.118801 -0.055578 0.007546 0.063281 0.107899 0.140783 0.163254 0.177129 0.183510 0.182191 0.171826 0.150782 0.118351 0.075887 0.027429 -0.020492 -0.059932 -0.083311 -0.085467 -0.065448 -0.027511 0.019040 0.061285 0.085188 0.078670 0.034586 -0.047083 -0.158394 -0.284257 -0.404826 -0.499054 -0.548729 -0.542151 -0.476703 -0.359738 -0.207593 -0.042869 0.109467 0.226422 0.290913 0.294550 0.238791 0.134310 -0.001225 -0.146446 -0.279981 -0.383840 -0.445910 -0.461176 -0.431617 -0.364947 -0.272597 -0.167424 -0.061614 0.034879 0.115171 0.175584 0.215219 0.235229 0.238012 0.226544 0.203927 0.173155 0.137036 0.098152 0.058789 0.020800 -0.014538 -0.046623 -0.075454 -0.101351 -0.124475 -0.144257 -0.158914 -0.165242 -0.158871 -0.135026 -0.089730 -0.021223 0.068738 0.174082 0.284444 0.386171 0.464276 0.505040 0.498795 0.442284 0.340042 0.204386 0.053885 -0.089520 -0.204230 -0.272835 -0.285311 -0.240876 -0.148091 -0.023138 0.113387 0.240499 0.340837 0.403775 0.426999 0.416212 0.383067 0.341840 0.305631 0.282995 0.275805 0.278867 0.281373 0.269854 0.231929 0.159934 0.053533 -0.079352 -0.223586 -0.359649 -0.467643 -0.531583 -0.542966 -0.502809 -0.421626 -0.317343 -0.211577 -0.125106 -0.073543 -0.064186 -0.094733 -0.154139 -0.225401 -0.289589 -0.330203 -0.336839 -0.307331 -0.247917 -0.171432 -0.094002 -0.031065 0.006309 0.013920 -0.004835 -0.040152 -0.078606 -0.106827 -0.115123 -0.100147 -0.065916 -0.022894 0.014647 0.032379 0.019870 -0.026247 -0.100690 -0.189970 -0.274833 -0.334194 -0.349699 -0.309887 -0.213005 -0.067825 0.107743 0.289952 0.453717 0.577331 0.646399 0.656155 0.611736 0.526430 0.418375 0.306503 0.206671 0.128819 0.075722 0.043506 0.023672 0.006035 -0.018199 -0.053994 -0.101234 -0.154921 -0.206663 -0.247013 -0.268003 -0.265181 -0.238670 -0.192973 -0.135657 -0.075303 -0.019315 0.027794 0.065169 0.095229 0.122252 0.150350 0.181441 0.213840 0.241949 0.257244 0.250394 0.214022 0.145410 0.048412 -0.066040 -0.181116 -0.276828 -0.333850 -0.337585 -0.281597 -0.169566 -0.015270 0.159519 0.328828 0.467230 0.554537 0.579462 0.541482 0.450510 0.324495 0.185507 0.055174 -0.049509 -0.119116 -0.152883 -0.157819 -0.146132 -0.131678 -0.126307 -0.136994 -0.164398 -0.203136 -0.243632 -0.274990 -0.288148 -0.278466 -0.247109 -0.200880 -0.150560 -0.108203 -0.084082 
hipp_sf_0010_BA35 0.020921 0.006562 -0.018929 -0.049681 -0.078260 -0.097061 -0.099784 -0.082745 -0.045768 0.007515 0.070050 0.132417 0.184390 0.216775 0.223174 0.201362 0.153964 0.088266 0.015126 -0.052870 -0.103701 -0.128225 -0.122079 -0.086749 -0.029559 0.037490 0.099859 0.143217 0.156269 0.133125 0.074693 -0.011195 -0.111027 -0.207999 -0.285116 -0.328421 -0.329695 -0.288090 -0.210365 -0.109640 -0.002933 0.092056 0.160261 0.192001 0.184640 0.142817 0.077251 0.002381 -0.066631 -0.116916 -0.140295 -0.134592 -0.103627 -0.055965 -0.002725 0.045001 0.078556 0.093412 0.089804 0.072222 0.047929 0.024894 0.009677 0.005769 0.012787 0.026716 0.041107 0.048938 0.044664 0.025928 -0.005486 -0.043750 -0.080122 -0.104894 -0.109719 -0.089764 -0.045196 0.018390 0.090732 0.158744 0.209064 0.230782 0.217776 0.170145 0.094417 0.002488 -0.090528 -0.169095 -0.220137 -0.235448 -0.213134 -0.157854 -0.079806 0.007285 0.088774 0.151767 0.187356 0.192001 0.167849 0.121999 0.064901 0.008255 -0.037173 -0.063406 -0.066477 -0.046844 -0.009010 0.039523 0.089709 0.132538 0.160457 0.168440 0.154558 0.120061 0.068990 0.007477 -0.057171 -0.117438 -0.166510 -0.199057 -0.211806 -0.203885 -0.176902 -0.134762 -0.083208 -0.029140 0.020250 0.058426 0.080406 0.083492 0.067690 0.035729 -0.007339 -0.054929 -0.099973 -0.136056 -0.158429 -0.164717 -0.155194 -0.132555 -0.101274 -0.066652 -0.033787 -0.006659 0.012472 0.023250 0.026976 0.026025 0.023080 0.020387 0.019221 0.019678 0.020838 0.021225 0.019434 0.014723 0.007401 -0.001104 -0.008544 -0.012443 -0.010822 -0.002864 0.010679 0.027475 0.044033 0.056482 0.061531 0.057374 0.044306 0.024855 0.003382 -0.014813 -0.024678 -0.022623 -0.007474 0.019088 0.052734 0.087313 0.116152 0.133529 0.135981 0.123151 0.097940 0.065923 0.034137 0.009505 -0.002728 -0.000211 0.015969 0.041523 0.069959 0.094106 0.107807 0.107402 0.092623 0.066696 0.035605 0.006678 -0.013176 -0.019165 -0.009845 0.012415 0.041875 0.070669 0.090588 0.094994 0.080412 0.047433 0.000701 -0.052028 -0.101540 -0.139186 -0.158780 -0.157970 -0.138752 -0.107013 -0.071209 -0.040474 -0.022599 -0.022339 -0.040414 -0.073441 -0.114783 -0.156106 -0.189283 -0.208180 -0.209932 -0.195411 -0.168800 -0.136402 -0.104968 -0.079977 -0.064278 -0.057418 -0.055823 -0.053793 -0.045048 -0.024483 0.010320 0.058181 0.114232 0.170708 0.218433 0.248683 0.255021 0.234678 0.189201 0.124218 0.048384 -0.028247 -0.096080 -0.147655 -0.178797 -0.189052 -0.181321 -0.160860 -0.133889 -0.106145 -0.081718 -0.062390 -0.047609 -0.035026 -0.021453 -0.003957 0.019175 0.047825 0.079926 0.111844 0.139149 0.157582 0.164006 0.157114 0.137774 0.108946 0.075224 0.042100 0.015128 -0.000890 -0.002544 0.011762 0.041633 0.084739 0.137029 0.193104 0.246678 0.291157 0.320291 0.328914 0.313688 0.273781 0.211334 0.131590 0.042541 -0.045923 -0.123345 -0.180339 -0.210258 -0.210579 -0.183683 -0.136771 -0.080853 -0.028871 0.006707 0.016412 -0.004118 -0.052920 -0.121713 -0.197216 -0.263610 -0.305691 -0.312103 -0.277973 -0.206343 -0.108034 0.000115 0.098346 0.167841 0.194558 0.172242 0.103956 0.001764 -0.115429 -0.225483 -0.307343 -0.345222 -0.331757 -0.269487 -0.170327 -0.053154 0.060020 0.148471 0.196869 0.198224 0.155065 0.078639 -0.013662 -0.102067 -0.168564 -0.200515 -0.193004 -0.149452 -0.080432 -0.000991 0.072848 0.127640 0.155313 0.154621 0.130983 0.094804 0.058720 0.034441 0.029927 0.047548 0.083619 0.129380 0.173150 0.203134 0.210206 0.190019 0.143996 0.078975 0.005651 -0.063799 -0.118345 -0.150366 -0.157045 -0.140632 -0.107552 -0.066636 -0.026938 0.004328 0.023237 0.029677 0.026879 0.020116 0.014962 0.015582 0.023500 0.037173 0.052468 0.063908 0.066359 0.056695 0.035010 0.005027 -0.026435 -0.050830 -0.059791 -0.047125 -0.010425 0.048101 0.121782 0.200610 0.273085 0.328386 0.358374 0.359004 0.330853 0.278692 0.210234 0.134391 0.059466 -0.008318 -0.065619 -0.111988 -0.149163 -0.179873 -0.206537 -0.230201 -0.250026 -0.263447 -0.266962 -0.257321 -0.232786 -0.194106 -0.144910 -0.091385 -0.041279 -0.002441 0.018759 
hipp_sf_0011_BA36 0.004075 0.005303 0.007501 0.010197 0.012788 0.014663 0.015352 0.014678 0.012887 0.010716 0.009363 0.010341 0.015213 0.025246 0.041032 0.062166 0.087065 0.112989 0.136308 0.153000 0.159305 0.152431 0.131168 0.096276 0.050549 -0.001498 -0.054263 -0.101936 -0.139436 -0.163240 -0.171933 -0.166366 -0.149386 -0.125206 -0.098535 -0.073669 -0.053727 -0.040193 -0.032853 -0.030117 -0.029638 -0.029056 -0.026690 -0.021992 -0.015666 -0.009417 -0.005417 -0.005618 -0.011115 -0.021727 -0.035921 -0.051122 -0.064324 -0.072866 -0.075162 -0.071180 -0.062536 -0.052128 -0.043404 -0.039399 -0.041803 -0.050298 -0.062356 -0.073605 -0.078714 -0.072625 -0.051871 -0.015647 0.033616 0.090377 0.146818 0.194254 0.224844 0.233231 0.217752 0.180934 0.129128 0.071338 0.017475 -0.023616 -0.045919 -0.047426 -0.030477 -0.001167 0.032038 0.060183 0.075785 0.074458 0.055818 0.023507 -0.015683 -0.053370 -0.081469 -0.093975 -0.088252 -0.065535 -0.030559 0.009597 0.047144 0.075335 0.089902 0.089868 0.077550 0.057782 0.036561 0.019457 0.010186 0.009697 0.015988 0.024693 0.030302 0.027692 0.013598 -0.012353 -0.047313 -0.085679 -0.120271 -0.143940 -0.151239 -0.139744 -0.110723 -0.068968 -0.021829 0.022343 0.055978 0.073891 0.074329 0.059242 0.033693 0.004591 -0.020982 -0.037420 -0.041840 -0.034645 -0.019257 -0.001122 0.013769 0.020473 0.016388 0.001938 -0.019532 -0.042628 -0.061323 -0.070569 -0.067696 -0.053219 -0.030854 -0.006694 0.012276 0.019958 0.012809 -0.009054 -0.041584 -0.077500 -0.107805 -0.123828 -0.119307 -0.092046 -0.044725 0.015349 0.077544 0.130004 0.162107 0.166758 0.142000 0.091588 0.024378 -0.047349 -0.110285 -0.152709 -0.166773 -0.149969 -0.105507 -0.041513 0.030724 0.099089 0.153037 0.185551 0.194258 0.181518 0.153513 0.118592 0.085274 0.060367 0.047632 0.047226 0.056042 0.068770 0.079419 0.082893 0.076249 0.059347 0.034772 0.007070 -0.018470 -0.037185 -0.046198 -0.045099 -0.035993 -0.022908 -0.010748 -0.004044 -0.005830 -0.016914 -0.035709 -0.058674 -0.081215 -0.098831 -0.108207 -0.107985 -0.099022 -0.084088 -0.067091 -0.052026 -0.041935 -0.038133 -0.039903 -0.044740 -0.049076 -0.049306 -0.042839 -0.028918 -0.008980 0.013557 0.034023 0.047595 0.050494 0.040992 0.019981 -0.009058 -0.040677 -0.068564 -0.086870 -0.091458 -0.080798 -0.056301 -0.022007 0.016283 0.052244 0.080349 0.096971 0.101029 0.094044 0.079613 0.062437 0.047150 0.037229 0.034243 0.037596 0.044823 0.052338 0.056436 0.054292 0.044708 0.028415 0.007868 -0.013419 -0.031827 -0.044626 -0.050753 -0.051179 -0.048737 -0.047462 -0.051560 -0.064267 -0.086849 -0.118017 -0.153875 -0.188480 -0.214877 -0.226430 -0.218149 -0.187749 -0.136210 -0.067722 0.010966 0.091662 0.166082 0.227157 0.270053 0.292721 0.295903 0.282637 0.257414 0.225183 0.190437 0.156549 0.125484 0.097882 0.073451 0.051516 0.031563 0.013622 -0.001605 -0.012907 -0.018948 -0.018770 -0.012271 -0.000514 0.014218 0.028664 0.039071 0.041836 0.034173 0.014643 -0.016530 -0.057441 -0.104772 -0.154277 -0.201390 -0.241829 -0.272098 -0.289800 -0.293761 -0.283953 -0.261299 -0.227427 -0.184432 -0.134705 -0.080833 -0.025559 0.028249 0.077660 0.119807 0.152112 0.172559 0.179995 0.174370 0.156861 0.129826 0.096568 0.060932 0.026802 -0.002429 -0.024309 -0.037616 -0.042449 -0.040082 -0.032644 -0.022673 -0.012635 -0.004508 0.000506 0.002105 0.000826 -0.002160 -0.005336 -0.007160 -0.006353 -0.002103 0.005825 0.017080 0.030783 0.045651 0.060133 0.072558 0.081286 0.084853 0.082136 0.072509 0.056006 0.033447 0.006499 -0.022365 -0.050033 -0.073064 -0.088105 -0.092385 -0.084191 -0.063248 -0.030919 0.009820 0.054679 0.098561 0.136242 0.163088 0.175715 0.172466 0.153631 0.121372 0.079381 0.032320 -0.014837 -0.057469 -0.091856 -0.115546 -0.127506 -0.128059 -0.118657 -0.101554 -0.079459 -0.055212 -0.031542 -0.010897 0.004654 0.013489 0.014496 0.007148 -0.008403 -0.031243 -0.059652 -0.091143 -0.122610 -0.150604 -0.171703 -0.182934 -0.182183 -0.168501 -0.142267 -0.105142 -0.059847 -0.009767 0.041507 0.090651 0.134967 0.172606 0.202587 0.224662 0.239045 0.246105 
hipp_sf_0012_PHC 0.160944 0.144978 0.116096 0.079744 0.042620 0.011277 -0.009220 -0.016271 -0.010154 0.006216 0.028117 0.050242 0.068023 0.078745 0.082185 0.080612 0.078144 0.079588 0.089041 0.108558 0.137222 0.170851 0.202458 0.223388 0.224951 0.200211 0.145563 0.061781 -0.045706 -0.167390 -0.290999 -0.403324 -0.492201 -0.548286 -0.566291 -0.545494 -0.489462 -0.405105 -0.301313 -0.187472 -0.072190 0.037546 0.136656 0.221736 0.290472 0.340934 0.371044 0.378398 0.360572 0.315857 0.244256 0.148451 0.034448 -0.088375 -0.207958 -0.310975 -0.384779 -0.419538 -0.410147 -0.357509 -0.268849 -0.156955 -0.038378 0.069104 0.149338 0.190447 0.186785 0.139852 0.057975 -0.045158 -0.152840 -0.248128 -0.316545 -0.348229 -0.339170 -0.291379 -0.212027 -0.111805 -0.002868 0.103202 0.197048 0.272531 0.326971 0.360699 0.376132 0.376651 0.365584 0.345512 0.318035 0.283976 0.243903 0.198767 0.150445 0.101996 0.057550 0.021821 -0.000635 -0.006243 0.006857 0.038359 0.085702 0.144344 0.208339 0.271080 0.326042 0.367410 0.390512 0.392039 0.370111 0.324267 0.255470 0.166155 0.060335 -0.056338 -0.176644 -0.292132 -0.393788 -0.473029 -0.522912 -0.539361 -0.522139 -0.475311 -0.407003 -0.328381 -0.251957 -0.189494 -0.149873 -0.137387 -0.150832 -0.183657 -0.225199 -0.262823 -0.284552 -0.281651 -0.250618 -0.194102 -0.120542 -0.042516 0.025850 0.071897 0.087211 0.069555 0.023489 -0.040477 -0.108056 -0.164230 -0.196489 -0.197571 -0.167043 -0.111371 -0.042422 0.025283 0.077970 0.105883 0.105688 0.081419 0.043725 0.007532 -0.011368 -0.000082 0.048148 0.131951 0.241580 0.360508 0.468554 0.545894 0.577095 0.554307 0.478921 0.361335 0.218896 0.072466 -0.057616 -0.155316 -0.211609 -0.225574 -0.203698 -0.157635 -0.101007 -0.046045 -0.000870 0.031949 0.055262 0.075710 0.101083 0.137372 0.186316 0.244129 0.301793 0.346911 0.366713 0.351499 0.297650 0.209406 0.098879 -0.015853 -0.114229 -0.177577 -0.193395 -0.158557 -0.080645 0.022994 0.128382 0.209653 0.244438 0.218759 0.130353 -0.010335 -0.181765 -0.355267 -0.500566 -0.591769 -0.612560 -0.559543 -0.443026 -0.285068 -0.115208 0.035281 0.139420 0.179621 0.150860 0.061308 -0.069637 -0.215450 -0.347837 -0.442229 -0.482314 -0.462749 -0.389580 -0.278406 -0.150773 -0.029604 0.065345 0.121117 0.133584 0.107580 0.055251 -0.006925 -0.061750 -0.094768 -0.096904 -0.065812 -0.005799 0.073545 0.159590 0.239254 0.301387 0.338487 0.347519 0.329775 0.289960 0.234792 0.171492 0.106479 0.044510 -0.011649 -0.061050 -0.104048 -0.141615 -0.174693 -0.203721 -0.228403 -0.247719 -0.260113 -0.263780 -0.256965 -0.238231 -0.206660 -0.162019 -0.104882 -0.036744 0.039909 0.121596 0.203964 0.282084 0.350923 0.405960 0.443858 0.463050 0.464096 0.449689 0.424264 0.393226 0.361955 0.334762 0.314048 0.299862 0.289994 0.280585 0.267142 0.245726 0.213995 0.171871 0.121599 0.067206 0.013442 -0.035505 -0.077174 -0.111560 -0.141136 -0.170115 -0.203093 -0.243378 -0.291468 -0.344110 -0.394306 -0.432385 -0.448022 -0.432807 -0.382785 -0.300328 -0.194775 -0.081546 0.020277 0.091495 0.116791 0.088320 0.008051 -0.111778 -0.250337 -0.381823 -0.480377 -0.525320 -0.505626 -0.422612 -0.290206 -0.132611 0.020254 0.138647 0.199058 0.189148 0.110516 -0.021326 -0.179819 -0.332511 -0.447438 -0.499437 -0.475056 -0.375076 -0.214123 -0.017492 0.184105 0.360727 0.489011 0.556370 0.562763 0.519717 0.446947 0.367386 0.301788 0.264127 0.258780 0.280061 0.314112 0.342637 0.347532 0.315339 0.240487 0.126636 -0.014107 -0.163826 -0.302596 -0.412501 -0.480943 -0.502532 -0.479218 -0.418797 -0.332317 -0.231160 -0.124611 -0.018533 0.084536 0.184027 0.279226 0.367157 0.441247 0.491355 0.505390 0.472254 0.385459 0.246457 0.066695 -0.132374 -0.321671 -0.469037 -0.545167 -0.529738 -0.416381 -0.215288 0.047307 0.332909 0.597211 0.798027 0.903130 0.896380 0.780835 0.578148 0.324315 0.062626 -0.164749 -0.324780 -0.399568 -0.389071 -0.310081 -0.191745 -0.068678 0.026761 0.071343 0.055496 -0.015414 -0.123248 -0.242057 -0.344645 -0.409123 -0.423958 -0.390340 -0.321400 -0.238524 -0.165725 -0.123468 
