13 420
hipp_sf_0000_BG 0.027083 0.026186 0.024164 0.020673 0.015422 0.008368 -0.000134 -0.009291 -0.017954 -0.024830 -0.028768 -0.029066 -0.025699 -0.019425 -0.011707 -0.004456 0.000353 0.001119 -0.002988 -0.011771 -0.023966 -0.037426 -0.049512 -0.057623 -0.059733 -0.054843 -0.043229 -0.026427 -0.006960 0.012157 0.028021 0.038428 0.042327 0.040023 0.033105 0.024090 0.015871 0.011090 0.011549 0.017818 0.029088 0.043339 0.057750 0.069291 0.075360 0.074318 0.065840 0.050973 0.031922 0.011605 -0.006940 -0.021142 -0.029386 -0.031278 -0.027660 -0.020374 -0.011829 -0.004480 -0.000326 -0.000531 -0.005237 -0.013609 -0.024066 -0.034659 -0.043486 -0.049067 -0.050599 -0.048034 -0.042008 -0.033621 -0.024154 -0.014790 -0.006400 0.000567 0.006058 0.010304 0.013642 0.016340 0.018479 0.019913 0.020334 0.019411 0.016952 0.013062 0.008218 0.003249 -0.000800 -0.002882 -0.002202 0.001553 0.008067 0.016376 0.024999 0.032193 0.036287 0.036030 0.030883 0.021173 0.008091 -0.006492 -0.020343 -0.031274 -0.037546 -0.038199 -0.033239 -0.023645 -0.011190 0.001874 0.013233 0.020916 0.023644 0.021039 0.013662 0.002893 -0.009343 -0.020924 -0.029906 -0.034844 -0.035011 -0.030481 -0.022080 -0.011202 0.000447 0.011138 0.019393 0.024192 0.025094 0.022254 0.016349 0.008426 -0.000287 -0.008582 -0.015454 -0.020231 -0.022652 -0.022866 -0.021374 -0.018923 -0.016357 -0.014459 -0.013815 -0.014692 -0.016989 -0.020230 -0.023642 -0.026269 -0.027148 -0.025475 -0.020781 -0.013039 -0.002715 0.009266 0.021643 0.032999 0.041990 0.047558 0.049119 0.046660 0.040751 0.032445 0.023105 0.014164 0.006889 0.002168 0.000384 0.001377 0.004518 0.008866 0.013372 0.017105 0.019424 0.020090 0.019277 0.017489 0.015412 0.013719 0.012896 0.013105 0.014140 0.015464 0.016334 0.015981 0.013801 0.009522 0.003295 -0.004297 -0.012326 -0.019692 -0.025324 -0.028398 -0.028497 -0.025708 -0.020609 -0.014171 -0.007586 -0.002051 0.001442 0.002271 0.000277 -0.004227 -0.010538 -0.017699 -0.024683 -0.030559 -0.034637 -0.036548 -0.036265 -0.034057 -0.030400 -0.025863 -0.021007 -0.016291 -0.012032 -0.008389 -0.005394 -0.002991 -0.001089 0.000401 0.001545 0.002386 0.002964 0.003342 0.003627 0.003983 0.004614 0.005740 0.007544 0.010124 0.013448 0.017328 0.021428 0.025293 0.028411 0.030291 0.030542 0.028947 0.025510 0.020466 0.014261 0.007496 0.000843 -0.005044 -0.009624 -0.012540 -0.013664 -0.013108 -0.011199 -0.008415 -0.005313 -0.002435 -0.000223 0.001041 0.001270 0.000577 -0.000761 -0.002368 -0.003843 -0.004842 -0.005146 -0.004701 -0.003621 -0.002164 -0.000671 0.000518 0.001136 0.001059 0.000342 -0.000788 -0.001974 -0.002805 -0.002906 -0.002030 -0.000122 0.002652 0.005932 0.009220 0.011986 0.013770 0.014290 0.013495 0.011589 0.008985 0.006222 0.003845 0.002292 0.001792 0.002318 0.003597 0.005170 0.006503 0.007111 0.006671 0.005099 0.002569 -0.000534 -0.003707 -0.006454 -0.008412 -0.009439 -0.009646 -0.009366 -0.009059 -0.009174 -0.010013 -0.011620 -0.013734 -0.015820 -0.017178 -0.017106 -0.015085 -0.010940 -0.004933 0.002232 0.009513 0.015714 0.019722 0.020745 0.018492 0.013261 0.005906 -0.002316 -0.009985 -0.015797 -0.018827 -0.018709 -0.015699 -0.010613 -0.004636 0.000941 0.005003 0.006848 0.006332 0.003871 0.000331 -0.003198 -0.005671 -0.006345 -0.004958 -0.001795 0.002384 0.006530 0.009561 0.010632 0.009347 0.005864 0.000866 -0.004592 -0.009342 -0.012376 -0.013105 -0.011504 -0.008131 -0.004006 -0.000364 0.001637 0.001212 -0.001845 -0.007087 -0.013492 -0.019682 -0.024228 -0.025989 -0.024375 -0.019505 -0.012192 -0.003778 0.004162 0.010175 0.013256 0.013080 0.010078 0.005344 0.000386 -0.003216 -0.004166 -0.001749 0.004008 0.012346 0.021945 0.031226 0.038694 0.043267 0.044489 0.042596 0.038416 0.033131 0.027964 0.023873 0.021321 0.020187 0.019838 0.019339 0.017746 0.014418 0.009236 0.002698 -0.004167 -0.010038 -0.013646 -0.014137 -0.011363 -0.006016 0.000442 0.006050 0.008774 0.006993 -0.000062 -0.012023 -0.027339 -0.043486 -0.057424 -0.066185 -0.067508 -0.060357 -0.045219 -0.024108 -0.000258 0.022446 0.040175 0.049883 
hipp_sf_0001_CA1 -0.020920 -0.009962 0.009784 0.034424 0.059147 0.079191 0.090784 0.091836 0.082254 0.063813 0.039640 0.013437 -0.011370 -0.032343 -0.048460 -0.060156 -0.068988 -0.077020 -0.086085 -0.097134 -0.109822 -0.122452 -0.132307 -0.136284 -0.131692 -0.117008 -0.092417 -0.059978 -0.023366 0.012769 0.043708 0.065618 0.076365 0.075993 0.066742 0.052621 0.038588 0.029533 0.029257 0.039684 0.060442 0.088917 0.120755 0.150688 0.173524 0.185078 0.182869 0.166457 0.137374 0.098702 0.054414 0.008643 -0.034947 -0.073590 -0.105548 -0.129995 -0.146706 -0.155696 -0.156925 -0.150189 -0.135212 -0.111945 -0.080959 -0.043811 -0.003253 0.036841 0.071848 0.097047 0.108439 0.103554 0.082088 0.046181 0.000272 -0.049498 -0.096232 -0.133403 -0.155959 -0.161172 -0.149072 -0.122385 -0.085967 -0.045873 -0.008226 0.021872 0.041194 0.048838 0.046215 0.036594 0.024332 0.013953 0.009277 0.012762 0.025168 0.045585 0.071758 0.100613 0.128844 0.153421 0.171922 0.182671 0.184670 0.177441 0.160844 0.134978 0.100213 0.057352 0.007879 -0.045819 -0.100367 -0.151526 -0.194595 -0.225045 -0.239286 -0.235420 -0.213797 -0.177216 -0.130680 -0.080699 -0.034235 0.002517 0.025284 0.032552 0.025893 0.009692 -0.009712 -0.025313 -0.030906 -0.022441 0.001033 0.037035 0.080022 0.122412 0.156061 0.173902 0.171410 0.147591 0.105284 0.050698 -0.007721 -0.060873 -0.100720 -0.121780 -0.122110 -0.103567 -0.071323 -0.032726 0.004241 0.032570 0.047590 0.047794 0.034979 0.013680 -0.009948 -0.029560 -0.040038 -0.038607 -0.025395 -0.003349 0.022470 0.046047 0.061765 0.065654 0.056275 0.035039 0.005929 -0.025336 -0.052481 -0.069965 -0.074089 -0.063714 -0.040438 -0.008218 0.027461 0.060693 0.086285 0.100684 0.102531 0.092735 0.074088 0.050533 0.026268 0.004876 -0.011321 -0.021571 -0.026611 -0.028264 -0.028808 -0.030298 -0.033996 -0.040049 -0.047463 -0.054392 -0.058639 -0.058257 -0.052099 -0.040184 -0.023793 -0.005275 0.012397 0.026225 0.033799 0.033807 0.026321 0.012810 -0.004127 -0.021242 -0.035245 -0.043416 -0.044095 -0.036984 -0.023196 -0.005067 0.014238 0.031230 0.042642 0.045919 0.039588 0.023468 -0.001298 -0.032365 -0.066449 -0.099671 -0.127969 -0.147519 -0.155143 -0.148670 -0.127229 -0.091427 -0.043407 0.013265 0.073871 0.132980 0.185018 0.224903 0.248685 0.254072 0.240787 0.210653 0.167402 0.116199 0.062951 0.013490 -0.027232 -0.055821 -0.070869 -0.073075 -0.065021 -0.050667 -0.034627 -0.021372 -0.014486 -0.016092 -0.026557 -0.044489 -0.067036 -0.090411 -0.110548 -0.123769 -0.127363 -0.119982 -0.101806 -0.074477 -0.040817 -0.004412 0.030889 0.061465 0.084348 0.097541 0.100189 0.092625 0.076274 0.053463 0.027147 0.000578 -0.023049 -0.040943 -0.051043 -0.052276 -0.044710 -0.029595 -0.009249 0.013211 0.034256 0.050434 0.058882 0.057787 0.046719 0.026773 0.000473 -0.028548 -0.056077 -0.077955 -0.090740 -0.092268 -0.082031 -0.061287 -0.032887 -0.000841 0.030307 0.056194 0.073316 0.079559 0.074493 0.059394 0.036984 0.010947 -0.014679 -0.036149 -0.050567 -0.056278 -0.053032 -0.041922 -0.025108 -0.005401 0.014217 0.031047 0.043043 0.049031 0.048768 0.042854 0.032523 0.019373 0.005077 -0.008858 -0.021261 -0.031377 -0.038854 -0.043650 -0.045905 -0.045793 -0.043398 -0.038639 -0.031263 -0.020904 -0.007213 0.009979 0.030482 0.053587 0.077971 0.101701 0.122340 0.137182 0.143587 0.139384 0.123281 0.095225 0.056632 0.010420 -0.039168 -0.086979 -0.127560 -0.155880 -0.168085 -0.162138 -0.138252 -0.099023 -0.049209 0.004824 0.055933 0.097183 0.122836 0.129195 0.115165 0.082427 0.035210 -0.020321 -0.076951 -0.127445 -0.165547 -0.186800 -0.189079 -0.172743 -0.140430 -0.096546 -0.046539 0.003897 0.049565 0.086359 0.111618 0.124251 0.124627 0.114313 0.095710 0.071673 0.045176 0.019041 -0.004254 -0.022699 -0.034835 -0.039815 -0.037456 -0.028274 -0.013480 0.005082 0.025085 0.043968 0.059259 0.068939 0.071781 0.067602 0.057348 0.042991 0.027222 0.012976 0.002881 -0.001278 0.001036 0.008924 0.020148 0.031495 0.039366 0.040485 0.032575 0.014896 -0.011502 -0.043850 -0.078069 -0.109432 -0.133385 -0.146346 
hipp_sf_0002_CA2 -0.044788 -0.018598 0.028247 0.085883 0.142252 0.185671 0.207256 0.202643 0.172647 0.122730 0.061456 -0.001673 -0.058444 -0.103683 -0.136100 -0.158049 -0.174288 -0.190088 -0.209216 -0.232337 -0.256308 -0.274592 -0.278766 -0.260777 -0.215404 -0.142323 -0.047177 0.058684 0.159855 0.239655 0.283471 0.281961 0.233380 0.144479 0.029691 -0.091282 -0.197065 -0.268643 -0.293028 -0.265784 -0.191871 -0.084628 0.036911 0.151811 0.241340 0.292561 0.300651 0.269502 0.210514 0.139879 0.074950 0.030506 0.015697 0.032305 0.074648 0.131106 0.186886 0.227390 0.241442 0.223673 0.175573 0.105021 0.024447 -0.051937 -0.111211 -0.144426 -0.148348 -0.125899 -0.085251 -0.037836 0.004278 0.031022 0.036406 0.019616 -0.015093 -0.059609 -0.103979 -0.138751 -0.157088 -0.156209 -0.137849 -0.107673 -0.073813 -0.044886 -0.027961 -0.026927 -0.041619 -0.067885 -0.098553 -0.125064 -0.139407 -0.135913 -0.112548 -0.071407 -0.018347 0.038157 0.088692 0.124738 0.140314 0.133087 0.104760 0.060696 0.008864 -0.041637 -0.082207 -0.106189 -0.109906 -0.093107 -0.058802 -0.012559 0.038577 0.087311 0.127267 0.153886 0.164950 0.160675 0.143408 0.117019 0.086118 0.055247 0.028169 0.007362 -0.006225 -0.013138 -0.015138 -0.014729 -0.014599 -0.017047 -0.023510 -0.034264 -0.048350 -0.063738 -0.077720 -0.087447 -0.090525 -0.085565 -0.072561 -0.053018 -0.029788 -0.006617 0.012520 0.024174 0.026140 0.017961 0.001130 -0.021086 -0.044180 -0.063204 -0.073692 -0.072517 -0.058514 -0.032739 0.001700 0.040201 0.077511 0.108672 0.129879 0.139074 0.136160 0.122806 0.101900 0.076805 0.050587 0.025418 0.002288 -0.018912 -0.038960 -0.058658 -0.078161 -0.096464 -0.111238 -0.119089 -0.116230 -0.099436 -0.067086 -0.020011 0.038054 0.100606 0.159131 0.204394 0.228058 0.224319 0.191238 0.131472 0.052225 -0.035632 -0.119146 -0.185328 -0.223291 -0.226114 -0.192095 -0.125151 -0.034309 0.067635 0.166061 0.246735 0.297913 0.312013 0.286591 0.224507 0.133300 0.023916 -0.090970 -0.198743 -0.288489 -0.352245 -0.385722 -0.388457 -0.363435 -0.316295 -0.254289 -0.185158 -0.116090 -0.052885 0.000584 0.042580 0.073394 0.094958 0.110246 0.122578 0.134911 0.149230 0.166135 0.184689 0.202554 0.216414 0.222619 0.217929 0.200250 0.169197 0.126366 0.075245 0.020754 -0.031526 -0.076287 -0.109425 -0.128757 -0.134389 -0.128620 -0.115401 -0.099445 -0.085171 -0.075710 -0.072213 -0.073612 -0.076928 -0.078055 -0.072880 -0.058477 -0.034085 -0.001638 0.034319 0.067366 0.090456 0.097436 0.084516 0.051344 0.001428 -0.058230 -0.118265 -0.168625 -0.200480 -0.207958 -0.189328 -0.147394 -0.088960 -0.023501 0.038723 0.088684 0.120334 0.131694 0.125057 0.106271 0.083265 0.064156 0.055357 0.060126 0.077871 0.104375 0.132880 0.155783 0.166525 0.161261 0.139872 0.106101 0.066743 0.030071 0.003848 -0.006597 0.000204 0.021315 0.049877 0.076560 0.091670 0.087484 0.060255 0.011441 -0.052174 -0.119528 -0.177347 -0.212808 -0.216260 -0.183437 -0.116676 -0.024855 0.077967 0.174971 0.249593 0.288544 0.284251 0.236240 0.151200 0.041724 -0.075996 -0.185080 -0.270895 -0.323464 -0.338925 -0.319789 -0.274041 -0.213287 -0.150382 -0.096999 -0.061625 -0.048300 -0.056305 -0.080751 -0.113881 -0.146766 -0.171028 -0.180270 -0.170967 -0.142730 -0.097980 -0.041191 0.022086 0.086193 0.146128 0.198017 0.239268 0.268458 0.285094 0.289331 0.281774 0.263393 0.235546 0.200044 0.159191 0.115715 0.072562 0.032557 -0.001994 -0.029672 -0.050167 -0.064287 -0.073711 -0.080540 -0.086725 -0.093525 -0.101125 -0.108542 -0.113852 -0.114709 -0.109044 -0.095775 -0.075332 -0.049845 -0.022914 0.001043 0.017729 0.024003 0.018769 0.003481 -0.017886 -0.039450 -0.054545 -0.057133 -0.043221 -0.011968 0.033789 0.087753 0.141140 0.184251 0.208364 0.207557 0.180088 0.129029 0.061964 -0.010218 -0.075238 -0.121695 -0.141257 -0.130318 -0.090791 -0.029848 0.041366 0.109814 0.163046 0.191593 0.190801 0.161733 0.110944 0.049164 -0.010863 -0.056966 -0.080046 -0.075982 -0.046567 0.000745 0.054233 0.100193 0.125674 0.121128 0.082451 0.012012 -0.081553 -0.184764 -0.281669 -0.356723 -0.397635 
hipp_sf_0003_DG -0.053523 -0.043513 -0.024893 -0.000267 0.026914 0.052822 0.073764 0.086657 0.089408 0.081153 0.062321 0.034540 0.000400 -0.036882 -0.073846 -0.107174 -0.134025 -0.152298 -0.160791 -0.159258 -0.148358 -0.129514 -0.104706 -0.076212 -0.046338 -0.017168 0.009638 0.032974 0.052317 0.067666 0.079387 0.088013 0.094020 0.097648 0.098797 0.097046 0.091786 0.082466 0.068885 0.051479 0.031504 0.011072 -0.007032 -0.019721 -0.024144 -0.018295 -0.001559 0.024902 0.058065 0.093291 0.124921 0.147141 0.154978 0.145257 0.117322 0.073375 0.018329 -0.040829 -0.096084 -0.139676 -0.165403 -0.169698 -0.152287 -0.116285 -0.067705 -0.014457 0.034993 0.073050 0.094255 0.096158 0.079637 0.048617 0.009256 -0.031247 -0.065975 -0.089523 -0.098875 -0.093819 -0.076803 -0.052318 -0.025932 -0.003180 0.011468 0.015378 0.008125 -0.008560 -0.031241 -0.055498 -0.076757 -0.091076 -0.095736 -0.089558 -0.072922 -0.047532 -0.016018 0.018532 0.052997 0.084544 0.110812 0.129974 0.140718 0.142213 0.134095 0.116512 0.090216 0.056660 0.018051 -0.022703 -0.062195 -0.096857 -0.123420 -0.139397 -0.143506 -0.135928 -0.118325 -0.093592 -0.065374 -0.037420 -0.012908 0.006128 0.019140 0.027107 0.032244 0.037446 0.045570 0.058710 0.077615 0.101392 0.127548 0.152385 0.171666 0.181422 0.178737 0.162344 0.132927 0.093046 0.046724 -0.001225 -0.046000 -0.083564 -0.111230 -0.127948 -0.134273 -0.132045 -0.123855 -0.112438 -0.100123 -0.088449 -0.078014 -0.068569 -0.059304 -0.049246 -0.037650 -0.024297 -0.009616 0.005373 0.019284 0.030681 0.038408 0.041838 0.040978 0.036418 0.029140 0.020239 0.010648 0.000939 -0.008741 -0.018569 -0.028816 -0.039544 -0.050322 -0.060043 -0.066934 -0.068762 -0.063238 -0.048541 -0.023848 0.010232 0.051457 0.096031 0.138998 0.174892 0.198560 0.205992 0.195041 0.165866 0.121033 0.065232 0.004657 -0.053853 -0.103780 -0.139830 -0.158637 -0.159165 -0.142749 -0.112794 -0.074181 -0.032509 0.006720 0.038837 0.060563 0.070314 0.068250 0.056066 0.036592 0.013280 -0.010343 -0.031173 -0.046914 -0.056309 -0.059206 -0.056453 -0.049670 -0.040921 -0.032343 -0.025791 -0.022538 -0.023074 -0.027034 -0.033262 -0.039997 -0.045166 -0.046724 -0.043008 -0.033025 -0.016647 0.005333 0.031293 0.059001 0.085937 0.109644 0.128061 0.139770 0.144127 0.141241 0.131834 0.117018 0.098023 0.075974 0.051736 0.025875 -0.001257 -0.029365 -0.057997 -0.086373 -0.113286 -0.137131 -0.156068 -0.168299 -0.172399 -0.167631 -0.154167 -0.133163 -0.106635 -0.077179 -0.047545 -0.020185 0.003159 0.021724 0.035791 0.046531 0.055647 0.064904 0.075631 0.088317 0.102394 0.116264 0.127571 0.133687 0.132292 0.121943 0.102501 0.075317 0.043123 0.009637 -0.021053 -0.045210 -0.060132 -0.064665 -0.059442 -0.046779 -0.030271 -0.014122 -0.002371 0.001868 -0.003004 -0.016756 -0.037354 -0.061299 -0.084244 -0.101742 -0.110009 -0.106565 -0.090638 -0.063273 -0.027152 0.013846 0.055246 0.092627 0.122223 0.141374 0.148779 0.144525 0.129932 0.107241 0.079234 0.048852 0.018850 -0.008453 -0.031321 -0.048656 -0.059981 -0.065369 -0.065351 -0.060819 -0.052928 -0.043001 -0.032434 -0.022590 -0.014687 -0.009687 -0.008197 -0.010394 -0.016003 -0.024320 -0.034301 -0.044690 -0.054174 -0.061547 -0.065842 -0.066427 -0.063042 -0.055782 -0.045041 -0.031434 -0.015715 0.001286 0.018696 0.035607 0.051071 0.064098 0.073679 0.078850 0.078804 0.073036 0.061503 0.044767 0.024070 0.001324 -0.021016 -0.040196 -0.053504 -0.058657 -0.054187 -0.039753 -0.016327 0.013806 0.047232 0.079782 0.107046 0.124961 0.130395 0.121629 0.098676 0.063371 0.019213 -0.029028 -0.075890 -0.115918 -0.144368 -0.157849 -0.154783 -0.135635 -0.102874 -0.060665 -0.014327 0.030356 0.067896 0.093819 0.105248 0.101261 0.082990 0.053439 0.017042 -0.020956 -0.055230 -0.081101 -0.095148 -0.095649 -0.082753 -0.058401 -0.025988 0.010167 0.045467 0.075686 0.097551 0.109148 0.110113 0.101587 0.085945 0.066355 0.046238 0.028720 0.016151 0.009775 0.009582 0.014364 0.021963 0.029652 0.034604 0.034359 0.027232 0.012595 -0.008999 -0.035879 -0.065465 -0.094626 -0.120104 -0.138961 -0.148984 
hipp_sf_0004_CA3 0.133836 0.119458 0.091754 0.052873 0.006110 -0.044151 -0.092686 -0.133928 -0.162701 -0.175085 -0.169255 -0.146080 -0.109293 -0.065119 -0.021346 0.014040 0.034410 0.035921 0.018499 -0.013892 -0.053813 -0.091690 -0.117720 -0.123957 -0.106143 -0.064878 -0.005827 0.061139 0.123755 0.169782 0.189576 0.178253 0.136987 0.073128 -0.000943 -0.070022 -0.118965 -0.135657 -0.113494 -0.052853 0.038756 0.147910 0.257641 0.350487 0.411651 0.431632 0.407841 0.344895 0.253559 0.148584 0.045879 -0.040399 -0.100286 -0.129505 -0.129792 -0.108036 -0.074489 -0.040439 -0.015878 -0.007618 -0.018215 -0.045874 -0.085270 -0.129043 -0.169601 -0.200800 -0.219151 -0.224303 -0.218760 -0.206928 -0.193776 -0.183437 -0.178092 -0.177407 -0.178631 -0.177346 -0.168658 -0.148564 -0.115167 -0.069442 -0.015371 0.040605 0.090720 0.127378 0.144709 0.139858 0.113756 0.071187 0.020147 -0.029419 -0.067264 -0.084587 -0.075564 -0.038412 0.024198 0.105449 0.195318 0.282024 0.353710 0.400122 0.414023 0.392151 0.335600 0.249600 0.142760 0.025900 -0.089347 -0.191959 -0.272802 -0.325594 -0.347456 -0.339012 -0.304055 -0.248843 -0.181155 -0.109229 -0.040737 0.018079 0.063002 0.092122 0.105782 0.106230 0.097063 0.082544 0.066919 0.053831 0.045894 0.044482 0.049721 0.060660 0.075554 0.092206 0.108288 0.121604 0.130278 0.132850 0.128327 0.116186 0.096395 0.069430 0.036311 -0.001363 -0.041431 -0.081247 -0.117850 -0.148237 -0.169699 -0.180188 -0.178651 -0.165261 -0.141484 -0.109974 -0.074273 -0.038371 -0.006191 0.018924 0.034631 0.039850 0.034834 0.021040 0.000844 -0.022853 -0.047041 -0.068974 -0.086445 -0.097942 -0.102667 -0.100470 -0.091712 -0.077122 -0.057664 -0.034462 -0.008751 0.018129 0.044738 0.069556 0.091037 0.107694 0.118226 0.121633 0.117341 0.105274 0.085900 0.060220 0.029735 -0.003620 -0.037551 -0.069494 -0.096727 -0.116523 -0.126350 -0.124146 -0.108626 -0.079618 -0.038339 0.012447 0.068469 0.124237 0.173586 0.210438 0.229682 0.228029 0.204681 0.161663 0.103714 0.037714 -0.028305 -0.086393 -0.129970 -0.154905 -0.160192 -0.148064 -0.123496 -0.093198 -0.064266 -0.042759 -0.032500 -0.034334 -0.046014 -0.062728 -0.078188 -0.086018 -0.081177 -0.061103 -0.026320 0.019604 0.070754 0.120060 0.160724 0.187572 0.198039 0.192565 0.174334 0.148427 0.120584 0.095869 0.077553 0.066461 0.060942 0.057449 0.051593 0.039414 0.018548 -0.010982 -0.046557 -0.083407 -0.115597 -0.137354 -0.144417 -0.135094 -0.110789 -0.075841 -0.036731 -0.000800 0.025222 0.036555 0.031289 0.010668 -0.021292 -0.058767 -0.095435 -0.125826 -0.146402 -0.156139 -0.156477 -0.150697 -0.142880 -0.136717 -0.134475 -0.136363 -0.140457 -0.143179 -0.140228 -0.127710 -0.103189 -0.066414 -0.019528 0.033276 0.086570 0.134767 0.173211 0.199003 0.211394 0.211655 0.202497 0.187206 0.168737 0.149027 0.128695 0.107219 0.083528 0.056826 0.027411 -0.002791 -0.030159 -0.049870 -0.056870 -0.047139 -0.018927 0.026347 0.083799 0.145535 0.201812 0.242717 0.260022 0.248816 0.208565 0.143334 0.061114 -0.027629 -0.111872 -0.182028 -0.231565 -0.257941 -0.262643 -0.250378 -0.227614 -0.200857 -0.175069 -0.152624 -0.133031 -0.113481 -0.090063 -0.059314 -0.019685 0.027472 0.077702 0.124113 0.158799 0.174693 0.167409 0.136608 0.086519 0.025428 -0.035811 -0.085936 -0.115663 -0.119742 -0.098208 -0.056506 -0.004430 0.045941 0.082854 0.097482 0.085936 0.050213 -0.002131 -0.059542 -0.108933 -0.138504 -0.140318 -0.112038 -0.057476 0.014198 0.090379 0.157661 0.204584 0.223896 0.213819 0.178086 0.124755 0.064113 0.006199 -0.041477 -0.075468 -0.096819 -0.110308 -0.122705 -0.140481 -0.167570 -0.203742 -0.244057 -0.279562 -0.299156 -0.292204 -0.251337 -0.174754 -0.067485 0.058779 0.187314 0.299200 0.376814 0.407285 0.385180 0.313858 0.205176 0.077561 -0.047197 -0.147811 -0.207303 -0.216002 -0.173180 -0.087044 0.026895 0.148713 0.257666 0.335795 0.370871 0.358196 0.300984 0.209348 0.098157 -0.015768 -0.116569 -0.191864 -0.234439 -0.242910 -0.221346 -0.178003 -0.123512 -0.068861 -0.023551 0.005801 0.016221 0.008465 -0.013505 -0.043516 -0.074442 -0.099511 -0.113473 
hipp_sf_0005_HEAD NaN NaN NaN NaN NaN NaN NaN NaN NaN NaN NaN NaN NaN NaN NaN NaN NaN NaN NaN NaN NaN NaN NaN NaN NaN NaN NaN NaN NaN NaN NaN NaN NaN NaN NaN NaN NaN NaN NaN NaN NaN NaN NaN NaN NaN NaN NaN NaN NaN NaN NaN NaN NaN NaN NaN NaN NaN NaN NaN NaN NaN NaN NaN NaN NaN NaN NaN NaN NaN NaN NaN NaN NaN NaN NaN NaN NaN NaN NaN NaN NaN NaN NaN NaN NaN NaN NaN NaN NaN NaN NaN NaN NaN NaN NaN NaN NaN NaN NaN NaN NaN NaN NaN NaN NaN NaN NaN NaN NaN NaN NaN NaN NaN NaN NaN NaN NaN NaN NaN NaN NaN NaN NaN NaN NaN NaN NaN NaN NaN NaN NaN NaN NaN NaN NaN NaN NaN NaN NaN NaN NaN NaN NaN NaN NaN NaN NaN NaN NaN NaN NaN NaN NaN NaN NaN NaN NaN NaN NaN NaN NaN NaN NaN NaN NaN NaN NaN NaN NaN NaN NaN NaN NaN NaN NaN NaN NaN NaN NaN NaN NaN NaN NaN NaN NaN NaN NaN NaN NaN NaN NaN NaN NaN NaN NaN NaN NaN NaN NaN NaN NaN NaN NaN NaN NaN NaN NaN NaN NaN NaN NaN NaN NaN NaN NaN NaN NaN NaN NaN NaN NaN NaN NaN NaN NaN NaN NaN NaN NaN NaN NaN NaN NaN NaN NaN NaN NaN NaN NaN NaN NaN NaN NaN NaN NaN NaN NaN NaN NaN NaN NaN NaN NaN NaN NaN NaN NaN NaN NaN NaN NaN NaN NaN NaN NaN NaN NaN NaN NaN NaN NaN NaN NaN NaN NaN NaN NaN NaN NaN NaN NaN NaN NaN NaN NaN NaN NaN NaN NaN NaN NaN NaN NaN NaN NaN NaN NaN NaN NaN NaN NaN NaN NaN NaN NaN NaN NaN NaN NaN NaN NaN NaN NaN NaN NaN NaN NaN NaN NaN NaN NaN NaN NaN NaN NaN NaN NaN NaN NaN NaN NaN NaN NaN NaN NaN NaN NaN NaN NaN NaN NaN NaN NaN NaN NaN NaN NaN NaN NaN NaN NaN NaN NaN NaN NaN NaN NaN NaN NaN NaN NaN NaN NaN NaN NaN NaN NaN NaN NaN NaN NaN NaN NaN NaN NaN NaN NaN NaN NaN NaN NaN NaN NaN NaN NaN NaN NaN NaN NaN NaN NaN NaN NaN NaN NaN NaN NaN NaN NaN NaN NaN NaN NaN NaN NaN NaN NaN NaN NaN NaN NaN NaN NaN NaN NaN NaN NaN NaN NaN NaN 
hipp_sf_0006_TAIL -0.260230 -0.235553 -0.187935 -0.120786 -0.039045 0.051055 0.142365 0.227325 0.298599 0.349804 0.376249 0.375589 0.348270 0.297668 0.229833 0.152820 0.075647 0.007014 -0.046043 -0.079327 -0.092249 -0.088022 -0.073167 -0.056371 -0.046841 -0.052432 -0.077897 -0.123622 -0.185131 -0.253553 -0.317030 -0.362871 -0.380078 -0.361765 -0.306965 -0.221404 -0.117000 -0.010078 0.081437 0.141366 0.158536 0.129289 0.058696 -0.039843 -0.146643 -0.239116 -0.295892 -0.300935 -0.246843 -0.136672 0.016132 0.189734 0.357536 0.492773 0.573239 0.585269 0.526202 0.404885 0.240095 0.057207 -0.116276 -0.255482 -0.342323 -0.368289 -0.335417 -0.255294 -0.146382 -0.030227 0.072671 0.146532 0.182825 0.181237 0.148993 0.098747 0.045553 0.003571 -0.016829 -0.011020 0.019206 0.066278 0.118606 0.163038 0.187496 0.183279 0.146623 0.079286 -0.011873 -0.116157 -0.220851 -0.313228 -0.382402 -0.420752 -0.424750 -0.395164 -0.336677 -0.257065 -0.166097 -0.074303 0.008246 0.073047 0.114075 0.128447 0.116753 0.083022 0.034268 -0.020373 -0.070870 -0.107755 -0.123622 -0.114410 -0.080239 -0.025563 0.041431 0.110180 0.169638 0.210399 0.226638 0.217459 0.187316 0.145371 0.103812 0.075429 0.070896 0.096300 0.151464 0.229450 0.317420 0.398766 0.456124 0.474712 0.445338 0.366453 0.244819 0.094620 -0.064847 -0.212463 -0.328929 -0.400073 -0.419165 -0.387837 -0.315448 -0.217075 -0.110563 -0.013250 0.060980 0.103771 0.113142 0.093050 0.051855 0.000116 -0.051761 -0.095509 -0.126242 -0.142751 -0.146933 -0.142583 -0.133950 -0.124447 -0.115856 -0.108191 -0.100193 -0.090266 -0.077522 -0.062595 -0.047951 -0.037545 -0.035898 -0.046794 -0.071959 -0.110092 -0.156531 -0.203742 -0.242554 -0.263923 -0.260828 -0.229879 -0.172232 -0.093583 -0.003211 0.087752 0.168447 0.230337 0.268733 0.283454 0.278490 0.260751 0.238229 0.217995 0.204531 0.198780 0.198134 0.197361 0.190209 0.171311 0.137875 0.090747 0.034554 -0.023132 -0.073429 -0.108192 -0.121997 -0.113544 -0.086157 -0.047199 -0.006529 0.025669 0.041196 0.035728 0.009866 -0.030943 -0.077606 -0.119444 -0.146656 -0.152622 -0.135510 -0.098807 -0.050634 -0.001983 0.035739 0.053313 0.045870 0.014125 -0.035602 -0.092607 -0.143992 -0.177373 -0.183501 -0.158256 -0.103578 -0.027152 0.059074 0.141220 0.206139 0.243894 0.249524 0.223795 0.172827 0.106727 0.037576 -0.022810 -0.064880 -0.082749 -0.074802 -0.043477 0.005613 0.064952 0.126458 0.182636 0.227335 0.256093 0.266117 0.256072 0.225850 0.176461 0.110105 0.030376 -0.057528 -0.146773 -0.229195 -0.296034 -0.339054 -0.351910 -0.331483 -0.278883 -0.199827 -0.104227 -0.004944 0.084122 0.150291 0.184293 0.181952 0.145006 0.080874 0.001370 -0.079409 -0.147608 -0.192094 -0.206395 -0.189728 -0.146953 -0.087473 -0.023323 0.033140 0.071495 0.085034 0.071744 0.034368 -0.020408 -0.083385 -0.144596 -0.194982 -0.227695 -0.238841 -0.227610 -0.195881 -0.147491 -0.087398 -0.020934 0.046705 0.110709 0.166713 0.210764 0.239363 0.249663 0.239868 0.209743 0.161118 0.098178 0.027393 -0.043041 -0.104210 -0.147828 -0.167677 -0.160835 -0.128421 -0.075633 -0.011029 0.054882 0.111468 0.149898 0.164744 0.154955 0.123980 0.079011 0.029498 -0.014748 -0.045479 -0.057546 -0.049741 -0.024797 0.011455 0.051522 0.087974 0.115048 0.129774 0.132411 0.126091 0.115823 0.107084 0.104376 0.110079 0.123872 0.142864 0.162359 0.177082 0.182534 0.176157 0.157999 0.130732 0.099007 0.068303 0.043555 0.027891 0.021792 0.022896 0.026492 0.026609 0.017449 -0.005168 -0.042695 -0.093340 -0.152281 -0.212577 -0.266571 -0.307482 -0.330820 -0.335309 -0.323107 -0.299260 -0.270531 -0.243835 -0.224661 -0.215808 -0.216734 -0.223668 -0.230458 -0.229988 -0.215840 -0.183873 -0.133345 -0.067357 0.007495 0.082195 0.146901 0.192737 0.213443 0.206557 0.173919 0.121393 0.057900 -0.006074 -0.060194 -0.095922 -0.107803 -0.094196 -0.057364 -0.002940 0.061091 0.125695 0.182156 0.223284 0.244299 0.243301 0.221295 0.181830 0.130337 0.073307 0.017413 -0.031281 -0.067970 -0.089543 -0.094793 -0.084405 -0.060759 -0.027561 0.010612 0.048843 0.082407 0.107261 0.120463 
hipp_sf_0007_MISC 0.057127 0.042361 0.016571 -0.013603 -0.040136 -0.055455 -0.054209 -0.034576 0.001182 0.047038 0.094337 0.133511 0.156012 0.156065 0.131858 0.085951 0.024796 -0.042496 -0.105902 -0.156372 -0.187467 -0.196443 -0.184558 -0.156595 -0.119705 -0.081849 -0.050171 -0.029624 -0.022128 -0.026387 -0.038379 -0.052371 -0.062219 -0.062682 -0.050472 -0.024857 0.012278 0.056875 0.103531 0.146510 0.180720 0.202480 0.209949 0.203178 0.183836 0.154706 0.119097 0.080302 0.041201 0.004054 -0.029515 -0.058409 -0.081879 -0.099381 -0.110502 -0.114975 -0.112783 -0.104295 -0.090368 -0.072378 -0.052142 -0.031732 -0.013210 0.001651 0.011615 0.016126 0.015349 0.010069 0.001521 -0.008836 -0.019523 -0.029198 -0.036732 -0.041222 -0.041959 -0.038402 -0.030193 -0.017226 0.000221 0.021342 0.044694 0.068193 0.089247 0.105072 0.113123 0.111608 0.099955 0.079125 0.051675 0.021505 -0.006697 -0.028237 -0.039296 -0.037732 -0.023629 0.000531 0.030158 0.059279 0.081569 0.091531 0.085577 0.062800 0.025272 -0.022213 -0.072930 -0.119392 -0.154706 -0.173834 -0.174530 -0.157748 -0.127454 -0.089846 -0.052158 -0.021246 -0.002254 0.002384 -0.006577 -0.025358 -0.047905 -0.067107 -0.076235 -0.070330 -0.047273 -0.008324 0.041972 0.096510 0.146844 0.184679 0.203374 0.199161 0.171886 0.125101 0.065520 0.001916 -0.056349 -0.100884 -0.125672 -0.128052 -0.109121 -0.073489 -0.028439 0.017369 0.055406 0.078742 0.083216 0.068104 0.036187 -0.006803 -0.053239 -0.094970 -0.124767 -0.137581 -0.131387 -0.107490 -0.070215 -0.026077 0.017436 0.053231 0.075871 0.082521 0.073392 0.051623 0.022628 -0.006951 -0.030497 -0.042630 -0.040162 -0.022623 0.007718 0.046316 0.087210 0.124074 0.151284 0.164784 0.162630 0.145127 0.114582 0.074759 0.030183 -0.014571 -0.055461 -0.089336 -0.114074 -0.128511 -0.132248 -0.125446 -0.108683 -0.082919 -0.049584 -0.010709 0.030956 0.071956 0.108328 0.136012 0.151431 0.152137 0.137382 0.108466 0.068751 0.023268 -0.022025 -0.061234 -0.089580 -0.104287 -0.105117 -0.094424 -0.076681 -0.057563 -0.042775 -0.036852 -0.042198 -0.058580 -0.083182 -0.111228 -0.137029 -0.155243 -0.162042 -0.155943 -0.138098 -0.111978 -0.082510 -0.054885 -0.033280 -0.019833 -0.014092 -0.013100 -0.012099 -0.005719 0.010621 0.039428 0.080266 0.129522 0.180896 0.226529 0.258537 0.270635 0.259485 0.225483 0.172795 0.108630 0.041901 -0.018444 -0.065072 -0.093535 -0.102922 -0.095753 -0.077178 -0.053682 -0.031593 -0.015747 -0.008586 -0.009886 -0.017128 -0.026395 -0.033550 -0.035389 -0.030477 -0.019475 -0.004884 0.009708 0.020666 0.025363 0.022958 0.014685 0.003575 -0.006337 -0.011117 -0.008074 0.003377 0.021352 0.041774 0.059241 0.068298 0.064818 0.047153 0.016754 -0.021914 -0.062187 -0.096585 -0.118457 -0.123529 -0.110959 -0.083673 -0.047836 -0.011577 0.016777 0.030573 0.026380 0.004865 -0.029230 -0.068017 -0.102112 -0.122652 -0.123247 -0.101425 -0.059253 -0.003003 0.058094 0.113708 0.154501 0.173996 0.169816 0.144053 0.102691 0.054248 0.007936 -0.028232 -0.048986 -0.052674 -0.041292 -0.019722 0.005623 0.028402 0.043822 0.049638 0.046481 0.037450 0.027122 0.020208 0.020241 0.028569 0.043935 0.062707 0.079710 0.089435 0.087341 0.070941 0.040405 -0.001434 -0.049666 -0.098329 -0.141612 -0.174959 -0.195825 -0.203918 -0.200909 -0.189725 -0.173609 -0.155227 -0.136032 -0.116052 -0.094137 -0.068581 -0.037935 -0.001780 0.038764 0.080950 0.120767 0.153694 0.175650 0.183914 0.177785 0.158799 0.130458 0.097517 0.065006 0.037213 0.016885 0.004817 -0.000064 -0.000169 0.001583 0.002668 0.001693 -0.001235 -0.004620 -0.006114 -0.003371 0.005049 0.018965 0.036269 0.053157 0.064872 0.066804 0.055700 0.030673 -0.006267 -0.050314 -0.094636 -0.131684 -0.154749 -0.159437 -0.144703 -0.113208 -0.070857 -0.025627 0.014109 0.041372 0.052102 0.046063 0.026909 0.001388 -0.022163 -0.035695 -0.033303 -0.012632 0.024468 0.072198 0.121918 0.163881 0.189213 0.191728 0.169179 0.123721 0.061475 -0.008661 -0.076704 -0.133401 -0.171795 -0.188234 -0.182675 -0.158268 -0.120390 -0.075397 -0.029390 0.012721 0.047700 0.073965 0.091178 0.099625 
hipp_sf_0008_SUB -0.018083 -0.012811 -0.003102 0.009552 0.023311 0.036354 0.047213 0.054999 0.059460 0.060875 0.059818 0.056858 0.052297 0.046005 0.037432 0.025779 0.010299 -0.009347 -0.032787 -0.058772 -0.085220 -0.109469 -0.128717 -0.140549 -0.143428 -0.137047 -0.122434 -0.101780 -0.078012 -0.054196 -0.032903 -0.015682 -0.002764 0.006919 0.015398 0.025087 0.038072 0.055462 0.076929 0.100588 0.123253 0.141027 0.150124 0.147739 0.132771 0.106224 0.071186 0.032364 -0.004757 -0.034945 -0.054246 -0.060772 -0.055084 -0.040070 -0.020326 -0.001185 0.012442 0.017125 0.011680 -0.002563 -0.022042 -0.041748 -0.056365 -0.061515 -0.054834 -0.036651 -0.010094 0.019420 0.045231 0.060811 0.061199 0.044195 0.011046 -0.033532 -0.082038 -0.125472 -0.154990 -0.163619 -0.147702 -0.107778 -0.048715 0.020966 0.090464 0.148540 0.185505 0.194986 0.175144 0.129122 0.064614 -0.007371 -0.074360 -0.124545 -0.148846 -0.142524 -0.106078 -0.045250 0.029855 0.106408 0.170969 0.211722 0.220460 0.193980 0.134662 0.050114 -0.048032 -0.145994 -0.230065 -0.288806 -0.314861 -0.306064 -0.265685 -0.201741 -0.125529 -0.049610 0.014400 0.057839 0.076465 0.071119 0.047463 0.014838 -0.015563 -0.032871 -0.028689 0.001188 0.055804 0.129003 0.210356 0.286894 0.345356 0.374551 0.367408 0.322343 0.243698 0.141141 0.028141 -0.080214 -0.169697 -0.229252 -0.252752 -0.239883 -0.196025 -0.131153 -0.057988 0.010275 0.062227 0.090099 0.090898 0.066634 0.023644 -0.028823 -0.080475 -0.121926 -0.146357 -0.150612 -0.135525 -0.105489 -0.067368 -0.029014 0.002321 0.021351 0.025663 0.016010 -0.004025 -0.028897 -0.052292 -0.068403 -0.073035 -0.064339 -0.043063 -0.012303 0.023163 0.057801 0.086323 0.104567 0.110111 0.102545 0.083371 0.055601 0.023156 -0.009808 -0.039529 -0.063110 -0.078791 -0.086007 -0.085253 -0.077817 -0.065448 -0.050014 -0.033219 -0.016385 -0.000346 0.014577 0.028512 0.041901 0.055322 0.069284 0.084026 0.099343 0.114489 0.128158 0.138599 0.143836 0.142000 0.131708 0.112430 0.084767 0.050561 0.012773 -0.024859 -0.058378 -0.084278 -0.100170 -0.105307 -0.100837 -0.089710 -0.076195 -0.065104 -0.060812 -0.066290 -0.082336 -0.107185 -0.136612 -0.164544 -0.184102 -0.188883 -0.174263 -0.138423 -0.082931 -0.012691 0.064713 0.140204 0.204699 0.250615 0.273116 0.270852 0.246046 0.203938 0.151696 0.097026 0.046785 0.005860 -0.023457 -0.041489 -0.050636 -0.054414 -0.056335 -0.058898 -0.062934 -0.067466 -0.070115 -0.067935 -0.058475 -0.040777 -0.016047 0.012209 0.038656 0.057145 0.062071 0.049763 0.019593 -0.025484 -0.079131 -0.132581 -0.176183 -0.201248 -0.201827 -0.176029 -0.126599 -0.060592 0.011810 0.079141 0.130771 0.158902 0.160032 0.135575 0.091528 0.037235 -0.016486 -0.059481 -0.084222 -0.087189 -0.069420 -0.036115 0.004607 0.043502 0.072191 0.084898 0.079608 0.058386 0.026842 -0.007157 -0.035211 -0.050198 -0.047775 -0.027280 0.008154 0.052259 0.096915 0.133762 0.155822 0.158770 0.141647 0.106881 0.059659 0.006819 -0.044478 -0.088020 -0.119494 -0.136966 -0.140832 -0.133318 -0.117684 -0.097354 -0.075181 -0.052999 -0.031534 -0.010662 0.010111 0.031094 0.051958 0.071507 0.087757 0.098288 0.100801 0.093713 0.076659 0.050749 0.018525 -0.016393 -0.049894 -0.078059 -0.097810 -0.107361 -0.106415 -0.096047 -0.078358 -0.055966 -0.031493 -0.007142 0.015528 0.035614 0.052692 0.066543 0.076881 0.083191 0.084736 0.080756 0.070788 0.055030 0.034616 0.011691 -0.010771 -0.029421 -0.041173 -0.043908 -0.037069 -0.021987 -0.001841 0.018799 0.034784 0.041394 0.035362 0.015666 -0.016065 -0.055676 -0.097120 -0.133514 -0.158411 -0.167038 -0.157249 -0.129996 -0.089204 -0.041076 0.007035 0.047985 0.076131 0.088319 0.084379 0.067028 0.041225 0.013125 -0.011144 -0.026639 -0.030451 -0.022095 -0.003404 0.022046 0.049805 0.075511 0.095750 0.108615 0.113883 0.112789 0.107500 0.100417 0.093502 0.087780 0.083124 0.078379 0.071752 0.061378 0.045908 0.024974 -0.000591 -0.028815 -0.056918 -0.081839 -0.100820 -0.111918 -0.114342 -0.108536 -0.096016 -0.079007 -0.059991 -0.041253 -0.024555 -0.010983 -0.000975 0.005488 0.008628 
hipp_sf_0009_ERC 0.038154 0.024789 0.001622 -0.025021 -0.047502 -0.058620 -0.053315 -0.029926 0.009252 0.058252 0.108508 0.150489 0.175568 0.177743 0.154851 0.109043 0.046423 -0.024061 -0.092248 -0.148577 -0.185747 -0.199887 -0.191051 -0.162973 -0.122160 -0.076552 -0.034009 -0.000943 0.018679 0.023797 0.016154 -0.000297 -0.020319 -0.038432 -0.049875 -0.051331 -0.041314 -0.020219 0.009917 0.045853 0.083652 0.119188 0.148578 0.168521 0.176547 0.171214 0.152255 0.120691 0.078875 0.030432 -0.019961 -0.066987 -0.105271 -0.130111 -0.138217 -0.128357 -0.101741 -0.062049 -0.015035 0.032269 0.072627 0.099787 0.109549 0.100517 0.074354 0.035494 -0.009672 -0.053971 -0.090769 -0.115173 -0.124869 -0.120437 -0.105071 -0.083775 -0.062207 -0.045430 -0.036818 -0.037378 -0.045605 -0.057912 -0.069511 -0.075567 -0.072343 -0.058081 -0.033434 -0.001341 0.033616 0.066221 0.091773 0.107101 0.111219 0.105476 0.093152 0.078614 0.066219 0.059222 0.058956 0.064473 0.072749 0.079407 0.079814 0.070286 0.049143 0.017339 -0.021481 -0.061541 -0.096022 -0.118440 -0.124044 -0.110921 -0.080553 -0.037695 0.010424 0.055440 0.089465 0.106644 0.104343 0.083712 0.049506 0.009171 -0.028609 -0.055643 -0.065882 -0.056664 -0.029311 0.011064 0.056487 0.097630 0.125589 0.133610 0.118411 0.080861 0.025886 -0.038387 -0.102071 -0.155282 -0.189878 -0.200879 -0.187280 -0.152141 -0.101951 -0.045380 0.008307 0.050900 0.076641 0.083119 0.071520 0.046209 0.013737 -0.018511 -0.043774 -0.057177 -0.056600 -0.042960 -0.019902 0.007042 0.031650 0.048317 0.053221 0.045120 0.025629 -0.001071 -0.029042 -0.051748 -0.063359 -0.059935 -0.040273 -0.006266 0.037317 0.083577 0.124626 0.152927 0.162584 0.150358 0.116240 0.063479 -0.001926 -0.072170 -0.138842 -0.194186 -0.232185 -0.249314 -0.244840 -0.220663 -0.180750 -0.130300 -0.074804 -0.019196 0.032784 0.078901 0.118388 0.151624 0.179600 0.203332 0.223347 0.239347 0.250136 0.253811 0.248168 0.231243 0.201870 0.160138 0.107657 0.047569 -0.015707 -0.076950 -0.130784 -0.172372 -0.198078 -0.205973 -0.196140 -0.170711 -0.133642 -0.090242 -0.046526 -0.008454 0.018836 0.031714 0.028571 0.010086 -0.020809 -0.059259 -0.099106 -0.133716 -0.156915 -0.163913 -0.152060 -0.121337 -0.074459 -0.016582 0.045388 0.103774 0.151265 0.182018 0.192553 0.182285 0.153583 0.111358 0.062235 0.013450 -0.028329 -0.058049 -0.073002 -0.073123 -0.060799 -0.040251 -0.016622 0.005040 0.020712 0.028047 0.026643 0.017895 0.004488 -0.010335 -0.023561 -0.033057 -0.037963 -0.038736 -0.036867 -0.034343 -0.033014 -0.034020 -0.037427 -0.042166 -0.046293 -0.047500 -0.043765 -0.033958 -0.018264 0.001701 0.023124 0.042539 0.056550 0.062596 0.059553 0.048049 0.030388 0.010117 -0.008702 -0.022342 -0.028195 -0.025319 -0.014629 0.001331 0.018957 0.034400 0.044415 0.047075 0.042188 0.031326 0.017465 0.004325 -0.004441 -0.006017 0.000992 0.016311 0.038102 0.063385 0.088671 0.110643 0.126724 0.135420 0.136368 0.130118 0.117730 0.100319 0.078695 0.053199 0.023790 -0.009638 -0.046811 -0.086630 -0.126897 -0.164313 -0.194812 -0.214199 -0.218981 -0.207204 -0.179112 -0.137442 -0.087244 -0.035226 0.011286 0.045593 0.062828 0.060874 0.040807 0.006763 -0.034760 -0.076045 -0.109504 -0.128987 -0.130806 -0.114263 -0.081626 -0.037559 0.011840 0.060192 0.101937 0.133178 0.152113 0.159017 0.155826 0.145453 0.131010 0.115138 0.099557 0.084929 0.071017 0.057052 0.042194 0.025934 0.008339 -0.009927 -0.027789 -0.044088 -0.057944 -0.069029 -0.077670 -0.084736 -0.091335 -0.098400 -0.106287 -0.114495 -0.121610 -0.125503 -0.123764 -0.114262 -0.095715 -0.068121 -0.032934 0.007063 0.048181 0.086443 0.118272 0.141083 0.153649 0.156162 0.149987 0.137177 0.119893 0.099875 0.078112 0.054811 0.029647 0.002256 -0.027199 -0.057546 -0.086382 -0.110196 -0.124891 -0.126576 -0.112514 -0.081958 -0.036696 0.018884 0.078265 0.133769 0.177830 0.204357 0.209870 0.194178 0.160444 0.114578 0.064105 0.016697 -0.021293 -0.046010 -0.056738 -0.055851 -0.048119 -0.039504 -0.035729 -0.040939 -0.056745 -0.081864 -0.112439 -0.142947 -0.167483 -0.181139 
hipp_sf_0010_BA35 0.042211 0.026539 -0.001640 -0.036634 -0.071368 -0.098804 -0.113340 -0.111918 -0.094601 -0.064521 -0.027204 0.010577 0.042194 0.062499 0.068842 0.061569 0.043887 0.021154 -0.000285 -0.014443 -0.016975 -0.006112 0.016922 0.048103 0.081367 0.109786 0.126921 0.128101 0.111367 0.077912 0.031932 -0.020079 -0.070442 -0.111623 -0.137515 -0.144458 -0.131802 -0.101955 -0.059893 -0.012262 0.033773 0.071701 0.096689 0.106249 0.100488 0.081905 0.054794 0.024393 -0.004070 -0.026255 -0.039374 -0.042531 -0.036708 -0.024422 -0.009129 0.005491 0.016238 0.020964 0.018905 0.010734 -0.001662 -0.015631 -0.028326 -0.037293 -0.040955 -0.038900 -0.031927 -0.021842 -0.011036 -0.001959 0.003434 0.004124 0.000283 -0.006728 -0.014619 -0.020639 -0.022169 -0.017314 -0.005382 0.012875 0.035288 0.058600 0.079031 0.092973 0.097683 0.091843 0.075855 0.051823 0.023201 -0.005821 -0.031072 -0.049169 -0.058123 -0.057674 -0.049290 -0.035825 -0.020907 -0.008183 -0.000584 0.000254 -0.005722 -0.017035 -0.031046 -0.044580 -0.054647 -0.059116 -0.057190 -0.049583 -0.038355 -0.026443 -0.016988 -0.012601 -0.014734 -0.023277 -0.036493 -0.051285 -0.063767 -0.070005 -0.066795 -0.052321 -0.026556 0.008653 0.049845 0.092475 0.131625 0.162747 0.182318 0.188291 0.180284 0.159508 0.128463 0.090500 0.049320 0.008525 -0.028741 -0.060014 -0.083607 -0.098604 -0.104800 -0.102623 -0.093064 -0.077611 -0.058181 -0.037019 -0.016539 0.000899 0.013268 0.019168 0.018074 0.010479 -0.002118 -0.017411 -0.032650 -0.045119 -0.052643 -0.054007 -0.049211 -0.039475 -0.026988 -0.014432 -0.004384 0.001292 0.001913 -0.001794 -0.007782 -0.013090 -0.014487 -0.009231 0.004212 0.025667 0.053067 0.082675 0.109669 0.128996 0.136339 0.128999 0.106514 0.070876 0.026305 -0.021408 -0.065850 -0.101069 -0.122565 -0.128019 -0.117617 -0.093910 -0.061267 -0.025010 0.009569 0.038119 0.057914 0.068160 0.069906 0.065592 0.058350 0.051212 0.046408 0.044887 0.046157 0.048476 0.049317 0.046021 0.036478 0.019683 -0.003939 -0.032508 -0.062981 -0.091679 -0.114950 -0.129839 -0.134622 -0.129106 -0.114654 -0.093912 -0.070323 -0.047510 -0.028642 -0.015913 -0.010207 -0.011014 -0.016590 -0.024332 -0.031276 -0.034649 -0.032352 -0.023316 -0.007669 0.013313 0.037428 0.061923 0.083943 0.100974 0.111215 0.113826 0.109015 0.097956 0.082562 0.065163 0.048122 0.033484 0.022683 0.016373 0.014391 0.015864 0.019421 0.023477 0.026538 0.027457 0.025616 0.020984 0.014064 0.005736 -0.002968 -0.011089 -0.017945 -0.023239 -0.027077 -0.029877 -0.032204 -0.034574 -0.037271 -0.040236 -0.043048 -0.045019 -0.045363 -0.043431 -0.038918 -0.032016 -0.023451 -0.014393 -0.006248 -0.000366 0.002258 0.001237 -0.003084 -0.009647 -0.016875 -0.022981 -0.026359 -0.025946 -0.021487 -0.013642 -0.003890 0.005746 0.013108 0.016355 0.014374 0.007051 -0.004662 -0.018887 -0.033158 -0.044883 -0.051827 -0.052530 -0.046565 -0.034592 -0.018199 0.000423 0.018910 0.035144 0.047599 0.055525 0.058957 0.058564 0.055382 0.050513 0.044869 0.039019 0.033173 0.027293 0.021293 0.015247 0.009549 0.004958 0.002494 0.003218 0.007918 0.016807 0.029290 0.043897 0.058406 0.070150 0.076476 0.075241 0.065273 0.046665 0.020860 -0.009519 -0.041053 -0.070069 -0.093223 -0.108016 -0.113150 -0.108664 -0.095826 -0.076839 -0.054410 -0.031300 -0.009929 0.007890 0.021058 0.029143 0.032239 0.030779 0.025373 0.016722 0.005608 -0.007045 -0.020098 -0.032164 -0.041669 -0.047030 -0.046938 -0.040692 -0.028499 -0.011658 0.007467 0.025709 0.039578 0.045912 0.042539 0.028843 0.006075 -0.022672 -0.052866 -0.079252 -0.096782 -0.101553 -0.091592 -0.067306 -0.031498 0.011080 0.054542 0.092912 0.121183 0.136181 0.137059 0.125330 0.104430 0.078922 0.053511 0.032079 0.016960 0.008585 0.005586 0.005300 0.004560 0.000582 -0.008261 -0.021971 -0.038842 -0.055816 -0.069167 -0.075378 -0.071991 -0.058253 -0.035393 -0.006473 0.024153 0.051671 0.071730 0.081276 0.079106 0.066045 0.044711 0.018933 -0.007039 -0.029351 -0.045229 -0.053379 -0.054046 -0.048751 -0.039789 -0.029621 -0.020327 -0.013221 -0.008727 -0.006503 -0.005754 -0.005643 
hipp_sf_0011_BA36 -0.002132 0.002583 0.011462 0.023437 0.036992 0.050284 0.061304 0.068090 0.068964 0.062778 0.049119 0.028444 0.002104 -0.027759 -0.058440 -0.087004 -0.110673 -0.127199 -0.135175 -0.134213 -0.124960 -0.108953 -0.088332 -0.065471 -0.042588 -0.021418 -0.003002 0.012373 0.025071 0.035880 0.045710 0.055285 0.064902 0.074307 0.082710 0.088949 0.091749 0.090026 0.083173 0.071258 0.055091 0.036157 0.016405 -0.002038 -0.017193 -0.027525 -0.032147 -0.030916 -0.024400 -0.013742 -0.000444 0.013864 0.027640 0.039588 0.048748 0.054514 0.056592 0.054948 0.049744 0.041296 0.030064 0.016659 0.001847 -0.013458 -0.028247 -0.041508 -0.052350 -0.060152 -0.064672 -0.066121 -0.065140 -0.062695 -0.059890 -0.057732 -0.056907 -0.057599 -0.059425 -0.061484 -0.062547 -0.061324 -0.056781 -0.048420 -0.036452 -0.021829 -0.006101 0.008879 0.021341 0.029990 0.034333 0.034833 0.032865 0.030452 0.029832 0.032937 0.040895 0.053664 0.069893 0.087062 0.101880 0.110898 0.111197 0.101035 0.080309 0.050719 0.015596 -0.020597 -0.053008 -0.077247 -0.090175 -0.090487 -0.078963 -0.058329 -0.032760 -0.007099 0.014046 0.027147 0.030397 0.023999 0.010066 -0.007862 -0.025569 -0.039045 -0.045306 -0.042991 -0.032623 -0.016462 0.001984 0.018728 0.030153 0.033793 0.028870 0.016480 -0.000617 -0.018553 -0.033144 -0.040753 -0.039060 -0.027555 -0.007688 0.017392 0.043421 0.065834 0.080634 0.085148 0.078513 0.061817 0.037850 0.010551 -0.015759 -0.037183 -0.050935 -0.055789 -0.052190 -0.042044 -0.028228 -0.013944 -0.002057 0.005443 0.007758 0.005304 -0.000527 -0.007803 -0.014584 -0.019407 -0.021630 -0.021535 -0.020204 -0.019178 -0.020000 -0.023756 -0.030724 -0.040221 -0.050690 -0.060011 -0.065966 -0.066751 -0.061416 -0.050126 -0.034184 -0.015785 0.002424 0.017908 0.028786 0.034247 0.034726 0.031809 0.027871 0.025536 0.027062 0.033801 0.045846 0.061954 0.079767 0.096282 0.108481 0.113971 0.111506 0.101266 0.084838 0.064881 0.044576 0.026949 0.014238 0.007430 0.006079 0.008439 0.011892 0.013568 0.011024 0.002830 -0.011067 -0.029296 -0.049331 -0.068021 -0.082273 -0.089732 -0.089301 -0.081395 -0.067861 -0.051582 -0.035864 -0.023712 -0.017191 -0.016982 -0.022249 -0.030852 -0.039832 -0.046099 -0.047135 -0.041577 -0.029545 -0.012637 0.006399 0.024254 0.037768 0.044609 0.043772 0.035787 0.022591 0.007101 -0.007426 -0.018093 -0.022969 -0.021485 -0.014506 -0.004098 0.006965 0.015847 0.020279 0.019059 0.012285 0.001296 -0.011673 -0.024025 -0.033405 -0.038227 -0.038007 -0.033420 -0.026079 -0.018088 -0.011479 -0.007678 -0.007116 -0.009099 -0.011953 -0.013438 -0.011320 -0.003972 0.009136 0.027171 0.047988 0.068474 0.085135 0.094804 0.095311 0.085974 0.067804 0.043370 0.016344 -0.009174 -0.029423 -0.041680 -0.044744 -0.039118 -0.026844 -0.011043 0.004754 0.017333 0.024434 0.025176 0.020182 0.011397 0.001624 -0.006088 -0.009103 -0.005754 0.004306 0.020027 0.039160 0.058678 0.075345 0.086294 0.089529 0.084235 0.070877 0.051060 0.027200 0.002087 -0.021590 -0.041653 -0.056723 -0.066345 -0.070943 -0.071630 -0.069921 -0.067408 -0.065448 -0.064932 -0.066140 -0.068724 -0.071796 -0.074113 -0.074315 -0.071195 -0.063946 -0.052353 -0.036910 -0.018811 0.000159 0.017850 0.032056 0.040865 0.043002 0.038096 0.026830 0.010916 -0.007093 -0.024172 -0.037288 -0.043914 -0.042482 -0.032699 -0.015647 0.006358 0.030133 0.052177 0.069284 0.079114 0.080611 0.074167 0.061508 0.045307 0.028607 0.014175 0.003915 -0.001525 -0.002856 -0.001946 -0.001337 -0.003587 -0.010580 -0.022964 -0.039843 -0.058816 -0.076360 -0.088506 -0.091659 -0.083400 -0.063099 -0.032191 0.005948 0.046512 0.084082 0.113571 0.131129 0.134805 0.124855 0.103623 0.075033 0.043802 0.014539 -0.009076 -0.024875 -0.032429 -0.032905 -0.028588 -0.022209 -0.016236 -0.012292 -0.010841 -0.011194 -0.011818 -0.010871 -0.006808 0.001089 0.012408 0.025600 0.038278 0.047763 0.051735 0.048835 0.039062 0.023868 0.005908 -0.011508 -0.025138 -0.032546 -0.032675 -0.026129 -0.015084 -0.002828 0.006954 0.011013 0.007287 -0.004592 -0.023158 -0.045375 -0.067259 -0.084706 -0.094366 
hipp_sf_0012_PHC 0.032195 0.017948 -0.005975 -0.031580 -0.049486 -0.051349 -0.032128 0.008383 0.065112 0.128504 0.186406 0.226632 0.239649 0.220774 0.171382 0.098827 0.015060 -0.065778 -0.130283 -0.168606 -0.176552 -0.156499 -0.116911 -0.070548 -0.031717 -0.013163 -0.023229 -0.063898 -0.130129 -0.210629 -0.289925 -0.351290 -0.379969 -0.366039 -0.306345 -0.205168 -0.073502 0.072873 0.216112 0.339283 0.429027 0.477425 0.482775 0.449235 0.385480 0.302741 0.212656 0.125375 0.048250 -0.014702 -0.062578 -0.096772 -0.119863 -0.134494 -0.142557 -0.144827 -0.141092 -0.130691 -0.113239 -0.089322 -0.060917 -0.031414 -0.005186 0.013186 0.019876 0.012711 -0.008195 -0.040256 -0.078712 -0.117389 -0.149748 -0.170028 -0.174243 -0.160844 -0.130936 -0.088020 -0.037353 0.014946 0.062846 0.101233 0.126505 0.136851 0.132235 0.114152 0.085252 0.048942 0.009031 -0.030545 -0.065935 -0.093558 -0.110319 -0.113893 -0.103062 -0.078050 -0.040783 0.005048 0.054206 0.100453 0.137378 0.159417 0.162870 0.146724 0.113060 0.066932 0.015663 -0.032355 -0.069155 -0.088709 -0.088157 -0.068471 -0.034385 0.006432 0.044843 0.072079 0.081585 0.070485 0.040370 -0.002818 -0.049786 -0.089642 -0.112046 -0.109355 -0.078325 -0.021012 0.055336 0.139393 0.217696 0.277046 0.306912 0.301376 0.260245 0.189113 0.098360 0.001288 -0.088248 -0.158258 -0.200631 -0.212365 -0.195823 -0.157974 -0.108826 -0.059373 -0.019464 0.003969 0.008019 -0.005941 -0.032867 -0.065335 -0.095228 -0.115453 -0.121345 -0.111487 -0.087817 -0.055050 -0.019562 0.011989 0.034020 0.043058 0.038294 0.021543 -0.003316 -0.031272 -0.057265 -0.077171 -0.088496 -0.090656 -0.084819 -0.073386 -0.059266 -0.045136 -0.032855 -0.023162 -0.015715 -0.009415 -0.002927 0.004770 0.013954 0.023971 0.033348 0.040184 0.042723 0.039957 0.032118 0.020889 0.009289 0.001195 0.000608 0.010786 0.033438 0.068151 0.112192 0.160736 0.207515 0.245773 0.269349 0.273709 0.256728 0.219075 0.164149 0.097579 0.026376 -0.042092 -0.101138 -0.145626 -0.172549 -0.181248 -0.173278 -0.151971 -0.121826 -0.087815 -0.054752 -0.026786 -0.007061 0.002443 0.000936 -0.011259 -0.032818 -0.061559 -0.094587 -0.128464 -0.159421 -0.183646 -0.197631 -0.198574 -0.184789 -0.156032 -0.113693 -0.060778 -0.001640 0.058502 0.114221 0.160605 0.193921 0.212099 0.214954 0.204097 0.182554 0.154175 0.122956 0.092396 0.065042 0.042268 0.024347 0.010741 0.000550 -0.007046 -0.012438 -0.015453 -0.015458 -0.011672 -0.003601 0.008533 0.023514 0.039099 0.052281 0.059822 0.058946 0.048046 0.027212 -0.001557 -0.034552 -0.066960 -0.093777 -0.110850 -0.115812 -0.108708 -0.092119 -0.070748 -0.050494 -0.037208 -0.035363 -0.046948 -0.070834 -0.102773 -0.136090 -0.162944 -0.175923 -0.169658 -0.142105 -0.095224 -0.034862 0.030147 0.089527 0.133457 0.154445 0.148807 0.117453 0.065812 0.002901 -0.060278 -0.112698 -0.145257 -0.152324 -0.132615 -0.089244 -0.028964 0.039189 0.105594 0.161703 0.201359 0.221544 0.222461 0.207006 0.179798 0.146046 0.110493 0.076684 0.046660 0.021103 -0.000186 -0.017661 -0.031451 -0.041021 -0.045170 -0.042361 -0.031289 -0.011522 0.015999 0.048744 0.082780 0.113329 0.135596 0.145682 0.141360 0.122515 0.091154 0.050943 0.006408 -0.038027 -0.078917 -0.114377 -0.144207 -0.169542 -0.192115 -0.213329 -0.233400 -0.250831 -0.262394 -0.263673 -0.250093 -0.218204 -0.166922 -0.098381 -0.018171 0.065209 0.141601 0.200957 0.235257 0.240167 0.216066 0.168176 0.105716 0.040228 -0.016624 -0.055306 -0.070268 -0.060984 -0.031955 0.008338 0.049312 0.080590 0.094232 0.086411 0.058175 0.015115 -0.033958 -0.079035 -0.111162 -0.124418 -0.117163 -0.092284 -0.056389 -0.018135 0.013890 0.033247 0.037192 0.027297 0.009007 -0.009774 -0.020757 -0.017486 0.002808 0.038211 0.082227 0.125032 0.155610 0.164316 0.145306 0.098242 0.028873 -0.051698 -0.128956 -0.187761 -0.215393 -0.204242 -0.153553 -0.069852 0.034055 0.141330 0.234143 0.296905 0.319057 0.296866 0.233917 0.140245 0.030323 -0.079636 -0.174511 -0.242681 -0.277591 -0.278236 -0.248594 -0.196239 -0.130532 -0.060808 0.005042 0.061358 0.104818 0.133981 0.148529 
