13 420
hipp_sf_0000_BG 0.013267 0.014149 0.015528 0.016738 0.017016 0.015712 0.012491 0.007454 0.001166 -0.005435 -0.011219 -0.015102 -0.016287 -0.014447 -0.009815 -0.003152 0.004395 0.011522 0.017029 0.020056 0.020246 0.017799 0.013401 0.008058 0.002860 -0.001256 -0.003709 -0.004381 -0.003616 -0.002116 -0.000753 -0.000351 -0.001480 -0.004320 -0.008618 -0.013742 -0.018832 -0.022991 -0.025490 -0.025926 -0.024298 -0.021000 -0.016714 -0.012246 -0.008334 -0.005493 -0.003898 -0.003375 -0.003461 -0.003545 -0.003035 -0.001523 0.001093 0.004571 0.008363 0.011735 0.013932 0.014354 0.012701 0.009058 0.003890 -0.002038 -0.007811 -0.012536 -0.015523 -0.016404 -0.015198 -0.012286 -0.008317 -0.004068 -0.000273 0.002512 0.004016 0.004279 0.003625 0.002559 0.001651 0.001392 0.002094 0.003816 0.006357 0.009302 0.012107 0.014212 0.015152 0.014645 0.012647 0.009358 0.005195 0.000718 -0.003452 -0.006723 -0.008617 -0.008832 -0.007271 -0.004058 0.000487 0.005887 0.011561 0.016892 0.021293 0.024267 0.025462 0.024702 0.022007 0.017580 0.011777 0.005061 -0.002062 -0.009099 -0.015624 -0.021309 -0.025935 -0.029378 -0.031573 -0.032482 -0.032057 -0.030228 -0.026910 -0.022049 -0.015672 -0.007956 0.000728 0.009795 0.018477 0.025907 0.031235 0.033779 0.033165 0.029430 0.023062 0.014960 0.006310 -0.001603 -0.007614 -0.010891 -0.011098 -0.008463 -0.003745 0.001903 0.007156 0.010778 0.011866 0.010033 0.005494 -0.000981 -0.008216 -0.014866 -0.019693 -0.021815 -0.020882 -0.017141 -0.011381 -0.004761 0.001430 0.006043 0.008289 0.007894 0.005123 0.000704 -0.004359 -0.009011 -0.012380 -0.013960 -0.013689 -0.011940 -0.009391 -0.006839 -0.004988 -0.004266 -0.004712 -0.005969 -0.007370 -0.008112 -0.007461 -0.004955 -0.000540 0.005381 0.012002 0.018273 0.023110 0.025626 0.025321 0.022197 0.016768 0.009964 0.002951 -0.003095 -0.007216 -0.008839 -0.007879 -0.004724 -0.000137 0.004907 0.009423 0.012601 0.013937 0.013303 0.010926 0.007314 0.003124 -0.000970 -0.004398 -0.006775 -0.007932 -0.007902 -0.006873 -0.005132 -0.003004 -0.000816 0.001125 0.002539 0.003170 0.002803 0.001280 -0.001450 -0.005290 -0.009953 -0.014951 -0.019633 -0.023262 -0.025149 -0.024800 -0.022061 -0.017206 -0.010965 -0.004435 0.001085 0.004346 0.004417 0.000930 -0.005760 -0.014549 -0.023704 -0.031124 -0.034710 -0.032765 -0.024351 -0.009544 0.010497 0.033648 0.057125 0.077916 0.093277 0.101186 0.100676 0.091991 0.076517 0.056526 0.034766 0.013980 -0.003548 -0.016341 -0.023906 -0.026727 -0.026061 -0.023616 -0.021161 -0.020156 -0.021482 -0.025304 -0.031096 -0.037811 -0.044141 -0.048816 -0.050870 -0.049824 -0.045750 -0.039223 -0.031163 -0.022631 -0.014610 -0.007836 -0.002691 0.000809 0.002942 0.004165 0.004967 0.005743 0.006713 0.007900 0.009161 0.010256 0.010942 0.011048 0.010515 0.009406 0.007870 0.006088 0.004209 0.002315 0.000408 -0.001559 -0.003629 -0.005777 -0.007856 -0.009581 -0.010557 -0.010354 -0.008611 -0.005153 -0.000084 0.006173 0.012899 0.019172 0.024025 0.026620 0.026423 0.023326 0.017695 0.010323 0.002306 -0.005148 -0.010933 -0.014240 -0.014682 -0.012353 -0.007770 -0.001759 0.004731 0.010807 0.015789 0.019301 0.021281 0.021918 0.021534 0.020441 0.018830 0.016701 0.013868 0.010039 0.004941 -0.001530 -0.009186 -0.017482 -0.025535 -0.032237 -0.036435 -0.037152 -0.033802 -0.026346 -0.015360 -0.001983 0.012233 0.025563 0.036383 0.043425 0.045974 0.043955 0.037913 0.028878 0.018155 0.007083 -0.003186 -0.011856 -0.018556 -0.023323 -0.026488 -0.028529 -0.029899 -0.030891 -0.031565 -0.031750 -0.031118 -0.029310 -0.026071 -0.021373 -0.015478 -0.008930 -0.002473 0.003081 0.007017 0.008866 0.008508 0.006208 0.002565 -0.001605 -0.005430 -0.008161 -0.009311 -0.008745 -0.006691 -0.003666 -0.000348 0.002588 0.004630 0.005546 0.005436 0.004709 0.003979 0.003918 0.005090 0.007805 0.012019 0.017319 0.022980 0.028094 0.031743 0.033177 0.031968 0.028100 0.021986 0.014397 0.006325 -0.001190 -0.007251 -0.011255 -0.012987 -0.012644 -0.010776 -0.008156 -0.005624 -0.003913 -0.003509 -0.004566 -0.006887 -0.009983 -0.013187 -0.015807 -0.017276 
hipp_sf_0001_CA1 0.025659 0.019492 0.008228 -0.006204 -0.021387 -0.034873 -0.044615 -0.049298 -0.048490 -0.042615 -0.032750 -0.020327 -0.006813 0.006552 0.018894 0.029716 0.038779 0.045933 0.050946 0.053411 0.052769 0.048452 0.040118 0.027900 0.012600 -0.004263 -0.020580 -0.033956 -0.042152 -0.043562 -0.037614 -0.025000 -0.007662 0.011495 0.029105 0.041975 0.047702 0.045155 0.034709 0.018155 -0.001660 -0.021429 -0.038049 -0.049233 -0.053910 -0.052344 -0.045945 -0.036815 -0.027164 -0.018724 -0.012317 -0.007691 -0.003650 0.001537 0.009558 0.021461 0.037193 0.055404 0.073584 0.088510 0.096930 0.096302 0.085442 0.064896 0.036953 0.005276 -0.025780 -0.052014 -0.070198 -0.078684 -0.077656 -0.068976 -0.055650 -0.041047 -0.028064 -0.018425 -0.012311 -0.008396 -0.004305 0.002622 0.014438 0.031795 0.053458 0.076272 0.095619 0.106301 0.103673 0.084770 0.049187 -0.000516 -0.058989 -0.118855 -0.171923 -0.210622 -0.229371 -0.225605 -0.200257 -0.157575 -0.104335 -0.048594 0.001767 0.040403 0.063533 0.070417 0.063233 0.046410 0.025570 0.006324 -0.006811 -0.011186 -0.006327 0.006243 0.023577 0.042127 0.058593 0.070624 0.077209 0.078708 0.076551 0.072709 0.069094 0.067045 0.067030 0.068620 0.070730 0.072030 0.071410 0.068353 0.063114 0.056645 0.050289 0.045333 0.042534 0.041776 0.041956 0.041156 0.037088 0.027709 0.011854 -0.010252 -0.036786 -0.064460 -0.089042 -0.106139 -0.112114 -0.104922 -0.084689 -0.053878 -0.016998 0.020116 0.051329 0.071311 0.076542 0.065974 0.041249 0.006405 -0.032856 -0.070198 -0.099774 -0.117222 -0.120354 -0.109419 -0.086899 -0.056932 -0.024466 0.005654 0.029494 0.044581 0.050138 0.046955 0.037011 0.022919 0.007357 -0.007413 -0.019829 -0.029114 -0.035162 -0.038302 -0.039028 -0.037785 -0.034849 -0.030355 -0.024414 -0.017293 -0.009561 -0.002161 0.003650 0.006494 0.005149 -0.001147 -0.012445 -0.027970 -0.046171 -0.064952 -0.082036 -0.095381 -0.103563 -0.106021 -0.103116 -0.095963 -0.086100 -0.075033 -0.063797 -0.052620 -0.040799 -0.026816 -0.008704 0.015422 0.046771 0.085345 0.129625 0.176527 0.221707 0.260143 0.286940 0.298177 0.291672 0.267488 0.228082 0.178050 0.123490 0.071088 0.027071 -0.003792 -0.018968 -0.018579 -0.005383 0.015685 0.038334 0.055985 0.062891 0.055127 0.031300 -0.007166 -0.056196 -0.109679 -0.160418 -0.201280 -0.226341 -0.231857 -0.216888 -0.183468 -0.136304 -0.082025 -0.028127 0.018234 0.051383 0.068015 0.067674 0.052734 0.027885 -0.000788 -0.026980 -0.045367 -0.052625 -0.048065 -0.033766 -0.014155 0.004877 0.017174 0.017615 0.003231 -0.026044 -0.067182 -0.114464 -0.160424 -0.197170 -0.217828 -0.217847 -0.195888 -0.154142 -0.097984 -0.035036 0.026196 0.077841 0.114053 0.131987 0.132191 0.118321 0.096252 0.072774 0.054131 0.044723 0.046224 0.057305 0.074015 0.090745 0.101559 0.101608 0.088331 0.062177 0.026678 -0.012146 -0.046939 -0.070497 -0.077270 -0.064585 -0.033316 0.012135 0.064560 0.115241 0.155555 0.178591 0.180449 0.160964 0.123735 0.075425 0.024503 -0.020349 -0.051833 -0.065347 -0.059756 -0.037500 -0.004018 0.033362 0.066855 0.089677 0.097263 0.088016 0.063462 0.027822 -0.012914 -0.052185 -0.084111 -0.104550 -0.111769 -0.106630 -0.092284 -0.073453 -0.055464 -0.043229 -0.040361 -0.048571 -0.067447 -0.094610 -0.126200 -0.157569 -0.184047 -0.201638 -0.207544 -0.200443 -0.180518 -0.149257 -0.109116 -0.063100 -0.014364 0.034110 0.079738 0.120434 0.154639 0.181274 0.199698 0.209664 0.211306 0.205151 0.192131 0.173579 0.151168 0.126797 0.102413 0.079787 0.060285 0.044672 0.032992 0.024550 0.018025 0.011691 0.003719 -0.007474 -0.022913 -0.042822 -0.066509 -0.092407 -0.118258 -0.141425 -0.159283 -0.169618 -0.170967 -0.162854 -0.145863 -0.121549 -0.092199 -0.060476 -0.029031 -0.000125 0.024650 0.044514 0.059483 0.070200 0.077655 0.082850 0.086498 0.088800 0.089375 0.087346 0.081587 0.071065 0.055208 0.034232 0.009317 -0.017396 -0.043027 -0.064362 -0.078381 -0.082822 -0.076654 -0.060380 -0.036080 -0.007171 0.022079 0.047231 0.064410 0.070979 0.066022 0.050537 0.027298 0.000398 -0.025439 -0.045681 -0.056776 
hipp_sf_0002_CA2 0.027926 0.029688 0.032719 0.036146 0.038920 0.040045 0.038782 0.034778 0.028084 0.019081 0.008337 -0.003553 -0.016082 -0.028861 -0.041567 -0.053801 -0.064943 -0.074043 -0.079812 -0.080774 -0.075536 -0.063167 -0.043569 -0.017758 0.012053 0.042630 0.070145 0.090819 0.101631 0.100973 0.089076 0.068099 0.041821 0.014987 -0.007603 -0.022055 -0.026201 -0.020101 -0.006078 0.011716 0.028140 0.038145 0.037860 0.025455 0.001590 -0.030660 -0.066390 -0.099842 -0.125567 -0.139511 -0.139798 -0.127037 -0.104085 -0.075341 -0.045713 -0.019522 0.000418 0.013331 0.020496 0.024767 0.029693 0.038481 0.053037 0.073326 0.097224 0.120897 0.139632 0.148934 0.145623 0.128672 0.099574 0.062146 0.021774 -0.015708 -0.045287 -0.063869 -0.070968 -0.068798 -0.061746 -0.055311 -0.054755 -0.063755 -0.083372 -0.111578 -0.143469 -0.172144 -0.190084 -0.190737 -0.169989 -0.127202 -0.065587 0.008180 0.085019 0.154996 0.209044 0.240515 0.246263 0.227060 0.187271 0.133890 0.075136 0.018923 -0.028502 -0.063477 -0.085248 -0.095658 -0.098316 -0.097450 -0.096709 -0.098188 -0.101883 -0.105687 -0.105920 -0.098274 -0.078963 -0.045828 0.000841 0.057949 0.119794 0.178798 0.226660 0.255719 0.260288 0.237734 0.189093 0.119118 0.035728 -0.051058 -0.130545 -0.192931 -0.230767 -0.240084 -0.221009 -0.177756 -0.117985 -0.051605 0.010787 0.059619 0.087913 0.092467 0.074437 0.039189 -0.004567 -0.046263 -0.075335 -0.083164 -0.064744 -0.019786 0.046987 0.126426 0.206382 0.273720 0.316597 0.326592 0.300282 0.239959 0.153326 0.052210 -0.049499 -0.138291 -0.203414 -0.238711 -0.243571 -0.222792 -0.185390 -0.142583 -0.105379 -0.082241 -0.077341 -0.089757 -0.113793 -0.140362 -0.159145 -0.161061 -0.140527 -0.096995 -0.035427 0.034432 0.099855 0.147658 0.166937 0.151428 0.101017 0.022049 -0.073647 -0.170833 -0.253625 -0.308405 -0.326293 -0.304689 -0.247594 -0.164662 -0.069208 0.024413 0.103503 0.159250 0.188071 0.191817 0.176881 0.152430 0.128208 0.112378 0.109889 0.121676 0.144823 0.173601 0.201081 0.220922 0.228903 0.223848 0.207743 0.185050 0.161412 0.142084 0.130481 0.127212 0.129841 0.133439 0.131794 0.119014 0.091116 0.047235 -0.009856 -0.074057 -0.137034 -0.189871 -0.224916 -0.237420 -0.226594 -0.195849 -0.152146 -0.104602 -0.062630 -0.034026 -0.023405 -0.031317 -0.054235 -0.085404 -0.116371 -0.138853 -0.146542 -0.136473 -0.109655 -0.070849 -0.027552 0.011591 0.038597 0.047795 0.036968 0.007765 -0.034695 -0.082924 -0.128614 -0.164313 -0.184863 -0.188303 -0.176078 -0.152507 -0.123667 -0.095932 -0.074490 -0.062163 -0.058771 -0.061177 -0.063995 -0.060813 -0.045673 -0.014493 0.033847 0.096999 0.169317 0.242686 0.307857 0.356035 0.380427 0.377465 0.347465 0.294623 0.226332 0.151949 0.081247 0.022810 -0.017326 -0.036571 -0.036039 -0.020159 0.004301 0.029598 0.048521 0.055766 0.048908 0.028824 -0.000546 -0.033029 -0.061498 -0.079362 -0.081975 -0.067704 -0.038433 0.000608 0.041668 0.075831 0.094644 0.091741 0.064132 0.012925 -0.056680 -0.136137 -0.214914 -0.282232 -0.328862 -0.348641 -0.339442 -0.303407 -0.246411 -0.176878 -0.104176 -0.036922 0.018476 0.058748 0.084009 0.097282 0.103424 0.107721 0.114447 0.125729 0.140962 0.156912 0.168486 0.169995 0.156637 0.125862 0.078297 0.018015 -0.047943 -0.110718 -0.161240 -0.191949 -0.198291 -0.179665 -0.139614 -0.085203 -0.025713 0.029106 0.070866 0.094086 0.097156 0.082513 0.056025 0.025705 0.000023 -0.013820 -0.011334 0.008407 0.042637 0.085515 0.129324 0.166007 0.188717 0.193071 0.177890 0.145282 0.100117 0.049014 -0.000932 -0.043397 -0.073835 -0.090062 -0.092341 -0.083017 -0.065821 -0.045028 -0.024653 -0.007855 0.003379 0.008236 0.006838 -0.000120 -0.011746 -0.027206 -0.045805 -0.066888 -0.089606 -0.112656 -0.134092 -0.151314 -0.161281 -0.160936 -0.147785 -0.120510 -0.079475 -0.027020 0.032577 0.093469 0.148918 0.192172 0.217413 0.220603 0.200102 0.156949 0.094780 0.019389 -0.061979 -0.141488 -0.211599 -0.265855 -0.299482 -0.309732 -0.295984 -0.259602 -0.203630 -0.132370 -0.050925 0.035249 0.120725 0.200430 0.269876 0.325330 0.363922 0.383707 
hipp_sf_0003_DG 0.059800 0.048588 0.028064 0.001697 -0.026056 -0.050506 -0.067514 -0.074165 -0.069232 -0.053337 -0.028813 0.000710 0.030924 0.057539 0.076942 0.086732 0.086020 0.075486 0.057190 0.034173 0.009947 -0.012071 -0.029064 -0.039199 -0.041847 -0.037597 -0.028095 -0.015724 -0.003184 0.006960 0.012700 0.012912 0.007536 -0.002416 -0.015035 -0.027848 -0.038257 -0.044024 -0.043718 -0.037029 -0.024906 -0.009462 0.006353 0.019258 0.026257 0.025249 0.015515 -0.002016 -0.024807 -0.049052 -0.070288 -0.084171 -0.087270 -0.077742 -0.055727 -0.023401 0.015364 0.055649 0.092347 0.121050 0.138789 0.144478 0.138966 0.124698 0.105058 0.083540 0.062952 0.044831 0.029205 0.014783 -0.000490 -0.018627 -0.040741 -0.066370 -0.093169 -0.117089 -0.133053 -0.136022 -0.122237 -0.090363 -0.042265 0.016812 0.078745 0.133706 0.171799 0.184884 0.168219 0.121595 0.049689 -0.038457 -0.130794 -0.214222 -0.276795 -0.309771 -0.309107 -0.276123 -0.217194 -0.142533 -0.064304 0.005584 0.057564 0.086003 0.089994 0.073231 0.043020 0.008648 -0.020536 -0.036954 -0.036171 -0.017573 0.015758 0.057901 0.101463 0.139154 0.165235 0.176542 0.172912 0.156951 0.133250 0.107248 0.084015 0.067218 0.058488 0.057284 0.061254 0.066966 0.070805 0.069830 0.062382 0.048327 0.028912 0.006297 -0.017086 -0.039161 -0.058660 -0.075281 -0.089522 -0.102243 -0.114101 -0.125016 -0.133846 -0.138382 -0.135703 -0.122843 -0.097612 -0.059398 -0.009729 0.047558 0.106626 0.160415 0.201749 0.224582 0.225129 0.202655 0.159737 0.101950 0.036989 -0.026590 -0.080797 -0.119527 -0.139521 -0.140806 -0.126523 -0.102193 -0.074584 -0.050377 -0.034916 -0.031258 -0.039688 -0.057797 -0.081049 -0.103751 -0.120191 -0.125758 -0.117805 -0.096137 -0.063029 -0.022808 0.018916 0.056202 0.083756 0.097755 0.096386 0.080041 0.051153 0.013731 -0.027320 -0.066949 -0.100684 -0.125212 -0.138747 -0.141151 -0.133818 -0.119348 -0.101081 -0.082548 -0.066931 -0.056575 -0.052630 -0.054856 -0.061616 -0.070062 -0.076493 -0.076866 -0.067383 -0.045090 -0.008420 0.042420 0.105275 0.176118 0.249408 0.318681 0.377322 0.419411 0.440529 0.438403 0.413280 0.367966 0.307504 0.238525 0.168354 0.103998 0.051171 0.013490 -0.008013 -0.014991 -0.011473 -0.003171 0.003476 0.002401 -0.011048 -0.039262 -0.081883 -0.135740 -0.195258 -0.253265 -0.302085 -0.334761 -0.346192 -0.334021 -0.299101 -0.245462 -0.179770 -0.110343 -0.045887 0.005850 0.039294 0.051896 0.044501 0.021135 -0.011752 -0.046457 -0.075422 -0.092605 -0.094579 -0.081157 -0.055410 -0.023087 0.008493 0.031859 0.040869 0.031968 0.004986 -0.036685 -0.086581 -0.136245 -0.176699 -0.200039 -0.200857 -0.177221 -0.131019 -0.067615 0.005130 0.078273 0.143374 0.193937 0.226434 0.240712 0.239725 0.228642 0.213538 0.199934 0.191510 0.189245 0.191195 0.192944 0.188649 0.172478 0.140118 0.090056 0.024339 -0.051375 -0.128504 -0.196883 -0.246503 -0.269336 -0.260890 -0.221193 -0.154999 -0.071155 0.018768 0.102342 0.168321 0.208478 0.218915 0.200607 0.159099 0.103405 0.044336 -0.007452 -0.043313 -0.058057 -0.050719 -0.024539 0.013820 0.055660 0.091953 0.115051 0.120083 0.105772 0.074548 0.031955 -0.014532 -0.057036 -0.088852 -0.105770 -0.106902 -0.094841 -0.075156 -0.055283 -0.043058 -0.045136 -0.065611 -0.105090 -0.160387 -0.224908 -0.289655 -0.344681 -0.380727 -0.390770 -0.371195 -0.322401 -0.248737 -0.157796 -0.059182 0.036999 0.121680 0.188124 0.232764 0.255450 0.259103 0.248864 0.230918 0.211239 0.194489 0.183278 0.177903 0.176590 0.176169 0.173002 0.163969 0.147297 0.123046 0.093163 0.061097 0.031059 0.007095 -0.007831 -0.012533 -0.007944 0.002998 0.015887 0.025699 0.027803 0.018911 -0.002224 -0.034488 -0.074543 -0.117381 -0.157184 -0.188324 -0.206305 -0.208470 -0.194362 -0.165680 -0.125866 -0.079446 -0.031253 0.014299 0.053748 0.084861 0.106618 0.118976 0.122498 0.117968 0.106115 0.087501 0.062605 0.032059 -0.003061 -0.040979 -0.079119 -0.114221 -0.142679 -0.161070 -0.166750 -0.158407 -0.136421 -0.102945 -0.061652 -0.017195 0.025552 0.062297 0.090033 0.107493 0.115253 0.115468 0.111292 0.106105 0.102718 
hipp_sf_0004_CA3 0.027659 0.017201 -0.002585 -0.029443 -0.060043 -0.090150 -0.114982 -0.129781 -0.130561 -0.114923 -0.082768 -0.036727 0.017876 0.073589 0.121917 0.154772 0.166029 0.152875 0.116635 0.062858 0.000561 -0.059265 -0.105649 -0.129741 -0.126597 -0.096263 -0.043893 0.021147 0.087056 0.141901 0.175978 0.183746 0.164914 0.124446 0.071466 0.017285 -0.027029 -0.053028 -0.056692 -0.039272 -0.006991 0.030356 0.061593 0.076681 0.069016 0.037023 -0.015328 -0.079174 -0.142471 -0.192407 -0.218001 -0.212372 -0.174189 -0.108030 -0.023567 0.066220 0.147451 0.207872 0.239002 0.237499 0.205510 0.149986 0.081154 0.010487 -0.051398 -0.096508 -0.120590 -0.123438 -0.108411 -0.081336 -0.049077 -0.018103 0.006673 0.022560 0.029218 0.028266 0.022556 0.015297 0.009253 0.006174 0.006545 0.009664 0.013956 0.017422 0.018091 0.014357 0.005175 -0.009912 -0.030843 -0.057154 -0.088058 -0.122461 -0.158895 -0.195432 -0.229624 -0.258554 -0.279038 -0.287993 -0.282915 -0.262399 -0.226563 -0.177279 -0.118125 -0.054018 0.009407 0.066600 0.112909 0.145275 0.162651 0.166082 0.158420 0.143751 0.126638 0.111340 0.101152 0.097983 0.102223 0.112899 0.128050 0.145216 0.161930 0.176100 0.186240 0.191514 0.191645 0.186739 0.177102 0.163118 0.145210 0.123887 0.099846 0.074061 0.047827 0.022700 0.000348 -0.017676 -0.030164 -0.036450 -0.036489 -0.030816 -0.020380 -0.006306 0.010346 0.028746 0.048328 0.068679 0.089301 0.109317 0.127239 0.140875 0.147454 0.144004 0.127910 0.097567 0.052970 -0.003914 -0.069116 -0.137026 -0.201134 -0.255022 -0.293417 -0.313109 -0.313515 -0.296776 -0.267324 -0.231021 -0.194030 -0.161643 -0.137339 -0.122248 -0.115149 -0.112991 -0.111806 -0.107806 -0.098398 -0.082887 -0.062689 -0.041009 -0.022064 -0.010020 -0.007917 -0.016832 -0.035483 -0.060398 -0.086604 -0.108694 -0.122038 -0.123840 -0.113814 -0.094307 -0.069824 -0.046075 -0.028729 -0.022162 -0.028470 -0.046961 -0.074224 -0.104754 -0.131986 -0.149495 -0.152117 -0.136757 -0.102737 -0.051661 0.013122 0.087283 0.166304 0.246090 0.323285 0.395254 0.459810 0.514825 0.557914 0.586336 0.597223 0.588104 0.557621 0.506248 0.436774 0.354377 0.266179 0.180290 0.104511 0.044933 0.004747 -0.016447 -0.022640 -0.020667 -0.018829 -0.025139 -0.045562 -0.082626 -0.134713 -0.196227 -0.258617 -0.312071 -0.347543 -0.358667 -0.343181 -0.303517 -0.246442 -0.181807 -0.120652 -0.073063 -0.046232 -0.043094 -0.061848 -0.096418 -0.137764 -0.175746 -0.201161 -0.207532 -0.192300 -0.157214 -0.107880 -0.052591 -0.000726 0.038964 0.059829 0.058325 0.034384 -0.008822 -0.065609 -0.128797 -0.190789 -0.244509 -0.284082 -0.305216 -0.305330 -0.283515 -0.240426 -0.178195 -0.100359 -0.011785 0.081488 0.172578 0.254310 0.319974 0.364201 0.383805 0.378397 0.350588 0.305681 0.250834 0.193814 0.141576 0.098970 0.067853 0.046861 0.031914 0.017399 -0.002226 -0.030743 -0.068820 -0.113344 -0.157654 -0.192697 -0.208923 -0.198528 -0.157558 -0.087375 0.004892 0.107105 0.204005 0.279911 0.321691 0.321423 0.278147 0.198326 0.094859 -0.015190 -0.113722 -0.184972 -0.218436 -0.210772 -0.166261 -0.095770 -0.014416 0.061568 0.118102 0.146002 0.142611 0.112018 0.063849 0.010910 -0.033782 -0.059925 -0.062195 -0.041355 -0.004010 0.038929 0.074717 0.091627 0.081571 0.041940 -0.023726 -0.106344 -0.193018 -0.269518 -0.322958 -0.344149 -0.329142 -0.279708 -0.202715 -0.108591 -0.009252 0.084054 0.162545 0.221013 0.258093 0.275727 0.278035 0.269920 0.255750 0.238420 0.218968 0.196780 0.170263 0.137772 0.098507 0.053155 0.004095 -0.044870 -0.089191 -0.124478 -0.147420 -0.156499 -0.152332 -0.137582 -0.116452 -0.093911 -0.074794 -0.062990 -0.060866 -0.069005 -0.086287 -0.110238 -0.137551 -0.164635 -0.188102 -0.205111 -0.213547 -0.212076 -0.200117 -0.177801 -0.145948 -0.106083 -0.060450 -0.011977 0.035854 0.079284 0.114689 0.139072 0.150560 0.148778 0.135015 0.112088 0.083926 0.054915 0.029127 0.009603 -0.002158 -0.006392 -0.004878 -0.000408 0.003974 0.005780 0.003757 -0.001753 -0.008833 -0.014436 -0.015126 -0.007977 0.008606 0.034326 0.066848 0.102104 0.135019 0.160479 0.174359 
hipp_sf_0005_HEAD NaN NaN NaN NaN NaN NaN NaN NaN NaN NaN NaN NaN NaN NaN NaN NaN NaN NaN NaN NaN NaN NaN NaN NaN NaN NaN NaN NaN NaN NaN NaN NaN NaN NaN NaN NaN NaN NaN NaN NaN NaN NaN NaN NaN NaN NaN NaN NaN NaN NaN NaN NaN NaN NaN NaN NaN NaN NaN NaN NaN NaN NaN NaN NaN NaN NaN NaN NaN NaN NaN NaN NaN NaN NaN NaN NaN NaN NaN NaN NaN NaN NaN NaN NaN NaN NaN NaN NaN NaN NaN NaN NaN NaN NaN NaN NaN NaN NaN NaN NaN NaN NaN NaN NaN NaN NaN NaN NaN NaN NaN NaN NaN NaN NaN NaN NaN NaN NaN NaN NaN NaN NaN NaN NaN NaN NaN NaN NaN NaN NaN NaN NaN NaN NaN NaN NaN NaN NaN NaN NaN NaN NaN NaN NaN NaN NaN NaN NaN NaN NaN NaN NaN NaN NaN NaN NaN NaN NaN NaN NaN NaN NaN NaN NaN NaN NaN NaN NaN NaN NaN NaN NaN NaN NaN NaN NaN NaN NaN NaN NaN NaN NaN NaN NaN NaN NaN NaN NaN NaN NaN NaN NaN NaN NaN NaN NaN NaN NaN NaN NaN NaN NaN NaN NaN NaN NaN NaN NaN NaN NaN NaN NaN NaN NaN NaN NaN NaN NaN NaN NaN NaN NaN NaN NaN NaN NaN NaN NaN NaN NaN NaN NaN NaN NaN NaN NaN NaN NaN NaN NaN NaN NaN NaN NaN NaN NaN NaN NaN NaN NaN NaN NaN NaN NaN NaN NaN NaN NaN NaN NaN NaN NaN NaN NaN NaN NaN NaN NaN NaN NaN NaN NaN NaN NaN NaN NaN NaN NaN NaN NaN NaN NaN NaN NaN NaN NaN NaN NaN NaN NaN NaN NaN NaN NaN NaN NaN NaN NaN NaN NaN NaN NaN NaN NaN NaN NaN NaN NaN NaN NaN NaN NaN NaN NaN NaN NaN NaN NaN NaN NaN NaN NaN NaN NaN NaN NaN NaN NaN NaN NaN NaN NaN NaN NaN NaN NaN NaN NaN NaN NaN NaN NaN NaN NaN NaN NaN NaN NaN NaN NaN NaN NaN NaN NaN NaN NaN NaN NaN NaN NaN NaN NaN NaN NaN NaN NaN NaN NaN NaN NaN NaN NaN NaN NaN NaN NaN NaN NaN NaN NaN NaN NaN NaN NaN NaN NaN NaN NaN NaN NaN NaN NaN NaN NaN NaN NaN NaN NaN NaN NaN NaN NaN NaN NaN NaN NaN NaN NaN NaN NaN NaN NaN NaN NaN NaN NaN NaN NaN NaN NaN 
hipp_sf_0006_TAIL 0.083281 0.057131 0.010053 -0.048500 -0.106620 -0.152173 -0.175055 -0.169046 -0.132924 -0.070657 0.009329 0.095645 0.175890 0.238681 0.275416 0.281471 0.256673 0.205040 0.133905 0.052620 -0.028887 -0.101469 -0.157841 -0.193272 -0.205863 -0.196459 -0.168271 -0.126317 -0.076760 -0.026214 0.018951 0.053258 0.072720 0.075313 0.061285 0.033213 -0.004240 -0.044903 -0.081960 -0.109018 -0.121191 -0.116022 -0.094027 -0.058723 -0.016080 0.026555 0.061860 0.084027 0.090009 0.080252 0.058722 0.032171 0.008763 -0.003689 0.000495 0.023435 0.062956 0.112729 0.163308 0.203876 0.224363 0.217507 0.180435 0.115418 0.029639 -0.065992 -0.158745 -0.236301 -0.288878 -0.310811 -0.301299 -0.264202 -0.206976 -0.139001 -0.069710 -0.006899 0.044426 0.082453 0.108222 0.124665 0.135326 0.143118 0.149408 0.153677 0.153786 0.146777 0.129952 0.101931 0.063406 0.017357 -0.031326 -0.076746 -0.113202 -0.136403 -0.144386 -0.137907 -0.120212 -0.096232 -0.071403 -0.050408 -0.036142 -0.029161 -0.027744 -0.028544 -0.027658 -0.021827 -0.009450 0.008850 0.030290 0.050600 0.065159 0.070296 0.064425 0.048702 0.027003 0.005182 -0.010233 -0.013626 -0.001773 0.025150 0.063302 0.105774 0.143932 0.169241 0.175178 0.158763 0.121384 0.068669 0.009425 -0.046155 -0.088629 -0.111313 -0.111712 -0.092059 -0.058805 -0.021197 0.010776 0.028596 0.027109 0.005677 -0.031672 -0.077123 -0.120788 -0.152876 -0.165837 -0.156019 -0.124475 -0.076747 -0.021704 0.030325 0.069690 0.089382 0.086400 0.062252 0.022508 -0.024460 -0.069264 -0.103408 -0.120914 -0.119338 -0.100012 -0.067491 -0.028385 0.010144 0.041870 0.062679 0.071204 0.068838 0.059173 0.047052 0.037451 0.034455 0.040522 0.056136 0.079876 0.108812 0.139099 0.166615 0.187519 0.198655 0.197779 0.183665 0.156124 0.116022 0.065297 0.006984 -0.054830 -0.115174 -0.168561 -0.209567 -0.233584 -0.237626 -0.221045 -0.185946 -0.137192 -0.081884 -0.028371 0.015082 0.041743 0.047676 0.032574 -0.000066 -0.043475 -0.088799 -0.126726 -0.149230 -0.151093 -0.130894 -0.091245 -0.038246 0.019760 0.073840 0.116215 0.141712 0.148640 0.138928 0.117500 0.091059 0.066563 0.049718 0.043822 0.049194 0.063288 0.081428 0.097988 0.107720 0.106946 0.094339 0.071164 0.040928 0.008580 -0.020573 -0.041954 -0.052588 -0.051586 -0.040172 -0.021297 0.001047 0.022616 0.039637 0.049331 0.050151 0.041760 0.024822 0.000700 -0.028804 -0.061618 -0.095455 -0.127794 -0.155862 -0.176730 -0.187551 -0.185983 -0.170715 -0.141976 -0.101893 -0.054537 -0.005574 0.038478 0.071297 0.087916 0.085762 0.065329 0.030312 -0.012890 -0.056221 -0.091404 -0.111468 -0.112078 -0.092355 -0.055042 -0.005943 0.047226 0.096345 0.134432 0.156902 0.162272 0.152195 0.130842 0.103798 0.076748 0.054261 0.038947 0.031158 0.029267 0.030417 0.031508 0.030162 0.025396 0.017833 0.009405 0.002652 -0.000197 0.001926 0.008398 0.016854 0.023676 0.024918 0.017433 -0.000084 -0.026426 -0.057790 -0.088351 -0.111394 -0.120776 -0.112379 -0.085207 -0.041851 0.011817 0.067688 0.116970 0.151933 0.167435 0.161898 0.137499 0.099561 0.055261 0.011996 -0.024224 -0.049971 -0.064905 -0.071487 -0.073993 -0.077098 -0.084409 -0.097326 -0.114547 -0.132365 -0.145679 -0.149476 -0.140402 -0.117987 -0.085179 -0.047989 -0.014276 0.008074 0.013165 -0.001192 -0.032523 -0.073770 -0.114477 -0.142886 -0.148506 -0.124597 -0.070004 0.010107 0.104845 0.199440 0.277999 0.326611 0.336164 0.304260 0.235827 0.142280 0.039399 -0.055635 -0.127445 -0.165245 -0.164655 -0.128222 -0.064580 0.013501 0.091736 0.157025 0.199686 0.214800 0.202467 0.167033 0.115575 0.056055 -0.004374 -0.060552 -0.109759 -0.151411 -0.186202 -0.215003 -0.237896 -0.253624 -0.259653 -0.252807 -0.230304 -0.190876 -0.135631 -0.068379 0.004715 0.076128 0.138376 0.185502 0.214245 0.224610 0.219649 0.204508 0.184959 0.165808 0.149582 0.135882 0.121586 0.101906 0.072043 0.029030 -0.026743 -0.090753 -0.154627 -0.207508 -0.238273 -0.238143 -0.203075 -0.135347 -0.043882 0.056875 0.149390 0.216339 0.244111 0.225762 0.162761 0.065093 -0.050365 -0.162918 -0.251985 -0.301089 
hipp_sf_0007_MISC 0.178202 0.151809 0.103428 0.041000 -0.025538 -0.086133 -0.132435 -0.159165 -0.164777 -0.151304 -0.123474 -0.087364 -0.048921 -0.012719 0.018761 0.045200 0.067879 0.088688 0.109015 0.128831 0.146276 0.157861 0.159282 0.146657 0.117849 0.073547 0.017753 -0.042491 -0.098149 -0.139858 -0.159838 -0.153662 -0.121460 -0.068253 -0.003300 0.061468 0.113612 0.142559 0.141673 0.109610 0.050684 -0.025855 -0.107474 -0.180617 -0.233131 -0.256381 -0.246664 -0.205681 -0.140022 -0.059807 0.023199 0.097616 0.154235 0.187257 0.194804 0.178695 0.143635 0.096027 0.042708 -0.010148 -0.057778 -0.097155 -0.126913 -0.146996 -0.158159 -0.161497 -0.158091 -0.148830 -0.134392 -0.115336 -0.092206 -0.065619 -0.036264 -0.004861 0.027912 0.061436 0.095103 0.128162 0.159523 0.187575 0.210131 0.224570 0.228222 0.218960 0.195890 0.159979 0.114423 0.064599 0.017498 -0.019310 -0.039066 -0.037273 -0.012923 0.030833 0.086769 0.144528 0.192300 0.218972 0.216335 0.180895 0.114884 0.026194 -0.072811 -0.167428 -0.243312 -0.289198 -0.299100 -0.273515 -0.219358 -0.148613 -0.075948 -0.015772 0.020661 0.027501 0.005433 -0.038563 -0.092761 -0.143239 -0.176880 -0.184198 -0.161385 -0.111145 -0.042159 0.032717 0.099115 0.144114 0.158865 0.140326 0.091768 0.021956 -0.056784 -0.131169 -0.189667 -0.224725 -0.234040 -0.220648 -0.191825 -0.157114 -0.125907 -0.105167 -0.097788 -0.101940 -0.111555 -0.117794 -0.111196 -0.083982 -0.032031 0.043913 0.138067 0.240487 0.338821 0.420538 0.475196 0.496269 0.482194 0.436458 0.366755 0.283426 0.197533 0.118968 0.054953 0.009202 -0.018175 -0.030078 -0.031337 -0.027421 -0.023240 -0.022275 -0.026167 -0.034800 -0.046765 -0.060044 -0.072707 -0.083436 -0.091776 -0.098069 -0.103133 -0.107814 -0.112549 -0.117075 -0.120382 -0.120911 -0.116957 -0.107169 -0.091016 -0.069088 -0.043177 -0.016078 0.008821 0.028089 0.038826 0.039139 0.028435 0.007492 -0.021694 -0.056225 -0.092717 -0.127712 -0.158044 -0.181094 -0.194929 -0.198366 -0.190961 -0.172989 -0.145418 -0.109889 -0.068677 -0.024609 0.019104 0.059126 0.092342 0.116260 0.129395 0.131568 0.124050 0.109499 0.091671 0.074949 0.063730 0.061785 0.071679 0.094337 0.128835 0.172427 0.220806 0.268548 0.309694 0.338373 0.349427 0.338970 0.304844 0.246947 0.167406 0.070574 -0.037175 -0.147864 -0.252554 -0.342179 -0.408511 -0.445173 -0.448535 -0.418384 -0.358183 -0.274865 -0.178098 -0.079100 0.010857 0.082033 0.127629 0.144777 0.134912 0.103438 0.058716 0.010547 -0.031587 -0.060209 -0.071136 -0.064129 -0.042773 -0.013630 0.015200 0.035785 0.042026 0.030928 0.003235 -0.036700 -0.081766 -0.123497 -0.153731 -0.166190 -0.157661 -0.128559 -0.082773 -0.026840 0.031350 0.084058 0.125087 0.150790 0.160519 0.156454 0.142872 0.125070 0.108151 0.095964 0.090395 0.091130 0.095926 0.101273 0.103307 0.098745 0.085655 0.063905 0.035222 0.002869 -0.028966 -0.055933 -0.074276 -0.081445 -0.076466 -0.060018 -0.034250 -0.002385 0.031787 0.064455 0.092259 0.112667 0.124195 0.126492 0.120281 0.107192 0.089499 0.069799 0.050658 0.034252 0.022056 0.014617 0.011463 0.011175 0.011632 0.010402 0.005223 -0.005523 -0.022431 -0.044901 -0.071211 -0.098858 -0.125101 -0.147603 -0.165008 -0.177323 -0.185968 -0.193462 -0.202767 -0.216422 -0.235667 -0.259762 -0.285710 -0.308493 -0.321846 -0.319434 -0.296227 -0.249772 -0.181071 -0.094822 0.001066 0.096658 0.181654 0.247221 0.287596 0.301127 0.290491 0.262041 0.224380 0.186474 0.155708 0.136322 0.128586 0.128929 0.130992 0.127397 0.111824 0.080911 0.035521 -0.018973 -0.073489 -0.117005 -0.138931 -0.131590 -0.092226 -0.024081 0.063746 0.157702 0.242173 0.302414 0.327402 0.312016 0.258081 0.174051 0.073380 -0.028057 -0.114980 -0.175500 -0.203143 -0.197701 -0.164768 -0.114135 -0.057429 -0.005563 0.033425 0.055694 0.061815 0.055906 0.043964 0.031861 0.023531 0.019820 0.018303 0.014103 0.001510 -0.024050 -0.064200 -0.116474 -0.174193 -0.227479 -0.265207 -0.277495 -0.258151 -0.206472 -0.127949 -0.033623 0.061829 0.142912 0.196442 0.214312 0.195277 0.145319 0.076499 0.004503 -0.054624 -0.087834 
hipp_sf_0008_SUB 0.037677 0.032617 0.023395 0.011645 -0.000554 -0.011037 -0.017918 -0.019885 -0.016385 -0.007674 0.005257 0.020851 0.037208 0.052310 0.064231 0.071294 0.072207 0.066166 0.052954 0.033032 0.007616 -0.021292 -0.050960 -0.078105 -0.099217 -0.111010 -0.110956 -0.097809 -0.072022 -0.035927 0.006378 0.049479 0.087394 0.114508 0.126538 0.121337 0.099371 0.063754 0.019787 -0.025917 -0.066586 -0.096487 -0.111950 -0.111985 -0.098384 -0.075260 -0.048122 -0.022684 -0.003656 0.006231 0.006732 0.000035 -0.009847 -0.018109 -0.020371 -0.013806 0.002090 0.025252 0.051415 0.075007 0.090374 0.093079 0.080960 0.054721 0.017899 -0.023781 -0.063544 -0.094931 -0.113104 -0.115798 -0.103699 -0.080177 -0.050441 -0.020298 0.005173 0.022747 0.031690 0.033783 0.032703 0.032926 0.038401 0.051320 0.071291 0.095130 0.117351 0.131273 0.130511 0.110540 0.069954 0.011146 -0.059786 -0.133915 -0.200993 -0.251293 -0.277412 -0.275671 -0.246809 -0.195839 -0.131071 -0.062528 -0.000053 0.048500 0.078620 0.089792 0.085320 0.071384 0.055550 0.045046 0.045178 0.058201 0.082880 0.114804 0.147368 0.173225 0.185869 0.181047 0.157705 0.118286 0.068340 0.015524 -0.031784 -0.066007 -0.081712 -0.076561 -0.051680 -0.011431 0.037368 0.086604 0.128194 0.155353 0.163584 0.151270 0.119786 0.073158 0.017349 -0.040679 -0.093987 -0.136601 -0.164251 -0.174823 -0.168487 -0.147500 -0.115751 -0.078112 -0.039700 -0.005160 0.021937 0.039498 0.047061 0.045681 0.037579 0.025615 0.012675 0.001100 -0.007753 -0.013709 -0.017715 -0.021502 -0.027065 -0.036042 -0.049159 -0.065857 -0.084212 -0.101188 -0.113199 -0.116872 -0.109857 -0.091497 -0.063202 -0.028397 0.007971 0.040298 0.063416 0.073675 0.069797 0.053285 0.028278 0.000840 -0.022204 -0.034657 -0.032301 -0.013902 0.018344 0.059050 0.100548 0.134309 0.152607 0.150078 0.124880 0.079180 0.018868 -0.047464 -0.110086 -0.159936 -0.190290 -0.197977 -0.183884 -0.152655 -0.111650 -0.069372 -0.033709 -0.010333 -0.001602 -0.006170 -0.019397 -0.034451 -0.043860 -0.041209 -0.022588 0.012473 0.060800 0.116135 0.170330 0.214944 0.242899 0.249875 0.235151 0.201742 0.155809 0.105466 0.059232 0.024431 0.005853 0.004921 0.019511 0.044443 0.072520 0.095920 0.107654 0.102836 0.079540 0.039105 -0.014133 -0.073612 -0.131652 -0.180706 -0.214517 -0.229023 -0.222851 -0.197376 -0.156359 -0.105246 -0.050285 0.002409 0.047682 0.081951 0.103531 0.112632 0.111093 0.101874 0.088429 0.074056 0.061322 0.051658 0.045169 0.040697 0.036115 0.028793 0.016169 -0.003679 -0.031561 -0.066885 -0.107604 -0.150421 -0.191216 -0.225633 -0.249722 -0.260529 -0.256530 -0.237832 -0.206117 -0.164336 -0.116228 -0.065760 -0.016584 0.028366 0.067098 0.098557 0.122440 0.138891 0.148176 0.150425 0.145527 0.133202 0.113248 0.085870 0.052034 0.013703 -0.026111 -0.063546 -0.094316 -0.114327 -0.120353 -0.110644 -0.085343 -0.046608 0.001605 0.054067 0.105029 0.149071 0.181884 0.200858 0.205375 0.196749 0.177859 0.152550 0.124921 0.098646 0.076442 0.059765 0.048772 0.042517 0.039314 0.037181 0.034265 0.029167 0.021133 0.010085 -0.003466 -0.018595 -0.034160 -0.049001 -0.062079 -0.072587 -0.080010 -0.084170 -0.085257 -0.083852 -0.080927 -0.077798 -0.076007 -0.077112 -0.082410 -0.092605 -0.107509 -0.125825 -0.145117 -0.161994 -0.172528 -0.172867 -0.159946 -0.132164 -0.089890 -0.035668 0.025945 0.088926 0.146633 0.192821 0.222637 0.233403 0.225040 0.200035 0.162958 0.119624 0.076065 0.037517 0.007622 -0.012004 -0.021766 -0.023688 -0.020705 -0.015855 -0.011545 -0.009069 -0.008478 -0.008808 -0.008605 -0.006561 -0.002114 0.004184 0.010635 0.014725 0.013741 0.005537 -0.010764 -0.034306 -0.062438 -0.091072 -0.115440 -0.131062 -0.134735 -0.125295 -0.103960 -0.074174 -0.040944 -0.009814 0.014294 0.028122 0.030752 0.023758 0.010787 -0.003339 -0.013795 -0.016928 -0.011150 0.002661 0.021369 0.040345 0.054634 0.060232 0.055183 0.040204 0.018678 -0.004018 -0.021713 -0.028912 -0.022202 -0.001247 0.030868 0.068067 0.102424 0.125793 0.131585 0.116296 0.080452 0.028736 -0.030764 -0.088034 -0.133064 -0.157812 
hipp_sf_0009_ERC -0.000503 0.003529 0.010491 0.018426 0.024983 0.027954 0.025799 0.018026 0.005338 -0.010465 -0.026827 -0.040926 -0.050221 -0.052929 -0.048352 -0.036969 -0.020323 -0.000703 0.019266 0.037056 0.050602 0.058523 0.060206 0.055734 0.045737 0.031210 0.013350 -0.006528 -0.027022 -0.046617 -0.063671 -0.076449 -0.083251 -0.082641 -0.073744 -0.056557 -0.032182 -0.002901 0.027967 0.056447 0.078488 0.090649 0.090768 0.078466 0.055378 0.025008 -0.007759 -0.037453 -0.058963 -0.068469 -0.064165 -0.046640 -0.018818 0.014536 0.047652 0.074792 0.091263 0.094240 0.083221 0.060045 0.028471 -0.006577 -0.039951 -0.067198 -0.085296 -0.093050 -0.091099 -0.081561 -0.067410 -0.051733 -0.037054 -0.024857 -0.015411 -0.007919 -0.000936 0.007065 0.017111 0.029299 0.042609 0.055036 0.063991 0.066903 0.061882 0.048280 0.027023 0.000631 -0.027110 -0.051762 -0.069014 -0.075491 -0.069411 -0.050978 -0.022407 0.012406 0.048531 0.080830 0.104817 0.117393 0.117315 0.105329 0.083946 0.056910 0.028478 0.002636 -0.017586 -0.030583 -0.036348 -0.036325 -0.032990 -0.029241 -0.027736 -0.030302 -0.037540 -0.048698 -0.061834 -0.074236 -0.083017 -0.085756 -0.081059 -0.068916 -0.050790 -0.029391 -0.008187 0.009269 0.020052 0.022491 0.016563 0.003968 -0.012148 -0.027773 -0.038827 -0.042007 -0.035514 -0.019517 0.003778 0.030471 0.055682 0.074520 0.083095 0.079399 0.063838 0.039297 0.010704 -0.015869 -0.034377 -0.040056 -0.030474 -0.006178 0.029233 0.069639 0.107473 0.135129 0.146453 0.138007 0.109859 0.065713 0.012334 -0.041628 -0.087218 -0.116840 -0.125697 -0.112703 -0.080701 -0.035933 0.013144 0.057442 0.088939 0.102133 0.094985 0.069166 0.029582 -0.016710 -0.061961 -0.099251 -0.123763 -0.133552 -0.129677 -0.115687 -0.096608 -0.077660 -0.063011 -0.054832 -0.052865 -0.054583 -0.055905 -0.052275 -0.039885 -0.016736 0.016680 0.057253 0.099693 0.137468 0.164028 0.174079 0.164630 0.135625 0.090029 0.033364 -0.027195 -0.083979 -0.130019 -0.160050 -0.171162 -0.163019 -0.137647 -0.098886 -0.051646 -0.001130 0.047839 0.091279 0.126288 0.151065 0.164782 0.167415 0.159577 0.142425 0.117624 0.087352 0.054272 0.021431 -0.007973 -0.030939 -0.045092 -0.049108 -0.043039 -0.028449 -0.008292 0.013477 0.032500 0.044734 0.047159 0.038324 0.018631 -0.009710 -0.043052 -0.076935 -0.106856 -0.129013 -0.140916 -0.141724 -0.132276 -0.114822 -0.092521 -0.068820 -0.046836 -0.028870 -0.016110 -0.008582 -0.005314 -0.004668 -0.004746 -0.003797 -0.000545 0.005608 0.014519 0.025364 0.036798 0.047179 0.054808 0.058177 0.056195 0.048375 0.034988 0.017133 -0.003268 -0.023599 -0.040815 -0.051825 -0.053982 -0.045598 -0.026395 0.002207 0.037065 0.073601 0.106411 0.130114 0.140317 0.134505 0.112676 0.077546 0.034252 -0.010451 -0.049374 -0.076252 -0.086993 -0.080575 -0.059352 -0.028680 0.004094 0.031120 0.045701 0.043775 0.024908 -0.007466 -0.046616 -0.083836 -0.110251 -0.118736 -0.105555 -0.071323 -0.021087 0.036543 0.091063 0.132192 0.152026 0.146738 0.117471 0.070201 0.014569 -0.038073 -0.077015 -0.094442 -0.087098 -0.057008 -0.011083 0.040313 0.085537 0.114129 0.119035 0.098109 0.054598 -0.003530 -0.065236 -0.118701 -0.153775 -0.164043 -0.148107 -0.109789 -0.057263 -0.001303 0.046970 0.078335 0.087256 0.072841 0.038794 -0.007569 -0.057014 -0.100368 -0.130362 -0.142945 -0.137798 -0.118003 -0.088992 -0.057057 -0.027801 -0.004905 0.010527 0.019913 0.026479 0.034104 0.046029 0.063777 0.086555 0.111288 0.133281 0.147347 0.149110 0.136179 0.108877 0.070372 0.026139 -0.017110 -0.052780 -0.075741 -0.083344 -0.075880 -0.056404 -0.029961 -0.002415 0.020844 0.036011 0.041553 0.038327 0.029138 0.017855 0.008333 0.003415 0.004238 0.010032 0.018425 0.026161 0.030045 0.027859 0.019005 0.004718 -0.012205 -0.028103 -0.039381 -0.043450 -0.039419 -0.028386 -0.013219 0.002104 0.013445 0.017511 0.012673 -0.000613 -0.019876 -0.041196 -0.060108 -0.072647 -0.076265 -0.070407 -0.056608 -0.038082 -0.018919 -0.003068 0.006616 0.009060 0.005198 -0.002300 -0.009737 -0.013354 -0.010316 0.000521 0.018271 0.040165 0.062179 0.079968 0.089895 
hipp_sf_0010_BA35 0.102052 0.090265 0.068717 0.041034 0.011694 -0.014888 -0.035214 -0.047332 -0.051081 -0.047940 -0.040500 -0.031732 -0.024207 -0.019482 -0.017778 -0.018045 -0.018360 -0.016575 -0.011026 -0.001121 0.012338 0.027220 0.040482 0.048866 0.049713 0.041691 0.025253 0.002724 -0.022055 -0.044433 -0.059883 -0.064955 -0.058053 -0.039844 -0.013237 0.017103 0.045596 0.066782 0.076347 0.071946 0.053662 0.024031 -0.012377 -0.049716 -0.081835 -0.103274 -0.110136 -0.100683 -0.075594 -0.037859 0.007650 0.054855 0.097281 0.128909 0.144946 0.142447 0.120713 0.081425 0.028498 -0.032343 -0.094240 -0.150050 -0.193287 -0.219025 -0.224629 -0.210183 -0.178512 -0.134769 -0.085596 -0.037995 0.001920 0.030050 0.045095 0.048808 0.045630 0.041736 0.043651 0.056696 0.083607 0.123615 0.172244 0.221934 0.263394 0.287479 0.287193 0.259413 0.205923 0.133495 0.052910 -0.022918 -0.081403 -0.112833 -0.112482 -0.081802 -0.028416 0.035162 0.093873 0.133074 0.141550 0.113939 0.052053 -0.035202 -0.133343 -0.224999 -0.293241 -0.324907 -0.313244 -0.259327 -0.171966 -0.066089 0.040058 0.128360 0.184230 0.199290 0.172810 0.111654 0.028759 -0.059503 -0.136531 -0.188622 -0.207399 -0.191089 -0.144471 -0.077552 -0.003339 0.064821 0.115732 0.142210 0.141966 0.117425 0.074615 0.021461 -0.034076 -0.085590 -0.129208 -0.163788 -0.190375 -0.211126 -0.228035 -0.241833 -0.251351 -0.253535 -0.244105 -0.218700 -0.174204 -0.109928 -0.028321 0.064974 0.161778 0.252624 0.328323 0.381537 0.407998 0.407140 0.382005 0.338484 0.284045 0.226274 0.171519 0.123929 0.085069 0.054142 0.028722 0.005790 -0.017201 -0.041499 -0.066634 -0.090505 -0.109931 -0.121485 -0.122426 -0.111472 -0.089235 -0.058218 -0.022383 0.013598 0.045234 0.069033 0.083065 0.087171 0.082773 0.072372 0.058870 0.044879 0.032194 0.021531 0.012563 0.004229 -0.004809 -0.015691 -0.028987 -0.044546 -0.061565 -0.078865 -0.095269 -0.109952 -0.122673 -0.133795 -0.144089 -0.154369 -0.165064 -0.175863 -0.185529 -0.191992 -0.192689 -0.185130 -0.167537 -0.139418 -0.101931 -0.057912 -0.011556 0.032233 0.068680 0.094019 0.106224 0.105436 0.094004 0.076106 0.057037 0.042292 0.036606 0.043147 0.062973 0.094855 0.135470 0.179895 0.222321 0.256837 0.278187 0.282378 0.267115 0.232015 0.178632 0.110325 0.031978 -0.050378 -0.130053 -0.200267 -0.254793 -0.288641 -0.298696 -0.284244 -0.247266 -0.192406 -0.126558 -0.058064 0.004399 0.053090 0.082440 0.090019 0.077035 0.048225 0.011123 -0.025220 -0.051853 -0.061592 -0.050433 -0.018418 0.030219 0.087693 0.143995 0.188673 0.212736 0.210332 0.179869 0.124371 0.050996 -0.030189 -0.107955 -0.171821 -0.213804 -0.229659 -0.219409 -0.187097 -0.139826 -0.086310 -0.035231 0.006286 0.033791 0.046041 0.044895 0.034622 0.020813 0.009137 0.004179 0.008597 0.022712 0.044585 0.070523 0.095874 0.115938 0.126826 0.126102 0.113129 0.089090 0.056712 0.019786 -0.017429 -0.050792 -0.076799 -0.092943 -0.097922 -0.091670 -0.075257 -0.050667 -0.020518 0.012274 0.044817 0.074549 0.099483 0.118363 0.130722 0.136810 0.137429 0.133682 0.126679 0.117281 0.105915 0.092523 0.076644 0.057640 0.034991 0.008597 -0.020995 -0.052519 -0.084108 -0.113591 -0.138917 -0.158609 -0.172128 -0.180043 -0.183943 -0.186071 -0.188757 -0.193748 -0.201624 -0.211428 -0.220649 -0.225595 -0.222117 -0.206544 -0.176633 -0.132313 -0.076029 -0.012570 0.051622 0.109555 0.154980 0.183593 0.193893 0.187470 0.168640 0.143489 0.118513 0.099147 0.088535 0.086820 0.091149 0.096420 0.096630 0.086521 0.063161 0.027053 -0.017511 -0.062992 -0.099997 -0.119239 -0.113699 -0.080467 -0.021883 0.054371 0.136287 0.209523 0.260021 0.276727 0.253876 0.192368 0.099915 -0.010084 -0.120776 -0.214749 -0.277064 -0.297834 -0.273878 -0.209140 -0.113837 -0.002529 0.108488 0.203940 0.271980 0.305800 0.304223 0.271258 0.214793 0.144779 0.071318 0.003040 -0.053953 -0.096440 -0.123796 -0.137245 -0.138933 -0.131097 -0.115547 -0.093557 -0.066139 -0.034539 -0.000753 0.032171 0.060192 0.078762 0.083644 0.071898 0.042777 -0.001714 -0.056784 -0.115402 -0.169373 -0.210723 -0.233141 
hipp_sf_0011_BA36 0.047384 0.038871 0.023554 0.004503 -0.014489 -0.029670 -0.038085 -0.038139 -0.029886 -0.014957 0.003809 0.022971 0.039166 0.049741 0.053183 0.049306 0.039144 0.024626 0.008116 -0.008068 -0.022048 -0.032608 -0.039237 -0.042001 -0.041316 -0.037701 -0.031597 -0.023295 -0.012994 -0.000945 0.012354 0.026026 0.038767 0.048958 0.054905 0.055171 0.048924 0.036210 0.018072 -0.003526 -0.025968 -0.046399 -0.062200 -0.071426 -0.073112 -0.067388 -0.055391 -0.039001 -0.020471 -0.002053 0.014318 0.027200 0.035681 0.039296 0.037882 0.031450 0.020131 0.004240 -0.015567 -0.038094 -0.061452 -0.083030 -0.099683 -0.108132 -0.105547 -0.090197 -0.062029 -0.023012 0.022871 0.070051 0.112183 0.143218 0.158529 0.155866 0.135921 0.102343 0.061170 0.019754 -0.014621 -0.036154 -0.041680 -0.031306 -0.008385 0.021191 0.050227 0.071753 0.080497 0.073988 0.053052 0.021570 -0.014434 -0.048190 -0.073733 -0.087260 -0.087982 -0.078246 -0.062914 -0.048108 -0.039617 -0.041334 -0.054097 -0.075226 -0.098898 -0.117312 -0.122418 -0.107839 -0.070558 -0.011988 0.061839 0.141061 0.213614 0.267394 0.292530 0.283306 0.239334 0.165750 0.072383 -0.027944 -0.121615 -0.196530 -0.244036 -0.260164 -0.245947 -0.206825 -0.151320 -0.089279 -0.030081 0.018841 0.052915 0.070650 0.073228 0.063646 0.045670 0.022890 -0.001910 -0.026951 -0.051243 -0.074083 -0.094489 -0.110775 -0.120456 -0.120552 -0.108248 -0.081754 -0.041127 0.011180 0.070253 0.129217 0.180260 0.216001 0.230929 0.222600 0.192307 0.145049 0.088764 0.032958 -0.013031 -0.041752 -0.049031 -0.034723 -0.002678 0.040065 0.084693 0.122342 0.145784 0.150728 0.136497 0.105964 0.064795 0.020185 -0.020626 -0.051735 -0.069596 -0.073481 -0.065335 -0.049108 -0.029758 -0.012156 -0.000155 0.004016 -0.000095 -0.011403 -0.027846 -0.047064 -0.067029 -0.086457 -0.104937 -0.122766 -0.140579 -0.158899 -0.177758 -0.196492 -0.213791 -0.227949 -0.237278 -0.240512 -0.237122 -0.227400 -0.212316 -0.193167 -0.171120 -0.146800 -0.120054 -0.089982 -0.055267 -0.014730 0.032023 0.084045 0.138756 0.192053 0.238853 0.274002 0.293374 0.294931 0.279464 0.250836 0.215578 0.181881 0.158131 0.151262 0.165249 0.200078 0.251421 0.311130 0.368493 0.412032 0.431518 0.419811 0.374174 0.296804 0.194482 0.077416 -0.042489 -0.153589 -0.246309 -0.314467 -0.355883 -0.372202 -0.368031 -0.349612 -0.323348 -0.294516 -0.266407 -0.240077 -0.214675 -0.188254 -0.158794 -0.125183 -0.087900 -0.049207 -0.012830 0.016807 0.035614 0.040847 0.031887 0.010552 -0.019116 -0.051582 -0.080891 -0.101860 -0.111117 -0.107754 -0.093455 -0.072057 -0.048654 -0.028434 -0.015515 -0.012027 -0.017648 -0.029694 -0.043735 -0.054594 -0.057518 -0.049253 -0.028796 0.002344 0.040417 0.080180 0.115946 0.142721 0.157173 0.158233 0.147228 0.127513 0.103700 0.080675 0.062589 0.052070 0.049778 0.054415 0.063137 0.072284 0.078241 0.078250 0.070999 0.056864 0.037790 0.016836 -0.002488 -0.016941 -0.024172 -0.023113 -0.014078 0.001428 0.021126 0.042494 0.063273 0.081840 0.097364 0.109736 0.119297 0.126464 0.131372 0.133617 0.132203 0.125702 0.112615 0.091824 0.063057 0.027207 -0.013557 -0.055964 -0.096079 -0.129931 -0.154220 -0.166949 -0.167855 -0.158525 -0.142176 -0.123101 -0.105908 -0.094668 -0.092155 -0.099322 -0.115120 -0.136703 -0.159974 -0.180380 -0.193779 -0.197231 -0.189525 -0.171370 -0.145184 -0.114549 -0.083433 -0.055352 -0.032650 -0.016042 -0.004533 0.004277 0.013560 0.026433 0.045108 0.070226 0.100504 0.132802 0.162611 0.184872 0.194974 0.189736 0.168154 0.131772 0.084583 0.032452 -0.017811 -0.059575 -0.087496 -0.098378 -0.091642 -0.069319 -0.035570 0.004158 0.044144 0.079399 0.106432 0.123663 0.131401 0.131436 0.126364 0.118804 0.110721 0.102995 0.095338 0.086572 0.075175 0.059949 0.040623 0.018225 -0.004904 -0.025482 -0.039968 -0.045425 -0.040341 -0.025207 -0.002683 0.022723 0.045438 0.059927 0.061892 0.049302 0.023020 -0.013154 -0.053061 -0.089307 -0.114719 -0.123849 -0.114206 -0.086944 -0.046831 -0.001480 0.040041 0.068952 0.078519 0.065464 0.030737 -0.020526 -0.079875 -0.137083 -0.182060 -0.206771 
hipp_sf_0012_PHC 0.153307 0.122706 0.066519 -0.006054 -0.083131 -0.152072 -0.201493 -0.223025 -0.212527 -0.170572 -0.102149 -0.015672 0.078500 0.169744 0.248747 0.308712 0.345998 0.360143 0.353322 0.329411 0.292886 0.247820 0.197183 0.142578 0.084448 0.022654 -0.042748 -0.110745 -0.178861 -0.243048 -0.298072 -0.338318 -0.358886 -0.356732 -0.331599 -0.286488 -0.227537 -0.163258 -0.103227 -0.056469 -0.029813 -0.026556 -0.045706 -0.081989 -0.126647 -0.168917 -0.197929 -0.204680 -0.183715 -0.134204 -0.060190 0.030034 0.125313 0.213525 0.283634 0.327510 0.341198 0.325399 0.285098 0.228436 0.165062 0.104294 0.053458 0.016710 -0.005439 -0.015838 -0.019744 -0.023409 -0.032527 -0.050853 -0.079290 -0.115602 -0.154817 -0.190210 -0.214673 -0.222174 -0.209013 -0.174650 -0.121911 -0.056586 0.013538 0.079975 0.134950 0.172647 0.190079 0.187442 0.167920 0.137009 0.101494 0.068301 0.043411 0.031024 0.033085 0.049202 0.076949 0.112417 0.150918 0.187686 0.218458 0.239862 0.249595 0.246395 0.229881 0.200335 0.158501 0.105465 0.042642 -0.028138 -0.104471 -0.183235 -0.260497 -0.331560 -0.391185 -0.433998 -0.455052 -0.450497 -0.418243 -0.358533 -0.274288 -0.171161 -0.057213 0.057770 0.163290 0.249348 0.307716 0.333072 0.323819 0.282426 0.215202 0.131495 0.042399 -0.040848 -0.108528 -0.153911 -0.174233 -0.171036 -0.149748 -0.118576 -0.086879 -0.063312 -0.054080 -0.061651 -0.084181 -0.115808 -0.147773 -0.170190 -0.174135 -0.153636 -0.107173 -0.038348 0.044441 0.129300 0.202906 0.252955 0.270517 0.251847 0.199256 0.120868 0.029261 -0.060745 -0.134755 -0.181397 -0.194350 -0.173404 -0.124356 -0.057763 0.013190 0.075270 0.117705 0.134123 0.123567 0.090377 0.043034 -0.007765 -0.051385 -0.079369 -0.086959 -0.073733 -0.043249 -0.001840 0.043132 0.085118 0.119891 0.146350 0.166453 0.184309 0.204653 0.231112 0.264702 0.302954 0.339936 0.367215 0.375582 0.357186 0.307581 0.227217 0.121989 0.002672 -0.116709 -0.221268 -0.297933 -0.337867 -0.338113 -0.302127 -0.239054 -0.161928 -0.085125 -0.021641 0.019268 0.033584 0.022878 -0.006528 -0.045376 -0.083820 -0.113771 -0.130710 -0.134560 -0.129436 -0.122352 -0.121201 -0.132509 -0.159496 -0.200933 -0.251083 -0.300771 -0.339365 -0.357212 -0.347993 -0.310404 -0.248768 -0.172381 -0.093674 -0.025581 0.021344 0.041412 0.035315 0.010287 -0.021176 -0.043839 -0.042993 -0.007796 0.066019 0.174649 0.306327 0.443037 0.563560 0.647281 0.678012 0.647095 0.555162 0.412205 0.235942 0.048802 -0.125907 -0.267878 -0.363026 -0.405450 -0.397807 -0.350103 -0.277198 -0.195590 -0.120137 -0.061382 -0.023994 -0.006558 -0.002706 -0.003243 0.001220 0.017743 0.049201 0.093483 0.143913 0.190777 0.223601 0.233675 0.216254 0.171957 0.107023 0.032375 -0.038370 -0.091522 -0.116073 -0.106011 -0.061724 0.009791 0.095988 0.180912 0.248030 0.283226 0.277410 0.228255 0.140752 0.026471 -0.098322 -0.215370 -0.307453 -0.361222 -0.369353 -0.331650 -0.254948 -0.151846 -0.038522 0.067970 0.152462 0.204014 0.217461 0.193934 0.140305 0.067703 -0.010616 -0.081643 -0.134814 -0.163657 -0.166625 -0.146996 -0.111915 -0.070774 -0.033264 -0.007485 0.001548 -0.007281 -0.031189 -0.064283 -0.098963 -0.127641 -0.144426 -0.146419 -0.134353 -0.112445 -0.087473 -0.067269 -0.058930 -0.067117 -0.092809 -0.132776 -0.179924 -0.224461 -0.255668 -0.263961 -0.242809 -0.190133 -0.108899 -0.006754 0.105221 0.214422 0.308907 0.379435 0.420949 0.433204 0.420440 0.390163 0.351319 0.312249 0.278883 0.253543 0.234641 0.217317 0.194878 0.160717 0.110276 0.042588 -0.038954 -0.126816 -0.210519 -0.278579 -0.320793 -0.330382 -0.305528 -0.249948 -0.172364 -0.084948 -0.001055 0.067292 0.111646 0.128630 0.120378 0.093824 0.059005 0.026752 0.006269 0.003125 0.018109 0.047171 0.082475 0.114286 0.133297 0.132820 0.110376 0.068299 0.013205 -0.045528 -0.097953 -0.135884 -0.154832 -0.155072 -0.141573 -0.122773 -0.108465 -0.107253 -0.124185 -0.159118 -0.206254 -0.255005 -0.292065 -0.304300 -0.281819 -0.220568 -0.123841 -0.002302 0.127555 0.246273 0.335076 0.379576 0.372764 0.316654 0.222200 0.107445 -0.005761 -0.095855 -0.145654 
