13 420
hipp_sf_0000_BG 0.002230 0.002544 0.003038 0.003472 0.003555 0.003014 0.001666 -0.000527 -0.003417 -0.006667 -0.009790 -0.012214 -0.013376 -0.012832 -0.010352 -0.005995 -0.000138 0.006544 0.013158 0.018717 0.022289 0.023161 0.020969 0.015791 0.008159 -0.000988 -0.010437 -0.018881 -0.025120 -0.028260 -0.027861 -0.024020 -0.017356 -0.008916 -0.000000 0.008053 0.014092 0.017341 0.017528 0.014914 0.010236 0.004562 -0.000914 -0.005092 -0.007172 -0.006798 -0.004119 0.000241 0.005301 0.009911 0.012965 0.013608 0.011399 0.006404 -0.000804 -0.009230 -0.017610 -0.024610 -0.029038 -0.030027 -0.027167 -0.020573 -0.010865 0.000919 0.013465 0.025359 0.035277 0.042147 0.045277 0.044431 0.039845 0.032183 0.022442 0.011821 0.001567 -0.007184 -0.013544 -0.016987 -0.017408 -0.015132 -0.010867 -0.005596 -0.000437 0.003530 0.005423 0.004704 0.001271 -0.004520 -0.011900 -0.019803 -0.027037 -0.032477 -0.035251 -0.034892 -0.031413 -0.025304 -0.017446 -0.008951 -0.000963 0.005544 0.009935 0.012015 0.012036 0.010621 0.008611 0.006868 0.006074 0.006576 0.008306 0.010789 0.013254 0.014815 0.014685 0.012387 0.007893 0.001690 -0.005286 -0.011801 -0.016562 -0.018483 -0.016921 -0.011844 -0.003879 0.005771 0.015517 0.023678 0.028782 0.029856 0.026616 0.019528 0.009737 -0.001148 -0.011348 -0.019247 -0.023689 -0.024186 -0.020989 -0.015016 -0.007651 -0.000454 0.005159 0.008197 0.008283 0.005704 0.001333 -0.003585 -0.007710 -0.009909 -0.009504 -0.006423 -0.001216 0.005064 0.011087 0.015540 0.017411 0.016212 0.012098 0.005842 -0.001319 -0.007939 -0.012660 -0.014499 -0.013056 -0.008600 -0.002016 0.005368 0.012059 0.016697 0.018338 0.016643 0.011945 0.005177 -0.002322 -0.009078 -0.013786 -0.015570 -0.014155 -0.009914 -0.003780 0.002951 0.008886 0.012823 0.013985 0.012167 0.007762 0.001662 -0.004938 -0.010798 -0.014886 -0.016589 -0.015826 -0.013046 -0.009124 -0.005155 -0.002222 -0.001158 -0.002368 -0.005743 -0.010677 -0.016187 -0.021109 -0.024321 -0.024962 -0.022594 -0.017283 -0.009576 -0.000406 0.009087 0.017750 0.024609 0.029016 0.030733 0.029932 0.027135 0.023090 0.018633 0.014541 0.011418 0.009619 0.009226 0.010065 0.011764 0.013828 0.015719 0.016933 0.017060 0.015825 0.013114 0.008982 0.003652 -0.002509 -0.009012 -0.015296 -0.020787 -0.024960 -0.027423 -0.027975 -0.026659 -0.023777 -0.019865 -0.015624 -0.011814 -0.009128 -0.008057 -0.008795 -0.011173 -0.014676 -0.018513 -0.021755 -0.023503 -0.023060 -0.020079 -0.014641 -0.007256 0.001217 0.009732 0.017243 0.022907 0.026241 0.027207 0.026205 0.023972 0.021414 0.019396 0.018538 0.019072 0.020773 0.023005 0.024849 0.025306 0.023527 0.019015 0.011762 0.002290 -0.008425 -0.019112 -0.028435 -0.035232 -0.038720 -0.038621 -0.035188 -0.029123 -0.021416 -0.013130 -0.005200 0.001727 0.007369 0.011789 0.015289 0.018246 0.020944 0.023430 0.025452 0.026487 0.025864 0.022946 0.017344 0.009092 -0.001249 -0.012605 -0.023515 -0.032362 -0.037662 -0.038356 -0.034043 -0.025096 -0.012647 0.001578 0.015539 0.027219 0.034967 0.037770 0.035410 0.028467 0.018191 0.006248 -0.005587 -0.015740 -0.023084 -0.027081 -0.027800 -0.025816 -0.022022 -0.017401 -0.012821 -0.008870 -0.005799 -0.003543 -0.001824 -0.000295 0.001318 0.003114 0.004977 0.006614 0.007658 0.007796 0.006896 0.005088 0.002779 0.000580 -0.000822 -0.000838 0.000856 0.004209 0.008750 0.013654 0.017890 0.020427 0.020465 0.017621 0.012041 0.004404 -0.004187 -0.012404 -0.018950 -0.022808 -0.023439 -0.020882 -0.015739 -0.009038 -0.002028 0.004080 0.008349 0.010277 0.009876 0.007622 0.004315 0.000885 -0.001836 -0.003282 -0.003268 -0.001995 0.000031 0.002153 0.003741 0.004358 0.003871 0.002468 0.000608 -0.001114 -0.002129 -0.002048 -0.000774 0.001471 0.004194 0.006756 0.008539 0.009105 0.008316 0.006379 0.003800 0.001254 -0.000583 -0.001228 -0.000529 0.001264 0.003530 0.005408 0.005991 0.004553 0.000748 -0.005266 -0.012809 -0.020779 -0.027854 -0.032746 -0.034464 -0.032525 -0.027057 -0.018786 -0.008894 0.001220 0.010208 0.017041 0.021190 0.022700 0.022132 0.020394 0.018499 0.017307 
hipp_sf_0001_CA1 -0.136419 -0.108619 -0.059131 0.001272 0.059730 0.104356 0.127075 0.125539 0.103663 0.070623 0.038549 0.019436 0.021996 0.049221 0.097251 0.155870 0.210562 0.245722 0.248304 0.211102 0.134892 0.028911 -0.090499 -0.202846 -0.287477 -0.327755 -0.314575 -0.248441 -0.139678 -0.006690 0.127382 0.238954 0.308352 0.323395 0.281487 0.189857 0.063934 -0.075741 -0.207415 -0.312041 -0.376428 -0.395078 -0.370417 -0.311509 -0.231633 -0.145310 -0.065449 -0.001190 0.043175 0.068072 0.077500 0.077228 0.072846 0.068164 0.064334 0.059848 0.051364 0.035086 0.008299 -0.029368 -0.075279 -0.123931 -0.167864 -0.199140 -0.211035 -0.199543 -0.164353 -0.109058 -0.040552 0.032228 0.099957 0.154578 0.190627 0.205951 0.201713 0.181727 0.151334 0.116115 0.080741 0.048230 0.019742 -0.005099 -0.027484 -0.048546 -0.068588 -0.086646 -0.100501 -0.107150 -0.103605 -0.087800 -0.059364 -0.020041 0.026383 0.074634 0.118888 0.153863 0.175820 0.183232 0.176970 0.159967 0.136452 0.110941 0.087250 0.067748 0.053052 0.042192 0.033215 0.024025 0.013232 0.000764 -0.011937 -0.022218 -0.026944 -0.023475 -0.010643 0.010560 0.036790 0.062767 0.082242 0.089350 0.080025 0.053175 0.011286 -0.039712 -0.091349 -0.134156 -0.159528 -0.161546 -0.138347 -0.092741 -0.031916 0.033745 0.092523 0.133519 0.148692 0.134365 0.091890 0.027348 -0.049641 -0.127754 -0.196065 -0.245977 -0.272611 -0.275389 -0.257730 -0.225975 -0.187786 -0.150403 -0.119132 -0.096373 -0.081393 -0.070830 -0.059815 -0.043412 -0.018046 0.017391 0.061033 0.108199 0.152220 0.185716 0.202077 0.196823 0.168575 0.119444 0.054779 -0.017657 -0.088922 -0.150267 -0.194429 -0.216577 -0.214811 -0.190151 -0.146074 -0.087748 -0.021129 0.047908 0.114233 0.173874 0.224133 0.263460 0.291180 0.307172 0.311580 0.304647 0.286675 0.258101 0.219654 0.172515 0.118441 0.059796 -0.000524 -0.059276 -0.113135 -0.158999 -0.194298 -0.217267 -0.227139 -0.224240 -0.209972 -0.186671 -0.157353 -0.125356 -0.093918 -0.065737 -0.042569 -0.024943 -0.012048 -0.001836 0.008629 0.022617 0.043044 0.071760 0.108956 0.152815 0.199520 0.243658 0.278982 0.299441 0.300281 0.279019 0.236085 0.174977 0.101863 0.024677 -0.048162 -0.109145 -0.152939 -0.177260 -0.183171 -0.174723 -0.158033 -0.139954 -0.126633 -0.122256 -0.128251 -0.143125 -0.162966 -0.182506 -0.196491 -0.201053 -0.194750 -0.179022 -0.157932 -0.137225 -0.122901 -0.119621 -0.129307 -0.150292 -0.177256 -0.202003 -0.214994 -0.207309 -0.172673 -0.109091 -0.019724 0.087216 0.199580 0.303234 0.384484 0.432509 0.441326 0.410902 0.347172 0.260979 0.166118 0.076880 0.005566 -0.039554 -0.055459 -0.044574 -0.013943 0.026416 0.065608 0.093996 0.104941 0.095838 0.068310 0.027562 -0.018898 -0.062863 -0.097016 -0.116188 -0.118069 -0.103295 -0.074968 -0.037792 0.002947 0.042316 0.076395 0.102578 0.119519 0.126831 0.124683 0.113469 0.093644 0.065793 0.030877 -0.009451 -0.052593 -0.094981 -0.132335 -0.160230 -0.174863 -0.173882 -0.157050 -0.126578 -0.086982 -0.044454 -0.005823 0.022697 0.036733 0.034668 0.018061 -0.008565 -0.038535 -0.064287 -0.078849 -0.077232 -0.057449 -0.020955 0.027570 0.081059 0.131340 0.170585 0.192669 0.194149 0.174717 0.137067 0.086243 0.028649 -0.029065 -0.081002 -0.122738 -0.151645 -0.166854 -0.168920 -0.159347 -0.140130 -0.113434 -0.081464 -0.046518 -0.011126 0.021831 0.049152 0.067558 0.074154 0.067034 0.045876 0.012364 -0.029725 -0.074851 -0.116471 -0.148100 -0.164489 -0.162662 -0.142571 -0.107209 -0.062098 -0.014250 0.029208 0.062455 0.082129 0.087947 0.082638 0.071197 0.059608 0.053327 0.055881 0.067914 0.086925 0.107789 0.123964 0.129132 0.118889 0.092098 0.051551 0.003749 -0.042198 -0.076356 -0.090073 -0.077943 -0.039202 0.021792 0.096115 0.171810 0.236083 0.277725 0.289254 0.268326 0.218121 0.146625 0.064961 -0.014862 -0.082293 -0.130187 -0.155936 -0.161572 -0.152845 -0.137519 -0.123303 -0.115903 -0.117649 -0.127019 -0.139161 -0.147271 -0.144508 -0.125966 -0.090223 -0.040087 0.017684 0.073628 0.117560 0.140820 0.138302 0.109773 0.060174 -0.001203 -0.062501 -0.111682 -0.138994 
hipp_sf_0002_CA2 0.014813 0.002519 -0.017619 -0.037808 -0.048878 -0.042635 -0.014057 0.037184 0.106238 0.183750 0.257551 0.315000 0.345467 0.342414 0.304641 0.236457 0.146756 0.047258 -0.049702 -0.133342 -0.196116 -0.234602 -0.249497 -0.244791 -0.226420 -0.200739 -0.173199 -0.147486 -0.125270 -0.106515 -0.090168 -0.074982 -0.060192 -0.045866 -0.032847 -0.022360 -0.015441 -0.012416 -0.012636 -0.014564 -0.016230 -0.015917 -0.012841 -0.007609 -0.002242 0.000306 -0.002952 -0.013926 -0.032454 -0.055738 -0.078470 -0.093715 -0.094439 -0.075375 -0.034760 0.024507 0.094685 0.164164 0.219504 0.248190 0.241510 0.196929 0.119318 0.020677 -0.081742 -0.168624 -0.222482 -0.231452 -0.192140 -0.110858 -0.002855 0.110364 0.205186 0.260669 0.262960 0.208420 0.104721 -0.030348 -0.172197 -0.294218 -0.373073 -0.393393 -0.350902 -0.253312 -0.118795 0.027661 0.159250 0.252666 0.292648 0.274815 0.206259 0.103798 -0.009686 -0.110029 -0.176672 -0.196644 -0.166863 -0.094349 0.005615 0.112885 0.206673 0.269648 0.291114 0.268663 0.208079 0.121629 0.025231 -0.064842 -0.135003 -0.176546 -0.186638 -0.168040 -0.127784 -0.075213 -0.019887 0.030164 0.069550 0.095849 0.109249 0.111742 0.106172 0.095431 0.081981 0.067751 0.054312 0.043156 0.035861 0.034009 0.038805 0.050489 0.067753 0.087389 0.104405 0.112703 0.106274 0.080686 0.034521 -0.029633 -0.104970 -0.181220 -0.246317 -0.288724 -0.299918 -0.276499 -0.221380 -0.143703 -0.057388 0.021456 0.077789 0.100847 0.086610 0.038942 -0.030946 -0.106629 -0.169842 -0.204372 -0.199656 -0.153286 -0.071830 0.030239 0.133340 0.216735 0.262815 0.260806 0.209104 0.115726 -0.003215 -0.126706 -0.233008 -0.303927 -0.328288 -0.303888 -0.237555 -0.143356 -0.039376 0.056180 0.128710 0.169959 0.179225 0.162833 0.132057 0.100033 0.078398 0.074446 0.089424 0.118350 0.151350 0.176172 0.181283 0.158834 0.106804 0.029863 -0.061240 -0.151624 -0.225120 -0.267409 -0.268816 -0.226179 -0.143485 -0.031180 0.095640 0.219751 0.324532 0.396398 0.426553 0.411842 0.354689 0.262289 0.145305 0.016363 -0.111393 -0.225533 -0.315302 -0.372340 -0.391226 -0.369911 -0.310042 -0.217122 -0.100376 0.027792 0.152861 0.259758 0.334801 0.367741 0.353572 0.293696 0.196150 0.074732 -0.052952 -0.168230 -0.254440 -0.299793 -0.299443 -0.256359 -0.180765 -0.088249 0.003142 0.076240 0.117894 0.121286 0.086983 0.022534 -0.059269 -0.143082 -0.214079 -0.260761 -0.276942 -0.262541 -0.223076 -0.168035 -0.108526 -0.054758 -0.013910 0.011184 0.022264 0.024820 0.026432 0.034703 0.055255 0.090250 0.137729 0.191906 0.244302 0.285461 0.306863 0.302639 0.270738 0.213375 0.136685 0.049724 -0.036971 -0.112980 -0.169477 -0.200379 -0.203044 -0.178474 -0.131085 -0.068109 0.001257 0.066886 0.118845 0.148563 0.149955 0.120409 0.061498 -0.020743 -0.116108 -0.211188 -0.290990 -0.341076 -0.349952 -0.311297 -0.225619 -0.100928 0.047824 0.200602 0.335236 0.431010 0.472289 0.451492 0.370800 0.242194 0.085722 -0.073753 -0.210788 -0.303782 -0.338756 -0.311769 -0.229473 -0.107714 0.031550 0.164390 0.269289 0.330890 0.342389 0.306150 0.232495 0.136993 0.036921 -0.052333 -0.120136 -0.162161 -0.180371 -0.181538 -0.174744 -0.168532 -0.168421 -0.175418 -0.185860 -0.192615 -0.187308 -0.162993 -0.116571 -0.050311 0.027948 0.106034 0.169854 0.206469 0.207087 0.169288 0.097918 0.004395 -0.095427 -0.184424 -0.247662 -0.275407 -0.264987 -0.221109 -0.154549 -0.079532 -0.010412 0.041581 0.070774 0.078104 0.070549 0.059083 0.055649 0.069856 0.106219 0.162584 0.230172 0.295249 0.342085 0.356557 0.329573 0.259546 0.153323 0.025328 -0.104933 -0.216520 -0.291087 -0.316454 -0.288990 -0.214295 -0.106085 0.016489 0.132513 0.223188 0.275147 0.282556 0.247628 0.179538 0.092048 0.000410 -0.081750 -0.144913 -0.185032 -0.203555 -0.206214 -0.200929 -0.195374 -0.194800 -0.200613 -0.210024 -0.216827 -0.213089 -0.191360 -0.146858 -0.079135 0.007178 0.102732 0.194888 0.269917 0.315562 0.323430 0.290757 0.221181 0.124383 0.014635 -0.091481 -0.177776 -0.231113 -0.243568 -0.213725 -0.146904 -0.054289 0.048881 0.145768 0.220639 0.261366 
hipp_sf_0003_DG -0.057558 -0.032488 0.011841 0.065119 0.114865 0.149246 0.159754 0.143135 0.102141 0.044924 -0.016775 -0.070254 -0.104685 -0.113543 -0.096057 -0.057376 -0.007405 0.041433 0.077009 0.090242 0.077196 0.040034 -0.013371 -0.071099 -0.119748 -0.147355 -0.146036 -0.113771 -0.054962 0.020359 0.098495 0.164811 0.206626 0.215697 0.189770 0.132917 0.054617 -0.032193 -0.113655 -0.177599 -0.215671 -0.224592 -0.206349 -0.167338 -0.116714 -0.064342 -0.018820 0.014044 0.031991 0.036230 0.030610 0.020286 0.010251 0.004063 0.003060 0.006215 0.010618 0.012421 0.008020 -0.004862 -0.026413 -0.054486 -0.084908 -0.112264 -0.130961 -0.136356 -0.125680 -0.098599 -0.057302 -0.006126 0.049165 0.102300 0.147422 0.179856 0.196598 0.196505 0.180200 0.149778 0.108407 0.059923 0.008474 -0.041754 -0.086763 -0.122928 -0.147215 -0.157420 -0.152438 -0.132499 -0.099319 -0.056079 -0.007190 0.042164 0.086669 0.121604 0.143538 0.150836 0.143898 0.125051 0.098110 0.067689 0.038395 0.014066 -0.002808 -0.011354 -0.012259 -0.007400 0.000724 0.009621 0.017345 0.022829 0.025946 0.027302 0.027848 0.028420 0.029347 0.030253 0.030097 0.027466 0.021032 0.010056 -0.005204 -0.023315 -0.041788 -0.057500 -0.067336 -0.068922 -0.061262 -0.045135 -0.023126 0.000748 0.021744 0.035318 0.038056 0.028431 0.007198 -0.022663 -0.056453 -0.088626 -0.113836 -0.127967 -0.128907 -0.116929 -0.094597 -0.066211 -0.036931 -0.011750 0.005463 0.012655 0.009889 -0.000796 -0.015928 -0.031398 -0.043343 -0.048939 -0.046914 -0.037723 -0.023352 -0.006818 0.008503 0.019573 0.024267 0.021718 0.012380 -0.002165 -0.019585 -0.037267 -0.052740 -0.063994 -0.069619 -0.068786 -0.061118 -0.046506 -0.024984 0.003315 0.038067 0.078570 0.123516 0.170803 0.217482 0.259878 0.293928 0.315685 0.321900 0.310598 0.281493 0.236168 0.177955 0.111522 0.042233 -0.024615 -0.084514 -0.134322 -0.172562 -0.199415 -0.216403 -0.225854 -0.230255 -0.231650 -0.231186 -0.228920 -0.223902 -0.214517 -0.198979 -0.175888 -0.144696 -0.105979 -0.061466 -0.013806 0.033876 0.078517 0.117642 0.149749 0.174470 0.192460 0.205054 0.213760 0.219706 0.223190 0.223431 0.218616 0.206238 0.183689 0.148988 0.101482 0.042382 -0.025022 -0.095536 -0.162638 -0.219377 -0.259452 -0.278277 -0.273840 -0.247178 -0.202349 -0.145909 -0.085930 -0.030756 0.012321 0.038199 0.044733 0.032977 0.006864 -0.027618 -0.063598 -0.094609 -0.115740 -0.124439 -0.120804 -0.107320 -0.088102 -0.067815 -0.050508 -0.038617 -0.032361 -0.029679 -0.026718 -0.018791 -0.001601 0.027552 0.068833 0.119453 0.173878 0.224665 0.263784 0.284159 0.281141 0.253579 0.204265 0.139629 0.068734 0.001724 -0.051950 -0.085202 -0.094543 -0.080623 -0.048000 -0.004160 0.041979 0.081786 0.108510 0.118411 0.111244 0.089990 0.059954 0.027425 -0.001778 -0.023547 -0.036263 -0.040936 -0.040712 -0.039891 -0.042688 -0.052055 -0.068844 -0.091499 -0.116360 -0.138495 -0.152860 -0.155510 -0.144576 -0.120764 -0.087279 -0.049165 -0.012245 0.018111 0.038076 0.046085 0.043002 0.031713 0.016266 0.000762 -0.011688 -0.019702 -0.023851 -0.026311 -0.030041 -0.037675 -0.050463 -0.067511 -0.085603 -0.099663 -0.103820 -0.092848 -0.063660 -0.016473 0.044646 0.112079 0.175772 0.225016 0.250535 0.246446 0.211669 0.150441 0.071796 -0.011948 -0.087401 -0.142591 -0.169227 -0.164268 -0.130472 -0.075804 -0.011828 0.048603 0.093861 0.115773 0.111091 0.081942 0.035165 -0.019268 -0.070412 -0.108606 -0.127349 -0.124420 -0.102026 -0.065995 -0.024245 0.015119 0.045614 0.063710 0.069376 0.065769 0.058155 0.052347 0.053048 0.062499 0.079755 0.100762 0.119230 0.128093 0.121231 0.095051 0.049577 -0.011214 -0.079904 -0.146873 -0.202042 -0.236737 -0.245301 -0.226138 -0.181980 -0.119354 -0.047372 0.023889 0.085104 0.129156 0.152115 0.153555 0.136246 0.105326 0.067162 0.028170 -0.006195 -0.032115 -0.047670 -0.052725 -0.048538 -0.037239 -0.021314 -0.003207 0.014905 0.031185 0.044106 0.052404 0.055073 0.051452 0.041395 0.025455 0.005028 -0.017646 -0.039660 -0.057828 -0.069199 -0.071635 -0.064297 -0.047940 -0.024909 0.001182 0.026039 0.045457 0.056090 
hipp_sf_0004_CA3 -0.045702 -0.023690 0.014251 0.057419 0.093094 0.109639 0.099411 0.060755 -0.001358 -0.076243 -0.149750 -0.207351 -0.237371 -0.233615 -0.196793 -0.134413 -0.059152 0.013931 0.070712 0.101108 0.101278 0.074418 0.029981 -0.018505 -0.056521 -0.071869 -0.057456 -0.012956 0.055023 0.134279 0.209567 0.265782 0.291090 0.279317 0.231130 0.153770 0.059456 -0.037163 -0.121924 -0.183798 -0.216748 -0.220429 -0.199690 -0.163056 -0.120616 -0.081819 -0.053678 -0.039722 -0.039862 -0.051065 -0.068582 -0.087332 -0.103066 -0.113019 -0.115943 -0.111593 -0.099909 -0.080241 -0.050919 -0.009409 0.046925 0.119593 0.207627 0.306501 0.407739 0.499462 0.567918 0.599813 0.584998 0.518956 0.404500 0.252213 0.079400 -0.092372 -0.240759 -0.346519 -0.397038 -0.388773 -0.328088 -0.230256 -0.116777 -0.011476 0.063865 0.093515 0.070662 -0.001405 -0.110016 -0.235584 -0.355314 -0.447428 -0.495083 -0.489262 -0.430117 -0.326593 -0.194469 -0.053274 0.077273 0.180619 0.245905 0.269274 0.253814 0.208276 0.144929 0.077042 0.016504 -0.027990 -0.051933 -0.055099 -0.040869 -0.015027 0.015653 0.044729 0.067104 0.079608 0.081162 0.072587 0.056207 0.035361 0.013922 -0.004143 -0.015175 -0.016216 -0.005421 0.017544 0.051165 0.091912 0.134367 0.171713 0.196621 0.202437 0.184496 0.141298 0.075276 -0.007107 -0.096026 -0.179733 -0.246522 -0.286907 -0.295537 -0.272449 -0.223313 -0.158551 -0.091429 -0.035453 -0.001586 0.004132 -0.017962 -0.060994 -0.112777 -0.158226 -0.182496 -0.174207 -0.128062 -0.046292 0.061424 0.179606 0.289864 0.374468 0.419868 0.419410 0.374692 0.295250 0.196628 0.097247 0.014711 -0.037668 -0.053402 -0.033885 0.012204 0.071030 0.126756 0.165052 0.176179 0.157010 0.111567 0.049984 -0.013839 -0.065356 -0.092587 -0.088714 -0.053535 0.006509 0.079698 0.151431 0.207129 0.234996 0.228066 0.185166 0.110653 0.013109 -0.096653 -0.207739 -0.310999 -0.400128 -0.471900 -0.525575 -0.561790 -0.581302 -0.584043 -0.568761 -0.533407 -0.476150 -0.396734 -0.297741 -0.185328 -0.069119 0.038898 0.126313 0.182721 0.202102 0.184566 0.136999 0.072325 0.007430 -0.039922 -0.054589 -0.027251 0.043385 0.149883 0.277103 0.404809 0.511377 0.577888 0.591777 0.549311 0.456377 0.327423 0.182760 0.044778 -0.066162 -0.135340 -0.156099 -0.130619 -0.068964 0.013329 0.098583 0.170484 0.217060 0.232526 0.217718 0.179099 0.126682 0.071389 0.022482 -0.014360 -0.037924 -0.051174 -0.059941 -0.070961 -0.089784 -0.119073 -0.157696 -0.200819 -0.240962 -0.269731 -0.279816 -0.266766 -0.230133 -0.173719 -0.104889 -0.033124 0.031844 0.081889 0.111925 0.120626 0.110320 0.086112 0.054523 0.021959 -0.006607 -0.028445 -0.043237 -0.052615 -0.059247 -0.065759 -0.073788 -0.083440 -0.093260 -0.100736 -0.103147 -0.098516 -0.086392 -0.068201 -0.047075 -0.027162 -0.012595 -0.006391 -0.009569 -0.020752 -0.036382 -0.051526 -0.061101 -0.061215 -0.050290 -0.029654 -0.003427 0.022331 0.041020 0.047158 0.037889 0.013960 -0.020085 -0.056623 -0.086426 -0.100634 -0.092763 -0.060316 -0.005599 0.064459 0.139494 0.207661 0.257962 0.282437 0.277756 0.245867 0.193549 0.130980 0.069639 0.019991 -0.010521 -0.018772 -0.006253 0.021635 0.057110 0.091954 0.119426 0.135658 0.140234 0.135818 0.126962 0.118409 0.113346 0.112090 0.111568 0.105788 0.087247 0.048958 -0.013345 -0.099386 -0.203389 -0.314293 -0.417204 -0.495869 -0.535707 -0.526785 -0.466117 -0.358757 -0.217407 -0.060546 0.090603 0.215703 0.298843 0.331296 0.312959 0.252190 0.164081 0.067513 -0.018440 -0.078038 -0.101686 -0.087474 -0.041221 0.024970 0.095302 0.153483 0.185902 0.184169 0.146568 0.078181 -0.010262 -0.104532 -0.189588 -0.252271 -0.283498 -0.279582 -0.242506 -0.179179 -0.099887 -0.016321 0.060449 0.121652 0.161901 0.179540 0.176316 0.156496 0.125714 0.089784 0.053729 0.021174 -0.005849 -0.026710 -0.041747 -0.051724 -0.057345 -0.058942 -0.056383 -0.049210 -0.036918 -0.019305 0.003232 0.029524 0.057648 0.085103 0.109144 0.127169 0.137107 0.137706 0.128692 0.110769 0.085473 0.054916 0.021479 -0.012489 -0.044924 -0.074209 -0.099241 -0.119398 -0.134442 -0.144375 -0.149299 
hipp_sf_0005_HEAD NaN NaN NaN NaN NaN NaN NaN NaN NaN NaN NaN NaN NaN NaN NaN NaN NaN NaN NaN NaN NaN NaN NaN NaN NaN NaN NaN NaN NaN NaN NaN NaN NaN NaN NaN NaN NaN NaN NaN NaN NaN NaN NaN NaN NaN NaN NaN NaN NaN NaN NaN NaN NaN NaN NaN NaN NaN NaN NaN NaN NaN NaN NaN NaN NaN NaN NaN NaN NaN NaN NaN NaN NaN NaN NaN NaN NaN NaN NaN NaN NaN NaN NaN NaN NaN NaN NaN NaN NaN NaN NaN NaN NaN NaN NaN NaN NaN NaN NaN NaN NaN NaN NaN NaN NaN NaN NaN NaN NaN NaN NaN NaN NaN NaN NaN NaN NaN NaN NaN NaN NaN NaN NaN NaN NaN NaN NaN NaN NaN NaN NaN NaN NaN NaN NaN NaN NaN NaN NaN NaN NaN NaN NaN NaN NaN NaN NaN NaN NaN NaN NaN NaN NaN NaN NaN NaN NaN NaN NaN NaN NaN NaN NaN NaN NaN NaN NaN NaN NaN NaN NaN NaN NaN NaN NaN NaN NaN NaN NaN NaN NaN NaN NaN NaN NaN NaN NaN NaN NaN NaN NaN NaN NaN NaN NaN NaN NaN NaN NaN NaN NaN NaN NaN NaN NaN NaN NaN NaN NaN NaN NaN NaN NaN NaN NaN NaN NaN NaN NaN NaN NaN NaN NaN NaN NaN NaN NaN NaN NaN NaN NaN NaN NaN NaN NaN NaN NaN NaN NaN NaN NaN NaN NaN NaN NaN NaN NaN NaN NaN NaN NaN NaN NaN NaN NaN NaN NaN NaN NaN NaN NaN NaN NaN NaN NaN NaN NaN NaN NaN NaN NaN NaN NaN NaN NaN NaN NaN NaN NaN NaN NaN NaN NaN NaN NaN NaN NaN NaN NaN NaN NaN NaN NaN NaN NaN NaN NaN NaN NaN NaN NaN NaN NaN NaN NaN NaN NaN NaN NaN NaN NaN NaN NaN NaN NaN NaN NaN NaN NaN NaN NaN NaN NaN NaN NaN NaN NaN NaN NaN NaN NaN NaN NaN NaN NaN NaN NaN NaN NaN NaN NaN NaN NaN NaN NaN NaN NaN NaN NaN NaN NaN NaN NaN NaN NaN NaN NaN NaN NaN NaN NaN NaN NaN NaN NaN NaN NaN NaN NaN NaN NaN NaN NaN NaN NaN NaN NaN NaN NaN NaN NaN NaN NaN NaN NaN NaN NaN NaN NaN NaN NaN NaN NaN NaN NaN NaN NaN NaN NaN NaN NaN NaN NaN NaN NaN NaN NaN NaN NaN NaN NaN NaN NaN NaN NaN NaN NaN NaN NaN NaN 
hipp_sf_0006_TAIL -0.011268 -0.006032 0.001607 0.006892 0.004688 -0.008741 -0.034268 -0.069156 -0.107304 -0.140465 -0.160166 -0.159853 -0.136700 -0.092605 -0.034053 0.029158 0.086070 0.127070 0.146153 0.142348 0.119929 0.087324 0.054964 0.032578 0.026620 0.038492 0.064052 0.094575 0.118995 0.126902 0.111549 0.072103 0.014496 -0.049421 -0.104332 -0.135022 -0.130234 -0.085915 -0.006995 0.092812 0.193292 0.271696 0.307587 0.287522 0.208497 0.079328 -0.080436 -0.243938 -0.382139 -0.469575 -0.489566 -0.437741 -0.323104 -0.166395 0.003952 0.157403 0.267328 0.316149 0.298580 0.222323 0.106112 -0.024413 -0.142094 -0.223740 -0.254567 -0.230704 -0.159345 -0.056610 0.056280 0.157623 0.229612 0.261537 0.251227 0.204535 0.133179 0.051545 -0.026706 -0.091410 -0.137474 -0.164965 -0.177869 -0.181955 -0.182425 -0.182017 -0.180080 -0.172872 -0.154949 -0.121243 -0.069206 -0.000389 0.079049 0.159107 0.227870 0.274146 0.290174 0.273692 0.228813 0.165419 0.097156 0.038455 0.001275 -0.007660 0.011554 0.052001 0.101574 0.145864 0.171641 0.170103 0.139077 0.083651 0.015022 -0.052170 -0.103416 -0.127969 -0.121627 -0.087995 -0.037847 0.013289 0.048804 0.055085 0.025034 -0.039843 -0.129298 -0.226276 -0.310510 -0.362997 -0.370338 -0.327935 -0.241283 -0.125034 0.000014 0.111335 0.189512 0.222420 0.207771 0.153470 0.075652 -0.005119 -0.068652 -0.099816 -0.092027 -0.048742 0.017423 0.087734 0.141873 0.162899 0.141508 0.078582 -0.014594 -0.118535 -0.209719 -0.265808 -0.270761 -0.218689 -0.115592 0.021468 0.167581 0.294940 0.378468 0.400931 0.356441 0.251640 0.104323 -0.060172 -0.214006 -0.332249 -0.397512 -0.402883 -0.352615 -0.260542 -0.146638 -0.032582 0.062718 0.126644 0.154768 0.150804 0.124776 0.089933 0.059205 0.042045 0.042385 0.058114 0.082115 0.104544 0.115719 0.108891 0.082211 0.039415 -0.010913 -0.057321 -0.088215 -0.094686 -0.072752 -0.024500 0.042138 0.114939 0.179898 0.224154 0.238668 0.220085 0.171401 0.101300 0.022363 -0.051463 -0.107574 -0.137033 -0.136065 -0.106463 -0.054896 0.008655 0.072963 0.127663 0.164983 0.180805 0.174921 0.150543 0.113259 0.069719 0.026357 -0.011631 -0.040892 -0.060102 -0.069782 -0.071897 -0.069353 -0.065521 -0.063838 -0.067468 -0.079008 -0.100178 -0.131488 -0.171921 -0.218707 -0.267328 -0.311825 -0.345504 -0.361963 -0.356329 -0.326451 -0.273776 -0.203640 -0.124804 -0.048202 0.014934 0.055259 0.067359 0.051202 0.012603 -0.037495 -0.084896 -0.114881 -0.115279 -0.079262 -0.007228 0.092688 0.205689 0.312846 0.394663 0.434972 0.424376 0.362498 0.258508 0.129740 -0.001387 -0.111583 -0.181211 -0.198202 -0.160547 -0.076818 0.035419 0.153033 0.251911 0.311790 0.320359 0.275769 0.187053 0.072331 -0.044821 -0.140126 -0.193509 -0.193158 -0.137921 -0.037565 0.089148 0.218160 0.324825 0.388675 0.397279 0.348447 0.250369 0.119709 -0.021898 -0.152192 -0.252586 -0.311507 -0.326177 -0.302481 -0.253054 -0.194050 -0.141316 -0.106830 -0.096147 -0.107399 -0.132014 -0.156987 -0.168168 -0.153842 -0.107815 -0.031314 0.066713 0.170996 0.262780 0.323527 0.338747 0.301178 0.212661 0.084314 -0.065060 -0.212060 -0.332710 -0.406664 -0.420848 -0.371844 -0.266611 -0.121407 0.040896 0.194599 0.315425 0.384473 0.391214 0.335056 0.225230 0.079077 -0.080939 -0.230957 -0.349537 -0.420957 -0.437452 -0.400081 -0.318141 -0.207276 -0.086652 0.024296 0.109010 0.156333 0.162026 0.129086 0.066862 -0.010831 -0.088244 -0.150421 -0.185676 -0.187410 -0.154994 -0.093619 -0.013172 0.073619 0.153448 0.214683 0.249237 0.253746 0.229890 0.183831 0.124909 0.063846 0.010817 -0.026286 -0.043084 -0.039233 -0.018183 0.013751 0.048803 0.079369 0.099508 0.106047 0.099095 0.081891 0.060039 0.040286 0.029113 0.031400 0.049425 0.082384 0.126500 0.175689 0.222631 0.260036 0.281861 0.284253 0.266052 0.228807 0.176315 0.113818 0.047038 -0.018762 -0.079499 -0.132669 -0.177362 -0.213958 -0.243581 -0.267489 -0.286518 -0.300743 -0.309384 -0.310999 -0.303883 -0.286561 -0.258276 -0.219326 -0.171189 -0.116405 -0.058239 -0.000217 0.054369 0.102873 0.143545 0.175567 0.198896 0.213960 0.221311 
hipp_sf_0007_MISC -0.032514 -0.018931 0.004194 0.029781 0.049474 0.055752 0.043906 0.013395 -0.031740 -0.083514 -0.131578 -0.165384 -0.176472 -0.160358 -0.117616 -0.053893 0.021143 0.095693 0.158158 0.199404 0.214468 0.203372 0.170873 0.125241 0.076350 0.033520 0.003587 -0.010390 -0.009516 0.001497 0.015680 0.025615 0.025276 0.011483 -0.015340 -0.051259 -0.089730 -0.123070 -0.144156 -0.147975 -0.132666 -0.099869 -0.054311 -0.002774 0.047306 0.089274 0.118424 0.132636 0.132407 0.120313 0.100075 0.075499 0.049557 0.023827 -0.001589 -0.027675 -0.055794 -0.086846 -0.120565 -0.155135 -0.187250 -0.212619 -0.226801 -0.226169 -0.208775 -0.174890 -0.127108 -0.069965 -0.009168 0.049394 0.100622 0.140961 0.168770 0.184249 0.188974 0.185181 0.175006 0.159877 0.140227 0.115588 0.085050 0.047940 0.004538 -0.043385 -0.092379 -0.137562 -0.173295 -0.194156 -0.196008 -0.176943 -0.137857 -0.082540 -0.017221 0.050356 0.112141 0.161050 0.192042 0.202811 0.193972 0.168729 0.132125 0.090053 0.048234 0.011370 -0.017383 -0.036567 -0.046214 -0.047400 -0.041708 -0.030746 -0.015856 0.001944 0.021804 0.042744 0.063366 0.081680 0.095154 0.101015 0.096756 0.080751 0.052815 0.014556 -0.030593 -0.077721 -0.121137 -0.155289 -0.175746 -0.180030 -0.168127 -0.142547 -0.107925 -0.070207 -0.035588 -0.009403 0.004806 0.005877 -0.004861 -0.023946 -0.046549 -0.067475 -0.082198 -0.087726 -0.083128 -0.069632 -0.050282 -0.029253 -0.010959 0.000864 0.003905 -0.002263 -0.016095 -0.034362 -0.052731 -0.066521 -0.071492 -0.064530 -0.044106 -0.010481 0.034371 0.087060 0.143230 0.198067 0.246791 0.285069 0.309330 0.316984 0.306563 0.277814 0.231767 0.170773 0.098502 0.019860 -0.059223 -0.132157 -0.192233 -0.233306 -0.250559 -0.241257 -0.205345 -0.145794 -0.068573 0.017798 0.103113 0.176666 0.228635 0.251451 0.240942 0.197065 0.124075 0.030060 -0.074102 -0.176242 -0.264635 -0.329691 -0.365332 -0.369817 -0.345875 -0.300091 -0.241665 -0.180735 -0.126566 -0.085923 -0.061935 -0.053651 -0.056389 -0.062803 -0.064493 -0.053817 -0.025589 0.021704 0.085407 0.159035 0.233399 0.298316 0.344564 0.365704 0.359391 0.327905 0.277775 0.218549 0.160949 0.114763 0.086894 0.079976 0.091824 0.115860 0.142434 0.160786 0.161261 0.137333 0.087034 0.013487 -0.075558 -0.169110 -0.254952 -0.321898 -0.361848 -0.371216 -0.351481 -0.308753 -0.252457 -0.193430 -0.141799 -0.105091 -0.086926 -0.086546 -0.099237 -0.117528 -0.132900 -0.137641 -0.126455 -0.097531 -0.052863 0.002212 0.060116 0.112547 0.152080 0.173540 0.174901 0.157549 0.125920 0.086603 0.047111 0.014573 -0.005430 -0.009694 0.002228 0.028094 0.063452 0.102397 0.138481 0.165633 0.178980 0.175493 0.154404 0.117375 0.068406 0.013482 -0.040034 -0.084232 -0.111658 -0.116400 -0.095115 -0.047845 0.021544 0.105454 0.193228 0.272410 0.330446 0.356595 0.343750 0.289824 0.198438 0.078711 -0.055875 -0.189376 -0.305778 -0.391460 -0.437290 -0.439975 -0.402417 -0.332996 -0.243943 -0.149113 -0.061581 0.008440 0.055015 0.076954 0.077326 0.062164 0.038714 0.013633 -0.008433 -0.025601 -0.038681 -0.050357 -0.063870 -0.081577 -0.103782 -0.128183 -0.150099 -0.163467 -0.162378 -0.142773 -0.103868 -0.048898 0.015056 0.078207 0.129973 0.161266 0.166643 0.145821 0.104143 0.051841 0.002157 -0.031312 -0.037518 -0.010491 0.049065 0.133505 0.229401 0.319945 0.388135 0.420106 0.407916 0.351225 0.257490 0.140633 0.018450 -0.090729 -0.171442 -0.213884 -0.215537 -0.181326 -0.122330 -0.053333 0.010239 0.055352 0.073762 0.063303 0.027870 -0.023840 -0.080488 -0.130659 -0.165257 -0.179242 -0.172370 -0.148853 -0.116075 -0.082719 -0.056744 -0.043683 -0.045611 -0.060955 -0.085144 -0.111861 -0.134591 -0.148057 -0.149235 -0.137739 -0.115542 -0.086151 -0.053504 -0.020891 0.009824 0.038470 0.066293 0.095212 0.126841 0.161546 0.197805 0.232077 0.259228 0.273468 0.269570 0.244122 0.196503 0.129365 0.048487 -0.037987 -0.120775 -0.190910 -0.241137 -0.266979 -0.267297 -0.244253 -0.202726 -0.149336 -0.091279 -0.035219 0.013594 0.051833 0.078208 0.093243 0.098810 0.097557 0.092364 0.085905 0.080348 0.077189 
hipp_sf_0008_SUB -0.153347 -0.119342 -0.060633 0.006497 0.062863 0.091253 0.080917 0.030602 -0.050645 -0.145127 -0.230265 -0.283665 -0.288308 -0.236691 -0.132943 0.007611 0.161362 0.301214 0.402202 0.446712 0.428144 0.352235 0.235737 0.102774 -0.020318 -0.110534 -0.152912 -0.143409 -0.089361 -0.007466 0.080180 0.151112 0.187428 0.179579 0.128192 0.043623 -0.056614 -0.151876 -0.222960 -0.256175 -0.246061 -0.196198 -0.118049 -0.028164 0.055536 0.117529 0.147686 0.142876 0.106931 0.049105 -0.018505 -0.083879 -0.137642 -0.174684 -0.194548 -0.200594 -0.198273 -0.193043 -0.188519 -0.185350 -0.181112 -0.171198 -0.150436 -0.114954 -0.063763 0.000405 0.071262 0.140118 0.197747 0.236499 0.252099 0.244666 0.218663 0.181769 0.142932 0.110094 0.088165 0.077773 0.075154 0.073221 0.063611 0.039190 -0.003595 -0.063136 -0.132316 -0.199552 -0.251062 -0.273899 -0.259056 -0.203928 -0.113519 -0.000052 0.119015 0.224195 0.297745 0.327214 0.307999 0.244349 0.148578 0.038652 -0.065362 -0.145231 -0.188064 -0.188654 -0.150205 -0.083322 -0.003530 0.072130 0.128655 0.156059 0.151161 0.117849 0.065855 0.008354 -0.041029 -0.071134 -0.075488 -0.053400 -0.009765 0.046303 0.103611 0.151298 0.180964 0.188069 0.172374 0.137410 0.089199 0.034611 -0.020218 -0.071029 -0.115898 -0.154964 -0.189585 -0.221199 -0.250251 -0.275504 -0.293948 -0.301346 -0.293293 -0.266505 -0.220016 -0.155958 -0.079684 0.000812 0.076112 0.136956 0.175875 0.188524 0.174445 0.137099 0.083204 0.021503 -0.038735 -0.089206 -0.123748 -0.139032 -0.134687 -0.112924 -0.077814 -0.034429 0.011954 0.056435 0.094810 0.123661 0.140301 0.142741 0.129751 0.101104 0.057939 0.003167 -0.058272 -0.119445 -0.171885 -0.206503 -0.214867 -0.190664 -0.131074 -0.037758 0.082766 0.219524 0.358262 0.483247 0.579430 0.634603 0.641193 0.597384 0.507377 0.380757 0.231077 0.073922 -0.075220 -0.202957 -0.299535 -0.359758 -0.383195 -0.373725 -0.338575 -0.287045 -0.229147 -0.174353 -0.130583 -0.103500 -0.096144 -0.108849 -0.139402 -0.183396 -0.234719 -0.286160 -0.330106 -0.359289 -0.367554 -0.350566 -0.306373 -0.235745 -0.142202 -0.031712 0.087933 0.207984 0.319721 0.415410 0.489076 0.536986 0.557773 0.552238 0.522884 0.473327 0.407718 0.330298 0.245148 0.156151 0.067094 -0.018198 -0.095805 -0.161844 -0.212818 -0.246144 -0.260768 -0.257680 -0.240185 -0.213763 -0.185471 -0.162924 -0.152990 -0.160452 -0.186883 -0.230017 -0.283780 -0.339042 -0.385015 -0.411060 -0.408596 -0.372742 -0.303389 -0.205448 -0.088241 0.035906 0.153600 0.252505 0.323266 0.360892 0.365346 0.341262 0.296867 0.242328 0.187852 0.141893 0.109795 0.093094 0.089578 0.094042 0.099582 0.099138 0.087015 0.060087 0.018497 -0.034253 -0.091817 -0.146006 -0.188096 -0.210226 -0.206665 -0.174758 -0.115433 -0.033196 0.064360 0.167468 0.265395 0.347774 0.405913 0.433886 0.429270 0.393437 0.331320 0.250712 0.161147 0.072551 -0.006166 -0.068342 -0.110420 -0.132294 -0.137067 -0.130270 -0.118678 -0.108947 -0.106338 -0.113763 -0.131370 -0.156710 -0.185485 -0.212664 -0.233742 -0.245827 -0.248312 -0.242939 -0.233244 -0.223504 -0.217416 -0.216863 -0.221085 -0.226498 -0.227289 -0.216696 -0.188722 -0.139915 -0.070759 0.013681 0.104116 0.188412 0.253776 0.289351 0.288671 0.251423 0.184079 0.099158 0.013185 -0.056332 -0.094331 -0.091337 -0.045656 0.035881 0.138858 0.243773 0.329654 0.378108 0.376989 0.322950 0.222326 0.090141 -0.052599 -0.182810 -0.279670 -0.328539 -0.323669 -0.269174 -0.178071 -0.069593 0.034675 0.115046 0.157517 0.156334 0.114847 0.044514 -0.037704 -0.112989 -0.164586 -0.181185 -0.159099 -0.102806 -0.023799 0.061984 0.137577 0.188530 0.205835 0.187668 0.139596 0.073262 0.003856 -0.053092 -0.084912 -0.084349 -0.050965 0.008844 0.083199 0.157133 0.215538 0.246053 0.241360 0.200440 0.128621 0.036444 -0.062378 -0.153479 -0.224342 -0.266336 -0.275936 -0.254964 -0.209881 -0.150330 -0.087255 -0.030957 0.010554 0.032650 0.034496 0.018768 -0.009185 -0.042530 -0.074236 -0.098230 -0.110230 -0.108177 -0.092232 -0.064424 -0.028066 0.012924 0.054641 0.093668 0.127339 0.153805 0.171930 0.181114 
hipp_sf_0009_ERC -0.088509 -0.066946 -0.028881 0.016725 0.059067 0.087975 0.096258 0.081366 0.046010 -0.002416 -0.053458 -0.095914 -0.120298 -0.120906 -0.097025 -0.053018 0.002710 0.059610 0.107317 0.137866 0.147294 0.136292 0.109771 0.075488 0.042071 0.016917 0.004479 0.005320 0.016145 0.030790 0.041901 0.042886 0.029660 0.001767 -0.037410 -0.081379 -0.122051 -0.151659 -0.164624 -0.158923 -0.136617 -0.103419 -0.067379 -0.037013 -0.019288 -0.017953 -0.032606 -0.058713 -0.088600 -0.113186 -0.124070 -0.115503 -0.085789 -0.037810 0.021468 0.082374 0.134523 0.168960 0.180005 0.166411 0.131584 0.082852 0.029949 -0.016948 -0.049195 -0.061291 -0.051782 -0.023338 0.017981 0.064039 0.106244 0.137087 0.151343 0.146703 0.123817 0.085812 0.037478 -0.015653 -0.068110 -0.115048 -0.152511 -0.177455 -0.187650 -0.181600 -0.158600 -0.118953 -0.064324 0.001914 0.074512 0.146496 0.209763 0.256078 0.278373 0.272090 0.236296 0.174268 0.093369 0.004133 -0.081319 -0.151273 -0.196451 -0.211667 -0.196753 -0.156539 -0.099866 -0.037813 0.018518 0.060183 0.082112 0.083975 0.070031 0.047988 0.027131 0.016135 0.021030 0.043796 0.081861 0.128633 0.174935 0.211005 0.228612 0.222818 0.192975 0.142752 0.079192 0.011025 -0.053352 -0.107753 -0.149498 -0.179807 -0.203191 -0.225985 -0.254368 -0.292328 -0.340106 -0.393483 -0.444171 -0.481248 -0.493393 -0.471449 -0.410754 -0.312732 -0.185341 -0.042232 0.099265 0.220981 0.307018 0.346538 0.335687 0.278277 0.185105 0.072041 -0.042717 -0.141698 -0.210949 -0.242034 -0.232941 -0.187779 -0.115426 -0.027464 0.064131 0.149061 0.220161 0.274004 0.310642 0.332650 0.343781 0.347618 0.346545 0.341281 0.331043 0.314238 0.289458 0.256451 0.216791 0.174009 0.133121 0.099634 0.078259 0.071660 0.079548 0.098401 0.121926 0.142214 0.151358 0.143214 0.114887 0.067593 0.006665 -0.059352 -0.120368 -0.166849 -0.191922 -0.193007 -0.172622 -0.138122 -0.100390 -0.071712 -0.063235 -0.082538 -0.131826 -0.207138 -0.298792 -0.392995 -0.474355 -0.528793 -0.546282 -0.522860 -0.461495 -0.371591 -0.267224 -0.164435 -0.078099 -0.019014 0.008220 0.006085 -0.016404 -0.045587 -0.066021 -0.063761 -0.029386 0.039811 0.138959 0.256237 0.374904 0.476352 0.543598 0.564530 0.534285 0.456285 0.341725 0.207611 0.073706 -0.041020 -0.121771 -0.160499 -0.157193 -0.119662 -0.061859 -0.001106 0.045271 0.063232 0.044652 -0.011191 -0.097507 -0.201255 -0.305483 -0.392317 -0.446021 -0.455607 -0.416547 -0.331348 -0.208961 -0.063193 0.089548 0.232739 0.352057 0.437159 0.482714 0.488605 0.459372 0.403078 0.329834 0.250240 0.173959 0.108583 0.058881 0.026470 0.009866 0.004901 0.005425 0.004242 -0.005796 -0.030627 -0.073868 -0.135902 -0.213315 -0.298846 -0.381935 -0.449915 -0.489752 -0.490127 -0.443552 -0.348159 -0.208772 -0.036998 0.149824 0.330749 0.484166 0.591099 0.638306 0.620611 0.541999 0.415199 0.259755 0.098887 -0.044356 -0.150939 -0.208989 -0.215658 -0.177326 -0.108110 -0.026970 0.046053 0.093696 0.104717 0.075857 0.012174 -0.074293 -0.167244 -0.249609 -0.307109 -0.331111 -0.320234 -0.280348 -0.223044 -0.162899 -0.114163 -0.087598 -0.088148 -0.113937 -0.156805 -0.204236 -0.242239 -0.258530 -0.245313 -0.201032 -0.130720 -0.044869 0.042921 0.118976 0.172578 0.198326 0.197263 0.176543 0.147675 0.123749 0.116256 0.132211 0.172244 0.230098 0.293691 0.347529 0.376002 0.366842 0.314033 0.219518 0.093338 -0.047873 -0.183754 -0.293879 -0.361501 -0.376635 -0.337876 -0.252611 -0.135609 -0.006275 0.114860 0.209742 0.265795 0.277774 0.248197 0.186320 0.105955 0.022613 -0.049439 -0.099644 -0.122681 -0.118869 -0.093427 -0.054866 -0.012898 0.023669 0.048614 0.059269 0.056613 0.044578 0.028763 0.014902 0.007420 0.008398 0.017138 0.030386 0.043135 0.049799 0.045505 0.027231 -0.005432 -0.050039 -0.101579 -0.153243 -0.197509 -0.227343 -0.237332 -0.224544 -0.189034 -0.133900 -0.064927 0.010127 0.082508 0.143561 0.185826 0.203993 0.195629 0.161553 0.105844 0.035441 -0.040639 -0.112370 -0.169986 -0.205268 -0.212701 -0.190312 -0.140073 -0.067763 0.017708 0.105440 0.184010 0.243043 0.274677 
hipp_sf_0010_BA35 -0.101737 -0.083458 -0.051090 -0.012030 0.024855 0.051328 0.061768 0.054566 0.032618 0.002763 -0.025720 -0.043242 -0.042200 -0.018917 0.025222 0.083723 0.146069 0.199760 0.232887 0.236701 0.207631 0.148305 0.067311 -0.022275 -0.105318 -0.167543 -0.198337 -0.192857 -0.153005 -0.087060 -0.008029 0.068942 0.129573 0.163240 0.164989 0.136352 0.084817 0.022076 -0.038564 -0.085044 -0.109075 -0.107787 -0.084172 -0.046229 -0.005037 0.027813 0.042856 0.034856 0.003945 -0.044473 -0.101002 -0.154407 -0.194167 -0.212826 -0.207609 -0.180957 -0.139840 -0.094036 -0.053765 -0.027233 -0.018667 -0.027294 -0.047522 -0.070287 -0.085277 -0.083518 -0.059730 -0.013894 0.048340 0.116552 0.177569 0.218188 0.228018 0.201812 0.140782 0.052595 -0.049966 -0.151379 -0.236308 -0.292447 -0.312686 -0.296161 -0.248001 -0.177867 -0.097659 -0.018921 0.049465 0.102784 0.140898 0.167514 0.188546 0.210006 0.235973 0.267148 0.300363 0.329165 0.345340 0.341010 0.310776 0.253395 0.172557 0.076553 -0.023107 -0.113837 -0.184390 -0.226995 -0.238746 -0.221927 -0.183225 -0.132033 -0.078268 -0.030224 0.007033 0.032347 0.048126 0.059068 0.070331 0.085648 0.105897 0.128531 0.148041 0.157373 0.149949 0.121769 0.073039 0.008847 -0.061379 -0.125577 -0.171596 -0.190021 -0.176596 -0.133646 -0.070080 0.000120 0.060671 0.096452 0.096911 0.058636 -0.013529 -0.107154 -0.204585 -0.286559 -0.336298 -0.343208 -0.305330 -0.229983 -0.132395 -0.032568 0.048972 0.095636 0.098469 0.058265 -0.014405 -0.101284 -0.180235 -0.229947 -0.234549 -0.187138 -0.091444 0.038734 0.182204 0.314614 0.413345 0.462017 0.453660 0.391915 0.290018 0.167840 0.047656 -0.050433 -0.112418 -0.132838 -0.115270 -0.070836 -0.015132 0.035688 0.068728 0.077210 0.061743 0.029732 -0.006864 -0.034886 -0.043595 -0.027700 0.010951 0.063435 0.115583 0.151171 0.155752 0.120256 0.043509 -0.066914 -0.195735 -0.322740 -0.426667 -0.489416 -0.499666 -0.455124 -0.362955 -0.238282 -0.101126 0.027589 0.130074 0.194938 0.219008 0.207365 0.171655 0.127114 0.088979 0.069105 0.073502 0.101309 0.145373 0.194225 0.234990 0.256509 0.251990 0.220576 0.167526 0.102975 0.039615 -0.010194 -0.037185 -0.037232 -0.012222 0.030415 0.079393 0.122079 0.147263 0.147571 0.121009 0.071326 0.007125 -0.060041 -0.118166 -0.157332 -0.171760 -0.160932 -0.129594 -0.086655 -0.043245 -0.010360 0.003405 -0.006419 -0.039324 -0.089998 -0.149436 -0.206747 -0.251264 -0.274542 -0.271858 -0.242976 -0.192038 -0.126691 -0.056629 0.008137 0.058952 0.089851 0.098352 0.085605 0.055952 0.016006 -0.026547 -0.064202 -0.090752 -0.102108 -0.096727 -0.075639 -0.042095 -0.000928 0.042262 0.081976 0.113628 0.134188 0.142578 0.139786 0.128668 0.113468 0.099117 0.090409 0.091160 0.103500 0.127397 0.160516 0.198453 0.235323 0.264612 0.280184 0.277249 0.253148 0.207814 0.143825 0.066050 -0.019034 -0.104244 -0.182624 -0.248254 -0.296813 -0.325814 -0.334533 -0.323699 -0.295068 -0.251028 -0.194331 -0.128026 -0.055588 0.018866 0.090365 0.153052 0.200442 0.226017 0.224136 0.191119 0.126309 0.032863 -0.081944 -0.207080 -0.328795 -0.432281 -0.503705 -0.532301 -0.512172 -0.443444 -0.332546 -0.191508 -0.036359 0.115155 0.246149 0.343073 0.397646 0.407950 0.378502 0.319292 0.243994 0.167636 0.104162 0.064258 0.053828 0.073304 0.117890 0.178626 0.244061 0.302212 0.342478 0.357197 0.342629 0.299249 0.231380 0.146277 0.052871 -0.039596 -0.122824 -0.190415 -0.238437 -0.265560 -0.272817 -0.263089 -0.240429 -0.209366 -0.174293 -0.139013 -0.106464 -0.078636 -0.056630 -0.040808 -0.030996 -0.026678 -0.027146 -0.031613 -0.039266 -0.049273 -0.060779 -0.072882 -0.084627 -0.095013 -0.103035 -0.107732 -0.108271 -0.104020 -0.094638 -0.080129 -0.060894 -0.037730 -0.011807 0.015399 0.042203 0.066839 0.087590 0.102928 0.111642 0.112942 0.106538 0.092694 0.072237 0.046547 0.017507 -0.012589 -0.041154 -0.065489 -0.082995 -0.091424 -0.089155 -0.075447 -0.050663 -0.016385 0.024585 0.068392 0.110456 0.145943 0.170350 0.180099 0.173092 0.149108 0.109977 0.059488 0.003011 -0.053120 -0.102394 -0.138966 -0.158434 
hipp_sf_0011_BA36 0.002637 0.007241 0.014994 0.023376 0.029487 0.030841 0.026086 0.015435 0.000719 -0.014984 -0.028045 -0.035151 -0.034120 -0.024476 -0.007624 0.013419 0.034676 0.052102 0.062497 0.064218 0.057518 0.044424 0.028183 0.012407 0.000124 -0.007019 -0.009208 -0.008434 -0.007985 -0.011559 -0.022213 -0.041395 -0.068305 -0.099758 -0.130620 -0.154728 -0.166132 -0.160378 -0.135552 -0.092860 -0.036586 0.026558 0.088572 0.141565 0.179111 0.197294 0.195237 0.175018 0.141033 0.098958 0.054567 0.012673 -0.023581 -0.052953 -0.075830 -0.093574 -0.107683 -0.119012 -0.127264 -0.130916 -0.127597 -0.114825 -0.090929 -0.055890 -0.011866 0.036771 0.083954 0.122925 0.147527 0.153511 0.139564 0.107802 0.063589 0.014676 -0.030188 -0.062907 -0.077613 -0.071838 -0.047031 -0.008297 0.036603 0.078780 0.109986 0.124239 0.118982 0.095540 0.058764 0.015966 -0.024653 -0.055738 -0.072324 -0.072857 -0.059488 -0.037571 -0.014482 0.002003 0.005434 -0.007848 -0.037810 -0.080577 -0.129074 -0.174333 -0.207220 -0.220224 -0.208975 -0.173177 -0.116782 -0.047367 0.025174 0.090372 0.139030 0.164839 0.165455 0.142859 0.102927 0.054303 0.006803 -0.030378 -0.050308 -0.049515 -0.028555 0.008175 0.053307 0.097888 0.133041 0.151580 0.149299 0.125714 0.084125 0.031013 -0.025128 -0.075285 -0.111494 -0.128188 -0.123108 -0.097605 -0.056320 -0.006293 0.044308 0.087597 0.117280 0.129605 0.123823 0.102077 0.068783 0.029645 -0.009490 -0.043701 -0.069776 -0.086563 -0.094852 -0.096824 -0.095223 -0.092446 -0.089764 -0.086867 -0.081833 -0.071559 -0.052552 -0.021923 0.021637 0.077117 0.140870 0.206812 0.267136 0.313438 0.338054 0.335374 0.302898 0.241824 0.157071 0.056720 -0.049037 -0.149261 -0.233727 -0.294249 -0.325676 -0.326438 -0.298584 -0.247356 -0.180401 -0.106749 -0.035726 0.024078 0.065675 0.084313 0.077863 0.046953 -0.005138 -0.072794 -0.148581 -0.223929 -0.289973 -0.338478 -0.362781 -0.358655 -0.324952 -0.263926 -0.181135 -0.084873 0.014815 0.107444 0.183534 0.235958 0.260975 0.258752 0.233258 0.191543 0.142510 0.095390 0.058211 0.036525 0.032639 0.045490 0.071153 0.103881 0.137439 0.166432 0.187369 0.199211 0.203322 0.202828 0.201565 0.202854 0.208408 0.217640 0.227543 0.233198 0.228811 0.209072 0.170511 0.112566 0.038091 -0.046826 -0.133737 -0.213235 -0.276612 -0.317434 -0.332703 -0.323369 -0.294078 -0.252197 -0.206321 -0.164566 -0.132990 -0.114481 -0.108318 -0.110499 -0.114768 -0.114099 -0.102355 -0.075751 -0.033839 0.020200 0.080009 0.137169 0.182746 0.208980 0.210774 0.186717 0.139436 0.075234 0.003071 -0.066905 -0.125018 -0.163622 -0.178291 -0.168449 -0.137366 -0.091520 -0.039481 0.009519 0.047068 0.066892 0.065802 0.044153 0.005752 -0.042755 -0.092911 -0.135740 -0.163104 -0.168953 -0.150264 -0.107546 -0.044845 0.030784 0.110238 0.183654 0.241821 0.277513 0.286533 0.268312 0.225941 0.165655 0.095824 0.025630 -0.036351 -0.083411 -0.111617 -0.120199 -0.111366 -0.089609 -0.060651 -0.030252 -0.003120 0.017844 0.031845 0.039975 0.044572 0.048312 0.053274 0.060198 0.068135 0.074578 0.076038 0.068949 0.050664 0.020316 -0.020705 -0.068771 -0.118570 -0.164087 -0.199786 -0.221741 -0.228429 -0.221001 -0.202934 -0.179136 -0.154695 -0.133561 -0.117470 -0.105398 -0.093686 -0.076863 -0.048995 -0.005289 0.056412 0.134607 0.223830 0.315196 0.397715 0.460157 0.493081 0.490629 0.451720 0.380370 0.285086 0.177438 0.070094 -0.025285 -0.099875 -0.148906 -0.172049 -0.172944 -0.158032 -0.134970 -0.110997 -0.091602 -0.079753 -0.075802 -0.078012 -0.083522 -0.089454 -0.093873 -0.096350 -0.097996 -0.100992 -0.107750 -0.119970 -0.137845 -0.159667 -0.181947 -0.200040 -0.209155 -0.205469 -0.187098 -0.154652 -0.111228 -0.061826 -0.012312 0.031817 0.066589 0.090320 0.103823 0.109990 0.112846 0.116330 0.123089 0.133619 0.145982 0.156192 0.159214 0.150332 0.126571 0.087799 0.037220 -0.018908 -0.072321 -0.114349 -0.137742 -0.138295 -0.115899 -0.074750 -0.022634 0.030576 0.074916 0.102380 0.108565 0.093562 0.061872 0.021368 -0.018476 -0.048691 -0.062786 -0.058147 -0.036550 -0.003672 0.032283 0.062519 0.079709 
hipp_sf_0012_PHC 0.009721 0.037547 0.084288 0.134399 0.169731 0.174315 0.138763 0.063201 -0.042035 -0.158156 -0.261807 -0.330233 -0.346563 -0.303989 -0.207835 -0.074991 0.069267 0.196428 0.280766 0.304944 0.263931 0.166354 0.032925 -0.107768 -0.225241 -0.293601 -0.297150 -0.233898 -0.116195 0.031684 0.178506 0.292589 0.348484 0.332427 0.245406 0.103217 -0.066541 -0.229892 -0.353222 -0.409962 -0.385848 -0.281725 -0.113351 0.091701 0.299368 0.475558 0.592424 0.633238 0.594940 0.487977 0.333566 0.159055 -0.007613 -0.143175 -0.233037 -0.273254 -0.270223 -0.238312 -0.196024 -0.161593 -0.148954 -0.164886 -0.207866 -0.268754 -0.333067 -0.384277 -0.407392 -0.392089 -0.334774 -0.239236 -0.115850 0.020422 0.152749 0.265309 0.345767 0.386933 0.387374 0.351012 0.285879 0.202396 0.111545 0.023282 -0.054558 -0.116782 -0.160806 -0.186216 -0.194135 -0.186586 -0.165997 -0.134937 -0.096055 -0.052162 -0.006337 0.038038 0.077395 0.108252 0.127607 0.133370 0.124736 0.102401 0.068573 0.026771 -0.018565 -0.062573 -0.100498 -0.128176 -0.142408 -0.141220 -0.123992 -0.091493 -0.045841 0.009597 0.070366 0.131170 0.186219 0.229717 0.256451 0.262463 0.245703 0.206548 0.148080 0.075994 -0.001893 -0.076524 -0.138786 -0.180813 -0.197207 -0.185959 -0.148875 -0.091423 -0.021970 0.049463 0.112743 0.159204 0.182987 0.181910 0.157724 0.115705 0.063659 0.010534 -0.035129 -0.066627 -0.080168 -0.075408 -0.055388 -0.025898 0.005608 0.031346 0.044550 0.040631 0.017963 -0.021818 -0.074005 -0.131483 -0.185729 -0.228018 -0.250648 -0.248047 -0.217607 -0.160155 -0.079999 0.015451 0.116461 0.212065 0.291356 0.344830 0.365620 0.350469 0.300285 0.220190 0.119019 0.008296 -0.099194 -0.191063 -0.256984 -0.290108 -0.288029 -0.253115 -0.192162 -0.115382 -0.034895 0.037068 0.089948 0.116358 0.113059 0.081265 0.026230 -0.043768 -0.118893 -0.189371 -0.247007 -0.286333 -0.305211 -0.304821 -0.289060 -0.263511 -0.234183 -0.206277 -0.183196 -0.165981 -0.153253 -0.141638 -0.126581 -0.103371 -0.068175 -0.018887 0.044360 0.119094 0.200827 0.283713 0.361422 0.428052 0.478938 0.511213 0.524043 0.518534 0.497343 0.464088 0.422681 0.376705 0.328939 0.281103 0.233843 0.186930 0.139621 0.091078 0.040775 -0.011210 -0.064054 -0.116223 -0.165674 -0.210159 -0.247572 -0.276271 -0.295303 -0.304494 -0.304405 -0.296156 -0.281185 -0.260988 -0.236905 -0.210001 -0.181055 -0.150656 -0.119363 -0.087879 -0.057168 -0.028484 -0.003270 0.017063 0.031414 0.039287 0.041000 0.037751 0.031492 0.024617 0.019501 0.017994 0.020961 0.028005 0.037436 0.046542 0.052115 0.051155 0.041607 0.022962 -0.003412 -0.034318 -0.065184 -0.090846 -0.106533 -0.108853 -0.096564 -0.070958 -0.035751 0.003538 0.040597 0.069548 0.086123 0.088556 0.077969 0.058172 0.034883 0.014514 0.002773 0.003372 0.017114 0.041571 0.071444 0.099537 0.118169 0.120742 0.103138 0.064657 0.008311 -0.059606 -0.130572 -0.195307 -0.245361 -0.274503 -0.279652 -0.261179 -0.222559 -0.169497 -0.108730 -0.046796 0.010975 0.061054 0.101805 0.133124 0.155778 0.170669 0.178244 0.178233 0.169782 0.151960 0.124459 0.088292 0.046240 0.002864 -0.035985 -0.064127 -0.076286 -0.069331 -0.043230 -0.001443 0.049385 0.100445 0.142316 0.166778 0.168491 0.146183 0.103078 0.046421 -0.013812 -0.066799 -0.102960 -0.115826 -0.103300 -0.068036 -0.016872 0.040595 0.093962 0.134106 0.154966 0.154645 0.135612 0.103992 0.068097 0.036553 0.016415 0.011692 0.022589 0.045594 0.074384 0.101314 0.119133 0.122565 0.109373 0.080721 0.040752 -0.004470 -0.048420 -0.085596 -0.112708 -0.129310 -0.137727 -0.142349 -0.148444 -0.160797 -0.182488 -0.214082 -0.253406 -0.295945 -0.335743 -0.366595 -0.383247 -0.382338 -0.362898 -0.326317 -0.275844 -0.215761 -0.150469 -0.083706 -0.018079 0.045002 0.105012 0.161750 0.214709 0.262595 0.303128 0.333235 0.349574 0.349298 0.330837 0.294509 0.242791 0.180139 0.112391 0.045867 -0.013655 -0.061837 -0.096380 -0.117177 -0.126009 -0.125862 -0.120046 -0.111330 -0.101304 -0.090121 -0.076665 -0.059101 -0.035654 -0.005398 0.031142 0.071743 0.112678 0.149313 0.176968 0.191854 
