13 420
hipp_sf_0000_BG -0.005901 -0.009379 -0.015593 -0.023185 -0.030424 -0.035513 -0.036917 -0.033649 -0.025477 -0.012988 0.002467 0.018991 0.034433 0.046762 0.054403 0.056517 0.053139 0.045169 0.034194 0.022185 0.011113 0.002573 -0.002520 -0.004096 -0.002915 -0.000372 0.001837 0.002132 -0.000559 -0.006495 -0.015007 -0.024581 -0.033147 -0.038521 -0.038904 -0.033338 -0.022009 -0.006324 0.011270 0.027709 0.039889 0.045296 0.042557 0.031784 0.014634 -0.005936 -0.026196 -0.042333 -0.051197 -0.050923 -0.041324 -0.023948 -0.001797 0.021240 0.041146 0.054544 0.059346 0.055125 0.043146 0.026053 0.007275 -0.009724 -0.022174 -0.028568 -0.028932 -0.024755 -0.018571 -0.013323 -0.011611 -0.015030 -0.023728 -0.036292 -0.050005 -0.061418 -0.067110 -0.064493 -0.052468 -0.031783 -0.005016 0.023830 0.050052 0.069146 0.077690 0.074042 0.058699 0.034242 0.004879 -0.024334 -0.048428 -0.063434 -0.067096 -0.059235 -0.041720 -0.018038 0.007419 0.030219 0.046715 0.054686 0.053659 0.044874 0.030923 0.015135 0.000874 -0.009130 -0.013263 -0.011244 -0.004047 0.006419 0.017812 0.027883 0.034946 0.038163 0.037612 0.034140 0.029049 0.023700 0.019147 0.015882 0.013746 0.012037 0.009754 0.005935 -0.000013 -0.008075 -0.017541 -0.027105 -0.035116 -0.039940 -0.040341 -0.035799 -0.026680 -0.014233 -0.000384 0.012600 0.022542 0.027762 0.027394 0.021539 0.011229 -0.001786 -0.015387 -0.027491 -0.036428 -0.041217 -0.041693 -0.038463 -0.032708 -0.025888 -0.019414 -0.014352 -0.011232 -0.009977 -0.009981 -0.010288 -0.009841 -0.007740 -0.003448 0.003091 0.011435 0.020741 0.029927 0.037878 0.043631 0.046525 0.046270 0.042937 0.036895 0.028691 0.018937 0.008206 -0.003021 -0.014366 -0.025520 -0.036184 -0.046013 -0.054578 -0.061366 -0.065820 -0.067414 -0.065746 -0.060628 -0.052144 -0.040672 -0.026859 -0.011545 0.004331 0.019845 0.034182 0.046704 0.056979 0.064773 0.070011 0.072726 0.073007 0.070965 0.066727 0.060441 0.052311 0.042629 0.031793 0.020313 0.008778 -0.002194 -0.012023 -0.020241 -0.026546 -0.030832 -0.033186 -0.033852 -0.033173 -0.031519 -0.029228 -0.026559 -0.023678 -0.020671 -0.017581 -0.014446 -0.011337 -0.008376 -0.005719 -0.003527 -0.001908 -0.000865 -0.000265 0.000169 0.000816 0.002085 0.004309 0.007647 0.011997 0.016969 0.021904 0.025973 0.028317 0.028221 0.025279 0.019505 0.011388 0.001837 -0.007953 -0.016701 -0.023281 -0.026938 -0.027445 -0.025163 -0.020986 -0.016174 -0.012103 -0.009987 -0.010615 -0.014170 -0.020157 -0.027475 -0.034606 -0.039904 -0.041911 -0.039654 -0.032847 -0.021971 -0.008200 0.006806 0.021203 0.033299 0.041861 0.046322 0.046853 0.044289 0.039908 0.035137 0.031222 0.028948 0.028472 0.029293 0.030380 0.030428 0.028182 0.022770 0.013963 0.002298 -0.010952 -0.023985 -0.034795 -0.041569 -0.043061 -0.038884 -0.029630 -0.016815 -0.002636 0.010413 0.019987 0.024327 0.022586 0.014992 0.002811 -0.011880 -0.026573 -0.038784 -0.046486 -0.048464 -0.044497 -0.035355 -0.022619 -0.008347 0.005313 0.016519 0.024032 0.027379 0.026855 0.023369 0.018176 0.012570 0.007591 0.003824 0.001316 -0.000366 -0.001960 -0.004268 -0.007903 -0.013078 -0.019507 -0.026414 -0.032672 -0.037023 -0.038337 -0.035855 -0.029349 -0.019184 -0.006249 0.008208 0.022813 0.036311 0.047769 0.056693 0.063039 0.067118 0.069425 0.070433 0.070417 0.069338 0.066825 0.062270 0.055001 0.044506 0.030644 0.013800 -0.005069 -0.024513 -0.042776 -0.058076 -0.068910 -0.074327 -0.074114 -0.068853 -0.059832 -0.048827 -0.037790 -0.028516 -0.022329 -0.019871 -0.021016 -0.024926 -0.030240 -0.035352 -0.038720 -0.039151 -0.036011 -0.029315 -0.019700 -0.008285 0.003553 0.014427 0.023173 0.029028 0.031717 0.031454 0.028850 0.024772 0.020171 0.015926 0.012716 0.010949 0.010751 0.011992 0.014355 0.017411 0.020693 0.023754 0.026198 0.027709 0.028046 0.027056 0.024676 0.020944 0.016010 0.010144 0.003730 -0.002762 -0.008817 -0.013942 -0.017732 -0.019938 -0.020502 -0.019576 -0.017493 -0.014709 -0.011721 -0.008979 -0.006805 -0.005349 -0.004571 -0.004275 -0.004166 -0.003937 -0.003345 -0.002274 -0.000765 0.000996 0.002724 0.004103 0.004869 
hipp_sf_0001_CA1 0.005123 -0.004889 -0.022656 -0.044132 -0.064328 -0.078341 -0.082356 -0.074414 -0.054786 -0.025876 0.008289 0.042889 0.073248 0.095685 0.108094 0.110137 0.103047 0.089095 0.070877 0.050628 0.029708 0.008427 -0.013774 -0.037824 -0.064343 -0.092973 -0.121927 -0.147901 -0.166426 -0.172645 -0.162350 -0.133084 -0.085045 -0.021561 0.051018 0.124061 0.187928 0.233559 0.254103 0.246245 0.210964 0.153544 0.082796 0.009623 -0.054839 -0.101146 -0.123172 -0.119149 -0.091886 -0.048159 0.002628 0.050244 0.085539 0.102103 0.097351 0.072842 0.033799 -0.012070 -0.056176 -0.090769 -0.110405 -0.112906 -0.099611 -0.074918 -0.045227 -0.017526 0.002082 0.009598 0.003865 -0.013309 -0.037657 -0.063424 -0.084622 -0.096269 -0.095367 -0.081443 -0.056541 -0.024718 0.008850 0.038924 0.061218 0.073156 0.074237 0.065973 0.051418 0.034443 0.018906 0.007900 0.003227 0.005175 0.012622 0.023408 0.034858 0.044357 0.049824 0.050026 0.044683 0.034381 0.020350 0.004175 -0.012479 -0.028064 -0.041268 -0.051038 -0.056560 -0.057233 -0.052680 -0.042811 -0.027934 -0.008871 0.012969 0.035605 0.056633 0.073504 0.083899 0.086136 0.079521 0.064564 0.042988 0.017514 -0.008551 -0.031860 -0.049595 -0.059945 -0.062394 -0.057762 -0.047980 -0.035651 -0.023496 -0.013793 -0.007935 -0.006203 -0.007783 -0.011037 -0.013943 -0.014608 -0.011734 -0.004936 0.005160 0.017048 0.028679 0.037908 0.042949 0.042752 0.037198 0.027105 0.014036 -0.000029 -0.013065 -0.023350 -0.029708 -0.031600 -0.029088 -0.022690 -0.013187 -0.001460 0.011614 0.025178 0.038331 0.050050 0.059138 0.064250 0.064046 0.057443 0.043921 0.023816 -0.001511 -0.029689 -0.057584 -0.081771 -0.099140 -0.107534 -0.106263 -0.096363 -0.080514 -0.062587 -0.046889 -0.037252 -0.036132 -0.043949 -0.058805 -0.076695 -0.092191 -0.099489 -0.093621 -0.071580 -0.033123 0.018942 0.079067 0.139830 0.193199 0.231960 0.251002 0.248211 0.224792 0.184944 0.134962 0.081974 0.032559 -0.008443 -0.038683 -0.058474 -0.070355 -0.078167 -0.085864 -0.096342 -0.110571 -0.127221 -0.142888 -0.152873 -0.152324 -0.137500 -0.106845 -0.061628 -0.005991 0.053640 0.109645 0.154600 0.182647 0.190577 0.178385 0.149185 0.108511 0.063170 0.019890 -0.015939 -0.041159 -0.055208 -0.059894 -0.058649 -0.055479 -0.053849 -0.055781 -0.061377 -0.068862 -0.075141 -0.076708 -0.070701 -0.055812 -0.032844 -0.004754 0.023846 0.047620 0.061688 0.062762 0.049997 0.025337 -0.006724 -0.039952 -0.067576 -0.083653 -0.084293 -0.068504 -0.038452 0.000892 0.042680 0.079474 0.104657 0.113670 0.104837 0.079642 0.042394 -0.000619 -0.042306 -0.076053 -0.096849 -0.102067 -0.091761 -0.068485 -0.036672 -0.001749 0.030833 0.056485 0.072113 0.076432 0.069950 0.054657 0.033537 0.010007 -0.012610 -0.031502 -0.044632 -0.050852 -0.049891 -0.042266 -0.029142 -0.012177 0.006644 0.025184 0.041354 0.053327 0.059771 0.060049 0.054363 0.043786 0.030152 0.015793 0.003150 -0.005673 -0.009345 -0.007623 -0.001469 0.007065 0.015205 0.019995 0.018925 0.010508 -0.005313 -0.027033 -0.051770 -0.075743 -0.094963 -0.106000 -0.106664 -0.096469 -0.076762 -0.050494 -0.021678 0.005380 0.026899 0.040342 0.044875 0.041495 0.032784 0.022359 0.014126 0.011492 0.016691 0.030348 0.051366 0.077124 0.103949 0.127750 0.144674 0.151695 0.147002 0.130179 0.102152 0.064977 0.021510 -0.024941 -0.070930 -0.113126 -0.148496 -0.174448 -0.188957 -0.190719 -0.179315 -0.155391 -0.120773 -0.078495 -0.032639 0.012004 0.050471 0.078293 0.092182 0.090623 0.074230 0.045773 0.009832 -0.027885 -0.061472 -0.085825 -0.097534 -0.095480 -0.081013 -0.057660 -0.030401 -0.004653 0.014841 0.025002 0.025066 0.016758 0.003956 -0.008124 -0.014034 -0.009293 0.008579 0.039408 0.080227 0.125702 0.169040 0.203214 0.222259 0.222389 0.202722 0.165462 0.115501 0.059534 0.004850 -0.041967 -0.076164 -0.095573 -0.100852 -0.095168 -0.083417 -0.071131 -0.063297 -0.063325 -0.072364 -0.089091 -0.110009 -0.130188 -0.144289 -0.147681 -0.137417 -0.112890 -0.076037 -0.031063 0.016270 0.059659 0.093369 0.113259 0.117513 0.106950 0.084866 0.056421 0.027698 0.004599 -0.008229 
hipp_sf_0002_CA2 0.087881 0.052659 -0.010715 -0.089521 -0.167920 -0.230064 -0.263135 -0.259684 -0.218816 -0.146037 -0.051848 0.050525 0.147747 0.228735 0.286290 0.317706 0.324319 0.310230 0.280606 0.240036 0.191407 0.135563 0.071813 -0.000883 -0.082420 -0.170195 -0.258343 -0.337829 -0.397502 -0.425933 -0.413672 -0.355438 -0.251731 -0.109495 0.058385 0.234681 0.400228 0.536697 0.629200 0.668263 0.650853 0.580336 0.465478 0.318791 0.154598 -0.012784 -0.170435 -0.307669 -0.416309 -0.490589 -0.526901 -0.523625 -0.481198 -0.402416 -0.292870 -0.161259 -0.019332 0.118763 0.237789 0.323313 0.363867 0.353004 0.290757 0.184137 0.046446 -0.104580 -0.249512 -0.370378 -0.453606 -0.492168 -0.486508 -0.444017 -0.377203 -0.300916 -0.229231 -0.172657 -0.136251 -0.119022 -0.114718 -0.113772 -0.105923 -0.082885 -0.040446 0.020489 0.094124 0.171186 0.241159 0.294765 0.326095 0.333859 0.321459 0.295893 0.265780 0.239010 0.220647 0.211627 0.208604 0.205012 0.193086 0.166345 0.121888 0.061870 -0.006260 -0.070944 -0.118893 -0.138172 -0.121283 -0.067483 0.016261 0.115994 0.213139 0.288046 0.324010 0.310895 0.247551 0.142451 0.012361 -0.120734 -0.233842 -0.307433 -0.329251 -0.296664 -0.217064 -0.106248 0.014858 0.124437 0.204069 0.242184 0.235993 0.191526 0.121862 0.043983 -0.025017 -0.071530 -0.088094 -0.074584 -0.037776 0.010535 0.056356 0.086592 0.091713 0.067460 0.015297 -0.058386 -0.143997 -0.230922 -0.309597 -0.373009 -0.417349 -0.441772 -0.447486 -0.436522 -0.410636 -0.370675 -0.316625 -0.248294 -0.166398 -0.073662 0.024468 0.119845 0.202507 0.262314 0.291026 0.284306 0.243142 0.174252 0.089271 0.002794 -0.070356 -0.118048 -0.133298 -0.115666 -0.071223 -0.011061 0.051373 0.103509 0.136707 0.148384 0.142686 0.129460 0.121732 0.132223 0.169720 0.236158 0.325196 0.422679 0.509043 0.563187 0.567033 0.509777 0.390855 0.220910 0.020443 -0.183634 -0.362910 -0.492823 -0.557347 -0.552003 -0.484564 -0.373266 -0.242934 -0.119814 -0.026246 0.023716 0.026780 -0.009478 -0.068886 -0.130757 -0.174861 -0.186135 -0.158109 -0.094261 -0.007049 0.085142 0.162420 0.208127 0.212818 0.176549 0.108946 0.027033 -0.048695 -0.099057 -0.110729 -0.079519 -0.011584 0.077686 0.166918 0.233425 0.258286 0.230688 0.150606 0.029175 -0.113305 -0.251356 -0.359419 -0.417003 -0.412789 -0.346839 -0.230471 -0.083854 0.068113 0.200765 0.294408 0.337857 0.330097 0.279785 0.202806 0.118484 0.045326 -0.002764 -0.019036 -0.004703 0.032031 0.078425 0.120471 0.146209 0.148319 0.125444 0.082021 0.026741 -0.029901 -0.078328 -0.112183 -0.129672 -0.133643 -0.130417 -0.127723 -0.132278 -0.147657 -0.173005 -0.202955 -0.228799 -0.240648 -0.230067 -0.192543 -0.129159 -0.047025 0.041726 0.122184 0.179737 0.203276 0.187837 0.136060 0.058087 -0.030132 -0.109824 -0.163093 -0.176557 -0.144199 -0.068803 0.038314 0.159265 0.272850 0.358488 0.400036 0.388754 0.324860 0.217377 0.082359 -0.060149 -0.189771 -0.289398 -0.348007 -0.362228 -0.336411 -0.281252 -0.211332 -0.142094 -0.086861 -0.054474 -0.047940 -0.064295 -0.095594 -0.130774 -0.157957 -0.166733 -0.149983 -0.104972 -0.033573 0.058327 0.162012 0.267441 0.364750 0.445483 0.503389 0.534732 0.538176 0.514388 0.465527 0.394782 0.306060 0.203862 0.093286 -0.019922 -0.129400 -0.228377 -0.310108 -0.368512 -0.398939 -0.398910 -0.368694 -0.311572 -0.233701 -0.143554 -0.051009 0.033803 0.101703 0.145567 0.161139 0.147474 0.106956 0.044908 -0.031094 -0.112134 -0.188924 -0.252746 -0.296263 -0.314152 -0.303537 -0.264213 -0.198672 -0.111935 -0.011196 0.094738 0.196186 0.283501 0.348071 0.383347 0.385736 0.355250 0.295752 0.214709 0.122422 0.030771 -0.048372 -0.104859 -0.131843 -0.126949 -0.092813 -0.036867 0.029662 0.093399 0.140892 0.160764 0.145614 0.093311 0.007482 -0.102935 -0.224993 -0.343692 -0.444266 -0.514414 -0.546094 -0.536601 -0.488740 -0.410101 -0.311586 -0.205471 -0.103364 -0.014427 0.055824 0.105967 0.138305 0.157826 0.170707 0.182703 0.197756 0.217095 0.239008 0.259317 0.272441 0.272809 0.256315 0.221509 0.170255 0.107711 0.041616 -0.018974 -0.065269 -0.090328 
hipp_sf_0003_DG 0.007310 -0.021401 -0.072867 -0.136314 -0.198210 -0.244830 -0.264834 -0.251367 -0.203291 -0.125338 -0.027206 0.078204 0.177018 0.256667 0.307765 0.325297 0.308944 0.262592 0.193202 0.109349 0.019767 -0.067817 -0.147372 -0.214718 -0.267238 -0.303330 -0.321821 -0.321578 -0.301427 -0.260437 -0.198474 -0.116864 -0.018938 0.089719 0.201472 0.307304 0.397878 0.464809 0.501893 0.506068 0.477901 0.421500 0.343870 0.253827 0.160691 0.072987 -0.002616 -0.061950 -0.103515 -0.128192 -0.138604 -0.138305 -0.130970 -0.119755 -0.106916 -0.093729 -0.080660 -0.067706 -0.054787 -0.042081 -0.030231 -0.020379 -0.014052 -0.012924 -0.018534 -0.032006 -0.053818 -0.083650 -0.120296 -0.161663 -0.204819 -0.246122 -0.281422 -0.306380 -0.316884 -0.309587 -0.282487 -0.235484 -0.170797 -0.093103 -0.009311 0.072098 0.142111 0.192514 0.217279 0.213778 0.183554 0.132438 0.069918 0.007787 -0.041744 -0.068160 -0.064607 -0.029317 0.033807 0.115610 0.203073 0.281478 0.336938 0.358870 0.341913 0.286945 0.200982 0.095985 -0.013214 -0.111474 -0.185902 -0.227945 -0.234621 -0.208708 -0.157883 -0.093031 -0.026098 0.032098 0.073644 0.094612 0.095266 0.079452 0.053360 0.023976 -0.002415 -0.021374 -0.030894 -0.031359 -0.024985 -0.014926 -0.004310 0.004544 0.010560 0.013911 0.015658 0.017163 0.019487 0.022949 0.026988 0.030374 0.031681 0.029883 0.024870 0.017710 0.010542 0.006084 0.006872 0.014411 0.028481 0.046819 0.065301 0.078665 0.081630 0.070189 0.042763 0.000922 -0.050544 -0.104298 -0.151763 -0.184833 -0.197629 -0.187889 -0.157682 -0.113225 -0.063797 -0.019947 0.008659 0.015288 -0.002350 -0.041490 -0.094749 -0.151551 -0.200261 -0.230580 -0.235702 -0.213744 -0.168152 -0.106973 -0.041128 0.017929 0.060685 0.081624 0.080420 0.062001 0.035460 0.012041 0.002632 0.015308 0.053453 0.114874 0.192104 0.273827 0.347127 0.400080 0.424121 0.415707 0.376904 0.314794 0.239843 0.163605 0.096248 0.044475 0.010265 -0.009278 -0.020963 -0.033637 -0.055847 -0.093538 -0.148331 -0.216751 -0.290609 -0.358469 -0.407897 -0.428042 -0.411984 -0.358376 -0.272015 -0.163218 -0.046127 0.063736 0.152170 0.208718 0.228359 0.212150 0.166722 0.102780 0.032918 -0.030776 -0.078856 -0.105986 -0.111500 -0.098974 -0.074992 -0.047390 -0.023399 -0.008078 -0.003370 -0.007933 -0.017765 -0.027416 -0.031513 -0.026201 -0.010204 0.014775 0.044376 0.072568 0.093076 0.100930 0.093780 0.072688 0.042185 0.009572 -0.016435 -0.027444 -0.017176 0.017057 0.073492 0.145869 0.224225 0.296408 0.350066 0.374734 0.363672 0.315117 0.232733 0.125164 0.004796 -0.114088 -0.217435 -0.293481 -0.334414 -0.337396 -0.304792 -0.243616 -0.164307 -0.079064 -0.000012 0.062514 0.101313 0.113130 0.098842 0.063048 0.013162 -0.041815 -0.092671 -0.131281 -0.151691 -0.150846 -0.128896 -0.089092 -0.037272 0.018945 0.071184 0.111418 0.133031 0.131713 0.106084 0.057951 -0.007834 -0.083939 -0.161479 -0.231200 -0.284781 -0.316057 -0.321979 -0.303146 -0.263784 -0.211144 -0.154381 -0.103066 -0.065571 -0.047588 -0.051067 -0.073760 -0.109506 -0.149215 -0.182413 -0.199082 -0.191456 -0.155451 -0.091437 -0.004209 0.097862 0.204340 0.304605 0.389739 0.454047 0.495896 0.517706 0.525092 0.525340 0.525522 0.530675 0.542428 0.558383 0.572426 0.575909 0.559498 0.515296 0.438820 0.330389 0.195621 0.044911 -0.108059 -0.248494 -0.362929 -0.441496 -0.479544 -0.478335 -0.444678 -0.389588 -0.326263 -0.267757 -0.224826 -0.204332 -0.208459 -0.234863 -0.277609 -0.328677 -0.379653 -0.423246 -0.454351 -0.470463 -0.471467 -0.458929 -0.435144 -0.402227 -0.361505 -0.313339 -0.257425 -0.193423 -0.121721 -0.044056 0.036217 0.114357 0.184955 0.243000 0.285039 0.310122 0.320269 0.320265 0.316782 0.316947 0.326666 0.349074 0.383471 0.425053 0.465543 0.494660 0.502159 0.480030 0.424392 0.336664 0.223731 0.097021 -0.029339 -0.140960 -0.225713 -0.275845 -0.289250 -0.269654 -0.225675 -0.168972 -0.111887 -0.065069 -0.035566 -0.025777 -0.033438 -0.052590 -0.075284 -0.093603 -0.101535 -0.096284 -0.078746 -0.053073 -0.025477 -0.002579 0.010285 0.010378 -0.001792 -0.022659 -0.046538 -0.067082 -0.078896 
hipp_sf_0004_CA3 0.183022 0.096936 -0.054951 -0.236640 -0.404524 -0.517203 -0.544792 -0.475636 -0.318958 -0.102876 0.131705 0.339915 0.482442 0.533631 0.486391 0.352918 0.161194 -0.051778 -0.248375 -0.398379 -0.484816 -0.506342 -0.475772 -0.415274 -0.349543 -0.298725 -0.272848 -0.269173 -0.273066 -0.262166 -0.212785 -0.106931 0.061824 0.285106 0.540025 0.792981 1.006195 1.145476 1.187463 1.124679 0.967246 0.740876 0.481609 0.228501 0.015915 -0.132884 -0.209439 -0.220423 -0.184620 -0.127429 -0.074255 -0.044402 -0.046866 -0.078949 -0.127902 -0.175075 -0.201442 -0.193108 -0.145405 -0.064596 0.033205 0.125613 0.189124 0.204619 0.161868 0.062007 -0.082557 -0.250739 -0.417175 -0.557372 -0.652398 -0.692081 -0.676089 -0.612829 -0.516604 -0.403906 -0.289834 -0.185539 -0.097225 -0.026781 0.026382 0.063041 0.082304 0.080910 0.054055 -0.002391 -0.088885 -0.199376 -0.319664 -0.427761 -0.496618 -0.498954 -0.413304 -0.230001 0.044409 0.385570 0.753296 1.097106 1.364488 1.510399 1.506081 1.345328 1.046759 0.651427 0.216066 -0.196807 -0.530033 -0.741956 -0.813568 -0.751195 -0.584235 -0.358469 -0.126380 0.063461 0.175739 0.194576 0.125384 -0.007822 -0.168891 -0.318209 -0.421601 -0.457509 -0.420949 -0.323521 -0.189693 -0.050365 0.064663 0.133534 0.146943 0.109534 0.037923 -0.044041 -0.111510 -0.144805 -0.134033 -0.081088 0.001353 0.093489 0.173700 0.224154 0.235272 0.207988 0.153262 0.089039 0.035450 0.009512 0.020670 0.068328 0.141968 0.223839 0.293521 0.333201 0.332306 0.290307 0.216944 0.129770 0.049600 -0.005016 -0.022910 -0.003681 0.041579 0.092498 0.124141 0.113166 0.043963 -0.086718 -0.267838 -0.475411 -0.676933 -0.837983 -0.929540 -0.934363 -0.850948 -0.694122 -0.492057 -0.280339 -0.094371 0.038187 0.103243 0.103050 0.055301 -0.011271 -0.063771 -0.072944 -0.020122 0.098283 0.269764 0.468425 0.660790 0.813381 0.900333 0.909265 0.844061 0.723875 0.578564 0.441577 0.341912 0.297004 0.308212 0.360022 0.423224 0.461471 0.439806 0.333302 0.133865 -0.146364 -0.475882 -0.808935 -1.093904 -1.283306 -1.343345 -1.261053 -1.047500 -0.736364 -0.378086 -0.030745 0.250554 0.423707 0.467098 0.383110 0.197050 -0.048217 -0.300797 -0.509733 -0.634435 -0.651800 -0.559713 -0.376422 -0.136079 0.118517 0.344428 0.506617 0.583997 0.572400 0.484084 0.344087 0.184344 0.036898 -0.072376 -0.128287 -0.128287 -0.081628 -0.006092 0.076866 0.147425 0.191963 0.205936 0.194490 0.170755 0.152272 0.156384 0.195635 0.274204 0.386153 0.515908 0.640869 0.735666 0.777169 0.749269 0.646431 0.475324 0.254165 0.009880 -0.226365 -0.424449 -0.560398 -0.620349 -0.602682 -0.517939 -0.386618 -0.235285 -0.091766 0.019660 0.082205 0.088972 0.043453 -0.041870 -0.148427 -0.255351 -0.343376 -0.398116 -0.412140 -0.385577 -0.325253 -0.242686 -0.151450 -0.064506 0.007941 0.059701 0.088806 0.096785 0.087312 0.064667 0.032420 -0.007310 -0.053887 -0.107542 -0.168356 -0.235207 -0.305054 -0.372836 -0.432103 -0.476262 -0.500155 -0.501540 -0.482049 -0.447273 -0.405850 -0.367647 -0.341408 -0.332363 -0.340414 -0.359365 -0.377523 -0.379637 -0.349883 -0.275300 -0.148949 0.027919 0.245234 0.485255 0.725352 0.941913 1.114617 1.230163 1.284673 1.284210 1.243250 1.181402 1.119022 1.072639 1.051193 1.053880 1.070131 1.081759 1.066876 1.004774 0.880770 0.689985 0.439249 0.146708 -0.160845 -0.452398 -0.698052 -0.874233 -0.967765 -0.978060 -0.917032 -0.806821 -0.675806 -0.553710 -0.466714 -0.433450 -0.462515 -0.551808 -0.689632 -0.857189 -1.031878 -1.190740 -1.313482 -1.384667 -1.394913 -1.341142 -1.226112 -1.057513 -0.846884 -0.608541 -0.358544 -0.113671 0.109730 0.297074 0.437050 0.523163 0.555043 0.539161 0.488651 0.422008 0.360676 0.325786 0.334514 0.396729 0.512608 0.671791 0.854387 1.033794 1.180941 1.269214 1.279191 1.202257 1.042409 0.815845 0.548405 0.271321 0.016087 -0.190586 -0.330780 -0.397638 -0.395534 -0.338237 -0.245546 -0.139173 -0.038746 0.041268 0.093180 0.116051 0.114219 0.094873 0.065382 0.031048 -0.006172 -0.047722 -0.097360 -0.159295 -0.236107 -0.327055 -0.427255 -0.527992 -0.618117 -0.686187 -0.722848 
hipp_sf_0005_HEAD NaN NaN NaN NaN NaN NaN NaN NaN NaN NaN NaN NaN NaN NaN NaN NaN NaN NaN NaN NaN NaN NaN NaN NaN NaN NaN NaN NaN NaN NaN NaN NaN NaN NaN NaN NaN NaN NaN NaN NaN NaN NaN NaN NaN NaN NaN NaN NaN NaN NaN NaN NaN NaN NaN NaN NaN NaN NaN NaN NaN NaN NaN NaN NaN NaN NaN NaN NaN NaN NaN NaN NaN NaN NaN NaN NaN NaN NaN NaN NaN NaN NaN NaN NaN NaN NaN NaN NaN NaN NaN NaN NaN NaN NaN NaN NaN NaN NaN NaN NaN NaN NaN NaN NaN NaN NaN NaN NaN NaN NaN NaN NaN NaN NaN NaN NaN NaN NaN NaN NaN NaN NaN NaN NaN NaN NaN NaN NaN NaN NaN NaN NaN NaN NaN NaN NaN NaN NaN NaN NaN NaN NaN NaN NaN NaN NaN NaN NaN NaN NaN NaN NaN NaN NaN NaN NaN NaN NaN NaN NaN NaN NaN NaN NaN NaN NaN NaN NaN NaN NaN NaN NaN NaN NaN NaN NaN NaN NaN NaN NaN NaN NaN NaN NaN NaN NaN NaN NaN NaN NaN NaN NaN NaN NaN NaN NaN NaN NaN NaN NaN NaN NaN NaN NaN NaN NaN NaN NaN NaN NaN NaN NaN NaN NaN NaN NaN NaN NaN NaN NaN NaN NaN NaN NaN NaN NaN NaN NaN NaN NaN NaN NaN NaN NaN NaN NaN NaN NaN NaN NaN NaN NaN NaN NaN NaN NaN NaN NaN NaN NaN NaN NaN NaN NaN NaN NaN NaN NaN NaN NaN NaN NaN NaN NaN NaN NaN NaN NaN NaN NaN NaN NaN NaN NaN NaN NaN NaN NaN NaN NaN NaN NaN NaN NaN NaN NaN NaN NaN NaN NaN NaN NaN NaN NaN NaN NaN NaN NaN NaN NaN NaN NaN NaN NaN NaN NaN NaN NaN NaN NaN NaN NaN NaN NaN NaN NaN NaN NaN NaN NaN NaN NaN NaN NaN NaN NaN NaN NaN NaN NaN NaN NaN NaN NaN NaN NaN NaN NaN NaN NaN NaN NaN NaN NaN NaN NaN NaN NaN NaN NaN NaN NaN NaN NaN NaN NaN NaN NaN NaN NaN NaN NaN NaN NaN NaN NaN NaN NaN NaN NaN NaN NaN NaN NaN NaN NaN NaN NaN NaN NaN NaN NaN NaN NaN NaN NaN NaN NaN NaN NaN NaN NaN NaN NaN NaN NaN NaN NaN NaN NaN NaN NaN NaN NaN NaN NaN NaN NaN NaN NaN NaN NaN NaN NaN NaN NaN NaN NaN NaN NaN 
hipp_sf_0006_TAIL 0.091895 0.062728 0.010502 -0.053831 -0.116732 -0.164873 -0.187871 -0.180416 -0.143351 -0.083478 -0.012157 0.057020 0.110983 0.139816 0.138719 0.108928 0.057414 -0.004551 -0.063658 -0.107189 -0.125485 -0.113781 -0.073061 -0.009811 0.065256 0.139218 0.199308 0.235159 0.240548 0.214328 0.160440 0.087068 0.005113 -0.073668 -0.138554 -0.181440 -0.197895 -0.187558 -0.153895 -0.103392 -0.044394 0.014232 0.064381 0.099773 0.116688 0.114286 0.094535 0.061770 0.021967 -0.018156 -0.052112 -0.074554 -0.082023 -0.073417 -0.050132 -0.015837 0.024098 0.063432 0.096037 0.116859 0.122721 0.112800 0.088717 0.054196 0.014379 -0.025092 -0.059041 -0.083581 -0.096640 -0.098098 -0.089528 -0.073616 -0.053425 -0.031671 -0.010203 0.010197 0.029658 0.048762 0.067920 0.086779 0.103843 0.116446 0.121141 0.114426 0.093672 0.058013 0.008964 -0.049418 -0.110940 -0.168191 -0.213835 -0.241987 -0.249395 -0.236136 -0.205646 -0.164050 -0.118908 -0.077634 -0.045932 -0.026599 -0.018969 -0.019140 -0.020945 -0.017456 -0.002685 0.026906 0.071430 0.127387 0.188291 0.245994 0.292400 0.321160 0.328974 0.316171 0.286432 0.245730 0.200738 0.157087 0.117935 0.083191 0.049638 0.011940 -0.035664 -0.097386 -0.174119 -0.262328 -0.353944 -0.437366 -0.499425 -0.527948 -0.514380 -0.455886 -0.356449 -0.226673 -0.082262 0.058559 0.178193 0.262751 0.304458 0.302886 0.264767 0.202448 0.131303 0.066662 0.020894 0.001231 0.008759 0.038735 0.082111 0.127861 0.165587 0.187799 0.191384 0.177969 0.153150 0.124803 0.100923 0.087515 0.087034 0.097746 0.114135 0.128254 0.131686 0.117636 0.082669 0.027670 -0.042177 -0.118409 -0.191036 -0.250645 -0.290354 -0.307177 -0.302506 -0.281607 -0.252266 -0.222916 -0.200674 -0.189745 -0.190561 -0.199810 -0.211347 -0.217748 -0.212114 -0.189727 -0.149137 -0.092483 -0.024956 0.046408 0.114317 0.172796 0.218339 0.250397 0.271071 0.284106 0.293471 0.301879 0.309662 0.314309 0.310840 0.292956 0.254750 0.192574 0.106619 0.001803 -0.112314 -0.222650 -0.314605 -0.374588 -0.392569 -0.364155 -0.291728 -0.184393 -0.056689 0.073713 0.188930 0.273849 0.318624 0.320216 0.282709 0.216332 0.135410 0.055630 -0.008849 -0.047902 -0.057107 -0.038284 0.001151 0.049871 0.094991 0.124631 0.130205 0.107988 0.059719 -0.007866 -0.084438 -0.158107 -0.217697 -0.254807 -0.265287 -0.249856 -0.213792 -0.165769 -0.116094 -0.074708 -0.049324 -0.044070 -0.058855 -0.089576 -0.129080 -0.168661 -0.199795 -0.215742 -0.212718 -0.190409 -0.151763 -0.102124 -0.047931 0.004722 0.051341 0.089820 0.120592 0.146124 0.169871 0.194952 0.222886 0.252697 0.280664 0.300819 0.306148 0.290262 0.249192 0.182889 0.096061 -0.001935 -0.098210 -0.178333 -0.228867 -0.239972 -0.207535 -0.134390 -0.030288 0.089413 0.206186 0.301453 0.359819 0.371795 0.335481 0.256869 0.148682 0.027986 -0.086974 -0.180084 -0.240168 -0.262752 -0.250452 -0.211953 -0.159828 -0.107690 -0.067288 -0.046172 -0.046398 -0.064505 -0.092732 -0.121145 -0.140162 -0.142883 -0.126705 -0.093846 -0.050709 -0.006241 0.030291 0.051563 0.053955 0.038388 0.010039 -0.022984 -0.051691 -0.068460 -0.068946 -0.053170 -0.025494 0.006513 0.034061 0.049501 0.048468 0.031261 0.003072 -0.027034 -0.048224 -0.050591 -0.027845 0.020679 0.089219 0.166243 0.236526 0.284249 0.296457 0.266149 0.194258 0.090050 -0.030234 -0.146283 -0.237598 -0.287570 -0.286914 -0.235706 -0.143576 -0.027991 0.089067 0.185348 0.242662 0.250402 0.207554 0.122800 0.012711 -0.101593 -0.198597 -0.260543 -0.276726 -0.245323 -0.173427 -0.075356 0.030354 0.124630 0.191431 0.220539 0.209035 0.161295 0.087588 0.001690 -0.081935 -0.150779 -0.196241 -0.214575 -0.206758 -0.177439 -0.133347 -0.081563 -0.028095 0.022969 0.069606 0.111381 0.148575 0.181234 0.208450 0.228101 0.237122 0.232252 0.211031 0.172771 0.119221 0.054714 -0.014281 -0.080135 -0.135359 -0.173934 -0.192398 -0.190422 -0.170769 -0.138651 -0.100635 -0.063345 -0.032242 -0.010749 0.000143 0.001717 -0.003075 -0.010502 -0.016987 -0.019875 -0.017880 -0.011135 -0.000905 0.010938 0.022490 0.032295 0.039603 0.044370 0.047033 0.048169 
hipp_sf_0007_MISC -0.022559 -0.020597 -0.016671 -0.010845 -0.003361 0.005266 0.014211 0.022412 0.028749 0.032298 0.032601 0.029857 0.024979 0.019453 0.015009 0.013169 0.014760 0.019536 0.026018 0.031629 0.033154 0.027437 0.012201 -0.013201 -0.047294 -0.086381 -0.124931 -0.156404 -0.174395 -0.173884 -0.152334 -0.110391 -0.052040 0.015879 0.084708 0.145388 0.189983 0.213022 0.212382 0.189551 0.149217 0.098277 0.044481 -0.005013 -0.044854 -0.072270 -0.087228 -0.091998 -0.090246 -0.085889 -0.081986 -0.079939 -0.079181 -0.077425 -0.071397 -0.057876 -0.034777 -0.002009 0.038122 0.081071 0.120770 0.150757 0.165477 0.161468 0.138174 0.098197 0.046928 -0.008380 -0.059895 -0.100593 -0.125458 -0.132266 -0.121805 -0.097526 -0.064713 -0.029381 0.002850 0.027683 0.042697 0.047444 0.043137 0.032050 0.016805 -0.000246 -0.017425 -0.033810 -0.049049 -0.062977 -0.075209 -0.084848 -0.090443 -0.090221 -0.082579 -0.066675 -0.042982 -0.013591 0.017835 0.046544 0.067519 0.076525 0.071123 0.051432 0.020419 -0.016394 -0.051794 -0.078182 -0.089064 -0.080437 -0.051760 -0.006294 0.049300 0.106041 0.154223 0.185194 0.192996 0.175532 0.135020 0.077657 0.012545 -0.049915 -0.099843 -0.129574 -0.134915 -0.115741 -0.075849 -0.022142 0.036687 0.091680 0.135062 0.161358 0.168003 0.155390 0.126414 0.085668 0.038490 -0.009934 -0.055244 -0.094271 -0.125080 -0.146766 -0.159114 -0.162262 -0.156464 -0.142019 -0.119365 -0.089281 -0.053106 -0.012869 0.028720 0.068487 0.103161 0.129837 0.146429 0.152007 0.146933 0.132752 0.111879 0.087122 0.061170 0.036145 0.013319 -0.006950 -0.025068 -0.041887 -0.058308 -0.074920 -0.091751 -0.108198 -0.123149 -0.135239 -0.143191 -0.146115 -0.143713 -0.136319 -0.124769 -0.110150 -0.093495 -0.075512 -0.056441 -0.036068 -0.013912 0.010468 0.037128 0.065464 0.094084 0.120888 0.143353 0.158980 0.165791 0.162766 0.150109 0.129267 0.102681 0.073325 0.044125 0.017397 -0.005557 -0.024600 -0.040620 -0.055111 -0.069589 -0.084989 -0.101181 -0.116764 -0.129192 -0.135235 -0.131694 -0.116213 -0.088001 -0.048295 -0.000440 0.050467 0.098321 0.136996 0.161396 0.168356 0.157208 0.129898 0.090632 0.045122 -0.000412 -0.040286 -0.070237 -0.087988 -0.093396 -0.088201 -0.075442 -0.058704 -0.041362 -0.025986 -0.014022 -0.005771 -0.000653 0.002379 0.004369 0.005999 0.007418 0.008296 0.008082 0.006372 0.003274 -0.000368 -0.002945 -0.002320 0.003735 0.016986 0.038188 0.066698 0.100341 0.135587 0.168024 0.193032 0.206538 0.205692 0.189326 0.158132 0.114501 0.062106 0.005309 -0.051461 -0.104250 -0.149926 -0.186308 -0.212092 -0.226649 -0.229790 -0.221602 -0.202418 -0.172931 -0.134418 -0.088972 -0.039646 0.009601 0.054203 0.089537 0.111629 0.117889 0.107717 0.082796 0.047002 0.005877 -0.034251 -0.067356 -0.088789 -0.096124 -0.089591 -0.071986 -0.048069 -0.023558 -0.003942 0.006659 0.006322 -0.004328 -0.022329 -0.043096 -0.061489 -0.072986 -0.074701 -0.066013 -0.048673 -0.026368 -0.003837 0.014241 0.024331 0.024850 0.016499 0.002061 -0.014307 -0.028090 -0.035517 -0.034465 -0.024956 -0.009111 0.009422 0.026439 0.038312 0.043000 0.040696 0.033917 0.027014 0.025179 0.033193 0.054174 0.088656 0.134207 0.185707 0.236242 0.278434 0.305909 0.314577 0.303432 0.274682 0.233177 0.185252 0.137273 0.094194 0.058500 0.029761 0.004944 -0.020606 -0.051727 -0.091885 -0.141883 -0.199185 -0.258019 -0.310326 -0.347347 -0.361539 -0.348383 -0.307686 -0.244023 -0.166205 -0.085818 -0.015108 0.035357 0.058775 0.053482 0.023319 -0.023116 -0.074197 -0.117621 -0.142924 -0.143611 -0.118478 -0.071834 -0.012570 0.047719 0.097182 0.126214 0.129486 0.107092 0.064562 0.011755 -0.039143 -0.076100 -0.089682 -0.074970 -0.032566 0.031500 0.106926 0.181106 0.241494 0.277910 0.284316 0.259758 0.208326 0.138189 0.059940 -0.015385 -0.078210 -0.121904 -0.143588 -0.144184 -0.127770 -0.100453 -0.069030 -0.039724 -0.017241 -0.004275 -0.001488 -0.007875 -0.021357 -0.039409 -0.059573 -0.079740 -0.098190 -0.113454 -0.124094 -0.128538 -0.125074 -0.112044 -0.088214 -0.053237 -0.008073 0.044769 0.101273 0.156281 0.204146 0.239557 0.258391 
hipp_sf_0008_SUB -0.024513 -0.030859 -0.041568 -0.053170 -0.061587 -0.063170 -0.055660 -0.038822 -0.014607 0.013212 0.039854 0.060597 0.071861 0.072041 0.061897 0.044398 0.024045 0.005832 -0.005922 -0.008600 -0.001930 0.011920 0.028819 0.043624 0.051398 0.048614 0.034069 0.009287 -0.021693 -0.053103 -0.078669 -0.092975 -0.092696 -0.077408 -0.049795 -0.015185 0.019492 0.047111 0.061850 0.060433 0.042887 0.012622 -0.024174 -0.059716 -0.086135 -0.097034 -0.088760 -0.061147 -0.017590 0.035563 0.090182 0.137837 0.171322 0.185910 0.180120 0.155858 0.117916 0.072961 0.028204 -0.009978 -0.037209 -0.051854 -0.055201 -0.051068 -0.044923 -0.042676 -0.049394 -0.068156 -0.099271 -0.139994 -0.184809 -0.226225 -0.255966 -0.266364 -0.251728 -0.209455 -0.140708 -0.050532 0.052637 0.158003 0.253846 0.329154 0.375213 0.386890 0.363432 0.308616 0.230230 0.138943 0.046733 -0.034885 -0.096555 -0.132416 -0.140879 -0.124697 -0.090334 -0.046751 -0.003798 0.029475 0.046320 0.043332 0.020873 -0.017190 -0.064340 -0.112689 -0.154427 -0.183154 -0.194854 -0.188367 -0.165287 -0.129368 -0.085595 -0.039149 0.005512 0.045255 0.078477 0.104889 0.125003 0.139474 0.148508 0.151514 0.147097 0.133419 0.108843 0.072679 0.025855 -0.028715 -0.086178 -0.140252 -0.184141 -0.211663 -0.218395 -0.202559 -0.165467 -0.111418 -0.047035 0.019813 0.081304 0.130909 0.164336 0.179997 0.178935 0.164235 0.140108 0.110852 0.079945 0.049480 0.020047 -0.008929 -0.038504 -0.069390 -0.101223 -0.132132 -0.158749 -0.176698 -0.181458 -0.169425 -0.138912 -0.090841 -0.028951 0.040569 0.109981 0.171249 0.217397 0.243702 0.248450 0.233114 0.201919 0.160879 0.116533 0.074643 0.039137 0.011513 -0.009187 -0.025844 -0.042312 -0.062285 -0.088237 -0.120680 -0.157890 -0.196169 -0.230544 -0.255759 -0.267313 -0.262322 -0.240028 -0.201859 -0.151065 -0.092035 -0.029485 0.032291 0.089943 0.141255 0.185009 0.220602 0.247568 0.265169 0.272211 0.267147 0.248478 0.215337 0.168110 0.108905 0.041705 -0.027883 -0.093280 -0.147888 -0.186155 -0.204538 -0.202136 -0.180870 -0.145126 -0.100954 -0.054965 -0.013163 0.020048 0.042470 0.054232 0.057411 0.055254 0.051221 0.048054 0.047103 0.048068 0.049192 0.047851 0.041386 0.027964 0.007246 -0.019309 -0.048571 -0.076294 -0.097948 -0.109654 -0.108989 -0.095488 -0.070726 -0.037978 -0.001540 0.034110 0.065112 0.088801 0.103938 0.110568 0.109578 0.102104 0.088976 0.070380 0.045853 0.014628 -0.023757 -0.068754 -0.118230 -0.168214 -0.213127 -0.246500 -0.262097 -0.255219 -0.223907 -0.169750 -0.098058 -0.017301 0.062150 0.129768 0.176777 0.197827 0.192087 0.163495 0.120063 0.072367 0.031470 0.006709 0.003792 0.023586 0.061889 0.110217 0.157490 0.192275 0.205124 0.190553 0.148241 0.083206 0.004924 -0.074442 -0.142338 -0.188183 -0.205331 -0.192252 -0.152702 -0.094889 -0.029799 0.030935 0.077211 0.102247 0.103636 0.083512 0.047834 0.004970 -0.036086 -0.067483 -0.083933 -0.083495 -0.067646 -0.040647 -0.008418 0.022813 0.047786 0.063145 0.067870 0.063163 0.051866 0.037589 0.023782 0.012958 0.006241 0.003307 0.002695 0.002370 0.000381 -0.004575 -0.012811 -0.023605 -0.035451 -0.046513 -0.055144 -0.060335 -0.061965 -0.060777 -0.058114 -0.055460 -0.053942 -0.053920 -0.054794 -0.055086 -0.052803 -0.045989 -0.033339 -0.014716 0.008582 0.033878 0.057531 0.075623 0.084787 0.082992 0.070102 0.048067 0.020686 -0.007049 -0.029881 -0.043334 -0.044645 -0.033388 -0.011655 0.016259 0.044622 0.067317 0.078999 0.076117 0.057591 0.025039 -0.017517 -0.064380 -0.109200 -0.146087 -0.170593 -0.180373 -0.175420 -0.157844 -0.131254 -0.099908 -0.067802 -0.037903 -0.011676 0.011014 0.031612 0.052281 0.075166 0.101665 0.131893 0.164458 0.196598 0.224655 0.244790 0.253774 0.249699 0.232435 0.203753 0.167052 0.126764 0.087538 0.053365 0.026834 0.008662 -0.002409 -0.009295 -0.015916 -0.026316 -0.043720 -0.069738 -0.103848 -0.143294 -0.183422 -0.218409 -0.242264 -0.249919 -0.238226 -0.206659 -0.157597 -0.096120 -0.029333 0.034669 0.088037 0.124401 0.139881 0.133723 0.108428 0.069364 0.023907 -0.019744 -0.053890 -0.072582 
hipp_sf_0009_ERC -0.072477 -0.057593 -0.032302 -0.004348 0.017371 0.025276 0.015308 -0.011728 -0.050043 -0.090050 -0.120602 -0.131751 -0.117375 -0.077007 -0.016374 0.053526 0.118673 0.165098 0.182109 0.164908 0.115961 0.044779 -0.033912 -0.103235 -0.147803 -0.157129 -0.128041 -0.065541 0.018112 0.105907 0.179653 0.223816 0.228812 0.193004 0.122988 0.032104 -0.062466 -0.143385 -0.196784 -0.215035 -0.198068 -0.152979 -0.092047 -0.029671 0.021074 0.051422 0.058788 0.047089 0.025478 0.005813 -0.000517 0.014354 0.052579 0.109791 0.175879 0.237179 0.279554 0.291658 0.267608 0.208435 0.121979 0.021245 -0.078397 -0.162516 -0.220655 -0.248386 -0.247927 -0.227170 -0.197374 -0.170091 -0.154070 -0.152903 -0.164006 -0.179213 -0.186865 -0.174934 -0.134435 -0.062304 0.036982 0.151507 0.263790 0.354118 0.404612 0.403188 0.346492 0.241145 0.102958 -0.045775 -0.180396 -0.278560 -0.324540 -0.312223 -0.246223 -0.140849 -0.017174 0.101173 0.192626 0.241733 0.241856 0.195980 0.115562 0.017720 -0.078571 -0.156408 -0.204208 -0.217576 -0.199500 -0.158913 -0.108046 -0.059249 -0.022048 -0.001108 0.004453 0.000295 -0.005113 -0.003143 0.012358 0.043106 0.085604 0.131742 0.170655 0.191406 0.185829 0.150871 0.089822 0.012112 -0.068343 -0.135895 -0.176465 -0.180620 -0.145787 -0.077047 0.013646 0.109711 0.193170 0.248190 0.264193 0.237876 0.173744 0.083053 -0.018580 -0.114362 -0.189630 -0.234562 -0.245762 -0.226411 -0.185031 -0.133183 -0.082671 -0.042871 -0.018817 -0.010404 -0.012873 -0.018401 -0.018382 -0.005838 0.022617 0.065732 0.117721 0.169493 0.210704 0.232146 0.227923 0.196896 0.143058 0.074768 0.003003 -0.060968 -0.107948 -0.132695 -0.134892 -0.118997 -0.093023 -0.066542 -0.048376 -0.044520 -0.056759 -0.082308 -0.114543 -0.144640 -0.163733 -0.165091 -0.145785 -0.107460 -0.056020 -0.000296 0.050003 0.086570 0.104487 0.103436 0.087823 0.065783 0.047244 0.041495 0.054803 0.088639 0.138943 0.196639 0.249340 0.283902 0.289297 0.259187 0.193619 0.099453 -0.010620 -0.120313 -0.212779 -0.273853 -0.294838 -0.274233 -0.218062 -0.138710 -0.052498 0.023516 0.074855 0.092392 0.074011 0.024845 -0.043955 -0.117629 -0.180887 -0.221012 -0.230349 -0.207670 -0.158177 -0.092149 -0.022583 0.037679 0.078683 0.095398 0.088616 0.064555 0.033267 0.006224 -0.006393 0.001911 0.032374 0.080572 0.137272 0.190353 0.227389 0.238343 0.217796 0.166249 0.090217 0.001100 -0.086940 -0.159662 -0.205437 -0.217417 -0.194756 -0.142659 -0.071273 0.006327 0.076636 0.128207 0.153636 0.150699 0.122444 0.076301 0.022424 -0.028356 -0.066552 -0.085620 -0.082868 -0.059563 -0.020291 0.028223 0.078542 0.123875 0.159097 0.181284 0.189710 0.185411 0.170484 0.147341 0.118118 0.084362 0.047034 0.006785 -0.035647 -0.079060 -0.121583 -0.160737 -0.193755 -0.218102 -0.232041 -0.235094 -0.228247 -0.213817 -0.194998 -0.175164 -0.157101 -0.142365 -0.130923 -0.121208 -0.110573 -0.096071 -0.075365 -0.047552 -0.013674 0.023239 0.058633 0.087343 0.104756 0.107962 0.096615 0.073282 0.043141 0.013074 -0.009712 -0.019223 -0.012060 0.011680 0.048220 0.090706 0.130514 0.159009 0.169386 0.158210 0.126307 0.078775 0.024109 -0.027434 -0.065879 -0.083578 -0.076817 -0.046645 0.001290 0.057849 0.112256 0.154315 0.176516 0.175591 0.153187 0.115506 0.071971 0.033217 0.008806 0.005157 0.024128 0.062552 0.112816 0.164361 0.205792 0.227150 0.221859 0.187978 0.128476 0.050521 -0.036051 -0.120738 -0.194405 -0.250908 -0.287978 -0.307198 -0.313118 -0.311746 -0.308789 -0.308068 -0.310484 -0.313788 -0.313199 -0.302728 -0.276898 -0.232439 -0.169537 -0.092330 -0.008476 0.072135 0.139277 0.184494 0.202937 0.194533 0.164177 0.120890 0.076070 0.041199 0.025466 0.033824 0.065893 0.115969 0.174150 0.228371 0.266922 0.280928 0.266268 0.224512 0.162667 0.091768 0.024606 -0.026962 -0.054527 -0.054956 -0.031124 0.008612 0.052114 0.085991 0.098445 0.081843 0.034475 -0.038877 -0.127681 -0.217599 -0.293209 -0.340996 -0.351983 -0.323475 -0.259576 -0.170352 -0.069851 0.026648 0.105561 0.157528 0.179013 0.172682 0.146482 0.111642 0.080040 0.061478 
hipp_sf_0010_BA35 0.004027 -0.007181 -0.027467 -0.052913 -0.078459 -0.098732 -0.108951 -0.105749 -0.087787 -0.056067 -0.013867 0.033681 0.080333 0.119668 0.146085 0.155704 0.147021 0.121206 0.081984 0.035112 -0.012479 -0.053748 -0.082636 -0.095023 -0.089370 -0.066956 -0.031650 0.010746 0.053471 0.089927 0.114774 0.124782 0.119313 0.100330 0.071942 0.039575 0.008912 -0.015188 -0.029591 -0.033436 -0.028223 -0.017429 -0.005718 0.002090 0.002091 -0.007814 -0.027377 -0.053956 -0.082946 -0.108641 -0.125340 -0.128498 -0.115683 -0.087144 -0.045888 0.002779 0.052134 0.095198 0.125931 0.140246 0.136641 0.116333 0.082896 0.041480 -0.002209 -0.042962 -0.076915 -0.102051 -0.118260 -0.126965 -0.130438 -0.130984 -0.130186 -0.128419 -0.124731 -0.117146 -0.103302 -0.081276 -0.050385 -0.011766 0.031452 0.074444 0.111432 0.136748 0.145995 0.137070 0.110798 0.071043 0.024212 -0.021761 -0.058786 -0.080077 -0.081424 -0.062023 -0.024701 0.024531 0.077499 0.125285 0.159770 0.175014 0.168226 0.140158 0.094861 0.038895 -0.019860 -0.073525 -0.115456 -0.141153 -0.148716 -0.138820 -0.114263 -0.079223 -0.038418 0.003665 0.043331 0.077945 0.105935 0.126581 0.139701 0.145373 0.143757 0.135087 0.119801 0.098750 0.073391 0.045851 0.018817 -0.004790 -0.022294 -0.031809 -0.032713 -0.025924 -0.013879 -0.000190 0.010996 0.015798 0.011422 -0.003193 -0.027051 -0.057188 -0.089178 -0.117975 -0.138918 -0.148699 -0.146079 -0.132208 -0.110435 -0.085673 -0.063399 -0.048526 -0.044343 -0.051778 -0.069118 -0.092270 -0.115506 -0.132564 -0.137876 -0.127684 -0.100826 -0.059037 -0.006705 0.049870 0.103554 0.147605 0.176796 0.188243 0.181785 0.159878 0.127032 0.088931 0.051413 0.019496 -0.003361 -0.015658 -0.017868 -0.012100 -0.001502 0.010446 0.020622 0.026793 0.027919 0.024184 0.016802 0.007637 -0.001240 -0.007986 -0.011323 -0.010726 -0.006440 0.000645 0.009234 0.017909 0.025419 0.030898 0.034007 0.034956 0.034427 0.033408 0.032966 0.033997 0.036994 0.041875 0.047902 0.053709 0.057462 0.057129 0.050831 0.037228 0.015867 -0.012568 -0.046181 -0.081989 -0.116264 -0.145047 -0.164775 -0.172892 -0.168348 -0.151867 -0.125908 -0.094313 -0.061670 -0.032504 -0.010451 0.002437 0.006086 0.002416 -0.005054 -0.011951 -0.013992 -0.007953 0.007569 0.031746 0.061586 0.092479 0.119123 0.136647 0.141688 0.133198 0.112766 0.084391 0.053696 0.026760 0.008791 0.002926 0.009434 0.025519 0.045789 0.063336 0.071208 0.063986 0.039124 -0.002251 -0.055268 -0.112037 -0.163038 -0.198923 -0.212380 -0.199661 -0.161468 -0.102974 -0.032973 0.037707 0.098217 0.139732 0.157107 0.149821 0.121999 0.081519 0.038362 0.002553 -0.017892 -0.018599 0.000281 0.034130 0.074824 0.112424 0.137230 0.141783 0.122412 0.080011 0.019899 -0.049203 -0.116859 -0.172913 -0.209404 -0.222001 -0.210691 -0.179603 -0.136024 -0.088834 -0.046697 -0.016378 -0.001526 -0.002158 -0.014911 -0.033980 -0.052528 -0.064233 -0.064660 -0.052156 -0.028117 0.003421 0.036744 0.065750 0.085276 0.092169 0.085889 0.068513 0.044182 0.018109 -0.004598 -0.020045 -0.026335 -0.023867 -0.015094 -0.003797 0.005938 0.010803 0.009162 0.001553 -0.009346 -0.019260 -0.023279 -0.017022 0.002255 0.034840 0.078249 0.127476 0.175793 0.215943 0.241501 0.248109 0.234365 0.202142 0.156294 0.103781 0.052383 0.009254 -0.020400 -0.034264 -0.033284 -0.021402 -0.004700 0.009872 0.015931 0.008971 -0.012698 -0.047590 -0.091315 -0.137426 -0.178696 -0.208534 -0.222292 -0.218180 -0.197623 -0.164980 -0.126687 -0.089991 -0.061532 -0.046047 -0.045460 -0.058522 -0.081093 -0.106974 -0.129158 -0.141217 -0.138572 -0.119390 -0.084926 -0.039270 0.011463 0.060320 0.100835 0.128222 0.140215 0.137377 0.122849 0.101590 0.079288 0.061170 0.050957 0.050181 0.057993 0.071487 0.086456 0.098408 0.103611 0.099944 0.087370 0.067927 0.045259 0.023783 0.007687 -0.000025 0.001782 0.012094 0.027945 0.045048 0.058713 0.064859 0.060905 0.046331 0.022804 -0.006161 -0.035932 -0.061721 -0.079563 -0.087113 -0.084074 -0.072198 -0.054834 -0.036159 -0.020258 -0.010246 -0.007645 -0.012134 -0.021730 -0.033335 -0.043537 -0.049458 
hipp_sf_0011_BA36 -0.019585 -0.022110 -0.026046 -0.029448 -0.030051 -0.025878 -0.015806 0.000040 0.020169 0.041922 0.061948 0.076872 0.084001 0.081924 0.070866 0.052710 0.030664 0.008647 -0.009506 -0.020838 -0.023904 -0.019106 -0.008642 0.003920 0.014377 0.018788 0.014346 0.000056 -0.022937 -0.051443 -0.080730 -0.105366 -0.120222 -0.121453 -0.107274 -0.078369 -0.037855 0.009185 0.056528 0.097827 0.127642 0.142290 0.140372 0.122888 0.092954 0.055169 0.014791 -0.023129 -0.054493 -0.076646 -0.088567 -0.090728 -0.084721 -0.072736 -0.057029 -0.039500 -0.021458 -0.003602 0.013795 0.030585 0.046423 0.060520 0.071557 0.077800 0.077393 0.068784 0.051175 0.024889 -0.008432 -0.045879 -0.083576 -0.117194 -0.142603 -0.156524 -0.157086 -0.144159 -0.119415 -0.086096 -0.048524 -0.011452 0.020655 0.044262 0.057246 0.059138 0.051098 0.035647 0.016209 -0.003445 -0.019763 -0.029901 -0.032067 -0.025690 -0.011405 0.009120 0.033476 0.058865 0.082469 0.101791 0.114922 0.120735 0.118974 0.110246 0.095923 0.077961 0.058655 0.040345 0.025121 0.014536 0.009393 0.009615 0.014245 0.021575 0.029398 0.035353 0.037305 0.033718 0.023922 0.008265 -0.011920 -0.034506 -0.056912 -0.076519 -0.091090 -0.099130 -0.100098 -0.094453 -0.083521 -0.069207 -0.053622 -0.038696 -0.025857 -0.015836 -0.008635 -0.003650 0.000077 0.003552 0.007524 0.012274 0.017528 0.022517 0.026174 0.027413 0.025428 0.019939 0.011325 0.000613 -0.010685 -0.020835 -0.028222 -0.031653 -0.030595 -0.025276 -0.016628 -0.006105 0.004609 0.013918 0.020601 0.024004 0.024110 0.021463 0.016990 0.011751 0.006688 0.002421 -0.000856 -0.003373 -0.005667 -0.008399 -0.012146 -0.017209 -0.023509 -0.030561 -0.037559 -0.043522 -0.047491 -0.048707 -0.046742 -0.041557 -0.033468 -0.023052 -0.011008 0.001982 0.015352 0.028691 0.041716 0.054187 0.065801 0.076092 0.084394 0.089866 0.091609 0.088840 0.081099 0.068433 0.051516 0.031653 0.010666 -0.009337 -0.026279 -0.038452 -0.044814 -0.045190 -0.040318 -0.031743 -0.021549 -0.011996 -0.005117 -0.002344 -0.004254 -0.010467 -0.019725 -0.030141 -0.039566 -0.046011 -0.048041 -0.045065 -0.037461 -0.026524 -0.014220 -0.002820 0.005544 0.009299 0.007760 0.001290 -0.008733 -0.020146 -0.030390 -0.036984 -0.038002 -0.032464 -0.020558 -0.003652 0.015914 0.035225 0.051307 0.061670 0.064779 0.060348 0.049416 0.034171 0.017550 0.002688 -0.007678 -0.011738 -0.008971 -0.000244 0.012350 0.025921 0.037369 0.044034 0.044267 0.037792 0.025795 0.010693 -0.004370 -0.016206 -0.022300 -0.021413 -0.013922 -0.001817 0.011662 0.022702 0.027760 0.024412 0.012006 -0.008023 -0.032278 -0.055967 -0.073817 -0.081168 -0.075019 -0.054813 -0.022765 0.016351 0.055960 0.088843 0.108498 0.110435 0.093128 0.058437 0.011386 -0.040687 -0.089435 -0.127042 -0.147677 -0.148579 -0.130562 -0.097822 -0.057086 -0.016283 0.017020 0.037081 0.041057 0.029485 0.006073 -0.023150 -0.051128 -0.071258 -0.078727 -0.071455 -0.050442 -0.019472 0.015758 0.048861 0.074096 0.087500 0.087603 0.075582 0.054844 0.030153 0.006520 -0.011894 -0.022609 -0.025214 -0.021250 -0.013624 -0.005723 -0.000443 0.000613 -0.002414 -0.007649 -0.011968 -0.011814 -0.004166 0.012590 0.038088 0.069880 0.103811 0.134819 0.157974 0.169519 0.167678 0.153038 0.128415 0.098228 0.067522 0.040851 0.021294 0.009807 0.005076 0.003910 0.002065 -0.004657 -0.019312 -0.042963 -0.074269 -0.109634 -0.143866 -0.171242 -0.186708 -0.186993 -0.171358 -0.141836 -0.102897 -0.060609 -0.021483 0.008768 0.026281 0.029705 0.020328 0.001678 -0.021319 -0.043406 -0.060077 -0.068416 -0.067549 -0.058611 -0.044288 -0.028029 -0.013157 -0.002063 0.004317 0.006651 0.006945 0.007968 0.012481 0.022497 0.038704 0.060214 0.084676 0.108712 0.128590 0.140959 0.143499 0.135344 0.117194 0.091126 0.060151 0.027642 -0.003246 -0.030023 -0.051121 -0.065920 -0.074573 -0.077726 -0.076210 -0.070806 -0.062139 -0.050719 -0.037082 -0.021983 -0.006526 0.007808 0.019302 0.026281 0.027488 0.022451 0.011745 -0.002944 -0.018994 -0.033262 -0.042659 -0.044776 -0.038427 -0.023971 -0.003346 0.020232 0.042836 0.060565 0.070295 
hipp_sf_0012_PHC 0.055265 0.040187 0.013141 -0.020351 -0.053580 -0.080109 -0.095121 -0.096349 -0.084364 -0.062202 -0.034440 -0.005975 0.019151 0.038587 0.051958 0.060538 0.066430 0.071499 0.076390 0.079938 0.079192 0.070088 0.048658 0.012472 -0.038074 -0.098997 -0.162773 -0.219291 -0.257593 -0.268065 -0.244630 -0.186423 -0.098538 0.008402 0.119833 0.219742 0.293571 0.330951 0.327689 0.286571 0.216797 0.132143 0.048209 -0.020664 -0.064187 -0.078030 -0.064467 -0.031634 0.008434 0.042531 0.059216 0.051297 0.017374 -0.037877 -0.104717 -0.170402 -0.221828 -0.248206 -0.243198 -0.206105 -0.141892 -0.060095 0.027103 0.107209 0.169667 0.207582 0.218611 0.204929 0.172358 0.128923 0.083186 0.042713 0.012972 -0.003214 -0.005625 0.003852 0.021950 0.044788 0.068466 0.089411 0.104484 0.110931 0.106326 0.088639 0.056489 0.009585 -0.050756 -0.121194 -0.196218 -0.268442 -0.329372 -0.370606 -0.385253 -0.369316 -0.322721 -0.249731 -0.158593 -0.060411 0.032581 0.109046 0.160482 0.182686 0.176444 0.147303 0.104444 0.058899 0.021445 0.000602 0.001113 0.023200 0.062707 0.112061 0.161840 0.202592 0.226558 0.228952 0.208614 0.167952 0.112256 0.048604 -0.015401 -0.072796 -0.118114 -0.147847 -0.160507 -0.156387 -0.137158 -0.105457 -0.064568 -0.018232 0.029441 0.074045 0.111037 0.136058 0.145428 0.136761 0.109566 0.065673 0.009324 -0.053183 -0.114289 -0.166325 -0.202798 -0.219567 -0.215627 -0.193320 -0.157872 -0.116328 -0.076087 -0.043333 -0.021726 -0.011630 -0.010099 -0.011616 -0.009462 0.002585 0.028607 0.069330 0.121632 0.178914 0.232275 0.272257 0.290793 0.282922 0.247915 0.189538 0.115397 0.035503 -0.039633 -0.100980 -0.142596 -0.162551 -0.162974 -0.149241 -0.128524 -0.108031 -0.093360 -0.087319 -0.089485 -0.096552 -0.103374 -0.104428 -0.095329 -0.074038 -0.041471 -0.001382 0.040455 0.077550 0.104168 0.116626 0.114094 0.098724 0.075087 0.049049 0.026370 0.011363 0.005918 0.009137 0.017645 0.026512 0.030546 0.025661 0.009987 -0.015540 -0.047247 -0.079436 -0.105589 -0.119780 -0.117992 -0.099037 -0.064891 -0.020369 0.027781 0.072149 0.106057 0.124756 0.126216 0.111364 0.083762 0.048818 0.012724 -0.018657 -0.040740 -0.050851 -0.048464 -0.035070 -0.013733 0.011511 0.036305 0.056552 0.068873 0.070914 0.061527 0.040846 0.010292 -0.027500 -0.068836 -0.109240 -0.143882 -0.168146 -0.178288 -0.172111 -0.149494 -0.112669 -0.066111 -0.015997 0.030716 0.067470 0.089320 0.093944 0.082199 0.058072 0.027994 -0.000409 -0.019871 -0.025045 -0.013724 0.012569 0.048774 0.087274 0.119478 0.137682 0.136798 0.115577 0.077017 0.027853 -0.022798 -0.065352 -0.091818 -0.097544 -0.082257 -0.050134 -0.008882 0.031984 0.063297 0.078317 0.074281 0.053037 0.020615 -0.014203 -0.041971 -0.054876 -0.048690 -0.023925 0.014119 0.056438 0.092327 0.111869 0.108328 0.079902 0.030412 -0.031286 -0.093049 -0.142014 -0.167426 -0.163084 -0.128877 -0.071021 -0.000922 0.067114 0.118845 0.143098 0.134171 0.093085 0.027432 -0.050178 -0.124726 -0.181899 -0.211039 -0.207299 -0.172538 -0.114795 -0.046457 0.018459 0.067309 0.091463 0.088018 0.060227 0.016595 -0.031149 -0.070709 -0.091936 -0.088977 -0.061426 -0.014236 0.043533 0.100836 0.147108 0.174534 0.179604 0.163645 0.132226 0.093634 0.056789 0.029115 0.014849 0.014190 0.023456 0.036198 0.044975 0.043369 0.027731 -0.001742 -0.040876 -0.082369 -0.117433 -0.137847 -0.137951 -0.116120 -0.075364 -0.022901 0.031217 0.076144 0.102497 0.104362 0.080590 0.035124 -0.023728 -0.084926 -0.136885 -0.169766 -0.177399 -0.158447 -0.116591 -0.059715 0.001726 0.056793 0.096181 0.113943 0.108491 0.082699 0.043137 -0.001382 -0.041605 -0.069629 -0.080322 -0.072109 -0.047023 -0.010056 0.032014 0.072040 0.103864 0.123364 0.128995 0.121769 0.104741 0.082141 0.058394 0.037210 0.020959 0.010410 0.004855 0.002534 0.001241 -0.001061 -0.005756 -0.013319 -0.023324 -0.034686 -0.046043 -0.056164 -0.064274 -0.070203 -0.074344 -0.077413 -0.080113 -0.082776 -0.085111 -0.086111 -0.084187 -0.077491 -0.064368 -0.043844 -0.016023 0.017700 0.054679 0.091314 0.123571 0.147617 0.160460 
