13 420
hipp_sf_0000_BG 0.034945 0.031336 0.024864 0.016834 0.008785 0.002106 -0.002295 -0.004199 -0.004096 -0.003012 -0.002198 -0.002753 -0.005284 -0.009705 -0.015215 -0.020490 -0.024016 -0.024511 -0.021302 -0.014569 -0.005380 0.004491 0.012952 0.018068 0.018534 0.014019 0.005289 -0.005919 -0.017260 -0.026289 -0.031012 -0.030334 -0.024311 -0.014132 -0.001847 0.010113 0.019500 0.024766 0.025418 0.022115 0.016496 0.010777 0.007211 0.007542 0.012581 0.022002 0.034408 0.047636 0.059232 0.066984 0.069369 0.065833 0.056828 0.043618 0.027915 0.011438 -0.004473 -0.019102 -0.032394 -0.044781 -0.056866 -0.069049 -0.081216 -0.092595 -0.101830 -0.107271 -0.107416 -0.101388 -0.089319 -0.072520 -0.053363 -0.034883 -0.020155 -0.011595 -0.010333 -0.015834 -0.025860 -0.036832 -0.044514 -0.044914 -0.035192 -0.014386 0.016221 0.053186 0.091451 0.125250 0.149189 0.159299 0.153820 0.133566 0.101792 0.063580 0.024890 -0.008546 -0.032243 -0.043705 -0.042744 -0.031323 -0.013005 0.007888 0.027183 0.041642 0.049480 0.050501 0.045870 0.037606 0.027932 0.018658 0.010742 0.004140 -0.002052 -0.009207 -0.018637 -0.031088 -0.046375 -0.063281 -0.079729 -0.093202 -0.101300 -0.102303 -0.095600 -0.081875 -0.062998 -0.041660 -0.020810 -0.003055 0.009865 0.017390 0.020188 0.019913 0.018761 0.018911 0.022000 0.028739 0.038765 0.050741 0.062688 0.072441 0.078133 0.078590 0.073541 0.063622 0.050175 0.034917 0.019557 0.005469 -0.006506 -0.016098 -0.023488 -0.029085 -0.033278 -0.036237 -0.037829 -0.037677 -0.035331 -0.030510 -0.023330 -0.014436 -0.004990 0.003497 0.009477 0.011722 0.009657 0.003565 -0.005401 -0.015425 -0.024400 -0.030415 -0.032220 -0.029560 -0.023292 -0.015241 -0.007809 -0.003428 -0.003968 -0.010244 -0.021740 -0.036629 -0.052087 -0.064851 -0.071889 -0.071054 -0.061556 -0.044151 -0.021011 0.004710 0.029508 0.050225 0.064647 0.071874 0.072391 0.067825 0.060451 0.052581 0.045980 0.041446 0.038653 0.036307 0.032548 0.025527 0.013989 -0.002266 -0.022167 -0.043457 -0.063077 -0.077755 -0.084673 -0.082070 -0.069641 -0.048640 -0.021676 0.007764 0.035947 0.059560 0.076250 0.084952 0.085939 0.080604 0.071046 0.059561 0.048164 0.038243 0.030407 0.024545 0.020056 0.016167 0.012250 0.008048 0.003760 -0.000040 -0.002608 -0.003302 -0.001835 0.001562 0.006117 0.010636 0.013749 0.014210 0.011169 0.004364 -0.005830 -0.018496 -0.032387 -0.046202 -0.058843 -0.069601 -0.078215 -0.084801 -0.089684 -0.093178 -0.095394 -0.096127 -0.094866 -0.090928 -0.083674 -0.072750 -0.058288 -0.040985 -0.022046 -0.002981 0.014692 0.029765 0.041590 0.050208 0.056281 0.060878 0.065126 0.069844 0.075243 0.080793 0.085296 0.087174 0.084900 0.077479 0.064847 0.048065 0.029256 0.011250 -0.002992 -0.011049 -0.011662 -0.005138 0.006571 0.020165 0.031631 0.037092 0.033691 0.020312 -0.002043 -0.030312 -0.059897 -0.085539 -0.102391 -0.107042 -0.098275 -0.077391 -0.048004 -0.015346 0.014775 0.037163 0.048287 0.046996 0.034727 0.015167 -0.006566 -0.025035 -0.035658 -0.035676 -0.024729 -0.004894 0.019787 0.044200 0.063254 0.072951 0.071183 0.058111 0.036041 0.008864 -0.018817 -0.042657 -0.059406 -0.067461 -0.066999 -0.059707 -0.048194 -0.035254 -0.023161 -0.013180 -0.005396 0.001104 0.007777 0.016013 0.026558 0.039125 0.052311 0.063838 0.071083 0.071753 0.064534 0.049542 0.028452 0.004258 -0.019302 -0.038525 -0.050541 -0.053947 -0.049120 -0.038123 -0.024220 -0.011104 -0.002026 0.000987 -0.002384 -0.010657 -0.020912 -0.029493 -0.032923 -0.028796 -0.016451 0.002753 0.025623 0.047759 0.064492 0.071913 0.067792 0.052151 0.027373 -0.002193 -0.031047 -0.053622 -0.065388 -0.063767 -0.048659 -0.022475 0.010323 0.044068 0.072953 0.092082 0.098321 0.090768 0.070791 0.041641 0.007754 -0.026103 -0.055670 -0.077834 -0.090991 -0.095077 -0.091317 -0.081767 -0.068794 -0.054605 -0.040909 -0.028782 -0.018709 -0.010759 -0.004818 -0.000796 0.001254 0.001137 -0.001382 -0.006402 -0.013712 -0.022671 -0.032192 -0.040850 -0.047081 -0.049447 -0.046893 -0.038945 -0.025798 -0.008283 0.012278 0.034283 0.056085 0.076198 0.093430 0.106927 0.116158 0.120832 
hipp_sf_0001_CA1 0.118420 0.107481 0.087632 0.062276 0.035100 0.008899 -0.015281 -0.038376 -0.062775 -0.091148 -0.124962 -0.163148 -0.201386 -0.232354 -0.247032 -0.236839 -0.196136 -0.124448 -0.027748 0.081668 0.186891 0.269466 0.313233 0.308095 0.252813 0.156074 0.035436 -0.085787 -0.183136 -0.236171 -0.233059 -0.173528 -0.069423 0.057358 0.179215 0.268621 0.304086 0.275017 0.184374 0.048476 -0.106057 -0.247628 -0.346139 -0.379246 -0.337039 -0.224173 -0.058972 0.130264 0.310941 0.452610 0.532785 0.540924 0.479807 0.364110 0.216624 0.063041 -0.073466 -0.176667 -0.239797 -0.265715 -0.264855 -0.251585 -0.239973 -0.240015 -0.255228 -0.282122 -0.311590 -0.331735 -0.331368 -0.303206 -0.245960 -0.164781 -0.070000 0.025486 0.109448 0.173316 0.214139 0.234974 0.243632 0.250102 0.263354 0.288398 0.324401 0.364426 0.396917 0.408609 0.388158 0.329556 0.234439 0.112622 -0.019360 -0.141461 -0.234357 -0.283753 -0.283703 -0.238148 -0.160252 -0.069632 0.011890 0.065069 0.077426 0.045893 -0.022711 -0.113471 -0.206982 -0.283922 -0.329481 -0.336608 -0.307305 -0.251709 -0.185201 -0.124316 -0.082454 -0.066508 -0.075218 -0.099691 -0.125932 -0.138767 -0.126130 -0.082640 -0.011504 0.075775 0.161879 0.227793 0.257569 0.242573 0.184132 0.093876 -0.008392 -0.098885 -0.155142 -0.161230 -0.111629 -0.012845 0.117654 0.255004 0.372208 0.445934 0.461520 0.416062 0.318879 0.189278 0.052143 -0.067615 -0.150467 -0.186293 -0.176140 -0.131340 -0.070280 -0.013617 0.020871 0.022582 -0.009491 -0.066748 -0.133345 -0.190310 -0.220384 -0.212401 -0.164140 -0.082966 0.015871 0.112842 0.188771 0.229339 0.228386 0.189210 0.123573 0.048680 -0.017117 -0.058815 -0.068376 -0.046566 -0.002599 0.048311 0.088867 0.104098 0.085171 0.031665 -0.048250 -0.139745 -0.224905 -0.287028 -0.314603 -0.303953 -0.259921 -0.194412 -0.123187 -0.061717 -0.021162 -0.005496 -0.010548 -0.025227 -0.034653 -0.024440 0.014953 0.084915 0.177329 0.275607 0.357974 0.402328 0.391560 0.318102 0.186588 0.013915 -0.173414 -0.344170 -0.468503 -0.523946 -0.500038 -0.400527 -0.242689 -0.053889 0.133860 0.290176 0.392076 0.428038 0.399544 0.319874 0.210521 0.096101 -0.001043 -0.065375 -0.090847 -0.081259 -0.048342 -0.008126 0.023457 0.034666 0.020777 -0.014959 -0.062409 -0.107331 -0.135130 -0.134655 -0.101117 -0.037466 0.046073 0.134162 0.209667 0.257333 0.266993 0.235589 0.167597 0.073859 -0.030876 -0.131055 -0.213359 -0.269011 -0.294905 -0.293408 -0.271011 -0.236256 -0.197507 -0.161108 -0.130330 -0.105283 -0.083689 -0.062219 -0.037954 -0.009550 0.022213 0.054616 0.083828 0.106107 0.119000 0.122191 0.117736 0.109624 0.102767 0.101709 0.109389 0.126320 0.150382 0.177298 0.201654 0.218188 0.222998 0.214350 0.192881 0.161164 0.122783 0.081213 0.038832 -0.003603 -0.046869 -0.092562 -0.141975 -0.194890 -0.248692 -0.298118 -0.335837 -0.353802 -0.345120 -0.306002 -0.237291 -0.145128 -0.040486 0.062430 0.148657 0.205322 0.224246 0.203720 0.149008 0.071430 -0.013820 -0.090677 -0.145374 -0.169113 -0.159630 -0.121353 -0.064119 -0.000787 0.055712 0.095182 0.112214 0.107027 0.084956 0.054768 0.026258 0.007735 0.004021 0.015444 0.038027 0.064794 0.087812 0.100422 0.099056 0.084172 0.060071 0.033638 0.012356 0.002130 0.005512 0.020820 0.042416 0.062115 0.071381 0.063756 0.036884 -0.006419 -0.058399 -0.107899 -0.142884 -0.153375 -0.134080 -0.086053 -0.016951 0.060277 0.129983 0.177162 0.190779 0.166306 0.106863 0.022687 -0.070991 -0.157191 -0.220818 -0.251857 -0.247419 -0.212160 -0.157006 -0.096485 -0.045297 -0.014928 -0.011072 -0.032460 -0.071318 -0.115328 -0.150592 -0.164894 -0.150488 -0.105787 -0.035591 0.050133 0.138582 0.216959 0.275132 0.307488 0.313599 0.297607 0.266592 0.228401 0.189554 0.153789 0.121601 0.090860 0.058275 0.021221 -0.020627 -0.064402 -0.104225 -0.132476 -0.141883 -0.127881 -0.090583 -0.035767 0.025536 0.078870 0.109314 0.104917 0.059819 -0.023723 -0.134986 -0.256304 -0.366249 -0.443824 -0.472792 -0.445171 -0.363086 -0.238525 -0.090998 0.056415 0.181774 0.268715 0.309617 0.306805 0.271516 0.220885 0.173647 0.145551 
hipp_sf_0002_CA2 0.267010 0.186422 0.042889 -0.132236 -0.300856 -0.426541 -0.482473 -0.457156 -0.356609 -0.202632 -0.027597 0.132965 0.248256 0.298759 0.279991 0.202697 0.089549 -0.030738 -0.130401 -0.189035 -0.197904 -0.161198 -0.094041 -0.017861 0.045641 0.080372 0.080085 0.049926 0.004929 -0.034130 -0.046452 -0.017034 0.058892 0.173955 0.309782 0.440946 0.540777 0.587631 0.570097 0.489850 0.361452 0.209123 0.061247 -0.056068 -0.124847 -0.139117 -0.105877 -0.042965 0.025624 0.075820 0.089453 0.058673 -0.012272 -0.108290 -0.207422 -0.286514 -0.327188 -0.320599 -0.269795 -0.189091 -0.100582 -0.028662 0.006107 -0.007742 -0.069518 -0.166265 -0.275697 -0.371469 -0.429516 -0.433926 -0.380882 -0.279723 -0.150798 -0.020650 0.084354 0.144375 0.150902 0.108805 0.035116 -0.045202 -0.105481 -0.124087 -0.090003 -0.005893 0.112156 0.238212 0.342574 0.398934 0.390912 0.316384 0.188508 0.033165 -0.116671 -0.228347 -0.277025 -0.251498 -0.156957 -0.014030 0.145725 0.286863 0.378031 0.399061 0.345549 0.229885 0.078487 -0.074116 -0.192994 -0.250585 -0.232763 -0.141870 0.003921 0.174698 0.335376 0.453212 0.504560 0.479404 0.382738 0.232620 0.055520 -0.119858 -0.268751 -0.375093 -0.433799 -0.450206 -0.436993 -0.409515 -0.380849 -0.357890 -0.339508 -0.317234 -0.278267 -0.209976 -0.104681 0.036608 0.202557 0.372543 0.520249 0.619054 0.647994 0.596884 0.469331 0.282875 0.066097 -0.146717 -0.322230 -0.434563 -0.470245 -0.430507 -0.330473 -0.195448 -0.055202 0.062455 0.137367 0.160750 0.136199 0.077863 0.006343 -0.056628 -0.093442 -0.094571 -0.060351 -0.000274 0.069913 0.132485 0.172276 0.180329 0.155766 0.105475 0.041763 -0.021344 -0.072157 -0.104626 -0.120014 -0.126456 -0.136496 -0.163214 -0.215919 -0.296558 -0.397814 -0.503494 -0.591249 -0.637103 -0.620792 -0.530717 -0.367320 -0.144058 0.114342 0.376041 0.607813 0.781137 0.877351 0.890785 0.829230 0.711690 0.563961 0.413044 0.281633 0.183868 0.123230 0.092951 0.078724 0.063020 0.029936 -0.030550 -0.119884 -0.230384 -0.346889 -0.450171 -0.521289 -0.545850 -0.517222 -0.437995 -0.319420 -0.179008 -0.036905 0.088124 0.182174 0.238424 0.257663 0.247130 0.218024 0.182356 0.149929 0.126140 0.111107 0.100233 0.086019 0.060607 0.018396 -0.041923 -0.116424 -0.196324 -0.269585 -0.323371 -0.346810 -0.333409 -0.282614 -0.200168 -0.097208 0.011693 0.111107 0.187437 0.231161 0.238241 0.210473 0.154794 0.081760 0.003552 -0.068093 -0.123633 -0.156897 -0.165565 -0.150960 -0.117316 -0.070724 -0.017989 0.034394 0.081024 0.118071 0.143448 0.156735 0.158916 0.152005 0.138611 0.121489 0.103125 0.085385 0.069283 0.054907 0.041536 0.027954 0.012910 -0.004342 -0.023570 -0.043276 -0.060717 -0.072285 -0.074227 -0.063580 -0.039124 -0.002120 0.043392 0.090883 0.132228 0.159100 0.164601 0.144793 0.099779 0.034054 -0.044032 -0.123640 -0.193402 -0.243600 -0.268081 -0.265502 -0.239603 -0.198408 -0.152512 -0.112811 -0.088162 -0.083500 -0.098842 -0.129399 -0.166790 -0.201065 -0.223079 -0.226657 -0.210044 -0.176282 -0.132428 -0.087789 -0.051594 -0.030647 -0.027533 -0.039806 -0.060362 -0.078915 -0.084225 -0.066569 -0.019856 0.057084 0.160324 0.281786 0.411025 0.537376 0.651900 0.748639 0.824871 0.880350 0.915789 0.931096 0.923937 0.889165 0.819437 0.707005 0.546348 0.337029 0.085976 -0.191497 -0.472468 -0.729061 -0.932680 -1.059060 -1.093144 -1.032705 -0.889831 -0.689762 -0.467119 -0.260100 -0.103701 -0.023251 -0.029580 -0.116823 -0.263387 -0.435962 -0.595847 -0.706386 -0.740065 -0.683864 -0.541839 -0.334406 -0.094501 0.138611 0.326672 0.439460 0.460199 0.388357 0.239393 0.041621 -0.169094 -0.355732 -0.486335 -0.538954 -0.504501 -0.387171 -0.202599 0.025695 0.270720 0.506389 0.711074 0.869822 0.975062 1.025968 1.026883 0.985329 0.910125 0.809978 0.692709 0.565093 0.433081 0.302153 0.177512 0.063993 -0.034349 -0.114827 -0.176680 -0.221353 -0.252325 -0.274451 -0.292901 -0.311939 -0.333845 -0.358267 -0.382202 -0.400667 -0.407916 -0.398928 -0.370816 -0.323798 -0.261461 -0.190245 -0.118238 -0.053548 -0.002666 0.030829 0.046871 0.048692 0.041826 0.032591 0.026416 
hipp_sf_0003_DG 0.123609 0.096128 0.046338 -0.016459 -0.080690 -0.134786 -0.169391 -0.179063 -0.163101 -0.125388 -0.073322 -0.016106 0.037188 0.079362 0.106266 0.117202 0.114530 0.102641 0.086610 0.070873 0.058264 0.049621 0.044004 0.039421 0.033801 0.025921 0.015994 0.005750 -0.002039 -0.004448 0.000549 0.013165 0.031323 0.050799 0.066002 0.071246 0.062232 0.037357 -0.001484 -0.048867 -0.096640 -0.135440 -0.156618 -0.154165 -0.126183 -0.075570 -0.009707 0.060805 0.124124 0.169440 0.189076 0.179953 0.144113 0.088189 0.021957 -0.043716 -0.099058 -0.137251 -0.155562 -0.155524 -0.142183 -0.122613 -0.104077 -0.092281 -0.090117 -0.097175 -0.110097 -0.123649 -0.132211 -0.131292 -0.118685 -0.094984 -0.063332 -0.028506 0.004427 0.031501 0.050922 0.063519 0.072441 0.082167 0.097069 0.119905 0.150651 0.186004 0.219739 0.243897 0.250557 0.233806 0.191428 0.125904 0.044414 -0.042195 -0.121321 -0.181014 -0.212363 -0.211351 -0.179748 -0.124843 -0.058028 0.007459 0.059185 0.087992 0.089770 0.066171 0.024117 -0.025778 -0.071512 -0.102236 -0.110485 -0.093634 -0.054308 0.000317 0.060121 0.114183 0.152981 0.170185 0.163687 0.135692 0.091931 0.040218 -0.011278 -0.055640 -0.088343 -0.107724 -0.114728 -0.112088 -0.103188 -0.090945 -0.077003 -0.061440 -0.043032 -0.019987 0.009095 0.044295 0.083791 0.123770 0.158911 0.183348 0.191885 0.181186 0.150640 0.102698 0.042568 -0.022662 -0.085294 -0.138401 -0.177014 -0.198869 -0.204552 -0.197043 -0.180781 -0.160499 -0.140088 -0.121775 -0.105786 -0.090547 -0.073359 -0.051351 -0.022470 0.013746 0.055795 0.100336 0.142761 0.178085 0.201921 0.211330 0.205329 0.184970 0.152998 0.113174 0.069467 0.025315 -0.016878 -0.055886 -0.091448 -0.123797 -0.153062 -0.178767 -0.199560 -0.213275 -0.217338 -0.209400 -0.188051 -0.153400 -0.107369 -0.053576 0.003177 0.057713 0.105421 0.143077 0.169367 0.184967 0.192141 0.193965 0.193344 0.192082 0.190238 0.185959 0.175850 0.155843 0.122368 0.073565 0.010239 -0.063681 -0.141343 -0.213847 -0.271633 -0.306158 -0.311499 -0.285572 -0.230705 -0.153422 -0.063478 0.027696 0.108837 0.170636 0.207147 0.216552 0.201182 0.166814 0.121415 0.073609 0.031151 -0.000286 -0.017828 -0.021522 -0.013906 0.000840 0.017946 0.033073 0.043129 0.046707 0.044142 0.037195 0.028491 0.020842 0.016613 0.017231 0.022921 0.032673 0.044413 0.055317 0.062210 0.061975 0.051936 0.030206 -0.004033 -0.050304 -0.106693 -0.169806 -0.234882 -0.296076 -0.346944 -0.381127 -0.393152 -0.379276 -0.338214 -0.271621 -0.184204 -0.083371 0.021563 0.120540 0.204117 0.264822 0.298243 0.303683 0.284214 0.246133 0.197875 0.148583 0.106579 0.078006 0.065880 0.069723 0.085824 0.108063 0.129145 0.141990 0.141028 0.123180 0.088335 0.039295 -0.018791 -0.079365 -0.135569 -0.181320 -0.212169 -0.225799 -0.222127 -0.203039 -0.171840 -0.132578 -0.089366 -0.045845 -0.004839 0.031744 0.062825 0.087932 0.106931 0.119804 0.126517 0.127013 0.121309 0.109657 0.092713 0.071642 0.048128 0.024260 0.002298 -0.015627 -0.027848 -0.033451 -0.032467 -0.025928 -0.015763 -0.004535 0.004930 0.009990 0.008640 -0.000113 -0.015995 -0.037403 -0.061546 -0.084796 -0.103207 -0.113150 -0.111955 -0.098460 -0.073374 -0.039348 -0.000724 0.037039 0.068195 0.087681 0.092059 0.080257 0.053954 0.017500 -0.022671 -0.059057 -0.084389 -0.093000 -0.082000 -0.052017 -0.007339 0.044639 0.094581 0.132837 0.151233 0.144703 0.112439 0.058310 -0.009563 -0.080057 -0.140912 -0.180905 -0.191931 -0.170616 -0.119123 -0.045006 0.039923 0.121509 0.185645 0.220701 0.219582 0.181035 0.109965 0.016723 -0.084532 -0.178096 -0.249229 -0.286484 -0.283467 -0.239769 -0.160922 -0.057455 0.056798 0.166811 0.258558 0.320949 0.347227 0.335657 0.289472 0.216119 0.125995 0.030880 -0.057691 -0.129892 -0.178735 -0.200747 -0.196161 -0.168634 -0.124566 -0.072122 -0.020098 0.023243 0.051232 0.059617 0.047081 0.015361 -0.031019 -0.085401 -0.139930 -0.186666 -0.218711 -0.231186 -0.221907 -0.191653 -0.143976 -0.084581 -0.020371 0.041668 0.095562 0.137220 0.164940 0.179453 0.183512 0.181111 0.176506 0.173212 
hipp_sf_0004_CA3 0.145492 0.128618 0.099061 0.063903 0.030913 0.006097 -0.008229 -0.014235 -0.017934 -0.027227 -0.049148 -0.087111 -0.139004 -0.196783 -0.247849 -0.277991 -0.275217 -0.233492 -0.155336 -0.052462 0.055925 0.146948 0.199211 0.198103 0.139931 0.033768 -0.099596 -0.231565 -0.331736 -0.374688 -0.345997 -0.246025 -0.090493 0.092430 0.267964 0.402236 0.469780 0.459304 0.376342 0.242137 0.088944 -0.047207 -0.134654 -0.153276 -0.099050 0.015073 0.162173 0.307553 0.416684 0.463039 0.434039 0.333728 0.181608 0.007965 -0.153182 -0.271821 -0.328556 -0.318578 -0.252129 -0.151465 -0.045131 0.038991 0.080168 0.069295 0.010367 -0.081283 -0.183400 -0.272661 -0.330430 -0.346943 -0.322922 -0.268308 -0.198577 -0.129735 -0.073431 -0.033573 -0.005420 0.022583 0.064704 0.132706 0.231001 0.353623 0.484034 0.598037 0.669235 0.675757 0.606533 0.465423 0.271952 0.058195 -0.137677 -0.279807 -0.343068 -0.319419 -0.220536 -0.075896 0.073463 0.184183 0.220773 0.164334 0.017693 -0.194386 -0.430156 -0.639965 -0.777468 -0.810379 -0.728220 -0.545185 -0.297332 -0.034662 0.190161 0.333843 0.372424 0.306796 0.162403 -0.016889 -0.179380 -0.278126 -0.282567 -0.186396 -0.009737 0.205028 0.402887 0.529147 0.542702 0.426509 0.192760 -0.118570 -0.447606 -0.727188 -0.897429 -0.918931 -0.781664 -0.507490 -0.145715 0.237306 0.572219 0.801188 0.889687 0.832957 0.655808 0.405936 0.142436 -0.077790 -0.212564 -0.243097 -0.176887 -0.044400 0.109530 0.237366 0.300772 0.279895 0.177910 0.019820 -0.154036 -0.298118 -0.372933 -0.354670 -0.240950 -0.051354 0.177271 0.399525 0.572007 0.663142 0.659943 0.570165 0.419452 0.244307 0.082720 -0.035182 -0.094160 -0.096862 -0.062151 -0.019271 0.000571 -0.026952 -0.112316 -0.248821 -0.413776 -0.573894 -0.693564 -0.743902 -0.710288 -0.596484 -0.424213 -0.228270 -0.048299 0.080759 0.137200 0.117942 0.039388 -0.066522 -0.160190 -0.204296 -0.173415 -0.060962 0.118257 0.330611 0.530801 0.672026 0.716811 0.645992 0.463770 0.197613 -0.107000 -0.395837 -0.617092 -0.732009 -0.722591 -0.594754 -0.376333 -0.110516 0.153708 0.371850 0.512669 0.563497 0.531108 0.438190 0.316488 0.198399 0.109111 0.061111 0.052282 0.067848 0.085507 0.082326 0.041586 -0.042133 -0.160901 -0.294861 -0.416720 -0.498180 -0.516691 -0.460912 -0.333594 -0.151264 0.059135 0.265776 0.438294 0.553473 0.599023 0.574731 0.490930 0.364901 0.216260 0.062574 -0.083719 -0.216441 -0.334766 -0.440775 -0.536346 -0.620433 -0.687617 -0.728422 -0.731380 -0.686274 -0.587664 -0.437669 -0.247120 -0.034662 0.176134 0.361030 0.499767 0.579991 0.599510 0.566330 0.496494 0.410258 0.327562 0.263904 0.227597 0.218990 0.231735 0.255607 0.280020 0.297193 0.304073 0.302476 0.297475 0.294550 0.296442 0.300754 0.299191 0.278878 0.225604 0.128256 -0.016724 -0.202158 -0.409311 -0.609980 -0.771334 -0.862594 -0.862111 -0.763138 -0.576788 -0.331252 -0.067156 0.170123 0.339608 0.413336 0.382456 0.259354 0.075177 -0.126795 -0.300519 -0.407247 -0.423992 -0.348467 -0.199359 -0.011855 0.170564 0.306146 0.364401 0.332927 0.219949 0.052023 -0.132519 -0.292783 -0.394968 -0.420145 -0.368314 -0.257810 -0.120237 0.007767 0.093885 0.118274 0.078493 -0.010017 -0.118006 -0.210032 -0.253703 -0.228225 -0.130090 0.025578 0.208391 0.380022 0.503665 0.553314 0.520488 0.416678 0.270802 0.122207 0.010857 -0.032878 0.003686 0.111674 0.262073 0.412256 0.516160 0.535726 0.450858 0.265434 0.007792 -0.274580 -0.525063 -0.690401 -0.732806 -0.638858 -0.423110 -0.125500 0.196882 0.481826 0.675094 0.741632 0.672380 0.485241 0.220124 -0.070634 -0.334129 -0.528189 -0.629528 -0.636955 -0.569126 -0.457669 -0.337621 -0.237758 -0.173323 -0.143010 -0.130884 -0.112628 -0.064324 0.028686 0.165405 0.327153 0.480690 0.585927 0.606384 0.519749 0.325735 0.048972 -0.264172 -0.554442 -0.762413 -0.842164 -0.772656 -0.563932 -0.256414 0.086879 0.393650 0.598289 0.656837 0.557455 0.323814 0.010430 -0.309179 -0.558948 -0.677632 -0.633094 -0.430169 -0.110173 0.257956 0.592975 0.819676 0.886087 0.775563 0.510953 0.149828 -0.228232 -0.539412 -0.714506 
hipp_sf_0005_HEAD NaN NaN NaN NaN NaN NaN NaN NaN NaN NaN NaN NaN NaN NaN NaN NaN NaN NaN NaN NaN NaN NaN NaN NaN NaN NaN NaN NaN NaN NaN NaN NaN NaN NaN NaN NaN NaN NaN NaN NaN NaN NaN NaN NaN NaN NaN NaN NaN NaN NaN NaN NaN NaN NaN NaN NaN NaN NaN NaN NaN NaN NaN NaN NaN NaN NaN NaN NaN NaN NaN NaN NaN NaN NaN NaN NaN NaN NaN NaN NaN NaN NaN NaN NaN NaN NaN NaN NaN NaN NaN NaN NaN NaN NaN NaN NaN NaN NaN NaN NaN NaN NaN NaN NaN NaN NaN NaN NaN NaN NaN NaN NaN NaN NaN NaN NaN NaN NaN NaN NaN NaN NaN NaN NaN NaN NaN NaN NaN NaN NaN NaN NaN NaN NaN NaN NaN NaN NaN NaN NaN NaN NaN NaN NaN NaN NaN NaN NaN NaN NaN NaN NaN NaN NaN NaN NaN NaN NaN NaN NaN NaN NaN NaN NaN NaN NaN NaN NaN NaN NaN NaN NaN NaN NaN NaN NaN NaN NaN NaN NaN NaN NaN NaN NaN NaN NaN NaN NaN NaN NaN NaN NaN NaN NaN NaN NaN NaN NaN NaN NaN NaN NaN NaN NaN NaN NaN NaN NaN NaN NaN NaN NaN NaN NaN NaN NaN NaN NaN NaN NaN NaN NaN NaN NaN NaN NaN NaN NaN NaN NaN NaN NaN NaN NaN NaN NaN NaN NaN NaN NaN NaN NaN NaN NaN NaN NaN NaN NaN NaN NaN NaN NaN NaN NaN NaN NaN NaN NaN NaN NaN NaN NaN NaN NaN NaN NaN NaN NaN NaN NaN NaN NaN NaN NaN NaN NaN NaN NaN NaN NaN NaN NaN NaN NaN NaN NaN NaN NaN NaN NaN NaN NaN NaN NaN NaN NaN NaN NaN NaN NaN NaN NaN NaN NaN NaN NaN NaN NaN NaN NaN NaN NaN NaN NaN NaN NaN NaN NaN NaN NaN NaN NaN NaN NaN NaN NaN NaN NaN NaN NaN NaN NaN NaN NaN NaN NaN NaN NaN NaN NaN NaN NaN NaN NaN NaN NaN NaN NaN NaN NaN NaN NaN NaN NaN NaN NaN NaN NaN NaN NaN NaN NaN NaN NaN NaN NaN NaN NaN NaN NaN NaN NaN NaN NaN NaN NaN NaN NaN NaN NaN NaN NaN NaN NaN NaN NaN NaN NaN NaN NaN NaN NaN NaN NaN NaN NaN NaN NaN NaN NaN NaN NaN NaN NaN NaN NaN NaN NaN NaN NaN NaN NaN NaN NaN NaN NaN NaN NaN NaN NaN 
hipp_sf_0006_TAIL 0.129772 0.123603 0.112352 0.097897 0.082377 0.067601 0.054524 0.042966 0.031644 0.018521 0.001407 -0.021346 -0.050215 -0.084113 -0.120332 -0.154854 -0.182971 -0.200094 -0.202583 -0.188429 -0.157666 -0.112439 -0.056743 0.004098 0.064109 0.117378 0.158692 0.184055 0.191049 0.179053 0.149338 0.105061 0.051126 -0.006098 -0.059271 -0.100806 -0.123818 -0.123206 -0.096721 -0.045817 0.023976 0.103309 0.180027 0.240875 0.273685 0.269675 0.225440 0.144158 0.035684 -0.084625 -0.198261 -0.286726 -0.334951 -0.334298 -0.284507 -0.194120 -0.079207 0.039461 0.140274 0.204956 0.222204 0.190021 0.116227 0.016973 -0.086468 -0.172022 -0.221371 -0.223792 -0.178463 -0.094744 0.009672 0.112349 0.190726 0.226780 0.210780 0.143334 0.035322 -0.094275 -0.222158 -0.325327 -0.385540 -0.392727 -0.346668 -0.256664 -0.139345 -0.015152 0.095717 0.177023 0.219133 0.220116 0.185207 0.124894 0.052195 -0.020180 -0.082143 -0.127528 -0.154228 -0.163283 -0.157351 -0.139066 -0.109848 -0.069487 -0.016652 0.049880 0.129677 0.219317 0.311768 0.396812 0.462565 0.497810 0.494639 0.450727 0.370606 0.265491 0.151552 0.046879 -0.032247 -0.074972 -0.078522 -0.049214 -0.001483 0.044979 0.069426 0.054757 -0.008335 -0.118690 -0.264137 -0.423300 -0.569430 -0.675539 -0.719769 -0.689887 -0.585951 -0.420585 -0.216792 -0.003744 0.188567 0.334746 0.418380 0.434548 0.390043 0.301350 0.190913 0.082554 -0.002993 -0.051521 -0.057161 -0.022359 0.043792 0.128293 0.217336 0.298988 0.364924 0.410911 0.436147 0.441809 0.429375 0.399291 0.350426 0.280483 0.187257 0.070340 -0.067272 -0.218216 -0.370867 -0.510623 -0.622215 -0.692543 -0.713420 -0.683526 -0.609073 -0.502924 -0.382300 -0.265521 -0.168489 -0.101684 -0.068357 -0.064323 -0.079388 -0.100088 -0.113064 -0.108292 -0.081401 -0.034518 0.024530 0.084457 0.133633 0.163296 0.170022 0.156832 0.132588 0.109804 0.101340 0.116790 0.159454 0.224681 0.300085 0.367697 0.407679 0.402803 0.342751 0.227214 0.067054 -0.116833 -0.296831 -0.443467 -0.530895 -0.541873 -0.471221 -0.327050 -0.129483 0.092880 0.308051 0.486293 0.605215 0.653339 0.631522 0.552012 0.435446 0.306449 0.188765 0.100905 0.053101 0.046113 0.071977 0.116421 0.162348 0.193611 0.198312 0.170966 0.113210 0.032980 -0.057539 -0.144710 -0.216360 -0.264216 -0.285401 -0.282736 -0.263855 -0.239374 -0.220515 -0.216686 -0.233491 -0.271541 -0.326291 -0.388892 -0.447916 -0.491586 -0.510127 -0.497765 -0.454009 -0.383947 -0.297460 -0.207470 -0.127476 -0.068842 -0.038324 -0.036345 -0.056422 -0.085973 -0.108465 -0.106618 -0.066122 0.020815 0.152856 0.318466 0.496809 0.660641 0.780843 0.831867 0.797103 0.673085 0.471584 0.218968 -0.047300 -0.284583 -0.452459 -0.520241 -0.473187 -0.316091 -0.073411 0.214280 0.497036 0.724289 0.854017 0.860551 0.739486 0.508657 0.204927 -0.122647 -0.421969 -0.647586 -0.768975 -0.775814 -0.679171 -0.508452 -0.304759 -0.112101 0.031703 0.102505 0.094179 0.018973 -0.096100 -0.215974 -0.305793 -0.338886 -0.302695 -0.201392 -0.054649 0.107057 0.249512 0.342552 0.366803 0.317867 0.207059 0.058592 -0.096072 -0.225362 -0.304535 -0.320855 -0.275824 -0.184055 -0.069122 0.042531 0.128124 0.173912 0.178121 0.150739 0.110282 0.078350 0.073377 0.105150 0.171536 0.258288 0.342079 0.396105 0.396940 0.330992 0.198933 0.016933 -0.185763 -0.372505 -0.506982 -0.561318 -0.522677 -0.396807 -0.207620 0.007245 0.204003 0.341853 0.391711 0.342624 0.204444 0.006125 -0.210015 -0.396895 -0.512315 -0.527604 -0.433484 -0.241939 0.016245 0.297664 0.554867 0.745478 0.839988 0.826691 0.712884 0.522300 0.289512 0.052668 -0.153836 -0.305220 -0.389644 -0.408525 -0.374122 -0.305204 -0.222018 -0.141788 -0.075726 -0.028103 0.002689 0.021620 0.033936 0.042479 0.046200 0.040275 0.017760 -0.027735 -0.099161 -0.193831 -0.302613 -0.410881 -0.501100 -0.556487 -0.564875 -0.521813 -0.432093 -0.309257 -0.173093 -0.045675 0.053207 0.110160 0.120922 0.091058 0.034500 -0.029739 -0.081890 -0.105787 -0.092245 -0.040730 0.041029 0.139306 0.237910 0.322071 0.381746 0.413526 0.420759 0.411920 0.397728 0.387810 
hipp_sf_0007_MISC 0.041836 0.048926 0.062626 0.081728 0.103928 0.125565 0.141695 0.146640 0.135046 0.103267 0.050758 -0.018909 -0.097789 -0.174315 -0.235047 -0.267202 -0.261476 -0.214531 -0.130535 -0.021269 0.095384 0.198429 0.267698 0.287986 0.252486 0.164744 0.038593 -0.104034 -0.237088 -0.335433 -0.379909 -0.361361 -0.282758 -0.158875 -0.013543 0.125027 0.229919 0.281005 0.269109 0.197946 0.083412 -0.049664 -0.172638 -0.258975 -0.289743 -0.257533 -0.167978 -0.038576 0.104928 0.233827 0.322289 0.352523 0.318229 0.225651 0.092082 -0.057809 -0.196986 -0.301330 -0.354098 -0.348676 -0.289166 -0.188799 -0.066664 0.056468 0.162258 0.237992 0.278243 0.284782 0.264942 0.228950 0.186994 0.146730 0.111851 0.081950 0.053634 0.022476 -0.014795 -0.058507 -0.105204 -0.147988 -0.178032 -0.186845 -0.168754 -0.122907 -0.054250 0.026839 0.106277 0.169011 0.202177 0.197968 0.155523 0.081397 -0.011570 -0.106746 -0.187048 -0.238413 -0.252634 -0.228938 -0.173981 -0.100252 -0.023279 0.041759 0.083229 0.095372 0.079244 0.042105 -0.004577 -0.048004 -0.077152 -0.085358 -0.071821 -0.041666 -0.004596 0.027558 0.043797 0.036740 0.004587 -0.048193 -0.111611 -0.172189 -0.215810 -0.230772 -0.210371 -0.154454 -0.069616 0.031996 0.134996 0.223703 0.285078 0.311079 0.299954 0.256273 0.189734 0.113065 0.039477 -0.019783 -0.057302 -0.070469 -0.061415 -0.036045 -0.002427 0.031056 0.057397 0.072171 0.074069 0.064730 0.048011 0.028911 0.012441 0.002658 0.002057 0.011359 0.029655 0.054793 0.083844 0.113538 0.140557 0.161709 0.174003 0.174727 0.161609 0.133096 0.088747 0.029642 -0.041304 -0.119277 -0.197842 -0.269606 -0.327205 -0.364448 -0.377416 -0.365261 -0.330508 -0.278751 -0.217745 -0.156058 -0.101519 -0.059788 -0.033343 -0.021111 -0.018846 -0.020168 -0.018076 -0.006592 0.017796 0.055228 0.102301 0.152671 0.198323 0.231225 0.245017 0.236362 0.205685 0.157112 0.097652 0.035779 -0.020254 -0.064018 -0.092067 -0.104419 -0.104247 -0.096885 -0.088359 -0.083803 -0.086108 -0.095131 -0.107639 -0.118011 -0.119558 -0.106161 -0.073879 -0.022147 0.045686 0.122645 0.199182 0.264808 0.309979 0.327857 0.315596 0.274894 0.211715 0.135225 0.056177 -0.014949 -0.069682 -0.102851 -0.113206 -0.103286 -0.078600 -0.046332 -0.013847 0.012677 0.029251 0.034506 0.029552 0.017317 0.001577 -0.014072 -0.027073 -0.036391 -0.042536 -0.047154 -0.052311 -0.059671 -0.069805 -0.081807 -0.093351 -0.101181 -0.101939 -0.093126 -0.073972 -0.045963 -0.012878 0.019729 0.045533 0.058737 0.055396 0.034472 -0.001646 -0.047305 -0.094464 -0.134129 -0.158110 -0.160718 -0.140067 -0.098665 -0.043147 0.016854 0.070506 0.107893 0.122054 0.110486 0.075804 0.025378 -0.030013 -0.078283 -0.108461 -0.112975 -0.089303 -0.040636 0.024619 0.094410 0.155413 0.195716 0.207277 0.187639 0.140536 0.075225 0.004685 -0.056994 -0.097479 -0.108743 -0.088759 -0.041968 0.021574 0.088221 0.143514 0.175143 0.175474 0.143121 0.083233 0.006435 -0.073344 -0.141711 -0.186708 -0.201167 -0.184040 -0.140439 -0.080387 -0.016594 0.038276 0.074238 0.085957 0.073652 0.042775 0.002550 -0.036256 -0.063821 -0.073452 -0.062978 -0.035067 0.003594 0.044016 0.077128 0.095954 0.097244 0.082180 0.055994 0.026609 0.002609 -0.008957 -0.004423 0.015440 0.045432 0.077003 0.100178 0.105892 0.088202 0.045870 -0.017052 -0.091801 -0.166523 -0.228605 -0.267212 -0.275486 -0.251942 -0.200752 -0.130875 -0.054222 0.016735 0.071410 0.103082 0.110012 0.095495 0.066878 0.033785 0.005980 -0.008693 -0.005838 0.014774 0.049395 0.091317 0.132417 0.164881 0.182732 0.182839 0.165264 0.132934 0.090788 0.044654 0.000133 -0.038272 -0.067615 -0.086554 -0.095056 -0.093926 -0.084362 -0.067674 -0.045242 -0.018693 0.009833 0.037478 0.060687 0.075544 0.078430 0.066870 0.040379 0.001039 -0.046392 -0.094980 -0.136703 -0.163971 -0.171255 -0.156493 -0.121881 -0.073838 -0.022041 0.022335 0.048837 0.049985 0.023050 -0.029051 -0.097991 -0.171405 -0.235158 -0.276078 -0.284571 -0.256583 -0.194470 -0.106580 -0.005612 0.093901 0.178469 0.238249 0.268847 0.271907 0.254392 0.226724 0.200195 0.184254 
hipp_sf_0008_SUB 0.007282 0.011925 0.019267 0.025984 0.028348 0.023366 0.009777 -0.011365 -0.036690 -0.061128 -0.079014 -0.085425 -0.077435 -0.054970 -0.021051 0.018677 0.057037 0.086797 0.102227 0.100356 0.081658 0.050000 0.011842 -0.025117 -0.053580 -0.068184 -0.066616 -0.050049 -0.022835 0.008494 0.036658 0.055179 0.059712 0.048865 0.024356 -0.009501 -0.046822 -0.081446 -0.108167 -0.123651 -0.126840 -0.118789 -0.102044 -0.079742 -0.054711 -0.028797 -0.002614 0.024261 0.052693 0.083216 0.115302 0.146922 0.174569 0.193771 0.200020 0.189892 0.162090 0.118109 0.062340 0.001508 -0.056461 -0.103930 -0.135085 -0.147141 -0.140957 -0.120871 -0.093767 -0.067552 -0.049375 -0.043958 -0.052447 -0.072027 -0.096444 -0.117304 -0.125933 -0.115357 -0.082005 -0.026745 0.044985 0.123999 0.198979 0.258560 0.293462 0.298237 0.272272 0.219862 0.149352 0.071537 -0.002333 -0.062551 -0.102547 -0.119795 -0.115897 -0.095881 -0.066912 -0.036715 -0.012065 0.002367 0.004614 -0.004614 -0.022492 -0.045007 -0.067977 -0.087952 -0.102778 -0.111764 -0.115452 -0.115126 -0.112209 -0.107741 -0.102082 -0.094890 -0.085382 -0.072753 -0.056642 -0.037476 -0.016584 0.003953 0.021706 0.034442 0.040677 0.040083 0.033641 0.023496 0.012534 0.003781 -0.000230 0.002019 0.010749 0.024900 0.042428 0.060806 0.077594 0.090929 0.099827 0.104212 0.104703 0.102215 0.097512 0.090851 0.081823 0.069471 0.052641 0.030504 0.003085 -0.028344 -0.061159 -0.091621 -0.115451 -0.128637 -0.128304 -0.113435 -0.085270 -0.047257 -0.004529 0.037010 0.071800 0.095722 0.106914 0.106141 0.096586 0.083130 0.071222 0.065619 0.069232 0.082376 0.102567 0.124956 0.143300 0.151286 0.143921 0.118690 0.076226 0.020328 -0.042671 -0.105087 -0.159350 -0.199474 -0.222190 -0.227525 -0.218686 -0.201272 -0.181986 -0.167104 -0.161040 -0.165303 -0.178081 -0.194547 -0.207840 -0.210519 -0.196215 -0.161128 -0.105073 -0.031841 0.051190 0.134174 0.206401 0.258127 0.282277 0.275704 0.239781 0.180222 0.106162 0.028667 -0.041044 -0.093373 -0.121781 -0.123681 -0.100631 -0.057841 -0.003107 0.054622 0.106756 0.146412 0.169354 0.174400 0.163263 0.139896 0.109511 0.077468 0.048283 0.024908 0.008432 -0.001796 -0.007657 -0.011538 -0.015532 -0.020794 -0.027170 -0.033193 -0.036463 -0.034293 -0.024499 -0.006135 0.020010 0.051277 0.083422 0.111292 0.129752 0.134689 0.123869 0.097464 0.058101 0.010432 -0.039739 -0.086569 -0.125319 -0.153269 -0.170197 -0.178311 -0.181616 -0.184843 -0.192174 -0.206021 -0.226172 -0.249496 -0.270331 -0.281505 -0.275815 -0.247669 -0.194548 -0.117958 -0.023642 0.079043 0.178511 0.262850 0.321880 0.348990 0.342349 0.305272 0.245632 0.174424 0.103763 0.044688 0.005217 -0.010981 -0.005035 0.017620 0.048561 0.078233 0.097965 0.101707 0.087167 0.056118 0.013854 -0.032069 -0.073513 -0.103478 -0.117510 -0.114497 -0.096723 -0.069187 -0.038385 -0.010832 0.008321 0.016302 0.013125 0.001362 -0.014657 -0.029983 -0.040258 -0.042706 -0.036676 -0.023638 -0.006663 0.010475 0.024317 0.032612 0.034859 0.032354 0.027758 0.024279 0.024704 0.030506 0.041291 0.054707 0.066883 0.073297 0.069874 0.054072 0.025673 -0.012902 -0.056863 -0.099864 -0.135207 -0.157172 -0.162209 -0.149707 -0.122199 -0.084915 -0.044802 -0.009183 0.015666 0.025733 0.020040 0.000826 -0.026898 -0.056309 -0.080070 -0.091702 -0.086784 -0.063761 -0.024240 0.027256 0.084017 0.138197 0.182012 0.208895 0.214425 0.196938 0.157746 0.100974 0.033053 -0.038043 -0.103742 -0.155887 -0.187734 -0.194827 -0.175660 -0.132036 -0.069047 0.005373 0.081320 0.148153 0.195968 0.217109 0.207495 0.167512 0.102282 0.021183 -0.063372 -0.137759 -0.189313 -0.208484 -0.190600 -0.136904 -0.054619 0.044010 0.143591 0.228079 0.283466 0.300185 0.274808 0.210699 0.117494 0.009494 -0.096758 -0.185278 -0.243317 -0.263446 -0.244680 -0.192468 -0.117578 -0.034117 0.042943 0.100269 0.128261 0.122407 0.083706 0.018146 -0.064568 -0.152784 -0.234791 -0.300504 -0.342691 -0.357576 -0.344840 -0.307088 -0.248994 -0.176322 -0.095022 -0.010551 0.072526 0.150669 0.221271 0.282466 0.332913 0.371618 0.397847 0.411092 
hipp_sf_0009_ERC -0.038006 -0.049274 -0.069986 -0.096634 -0.124335 -0.147348 -0.159810 -0.156662 -0.134641 -0.093178 -0.034966 0.033989 0.104967 0.167781 0.212528 0.231524 0.221052 0.182495 0.122543 0.052304 -0.014590 -0.064575 -0.086948 -0.076268 -0.033813 0.032302 0.108438 0.177999 0.224766 0.236292 0.206662 0.137957 0.040079 -0.071089 -0.176831 -0.259409 -0.305721 -0.309987 -0.274887 -0.210845 -0.133631 -0.060773 -0.007589 0.016281 0.009041 -0.022879 -0.066355 -0.104665 -0.121476 -0.104815 -0.050121 0.038327 0.147952 0.260297 0.354801 0.413104 0.422943 0.380762 0.292493 0.172321 0.039733 -0.084488 -0.182439 -0.242518 -0.261381 -0.244031 -0.202092 -0.150717 -0.104870 -0.075864 -0.068922 -0.082300 -0.108119 -0.134640 -0.149422 -0.142556 -0.109229 -0.050998 0.024494 0.105259 0.177739 0.229917 0.254032 0.248260 0.216987 0.169629 0.118321 0.075030 0.048795 0.043744 0.058322 0.085889 0.116501 0.139417 0.145712 0.130362 0.093330 0.039418 -0.023042 -0.084288 -0.135492 -0.170785 -0.188474 -0.191148 -0.184703 -0.176544 -0.173449 -0.179637 -0.195545 -0.217598 -0.239052 -0.251669 -0.247826 -0.222517 -0.174758 -0.108058 -0.029834 0.050081 0.121460 0.175772 0.207821 0.216584 0.205077 0.179319 0.146700 0.114175 0.086743 0.066578 0.052986 0.043160 0.033471 0.020912 0.004287 -0.015221 -0.034238 -0.048123 -0.052361 -0.044036 -0.022968 0.007848 0.042647 0.074106 0.095069 0.100363 0.088228 0.060960 0.024554 -0.012606 -0.041744 -0.055890 -0.051728 -0.030628 0.001465 0.035295 0.060468 0.068037 0.052880 0.015289 -0.038673 -0.098175 -0.149829 -0.180613 -0.180877 -0.146714 -0.081136 0.006258 0.101088 0.187101 0.249537 0.278213 0.269618 0.227546 0.162113 0.087391 0.018193 -0.033253 -0.059971 -0.061642 -0.044424 -0.019240 0.001053 0.004946 -0.014766 -0.059056 -0.122221 -0.193042 -0.257271 -0.300891 -0.313366 -0.290149 -0.233841 -0.153744 -0.063893 0.019985 0.083880 0.118515 0.121265 0.096570 0.054740 0.009452 -0.025491 -0.039382 -0.027080 0.009825 0.063415 0.121310 0.169552 0.195867 0.192534 0.158246 0.098528 0.024637 -0.048808 -0.106934 -0.137783 -0.134852 -0.098476 -0.035775 0.040801 0.115984 0.174724 0.205120 0.200650 0.161297 0.093396 0.008299 -0.079819 -0.156546 -0.209703 -0.231260 -0.218397 -0.173622 -0.104011 -0.019811 0.067293 0.145919 0.206484 0.242272 0.250010 0.229964 0.185626 0.123102 0.050287 -0.024085 -0.091452 -0.144421 -0.177681 -0.188719 -0.178223 -0.150078 -0.110860 -0.068861 -0.032718 -0.009867 -0.005091 -0.019449 -0.049869 -0.089536 -0.129095 -0.158456 -0.168899 -0.155026 -0.116129 -0.056641 0.014495 0.085462 0.143920 0.179567 0.186381 0.164010 0.117979 0.058612 -0.001130 -0.048442 -0.073503 -0.071682 -0.044614 0.000133 0.050760 0.093962 0.118059 0.115838 0.086422 0.035720 -0.024702 -0.080110 -0.115917 -0.121101 -0.090927 -0.028348 0.056279 0.147144 0.226207 0.277002 0.288197 0.256104 0.185590 0.089154 -0.015626 -0.109747 -0.176715 -0.205927 -0.194750 -0.148861 -0.080801 -0.007075 0.055522 0.093550 0.099715 0.074215 0.024378 -0.037277 -0.096089 -0.138671 -0.155925 -0.144966 -0.109545 -0.058934 -0.005552 0.038055 0.062168 0.062088 0.039079 -0.000141 -0.045188 -0.084624 -0.108756 -0.111933 -0.093809 -0.059283 -0.017167 0.022086 0.049017 0.057512 0.046294 0.019215 -0.015737 -0.048445 -0.069203 -0.071162 -0.052092 -0.015030 0.032350 0.079485 0.115385 0.131217 0.122411 0.089775 0.039379 -0.018779 -0.072990 -0.112428 -0.129518 -0.121519 -0.090994 -0.045073 0.006305 0.052713 0.085585 0.100034 0.095727 0.076645 0.049814 0.023358 0.004348 -0.002983 0.001736 0.015039 0.030648 0.041251 0.040592 0.025319 -0.003844 -0.041945 -0.080717 -0.110374 -0.121882 -0.109186 -0.070854 -0.010756 0.062425 0.136756 0.199386 0.239127 0.248761 0.226544 0.176595 0.108088 0.033404 -0.034351 -0.083952 -0.108247 -0.105481 -0.079510 -0.038874 0.005049 0.040418 0.057338 0.049828 0.016964 -0.036993 -0.103475 -0.171287 -0.228731 -0.265755 -0.275722 -0.256494 -0.210654 -0.144885 -0.068649 0.007543 0.073956 0.123213 0.151375 0.158367 0.147701 0.125588 0.099624 0.077281 0.064478 
hipp_sf_0010_BA35 0.005079 0.000376 -0.007798 -0.017290 -0.025569 -0.030368 -0.030259 -0.025023 -0.015719 -0.004417 0.006315 0.014073 0.017246 0.015456 0.009702 0.002143 -0.004409 -0.007202 -0.004260 0.005045 0.019737 0.037350 0.054425 0.067262 0.072779 0.069273 0.056891 0.037704 0.015339 -0.005766 -0.021324 -0.028171 -0.025031 -0.012904 0.005043 0.024052 0.038726 0.044152 0.036975 0.016179 -0.016572 -0.057131 -0.099554 -0.137157 -0.163714 -0.174588 -0.167547 -0.143133 -0.104516 -0.056865 -0.006402 0.040703 0.079350 0.106262 0.120346 0.122614 0.115723 0.103232 0.088769 0.075273 0.064455 0.056575 0.050570 0.044454 0.035920 0.022987 0.004560 -0.019205 -0.046801 -0.075547 -0.101992 -0.122487 -0.133788 -0.133619 -0.121070 -0.096798 -0.062990 -0.023101 0.018584 0.057507 0.089425 0.110965 0.120062 0.116225 0.100598 0.075809 0.045604 0.014331 -0.013677 -0.034724 -0.046295 -0.047429 -0.038857 -0.022870 -0.002927 0.016933 0.032798 0.041572 0.041525 0.032606 0.016435 -0.004010 -0.024980 -0.042697 -0.054100 -0.057465 -0.052750 -0.041600 -0.027000 -0.012645 -0.002153 0.001719 -0.002311 -0.013742 -0.030356 -0.048645 -0.064520 -0.074145 -0.074733 -0.065114 -0.045977 -0.019713 0.010092 0.039403 0.064569 0.083041 0.093834 0.097629 0.096484 0.093246 0.090776 0.091182 0.095234 0.102093 0.109434 0.113923 0.111975 0.100607 0.078201 0.045028 0.003383 -0.042682 -0.087989 -0.127106 -0.155287 -0.169289 -0.167912 -0.152171 -0.125068 -0.091019 -0.055081 -0.022104 0.004009 0.020821 0.027572 0.025095 0.015464 0.001497 -0.013799 -0.027717 -0.038194 -0.043995 -0.044718 -0.040687 -0.032762 -0.022152 -0.010243 0.001527 0.011758 0.019179 0.022745 0.021774 0.016097 0.006204 -0.006668 -0.020563 -0.032979 -0.041188 -0.042688 -0.035693 -0.019581 0.004815 0.035167 0.067882 0.098624 0.123018 0.137433 0.139678 0.129467 0.108543 0.080408 0.049711 0.021381 -0.000309 -0.012566 -0.014619 -0.007854 0.004478 0.017947 0.027864 0.030271 0.022769 0.005041 -0.021057 -0.051844 -0.082534 -0.108164 -0.124552 -0.129079 -0.121147 -0.102225 -0.075503 -0.045226 -0.015870 0.008663 0.025669 0.033982 0.033969 0.027225 0.016073 0.002992 -0.009875 -0.021032 -0.029707 -0.035707 -0.039121 -0.039988 -0.038042 -0.032636 -0.022863 -0.007881 0.012664 0.038227 0.067095 0.096374 0.122274 0.140667 0.147836 0.141256 0.120240 0.086295 0.043079 -0.004061 -0.048905 -0.085398 -0.108697 -0.116047 -0.107283 -0.084874 -0.053480 -0.019113 0.011953 0.034291 0.044269 0.040629 0.024624 -0.000311 -0.029276 -0.056849 -0.078074 -0.089291 -0.088688 -0.076457 -0.054588 -0.026352 0.004388 0.033883 0.059087 0.078020 0.089866 0.094827 0.093796 0.087966 0.078476 0.066178 0.051576 0.034927 0.016458 -0.003390 -0.023762 -0.043323 -0.060352 -0.072989 -0.079590 -0.079099 -0.071357 -0.057245 -0.038642 -0.018156 0.001286 0.016951 0.026774 0.029716 0.025923 0.016646 0.003943 -0.009772 -0.022238 -0.031806 -0.037736 -0.040287 -0.040557 -0.040127 -0.040590 -0.043058 -0.047781 -0.053966 -0.059843 -0.062993 -0.060863 -0.051382 -0.033532 -0.007756 0.023896 0.057952 0.090004 0.115430 0.130229 0.131801 0.119533 0.095057 0.062106 0.025994 -0.007229 -0.031790 -0.043193 -0.039040 -0.019497 0.012677 0.052558 0.093877 0.130091 0.155503 0.166243 0.160914 0.140790 0.109519 0.072398 0.035343 0.003756 -0.018482 -0.029727 -0.030814 -0.024823 -0.016383 -0.010663 -0.012259 -0.024186 -0.047204 -0.079584 -0.117404 -0.155286 -0.187454 -0.208881 -0.216308 -0.208914 -0.188508 -0.159191 -0.126563 -0.096620 -0.074577 -0.063841 -0.065346 -0.077383 -0.095943 -0.115518 -0.130170 -0.134675 -0.125492 -0.101379 -0.063550 -0.015358 0.038413 0.092468 0.141943 0.183173 0.214121 0.234430 0.245104 0.247929 0.244813 0.237204 0.225746 0.210250 0.189985 0.164187 0.132662 0.096283 0.057238 0.018931 -0.014490 -0.038886 -0.051017 -0.049354 -0.034631 -0.009971 0.019467 0.047295 0.067003 0.073168 0.062508 0.034582 -0.008037 -0.060141 -0.114763 -0.164370 -0.202154 -0.223151 -0.224993 -0.208149 -0.175643 -0.132324 -0.083877 -0.035782 0.007550 0.043301 0.070350 0.088981 0.100301 0.105562 
hipp_sf_0011_BA36 0.009968 0.008501 0.006120 0.003774 0.002532 0.003267 0.006366 0.011560 0.017922 0.024026 0.028258 0.029200 0.025990 0.018590 0.007866 -0.004525 -0.016438 -0.025681 -0.030475 -0.029864 -0.023958 -0.013954 -0.001933 0.009540 0.017930 0.021254 0.018494 0.009823 -0.003406 -0.018918 -0.033948 -0.045772 -0.052219 -0.052058 -0.045196 -0.032634 -0.016221 0.001748 0.018987 0.033630 0.044517 0.051292 0.054317 0.054430 0.052625 0.049732 0.046191 0.041960 0.036595 0.029450 0.019969 0.007960 -0.006208 -0.021558 -0.036621 -0.049693 -0.059189 -0.063990 -0.063707 -0.058798 -0.050484 -0.040496 -0.030699 -0.022685 -0.017429 -0.015097 -0.015064 -0.016123 -0.016865 -0.016108 -0.013287 -0.008679 -0.003418 0.000757 0.001936 -0.001404 -0.009881 -0.022843 -0.038280 -0.053063 -0.063481 -0.065996 -0.058056 -0.038789 -0.009408 0.026780 0.064808 0.098862 0.123335 0.133918 0.128497 0.107678 0.074792 0.035373 -0.003817 -0.036034 -0.055829 -0.060092 -0.048659 -0.024353 0.007573 0.040464 0.067578 0.083407 0.084749 0.071313 0.045720 0.012927 -0.020827 -0.049318 -0.067613 -0.073054 -0.065759 -0.048523 -0.026165 -0.004446 0.011197 0.016833 0.010893 -0.005492 -0.028724 -0.053501 -0.073940 -0.084814 -0.082663 -0.066515 -0.038109 -0.001548 0.037517 0.072999 0.099552 0.113566 0.113776 0.101387 0.079695 0.053306 0.027144 0.005457 -0.008963 -0.015202 -0.014197 -0.008321 -0.000672 0.005743 0.008731 0.007392 0.002242 -0.005031 -0.012111 -0.016738 -0.017383 -0.013721 -0.006799 0.001154 0.007240 0.008598 0.003149 -0.009802 -0.029256 -0.052581 -0.075953 -0.095083 -0.106088 -0.106313 -0.094937 -0.073214 -0.044311 -0.012750 0.016419 0.038557 0.050297 0.050151 0.038758 0.018715 -0.005947 -0.030546 -0.050613 -0.062681 -0.064837 -0.056950 -0.040555 -0.018436 0.005992 0.029348 0.048876 0.062840 0.070670 0.072857 0.070648 0.065626 0.059298 0.052768 0.046571 0.040675 0.034645 0.027889 0.019927 0.010597 0.000149 -0.010783 -0.021334 -0.030614 -0.037917 -0.042876 -0.045509 -0.046150 -0.045290 -0.043361 -0.040550 -0.036684 -0.031230 -0.023439 -0.012585 0.001746 0.019388 0.039436 0.060235 0.079561 0.094953 0.104153 0.105559 0.098590 0.083892 0.063307 0.039621 0.016115 -0.003998 -0.018138 -0.024813 -0.023880 -0.016552 -0.005154 0.007324 0.017799 0.023659 0.023231 0.016050 0.002898 -0.014397 -0.033349 -0.051297 -0.065890 -0.075483 -0.079361 -0.077770 -0.071765 -0.062916 -0.052953 -0.043427 -0.035455 -0.029594 -0.025858 -0.023846 -0.022942 -0.022529 -0.022150 -0.021586 -0.020845 -0.020056 -0.019332 -0.018636 -0.017696 -0.016014 -0.012961 -0.007957 -0.000667 0.008815 0.019864 0.031341 0.041739 0.049434 0.053007 0.051551 0.044914 0.033802 0.019711 0.004705 -0.008935 -0.019125 -0.024360 -0.023990 -0.018332 -0.008598 0.003368 0.015462 0.025743 0.032805 0.036030 0.035650 0.032631 0.028386 0.024402 0.021855 0.021313 0.022596 0.024826 0.026665 0.026677 0.023740 0.017403 0.008090 -0.002898 -0.013606 -0.021842 -0.025685 -0.023997 -0.016798 -0.005421 0.007623 0.019049 0.025422 0.023886 0.012830 -0.007621 -0.035429 -0.066833 -0.096892 -0.120289 -0.132273 -0.129547 -0.110932 -0.077678 -0.033350 0.016708 0.066236 0.109089 0.140247 0.156621 0.157497 0.144542 0.121376 0.092802 0.063840 0.038775 0.020389 0.009528 0.005098 0.004451 0.004094 0.000560 -0.008763 -0.024984 -0.047422 -0.073696 -0.100195 -0.122818 -0.137817 -0.142573 -0.136134 -0.119406 -0.094958 -0.066487 -0.038063 -0.013316 0.005262 0.016736 0.021812 0.022534 0.021705 0.022136 0.025916 0.033854 0.045234 0.057940 0.068922 0.074913 0.073236 0.062520 0.043161 0.017414 -0.010908 -0.037099 -0.056432 -0.065095 -0.060965 -0.044091 -0.016754 0.016896 0.051560 0.081735 0.102689 0.111286 0.106491 0.089482 0.063341 0.032417 0.001483 -0.025132 -0.044264 -0.054365 -0.055603 -0.049626 -0.039071 -0.026921 -0.015889 -0.007933 -0.004003 -0.004057 -0.007296 -0.012552 -0.018695 -0.024968 -0.031137 -0.037450 -0.044398 -0.052369 -0.061293 -0.070385 -0.078083 -0.082210 -0.080364 -0.070443 -0.051201 -0.022710 0.013409 0.054032 0.094898 0.131223 0.158456 0.173046 
hipp_sf_0012_PHC 0.144524 0.137920 0.125072 0.106544 0.082854 0.054307 0.021012 -0.016832 -0.058419 -0.101752 -0.143217 -0.177579 -0.198547 -0.199959 -0.177389 -0.129851 -0.061114 0.019823 0.099426 0.161575 0.190544 0.174471 0.108576 -0.002658 -0.145007 -0.296085 -0.428856 -0.516564 -0.538119 -0.482817 -0.353321 -0.166104 0.050920 0.263269 0.436369 0.542362 0.565804 0.507008 0.382224 0.220529 0.057981 -0.069777 -0.134931 -0.123347 -0.037590 0.103555 0.268980 0.421755 0.526839 0.558359 0.504891 0.371660 0.179214 -0.041061 -0.253553 -0.425680 -0.534207 -0.569270 -0.535349 -0.449100 -0.334694 -0.217855 -0.120037 -0.054075 -0.022271 -0.017219 -0.025026 -0.029970 -0.019365 0.012666 0.063475 0.122635 0.174947 0.204878 0.201247 0.160902 0.090355 0.004875 -0.074829 -0.127574 -0.137109 -0.096616 -0.011119 0.102891 0.220638 0.314410 0.359863 0.341821 0.258178 0.120937 -0.045948 -0.211486 -0.344263 -0.419255 -0.423292 -0.357917 -0.238975 -0.093016 0.048667 0.157004 0.211524 0.204685 0.143196 0.046054 -0.060212 -0.147955 -0.194968 -0.189676 -0.133755 -0.041607 0.063145 0.153296 0.204489 0.200937 0.139109 0.028573 -0.110163 -0.250261 -0.364501 -0.431172 -0.438574 -0.387120 -0.288662 -0.163282 -0.034400 0.076595 0.154914 0.195101 0.201370 0.185584 0.163491 0.150209 0.156143 0.184305 0.229690 0.280765 0.322654 0.341132 0.326408 0.275730 0.194181 0.093503 -0.010693 -0.102591 -0.169741 -0.205628 -0.210614 -0.191060 -0.156935 -0.118596 -0.083666 -0.054890 -0.029573 -0.000793 0.039931 0.099240 0.178767 0.273139 0.369820 0.451003 0.497230 0.491931 0.425795 0.299856 0.126427 -0.072484 -0.269081 -0.435187 -0.547995 -0.594820 -0.575735 -0.503429 -0.400240 -0.292994 -0.206821 -0.159345 -0.156625 -0.191809 -0.246863 -0.297003 -0.316841 -0.286813 -0.198388 -0.056811 0.119313 0.301561 0.457613 0.558225 0.583695 0.528342 0.401970 0.227948 0.038331 -0.132923 -0.257123 -0.316811 -0.309213 -0.246410 -0.152222 -0.056527 0.011724 0.031202 -0.006838 -0.096446 -0.218129 -0.343004 -0.439010 -0.477821 -0.440971 -0.323912 -0.137182 0.095494 0.341687 0.566356 0.738253 0.835361 0.848335 0.781407 0.650728 0.480683 0.299025 0.131892 -0.000364 -0.085823 -0.121823 -0.114039 -0.074264 -0.017486 0.041060 0.088321 0.115005 0.116205 0.091204 0.042717 -0.024115 -0.102733 -0.185996 -0.266822 -0.338677 -0.396001 -0.434635 -0.452246 -0.448666 -0.426022 -0.388514 -0.341784 -0.291913 -0.244208 -0.202058 -0.166166 -0.134403 -0.102430 -0.065000 -0.017689 0.041383 0.110295 0.182960 0.249870 0.299885 0.322753 0.311775 0.265963 0.191064 0.099090 0.006285 -0.070101 -0.115568 -0.121777 -0.088762 -0.025305 0.052733 0.125890 0.175657 0.189078 0.162272 0.101961 0.024468 -0.047722 -0.091194 -0.087481 -0.028218 0.081720 0.223979 0.369669 0.485024 0.538640 0.508764 0.388954 0.190742 -0.057463 -0.315190 -0.537570 -0.684299 -0.728006 -0.660202 -0.493463 -0.259283 -0.001961 0.230232 0.394766 0.463383 0.427632 0.300228 0.111962 -0.095131 -0.276865 -0.396239 -0.431033 -0.378016 -0.252958 -0.086511 0.083013 0.218308 0.291222 0.288596 0.214563 0.088916 -0.057968 -0.192363 -0.284880 -0.316823 -0.283821 -0.195984 -0.074716 0.052954 0.161067 0.230813 0.254555 0.236893 0.192594 0.142006 0.105166 0.096113 0.118857 0.166023 0.220524 0.259870 0.262045 0.211533 0.103976 -0.051701 -0.234272 -0.414150 -0.559423 -0.642618 -0.646673 -0.568743 -0.420989 -0.228167 -0.022575 0.162512 0.299453 0.371479 0.375445 0.321609 0.230593 0.128340 0.040249 -0.014160 -0.024917 0.007091 0.071303 0.150708 0.226207 0.281037 0.304215 0.292310 0.249279 0.184613 0.110431 0.038367 -0.022943 -0.069165 -0.100179 -0.118786 -0.128740 -0.132805 -0.131492 -0.122886 -0.103644 -0.070835 -0.024046 0.032985 0.091838 0.140325 0.164801 0.153420 0.099534 0.004351 -0.121972 -0.261259 -0.390267 -0.485151 -0.526517 -0.503928 -0.418774 -0.284757 -0.125728 0.028762 0.149314 0.212701 0.206739 0.132935 0.006305 -0.147617 -0.297939 -0.414600 -0.474265 -0.464644 -0.386350 -0.251998 -0.082832 0.096228 0.261927 0.397162 0.493625 0.552089 0.580437 0.590059 0.591669 
