13 420
hipp_sf_0000_BG 0.006262 0.022875 0.052490 0.088593 0.123065 0.147784 0.156249 0.144879 0.113757 0.066656 0.010351 -0.046651 -0.095706 -0.129655 -0.144140 -0.138368 -0.115184 -0.080435 -0.041766 -0.007096 0.016922 0.026153 0.019688 -0.000109 -0.028213 -0.058078 -0.083051 -0.097755 -0.099168 -0.087172 -0.064466 -0.035889 -0.007302 0.015722 0.029093 0.031051 0.022466 0.006555 -0.011929 -0.027828 -0.036771 -0.036171 -0.025782 -0.007711 0.014124 0.034944 0.050262 0.056954 0.054004 0.042749 0.026568 0.010077 -0.001964 -0.005801 0.000398 0.016066 0.038317 0.062568 0.083566 0.096571 0.098432 0.088300 0.067802 0.040647 0.011747 -0.013936 -0.032546 -0.042202 -0.043391 -0.038757 -0.032362 -0.028570 -0.030842 -0.040725 -0.057313 -0.077311 -0.095728 -0.107049 -0.106618 -0.091912 -0.063387 -0.024671 0.017979 0.056866 0.084462 0.095069 0.086177 0.059193 0.019355 -0.025190 -0.064961 -0.091067 -0.097059 -0.080333 -0.042758 0.009601 0.067630 0.120936 0.159895 0.177530 0.170850 0.141368 0.094710 0.039411 -0.014834 -0.059086 -0.086851 -0.095191 -0.085060 -0.060827 -0.029133 0.002640 0.027950 0.042362 0.044267 0.034927 0.017876 -0.002126 -0.020333 -0.033128 -0.038784 -0.037691 -0.032053 -0.025148 -0.020370 -0.020293 -0.026001 -0.036828 -0.050566 -0.064066 -0.074061 -0.078006 -0.074710 -0.064613 -0.049639 -0.032679 -0.016835 -0.004632 0.002615 0.005105 0.004463 0.003282 0.004408 0.010165 0.021692 0.038578 0.058876 0.079488 0.096842 0.107674 0.109755 0.102368 0.086448 0.064353 0.039328 0.014820 -0.006212 -0.021821 -0.031309 -0.035158 -0.034692 -0.031583 -0.027336 -0.022911 -0.018568 -0.013959 -0.008432 -0.001447 0.007053 0.016416 0.025290 0.031888 0.034432 0.031662 0.023262 0.010077 -0.005976 -0.022286 -0.036143 -0.045404 -0.049052 -0.047481 -0.042430 -0.036532 -0.032595 -0.032773 -0.037856 -0.046870 -0.057126 -0.064754 -0.065619 -0.056420 -0.035715 -0.004594 0.033195 0.071748 0.104085 0.123585 0.125480 0.108056 0.073276 0.026633 -0.023774 -0.068785 -0.100019 -0.111630 -0.101581 -0.072128 -0.029408 0.017837 0.060106 0.089176 0.099883 0.091231 0.066587 0.032888 -0.000955 -0.026133 -0.036009 -0.027724 -0.002964 0.032304 0.069089 0.097359 0.108321 0.096499 0.061137 0.006608 -0.058285 -0.121977 -0.172435 -0.199599 -0.197443 -0.165241 -0.107747 -0.034295 0.043019 0.111645 0.160926 0.183975 0.178743 0.148071 0.098795 0.040126 -0.018297 -0.068255 -0.104309 -0.124421 -0.129772 -0.123893 -0.111372 -0.096511 -0.082237 -0.069554 -0.057607 -0.044325 -0.027405 -0.005366 0.021638 0.051488 0.080351 0.103473 0.116319 0.115770 0.101080 0.074319 0.040171 0.005104 -0.023929 -0.040961 -0.042339 -0.027581 0.000421 0.035927 0.071483 0.099434 0.113477 0.109936 0.088465 0.052072 0.006446 -0.041226 -0.083699 -0.115048 -0.131687 -0.132851 -0.120464 -0.098470 -0.071816 -0.045340 -0.022817 -0.006365 0.003693 0.008541 0.010254 0.011077 0.012770 0.016205 0.021287 0.027185 0.032789 0.037203 0.040141 0.042073 0.044075 0.047431 0.053081 0.061113 0.070451 0.078874 0.083397 0.080964 0.069282 0.047602 0.017216 -0.018487 -0.054470 -0.084955 -0.104601 -0.109715 -0.099195 -0.074982 -0.041864 -0.006649 0.023162 0.040930 0.042326 0.026354 -0.004294 -0.043656 -0.083626 -0.115566 -0.132084 -0.128585 -0.104280 -0.062426 -0.009731 0.044943 0.092319 0.124529 0.136624 0.127480 0.099913 0.059989 0.015698 -0.024720 -0.054432 -0.069314 -0.068624 -0.054934 -0.033365 -0.010315 0.008030 0.017060 0.014700 0.001763 -0.018348 -0.040509 -0.059088 -0.069228 -0.067915 -0.054608 -0.031301 -0.002031 0.028037 0.053728 0.070945 0.077463 0.073299 0.060582 0.042991 0.024890 0.010378 0.002452 0.002468 0.009979 0.022968 0.038396 0.052914 0.063578 0.068404 0.066664 0.058874 0.046516 0.031584 0.016074 0.001557 -0.011075 -0.021652 -0.030553 -0.038396 -0.045683 -0.052504 -0.058388 -0.062348 -0.063105 -0.059444 -0.050616 -0.036665 -0.018620 0.001542 0.021144 0.037238 0.047142 0.048969 0.042039 0.027098 0.006273 -0.017221 -0.039582 -0.057049 -0.066540 -0.066186 -0.055678 -0.036346 -0.010977 0.016626 0.042242 0.061912 0.072579 
hipp_sf_0001_CA1 0.177979 0.171867 0.158604 0.136417 0.103380 0.058141 0.000698 -0.066952 -0.140448 -0.213103 -0.276427 -0.321132 -0.338510 -0.321990 -0.268610 -0.180098 -0.063298 0.070243 0.205567 0.326341 0.417351 0.467035 0.469567 0.426082 0.344725 0.239439 0.127646 0.027193 -0.046868 -0.085061 -0.085265 -0.053104 -0.000833 0.055099 0.097352 0.111217 0.087653 0.025218 -0.069509 -0.183108 -0.297878 -0.395247 -0.459347 -0.480020 -0.454659 -0.388521 -0.293491 -0.185588 -0.081759 0.003334 0.059886 0.084363 0.079529 0.053174 0.015898 -0.021478 -0.050258 -0.065460 -0.066310 -0.055621 -0.038295 -0.019397 -0.002367 0.012153 0.026521 0.045276 0.073516 0.114890 0.169795 0.234285 0.300096 0.355862 0.389346 0.390209 0.352661 0.277356 0.171999 0.050422 -0.069770 -0.170535 -0.237034 -0.260760 -0.241449 -0.187295 -0.113353 -0.038419 0.018975 0.044603 0.031745 -0.017191 -0.090986 -0.171867 -0.239233 -0.274073 -0.263140 -0.201968 -0.096093 0.039814 0.184722 0.315332 0.410619 0.455878 0.445400 0.383261 0.282068 0.160004 0.036821 -0.070298 -0.150113 -0.199210 -0.222014 -0.228976 -0.233395 -0.247629 -0.279586 -0.330308 -0.393231 -0.455291 -0.499654 -0.509480 -0.471883 -0.381203 -0.240870 -0.063415 0.131405 0.320002 0.479176 0.590305 0.642653 0.635137 0.576215 0.481955 0.372710 0.269098 0.188109 0.140103 0.127271 0.143790 0.177581 0.213215 0.235347 0.231939 0.196628 0.129808 0.038273 -0.066441 -0.170585 -0.261041 -0.327874 -0.366076 -0.376196 -0.363775 -0.337778 -0.308401 -0.284753 -0.272896 -0.274646 -0.287363 -0.304714 -0.318233 -0.319310 -0.301178 -0.260499 -0.198202 -0.119444 -0.032689 0.051880 0.124291 0.176682 0.204779 0.208676 0.192768 0.164852 0.134576 0.111526 0.103314 0.114038 0.143393 0.186609 0.235243 0.278672 0.306040 0.308297 0.279958 0.220281 0.133611 0.028856 -0.081845 -0.185023 -0.268008 -0.320921 -0.338167 -0.319182 -0.268315 -0.193879 -0.106581 -0.017643 0.063042 0.128354 0.174743 0.202264 0.213896 0.214321 0.208482 0.200238 0.191436 0.181594 0.168258 0.147935 0.117358 0.074781 0.020956 -0.040451 -0.103152 -0.159206 -0.200476 -0.220277 -0.214842 -0.184285 -0.132834 -0.068249 -0.000530 0.059816 0.103622 0.124620 0.120421 0.092722 0.046731 -0.010032 -0.069274 -0.123459 -0.167007 -0.196918 -0.212743 -0.215989 -0.209146 -0.194661 -0.174135 -0.147972 -0.115575 -0.076017 -0.028976 0.024348 0.080652 0.134506 0.178987 0.206891 0.212270 0.191953 0.146669 0.081442 0.005101 -0.071061 -0.135262 -0.177420 -0.191105 -0.174809 -0.132224 -0.071449 -0.003266 0.061153 0.112590 0.145661 0.159796 0.159072 0.150937 0.144099 0.146073 0.160963 0.188031 0.221428 0.251225 0.265549 0.253410 0.207582 0.126892 0.017357 -0.108177 -0.231881 -0.334003 -0.396545 -0.406845 -0.360326 -0.261830 -0.125234 0.028635 0.175418 0.291358 0.357373 0.362341 0.304986 0.194048 0.046747 -0.114155 -0.264132 -0.380836 -0.447524 -0.455426 -0.404731 -0.304129 -0.169077 -0.019189 0.124789 0.243913 0.323473 0.354630 0.335131 0.269120 0.166177 0.039807 -0.094400 -0.220699 -0.325003 -0.396426 -0.428413 -0.419359 -0.372658 -0.296140 -0.200954 -0.099974 -0.005933 0.070476 0.122229 0.147053 0.147714 0.131422 0.108395 0.089792 0.085398 0.101498 0.139380 0.194836 0.258802 0.319074 0.362805 0.379278 0.362366 0.312145 0.235245 0.143797 0.053148 -0.021247 -0.067100 -0.078022 -0.055112 -0.006979 0.051862 0.103958 0.132643 0.125772 0.078636 -0.004589 -0.111235 -0.222358 -0.316375 -0.373409 -0.379449 -0.329472 -0.228834 -0.092642 0.056838 0.194204 0.295612 0.343184 0.328279 0.252994 0.129608 -0.021845 -0.177384 -0.313460 -0.411037 -0.458610 -0.453604 -0.402003 -0.316397 -0.212955 -0.108025 -0.015097 0.057286 0.106307 0.134319 0.147210 0.152174 0.155475 0.160742 0.168164 0.174723 0.175338 0.164569 0.138426 0.095801 0.039161 -0.025661 -0.090529 -0.146665 -0.186495 -0.205258 -0.202003 -0.179749 -0.144794 -0.105333 -0.069719 -0.044743 -0.034311 -0.038774 -0.055021 -0.077270 -0.098347 -0.111144 -0.109964 -0.091481 -0.055176 -0.003230 0.060028 0.128938 0.197389 0.259588 0.310608 0.346689 0.365344 
hipp_sf_0002_CA2 0.015898 0.020646 0.029638 0.041854 0.055752 0.069317 0.080201 0.085969 0.084456 0.074162 0.054633 0.026718 -0.007373 -0.044263 -0.079838 -0.109873 -0.130724 -0.139957 -0.136780 -0.122172 -0.098673 -0.069863 -0.039645 -0.011471 0.012320 0.030890 0.044952 0.056452 0.067957 0.081903 0.099851 0.121949 0.146715 0.171192 0.191462 0.203396 0.203488 0.189589 0.161388 0.120543 0.070440 0.015630 -0.038912 -0.088583 -0.129820 -0.160544 -0.180306 -0.190153 -0.192259 -0.189430 -0.184586 -0.180307 -0.178505 -0.180222 -0.185566 -0.193724 -0.203044 -0.211157 -0.215162 -0.211885 -0.198248 -0.171752 -0.131029 -0.076393 -0.010261 0.062691 0.135764 0.200921 0.249894 0.275575 0.273460 0.242848 0.187505 0.115558 0.038531 -0.030418 -0.078775 -0.097086 -0.081007 -0.032553 0.039813 0.122365 0.198437 0.251525 0.268573 0.242801 0.175472 0.076163 -0.038606 -0.148185 -0.231582 -0.271495 -0.257805 -0.189805 -0.076696 0.063827 0.208638 0.333346 0.416744 0.444686 0.412612 0.326241 0.200283 0.055469 -0.085513 -0.202332 -0.280709 -0.314770 -0.307607 -0.269986 -0.217533 -0.167031 -0.132624 -0.122756 -0.138464 -0.173348 -0.215198 -0.248868 -0.259762 -0.237172 -0.176750 -0.081614 0.038109 0.167173 0.288092 0.384402 0.443599 0.459205 0.431568 0.367340 0.277818 0.176579 0.076958 -0.010111 -0.077481 -0.122226 -0.145148 -0.149628 -0.140188 -0.121176 -0.095904 -0.066408 -0.033808 0.000911 0.036028 0.068449 0.093569 0.105770 0.099476 0.070552 0.017682 -0.056648 -0.145872 -0.239943 -0.326759 -0.394179 -0.432237 -0.435083 -0.402217 -0.338735 -0.254484 -0.162270 -0.075478 -0.005577 0.039984 0.059052 0.054957 0.035592 0.011595 -0.005999 -0.008113 0.010480 0.050118 0.106243 0.170420 0.232119 0.280876 0.308378 0.310048 0.285820 0.239997 0.180256 0.116059 0.056816 0.010196 -0.019085 -0.029791 -0.023965 -0.006096 0.018106 0.043032 0.064295 0.079436 0.088095 0.091663 0.092558 0.093319 0.095772 0.100445 0.106384 0.111385 0.112572 0.107175 0.093310 0.070580 0.040359 0.005682 -0.029233 -0.059727 -0.081564 -0.091738 -0.089056 -0.074397 -0.050582 -0.021901 0.006635 0.030157 0.044772 0.048216 0.040203 0.022416 -0.001861 -0.028415 -0.052942 -0.071932 -0.083405 -0.087385 -0.085992 -0.083110 -0.083678 -0.092696 -0.114115 -0.149818 -0.198897 -0.257384 -0.318551 -0.373764 -0.413800 -0.430408 -0.417859 -0.374179 -0.301818 -0.207574 -0.101747 0.003384 0.095522 0.164383 0.203456 0.211116 0.190882 0.150733 0.101590 0.055249 0.022152 0.009436 0.019645 0.050375 0.094912 0.143757 0.186693 0.214990 0.223265 0.210613 0.180754 0.141166 0.101391 0.070857 0.056716 0.062142 0.085497 0.120544 0.157707 0.186111 0.195996 0.180998 0.139810 0.076854 0.001797 -0.072022 -0.129984 -0.158932 -0.149766 -0.099381 -0.011592 0.103140 0.229127 0.347787 0.440479 0.491365 0.489856 0.432249 0.322340 0.170967 -0.005438 -0.187014 -0.353065 -0.484715 -0.567293 -0.592182 -0.557912 -0.470399 -0.342290 -0.191479 -0.038931 0.093958 0.188185 0.229798 0.212030 0.136569 0.013708 -0.138764 -0.297866 -0.438695 -0.538191 -0.578862 -0.551807 -0.458498 -0.310908 -0.129868 0.058167 0.225452 0.347652 0.408079 0.400658 0.331045 0.215625 0.078541 -0.052728 -0.152423 -0.201218 -0.189695 -0.119896 -0.004664 0.135090 0.274616 0.390182 0.463575 0.485308 0.455940 0.385256 0.289567 0.187762 0.097019 0.029131 -0.011731 -0.029360 -0.033911 -0.038775 -0.056688 -0.096019 -0.158142 -0.236534 -0.317877 -0.384932 -0.420560 -0.411987 -0.354298 -0.252332 -0.120479 0.019677 0.143406 0.227753 0.256291 0.222679 0.132249 0.001250 -0.146108 -0.282236 -0.381401 -0.424577 -0.402913 -0.319146 -0.186733 -0.026947 0.135407 0.276725 0.378814 0.431756 0.434934 0.396151 0.329172 0.250349 0.175119 0.115156 0.076708 0.060373 0.062177 0.075523 0.093440 0.110488 0.123856 0.133445 0.140985 0.148563 0.157041 0.164908 0.167956 0.159958 0.134219 0.085615 0.012586 -0.081500 -0.188054 -0.294228 -0.385039 -0.446218 -0.467178 -0.443407 -0.377713 -0.279959 -0.165316 -0.051340 0.045475 0.112935 0.145443 0.144846 0.119625 0.082637 0.047902 0.027191 
hipp_sf_0003_DG 0.224467 0.218957 0.204506 0.175345 0.125307 0.050143 -0.050333 -0.170813 -0.300206 -0.422651 -0.519751 -0.573665 -0.570488 -0.503246 -0.373894 -0.193830 0.017260 0.234116 0.429760 0.579813 0.666521 0.681726 0.628223 0.519216 0.375955 0.223957 0.088507 -0.009738 -0.058240 -0.054517 -0.006190 0.070828 0.155642 0.226509 0.264994 0.259354 0.206516 0.112320 -0.009955 -0.142435 -0.266232 -0.365019 -0.427899 -0.450998 -0.437556 -0.396585 -0.340452 -0.282000 -0.231841 -0.196418 -0.177214 -0.171202 -0.172342 -0.173683 -0.169509 -0.156957 -0.136704 -0.112560 -0.090067 -0.074512 -0.068887 -0.072370 -0.079819 -0.082483 -0.069873 -0.032410 0.035750 0.134414 0.256193 0.386891 0.507501 0.597518 0.638926 0.620054 0.538428 0.401963 0.228120 0.041093 -0.132470 -0.268414 -0.349660 -0.369488 -0.332804 -0.255059 -0.159024 -0.070026 -0.010630 0.004141 -0.029958 -0.105406 -0.204396 -0.302514 -0.373856 -0.396526 -0.357384 -0.255024 -0.100381 0.085186 0.273928 0.437020 0.550065 0.597636 0.575944 0.493112 0.367039 0.221360 0.080392 -0.035826 -0.115352 -0.156213 -0.165969 -0.159130 -0.153029 -0.163116 -0.198743 -0.260410 -0.339111 -0.417943 -0.475680 -0.491519 -0.449995 -0.344978 -0.181855 0.022619 0.242830 0.448718 0.611218 0.707648 0.725967 0.667041 0.544459 0.381957 0.208941 0.055022 -0.055393 -0.107387 -0.097919 -0.035897 0.060008 0.165295 0.254501 0.306022 0.305968 0.250345 0.145251 0.005139 -0.150375 -0.300466 -0.426964 -0.517386 -0.566593 -0.576829 -0.556285 -0.516589 -0.469842 -0.425878 -0.390314 -0.363767 -0.342335 -0.319141 -0.286532 -0.238377 -0.171936 -0.088855 0.004923 0.100284 0.186854 0.255240 0.299093 0.316524 0.310550 0.288471 0.260288 0.236514 0.225839 0.233142 0.258285 0.295952 0.336569 0.368143 0.378643 0.358460 0.302450 0.211162 0.091022 -0.046559 -0.186975 -0.314749 -0.415957 -0.480305 -0.502484 -0.482626 -0.425805 -0.340778 -0.238251 -0.129053 -0.022564 0.074306 0.157476 0.225395 0.278262 0.317022 0.342431 0.354449 0.352099 0.333827 0.298238 0.245003 0.175657 0.094057 0.006319 -0.079797 -0.155962 -0.214607 -0.250213 -0.260284 -0.245773 -0.210854 -0.162081 -0.107121 -0.053319 -0.006435 0.030182 0.055808 0.071911 0.081203 0.086441 0.089290 0.089567 0.085098 0.072257 0.047092 0.006776 -0.048981 -0.116947 -0.190126 -0.258423 -0.310165 -0.334238 -0.322415 -0.271370 -0.183917 -0.069126 0.058793 0.182698 0.285432 0.352881 0.376568 0.355241 0.295085 0.208510 0.111709 0.021498 -0.047939 -0.087705 -0.095704 -0.076686 -0.040815 -0.001095 0.029793 0.042530 0.033390 0.005134 -0.033634 -0.070558 -0.092606 -0.089463 -0.056455 0.003669 0.080578 0.157939 0.216473 0.237929 0.209135 0.125315 -0.008088 -0.175515 -0.353394 -0.513898 -0.629702 -0.678856 -0.648842 -0.539068 -0.361308 -0.137994 0.101316 0.324670 0.502808 0.613695 0.645762 0.599334 0.486087 0.326715 0.147297 -0.024975 -0.165959 -0.257983 -0.292022 -0.268422 -0.196177 -0.091010 0.027346 0.138207 0.222880 0.267127 0.262883 0.209085 0.111623 -0.017558 -0.162025 -0.302942 -0.421436 -0.501012 -0.529748 -0.502008 -0.419425 -0.290961 -0.131944 0.037859 0.196965 0.325315 0.407373 0.434672 0.407316 0.334125 0.231286 0.119672 0.021246 -0.044851 -0.065789 -0.037472 0.034623 0.136401 0.247748 0.346325 0.411840 0.429951 0.395047 0.311316 0.191902 0.056281 -0.073595 -0.177612 -0.241394 -0.258972 -0.233701 -0.177240 -0.106835 -0.041490 0.002137 0.013253 -0.010892 -0.064619 -0.135273 -0.206197 -0.260539 -0.285074 -0.273191 -0.226402 -0.154062 -0.071361 0.003952 0.055393 0.071297 0.047319 -0.012618 -0.097126 -0.189705 -0.272104 -0.327980 -0.346065 -0.322193 -0.259811 -0.168923 -0.063763 0.040255 0.129619 0.195176 0.233474 0.246776 0.241825 0.227727 0.213492 0.205819 0.207619 0.217587 0.230853 0.240493 0.239506 0.222741 0.188302 0.138125 0.077594 0.014311 -0.043640 -0.089531 -0.119479 -0.133239 -0.134128 -0.128124 -0.122357 -0.123359 -0.135468 -0.159767 -0.193739 -0.231740 -0.266109 -0.288697 -0.292435 -0.272644 -0.227827 -0.159838 -0.073465 0.024434 0.125989 0.223360 0.309548 0.378902 0.427305 0.452135 
hipp_sf_0004_CA3 -0.198964 -0.193025 -0.179317 -0.154859 -0.116708 -0.063327 0.004231 0.081670 0.161546 0.234159 0.289086 0.317064 0.311812 0.271410 0.198918 0.102101 -0.007696 -0.117305 -0.213765 -0.286234 -0.327430 -0.334376 -0.308365 -0.254251 -0.179282 -0.091777 0.000073 0.089075 0.169465 0.236960 0.288537 0.322149 0.336530 0.331202 0.306687 0.264820 0.209006 0.144236 0.076731 0.013187 -0.040285 -0.079317 -0.102260 -0.110700 -0.109309 -0.104986 -0.105396 -0.117189 -0.144286 -0.186652 -0.239868 -0.295698 -0.343563 -0.372687 -0.374434 -0.344343 -0.283364 -0.197997 -0.099226 -0.000472 0.085041 0.146911 0.179601 0.183423 0.164230 0.131885 0.097836 0.072366 0.062163 0.068785 0.088393 0.112836 0.131831 0.135737 0.118244 0.078314 0.020879 -0.043922 -0.102835 -0.142452 -0.152364 -0.127756 -0.070815 0.009420 0.098792 0.180970 0.240956 0.268364 0.259689 0.219048 0.157176 0.088904 0.029691 -0.007992 -0.017574 0.000117 0.037123 0.080368 0.114943 0.127900 0.111633 0.066038 -0.001139 -0.075871 -0.141047 -0.180561 -0.183360 -0.146472 -0.076263 0.012455 0.099329 0.162792 0.184880 0.155431 0.074720 -0.046128 -0.187093 -0.323213 -0.429687 -0.487040 -0.485202 -0.425608 -0.320836 -0.191866 -0.063560 0.040637 0.103598 0.117950 0.087283 0.024912 -0.049503 -0.114667 -0.152609 -0.152732 -0.114037 -0.045045 0.038565 0.117980 0.176003 0.201366 0.191587 0.153669 0.102459 0.057052 0.036053 0.052836 0.111912 0.207306 0.323346 0.437745 0.526307 0.568187 0.550538 0.471448 0.340517 0.176896 0.005251 -0.149460 -0.267202 -0.336884 -0.358271 -0.341363 -0.303398 -0.264185 -0.240877 -0.243429 -0.271833 -0.315817 -0.357151 -0.374052 -0.346718 -0.262721 -0.120976 0.066676 0.276742 0.478036 0.637542 0.726976 0.728644 0.639333 0.471372 0.250589 0.011565 -0.208861 -0.378500 -0.475720 -0.493152 -0.438482 -0.332230 -0.203032 -0.081493 0.006094 0.042847 0.024191 -0.041960 -0.137658 -0.239375 -0.323403 -0.371008 -0.372203 -0.327415 -0.246757 -0.147188 -0.048309 0.032215 0.082534 0.098944 0.086203 0.055828 0.022854 0.001861 0.003238 0.030552 0.079648 0.139647 0.195616 0.232245 0.237681 0.206619 0.141926 0.054412 -0.039200 -0.119682 -0.169323 -0.175695 -0.134341 -0.049815 0.065142 0.192089 0.310489 0.401668 0.452284 0.456615 0.417242 0.344043 0.251785 0.156898 0.074128 0.013782 -0.019880 -0.028864 -0.020300 -0.004292 0.008706 0.010361 -0.003736 -0.033325 -0.073864 -0.117893 -0.157002 -0.183902 -0.194107 -0.186866 -0.165150 -0.134750 -0.102746 -0.075744 -0.058300 -0.051919 -0.054843 -0.062657 -0.069545 -0.069888 -0.059805 -0.038271 -0.007556 0.027119 0.058627 0.079449 0.083295 0.066502 0.028892 -0.026084 -0.091911 -0.160171 -0.222012 -0.269632 -0.297471 -0.302902 -0.286319 -0.250687 -0.200678 -0.141663 -0.078774 -0.016228 0.042954 0.096865 0.144351 0.184529 0.216386 0.238579 0.249534 0.247803 0.232595 0.204293 0.164804 0.117579 0.067258 0.018972 -0.022576 -0.054028 -0.074074 -0.083751 -0.086216 -0.086014 -0.087958 -0.095857 -0.111383 -0.133337 -0.157541 -0.177422 -0.185232 -0.173694 -0.137756 -0.076079 0.008063 0.106718 0.208110 0.298309 0.363463 0.392204 0.377783 0.319542 0.223412 0.101328 -0.030395 -0.153438 -0.250238 -0.306653 -0.314086 -0.270733 -0.181745 -0.058328 0.084044 0.227972 0.356610 0.455885 0.516099 0.532733 0.506394 0.442023 0.347611 0.232704 0.107028 -0.020550 -0.142592 -0.253173 -0.347609 -0.422023 -0.472954 -0.497223 -0.492152 -0.456121 -0.389370 -0.294807 -0.178587 -0.050219 0.077956 0.191955 0.277892 0.324012 0.322698 0.272042 0.176662 0.047538 -0.099203 -0.244413 -0.368656 -0.455119 -0.492212 -0.475396 -0.407911 -0.300253 -0.168465 -0.031516 0.091785 0.185814 0.240573 0.253134 0.227830 0.175192 0.109825 0.047619 0.002809 -0.014584 -0.000489 0.042619 0.106336 0.178022 0.243249 0.288524 0.303789 0.284240 0.231139 0.151501 0.056726 -0.039535 -0.123872 -0.185487 -0.218006 -0.220418 -0.196965 -0.156060 -0.108445 -0.064973 -0.034448 -0.021936 -0.027879 -0.048149 -0.075032 -0.098934 -0.110446 -0.102384 -0.071373 -0.018687 0.049841 0.124802 0.194920 0.249132 0.278661 
hipp_sf_0005_HEAD NaN NaN NaN NaN NaN NaN NaN NaN NaN NaN NaN NaN NaN NaN NaN NaN NaN NaN NaN NaN NaN NaN NaN NaN NaN NaN NaN NaN NaN NaN NaN NaN NaN NaN NaN NaN NaN NaN NaN NaN NaN NaN NaN NaN NaN NaN NaN NaN NaN NaN NaN NaN NaN NaN NaN NaN NaN NaN NaN NaN NaN NaN NaN NaN NaN NaN NaN NaN NaN NaN NaN NaN NaN NaN NaN NaN NaN NaN NaN NaN NaN NaN NaN NaN NaN NaN NaN NaN NaN NaN NaN NaN NaN NaN NaN NaN NaN NaN NaN NaN NaN NaN NaN NaN NaN NaN NaN NaN NaN NaN NaN NaN NaN NaN NaN NaN NaN NaN NaN NaN NaN NaN NaN NaN NaN NaN NaN NaN NaN NaN NaN NaN NaN NaN NaN NaN NaN NaN NaN NaN NaN NaN NaN NaN NaN NaN NaN NaN NaN NaN NaN NaN NaN NaN NaN NaN NaN NaN NaN NaN NaN NaN NaN NaN NaN NaN NaN NaN NaN NaN NaN NaN NaN NaN NaN NaN NaN NaN NaN NaN NaN NaN NaN NaN NaN NaN NaN NaN NaN NaN NaN NaN NaN NaN NaN NaN NaN NaN NaN NaN NaN NaN NaN NaN NaN NaN NaN NaN NaN NaN NaN NaN NaN NaN NaN NaN NaN NaN NaN NaN NaN NaN NaN NaN NaN NaN NaN NaN NaN NaN NaN NaN NaN NaN NaN NaN NaN NaN NaN NaN NaN NaN NaN NaN NaN NaN NaN NaN NaN NaN NaN NaN NaN NaN NaN NaN NaN NaN NaN NaN NaN NaN NaN NaN NaN NaN NaN NaN NaN NaN NaN NaN NaN NaN NaN NaN NaN NaN NaN NaN NaN NaN NaN NaN NaN NaN NaN NaN NaN NaN NaN NaN NaN NaN NaN NaN NaN NaN NaN NaN NaN NaN NaN NaN NaN NaN NaN NaN NaN NaN NaN NaN NaN NaN NaN NaN NaN NaN NaN NaN NaN NaN NaN NaN NaN NaN NaN NaN NaN NaN NaN NaN NaN NaN NaN NaN NaN NaN NaN NaN NaN NaN NaN NaN NaN NaN NaN NaN NaN NaN NaN NaN NaN NaN NaN NaN NaN NaN NaN NaN NaN NaN NaN NaN NaN NaN NaN NaN NaN NaN NaN NaN NaN NaN NaN NaN NaN NaN NaN NaN NaN NaN NaN NaN NaN NaN NaN NaN NaN NaN NaN NaN NaN NaN NaN NaN NaN NaN NaN NaN NaN NaN NaN NaN NaN NaN NaN NaN NaN NaN NaN NaN NaN NaN NaN NaN NaN NaN NaN NaN 
hipp_sf_0006_TAIL 0.093245 0.092966 0.089344 0.077263 0.051314 0.007812 -0.053460 -0.128302 -0.208241 -0.281807 -0.336700 -0.362360 -0.352346 -0.305936 -0.228549 -0.130831 -0.026599 0.069942 0.147051 0.197752 0.221035 0.221681 0.208773 0.193224 0.184931 0.190233 0.210282 0.240727 0.272807 0.295587 0.298802 0.275642 0.224760 0.151022 0.064767 -0.020285 -0.090013 -0.133071 -0.143525 -0.122307 -0.077120 -0.020780 0.031646 0.066269 0.073574 0.050654 0.001921 -0.061875 -0.126132 -0.175836 -0.199156 -0.190375 -0.151449 -0.091804 -0.026374 0.027716 0.055085 0.045788 -0.002099 -0.081601 -0.177917 -0.271255 -0.340855 -0.369345 -0.346503 -0.271615 -0.153909 -0.010966 0.134568 0.259305 0.343552 0.374981 0.350791 0.277954 0.171552 0.051601 -0.060940 -0.148150 -0.198301 -0.207605 -0.180286 -0.127060 -0.062444 -0.001530 0.043082 0.063562 0.057960 0.029995 -0.012275 -0.058533 -0.098503 -0.123959 -0.130070 -0.115856 -0.083817 -0.038921 0.012693 0.064962 0.112800 0.152516 0.181763 0.199168 0.203880 0.195252 0.172840 0.136723 0.088053 0.029634 -0.033751 -0.095455 -0.147645 -0.182492 -0.193661 -0.177772 -0.135450 -0.071666 0.004831 0.082947 0.151303 0.200510 0.225136 0.224913 0.204839 0.174089 0.143909 0.124933 0.124494 0.144578 0.180916 0.223518 0.258599 0.271560 0.250410 0.188880 0.088520 -0.040763 -0.181926 -0.313624 -0.414145 -0.465668 -0.457985 -0.390890 -0.274706 -0.128781 0.021805 0.150701 0.235068 0.259743 0.219987 0.122278 -0.016965 -0.174475 -0.324401 -0.442906 -0.512213 -0.523355 -0.477175 -0.383472 -0.258586 -0.121980 0.007421 0.114431 0.189727 0.230606 0.240356 0.226544 0.198704 0.166024 0.135526 0.111115 0.093590 0.081483 0.072377 0.064285 0.056653 0.050695 0.048979 0.054372 0.068674 0.091356 0.118811 0.144414 0.159489 0.155046 0.123937 0.062936 -0.025756 -0.134029 -0.248586 -0.352867 -0.429836 -0.465118 -0.449866 -0.382748 -0.270605 -0.127602 0.027022 0.172207 0.288706 0.362412 0.386731 0.363541 0.302568 0.219306 0.131915 0.057722 0.009997 -0.004349 0.014270 0.058619 0.116494 0.173465 0.215954 0.233985 0.223072 0.184878 0.126555 0.058957 -0.005869 -0.057356 -0.088674 -0.098116 -0.089317 -0.070294 -0.051526 -0.043494 -0.054215 -0.087295 -0.140905 -0.207905 -0.277087 -0.335281 -0.369909 -0.371458 -0.335395 -0.263134 -0.161878 -0.043384 0.078116 0.188404 0.275700 0.332561 0.356895 0.351939 0.325214 0.286722 0.246735 0.213648 0.192300 0.183100 0.182108 0.182030 0.173927 0.149275 0.101975 0.029909 -0.064259 -0.173198 -0.285908 -0.389439 -0.470991 -0.520043 -0.530098 -0.499781 -0.433078 -0.338716 -0.228801 -0.116969 -0.016371 0.062172 0.111549 0.129100 0.116623 0.079728 0.026679 -0.033041 -0.090174 -0.136936 -0.167881 -0.180313 -0.174230 -0.151897 -0.117173 -0.074734 -0.029333 0.014797 0.054345 0.087124 0.112108 0.129337 0.139771 0.145107 0.147594 0.149831 0.154539 0.164280 0.181127 0.206304 0.239831 0.280264 0.324587 0.368332 0.405960 0.431496 0.439349 0.425205 0.386860 0.324821 0.242556 0.146304 0.044431 -0.053603 -0.138524 -0.202588 -0.240758 -0.251528 -0.237228 -0.203746 -0.159684 -0.115057 -0.079734 -0.061866 -0.066536 -0.094871 -0.143747 -0.206170 -0.272267 -0.330761 -0.370707 -0.383228 -0.362985 -0.309151 -0.225735 -0.121186 -0.007334 0.102206 0.193929 0.256363 0.281748 0.267211 0.215255 0.133490 0.033625 -0.070151 -0.163154 -0.232285 -0.267890 -0.265138 -0.224692 -0.152589 -0.059339 0.041627 0.135910 0.210213 0.254192 0.261844 0.232195 0.169231 0.081096 -0.021280 -0.125873 -0.221300 -0.298295 -0.350718 -0.375953 -0.374691 -0.350187 -0.307199 -0.250836 -0.185571 -0.114605 -0.039701 0.038516 0.119889 0.203886 0.288796 0.371191 0.445823 0.506020 0.544555 0.554834 0.532205 0.475107 0.385842 0.270769 0.139856 0.005619 -0.118406 -0.219416 -0.287055 -0.314797 -0.300803 -0.248105 -0.164114 -0.059535 0.053118 0.161170 0.253356 0.321073 0.359172 0.366221 0.344238 0.298005 0.234112 0.159893 0.082433 0.007772 -0.059607 -0.116987 -0.163335 -0.199011 -0.225341 -0.244161 -0.257399 -0.266757 -0.273533 -0.278557 -0.282250 -0.284740 -0.286008 
hipp_sf_0007_MISC 0.040268 0.099792 0.202553 0.319747 0.416742 0.461209 0.430854 0.319043 0.137008 -0.087858 -0.317309 -0.510007 -0.630093 -0.654698 -0.578792 -0.416332 -0.197470 0.037556 0.246525 0.393589 0.456115 0.428601 0.322912 0.164887 -0.011812 -0.173214 -0.292191 -0.353715 -0.357101 -0.314875 -0.248635 -0.182987 -0.139054 -0.129087 -0.153484 -0.200872 -0.251230 -0.281257 -0.270697 -0.208068 -0.094384 0.056090 0.218305 0.361645 0.456734 0.482311 0.430570 0.309697 0.142922 -0.035787 -0.188566 -0.281558 -0.292206 -0.214321 -0.059807 0.143378 0.356646 0.538445 0.652596 0.675523 0.600895 0.440728 0.222754 -0.015326 -0.233448 -0.397041 -0.483464 -0.485761 -0.413019 -0.287419 -0.138744 0.002354 0.110808 0.171898 0.183374 0.154594 0.103027 0.049077 0.010527 -0.002059 0.012117 0.044161 0.078109 0.095425 0.080267 0.024199 -0.070795 -0.191781 -0.317012 -0.420296 -0.476645 -0.467932 -0.387281 -0.241179 -0.048816 0.161273 0.356529 0.506572 0.588941 0.593213 0.522639 0.393028 0.229185 0.059706 -0.088711 -0.196247 -0.253233 -0.261099 -0.230951 -0.180215 -0.128189 -0.091548 -0.080790 -0.098345 -0.138668 -0.190151 -0.238316 -0.269468 -0.273936 -0.248198 -0.195452 -0.124604 -0.048017 0.021392 0.072971 0.100445 0.102854 0.084214 0.052083 0.015474 -0.017318 -0.040426 -0.051275 -0.050470 -0.040835 -0.025967 -0.008779 0.009532 0.029768 0.054180 0.085270 0.124288 0.169919 0.217574 0.259606 0.286468 0.288637 0.258854 0.194145 0.097106 -0.023925 -0.155920 -0.283262 -0.390458 -0.464883 -0.498940 -0.491158 -0.445997 -0.372434 -0.281690 -0.184655 -0.089647 -0.001035 0.080969 0.159326 0.238311 0.321287 0.408757 0.497232 0.579298 0.644889 0.683526 0.686934 0.651391 0.579150 0.478508 0.362413 0.245858 0.142666 0.062406 0.008243 -0.023709 -0.043280 -0.063575 -0.097301 -0.152983 -0.231986 -0.327163 -0.423583 -0.501333 -0.539870 -0.523034 -0.443556 -0.306008 -0.127374 0.065074 0.238298 0.359621 0.403219 0.355643 0.219151 0.012080 -0.233944 -0.479482 -0.684402 -0.815247 -0.851388 -0.788713 -0.640136 -0.432832 -0.202794 0.012161 0.179515 0.277859 0.300275 0.254677 0.161184 0.047161 -0.058921 -0.133485 -0.162442 -0.143485 -0.085700 -0.006699 0.071967 0.130053 0.153327 0.136731 0.085356 0.013096 -0.060640 -0.115363 -0.134094 -0.107080 -0.033883 0.076561 0.207843 0.339465 0.450941 0.525707 0.554071 0.534631 0.473984 0.384902 0.283462 0.185796 0.105157 0.049850 0.022356 0.019686 0.034732 0.058212 0.080719 0.094443 0.094273 0.078171 0.046902 0.003340 -0.048375 -0.103574 -0.157546 -0.205727 -0.243715 -0.267247 -0.272340 -0.255698 -0.215394 -0.151706 -0.067892 0.029385 0.130196 0.222201 0.292189 0.328102 0.321197 0.267930 0.171141 0.040237 -0.109750 -0.260148 -0.391353 -0.485827 -0.530847 -0.520534 -0.456793 -0.349029 -0.212686 -0.066888 0.068417 0.175332 0.240467 0.256632 0.223581 0.147771 0.041244 -0.080130 -0.198797 -0.297769 -0.362710 -0.383683 -0.356379 -0.282731 -0.170825 -0.034109 0.110112 0.242774 0.345560 0.403548 0.407621 0.356255 0.256307 0.122529 -0.024257 -0.160184 -0.262169 -0.311934 -0.299505 -0.225495 -0.101621 0.050786 0.204171 0.329525 0.401738 0.404524 0.333963 0.199884 0.024702 -0.160178 -0.319819 -0.422097 -0.443736 -0.374886 -0.221311 -0.003742 0.245543 0.488280 0.686888 0.810968 0.842435 0.778305 0.630689 0.424041 0.190304 -0.037067 -0.228996 -0.365469 -0.438184 -0.450769 -0.416703 -0.355535 -0.288284 -0.233037 -0.201636 -0.198039 -0.218547 -0.253657 -0.290964 -0.318359 -0.326749 -0.311745 -0.274016 -0.218393 -0.152083 -0.082578 -0.015832 0.044805 0.098650 0.146840 0.190870 0.231048 0.265385 0.289341 0.296604 0.280774 0.237552 0.166859 0.074232 -0.028979 -0.126857 -0.201519 -0.236593 -0.220885 -0.151400 -0.034986 0.111903 0.265423 0.398242 0.484430 0.504400 0.448931 0.321418 0.137851 -0.075549 -0.286638 -0.462824 -0.576698 -0.610775 -0.560474 -0.434818 -0.254753 -0.049429 0.148815 0.309872 0.410708 0.438824 0.393804 0.286814 0.138230 -0.026072 -0.179073 -0.296877 -0.362204 -0.366657 -0.311501 -0.206981 -0.070382 0.076781 0.212008 0.315034 0.370625 
hipp_sf_0008_SUB -0.018212 -0.010293 0.003536 0.019643 0.033477 0.040478 0.037015 0.021195 -0.006608 -0.043632 -0.085037 -0.124622 -0.155835 -0.172915 -0.171945 -0.151627 -0.113619 -0.062341 -0.004271 0.053164 0.102902 0.139515 0.160195 0.165236 0.157914 0.143765 0.129388 0.121014 0.123124 0.137409 0.162295 0.193160 0.223205 0.244820 0.251165 0.237637 0.202915 0.149337 0.082534 0.010378 -0.058540 -0.116570 -0.158465 -0.182304 -0.189702 -0.185244 -0.175281 -0.166366 -0.163681 -0.169819 -0.184205 -0.203291 -0.221481 -0.232577 -0.231396 -0.215182 -0.184453 -0.143079 -0.097530 -0.055454 -0.023916 -0.007674 -0.007943 -0.021930 -0.043301 -0.063507 -0.073697 -0.066800 -0.039306 0.007667 0.068306 0.133068 0.190524 0.229672 0.242251 0.224533 0.178197 0.110085 0.030876 -0.047034 -0.111997 -0.155364 -0.173054 -0.166088 -0.139990 -0.103199 -0.064894 -0.032726 -0.011000 0.000248 0.005077 0.010389 0.023894 0.051795 0.096737 0.156546 0.224109 0.288469 0.336949 0.357853 0.343159 0.290583 0.204525 0.095634 -0.020952 -0.128380 -0.211283 -0.258740 -0.266372 -0.237116 -0.180493 -0.110537 -0.042812 0.008852 0.035190 0.033323 0.007173 -0.033606 -0.075909 -0.106201 -0.113585 -0.092266 -0.042886 0.027556 0.107153 0.181592 0.237134 0.263456 0.255729 0.215516 0.150347 0.072067 -0.005618 -0.069871 -0.111147 -0.124798 -0.111592 -0.077085 -0.030069 0.019498 0.062597 0.092806 0.107186 0.106256 0.093169 0.072343 0.047981 0.022855 -0.002319 -0.028767 -0.058876 -0.094972 -0.138033 -0.186702 -0.236927 -0.282372 -0.315550 -0.329438 -0.319202 -0.283591 -0.225640 -0.152457 -0.074087 -0.001649 0.054856 0.088595 0.097347 0.083994 0.055930 0.023491 -0.002283 -0.012058 -0.000284 0.033525 0.084593 0.143810 0.199592 0.240280 0.256555 0.243359 0.200912 0.134636 0.053998 -0.029430 -0.104287 -0.161598 -0.196341 -0.208116 -0.200777 -0.181177 -0.157334 -0.136442 -0.123202 -0.118824 -0.120904 -0.124181 -0.121965 -0.107881 -0.077533 -0.029686 0.033277 0.105723 0.179844 0.247201 0.300356 0.334241 0.346968 0.339927 0.317191 0.284397 0.247393 0.210979 0.178026 0.149161 0.123051 0.097186 0.068922 0.036510 -0.000158 -0.039294 -0.077493 -0.110491 -0.134199 -0.145759 -0.144340 -0.131483 -0.110874 -0.087615 -0.067120 -0.053919 -0.050630 -0.057348 -0.071598 -0.088874 -0.103638 -0.110583 -0.105858 -0.088003 -0.058388 -0.021052 0.018004 0.051937 0.074347 0.080471 0.068049 0.037713 -0.007158 -0.061058 -0.117295 -0.169051 -0.210367 -0.236872 -0.246173 -0.237887 -0.213376 -0.175291 -0.127062 -0.072430 -0.015104 0.041452 0.094119 0.140165 0.177297 0.203743 0.218388 0.220915 0.211905 0.192829 0.165891 0.133724 0.098972 0.063853 0.029811 -0.002644 -0.033844 -0.064614 -0.095722 -0.127278 -0.158224 -0.186085 -0.207089 -0.216699 -0.210479 -0.185137 -0.139536 -0.075409 0.002411 0.086358 0.167096 0.234937 0.281450 0.300965 0.291644 0.255902 0.200034 0.133129 0.065429 0.006487 -0.036551 -0.060153 -0.064893 -0.055094 -0.037735 -0.020829 -0.011628 -0.015031 -0.032539 -0.061942 -0.097831 -0.132789 -0.159003 -0.169954 -0.161824 -0.134321 -0.090765 -0.037444 0.017630 0.066260 0.101589 0.119292 0.118204 0.100301 0.070067 0.033437 -0.003428 -0.035268 -0.058504 -0.071558 -0.074682 -0.069412 -0.057823 -0.041811 -0.022599 -0.000580 0.024472 0.052914 0.084627 0.118491 0.152118 0.181947 0.203735 0.213328 0.207563 0.185068 0.146763 0.095928 0.037780 -0.021355 -0.075119 -0.118218 -0.147295 -0.161406 -0.161992 -0.152378 -0.136903 -0.119918 -0.104855 -0.093592 -0.086243 -0.081399 -0.076735 -0.069826 -0.058935 -0.043596 -0.024820 -0.004897 0.013174 0.026455 0.032855 0.031721 0.024075 0.012432 0.000239 -0.008933 -0.012251 -0.008305 0.002537 0.018198 0.035385 0.050366 0.059847 0.061729 0.055563 0.042575 0.025274 0.006741 -0.010206 -0.023750 -0.033508 -0.040534 -0.046878 -0.054805 -0.065889 -0.080227 -0.096017 -0.109665 -0.116443 -0.111602 -0.091682 -0.055727 -0.006052 0.051647 0.108986 0.156281 0.184419 0.186814 0.161035 0.109711 0.040472 -0.035158 -0.103731 -0.152366 -0.171267 -0.155758 -0.107398 -0.033902 0.052135 0.135511 0.201245 0.237411 
hipp_sf_0009_ERC -0.015768 0.030033 0.110765 0.206987 0.294813 0.351004 0.357962 0.307605 0.203292 0.059410 -0.101316 -0.252229 -0.367974 -0.429483 -0.427694 -0.365254 -0.255863 -0.121419 0.012442 0.121474 0.187563 0.202114 0.167407 0.095684 0.006204 -0.079076 -0.140250 -0.163625 -0.144419 -0.087456 -0.005746 0.082688 0.158989 0.207726 0.220249 0.196430 0.144391 0.078333 0.014961 -0.030636 -0.048699 -0.037223 -0.002519 0.042245 0.080216 0.095011 0.074907 0.016082 -0.075893 -0.186708 -0.296040 -0.381793 -0.424941 -0.413894 -0.347388 -0.235210 -0.096520 0.043903 0.160740 0.233426 0.250525 0.212189 0.130149 0.025207 -0.077266 -0.152834 -0.183336 -0.160844 -0.089406 0.015863 0.132126 0.233884 0.298630 0.311832 0.270143 0.182098 0.066152 -0.053530 -0.152552 -0.211835 -0.221936 -0.185164 -0.114983 -0.032804 0.037113 0.073516 0.063431 0.005616 -0.088634 -0.197581 -0.293650 -0.349554 -0.344628 -0.269932 -0.130981 0.052603 0.250504 0.427540 0.550729 0.596096 0.553780 0.430351 0.247798 0.039379 -0.156843 -0.305450 -0.380576 -0.370881 -0.281566 -0.133073 0.043229 0.211454 0.338359 0.399802 0.385199 0.299150 0.159994 -0.004327 -0.162138 -0.284414 -0.350354 -0.351068 -0.290726 -0.185067 -0.057705 0.064907 0.158770 0.206827 0.201802 0.146951 0.054735 -0.056157 -0.164706 -0.251545 -0.302232 -0.309267 -0.272605 -0.198764 -0.098894 0.013659 0.125732 0.226208 0.307100 0.363806 0.394691 0.400285 0.382410 0.343516 0.286351 0.213984 0.130038 0.038942 -0.054001 -0.142859 -0.221650 -0.285146 -0.329717 -0.353967 -0.358968 -0.347992 -0.325755 -0.297344 -0.267074 -0.237559 -0.209254 -0.180586 -0.148656 -0.110358 -0.063617 -0.008431 0.052576 0.114260 0.169730 0.211647 0.233737 0.232176 0.206519 0.159926 0.098641 0.030833 -0.034938 -0.091256 -0.133047 -0.158164 -0.167255 -0.162992 -0.148884 -0.128050 -0.102259 -0.071552 -0.034532 0.010733 0.065466 0.128930 0.197598 0.265013 0.322502 0.360653 0.371274 0.349390 0.294802 0.212765 0.113567 0.010987 -0.080094 -0.146468 -0.179169 -0.175267 -0.138483 -0.078445 -0.008723 0.055966 0.102775 0.123325 0.115312 0.082774 0.034962 -0.015930 -0.057660 -0.080815 -0.081005 -0.059897 -0.024840 0.012821 0.040383 0.046761 0.025158 -0.025191 -0.098552 -0.183654 -0.265815 -0.329817 -0.362883 -0.357145 -0.311095 -0.229770 -0.123668 -0.006689 0.106415 0.202547 0.272205 0.310527 0.317319 0.296202 0.253175 0.195030 0.128017 0.057055 -0.014387 -0.083825 -0.148965 -0.206903 -0.253663 -0.284298 -0.293604 -0.277313 -0.233474 -0.163621 -0.073373 0.027815 0.127796 0.213628 0.273880 0.300846 0.292195 0.251636 0.188413 0.115657 0.047908 -0.001723 -0.024151 -0.016155 0.018956 0.071992 0.129719 0.177530 0.202396 0.195504 0.154061 0.081917 -0.011111 -0.111044 -0.202305 -0.270536 -0.305122 -0.300970 -0.259257 -0.187053 -0.095979 -0.000175 0.086003 0.150165 0.183597 0.182291 0.147210 0.083848 0.001245 -0.089354 -0.175969 -0.247328 -0.294132 -0.310081 -0.292579 -0.243098 -0.167149 -0.073817 0.025142 0.116628 0.187860 0.228182 0.230787 0.194047 0.122167 0.024961 -0.083345 -0.186172 -0.267244 -0.313392 -0.317006 -0.277631 -0.202336 -0.104706 -0.002541 0.085350 0.142699 0.158983 0.131655 0.066917 -0.021174 -0.113132 -0.187590 -0.225280 -0.212709 -0.144794 -0.025953 0.130558 0.304929 0.474247 0.616420 0.713836 0.756042 0.741005 0.674759 0.569626 0.441451 0.306472 0.178501 0.066949 -0.023958 -0.094741 -0.149228 -0.192574 -0.229267 -0.261628 -0.289172 -0.308922 -0.316565 -0.308090 -0.281441 -0.237720 -0.181584 -0.120697 -0.064324 -0.021393 0.001507 0.001707 -0.018800 -0.053668 -0.093525 -0.128045 -0.148291 -0.148805 -0.128920 -0.092995 -0.049463 -0.008896 0.018486 0.025311 0.008948 -0.027645 -0.076363 -0.125636 -0.163001 -0.178014 -0.164859 -0.124025 -0.062650 0.006621 0.068084 0.106245 0.109254 0.071748 -0.003519 -0.105664 -0.217371 -0.318008 -0.387591 -0.410818 -0.380359 -0.298704 -0.178150 -0.038854 0.094738 0.198439 0.253003 0.248041 0.184397 0.074482 -0.059555 -0.189542 -0.286252 -0.324736 -0.289050 -0.175523 0.006089 0.233777 0.476640 0.699863 0.870455 0.962756 
hipp_sf_0010_BA35 -0.087455 -0.043063 0.035742 0.131072 0.220856 0.283444 0.302165 0.268900 0.185933 0.065709 -0.071467 -0.201337 -0.300406 -0.350540 -0.342531 -0.277913 -0.168700 -0.035101 0.098312 0.207221 0.272042 0.281412 0.234034 0.138560 0.011620 -0.125558 -0.251216 -0.346990 -0.400924 -0.409040 -0.375224 -0.309594 -0.225768 -0.137719 -0.056907 0.009693 0.060289 0.097630 0.127280 0.155277 0.185832 0.219645 0.253291 0.279859 0.290690 0.277826 0.236553 0.167394 0.077009 -0.022308 -0.114540 -0.182919 -0.213380 -0.197750 -0.135958 -0.036715 0.083557 0.203438 0.300375 0.354966 0.354793 0.297042 0.189324 0.048493 -0.102327 -0.237976 -0.335912 -0.380381 -0.365296 -0.295241 -0.184446 -0.053935 0.072566 0.173119 0.231589 0.240396 0.201495 0.125468 0.028957 -0.068947 -0.150600 -0.203168 -0.220774 -0.205067 -0.164162 -0.110260 -0.056564 -0.014183 0.010266 0.015846 0.007057 -0.007721 -0.018701 -0.017443 0.000761 0.035457 0.080908 0.127303 0.163044 0.177556 0.163994 0.121171 0.054263 -0.025933 -0.105037 -0.168028 -0.202424 -0.201032 -0.163619 -0.097151 -0.014490 0.068181 0.134668 0.172114 0.173677 0.139945 0.078790 0.003693 -0.069130 -0.124171 -0.149923 -0.141329 -0.100852 -0.037961 0.032870 0.095221 0.134206 0.139636 0.108223 0.044366 -0.040636 -0.130756 -0.208362 -0.257633 -0.267594 -0.234174 -0.160918 -0.058235 0.058593 0.172230 0.266337 0.328283 0.351000 0.333728 0.281565 0.204043 0.113086 0.020799 -0.062450 -0.129332 -0.176087 -0.202276 -0.209964 -0.202610 -0.183980 -0.157336 -0.125064 -0.088744 -0.049553 -0.008799 0.031625 0.069066 0.100296 0.122044 0.131732 0.128226 0.112371 0.087136 0.057281 0.028582 0.006750 -0.003708 -0.000452 0.016147 0.043010 0.074907 0.105476 0.128461 0.138929 0.134193 0.114259 0.081717 0.041119 -0.001985 -0.042142 -0.074956 -0.097739 -0.109714 -0.111797 -0.106042 -0.094955 -0.080851 -0.065445 -0.049766 -0.034377 -0.019805 -0.006999 0.002366 0.005900 0.000870 -0.015091 -0.043120 -0.082319 -0.129271 -0.178075 -0.220995 -0.249675 -0.256715 -0.237316 -0.190601 -0.120314 -0.034649 0.054828 0.135024 0.193604 0.221289 0.213684 0.172256 0.104220 0.021318 -0.062299 -0.132675 -0.178628 -0.193783 -0.177648 -0.135500 -0.077123 -0.014654 0.040008 0.077684 0.093771 0.089074 0.069458 0.044401 0.024764 0.020261 0.037190 0.076895 0.135305 0.203640 0.270139 0.322436 0.350088 0.346727 0.311377 0.248690 0.168044 0.081723 0.002552 -0.058521 -0.094398 -0.102990 -0.087344 -0.054770 -0.015168 0.021058 0.045068 0.051220 0.037976 0.007927 -0.032982 -0.076845 -0.115456 -0.141904 -0.151784 -0.143824 -0.119858 -0.084235 -0.042833 -0.001941 0.032776 0.057018 0.068221 0.065567 0.049707 0.022353 -0.014124 -0.056991 -0.103289 -0.149857 -0.193300 -0.230029 -0.256446 -0.269325 -0.266338 -0.246648 -0.211395 -0.163926 -0.109641 -0.055399 -0.008527 0.024400 0.038815 0.033162 0.009436 -0.026919 -0.067761 -0.103581 -0.125171 -0.125333 -0.100303 -0.050591 0.018920 0.099678 0.180842 0.251094 0.300560 0.322469 0.314280 0.278055 0.220039 0.149542 0.077343 0.013909 -0.032243 -0.055773 -0.055153 -0.032637 0.006367 0.054373 0.103121 0.144862 0.173436 0.184988 0.178262 0.154489 0.116959 0.070372 0.020119 -0.028420 -0.070464 -0.102280 -0.121467 -0.127081 -0.119637 -0.100978 -0.074038 -0.042501 -0.010381 0.018465 0.040815 0.054520 0.058800 0.054347 0.043193 0.028332 0.013149 0.000750 -0.006696 -0.008458 -0.005477 -0.000269 0.003518 0.001814 -0.009009 -0.031297 -0.065457 -0.109633 -0.159778 -0.210157 -0.254159 -0.285319 -0.298337 -0.289934 -0.259388 -0.208671 -0.142176 -0.066100 0.012399 0.086129 0.148715 0.195275 0.222850 0.230557 0.219511 0.192562 0.153904 0.108622 0.062199 0.020018 -0.013160 -0.033688 -0.039508 -0.030512 -0.008737 0.021705 0.055009 0.084404 0.103170 0.105808 0.089186 0.053418 0.002268 -0.057089 -0.115007 -0.160902 -0.185184 -0.181227 -0.146999 -0.085985 -0.007120 0.076336 0.148897 0.195586 0.204841 0.171027 0.096045 -0.010362 -0.131752 -0.247474 -0.336111 -0.379290 -0.365169 -0.290923 -0.163733 -0.000026 0.176969 0.340933 0.466825 0.535114 
hipp_sf_0011_BA36 -0.129597 -0.083345 -0.000764 0.100318 0.197807 0.269842 0.299242 0.277015 0.204200 0.091703 -0.041829 -0.173647 -0.281297 -0.346886 -0.360361 -0.321176 -0.238059 -0.126981 -0.007810 0.099637 0.179308 0.221646 0.224842 0.194415 0.141316 0.079055 0.020525 -0.024736 -0.052269 -0.063062 -0.062543 -0.058519 -0.058612 -0.067845 -0.087000 -0.112163 -0.135592 -0.147703 -0.139712 -0.106271 -0.047444 0.030512 0.115836 0.193332 0.247435 0.265611 0.241341 0.175990 0.079081 -0.033166 -0.140788 -0.223964 -0.267034 -0.261791 -0.209345 -0.120121 -0.011932 0.093485 0.174800 0.215392 0.206736 0.150152 0.056568 -0.055675 -0.164527 -0.248664 -0.291740 -0.285591 -0.231724 -0.140825 -0.030398 0.078919 0.167593 0.221077 0.232542 0.203918 0.145074 0.071365 0.000131 -0.053084 -0.077763 -0.070424 -0.035006 0.018370 0.075962 0.123653 0.150153 0.149436 0.121909 0.074089 0.016909 -0.036896 -0.075714 -0.091604 -0.081910 -0.049589 -0.002241 0.049890 0.096438 0.129338 0.144579 0.142880 0.129158 0.110945 0.096167 0.090846 0.097312 0.113360 0.132595 0.145884 0.143584 0.118020 0.065614 -0.011848 -0.107148 -0.208796 -0.303199 -0.377355 -0.421467 -0.430907 -0.407082 -0.357004 -0.291691 -0.223747 -0.164670 -0.122518 -0.100420 -0.096256 -0.103559 -0.113368 -0.116599 -0.106342 -0.079549 -0.037716 0.013581 0.066173 0.111415 0.142426 0.155875 0.152879 0.138775 0.121817 0.111079 0.114100 0.134799 0.172216 0.220371 0.269337 0.307293 0.323116 0.308926 0.262005 0.185647 0.088735 -0.015869 -0.113779 -0.191832 -0.240532 -0.255667 -0.238764 -0.196315 -0.138004 -0.074380 -0.014525 0.035717 0.074564 0.104005 0.128523 0.153180 0.181594 0.214365 0.248362 0.277122 0.292291 0.285770 0.252069 0.190241 0.104900 0.005984 -0.092774 -0.176390 -0.231662 -0.250034 -0.229621 -0.175914 -0.100933 -0.020972 0.046633 0.087028 0.090904 0.056427 -0.010406 -0.097075 -0.187246 -0.264295 -0.314882 -0.331779 -0.315337 -0.273239 -0.218609 -0.166860 -0.132008 -0.123263 -0.142680 -0.184421 -0.235831 -0.280132 -0.300167 -0.282398 -0.220279 -0.116241 0.018178 0.164151 0.298989 0.400498 0.451388 0.442816 0.376326 0.263764 0.125178 -0.014906 -0.132080 -0.206603 -0.227025 -0.192144 -0.110956 -0.000634 0.117042 0.220039 0.290359 0.317386 0.299664 0.244794 0.167526 0.086467 0.020129 -0.016900 -0.016872 0.019654 0.084069 0.161582 0.234292 0.284821 0.299784 0.272409 0.203830 0.102836 -0.015833 -0.134271 -0.234709 -0.302702 -0.329602 -0.313895 -0.261190 -0.182934 -0.094135 -0.010552 0.054101 0.090452 0.094868 0.069767 0.022838 -0.034629 -0.089953 -0.131404 -0.150249 -0.142182 -0.107905 -0.052835 0.013989 0.081560 0.138800 0.176404 0.188299 0.172521 0.131398 0.071037 0.000246 -0.070929 -0.132784 -0.177422 -0.199867 -0.198685 -0.176039 -0.137186 -0.089544 -0.041460 -0.000916 0.025663 0.034291 0.023905 -0.003620 -0.043895 -0.090785 -0.137386 -0.177058 -0.204341 -0.215635 -0.209562 -0.186982 -0.150690 -0.104877 -0.054454 -0.004350 0.041111 0.078678 0.106450 0.123945 0.131993 0.132482 0.128016 0.121522 0.115856 0.113424 0.115872 0.123829 0.136770 0.152986 0.169713 0.183422 0.190260 0.186626 0.169806 0.138585 0.093726 0.038210 -0.022853 -0.082675 -0.133592 -0.168121 -0.180134 -0.165951 -0.125169 -0.061041 0.019690 0.107524 0.191424 0.260347 0.304855 0.318529 0.298960 0.248131 0.172123 0.080184 -0.016673 -0.107328 -0.182157 -0.234347 -0.260692 -0.261775 -0.241527 -0.206292 -0.163580 -0.120754 -0.083890 -0.056984 -0.041626 -0.037127 -0.041042 -0.049927 -0.060152 -0.068618 -0.073238 -0.073126 -0.068516 -0.060462 -0.050437 -0.039943 -0.030212 -0.022054 -0.015849 -0.011639 -0.009252 -0.008397 -0.008678 -0.009526 -0.010086 -0.009125 -0.005039 0.003985 0.019610 0.042864 0.073588 0.109980 0.148378 0.183406 0.208549 0.217130 0.203564 0.164666 0.100758 0.016299 -0.080170 -0.176855 -0.260270 -0.317323 -0.337600 -0.315424 -0.251298 -0.152389 -0.031878 0.092803 0.202611 0.280001 0.311975 0.292511 0.223916 0.116787 -0.011464 -0.139335 -0.244772 -0.308917 -0.319422 -0.272722 -0.174843 -0.040564 0.108943 0.249618 0.358559 0.417911 
hipp_sf_0012_PHC 0.138857 0.161746 0.198853 0.235135 0.253221 0.238206 0.182046 0.086420 -0.036676 -0.166842 -0.279347 -0.350497 -0.363085 -0.310692 -0.199804 -0.049196 0.113378 0.256543 0.351587 0.378334 0.329347 0.211525 0.044742 -0.142183 -0.317343 -0.452147 -0.526912 -0.534445 -0.480883 -0.383651 -0.267052 -0.156513 -0.072801 -0.027511 -0.020838 -0.042089 -0.072804 -0.091700 -0.080298 -0.027869 0.065440 0.188083 0.319341 0.433818 0.507203 0.521985 0.471806 0.363416 0.215746 0.056252 -0.084717 -0.180294 -0.212811 -0.177609 -0.084079 0.046309 0.184551 0.300250 0.368003 0.372651 0.312247 0.198135 0.052159 -0.098329 -0.226528 -0.311930 -0.344478 -0.326232 -0.270222 -0.196801 -0.128399 -0.083925 -0.074137 -0.099065 -0.148097 -0.202711 -0.241195 -0.244264 -0.200239 -0.108534 0.019399 0.161960 0.291779 0.381618 0.410534 0.368882 0.261044 0.105199 -0.069862 -0.230271 -0.343801 -0.386381 -0.347027 -0.230172 -0.054902 0.148707 0.345380 0.501354 0.590625 0.599496 0.528569 0.391884 0.213528 0.022509 -0.152949 -0.290502 -0.377184 -0.410696 -0.398423 -0.354567 -0.296180 -0.239076 -0.194509 -0.167299 -0.155680 -0.152736 -0.148943 -0.135096 -0.104902 -0.056621 0.006547 0.077331 0.146199 0.203588 0.241980 0.257321 0.249518 0.221968 0.180358 0.131125 0.080031 0.031223 -0.013017 -0.051848 -0.084994 -0.111788 -0.130486 -0.138170 -0.131322 -0.106967 -0.064071 -0.004765 0.065010 0.135752 0.195614 0.232403 0.235975 0.200473 0.125870 0.018409 -0.110232 -0.244913 -0.369737 -0.470897 -0.539012 -0.570438 -0.567265 -0.536033 -0.485514 -0.424148 -0.357796 -0.288403 -0.213918 -0.129507 -0.029727 0.088917 0.225750 0.374695 0.524447 0.660128 0.766091 0.829246 0.842076 0.804561 0.724467 0.615810 0.495800 0.380941 0.283228 0.207411 0.150072 0.100861 0.045692 -0.028789 -0.130549 -0.258511 -0.400934 -0.536443 -0.637725 -0.677245 -0.633820 -0.498574 -0.278840 0.001075 0.302692 0.579411 0.784739 0.881080 0.847298 0.683405 0.411307 0.071315 -0.284954 -0.603939 -0.839867 -0.962888 -0.963982 -0.855653 -0.668347 -0.443418 -0.224196 -0.047106 0.065286 0.107844 0.092386 0.043407 -0.008920 -0.036791 -0.021976 0.039473 0.136097 0.243713 0.331261 0.368472 0.333538 0.219030 0.034665 -0.193755 -0.429025 -0.629861 -0.759247 -0.792014 -0.720000 -0.553704 -0.320113 -0.057226 0.193518 0.395248 0.522427 0.565000 0.529172 0.434829 0.310316 0.185882 0.087251 0.030743 0.020885 0.050854 0.105446 0.165656 0.213700 0.237232 0.231809 0.201141 0.155227 0.107001 0.068456 0.047298 0.044984 0.056635 0.072762 0.082303 0.076112 0.049915 0.005924 -0.047364 -0.097189 -0.129855 -0.134531 -0.106527 -0.049153 0.026383 0.103121 0.162091 0.186802 0.167421 0.103603 0.005255 -0.109033 -0.215614 -0.290697 -0.315467 -0.280273 -0.186945 -0.048706 0.112313 0.269397 0.396489 0.473188 0.488471 0.442369 0.345335 0.215529 0.074734 -0.056163 -0.161093 -0.231332 -0.266187 -0.271846 -0.258839 -0.238839 -0.221645 -0.213075 -0.214206 -0.222037 -0.231234 -0.236390 -0.234080 -0.224109 -0.209596 -0.195864 -0.188505 -0.191188 -0.203906 -0.222246 -0.238008 -0.241109 -0.222353 -0.176372 -0.103921 -0.012825 0.082818 0.165183 0.216537 0.223519 0.180877 0.093722 -0.022364 -0.143567 -0.242101 -0.291672 -0.273028 -0.178397 -0.013813 0.201248 0.436935 0.658228 0.831245 0.929392 0.938106 0.857239 0.700648 0.493137 0.265431 0.048287 -0.133046 -0.262897 -0.337030 -0.362041 -0.352593 -0.327224 -0.303741 -0.295230 -0.307500 -0.338420 -0.379123 -0.416657 -0.437352 -0.430052 -0.388506 -0.312418 -0.207082 -0.081827 0.052193 0.184230 0.305623 0.410558 0.495834 0.559873 0.601407 0.618397 0.607621 0.565177 0.487844 0.374957 0.230216 0.062830 -0.112514 -0.277126 -0.411085 -0.496864 -0.523042 -0.487255 -0.397610 -0.272085 -0.135836 -0.016817 0.059502 0.075260 0.024126 -0.086882 -0.238117 -0.400552 -0.540962 -0.628108 -0.638700 -0.562017 -0.402248 -0.178125 0.080097 0.335729 0.551850 0.697477 0.752600 0.711231 0.582023 0.386453 0.155023 -0.077775 -0.278820 -0.421176 -0.487640 -0.472610 -0.382160 -0.232489 -0.047139 0.146523 0.321040 0.452357 0.522720 
