13 420
hipp_sf_0000_BG 0.021776 0.022784 0.024759 0.027592 0.031053 0.034753 0.038135 0.040514 0.041183 0.039549 0.035296 0.028516 0.019776 0.010089 0.000779 -0.006744 -0.011267 -0.012045 -0.009012 -0.002867 0.004994 0.012691 0.018204 0.019764 0.016228 0.007348 -0.006126 -0.022539 -0.039603 -0.054816 -0.065926 -0.071356 -0.070501 -0.063828 -0.052759 -0.039364 -0.025917 -0.014430 -0.006247 -0.001800 -0.000580 -0.001317 -0.002351 -0.002088 0.000557 0.005827 0.013000 0.020494 0.026199 0.027961 0.024114 0.013943 -0.002032 -0.022030 -0.043245 -0.062334 -0.076029 -0.081785 -0.078300 -0.065817 -0.046126 -0.022263 0.002030 0.023002 0.037579 0.043927 0.041768 0.032394 0.018376 0.003032 -0.010229 -0.018561 -0.020206 -0.014771 -0.003242 0.012283 0.029059 0.044256 0.055499 0.061283 0.061167 0.055759 0.046473 0.035162 0.023701 0.013616 0.005851 0.000691 -0.002140 -0.003263 -0.003375 -0.003003 -0.002347 -0.001263 0.000630 0.003747 0.008295 0.014078 0.020396 0.026099 0.029771 0.030031 0.025866 0.016923 0.003686 -0.012518 -0.029700 -0.045535 -0.057779 -0.064681 -0.065306 -0.059690 -0.048800 -0.034301 -0.018201 -0.002430 0.011520 0.022837 0.031440 0.037848 0.042895 0.047374 0.051702 0.055698 0.058547 0.058952 0.055467 0.046918 0.032810 0.013630 -0.009068 -0.032812 -0.054591 -0.071406 -0.080853 -0.081634 -0.073870 -0.059135 -0.040182 -0.020433 -0.003303 0.008475 0.013399 0.011486 0.004241 -0.005699 -0.015157 -0.021142 -0.021520 -0.015517 -0.003912 0.011110 0.026421 0.038621 0.044788 0.043128 0.033387 0.016935 -0.003505 -0.024411 -0.042193 -0.053935 -0.057978 -0.054238 -0.044163 -0.030369 -0.016019 -0.004096 0.003264 0.005239 0.002474 -0.003119 -0.008845 -0.011912 -0.010141 -0.002547 0.010356 0.026587 0.043078 0.056323 0.063153 0.061471 0.050783 0.032404 0.009295 -0.014462 -0.034416 -0.046612 -0.048354 -0.038739 -0.018846 0.008459 0.039049 0.068289 0.091858 0.106481 0.110428 0.103699 0.087875 0.065690 0.040428 0.015281 -0.007193 -0.025420 -0.038895 -0.048034 -0.053830 -0.057438 -0.059775 -0.061253 -0.061694 -0.060444 -0.056650 -0.049607 -0.039101 -0.025635 -0.010480 0.004473 0.017028 0.025117 0.027232 0.022776 0.012244 -0.002814 -0.020039 -0.036684 -0.050103 -0.058235 -0.059964 -0.055295 -0.045308 -0.031906 -0.017418 -0.004129 0.006154 0.012419 0.014595 0.013495 0.010582 0.007621 0.006272 0.007734 0.012491 0.020216 0.029839 0.039774 0.048227 0.053558 0.054594 0.050855 0.042652 0.031039 0.017641 0.004384 -0.006814 -0.014349 -0.017178 -0.014978 -0.008189 0.002053 0.014082 0.025949 0.035696 0.041645 0.042638 0.038213 0.028682 0.015105 -0.000856 -0.017162 -0.031698 -0.042590 -0.048501 -0.048854 -0.043935 -0.034863 -0.023417 -0.011740 -0.001970 0.004139 0.005543 0.002113 -0.005327 -0.015142 -0.025183 -0.033203 -0.037297 -0.036294 -0.030012 -0.019326 -0.006024 0.007523 0.018824 0.025758 0.027015 0.022369 0.012752 0.000080 -0.013114 -0.024177 -0.030873 -0.031824 -0.026788 -0.016700 -0.003462 0.010457 0.022552 0.030806 0.034115 0.032509 0.027123 0.019919 0.013225 0.009184 0.009226 0.013704 0.021749 0.031406 0.040013 0.044761 0.043309 0.034329 0.017867 -0.004569 -0.030215 -0.055517 -0.076762 -0.090759 -0.095429 -0.090177 -0.075991 -0.055227 -0.031142 -0.007258 0.013305 0.028406 0.037237 0.040406 0.039730 0.037775 0.037260 0.040429 0.048531 0.061498 0.077905 0.095188 0.110097 0.119290 0.119944 0.110284 0.089923 0.059970 0.022890 -0.017850 -0.058277 -0.094448 -0.122964 -0.141354 -0.148312 -0.143754 -0.128720 -0.105165 -0.075680 -0.043200 -0.010736 0.018861 0.043077 0.059883 0.067854 0.066275 0.055227 0.035645 0.009326 -0.021146 -0.052572 -0.081416 -0.104181 -0.117832 -0.120223 -0.110451 -0.089070 -0.058115 -0.020913 0.018310 0.054988 0.084843 0.104497 0.111978 0.107009 0.091058 0.067118 0.039246 0.011954 -0.010476 -0.024627 -0.028442 -0.021497 -0.005019 0.018346 0.044971 0.070820 0.092049 0.105553 0.109375 0.102921 0.086967 0.063471 0.035221 0.005406 -0.022843 -0.046864 -0.064775 -0.075654 -0.079571 -0.077490 -0.071059 -0.062326 -0.053426 -0.046277 -0.042319 
hipp_sf_0001_CA1 -0.093142 -0.078241 -0.051090 -0.016428 0.019908 0.052179 0.075872 0.088501 0.089926 0.082117 0.068465 0.052808 0.038430 0.027289 0.019643 0.014170 0.008526 0.000190 -0.012631 -0.030301 -0.051416 -0.072962 -0.090919 -0.101177 -0.100538 -0.087563 -0.063027 -0.029891 0.007242 0.043038 0.072522 0.092056 0.100009 0.096939 0.085256 0.068476 0.050247 0.033408 0.019324 0.007672 -0.003273 -0.015914 -0.032389 -0.053636 -0.078758 -0.104873 -0.127530 -0.141622 -0.142610 -0.127757 -0.097063 -0.053651 -0.003464 0.045710 0.085703 0.109608 0.113249 0.096138 0.061683 0.016591 -0.030435 -0.070426 -0.095943 -0.102544 -0.089609 -0.060352 -0.021025 0.020501 0.056442 0.080722 0.090137 0.084828 0.067977 0.044823 0.021265 0.002389 -0.008705 -0.011518 -0.008051 -0.002056 0.002181 0.001177 -0.006615 -0.020209 -0.036174 -0.049407 -0.054432 -0.046878 -0.024803 0.010509 0.054500 0.100073 0.138999 0.163676 0.168844 0.152866 0.118236 0.071200 0.020525 -0.024320 -0.055174 -0.066946 -0.058722 -0.033968 0.000225 0.034708 0.060289 0.069765 0.059508 0.030270 -0.012995 -0.062227 -0.108036 -0.141755 -0.157310 -0.152492 -0.129361 -0.093695 -0.053636 -0.017838 0.006450 0.014928 0.007087 -0.013831 -0.041725 -0.069147 -0.089074 -0.096516 -0.089593 -0.069845 -0.041712 -0.011336 0.015010 0.032496 0.038906 0.035134 0.024892 0.013695 0.007374 0.010487 0.025017 0.049689 0.080076 0.109518 0.130615 0.136997 0.124920 0.094335 0.049140 -0.003455 -0.054334 -0.094361 -0.116329 -0.116537 -0.095628 -0.058503 -0.013297 0.030364 0.063458 0.079546 0.076220 0.055673 0.024267 -0.008821 -0.033615 -0.041562 -0.027513 0.008972 0.063289 0.126507 0.186993 0.232651 0.253287 0.242664 0.199803 0.129288 0.040508 -0.054009 -0.140842 -0.208070 -0.247340 -0.255245 -0.233750 -0.189617 -0.132977 -0.075331 -0.027388 0.002857 0.011452 -0.000999 -0.029700 -0.066790 -0.103004 -0.129512 -0.139601 -0.129892 -0.100883 -0.056748 -0.004468 0.047528 0.090935 0.119074 0.128040 0.117327 0.089817 0.051178 0.008792 -0.029586 -0.057185 -0.069359 -0.064325 -0.043380 -0.010578 0.028054 0.065627 0.095609 0.112961 0.114976 0.101706 0.075894 0.042456 0.007583 -0.022342 -0.041847 -0.047287 -0.037439 -0.013650 0.020439 0.059560 0.097734 0.129270 0.149668 0.156269 0.148553 0.128045 0.097878 0.062100 0.024896 -0.010139 -0.040531 -0.065169 -0.084234 -0.098858 -0.110604 -0.120900 -0.130561 -0.139501 -0.146714 -0.150499 -0.148900 -0.140233 -0.123596 -0.099223 -0.068621 -0.034432 -0.000064 0.030854 0.055066 0.070225 0.075262 0.070520 0.057635 0.039215 0.018360 -0.001842 -0.018772 -0.030588 -0.036373 -0.036085 -0.030377 -0.020343 -0.007254 0.007653 0.023285 0.038709 0.053100 0.065656 0.075531 0.081842 0.083745 0.080585 0.072086 0.058513 0.040770 0.020378 -0.000676 -0.020205 -0.036154 -0.046939 -0.051714 -0.050508 -0.044203 -0.034349 -0.022853 -0.011612 -0.002164 0.004571 0.008405 0.009833 0.009838 0.009604 0.010203 0.012329 0.016138 0.021234 0.026784 0.031743 0.035117 0.036214 0.034799 0.031147 0.025961 0.020186 0.014776 0.010459 0.007573 0.005999 0.005214 0.004449 0.002909 -0.000001 -0.004494 -0.010310 -0.016742 -0.022762 -0.027239 -0.029176 -0.027943 -0.023433 -0.016137 -0.007103 0.002188 0.010016 0.014647 0.014553 0.008609 -0.003766 -0.022506 -0.046852 -0.075350 -0.105901 -0.135857 -0.162188 -0.181722 -0.191455 -0.188913 -0.172542 -0.142051 -0.098658 -0.045161 0.014212 0.074186 0.129042 0.173355 0.202765 0.214661 0.208624 0.186566 0.152486 0.111885 0.070911 0.035384 0.009871 -0.003033 -0.003062 0.007770 0.025633 0.045666 0.062930 0.073349 0.074446 0.065760 0.048833 0.026813 0.003736 -0.016340 -0.030187 -0.036057 -0.034012 -0.025864 -0.014755 -0.004464 0.001403 0.000183 -0.009289 -0.026424 -0.048989 -0.073535 -0.096057 -0.112747 -0.120685 -0.118354 -0.105866 -0.084893 -0.058324 -0.029729 -0.002751 0.019470 0.034733 0.042010 0.041466 0.034283 0.022361 0.007941 -0.006737 -0.019724 -0.029538 -0.035233 -0.036388 -0.033025 -0.025514 -0.014484 -0.000743 0.014764 0.030998 0.046861 0.061249 0.073121 0.081589 0.085996 
hipp_sf_0002_CA2 -0.669650 -0.610137 -0.498892 -0.350043 -0.181534 -0.012026 0.142084 0.268922 0.362233 0.421205 0.449165 0.451599 0.434071 0.400605 0.352953 0.290907 0.213520 0.120834 0.015558 -0.095851 -0.203137 -0.293377 -0.353132 -0.371182 -0.341196 -0.263695 -0.146733 -0.005057 0.142179 0.274723 0.374876 0.430675 0.437924 0.400602 0.329545 0.239714 0.146659 0.063025 -0.004112 -0.054419 -0.093735 -0.131873 -0.179327 -0.243689 -0.326668 -0.422485 -0.518119 -0.595444 -0.634863 -0.619685 -0.540275 -0.397026 -0.201461 0.024895 0.253696 0.454445 0.599717 0.669937 0.656739 0.564293 0.408373 0.213396 0.008094 -0.179322 -0.325566 -0.415453 -0.443397 -0.413102 -0.335744 -0.227190 -0.104936 0.014601 0.117976 0.195613 0.241802 0.254111 0.232626 0.179380 0.098212 -0.004977 -0.121762 -0.240918 -0.348697 -0.429948 -0.470100 -0.457792 -0.387618 -0.262349 -0.093945 0.097114 0.284348 0.439383 0.536980 0.560029 0.503450 0.376065 0.199878 0.006690 -0.167426 -0.288819 -0.332785 -0.288618 -0.162056 0.025438 0.240533 0.444306 0.599710 0.678716 0.667676 0.569769 0.404048 0.201272 -0.002576 -0.173708 -0.287299 -0.332169 -0.312407 -0.245625 -0.158284 -0.079171 -0.032520 -0.032340 -0.079217 -0.160344 -0.252736 -0.328919 -0.363765 -0.340914 -0.257255 -0.124413 0.033196 0.183351 0.293024 0.335825 0.298247 0.183274 0.010478 -0.187509 -0.371458 -0.503607 -0.555613 -0.514680 -0.386532 -0.194544 0.024811 0.229277 0.379360 0.446325 0.417961 0.300932 0.119246 -0.090797 -0.288074 -0.434924 -0.504502 -0.485675 -0.384499 -0.222055 -0.029225 0.160368 0.317663 0.424087 0.474825 0.478792 0.455374 0.428788 0.421386 0.447503 0.509281 0.595485 0.683611 0.744861 0.750902 0.680890 0.527165 0.298301 0.018725 -0.275119 -0.541353 -0.740674 -0.844145 -0.839146 -0.732220 -0.548189 -0.325672 -0.109869 0.055951 0.138582 0.121033 0.005506 -0.187336 -0.422594 -0.657970 -0.851803 -0.970718 -0.995411 -0.923533 -0.769222 -0.559533 -0.328647 -0.111078 0.064684 0.180886 0.232739 0.227889 0.183435 0.121313 0.063120 0.025537 0.017294 0.038214 0.080410 0.131218 0.177064 0.207338 0.217329 0.209584 0.193400 0.182597 0.192128 0.234300 0.315485 0.434059 0.580020 0.736382 0.882041 0.995520 1.058801 1.060499 0.997751 0.876511 0.710255 0.517436 0.318247 0.131352 -0.028799 -0.153624 -0.240835 -0.293713 -0.319511 -0.327438 -0.326676 -0.324823 -0.326997 -0.335643 -0.350928 -0.371475 -0.395165 -0.419772 -0.443295 -0.463981 -0.480141 -0.489940 -0.491323 -0.482192 -0.460849 -0.426583 -0.380230 -0.324472 -0.263710 -0.203425 -0.149125 -0.105074 -0.073136 -0.052072 -0.037546 -0.022976 -0.001113 0.033945 0.084770 0.149161 0.219704 0.284588 0.329645 0.341316 0.309935 0.232618 0.115027 -0.028525 -0.176850 -0.305340 -0.390531 -0.414883 -0.370771 -0.262773 -0.107636 0.068238 0.233422 0.357375 0.416478 0.398952 0.307582 0.159599 -0.016368 -0.185740 -0.314787 -0.377412 -0.360505 -0.266747 -0.114211 0.067185 0.241708 0.375071 0.441445 0.428742 0.341065 0.197796 0.029522 -0.128356 -0.242965 -0.290696 -0.261926 -0.162720 -0.013194 0.157064 0.315509 0.433633 0.492923 0.488491 0.429633 0.337217 0.238564 0.160980 0.125413 0.141676 0.206264 0.303255 0.408024 0.492917 0.533542 0.514247 0.431523 0.294579 0.122975 -0.058092 -0.223740 -0.355155 -0.443797 -0.493024 -0.516742 -0.535358 -0.569980 -0.636220 -0.739107 -0.870359 -1.008786 -1.123870 -1.181853 -1.153063 -1.018921 -0.777042 -0.443288 -0.050207 0.357921 0.732480 1.028901 1.214355 1.273227 1.209298 1.044293 0.813139 0.557013 0.315624 0.120317 -0.010687 -0.074072 -0.080084 -0.048575 -0.003479 0.032965 0.044952 0.025848 -0.021522 -0.086895 -0.156210 -0.215848 -0.256365 -0.274774 -0.274874 -0.265596 -0.257879 -0.260942 -0.278965 -0.309108 -0.341435 -0.360857 -0.350697 -0.297048 -0.192901 -0.041020 0.145191 0.343133 0.524566 0.660580 0.726978 0.708948 0.604065 0.423000 0.187808 -0.071823 -0.323593 -0.537846 -0.692061 -0.773749 -0.781331 -0.722999 -0.613990 -0.472970 -0.318385 -0.165502 -0.024661 0.099082 0.205083 0.295452 0.373149 0.440391 0.497744 0.544039 0.576991 0.594215 
hipp_sf_0003_DG -0.189183 -0.173692 -0.145000 -0.107201 -0.065350 -0.024450 0.011478 0.040030 0.060621 0.074230 0.082780 0.088326 0.092302 0.095018 0.095558 0.092113 0.082652 0.065752 0.041349 0.011184 -0.021211 -0.051021 -0.073064 -0.082906 -0.077924 -0.058025 -0.025853 0.013612 0.053992 0.088782 0.112667 0.122583 0.118265 0.102152 0.078659 0.053005 0.029868 0.012211 0.000570 -0.007004 -0.014309 -0.025823 -0.045266 -0.074261 -0.111447 -0.152292 -0.189720 -0.215439 -0.221719 -0.203220 -0.158462 -0.090576 -0.007131 0.080970 0.161331 0.222271 0.254956 0.255009 0.223272 0.165572 0.091545 0.012784 -0.059289 -0.115400 -0.149840 -0.161082 -0.151526 -0.126493 -0.092764 -0.057017 -0.024542 0.001532 0.020335 0.032783 0.040686 0.045777 0.048927 0.049790 0.046982 0.038719 0.023722 0.002107 -0.024054 -0.050689 -0.072323 -0.083186 -0.078627 -0.056461 -0.017913 0.032157 0.085848 0.133598 0.166075 0.176190 0.160768 0.121481 0.064776 0.000767 -0.058719 -0.102550 -0.122624 -0.115636 -0.083843 -0.034663 0.020857 0.070375 0.102902 0.111174 0.093241 0.052897 -0.001138 -0.057127 -0.102888 -0.128473 -0.128355 -0.102645 -0.057064 -0.001669 0.051361 0.090418 0.107009 0.097601 0.064357 0.014608 -0.040826 -0.090062 -0.122804 -0.132599 -0.118212 -0.083815 -0.037945 0.008496 0.044772 0.062771 0.058850 0.034645 -0.003343 -0.045261 -0.080206 -0.098761 -0.095204 -0.068899 -0.024527 0.028864 0.079809 0.116925 0.131413 0.119009 0.080958 0.023793 -0.042014 -0.104243 -0.151457 -0.175338 -0.172307 -0.144098 -0.097170 -0.041112 0.013593 0.057934 0.086346 0.097842 0.096067 0.088268 0.083402 0.089827 0.113081 0.154263 0.209380 0.269836 0.323982 0.359420 0.365589 0.336102 0.270339 0.173951 0.058153 -0.062085 -0.170609 -0.252925 -0.298784 -0.304010 -0.271230 -0.209374 -0.132045 -0.055060 0.006362 0.040275 0.040037 0.005363 -0.057766 -0.138305 -0.222205 -0.294938 -0.344035 -0.361181 -0.343516 -0.293936 -0.220389 -0.134316 -0.048549 0.024942 0.077044 0.102900 0.102495 0.080342 0.044379 0.004296 -0.030362 -0.051981 -0.056199 -0.042557 -0.014355 0.022211 0.059471 0.089955 0.107991 0.110917 0.099670 0.078623 0.054726 0.036091 0.030319 0.042879 0.075878 0.127451 0.191906 0.260616 0.323481 0.370691 0.394466 0.390428 0.358359 0.302191 0.229248 0.148882 0.070776 0.003244 -0.048154 -0.081409 -0.098149 -0.103008 -0.102427 -0.103143 -0.110684 -0.128174 -0.155674 -0.190201 -0.226388 -0.257649 -0.277590 -0.281382 -0.266804 -0.234757 -0.189142 -0.136151 -0.083095 -0.037047 -0.003531 0.014449 0.016883 0.006639 -0.011200 -0.030409 -0.044873 -0.049785 -0.042554 -0.023268 0.005375 0.038621 0.070596 0.095430 0.108359 0.106611 0.089918 0.060583 0.023091 -0.016638 -0.052238 -0.077944 -0.089533 -0.085005 -0.064904 -0.032241 0.007975 0.049507 0.085853 0.111249 0.121569 0.114977 0.092238 0.056628 0.013466 -0.030696 -0.069077 -0.095738 -0.106537 -0.099811 -0.076673 -0.040859 0.001867 0.044659 0.080725 0.104475 0.112474 0.104023 0.081270 0.048813 0.012876 -0.019805 -0.043174 -0.052908 -0.047135 -0.026688 0.005141 0.043293 0.081921 0.115471 0.139636 0.152005 0.152306 0.142196 0.124699 0.103426 0.081763 0.062209 0.046016 0.033159 0.022641 0.013003 0.002892 -0.008480 -0.021108 -0.034272 -0.046884 -0.057997 -0.067333 -0.075632 -0.084708 -0.097129 -0.115569 -0.141951 -0.176592 -0.217575 -0.260550 -0.299085 -0.325558 -0.332486 -0.314019 -0.267325 -0.193539 -0.098054 0.009978 0.118884 0.216256 0.290960 0.334993 0.344833 0.321997 0.272700 0.206672 0.135360 0.069868 0.019032 -0.011988 -0.022358 -0.015331 0.002765 0.024111 0.041167 0.048282 0.042796 0.025422 -0.000127 -0.028176 -0.052500 -0.067826 -0.071041 -0.061873 -0.042902 -0.018898 0.004325 0.021284 0.028117 0.023480 0.008868 -0.011709 -0.032641 -0.047989 -0.052854 -0.044536 -0.023232 0.007876 0.043167 0.075637 0.098264 0.105385 0.093837 0.063605 0.017902 -0.037359 -0.094563 -0.145678 -0.183572 -0.203133 -0.202004 -0.180821 -0.142954 -0.093825 -0.039938 0.012176 0.056943 0.090483 0.111034 0.118988 0.116606 0.107449 0.095658 0.085188 0.079114 
hipp_sf_0004_CA3 -0.465177 -0.398975 -0.275154 -0.109589 0.076931 0.261743 0.423523 0.545135 0.615695 0.631546 0.596080 0.518502 0.411852 0.290648 0.168606 0.056781 -0.037594 -0.111463 -0.165546 -0.203338 -0.229790 -0.249926 -0.267677 -0.285106 -0.302119 -0.316662 -0.325309 -0.324114 -0.309532 -0.279280 -0.232972 -0.172466 -0.101856 -0.027118 0.044534 0.105533 0.148960 0.169543 0.164526 0.134275 0.082498 0.016012 -0.055960 -0.122924 -0.174543 -0.202172 -0.200258 -0.167377 -0.106691 -0.025707 0.064665 0.151649 0.222503 0.266474 0.276473 0.250189 0.190426 0.104619 0.003612 -0.100078 -0.194182 -0.268446 -0.315947 -0.333739 -0.322788 -0.287272 -0.233457 -0.168426 -0.098941 -0.030651 0.032237 0.086850 0.131241 0.163887 0.183312 0.188006 0.176705 0.148971 0.105907 0.050753 -0.010871 -0.071271 -0.121571 -0.153114 -0.159104 -0.136158 -0.085382 -0.012683 0.071863 0.155537 0.225151 0.269483 0.281448 0.259559 0.208324 0.137447 0.059963 -0.010346 -0.061706 -0.086715 -0.083790 -0.057364 -0.016784 0.025874 0.058613 0.072313 0.062913 0.032457 -0.011245 -0.056301 -0.089417 -0.099006 -0.078025 -0.025913 0.050843 0.139677 0.224283 0.287858 0.316580 0.302571 0.245721 0.153940 0.041793 -0.072263 -0.169434 -0.234253 -0.257562 -0.238229 -0.183239 -0.106169 -0.024365 0.044573 0.086270 0.092310 0.061688 0.000716 -0.078539 -0.160919 -0.231348 -0.277832 -0.293673 -0.278472 -0.237771 -0.181474 -0.121455 -0.068906 -0.032021 -0.014488 -0.015099 -0.028483 -0.046740 -0.061563 -0.066310 -0.057564 -0.035813 -0.005115 0.028139 0.057054 0.076197 0.083220 0.079726 0.071158 0.065691 0.072358 0.098816 0.149230 0.222779 0.313128 0.409053 0.496127 0.559188 0.585118 0.565397 0.497926 0.387745 0.246479 0.090587 -0.061286 -0.191384 -0.285789 -0.336709 -0.343703 -0.313617 -0.259257 -0.197026 -0.143971 -0.114738 -0.118993 -0.159737 -0.232811 -0.327645 -0.429126 -0.520222 -0.584920 -0.610947 -0.591824 -0.527913 -0.426289 -0.299505 -0.163469 -0.034834 0.071642 0.145314 0.181091 0.179868 0.147955 0.095621 0.035095 -0.021608 -0.064614 -0.087551 -0.088124 -0.067870 -0.031207 0.015958 0.067727 0.119496 0.168733 0.215135 0.260150 0.306034 0.354694 0.406629 0.460250 0.511759 0.555651 0.585725 0.596393 0.583968 0.547639 0.489871 0.416129 0.333951 0.251564 0.176340 0.113424 0.064853 0.029360 0.002908 -0.020163 -0.045643 -0.077953 -0.118988 -0.167585 -0.219730 -0.269467 -0.310311 -0.336813 -0.345927 -0.337841 -0.316066 -0.286747 -0.257346 -0.234984 -0.224830 -0.228906 -0.245583 -0.269907 -0.294662 -0.311957 -0.314962 -0.299395 -0.264446 -0.212907 -0.150524 -0.084706 -0.022941 0.028732 0.066811 0.090745 0.102596 0.106055 0.105095 0.102625 0.099517 0.094271 0.083441 0.062732 0.028491 -0.020779 -0.083304 -0.153655 -0.223265 -0.281792 -0.319089 -0.327339 -0.302890 -0.247329 -0.167517 -0.074521 0.018385 0.098239 0.154912 0.183083 0.183241 0.161483 0.128148 0.095572 0.075445 0.076344 0.101961 0.150399 0.214658 0.284195 0.347180 0.392946 0.414103 0.407871 0.376380 0.325932 0.265434 0.204410 0.151059 0.110776 0.085455 0.073642 0.071433 0.073825 0.076134 0.075109 0.069485 0.059870 0.048055 0.036016 0.024915 0.014442 0.002709 -0.013239 -0.036433 -0.068787 -0.110055 -0.157291 -0.205032 -0.246238 -0.273818 -0.282406 -0.269918 -0.238483 -0.194430 -0.147243 -0.107658 -0.085279 -0.086270 -0.111662 -0.156739 -0.211704 -0.263560 -0.298814 -0.306451 -0.280465 -0.221379 -0.136339 -0.037715 0.059504 0.140981 0.196207 0.220850 0.217702 0.195963 0.168977 0.150913 0.153131 0.181094 0.232564 0.297571 0.360230 0.402079 0.406221 0.361373 0.264904 0.124129 -0.044474 -0.218042 -0.371545 -0.482584 -0.535750 -0.525624 -0.457762 -0.347471 -0.216613 -0.089146 0.013668 0.077347 0.096746 0.076547 0.029664 -0.026063 -0.072096 -0.093415 -0.081787 -0.037413 0.031366 0.110182 0.182027 0.231135 0.246477 0.224099 0.167837 0.088303 0.000433 -0.079787 -0.138675 -0.167529 -0.164069 -0.132416 -0.081674 -0.023565 0.030320 0.070967 0.093566 0.097998 0.088177 0.070501 0.051889 0.037928 0.031598 0.032864 0.039173 0.046630 0.051490 
hipp_sf_0005_HEAD NaN NaN NaN NaN NaN NaN NaN NaN NaN NaN NaN NaN NaN NaN NaN NaN NaN NaN NaN NaN NaN NaN NaN NaN NaN NaN NaN NaN NaN NaN NaN NaN NaN NaN NaN NaN NaN NaN NaN NaN NaN NaN NaN NaN NaN NaN NaN NaN NaN NaN NaN NaN NaN NaN NaN NaN NaN NaN NaN NaN NaN NaN NaN NaN NaN NaN NaN NaN NaN NaN NaN NaN NaN NaN NaN NaN NaN NaN NaN NaN NaN NaN NaN NaN NaN NaN NaN NaN NaN NaN NaN NaN NaN NaN NaN NaN NaN NaN NaN NaN NaN NaN NaN NaN NaN NaN NaN NaN NaN NaN NaN NaN NaN NaN NaN NaN NaN NaN NaN NaN NaN NaN NaN NaN NaN NaN NaN NaN NaN NaN NaN NaN NaN NaN NaN NaN NaN NaN NaN NaN NaN NaN NaN NaN NaN NaN NaN NaN NaN NaN NaN NaN NaN NaN NaN NaN NaN NaN NaN NaN NaN NaN NaN NaN NaN NaN NaN NaN NaN NaN NaN NaN NaN NaN NaN NaN NaN NaN NaN NaN NaN NaN NaN NaN NaN NaN NaN NaN NaN NaN NaN NaN NaN NaN NaN NaN NaN NaN NaN NaN NaN NaN NaN NaN NaN NaN NaN NaN NaN NaN NaN NaN NaN NaN NaN NaN NaN NaN NaN NaN NaN NaN NaN NaN NaN NaN NaN NaN NaN NaN NaN NaN NaN NaN NaN NaN NaN NaN NaN NaN NaN NaN NaN NaN NaN NaN NaN NaN NaN NaN NaN NaN NaN NaN NaN NaN NaN NaN NaN NaN NaN NaN NaN NaN NaN NaN NaN NaN NaN NaN NaN NaN NaN NaN NaN NaN NaN NaN NaN NaN NaN NaN NaN NaN NaN NaN NaN NaN NaN NaN NaN NaN NaN NaN NaN NaN NaN NaN NaN NaN NaN NaN NaN NaN NaN NaN NaN NaN NaN NaN NaN NaN NaN NaN NaN NaN NaN NaN NaN NaN NaN NaN NaN NaN NaN NaN NaN NaN NaN NaN NaN NaN NaN NaN NaN NaN NaN NaN NaN NaN NaN NaN NaN NaN NaN NaN NaN NaN NaN NaN NaN NaN NaN NaN NaN NaN NaN NaN NaN NaN NaN NaN NaN NaN NaN NaN NaN NaN NaN NaN NaN NaN NaN NaN NaN NaN NaN NaN NaN NaN NaN NaN NaN NaN NaN NaN NaN NaN NaN NaN NaN NaN NaN NaN NaN NaN NaN NaN NaN NaN NaN NaN NaN NaN NaN NaN NaN NaN NaN NaN NaN NaN NaN NaN NaN NaN NaN NaN NaN NaN 
hipp_sf_0006_TAIL -0.205224 -0.152188 -0.056328 0.063937 0.185599 0.285557 0.345109 0.353546 0.310137 0.224123 0.112739 -0.002331 -0.099348 -0.160876 -0.177237 -0.148385 -0.083830 -0.000650 0.080007 0.137227 0.154583 0.123499 0.045075 -0.069965 -0.203194 -0.331867 -0.433114 -0.488135 -0.485611 -0.423697 -0.310277 -0.161458 0.001338 0.155139 0.279293 0.358764 0.386278 0.363001 0.297706 0.204702 0.100965 0.003061 -0.075558 -0.126436 -0.146896 -0.139693 -0.111727 -0.072159 -0.030357 0.005883 0.031549 0.044851 0.046920 0.040910 0.030782 0.020089 0.011050 0.004105 -0.001981 -0.009524 -0.021015 -0.038157 -0.061078 -0.087934 -0.115013 -0.137316 -0.149522 -0.147117 -0.127449 -0.090488 -0.039107 0.021174 0.082964 0.138160 0.179265 0.200648 0.199500 0.176326 0.134874 0.081532 0.024288 -0.028558 -0.069709 -0.093984 -0.099066 -0.085746 -0.057654 -0.020531 0.018824 0.053745 0.078818 0.090747 0.088822 0.074920 0.053046 0.028503 0.006841 -0.007228 -0.010756 -0.003161 0.013608 0.035380 0.056495 0.070844 0.073025 0.059434 0.029064 -0.016117 -0.071300 -0.129478 -0.182487 -0.222302 -0.242335 -0.238544 -0.210142 -0.159776 -0.093157 -0.018186 0.056264 0.121707 0.171298 0.200793 0.209036 0.197915 0.171824 0.136735 0.099074 0.064612 0.037567 0.020068 0.012055 0.011602 0.015558 0.020362 0.022853 0.020899 0.013753 0.002056 -0.012466 -0.027530 -0.040913 -0.051016 -0.057241 -0.060118 -0.061145 -0.062402 -0.066028 -0.073676 -0.086082 -0.102827 -0.122343 -0.142167 -0.159362 -0.171032 -0.174810 -0.169236 -0.153934 -0.129598 -0.097779 -0.060553 -0.020141 0.021429 0.062544 0.102097 0.139409 0.174054 0.205613 0.233447 0.256545 0.273479 0.282512 0.281817 0.269781 0.245351 0.208330 0.159608 0.101245 0.036420 -0.030782 -0.095707 -0.153570 -0.199939 -0.231223 -0.245087 -0.240772 -0.219246 -0.183172 -0.136673 -0.084909 -0.033495 0.012159 0.047524 0.069517 0.076890 0.070348 0.052378 0.026789 -0.001958 -0.029532 -0.052470 -0.068749 -0.078055 -0.081707 -0.082223 -0.082615 -0.085563 -0.092629 -0.103701 -0.116802 -0.128333 -0.133723 -0.128376 -0.108725 -0.073174 -0.022710 0.038961 0.105816 0.170409 0.225092 0.263330 0.280853 0.276408 0.251950 0.212234 0.163887 0.114153 0.069569 0.034850 0.012202 0.001197 -0.000784 0.002324 0.006370 0.008044 0.005629 -0.000710 -0.009173 -0.017015 -0.021514 -0.020930 -0.015221 -0.006280 0.002383 0.006462 0.002013 -0.013337 -0.039450 -0.073253 -0.109005 -0.139249 -0.156286 -0.153886 -0.128839 -0.082014 -0.018627 0.052377 0.119763 0.171999 0.199410 0.196060 0.160963 0.098361 0.016990 -0.071509 -0.154720 -0.221685 -0.264788 -0.280895 -0.271569 -0.242318 -0.201098 -0.156433 -0.115568 -0.083077 -0.060227 -0.045182 -0.033976 -0.021963 -0.005365 0.017481 0.045513 0.075107 0.100993 0.117681 0.121035 0.109577 0.085170 0.052860 0.019887 -0.005947 -0.018162 -0.013295 0.008045 0.041039 0.077545 0.107846 0.122899 0.116580 0.087398 0.039248 -0.019024 -0.075193 -0.116094 -0.130393 -0.111102 -0.057280 0.025491 0.125979 0.229385 0.320182 0.385140 0.415858 0.410272 0.372808 0.313144 0.243871 0.177575 0.123999 0.087928 0.068278 0.058593 0.048849 0.028139 -0.012368 -0.076887 -0.163495 -0.264013 -0.365342 -0.452004 -0.509345 -0.526693 -0.499786 -0.431906 -0.333469 -0.220108 -0.109673 -0.018748 0.040549 0.062833 0.050289 0.011935 -0.038526 -0.085786 -0.116268 -0.121004 -0.097445 -0.049839 0.011876 0.074398 0.124074 0.149932 0.146092 0.113037 0.057503 -0.008951 -0.072361 -0.119232 -0.139237 -0.127203 -0.083996 -0.016171 0.065471 0.148067 0.219123 0.268681 0.290816 0.284214 0.251826 0.199770 0.135823 0.067879 0.002716 -0.054691 -0.101273 -0.135466 -0.156559 -0.164056 -0.157298 -0.135506 -0.098236 -0.046108 0.018434 0.090619 0.163347 0.227811 0.274722 0.295922 0.286083 0.244089 0.173776 0.083776 -0.013570 -0.104095 -0.174144 -0.212947 -0.214548 -0.178913 -0.111997 -0.024734 0.068844 0.154004 0.217766 0.250967 0.249562 0.214970 0.153470 0.074806 -0.009664 -0.088900 -0.153852 -0.198582 -0.220723 -0.221294 -0.204004 -0.174274 -0.138207 -0.101697 -0.069806 -0.046410 -0.034078 
hipp_sf_0007_MISC -0.061238 -0.052737 -0.037129 -0.016933 0.004687 0.024512 0.039850 0.048990 0.051438 0.047901 0.040029 0.029987 0.019948 0.011636 0.005992 0.003054 0.002045 0.001652 0.000410 -0.002888 -0.008860 -0.017349 -0.027423 -0.037550 -0.045910 -0.050760 -0.050792 -0.045392 -0.034763 -0.019898 -0.002410 0.015726 0.032466 0.045982 0.054865 0.058260 0.055897 0.048057 0.035484 0.019283 0.000812 -0.018423 -0.036859 -0.052978 -0.065419 -0.073099 -0.075342 -0.071978 -0.063407 -0.050577 -0.034883 -0.017976 -0.001511 0.013118 0.025006 0.033874 0.040071 0.044447 0.048094 0.052035 0.056908 0.062745 0.068886 0.074079 0.076742 0.075339 0.068792 0.056821 0.040124 0.020347 -0.000180 -0.018887 -0.033502 -0.042564 -0.045784 -0.044170 -0.039847 -0.035613 -0.034304 -0.038099 -0.047917 -0.063062 -0.081203 -0.098717 -0.111361 -0.115129 -0.107141 -0.086363 -0.054005 -0.013485 0.030046 0.070550 0.102167 0.120293 0.122465 0.108859 0.082322 0.047890 0.011909 -0.019106 -0.039637 -0.046148 -0.037695 -0.016061 0.014615 0.048632 0.079791 0.102521 0.112862 0.109126 0.092126 0.064937 0.032260 -0.000488 -0.028179 -0.046886 -0.054550 -0.051277 -0.039240 -0.022211 -0.004830 0.008260 0.013250 0.007833 -0.008406 -0.033928 -0.065504 -0.098749 -0.128832 -0.151230 -0.162411 -0.160341 -0.144746 -0.117090 -0.080304 -0.038305 0.004599 0.044317 0.077509 0.101948 0.116692 0.122018 0.119185 0.110062 0.096704 0.080983 0.064314 0.047555 0.031062 0.014888 -0.000942 -0.016164 -0.030090 -0.041575 -0.049155 -0.051342 -0.047014 -0.035812 -0.018435 0.003262 0.026412 0.047535 0.063129 0.070345 0.067613 0.055059 0.034627 0.009824 -0.014869 -0.034831 -0.046218 -0.046777 -0.036369 -0.017084 0.007100 0.031074 0.049612 0.058454 0.055213 0.039917 0.015057 -0.014890 -0.044362 -0.067865 -0.081116 -0.081942 -0.070722 -0.050268 -0.025180 -0.000789 0.018054 0.028085 0.028357 0.020436 0.007992 -0.004127 -0.011130 -0.009547 0.001778 0.021219 0.044546 0.065757 0.078380 0.076984 0.058560 0.023439 -0.024464 -0.078183 -0.128919 -0.167718 -0.187250 -0.183325 -0.155820 -0.108788 -0.049741 0.011785 0.066064 0.105052 0.123898 0.121792 0.101965 0.070871 0.036724 0.007719 -0.009682 -0.012045 0.000445 0.024178 0.053052 0.079910 0.098145 0.103138 0.093197 0.069823 0.037272 0.001527 -0.031053 -0.055104 -0.067332 -0.067070 -0.056224 -0.038634 -0.019058 -0.002009 0.009252 0.013352 0.010924 0.004224 -0.003647 -0.009686 -0.011859 -0.009668 -0.004270 0.001860 0.005659 0.004373 -0.003591 -0.018091 -0.037108 -0.057093 -0.073716 -0.082848 -0.081544 -0.068785 -0.045788 -0.015820 0.016469 0.046027 0.068475 0.081019 0.083003 0.075953 0.063131 0.048692 0.036660 0.029956 0.029721 0.035079 0.043393 0.050956 0.053922 0.049273 0.035569 0.013316 -0.015136 -0.046137 -0.075568 -0.099773 -0.116338 -0.124546 -0.125395 -0.121179 -0.114756 -0.108692 -0.104498 -0.102179 -0.100195 -0.095875 -0.086159 -0.068514 -0.041755 -0.006590 0.034295 0.076635 0.115394 0.145816 0.164455 0.169952 0.163354 0.147899 0.128282 0.109593 0.096132 0.090410 0.092552 0.100256 0.109327 0.114676 0.111550 0.096720 0.069352 0.031349 -0.012914 -0.057421 -0.095718 -0.122239 -0.133448 -0.128561 -0.109677 -0.081310 -0.049421 -0.020178 0.001282 0.011820 0.010800 0.000020 -0.016862 -0.035280 -0.050839 -0.060275 -0.062088 -0.056717 -0.046242 -0.033727 -0.022373 -0.014706 -0.012004 -0.014094 -0.019550 -0.026228 -0.031970 -0.035301 -0.035903 -0.034744 -0.033827 -0.035602 -0.042199 -0.054678 -0.072506 -0.093396 -0.113594 -0.128549 -0.133857 -0.126231 -0.104312 -0.069101 -0.023906 0.026191 0.075252 0.117583 0.148796 0.166588 0.171082 0.164667 0.151362 0.135880 0.122569 0.114497 0.112843 0.116740 0.123585 0.129713 0.131301 0.125265 0.109980 0.085647 0.054260 0.019183 -0.015532 -0.045957 -0.069014 -0.082993 -0.087746 -0.084563 -0.075760 -0.064115 -0.052279 -0.042298 -0.035332 -0.031613 -0.030619 -0.031386 -0.032857 -0.034186 -0.034908 -0.034957 -0.034549 -0.033984 -0.033435 -0.032810 -0.031720 -0.029572 -0.025756 -0.019876 -0.011942 -0.002471 0.007542 0.016791 0.023915 0.027794 
hipp_sf_0008_SUB -0.286963 -0.253841 -0.192425 -0.111487 -0.022164 0.064003 0.136998 0.189863 0.219537 0.226886 0.215958 0.192694 0.163403 0.133357 0.105812 0.081642 0.059626 0.037266 0.011895 -0.018215 -0.053038 -0.090471 -0.126578 -0.156340 -0.174726 -0.177817 -0.163735 -0.133143 -0.089226 -0.037155 0.016821 0.066453 0.106489 0.133391 0.145642 0.143622 0.129141 0.104782 0.073251 0.036910 -0.002419 -0.043335 -0.084535 -0.124397 -0.160661 -0.190336 -0.209921 -0.215927 -0.205588 -0.177613 -0.132752 -0.074050 -0.006651 0.062809 0.127146 0.179707 0.215374 0.231280 0.227111 0.204936 0.168637 0.123089 0.073287 0.023620 -0.022557 -0.063015 -0.096426 -0.121970 -0.138929 -0.146454 -0.143596 -0.129636 -0.104628 -0.069970 -0.028810 0.013917 0.051937 0.078561 0.087956 0.076492 0.043870 -0.006296 -0.066644 -0.127051 -0.176320 -0.204277 -0.203855 -0.172740 -0.114158 -0.036606 0.047510 0.124101 0.180066 0.205884 0.197562 0.157547 0.094337 0.020879 -0.047982 -0.098458 -0.120595 -0.110281 -0.070052 -0.008541 0.061348 0.125138 0.169803 0.186471 0.172238 0.130728 0.071274 0.006912 -0.048382 -0.082610 -0.088232 -0.063663 -0.013518 0.052451 0.121447 0.180303 0.218146 0.228508 0.210432 0.168393 0.111092 0.049416 -0.005947 -0.046724 -0.068622 -0.071935 -0.061105 -0.043392 -0.026979 -0.018989 -0.023837 -0.042314 -0.071544 -0.105822 -0.138074 -0.161600 -0.171663 -0.166577 -0.148034 -0.120633 -0.090730 -0.064912 -0.048445 -0.044079 -0.051477 -0.067384 -0.086499 -0.102811 -0.111091 -0.108171 -0.093716 -0.070292 -0.042727 -0.016903 0.001740 0.009625 0.006069 -0.006349 -0.022174 -0.034158 -0.034824 -0.018181 0.018783 0.075135 0.145811 0.222238 0.293698 0.349160 0.379246 0.377960 0.343849 0.280378 0.195441 0.100109 0.006822 -0.072641 -0.129059 -0.157220 -0.156665 -0.131639 -0.090244 -0.042981 -0.000915 0.026203 0.031564 0.012412 -0.029549 -0.088483 -0.155435 -0.219847 -0.271328 -0.301386 -0.304834 -0.280642 -0.232108 -0.166295 -0.092855 -0.022409 0.035224 0.072667 0.086197 0.076323 0.047633 0.007909 -0.033310 -0.066483 -0.083809 -0.080639 -0.056295 -0.014132 0.039166 0.094934 0.144247 0.179694 0.196839 0.195084 0.177746 0.151332 0.124145 0.104491 0.098876 0.110532 0.138613 0.178222 0.221295 0.258165 0.279503 0.278244 0.251103 0.199366 0.128775 0.048534 -0.030391 -0.097328 -0.143914 -0.165646 -0.162690 -0.139751 -0.105074 -0.068747 -0.040682 -0.028658 -0.036832 -0.064991 -0.108691 -0.160233 -0.210253 -0.249609 -0.271169 -0.271151 -0.249767 -0.211057 -0.161977 -0.110959 -0.066221 -0.034202 -0.018398 -0.018821 -0.032164 -0.052598 -0.073023 -0.086505 -0.087622 -0.073457 -0.044082 -0.002458 0.046181 0.095332 0.138390 0.169778 0.185819 0.185249 0.169273 0.141232 0.105931 0.068800 0.035010 0.008711 -0.007523 -0.012960 -0.008687 0.002692 0.017552 0.031873 0.041896 0.044709 0.038709 0.023847 0.001657 -0.024966 -0.052195 -0.075861 -0.092115 -0.098065 -0.092288 -0.075116 -0.048645 -0.016438 0.017031 0.047125 0.069852 0.082579 0.084546 0.077040 0.063207 0.047508 0.034917 0.029989 0.035978 0.054166 0.083529 0.120813 0.160999 0.198091 0.226068 0.239846 0.236069 0.213620 0.173753 0.119870 0.056987 -0.008989 -0.072048 -0.126807 -0.169071 -0.196196 -0.207222 -0.202827 -0.185141 -0.157475 -0.124002 -0.089422 -0.058584 -0.036077 -0.025772 -0.030340 -0.050789 -0.086092 -0.133020 -0.186241 -0.238762 -0.282713 -0.310391 -0.315437 -0.293950 -0.245319 -0.172601 -0.082317 0.016352 0.112866 0.196925 0.260086 0.297101 0.306718 0.291767 0.258510 0.215359 0.171203 0.133673 0.107692 0.094592 0.092002 0.094517 0.095029 0.086437 0.063390 0.023691 -0.030932 -0.094878 -0.159536 -0.214818 -0.251052 -0.260870 -0.240705 -0.191608 -0.119212 -0.032849 0.056012 0.135698 0.196283 0.231177 0.238074 0.219108 0.180205 0.129801 0.077187 0.030807 -0.003162 -0.021706 -0.025210 -0.017032 -0.002544 0.012137 0.021456 0.021526 0.010811 -0.009694 -0.036804 -0.065885 -0.091835 -0.110098 -0.117517 -0.112863 -0.096986 -0.072566 -0.043550 -0.014386 0.010774 0.028780 0.037963 0.038321 0.031410 0.019953 0.007268 -0.003383 -0.009419 
hipp_sf_0009_ERC -0.050452 -0.042610 -0.027147 -0.004619 0.023891 0.056600 0.090958 0.123754 0.151426 0.170555 0.178441 0.173651 0.156397 0.128640 0.093852 0.056470 0.021116 -0.008245 -0.029056 -0.040635 -0.044262 -0.042850 -0.040254 -0.040366 -0.046188 -0.059092 -0.078438 -0.101639 -0.124681 -0.142979 -0.152397 -0.150194 -0.135698 -0.110536 -0.078375 -0.044209 -0.013350 0.009662 0.021985 0.023050 0.014629 0.000410 -0.014854 -0.026417 -0.030611 -0.025661 -0.012085 0.007425 0.028610 0.046599 0.057005 0.056916 0.045567 0.024539 -0.002544 -0.030771 -0.054965 -0.070760 -0.075494 -0.068731 -0.052309 -0.029911 -0.006258 0.013883 0.026669 0.029922 0.023490 0.009169 -0.009776 -0.029363 -0.045748 -0.055989 -0.058556 -0.053496 -0.042245 -0.027155 -0.010872 0.004280 0.016759 0.026012 0.032389 0.036829 0.040396 0.043826 0.047193 0.049814 0.050398 0.047438 0.039705 0.026751 0.009250 -0.010907 -0.030828 -0.047102 -0.056471 -0.056538 -0.046349 -0.026719 -0.000208 0.029265 0.057094 0.078826 0.090996 0.091777 0.081330 0.061774 0.036780 0.010891 -0.011307 -0.025992 -0.030729 -0.024809 -0.009246 0.013539 0.040264 0.067427 0.091912 0.111436 0.124766 0.131683 0.132744 0.128922 0.121215 0.110351 0.096633 0.079967 0.060043 0.036615 0.009787 -0.019769 -0.050729 -0.081213 -0.109015 -0.131950 -0.148218 -0.156721 -0.157254 -0.150532 -0.138064 -0.121880 -0.104202 -0.087106 -0.072240 -0.060668 -0.052817 -0.048552 -0.047319 -0.048319 -0.050664 -0.053491 -0.056013 -0.057526 -0.057389 -0.055020 -0.049919 -0.041739 -0.030386 -0.016125 0.000347 0.017908 0.035110 0.050371 0.062249 0.069724 0.072439 0.070833 0.066118 0.060089 0.054787 0.052079 0.053236 0.058604 0.067450 0.078022 0.087829 0.094101 0.094335 0.086815 0.071008 0.047739 0.019115 -0.011813 -0.041557 -0.066795 -0.084933 -0.094514 -0.095403 -0.088717 -0.076508 -0.061299 -0.045553 -0.031214 -0.019399 -0.010306 -0.003348 0.002527 0.008435 0.015147 0.022804 0.030810 0.037928 0.042575 0.043223 0.038820 0.029137 0.014930 -0.002106 -0.019599 -0.034922 -0.045691 -0.050219 -0.047845 -0.039048 -0.025333 -0.008920 0.007708 0.022289 0.033187 0.039653 0.041875 0.040823 0.037940 0.034745 0.032467 0.031771 0.032658 0.034544 0.036489 0.037518 0.036939 0.034578 0.030857 0.026707 0.023314 0.021777 0.022759 0.026222 0.031322 0.036517 0.039850 0.039380 0.033657 0.022117 0.005330 -0.014995 -0.036250 -0.055381 -0.069458 -0.076264 -0.074757 -0.065323 -0.049748 -0.030918 -0.012301 0.002692 0.011328 0.012037 0.004672 -0.009513 -0.028142 -0.048190 -0.066554 -0.080576 -0.088452 -0.089416 -0.083709 -0.072353 -0.056810 -0.038618 -0.019106 0.000745 0.020282 0.039008 0.056341 0.071394 0.082859 0.089068 0.088252 0.078949 0.060482 0.033383 -0.000362 -0.037350 -0.073119 -0.102791 -0.121922 -0.127372 -0.118031 -0.095223 -0.062665 -0.025953 0.008370 0.033998 0.046096 0.042318 0.023400 -0.006811 -0.041947 -0.074224 -0.095887 -0.100712 -0.085276 -0.049733 0.002065 0.063164 0.124708 0.177530 0.213838 0.228658 0.220757 0.192857 0.151083 0.103769 0.059823 0.027001 0.010411 0.011548 0.028054 0.054239 0.082265 0.103746 0.111452 0.100763 0.070598 0.023639 -0.034190 -0.094870 -0.149818 -0.191492 -0.214747 -0.217684 -0.201820 -0.171594 -0.133311 -0.093772 -0.058883 -0.032538 -0.015982 -0.007803 -0.004491 -0.001460 0.005729 0.020207 0.042951 0.072439 0.104872 0.134907 0.156746 0.165336 0.157439 0.132344 0.092081 0.041115 -0.014419 -0.067763 -0.112648 -0.144262 -0.159892 -0.159136 -0.143704 -0.116868 -0.082735 -0.045492 -0.008803 0.024556 0.052772 0.074839 0.090258 0.098719 0.099896 0.093415 0.079026 0.056920 0.028080 -0.005452 -0.040522 -0.073094 -0.098774 -0.113554 -0.114619 -0.101073 -0.074367 -0.038328 0.001283 0.037637 0.063985 0.074893 0.067309 0.041262 0.000019 -0.050332 -0.101832 -0.145958 -0.175052 -0.183618 -0.169230 -0.132914 -0.078919 -0.013958 0.053946 0.116766 0.167701 0.202101 0.217945 0.215837 0.198542 0.170225 0.135554 0.098861 0.063522 0.031642 0.004068 -0.019338 -0.039267 -0.056513 -0.071609 -0.084644 -0.095275 -0.102899 -0.106900 
hipp_sf_0010_BA35 0.001916 0.008545 0.020388 0.034898 0.048903 0.059246 0.063423 0.060100 0.049406 0.032937 0.013474 -0.005539 -0.020660 -0.029122 -0.029393 -0.021505 -0.007090 0.010887 0.028661 0.042353 0.048700 0.045666 0.032850 0.011583 -0.015288 -0.043888 -0.069994 -0.089768 -0.100412 -0.100621 -0.090759 -0.072722 -0.049536 -0.024762 -0.001838 0.016522 0.028747 0.034580 0.034982 0.031794 0.027247 0.023429 0.021825 0.023022 0.026645 0.031511 0.035968 0.038328 0.037283 0.032217 0.023326 0.011540 -0.001740 -0.015017 -0.027082 -0.037318 -0.045817 -0.053312 -0.060893 -0.069618 -0.080080 -0.092084 -0.104505 -0.115396 -0.122346 -0.123019 -0.115753 -0.100078 -0.077012 -0.049040 -0.019744 0.006876 0.027236 0.039012 0.041763 0.037193 0.028945 0.021914 0.021216 0.030981 0.053246 0.087190 0.128918 0.171906 0.208050 0.229181 0.228743 0.203320 0.153673 0.085029 0.006532 -0.070128 -0.132666 -0.170401 -0.176292 -0.148395 -0.090465 -0.011523 0.075544 0.156125 0.216390 0.245690 0.238416 0.194970 0.121656 0.029538 -0.067533 -0.155341 -0.221718 -0.258503 -0.262713 -0.236727 -0.187500 -0.125010 -0.060258 -0.003251 0.038669 0.061838 0.066484 0.056165 0.036614 0.014280 -0.005105 -0.017636 -0.021810 -0.018498 -0.010382 -0.001037 0.006097 0.008594 0.005581 -0.002179 -0.012624 -0.023048 -0.030882 -0.034377 -0.033035 -0.027670 -0.020105 -0.012601 -0.007181 -0.005034 -0.006170 -0.009409 -0.012721 -0.013824 -0.010868 -0.003037 0.009117 0.023702 0.037889 0.048595 0.053283 0.050676 0.041177 0.026891 0.011204 -0.001998 -0.009286 -0.008591 0.000170 0.014921 0.031784 0.045894 0.052518 0.048207 0.031722 0.004501 -0.029481 -0.064432 -0.093919 -0.112242 -0.115694 -0.103421 -0.077676 -0.043381 -0.007099 0.024379 0.045507 0.053194 0.047454 0.031368 0.010337 -0.009188 -0.021223 -0.021648 -0.009174 0.014365 0.044458 0.075002 0.099775 0.113947 0.115262 0.104601 0.085791 0.064664 0.047607 0.039921 0.044398 0.060456 0.084079 0.108592 0.126137 0.129517 0.113985 0.078578 0.026629 -0.034663 -0.095568 -0.145788 -0.176638 -0.182954 -0.164310 -0.125244 -0.074429 -0.022941 0.018011 0.039411 0.036310 0.008847 -0.037812 -0.094599 -0.150485 -0.194811 -0.219499 -0.220657 -0.199234 -0.160607 -0.113194 -0.066436 -0.028619 -0.005017 0.003192 -0.000967 -0.011188 -0.019573 -0.018712 -0.003647 0.026747 0.069289 0.117061 0.160890 0.191423 0.201313 0.187025 0.149830 0.095756 0.034484 -0.022581 -0.064654 -0.083808 -0.076632 -0.044942 0.004596 0.061862 0.115359 0.154551 0.171936 0.164436 0.133830 0.086167 0.030331 -0.023896 -0.067827 -0.095497 -0.104577 -0.096424 -0.075329 -0.047176 -0.017894 0.007927 0.027927 0.042165 0.052634 0.062233 0.073537 0.087681 0.103706 0.118544 0.127673 0.126286 0.110687 0.079535 0.034601 -0.019200 -0.074571 -0.123246 -0.157764 -0.173188 -0.168355 -0.146335 -0.113949 -0.080387 -0.055223 -0.046233 -0.057506 -0.088299 -0.132918 -0.181692 -0.222883 -0.245136 -0.239951 -0.203651 -0.138399 -0.052019 0.043370 0.133641 0.205396 0.248596 0.258514 0.236607 0.190121 0.130505 0.070970 0.023716 -0.002593 -0.004573 0.015291 0.049309 0.086378 0.114480 0.123381 0.106926 0.064453 0.001035 -0.073513 -0.146621 -0.205543 -0.239962 -0.244082 -0.217776 -0.166544 -0.100323 -0.031396 0.028142 0.068835 0.085720 0.079215 0.054861 0.022010 -0.008277 -0.025643 -0.022681 0.003469 0.050472 0.111238 0.175322 0.231005 0.267606 0.277582 0.257978 0.210982 0.143473 0.065703 -0.010626 -0.074487 -0.117449 -0.135034 -0.127285 -0.098472 -0.056048 -0.009098 0.033398 0.064136 0.078617 0.075643 0.057145 0.027432 -0.007930 -0.043358 -0.074334 -0.098135 -0.114064 -0.123214 -0.127822 -0.130431 -0.133050 -0.136522 -0.140254 -0.142362 -0.140190 -0.131091 -0.113273 -0.086501 -0.052503 -0.014923 0.021154 0.050082 0.066737 0.067622 0.051757 0.021151 -0.019252 -0.062196 -0.099210 -0.122016 -0.124008 -0.101521 -0.054678 0.012384 0.091950 0.173797 0.246727 0.300315 0.326580 0.321304 0.284746 0.221644 0.140482 0.052138 -0.031856 -0.101154 -0.148223 -0.169474 -0.165717 -0.141845 -0.105829 -0.067185 -0.035191 -0.017178 
hipp_sf_0011_BA36 -0.023321 -0.014521 0.001564 0.022198 0.043948 0.063324 0.077410 0.084350 0.083595 0.075885 0.062968 0.047155 0.030806 0.015859 0.003524 -0.005835 -0.012599 -0.017638 -0.021965 -0.026412 -0.031393 -0.036820 -0.042173 -0.046698 -0.049659 -0.050582 -0.049408 -0.046522 -0.042649 -0.038652 -0.035293 -0.033020 -0.031851 -0.031375 -0.030884 -0.029582 -0.026823 -0.022309 -0.016178 -0.008975 -0.001501 0.005413 0.011130 0.015380 0.018298 0.020338 0.022061 0.023872 0.025778 0.027263 0.027322 0.024696 0.018239 0.007357 -0.007608 -0.025169 -0.042747 -0.057020 -0.064525 -0.062413 -0.049189 -0.025271 0.006796 0.042553 0.076269 0.101924 0.114341 0.110255 0.089085 0.053219 0.007748 -0.040356 -0.083450 -0.114600 -0.128868 -0.124222 -0.101906 -0.066180 -0.023476 0.018856 0.053946 0.076682 0.084597 0.078191 0.060649 0.037013 0.013024 -0.006146 -0.016959 -0.018183 -0.011020 0.001312 0.014436 0.023906 0.026286 0.019969 0.005569 -0.014210 -0.035174 -0.052579 -0.062193 -0.061251 -0.049093 -0.027343 0.000390 0.029231 0.054017 0.070327 0.075352 0.068424 0.051123 0.026933 0.000542 -0.023072 -0.039574 -0.046066 -0.041568 -0.027148 -0.005659 0.018815 0.041716 0.058811 0.066904 0.064346 0.051279 0.029588 0.002589 -0.025479 -0.050088 -0.067076 -0.073247 -0.066838 -0.047801 -0.017861 0.019650 0.060181 0.098529 0.129513 0.148686 0.152976 0.141167 0.114126 0.074728 0.027481 -0.022133 -0.068472 -0.106591 -0.132997 -0.146135 -0.146548 -0.136642 -0.120116 -0.101165 -0.083615 -0.070170 -0.061929 -0.058292 -0.057245 -0.055995 -0.051784 -0.042698 -0.028283 -0.009796 0.009968 0.027263 0.038266 0.040041 0.031372 0.013251 -0.011120 -0.036829 -0.058196 -0.069945 -0.068378 -0.052265 -0.023259 0.014287 0.054089 0.089137 0.113091 0.121581 0.113126 0.089475 0.055286 0.017206 -0.017460 -0.042202 -0.052593 -0.047116 -0.027394 0.002249 0.035759 0.066653 0.089363 0.100324 0.098593 0.085879 0.066003 0.043935 0.024636 0.011981 0.007987 0.012518 0.023495 0.037538 0.050869 0.060234 0.063635 0.060699 0.052613 0.041665 0.030529 0.021485 0.015773 0.013266 0.012513 0.011158 0.006618 -0.003174 -0.019125 -0.040635 -0.065615 -0.090880 -0.112819 -0.128179 -0.134768 -0.131910 -0.120551 -0.102985 -0.082290 -0.061619 -0.043519 -0.029462 -0.019686 -0.013381 -0.009142 -0.005568 -0.001814 0.002060 0.005060 0.005553 0.001839 -0.007183 -0.021423 -0.039283 -0.057732 -0.072794 -0.080371 -0.077222 -0.061852 -0.035096 -0.000203 0.037621 0.072164 0.097451 0.109026 0.104957 0.086337 0.057138 0.023420 -0.007941 -0.030730 -0.040752 -0.036747 -0.020647 0.002900 0.027642 0.047224 0.056741 0.053959 0.039932 0.018832 -0.002977 -0.018435 -0.021499 -0.008704 0.019821 0.060135 0.105126 0.145918 0.173728 0.181774 0.166813 0.129945 0.076494 0.014980 -0.044607 -0.092863 -0.122901 -0.131727 -0.120769 -0.095434 -0.063792 -0.034692 -0.015727 -0.011506 -0.022622 -0.045547 -0.073472 -0.097908 -0.110676 -0.105850 -0.081200 -0.038822 0.015191 0.071969 0.121694 0.155648 0.168026 0.157115 0.125597 0.079920 0.028893 -0.018188 -0.053449 -0.071988 -0.072736 -0.058452 -0.034915 -0.009486 0.010591 0.019787 0.015421 -0.001893 -0.028549 -0.058909 -0.086654 -0.106217 -0.113954 -0.108814 -0.092370 -0.068251 -0.041146 -0.015628 0.004883 0.018798 0.026515 0.030041 0.032206 0.035696 0.042145 0.051557 0.062184 0.070927 0.074137 0.068639 0.052705 0.026733 -0.006557 -0.042480 -0.075245 -0.099116 -0.109642 -0.104660 -0.084839 -0.053643 -0.016695 0.019328 0.048023 0.064542 0.066553 0.054663 0.032233 0.004624 -0.021958 -0.041761 -0.050659 -0.046950 -0.031614 -0.008004 0.018952 0.043855 0.061997 0.070324 0.068020 0.056575 0.039375 0.020886 0.005656 -0.002676 -0.002122 0.007281 0.023548 0.043236 0.062210 0.076530 0.083257 0.081008 0.070170 0.052730 0.031797 0.010911 -0.006681 -0.018654 -0.023991 -0.023082 -0.017517 -0.009654 -0.002054 0.003078 0.004336 0.001351 -0.005211 -0.013881 -0.022766 -0.030012 -0.034216 -0.034729 -0.031771 -0.026348 -0.020005 -0.014465 -0.011241 -0.011306 -0.014880 -0.021392 -0.029609 -0.037900 -0.044591 -0.048317 
hipp_sf_0012_PHC -0.112602 -0.113817 -0.114902 -0.113518 -0.106951 -0.092866 -0.070026 -0.038799 -0.001355 0.038533 0.076036 0.106072 0.124218 0.127531 0.115151 0.088526 0.051250 0.008521 -0.033670 -0.069463 -0.094015 -0.104182 -0.098884 -0.079136 -0.047731 -0.008686 0.033445 0.074252 0.110031 0.138144 0.157146 0.166697 0.167313 0.160038 0.146129 0.126804 0.103106 0.075883 0.045867 0.013796 -0.019460 -0.052812 -0.084942 -0.114357 -0.139504 -0.158907 -0.171311 -0.175779 -0.171761 -0.159111 -0.138081 -0.109306 -0.073804 -0.032986 0.011316 0.056839 0.100921 0.140608 0.172860 0.194839 0.204278 0.199848 0.181479 0.150534 0.109802 0.063259 0.015603 -0.028368 -0.064461 -0.089748 -0.103057 -0.105201 -0.098865 -0.088160 -0.077895 -0.072679 -0.076008 -0.089503 -0.112459 -0.141783 -0.172390 -0.197988 -0.212143 -0.209451 -0.186609 -0.143182 -0.081927 -0.008576 0.068900 0.141445 0.200311 0.238449 0.251667 0.239340 0.204536 0.153530 0.094762 0.037427 -0.010068 -0.041506 -0.053874 -0.047788 -0.027268 0.001120 0.029585 0.050663 0.058699 0.050975 0.028277 -0.005227 -0.042783 -0.076369 -0.098283 -0.102704 -0.086912 -0.051924 -0.002407 0.054107 0.108588 0.152164 0.177763 0.181415 0.162953 0.125973 0.077076 0.024526 -0.023376 -0.059900 -0.081122 -0.086557 -0.079059 -0.064019 -0.048041 -0.037382 -0.036498 -0.047002 -0.067271 -0.092774 -0.117062 -0.133201 -0.135340 -0.120070 -0.087289 -0.040368 0.014403 0.068983 0.115114 0.145886 0.157005 0.147517 0.119823 0.079022 0.031742 -0.015271 -0.056476 -0.088483 -0.110414 -0.123626 -0.130884 -0.135212 -0.138722 -0.141732 -0.142419 -0.137113 -0.121197 -0.090408 -0.042245 0.022881 0.101043 0.184954 0.264900 0.330315 0.371694 0.382447 0.360312 0.307986 0.232822 0.145616 0.058693 -0.016328 -0.070642 -0.099825 -0.104526 -0.090143 -0.065565 -0.041221 -0.026852 -0.029461 -0.051871 -0.092164 -0.144122 -0.198563 -0.245270 -0.275120 -0.281964 -0.263864 -0.223459 -0.167388 -0.104929 -0.046128 0.000159 0.027924 0.035029 0.023411 -0.001550 -0.032313 -0.060840 -0.080251 -0.086156 -0.077371 -0.055927 -0.026390 0.005320 0.033330 0.053132 0.062520 0.061988 0.054505 0.044760 0.038045 0.039056 0.050839 0.074121 0.107141 0.145985 0.185352 0.219555 0.243569 0.253895 0.249111 0.230007 0.199325 0.161184 0.120315 0.081277 0.047777 0.022213 0.005468 -0.003026 -0.005028 -0.003087 -0.000091 0.001159 -0.001681 -0.010232 -0.025225 -0.046426 -0.072658 -0.101908 -0.131517 -0.158455 -0.179669 -0.192476 -0.194956 -0.186289 -0.166964 -0.138816 -0.104836 -0.068784 -0.034626 -0.005911 0.014827 0.026505 0.029666 0.026364 0.019734 0.013353 0.010476 0.013343 0.022671 0.037457 0.055156 0.072187 0.084691 0.089376 0.084265 0.069200 0.045971 0.018035 -0.010129 -0.033902 -0.049476 -0.054660 -0.049397 -0.035846 -0.018032 -0.001101 0.009669 0.009910 -0.002931 -0.029015 -0.065961 -0.109161 -0.152505 -0.189379 -0.213767 -0.221247 -0.209737 -0.179841 -0.134765 -0.079822 -0.021609 0.032994 0.077855 0.108480 0.122651 0.120709 0.105464 0.081746 0.055660 0.033659 0.021556 0.023610 0.041807 0.075452 0.121140 0.173114 0.224009 0.265881 0.291385 0.294958 0.273797 0.228480 0.163097 0.084828 0.003007 -0.072228 -0.131485 -0.167629 -0.176992 -0.160052 -0.121441 -0.069250 -0.013716 0.034497 0.066131 0.074960 0.058916 0.020490 -0.033665 -0.093872 -0.149119 -0.188990 -0.205489 -0.194439 -0.156193 -0.095546 -0.020879 0.057293 0.128102 0.182092 0.212658 0.216931 0.195965 0.154255 0.098714 0.037344 -0.022137 -0.073448 -0.112496 -0.137638 -0.149460 -0.150196 -0.142945 -0.130896 -0.116694 -0.102091 -0.087875 -0.074064 -0.060247 -0.045969 -0.031033 -0.015653 -0.000442 0.013750 0.026062 0.035839 0.042768 0.046888 0.048474 0.047857 0.045236 0.040559 0.033528 0.023749 0.010980 -0.004585 -0.022094 -0.039967 -0.056029 -0.067860 -0.073286 -0.070920 -0.060611 -0.043660 -0.022737 -0.001457 0.016314 0.027284 0.029524 0.023013 0.009803 -0.006278 -0.020353 -0.027528 -0.024016 -0.008109 0.019230 0.054321 0.091305 0.123194 0.143243 0.146353 0.130233 0.096046 0.048387 -0.005423 -0.056614 -0.096571 -0.118443 
