13 420
hipp_sf_0000_BG 0.035524 0.033397 0.029299 0.023531 0.016519 0.008786 0.000904 -0.006559 -0.013108 -0.018372 -0.022152 -0.024442 -0.025413 -0.025375 -0.024700 -0.023747 -0.022784 -0.021935 -0.021165 -0.020309 -0.019129 -0.017405 -0.015015 -0.011997 -0.008569 -0.005095 -0.002006 0.000310 0.001621 0.001940 0.001557 0.001006 0.000963 0.002094 0.004890 0.009516 0.015728 0.022874 0.029988 0.035965 0.039783 0.040722 0.038538 0.033533 0.026521 0.018674 0.011293 0.005532 0.002161 0.001401 0.002879 0.005719 0.008741 0.010740 0.010766 0.008353 0.003636 -0.002668 -0.009418 -0.015306 -0.019157 -0.020206 -0.018281 -0.013850 -0.007921 -0.001814 0.003138 0.005896 0.005951 0.003438 -0.000912 -0.005956 -0.010425 -0.013250 -0.013834 -0.012212 -0.009056 -0.005515 -0.002934 -0.002497 -0.004908 -0.010161 -0.017486 -0.025463 -0.032316 -0.036304 -0.036128 -0.031264 -0.022135 -0.010085 0.002861 0.014389 0.022374 0.025327 0.022720 0.015120 0.004085 -0.008139 -0.019079 -0.026534 -0.029017 -0.026049 -0.018229 -0.007088 0.005257 0.016557 0.024899 0.029085 0.028836 0.024797 0.018335 0.011185 0.005047 0.001198 0.000237 0.001994 0.005634 0.009906 0.013488 0.015330 0.014916 0.012377 0.008441 0.004224 0.000926 -0.000501 0.000391 0.003406 0.007736 0.012152 0.015307 0.016081 0.013879 0.008809 0.001699 -0.006072 -0.012872 -0.017190 -0.017994 -0.014985 -0.008693 -0.000370 0.008270 0.015435 0.019657 0.020136 0.016921 0.010910 0.003651 -0.003017 -0.007389 -0.008308 -0.005454 0.000543 0.008205 0.015507 0.020306 0.020813 0.016007 0.005897 -0.008427 -0.024956 -0.041128 -0.054299 -0.062242 -0.063564 -0.057964 -0.046278 -0.030309 -0.012481 0.004608 0.018649 0.028011 0.031974 0.030789 0.025540 0.017868 0.009613 0.002443 -0.002448 -0.004517 -0.003914 -0.001372 0.002003 0.005005 0.006589 0.006085 0.003314 -0.001397 -0.007314 -0.013451 -0.018781 -0.022424 -0.023802 -0.022724 -0.019397 -0.014366 -0.008396 -0.002335 0.003034 0.007112 0.009566 0.010362 0.009748 0.008195 0.006306 0.004708 0.003947 0.004393 0.006180 0.009171 0.012983 0.017039 0.020660 0.023182 0.024074 0.023042 0.020102 0.015591 0.010137 0.004560 -0.000264 -0.003557 -0.004788 -0.003780 -0.000762 0.003661 0.008602 0.013050 0.016049 0.016880 0.015195 0.011082 0.005059 -0.002028 -0.009155 -0.015306 -0.019654 -0.021691 -0.021302 -0.018754 -0.014613 -0.009615 -0.004511 0.000066 0.003701 0.006227 0.007701 0.008327 0.008357 0.007993 0.007316 0.006273 0.004702 0.002408 -0.000748 -0.004763 -0.009439 -0.014383 -0.019051 -0.022851 -0.025252 -0.025900 -0.024694 -0.021813 -0.017674 -0.012852 -0.007951 -0.003488 0.000211 0.003051 0.005157 0.006803 0.008299 0.009879 0.011603 0.013316 0.014668 0.015192 0.014437 0.012103 0.008158 0.002906 -0.003026 -0.008777 -0.013398 -0.016043 -0.016139 -0.013522 -0.008489 -0.001763 0.005625 0.012517 0.017839 0.020780 0.020934 0.018351 0.013503 0.007174 0.000305 -0.006188 -0.011559 -0.015342 -0.017382 -0.017816 -0.016991 -0.015359 -0.013373 -0.011404 -0.009698 -0.008363 -0.007400 -0.006741 -0.006285 -0.005927 -0.005559 -0.005064 -0.004292 -0.003058 -0.001149 0.001635 0.005420 0.010187 0.015715 0.021556 0.027063 0.031467 0.034012 0.034104 0.031461 0.026205 0.018900 0.010480 0.002112 -0.005016 -0.009914 -0.011991 -0.011172 -0.007918 -0.003128 0.002048 0.006459 0.009199 0.009805 0.008347 0.005401 0.001895 -0.001118 -0.002735 -0.002434 -0.000225 0.003330 0.007229 0.010260 0.011289 0.009539 0.004809 -0.002445 -0.011174 -0.019930 -0.027175 -0.031604 -0.032434 -0.029576 -0.023665 -0.015915 -0.007868 -0.001050 0.003347 0.004713 0.003125 -0.000701 -0.005613 -0.010311 -0.013670 -0.014999 -0.014193 -0.011722 -0.008477 -0.005506 -0.003703 -0.003541 -0.004910 -0.007121 -0.009058 -0.009471 -0.007325 -0.002124 0.005873 0.015615 0.025403 0.033222 0.037160 0.035857 0.028850 0.016753 0.001208 -0.015383 -0.030301 -0.041038 -0.045786 -0.043806 -0.035568 -0.022651 -0.007420 0.007464 0.019572 0.027179 0.029571 0.027122 0.021141 0.013522 0.006282 0.001098 -0.001047 -0.000042 0.003395 0.007957 0.012126 0.014589 
hipp_sf_0001_CA1 0.082721 0.080789 0.076984 0.071446 0.064414 0.056251 0.047421 0.038438 0.029771 0.021741 0.014419 0.007573 0.000694 -0.006905 -0.015915 -0.026822 -0.039710 -0.054142 -0.069141 -0.083311 -0.095073 -0.102978 -0.106023 -0.103897 -0.097091 -0.086829 -0.074837 -0.062974 -0.052824 -0.045339 -0.040620 -0.037902 -0.035751 -0.032439 -0.026407 -0.016708 -0.003307 0.012830 0.029909 0.045708 0.058103 0.065622 0.067853 0.065622 0.060859 0.056175 0.054230 0.057041 0.065383 0.078456 0.093903 0.108207 0.117402 0.117936 0.107515 0.085713 0.054207 0.016555 -0.022440 -0.057664 -0.084713 -0.100777 -0.105188 -0.099485 -0.086999 -0.072023 -0.058770 -0.050354 -0.048038 -0.050934 -0.056224 -0.059879 -0.057687 -0.046382 -0.024567 0.006758 0.044239 0.082763 0.116501 0.140145 0.150080 0.145186 0.127089 0.099791 0.068737 0.039549 0.016706 0.002499 -0.003499 -0.004283 -0.004612 -0.009735 -0.023914 -0.049114 -0.084188 -0.124768 -0.163943 -0.193602 -0.206179 -0.196421 -0.162772 -0.108058 -0.039272 0.033519 0.098975 0.146603 0.168791 0.162308 0.128969 0.075303 0.011294 -0.051548 -0.102389 -0.133095 -0.139669 -0.122808 -0.087503 -0.041790 0.005064 0.044522 0.070480 0.080340 0.075262 0.059571 0.039498 0.021556 0.010950 0.010380 0.019498 0.035129 0.052177 0.064989 0.068828 0.061120 0.042157 0.015110 -0.014671 -0.040881 -0.057742 -0.061374 -0.050754 -0.028016 0.001967 0.032636 0.057205 0.070177 0.068598 0.052742 0.026085 -0.005443 -0.034758 -0.055191 -0.061984 -0.053385 -0.031088 0.000065 0.033070 0.060220 0.074741 0.072238 0.051671 0.015645 -0.030046 -0.077504 -0.118249 -0.144835 -0.152258 -0.138884 -0.106707 -0.060928 -0.008940 0.041062 0.081564 0.107030 0.114782 0.105300 0.081949 0.050181 0.016424 -0.013139 -0.033662 -0.042401 -0.039046 -0.025585 -0.005757 0.015769 0.034324 0.046101 0.048806 0.041982 0.026993 0.006675 -0.015243 -0.034853 -0.048766 -0.054686 -0.051766 -0.040705 -0.023565 -0.003368 0.016462 0.032701 0.042885 0.045720 0.041271 0.030921 0.017083 0.002736 -0.009140 -0.016128 -0.016828 -0.011122 -0.000193 0.013712 0.027719 0.038903 0.044870 0.044240 0.036929 0.024167 0.008243 -0.007974 -0.021640 -0.030547 -0.033598 -0.031052 -0.024476 -0.016401 -0.009764 -0.007242 -0.010623 -0.020357 -0.035395 -0.053339 -0.070902 -0.084573 -0.091334 -0.089308 -0.078161 -0.059192 -0.035087 -0.009387 0.014216 0.032594 0.043761 0.047195 0.043827 0.035733 0.025590 0.016035 0.009083 0.005734 0.005853 0.008344 0.011557 0.013828 0.013995 0.011766 0.007828 0.003681 0.001218 0.002175 0.007572 0.017316 0.030060 0.043384 0.054269 0.059758 0.057667 0.047158 0.029057 0.005792 -0.019014 -0.041241 -0.057106 -0.063947 -0.060774 -0.048470 -0.029581 -0.007743 0.013131 0.029712 0.039976 0.043616 0.042038 0.037958 0.034670 0.035171 0.041339 0.053365 0.069571 0.086679 0.100469 0.106693 0.102044 0.084952 0.056041 0.018126 -0.024257 -0.065682 -0.100868 -0.125678 -0.137884 -0.137526 -0.126803 -0.109519 -0.090207 -0.073140 -0.061424 -0.056382 -0.057350 -0.061918 -0.066555 -0.067473 -0.061538 -0.047022 -0.024051 0.005357 0.037657 0.068451 0.093344 0.108778 0.112697 0.104897 0.087024 0.062216 0.034505 0.008077 -0.013435 -0.027511 -0.033062 -0.030477 -0.021412 -0.008396 0.005657 0.017939 0.026154 0.028799 0.025294 0.015975 0.001984 -0.014918 -0.032569 -0.048656 -0.060953 -0.067567 -0.067179 -0.059240 -0.044129 -0.023207 0.001247 0.026255 0.048502 0.064808 0.072653 0.070651 0.058880 0.038993 0.014046 -0.011950 -0.034685 -0.050314 -0.056183 -0.051369 -0.036914 -0.015686 0.008122 0.029767 0.044876 0.050313 0.044833 0.029363 0.006868 -0.018200 -0.040756 -0.056080 -0.060742 -0.053292 -0.034548 -0.007441 0.023555 0.053304 0.076997 0.091070 0.093855 0.085835 0.069473 0.048638 0.027774 0.010970 0.001137 -0.000554 0.005144 0.015763 0.027685 0.036926 0.039982 0.034558 0.020055 -0.002297 -0.029658 -0.058100 -0.083331 -0.101469 -0.109719 -0.106843 -0.093337 -0.071306 -0.044064 -0.015556 0.010304 0.030254 0.042162 0.045305 0.040395 0.029388 0.015094 0.000677 -0.010885 -0.017291 
hipp_sf_0002_CA2 -0.090167 -0.079493 -0.059645 -0.033342 -0.004019 0.024766 0.049902 0.069133 0.081239 0.085973 0.083806 0.075579 0.062178 0.044346 0.022672 -0.002230 -0.029432 -0.057400 -0.083828 -0.105711 -0.119682 -0.122604 -0.112293 -0.088206 -0.051916 -0.007216 0.040247 0.083777 0.116754 0.133880 0.132269 0.112152 0.077005 0.033036 -0.011893 -0.049733 -0.073790 -0.080052 -0.068000 -0.040726 -0.004325 0.033335 0.064211 0.081733 0.082138 0.065241 0.034462 -0.003894 -0.041930 -0.071778 -0.087183 -0.084741 -0.064530 -0.030031 0.012630 0.055942 0.092489 0.116331 0.124028 0.115088 0.091820 0.058625 0.020958 -0.015825 -0.047455 -0.071390 -0.086995 -0.095276 -0.098279 -0.098347 -0.097422 -0.096579 -0.095877 -0.094547 -0.091424 -0.085477 -0.076283 -0.064280 -0.050742 -0.037467 -0.026272 -0.018431 -0.014228 -0.012765 -0.012090 -0.009642 -0.002915 0.009826 0.028960 0.053214 0.079763 0.104713 0.123893 0.133757 0.132217 0.119172 0.096621 0.068309 0.038969 0.013330 -0.004883 -0.013733 -0.013449 -0.006301 0.004000 0.013240 0.017771 0.015443 0.006197 -0.007855 -0.022874 -0.034174 -0.037358 -0.029426 -0.009620 0.020210 0.055813 0.091285 0.120210 0.136946 0.137783 0.121728 0.090735 0.049335 0.003754 -0.039301 -0.073934 -0.096141 -0.104485 -0.100217 -0.086854 -0.069312 -0.052800 -0.041728 -0.038840 -0.044766 -0.058038 -0.075565 -0.093413 -0.107708 -0.115466 -0.115159 -0.106924 -0.092388 -0.074186 -0.055299 -0.038373 -0.025177 -0.016305 -0.011174 -0.008273 -0.005605 -0.001183 0.006528 0.018319 0.034127 0.053125 0.073934 0.094898 0.114335 0.130722 0.142769 0.149429 0.149867 0.143449 0.129804 0.108959 0.081535 0.048933 0.013439 -0.021832 -0.053202 -0.076909 -0.089727 -0.089628 -0.076336 -0.051627 -0.019281 0.015374 0.046262 0.067592 0.074930 0.066092 0.041674 0.005079 -0.037992 -0.080505 -0.115342 -0.136609 -0.140725 -0.127093 -0.098193 -0.059097 -0.016480 0.022659 0.052320 0.068586 0.070279 0.059028 0.038784 0.014870 -0.007205 -0.022920 -0.029655 -0.027150 -0.017419 -0.004169 0.008161 0.015495 0.015122 0.006369 -0.009202 -0.028115 -0.045757 -0.057424 -0.059434 -0.050038 -0.029941 -0.002311 0.027743 0.054123 0.070935 0.073689 0.060271 0.031475 -0.009000 -0.055090 -0.099372 -0.134316 -0.153582 -0.153109 -0.131818 -0.091789 -0.037917 0.022911 0.082941 0.134786 0.172561 0.192721 0.194477 0.179740 0.152624 0.118613 0.083555 0.052657 0.029668 0.016367 0.012431 0.015703 0.022772 0.029761 0.033156 0.030539 0.021065 0.005626 -0.013353 -0.032420 -0.047825 -0.056314 -0.055842 -0.046069 -0.028517 -0.006377 0.016030 0.034032 0.043482 0.041558 0.027345 0.002062 -0.031103 -0.067538 -0.102031 -0.129709 -0.146931 -0.151933 -0.145119 -0.128926 -0.107290 -0.084810 -0.065795 -0.053372 -0.048838 -0.051401 -0.058351 -0.065643 -0.068760 -0.063689 -0.047807 -0.020490 0.016669 0.060089 0.104826 0.145451 0.177025 0.195955 0.200561 0.191266 0.170367 0.141460 0.108655 0.075756 0.045586 0.019584 -0.002238 -0.021001 -0.038411 -0.056106 -0.075056 -0.095166 -0.115182 -0.132920 -0.145762 -0.151303 -0.147986 -0.135570 -0.115313 -0.089808 -0.062498 -0.036971 -0.016185 -0.001799 0.006230 0.009686 0.011742 0.016266 0.026928 0.046291 0.075066 0.111708 0.152456 0.191820 0.223458 0.241286 0.240623 0.219160 0.177561 0.119583 0.051675 -0.017910 -0.080321 -0.127473 -0.153321 -0.154845 -0.132575 -0.090573 -0.035850 0.022680 0.075560 0.114250 0.132461 0.127139 0.098957 0.052209 -0.005874 -0.066288 -0.119732 -0.158136 -0.176018 -0.171410 -0.146208 -0.105856 -0.058397 -0.013057 0.021431 0.038435 0.034707 0.011059 -0.027684 -0.073505 -0.116636 -0.147392 -0.158049 -0.144426 -0.106831 -0.050188 0.016728 0.082831 0.136761 0.169041 0.173938 0.150658 0.103605 0.041644 -0.023525 -0.079576 -0.115932 -0.125830 -0.107670 -0.065358 -0.007568 0.053948 0.106670 0.139787 0.146342 0.124606 0.078412 0.016379 -0.049828 -0.107826 -0.146966 -0.160406 -0.146386 -0.108448 -0.054581 0.004519 0.057697 0.095611 0.112553 0.107452 0.083857 0.048939 0.011750 -0.018853 -0.036168 -0.037048 -0.022452 0.002956 0.032057 0.057063 0.071427 
hipp_sf_0003_DG 0.011032 0.019385 0.034752 0.054670 0.075942 0.095124 0.109037 0.115202 0.112149 0.099542 0.078144 0.049629 0.016307 -0.019179 -0.054144 -0.086093 -0.112883 -0.132831 -0.144772 -0.148107 -0.142831 -0.129570 -0.109582 -0.084719 -0.057315 -0.029989 -0.005361 0.014274 0.027273 0.032912 0.031515 0.024425 0.013790 0.002197 -0.007784 -0.014053 -0.015349 -0.011441 -0.003112 0.008066 0.020119 0.031123 0.039629 0.044950 0.047245 0.047393 0.046670 0.046329 0.047188 0.049323 0.051970 0.053665 0.052591 0.047060 0.036017 0.019425 -0.001567 -0.024731 -0.047142 -0.065751 -0.078034 -0.082559 -0.079325 -0.069805 -0.056645 -0.043079 -0.032204 -0.026258 -0.026071 -0.030845 -0.038301 -0.045179 -0.047992 -0.043856 -0.031206 -0.010238 0.017043 0.047191 0.076005 0.099410 0.114306 0.119201 0.114472 0.102195 0.085577 0.068132 0.052784 0.041141 0.033103 0.026921 0.019704 0.008274 -0.009855 -0.035580 -0.067657 -0.102635 -0.135329 -0.159774 -0.170449 -0.163538 -0.137914 -0.095638 -0.041818 0.016164 0.069927 0.111614 0.135362 0.138406 0.121593 0.089189 0.048021 0.006132 -0.028783 -0.050821 -0.056915 -0.047278 -0.025151 0.004032 0.033897 0.058495 0.073501 0.076973 0.069559 0.054104 0.034802 0.016092 0.001582 -0.006773 -0.009023 -0.007075 -0.004069 -0.003470 -0.008080 -0.019243 -0.036411 -0.057199 -0.077900 -0.094340 -0.102877 -0.101282 -0.089313 -0.068828 -0.043405 -0.017569 0.004220 0.018562 0.023870 0.020714 0.011657 0.000637 -0.007984 -0.010471 -0.004629 0.009625 0.030174 0.053119 0.073606 0.086893 0.089408 0.079568 0.058185 0.028354 -0.005135 -0.036743 -0.061282 -0.074929 -0.075938 -0.064919 -0.044628 -0.019325 0.006143 0.027334 0.041066 0.045959 0.042563 0.033071 0.020689 0.008844 0.000380 -0.003045 -0.001265 0.004459 0.011828 0.018121 0.020886 0.018542 0.010763 -0.001445 -0.015967 -0.030062 -0.040963 -0.046480 -0.045462 -0.038012 -0.025436 -0.009929 0.005904 0.019606 0.029350 0.034267 0.034554 0.031336 0.026346 0.021485 0.018382 0.018030 0.020600 0.025438 0.031254 0.036447 0.039488 0.039269 0.035363 0.028115 0.018577 0.008285 -0.001057 -0.007923 -0.011275 -0.010772 -0.006845 -0.000620 0.006274 0.012002 0.014839 0.013471 0.007222 -0.003822 -0.018819 -0.036285 -0.054317 -0.070864 -0.084025 -0.092313 -0.094858 -0.091519 -0.082877 -0.070130 -0.054899 -0.038968 -0.024020 -0.011390 -0.001890 0.004264 0.007427 0.008385 0.008146 0.007699 0.007787 0.008749 0.010465 0.012409 0.013821 0.013933 0.012228 0.008645 0.003685 -0.001610 -0.005823 -0.007447 -0.005222 0.001532 0.012674 0.027157 0.043117 0.058156 0.069745 0.075701 0.074611 0.066144 0.051158 0.031577 0.010072 -0.010421 -0.027224 -0.038395 -0.043044 -0.041436 -0.034854 -0.025256 -0.014801 -0.005352 0.001928 0.006807 0.009976 0.012815 0.016980 0.023908 0.034358 0.048101 0.063825 0.079308 0.091810 0.098622 0.097640 0.087855 0.069635 0.044738 0.016044 -0.012949 -0.038759 -0.058560 -0.070698 -0.074968 -0.072600 -0.065953 -0.057989 -0.051619 -0.049074 -0.051416 -0.058303 -0.068045 -0.077941 -0.084841 -0.085804 -0.078729 -0.062836 -0.038895 -0.009173 0.022915 0.053354 0.078203 0.094252 0.099559 0.093756 0.078101 0.055246 0.028785 0.002661 -0.019478 -0.034851 -0.041956 -0.040774 -0.032713 -0.020339 -0.006902 0.004225 0.010133 0.008888 -0.000118 -0.016023 -0.036593 -0.058547 -0.078063 -0.091393 -0.095499 -0.088596 -0.070524 -0.042873 -0.008827 0.027254 0.060470 0.086131 0.100505 0.101443 0.088759 0.064311 0.031735 -0.004111 -0.037918 -0.064775 -0.080953 -0.084483 -0.075426 -0.055792 -0.029118 0.000210 0.027759 0.049826 0.064048 0.069720 0.067790 0.060520 0.050918 0.042039 0.036328 0.035124 0.038428 0.044981 0.052620 0.058826 0.061339 0.058710 0.050650 0.038120 0.023130 0.008298 -0.003731 -0.010877 -0.012106 -0.007681 0.000862 0.011011 0.019789 0.024369 0.022664 0.013770 -0.001819 -0.022281 -0.044784 -0.065998 -0.082692 -0.092303 -0.093362 -0.085717 -0.070513 -0.049955 -0.026904 -0.004398 0.014817 0.028665 0.035982 0.036584 0.031196 0.021250 0.008631 -0.004612 -0.016522 -0.025454 -0.030227 
hipp_sf_0004_CA3 -0.207890 -0.193868 -0.166586 -0.127585 -0.079199 -0.024524 0.032671 0.088151 0.137523 0.176657 0.202152 0.211804 0.204979 0.182820 0.148232 0.105606 0.060306 0.017968 -0.016278 -0.038557 -0.046828 -0.041204 -0.023936 0.000952 0.028313 0.052723 0.069381 0.074895 0.067844 0.048985 0.021103 -0.011502 -0.043762 -0.070722 -0.088367 -0.094273 -0.087966 -0.070928 -0.046295 -0.018282 0.008518 0.029844 0.042361 0.044052 0.034360 0.014110 -0.014755 -0.049521 -0.087067 -0.124162 -0.157689 -0.184768 -0.202848 -0.209792 -0.204018 -0.184704 -0.152058 -0.107566 -0.054166 0.003762 0.060665 0.110356 0.146796 0.165016 0.162014 0.137453 0.093984 0.037094 -0.025567 -0.085294 -0.133698 -0.164103 -0.172704 -0.159238 -0.127039 -0.082401 -0.033394 0.011694 0.045953 0.065194 0.068748 0.059541 0.043441 0.027974 0.020673 0.027402 0.050988 0.090467 0.141094 0.195135 0.243289 0.276455 0.287495 0.272630 0.232208 0.170680 0.095820 0.017335 -0.054821 -0.112110 -0.148723 -0.162298 -0.153959 -0.127714 -0.089388 -0.045359 -0.001383 0.038246 0.071075 0.096357 0.114536 0.126527 0.133018 0.134018 0.128766 0.116020 0.094653 0.064347 0.026185 -0.017078 -0.061181 -0.100975 -0.131392 -0.148542 -0.150672 -0.138740 -0.116423 -0.089504 -0.064733 -0.048394 -0.044893 -0.055686 -0.078827 -0.109266 -0.139877 -0.163007 -0.172221 -0.163850 -0.137981 -0.098618 -0.052961 -0.009903 0.021939 0.036229 0.030506 0.006985 -0.027669 -0.063586 -0.089736 -0.096362 -0.077288 -0.031584 0.035796 0.114595 0.190992 0.250180 0.279285 0.270033 0.220622 0.136385 0.029084 -0.085055 -0.188196 -0.264092 -0.300997 -0.293738 -0.244528 -0.162405 -0.061390 0.042212 0.132860 0.198547 0.232758 0.235281 0.211730 0.171952 0.127678 0.089933 0.066750 0.061640 0.073108 0.095272 0.119411 0.136067 0.137254 0.118291 0.078886 0.023264 -0.040663 -0.102881 -0.153275 -0.183625 -0.189188 -0.169578 -0.128781 -0.074336 -0.015891 0.036585 0.074559 0.092345 0.087934 0.063114 0.022946 -0.025288 -0.073403 -0.113661 -0.139893 -0.148260 -0.137557 -0.109092 -0.066227 -0.013726 0.042962 0.098355 0.147460 0.186137 0.211323 0.221152 0.215016 0.193587 0.158796 0.113754 0.062566 0.010015 -0.038901 -0.079538 -0.108222 -0.122815 -0.123111 -0.110977 -0.090160 -0.065783 -0.043562 -0.028888 -0.025912 -0.036808 -0.061345 -0.096866 -0.138674 -0.180776 -0.216847 -0.241240 -0.249875 -0.240847 -0.214647 -0.173985 -0.123246 -0.067712 -0.012676 0.037365 0.079315 0.111782 0.135045 0.150722 0.161216 0.169061 0.176300 0.183997 0.191988 0.198879 0.202301 0.199366 0.187238 0.163718 0.127767 0.079862 0.022151 -0.041635 -0.106499 -0.166692 -0.216376 -0.250340 -0.264702 -0.257492 -0.229033 -0.182055 -0.121503 -0.054030 0.012780 0.071375 0.115273 0.140008 0.143862 0.128232 0.097551 0.058750 0.020292 -0.009078 -0.021705 -0.012299 0.021104 0.076656 0.148791 0.228912 0.306580 0.371029 0.412768 0.425021 0.404756 0.353147 0.275375 0.179811 0.076705 -0.023391 -0.111211 -0.180111 -0.226933 -0.252275 -0.260113 -0.256879 -0.250143 -0.247145 -0.253416 -0.271742 -0.301615 -0.339272 -0.378306 -0.410730 -0.428325 -0.424036 -0.393202 -0.334417 -0.249897 -0.145302 -0.029051 0.088764 0.197684 0.288222 0.353040 0.387793 0.391543 0.366702 0.318531 0.254294 0.182205 0.110333 0.045612 -0.006890 -0.044380 -0.066373 -0.074397 -0.071424 -0.061167 -0.047341 -0.033038 -0.020294 -0.009921 -0.001591 0.005849 0.013914 0.023985 0.036865 0.052483 0.069812 0.086996 0.101674 0.111422 0.114230 0.108918 0.095397 0.074744 0.049063 0.021154 -0.005921 -0.029324 -0.046858 -0.057263 -0.060331 -0.056826 -0.048251 -0.036507 -0.023524 -0.010943 0.000093 0.009007 0.015708 0.020409 0.023394 0.024801 0.024484 0.021994 0.016688 0.007943 -0.004589 -0.020729 -0.039623 -0.059722 -0.078935 -0.094919 -0.105479 -0.108981 -0.104700 -0.093020 -0.075436 -0.054335 -0.032595 -0.013061 0.001988 0.011284 0.014834 0.013923 0.010872 0.008553 0.009777 0.016654 0.030056 0.049305 0.072146 0.095041 0.113733 0.124003 0.122468 0.107285 0.078624 0.038813 -0.007890 -0.055869 -0.098972 -0.131460 -0.148908 
hipp_sf_0005_HEAD NaN NaN NaN NaN NaN NaN NaN NaN NaN NaN NaN NaN NaN NaN NaN NaN NaN NaN NaN NaN NaN NaN NaN NaN NaN NaN NaN NaN NaN NaN NaN NaN NaN NaN NaN NaN NaN NaN NaN NaN NaN NaN NaN NaN NaN NaN NaN NaN NaN NaN NaN NaN NaN NaN NaN NaN NaN NaN NaN NaN NaN NaN NaN NaN NaN NaN NaN NaN NaN NaN NaN NaN NaN NaN NaN NaN NaN NaN NaN NaN NaN NaN NaN NaN NaN NaN NaN NaN NaN NaN NaN NaN NaN NaN NaN NaN NaN NaN NaN NaN NaN NaN NaN NaN NaN NaN NaN NaN NaN NaN NaN NaN NaN NaN NaN NaN NaN NaN NaN NaN NaN NaN NaN NaN NaN NaN NaN NaN NaN NaN NaN NaN NaN NaN NaN NaN NaN NaN NaN NaN NaN NaN NaN NaN NaN NaN NaN NaN NaN NaN NaN NaN NaN NaN NaN NaN NaN NaN NaN NaN NaN NaN NaN NaN NaN NaN NaN NaN NaN NaN NaN NaN NaN NaN NaN NaN NaN NaN NaN NaN NaN NaN NaN NaN NaN NaN NaN NaN NaN NaN NaN NaN NaN NaN NaN NaN NaN NaN NaN NaN NaN NaN NaN NaN NaN NaN NaN NaN NaN NaN NaN NaN NaN NaN NaN NaN NaN NaN NaN NaN NaN NaN NaN NaN NaN NaN NaN NaN NaN NaN NaN NaN NaN NaN NaN NaN NaN NaN NaN NaN NaN NaN NaN NaN NaN NaN NaN NaN NaN NaN NaN NaN NaN NaN NaN NaN NaN NaN NaN NaN NaN NaN NaN NaN NaN NaN NaN NaN NaN NaN NaN NaN NaN NaN NaN NaN NaN NaN NaN NaN NaN NaN NaN NaN NaN NaN NaN NaN NaN NaN NaN NaN NaN NaN NaN NaN NaN NaN NaN NaN NaN NaN NaN NaN NaN NaN NaN NaN NaN NaN NaN NaN NaN NaN NaN NaN NaN NaN NaN NaN NaN NaN NaN NaN NaN NaN NaN NaN NaN NaN NaN NaN NaN NaN NaN NaN NaN NaN NaN NaN NaN NaN NaN NaN NaN NaN NaN NaN NaN NaN NaN NaN NaN NaN NaN NaN NaN NaN NaN NaN NaN NaN NaN NaN NaN NaN NaN NaN NaN NaN NaN NaN NaN NaN NaN NaN NaN NaN NaN NaN NaN NaN NaN NaN NaN NaN NaN NaN NaN NaN NaN NaN NaN NaN NaN NaN NaN NaN NaN NaN NaN NaN NaN NaN NaN NaN NaN NaN NaN NaN NaN NaN NaN NaN NaN NaN NaN NaN NaN NaN 
hipp_sf_0006_TAIL -0.037770 -0.027222 -0.007894 0.017007 0.043424 0.067185 0.084731 0.093709 0.093300 0.084246 0.068583 0.049138 0.028923 0.010543 -0.004259 -0.014823 -0.021551 -0.025647 -0.028707 -0.032257 -0.037346 -0.044291 -0.052617 -0.061198 -0.068563 -0.073268 -0.074271 -0.071194 -0.064436 -0.055098 -0.044750 -0.035095 -0.027602 -0.023197 -0.022067 -0.023627 -0.026639 -0.029466 -0.030394 -0.027965 -0.021246 -0.010003 0.005261 0.023379 0.042704 0.061342 0.077405 0.089241 0.095617 0.095838 0.089800 0.077993 0.061449 0.041650 0.020401 -0.000334 -0.018618 -0.032756 -0.041500 -0.044233 -0.041086 -0.032971 -0.021489 -0.008736 0.003007 0.011626 0.015537 0.013969 0.007125 -0.003826 -0.016935 -0.029815 -0.040064 -0.045707 -0.045561 -0.039445 -0.028200 -0.013503 0.002470 0.017483 0.029665 0.037847 0.041726 0.041836 0.039322 0.035589 0.031899 0.029015 0.026988 0.025129 0.022187 0.016689 0.007370 -0.006415 -0.024388 -0.045237 -0.066733 -0.086062 -0.100304 -0.106967 -0.104470 -0.092467 -0.071943 -0.045075 -0.014871 0.015324 0.042371 0.063800 0.078133 0.084998 0.085036 0.079635 0.070575 0.059658 0.048406 0.037892 0.028702 0.021038 0.014884 0.010188 0.006995 0.005482 0.005885 0.008350 0.012747 0.018516 0.024608 0.029557 0.031694 0.029459 0.021763 0.008302 -0.010239 -0.032179 -0.055022 -0.075828 -0.091705 -0.100313 -0.100304 -0.091582 -0.075341 -0.053863 -0.030116 -0.007232 0.012039 0.025784 0.033201 0.034661 0.031533 0.025841 0.019803 0.015379 0.013899 0.015842 0.020808 0.027666 0.034827 0.040592 0.043473 0.042452 0.037114 0.027652 0.014769 -0.000488 -0.016915 -0.033303 -0.048546 -0.061680 -0.071879 -0.078437 -0.080761 -0.078409 -0.071170 -0.059178 -0.043026 -0.023829 -0.003213 0.016817 0.034116 0.046713 0.053164 0.052853 0.046178 0.034575 0.020346 0.006312 -0.004659 -0.010162 -0.008709 -0.000034 0.014810 0.033600 0.053303 0.070599 0.082452 0.086650 0.082185 0.069429 0.050056 0.026744 0.002707 -0.018854 -0.035274 -0.044834 -0.046985 -0.042368 -0.032618 -0.020020 -0.007076 0.003938 0.011335 0.014259 0.012764 0.007732 0.000657 -0.006657 -0.012434 -0.015238 -0.014214 -0.009227 -0.000887 0.009545 0.020341 0.029567 0.035363 0.036231 0.031266 0.020322 0.004077 -0.016017 -0.037891 -0.059105 -0.077166 -0.089861 -0.095560 -0.093454 -0.083665 -0.067230 -0.045949 -0.022114 0.001823 0.023595 0.041416 0.054170 0.061482 0.063635 0.061391 0.055739 0.047644 0.037845 0.026763 0.014524 0.001096 -0.013510 -0.029018 -0.044730 -0.059475 -0.071700 -0.079699 -0.081940 -0.077424 -0.065987 -0.048474 -0.026730 -0.003384 0.018544 0.036141 0.047118 0.050230 0.045524 0.034338 0.019071 0.002734 -0.011605 -0.021386 -0.025017 -0.022129 -0.013588 -0.001261 0.012414 0.024952 0.034335 0.039401 0.040031 0.037105 0.032244 0.027397 0.024377 0.024446 0.028044 0.034716 0.043240 0.051937 0.059060 0.063202 0.063597 0.060275 0.054020 0.046160 0.038231 0.031606 0.027172 0.025120 0.024910 0.025398 0.025110 0.022579 0.016688 0.006928 -0.006465 -0.022538 -0.039784 -0.056404 -0.070618 -0.080941 -0.086396 -0.086609 -0.081806 -0.072708 -0.060378 -0.046060 -0.031030 -0.016498 -0.003560 0.006827 0.013853 0.016878 0.015484 0.009550 -0.000659 -0.014433 -0.030603 -0.047607 -0.063638 -0.076877 -0.085744 -0.089150 -0.086676 -0.078642 -0.066044 -0.050364 -0.033293 -0.016422 -0.000976 0.012359 0.023466 0.032685 0.040590 0.047705 0.054252 0.059981 0.064155 0.065692 0.063443 0.056548 0.044771 0.028740 0.010003 -0.009116 -0.025866 -0.037553 -0.042058 -0.038282 -0.026422 -0.007993 0.014404 0.037538 0.058134 0.073470 0.081860 0.082921 0.077566 0.067736 0.055918 0.044579 0.035624 0.030012 0.027606 0.027296 0.027341 0.025875 0.021422 0.013319 0.001938 -0.011360 -0.024504 -0.035190 -0.041424 -0.042011 -0.036874 -0.027122 -0.014854 -0.002725 0.006612 0.011072 0.009591 0.002354 -0.009252 -0.022933 -0.035981 -0.045848 -0.050666 -0.049610 -0.043028 -0.032309 -0.019537 -0.007021 0.003207 0.009790 0.012266 0.011078 0.007366 0.002626 -0.001690 -0.004519 -0.005407 -0.004543 -0.002629 -0.000604 0.000666 
hipp_sf_0007_MISC 0.068145 0.063666 0.055107 0.043219 0.029021 0.013689 -0.001571 -0.015654 -0.027656 -0.036955 -0.043247 -0.046542 -0.047121 -0.045462 -0.042153 -0.037805 -0.032979 -0.028139 -0.023632 -0.019697 -0.016495 -0.014142 -0.012740 -0.012382 -0.013143 -0.015041 -0.017990 -0.021753 -0.025918 -0.029902 -0.033003 -0.034496 -0.033753 -0.030369 -0.024268 -0.015767 -0.005553 0.005401 0.015995 0.025209 0.032306 0.037001 0.039546 0.040710 0.041637 0.043609 0.047753 0.054738 0.064546 0.076355 0.088581 0.099086 0.105520 0.105758 0.098325 0.082752 0.059777 0.031331 0.000319 -0.029794 -0.055515 -0.073882 -0.082948 -0.082097 -0.072137 -0.055146 -0.034103 -0.012375 0.006854 0.021088 0.028880 0.029984 0.025276 0.016476 0.005741 -0.004790 -0.013390 -0.019018 -0.021409 -0.020992 -0.018663 -0.015492 -0.012431 -0.010106 -0.008733 -0.008184 -0.008153 -0.008388 -0.008892 -0.010043 -0.012559 -0.017331 -0.025127 -0.036253 -0.050270 -0.065832 -0.080747 -0.092251 -0.097489 -0.094107 -0.080828 -0.057904 -0.027294 0.007477 0.041787 0.070667 0.089672 0.095736 0.087812 0.067176 0.037299 0.003301 -0.028926 -0.053761 -0.066880 -0.066039 -0.051478 -0.025851 0.006296 0.039412 0.067994 0.087615 0.095706 0.091949 0.078207 0.058014 0.035745 0.015655 0.000989 -0.006649 -0.007532 -0.003610 0.002062 0.006139 0.005850 -0.000285 -0.012050 -0.027538 -0.043551 -0.056319 -0.062369 -0.059347 -0.046604 -0.025419 0.001202 0.029103 0.053815 0.071458 0.079517 0.077324 0.066142 0.048830 0.029179 0.011060 -0.002416 -0.009549 -0.010361 -0.006508 -0.000812 0.003465 0.003442 -0.002646 -0.014988 -0.032093 -0.051083 -0.068306 -0.080142 -0.083799 -0.077953 -0.063059 -0.041283 -0.016076 0.008537 0.028760 0.041777 0.046268 0.042598 0.032638 0.019279 0.005753 -0.005080 -0.011322 -0.012361 -0.008898 -0.002648 0.004164 0.009411 0.011605 0.010261 0.005979 0.000257 -0.004936 -0.007702 -0.006730 -0.001678 0.006703 0.016712 0.026087 0.032539 0.034304 0.030583 0.021749 0.009285 -0.004550 -0.017235 -0.026570 -0.031181 -0.030831 -0.026451 -0.019892 -0.013454 -0.009287 -0.008836 -0.012438 -0.019188 -0.027114 -0.033616 -0.036085 -0.032559 -0.022256 -0.005869 0.014466 0.035522 0.053585 0.065196 0.067853 0.060540 0.043960 0.020427 -0.006567 -0.033000 -0.055066 -0.069839 -0.075739 -0.072707 -0.062053 -0.046051 -0.027374 -0.008494 0.008786 0.023603 0.036021 0.046785 0.056889 0.067103 0.077556 0.087518 0.095419 0.099125 0.096411 0.085521 0.065687 0.037493 0.002970 -0.034590 -0.071089 -0.102259 -0.124353 -0.134762 -0.132435 -0.118020 -0.093718 -0.062877 -0.029412 0.002820 0.030579 0.051644 0.064977 0.070675 0.069714 0.063592 0.053943 0.042220 0.029493 0.016411 0.003293 -0.009692 -0.022316 -0.034122 -0.044357 -0.052005 -0.055947 -0.055184 -0.049078 -0.037562 -0.021245 -0.001407 0.020130 0.041235 0.059748 0.073769 0.081894 0.083364 0.078117 0.066737 0.050332 0.030360 0.008450 -0.013764 -0.034769 -0.053269 -0.068241 -0.078970 -0.085068 -0.086484 -0.083502 -0.076716 -0.066978 -0.055308 -0.042772 -0.030342 -0.018757 -0.008419 0.000649 0.008772 0.016506 0.024461 0.033099 0.042550 0.052495 0.062154 0.070388 0.075916 0.077592 0.074692 0.067141 0.055625 0.041533 0.026751 0.013314 0.003005 -0.003034 -0.004574 -0.002397 0.001827 0.005859 0.007363 0.004435 -0.003927 -0.017514 -0.034835 -0.053315 -0.069738 -0.080857 -0.084057 -0.077925 -0.062632 -0.040004 -0.013296 0.013334 0.035544 0.049573 0.052943 0.044921 0.026683 0.001137 -0.027578 -0.054793 -0.076102 -0.088102 -0.088925 -0.078494 -0.058461 -0.031839 -0.002436 0.025829 0.049557 0.066377 0.075209 0.076284 0.070926 0.061154 0.049224 0.037173 0.026494 0.017957 0.011623 0.007013 0.003380 0.000004 -0.003550 -0.007283 -0.010745 -0.013150 -0.013593 -0.011306 -0.005903 0.002452 0.012991 0.024419 0.035104 0.043342 0.047655 0.047048 0.041195 0.030498 0.016042 -0.000580 -0.017507 -0.032882 -0.045122 -0.053111 -0.056329 -0.054865 -0.049354 -0.040829 -0.030543 -0.019777 -0.009672 -0.001107 0.005374 0.009563 0.011560 0.011696 0.010454 0.008373 0.005988 0.003765 0.002074 0.001165 
hipp_sf_0008_SUB 0.029175 0.026825 0.022475 0.016744 0.010390 0.004142 -0.001467 -0.006216 -0.010248 -0.014039 -0.018270 -0.023644 -0.030673 -0.039475 -0.049643 -0.060210 -0.069739 -0.076532 -0.078928 -0.075637 -0.066047 -0.050435 -0.030034 -0.006918 0.016278 0.036772 0.052103 0.060574 0.061567 0.055675 0.044607 0.030874 0.017317 0.006554 0.000473 -0.000132 0.004290 0.012171 0.021177 0.028738 0.032633 0.031515 0.025238 0.014936 0.002806 -0.008356 -0.015779 -0.017347 -0.012125 -0.000636 0.015176 0.032295 0.047232 0.056756 0.058589 0.051929 0.037669 0.018255 -0.002781 -0.021539 -0.034549 -0.039504 -0.035746 -0.024407 -0.008175 0.009275 0.024060 0.032921 0.033910 0.026804 0.013149 -0.004078 -0.021101 -0.034140 -0.040199 -0.037659 -0.026574 -0.008595 0.013436 0.036127 0.056258 0.071411 0.080372 0.083212 0.081055 0.075581 0.068430 0.060641 0.052296 0.042466 0.029484 0.011498 -0.012841 -0.043714 -0.079684 -0.117597 -0.152889 -0.180281 -0.194740 -0.192508 -0.171985 -0.134274 -0.083229 -0.024992 0.032938 0.082913 0.118426 0.135202 0.131895 0.110262 0.074767 0.031718 -0.011902 -0.049662 -0.076731 -0.090565 -0.091098 -0.080447 -0.062218 -0.040594 -0.019403 -0.001389 0.012184 0.021527 0.027947 0.033217 0.038879 0.045640 0.053043 0.059485 0.062575 0.059769 0.049097 0.029826 0.002876 -0.029118 -0.062146 -0.091483 -0.112564 -0.121867 -0.117623 -0.100199 -0.072055 -0.037295 -0.000889 0.032262 0.058224 0.074710 0.081400 0.079835 0.072940 0.064257 0.057101 0.053786 0.055128 0.060297 0.067070 0.072410 0.073237 0.067217 0.053398 0.032530 0.007021 -0.019490 -0.042836 -0.059164 -0.065727 -0.061466 -0.047260 -0.025780 -0.000994 0.022592 0.040791 0.050521 0.050360 0.040774 0.023968 0.003402 -0.016914 -0.033214 -0.042685 -0.043971 -0.037364 -0.024662 -0.008746 0.007041 0.019578 0.026567 0.026944 0.021027 0.010376 -0.002582 -0.015084 -0.024597 -0.029314 -0.028476 -0.022465 -0.012672 -0.001161 0.009775 0.018081 0.022337 0.021994 0.017429 0.009809 0.000793 -0.007835 -0.014546 -0.018368 -0.019046 -0.017046 -0.013401 -0.009438 -0.006456 -0.005418 -0.006729 -0.010152 -0.014863 -0.019648 -0.023188 -0.024376 -0.022587 -0.017859 -0.010923 -0.003089 0.003996 0.008679 0.009633 0.006150 -0.001691 -0.013002 -0.026219 -0.039373 -0.050432 -0.057666 -0.059942 -0.056912 -0.049047 -0.037515 -0.023940 -0.010082 0.002483 0.012623 0.019796 0.024057 0.025936 0.026211 0.025653 0.024785 0.023736 0.022208 0.019591 0.015168 0.008397 -0.000831 -0.012011 -0.023970 -0.034982 -0.043025 -0.046150 -0.042876 -0.032539 -0.015508 0.006779 0.031983 0.057209 0.079473 0.096193 0.105613 0.107081 0.101121 0.089281 0.073800 0.057160 0.041608 0.028761 0.019363 0.013244 0.009482 0.006730 0.003623 -0.000822 -0.006913 -0.014159 -0.021350 -0.026825 -0.028869 -0.026151 -0.018101 -0.005154 0.011228 0.028738 0.044604 0.056080 0.060957 0.057991 0.047158 0.029681 0.007832 -0.015473 -0.037181 -0.054641 -0.066053 -0.070742 -0.069230 -0.063062 -0.054460 -0.045850 -0.039374 -0.036463 -0.037567 -0.042080 -0.048471 -0.054596 -0.058118 -0.056983 -0.049825 -0.036274 -0.017078 0.005956 0.030207 0.052614 0.070129 0.080181 0.081066 0.072222 0.054335 0.029275 -0.000142 -0.030526 -0.058367 -0.080514 -0.094607 -0.099402 -0.094941 -0.082542 -0.064589 -0.044178 -0.024634 -0.008989 0.000498 0.002716 -0.002109 -0.012439 -0.025666 -0.038548 -0.047761 -0.050478 -0.044883 -0.030525 -0.008438 0.018980 0.048331 0.075754 0.097545 0.110754 0.113649 0.105979 0.088981 0.065145 0.037787 0.010505 -0.013370 -0.031238 -0.041530 -0.043811 -0.038676 -0.027495 -0.012068 0.005722 0.024195 0.042042 0.058350 0.072527 0.084148 0.092795 0.097959 0.099022 0.095366 0.086553 0.072556 0.053956 0.032045 0.008795 -0.013348 -0.031801 -0.044273 -0.049195 -0.046069 -0.035647 -0.019896 -0.001736 0.015405 0.028160 0.033792 0.030682 0.018620 -0.001131 -0.026037 -0.052699 -0.077407 -0.096732 -0.108056 -0.109952 -0.102351 -0.086487 -0.064643 -0.039742 -0.014886 0.007102 0.024044 0.034641 0.038555 0.036349 0.029311 0.019208 0.008012 -0.002360 -0.010271 -0.014537 
hipp_sf_0009_ERC -0.029956 -0.030182 -0.030944 -0.032698 -0.035787 -0.040156 -0.045166 -0.049579 -0.051741 -0.049967 -0.043003 -0.030482 -0.013210 0.006800 0.026595 0.042824 0.052446 0.053437 0.045343 0.029506 0.008909 -0.012377 -0.030018 -0.040350 -0.041204 -0.032425 -0.015950 0.004594 0.024701 0.040019 0.047384 0.045613 0.035840 0.021324 0.006733 -0.002936 -0.003576 0.006971 0.028245 0.057074 0.088102 0.114832 0.130982 0.131851 0.115400 0.082800 0.038320 -0.011449 -0.058850 -0.096657 -0.119474 -0.124753 -0.113200 -0.088511 -0.056483 -0.023725 0.003757 0.021768 0.028693 0.025638 0.015956 0.004275 -0.004732 -0.007538 -0.002641 0.009077 0.024583 0.039454 0.048987 0.049382 0.038722 0.017527 -0.011261 -0.042855 -0.071620 -0.092275 -0.101014 -0.096300 -0.079160 -0.052907 -0.022385 0.007106 0.030932 0.046064 0.051612 0.048846 0.040726 0.031065 0.023532 0.020730 0.023584 0.031155 0.040927 0.049489 0.053433 0.050253 0.039029 0.020731 -0.001923 -0.025026 -0.044321 -0.056124 -0.058123 -0.049871 -0.032867 -0.010219 0.014030 0.035744 0.051522 0.059315 0.058730 0.050939 0.038275 0.023602 0.009639 -0.001612 -0.009191 -0.013218 -0.014647 -0.014825 -0.014997 -0.015899 -0.017538 -0.019243 -0.019945 -0.018616 -0.014745 -0.008695 -0.001838 0.003606 0.004991 -0.000139 -0.013381 -0.034927 -0.063273 -0.095270 -0.126548 -0.152224 -0.167780 -0.169909 -0.157176 -0.130334 -0.092240 -0.047377 -0.001083 0.041361 0.075593 0.098832 0.110200 0.110671 0.102684 0.089512 0.074544 0.060629 0.049620 0.042183 0.037898 0.035593 0.033802 0.031241 0.027171 0.021580 0.015153 0.009043 0.004540 0.002702 0.004071 0.008527 0.015319 0.023263 0.031036 0.037511 0.042013 0.044470 0.045385 0.045667 0.046348 0.048262 0.051774 0.056615 0.061875 0.066151 0.067822 0.065389 0.057800 0.044705 0.026567 0.004624 -0.019287 -0.043016 -0.064419 -0.081666 -0.093474 -0.099235 -0.099030 -0.093543 -0.083908 -0.071518 -0.057842 -0.044268 -0.031985 -0.021903 -0.014612 -0.010352 -0.009009 -0.010124 -0.012922 -0.016378 -0.019323 -0.020589 -0.019182 -0.014463 -0.006292 0.004884 0.018039 0.031672 0.044012 0.053288 0.058008 0.057215 0.050655 0.038819 0.022870 0.004443 -0.014620 -0.032559 -0.047951 -0.059872 -0.067961 -0.072366 -0.073601 -0.072367 -0.069367 -0.065173 -0.060163 -0.054540 -0.048406 -0.041858 -0.035077 -0.028358 -0.022079 -0.016600 -0.012142 -0.008656 -0.005755 -0.002736 0.001306 0.007269 0.015793 0.027026 0.040463 0.054930 0.068715 0.079852 0.086509 0.087387 0.082068 0.071192 0.056450 0.040338 0.025739 0.015389 0.011343 0.014548 0.024618 0.039859 0.057555 0.074452 0.087353 0.093700 0.092031 0.082220 0.065452 0.043963 0.020575 -0.001838 -0.020869 -0.034962 -0.043591 -0.047224 -0.047085 -0.044784 -0.041911 -0.039687 -0.038742 -0.039061 -0.040092 -0.040977 -0.040829 -0.038985 -0.035175 -0.029557 -0.022634 -0.015083 -0.007542 -0.000440 0.006094 0.012211 0.018207 0.024327 0.030559 0.036483 0.041233 0.043606 0.042285 0.036157 0.024629 0.007880 -0.013027 -0.036221 -0.059274 -0.079587 -0.094841 -0.103414 -0.104661 -0.099023 -0.087907 -0.073386 -0.057776 -0.043176 -0.031080 -0.022144 -0.016144 -0.012140 -0.008785 -0.004723 0.001047 0.008895 0.018470 0.028778 0.038427 0.045965 0.050228 0.050615 0.047215 0.040775 0.032498 0.023750 0.015733 0.009210 0.004367 0.000821 -0.002209 -0.005618 -0.010102 -0.015888 -0.022581 -0.029176 -0.034246 -0.036251 -0.033910 -0.026551 -0.014336 0.001672 0.019643 0.037281 0.052233 0.062528 0.066933 0.065183 0.058011 0.046994 0.034250 0.022047 0.012417 0.006838 0.006058 0.010060 0.018173 0.029271 0.042012 0.055050 0.067183 0.077406 0.084897 0.088949 0.088910 0.084163 0.074172 0.058607 0.037507 0.011444 -0.018367 -0.050070 -0.081295 -0.109428 -0.131957 -0.146865 -0.152961 -0.150100 -0.139216 -0.122177 -0.101461 -0.079732 -0.059383 -0.042156 -0.028897 -0.019502 -0.013064 -0.008164 -0.003264 0.002914 0.011079 0.021218 0.032611 0.044007 0.053915 0.060934 0.064054 0.062851 0.057549 0.048945 0.038219 0.026687 0.015560 0.005767 -0.002135 -0.007936 -0.011673 -0.013487 
hipp_sf_0010_BA35 0.036558 0.032662 0.025326 0.015404 0.004026 -0.007551 -0.018111 -0.026640 -0.032449 -0.035253 -0.035181 -0.032722 -0.028620 -0.023731 -0.018871 -0.014683 -0.011545 -0.009538 -0.008480 -0.008005 -0.007691 -0.007179 -0.006274 -0.004997 -0.003572 -0.002351 -0.001699 -0.001861 -0.002849 -0.004385 -0.005918 -0.006718 -0.006037 -0.003301 0.001716 0.008769 0.017119 0.025622 0.032922 0.037713 0.039028 0.036475 0.030381 0.021792 0.012320 0.003859 -0.001780 -0.003244 0.000058 0.007784 0.018680 0.030772 0.041728 0.049299 0.051763 0.048284 0.039096 0.025493 0.009604 -0.005998 -0.018772 -0.026685 -0.028589 -0.024419 -0.015190 -0.002783 0.010421 0.021995 0.029897 0.032817 0.030351 0.023000 0.011996 -0.001004 -0.014255 -0.026256 -0.035968 -0.042917 -0.047146 -0.049066 -0.049240 -0.048178 -0.046186 -0.043313 -0.039409 -0.034256 -0.027753 -0.020071 -0.011745 -0.003661 0.003068 0.007323 0.008229 0.005393 -0.000945 -0.009887 -0.019995 -0.029532 -0.036786 -0.040398 -0.039627 -0.034500 -0.025788 -0.014844 -0.003310 0.007227 0.015558 0.021079 0.023880 0.024661 0.024522 0.024650 0.025999 0.029034 0.033595 0.038921 0.043828 0.046996 0.047303 0.044127 0.037531 0.028305 0.017826 0.007784 -0.000175 -0.004811 -0.005575 -0.002747 0.002604 0.008828 0.014040 0.016512 0.015049 0.009251 -0.000383 -0.012535 -0.025315 -0.036615 -0.044509 -0.047602 -0.045270 -0.037751 -0.026062 -0.011779 0.003260 0.017290 0.028891 0.037173 0.041832 0.043086 0.041521 0.037890 0.032914 0.027144 0.020894 0.014258 0.007203 -0.000309 -0.008204 -0.016216 -0.023868 -0.030534 -0.035542 -0.038318 -0.038512 -0.036096 -0.031388 -0.025016 -0.017807 -0.010655 -0.004372 0.000437 0.003441 0.004602 0.004126 0.002385 -0.000185 -0.003171 -0.006245 -0.009183 -0.011853 -0.014172 -0.016058 -0.017406 -0.018073 -0.017908 -0.016795 -0.014716 -0.011790 -0.008293 -0.004631 -0.001278 0.001320 0.002844 0.003186 0.002495 0.001160 -0.000256 -0.001132 -0.000926 0.000698 0.003783 0.008052 0.012951 0.017758 0.021726 0.024241 0.024955 0.023854 0.021269 0.017804 0.014206 0.011217 0.009415 0.009110 0.010287 0.012627 0.015591 0.018535 0.020854 0.022087 0.021995 0.020571 0.018000 0.014583 0.010637 0.006417 0.002067 -0.002380 -0.006961 -0.011703 -0.016547 -0.021276 -0.025500 -0.028684 -0.030228 -0.029595 -0.026437 -0.020709 -0.012739 -0.003225 0.006835 0.016267 0.023897 0.028719 0.030048 0.027615 0.021598 0.012585 0.001478 -0.010636 -0.022628 -0.033450 -0.042230 -0.048328 -0.051353 -0.051151 -0.047784 -0.041499 -0.032708 -0.021973 -0.009989 0.002439 0.014438 0.025127 0.033705 0.039537 0.042244 0.041762 0.038353 0.032577 0.025196 0.017062 0.008969 0.001535 -0.004881 -0.010206 -0.014609 -0.018404 -0.021919 -0.025369 -0.028745 -0.031780 -0.033970 -0.034675 -0.033266 -0.029287 -0.022600 -0.013471 -0.002583 0.009045 0.020207 0.029702 0.036539 0.040100 0.040234 0.037268 0.031929 0.025190 0.018088 0.011542 0.006208 0.002401 0.000102 -0.000978 -0.001270 -0.001217 -0.001147 -0.001199 -0.001298 -0.001201 -0.000572 0.000907 0.003440 0.007048 0.011542 0.016546 0.021558 0.026031 0.029456 0.031427 0.031680 0.030097 0.026687 0.021559 0.014889 0.006908 -0.002096 -0.011771 -0.021679 -0.031301 -0.040058 -0.047361 -0.052693 -0.055695 -0.056245 -0.054500 -0.050892 -0.046059 -0.040728 -0.035569 -0.031050 -0.027331 -0.024221 -0.021229 -0.017683 -0.012914 -0.006453 0.001801 0.011486 0.021786 0.031554 0.039517 0.044539 0.045870 0.043327 0.037366 0.029013 0.019679 0.010873 0.003901 -0.000397 -0.001810 -0.000765 0.001805 0.004719 0.006859 0.007475 0.006384 0.004033 0.001386 -0.000333 0.000010 0.003101 0.008915 0.016607 0.024601 0.030891 0.033467 0.030806 0.022291 0.008471 -0.008917 -0.027192 -0.043203 -0.053933 -0.057126 -0.051792 -0.038477 -0.019229 0.002745 0.023666 0.039904 0.048686 0.048641 0.040055 0.024812 0.005987 -0.012777 -0.028018 -0.037140 -0.038909 -0.033650 -0.023106 -0.010003 0.002581 0.011912 0.016179 0.014866 0.008805 -0.000073 -0.009228 -0.016136 -0.018894 -0.016657 -0.009832 0.000039 0.010657 0.019527 0.024557 
hipp_sf_0011_BA36 0.045948 0.046442 0.046990 0.046835 0.045121 0.041141 0.034564 0.025569 0.014850 0.003501 -0.007208 -0.016112 -0.022400 -0.025798 -0.026620 -0.025683 -0.024105 -0.023032 -0.023369 -0.025570 -0.029543 -0.034698 -0.040108 -0.044766 -0.047838 -0.048883 -0.047953 -0.045562 -0.042528 -0.039729 -0.037834 -0.037084 -0.037180 -0.037320 -0.036371 -0.033149 -0.026731 -0.016732 -0.003459 0.012082 0.028355 0.043593 0.056163 0.064918 0.069440 0.070126 0.068079 0.064836 0.061985 0.060770 0.061761 0.064691 0.068478 0.071459 0.071758 0.067732 0.058373 0.043584 0.024265 0.002182 -0.020353 -0.040908 -0.057384 -0.068387 -0.073435 -0.072970 -0.068174 -0.060639 -0.051978 -0.043476 -0.035855 -0.029205 -0.023098 -0.016832 -0.009750 -0.001527 0.007646 0.017025 0.025461 0.031667 0.034558 0.033557 0.028791 0.021113 0.011934 0.002902 -0.004496 -0.009315 -0.011403 -0.011458 -0.010863 -0.011319 -0.014365 -0.020898 -0.030813 -0.042871 -0.054845 -0.063933 -0.067363 -0.063055 -0.050203 -0.029619 -0.003756 0.023634 0.048145 0.065541 0.072615 0.067862 0.051858 0.027222 -0.001827 -0.030245 -0.053110 -0.066551 -0.068473 -0.058916 -0.039989 -0.015391 0.010383 0.032963 0.048970 0.056640 0.056072 0.049073 0.038624 0.028123 0.020550 0.017780 0.020161 0.026477 0.034284 0.040543 0.042389 0.037875 0.026496 0.009388 -0.010860 -0.030732 -0.046531 -0.055189 -0.054952 -0.045777 -0.029374 -0.008865 0.011862 0.028958 0.039403 0.041612 0.035729 0.023540 0.008051 -0.007197 -0.018899 -0.024689 -0.023614 -0.016290 -0.004711 0.008244 0.019473 0.026347 0.027272 0.022009 0.011675 -0.001551 -0.014953 -0.025904 -0.032451 -0.033724 -0.030085 -0.022997 -0.014637 -0.007362 -0.003142 -0.003101 -0.007267 -0.014571 -0.023111 -0.030601 -0.034907 -0.034540 -0.029004 -0.018919 -0.005890 0.007839 0.019864 0.028137 0.031388 0.029374 0.022903 0.013630 0.003676 -0.004836 -0.010240 -0.011660 -0.009165 -0.003719 0.003072 0.009337 0.013359 0.013955 0.010715 0.004077 -0.004794 -0.014267 -0.022602 -0.028315 -0.030462 -0.028806 -0.023816 -0.016516 -0.008232 -0.000280 0.006314 0.011012 0.013838 0.015310 0.016268 0.017616 0.020062 0.023914 0.028955 0.034464 0.039336 0.042317 0.042264 0.038405 0.030534 0.019096 0.005156 -0.009757 -0.023880 -0.035497 -0.043208 -0.046135 -0.044043 -0.037347 -0.027014 -0.014386 -0.000952 0.011874 0.022948 0.031518 0.037267 0.040276 0.040915 0.039705 0.037169 0.033706 0.029521 0.024612 0.018818 0.011914 0.003735 -0.005717 -0.016180 -0.027108 -0.037703 -0.047007 -0.054047 -0.057995 -0.058322 -0.054911 -0.048109 -0.038693 -0.027774 -0.016627 -0.006496 0.001600 0.007020 0.009591 0.009610 0.007757 0.004947 0.002132 0.000110 -0.000631 0.000003 0.001719 0.003924 0.005891 0.006953 0.006683 0.005036 0.002388 -0.000511 -0.002688 -0.003157 -0.001158 0.003628 0.010950 0.019954 0.029285 0.037291 0.042311 0.042980 0.038505 0.028840 0.014745 -0.002308 -0.020357 -0.037257 -0.051022 -0.060141 -0.063796 -0.061955 -0.055325 -0.045169 -0.033040 -0.020476 -0.008730 0.001421 0.009745 0.016503 0.022280 0.027757 0.033463 0.039581 0.045849 0.051568 0.055749 0.057332 0.055457 0.049717 0.040329 0.028184 0.014758 0.001890 -0.008538 -0.014952 -0.016406 -0.012806 -0.004978 0.005427 0.016193 0.024914 0.029422 0.028196 0.020665 0.007353 -0.010163 -0.029493 -0.047812 -0.062337 -0.070801 -0.071852 -0.065300 -0.052168 -0.034539 -0.015211 0.002759 0.016570 0.024144 0.024468 0.017762 0.005430 -0.010190 -0.026229 -0.039777 -0.048380 -0.050443 -0.045486 -0.034201 -0.018308 -0.000243 0.017280 0.031727 0.041166 0.044561 0.041904 0.034159 0.023036 0.010649 -0.000877 -0.009780 -0.014933 -0.015992 -0.013366 -0.008062 -0.001418 0.005212 0.010735 0.014530 0.016527 0.017160 0.017201 0.017522 0.018846 0.021530 0.025449 0.029990 0.034172 0.036859 0.037006 0.033914 0.027400 0.017868 0.006257 -0.006126 -0.017850 -0.027631 -0.034564 -0.038279 -0.038972 -0.037324 -0.034309 -0.030951 -0.028076 -0.026120 -0.025037 -0.024322 -0.023154 -0.020618 -0.015958 -0.008804 0.000679 0.011764 0.023259 0.033707 0.041660 0.045958 
hipp_sf_0012_PHC 0.059556 0.059715 0.059295 0.056990 0.051224 0.040533 0.023946 0.001293 -0.026617 -0.057996 -0.090245 -0.120280 -0.144949 -0.161487 -0.167911 -0.163316 -0.148005 -0.123454 -0.092103 -0.057029 -0.021532 0.011275 0.038839 0.059437 0.072319 0.077709 0.076685 0.070947 0.062528 0.053486 0.045614 0.040211 0.037940 0.038779 0.042086 0.046741 0.051370 0.054595 0.055295 0.052820 0.047138 0.038865 0.029200 0.019725 0.012130 0.007892 0.007955 0.012483 0.020745 0.031143 0.041429 0.049058 0.051647 0.047445 0.035743 0.017116 -0.006537 -0.032210 -0.056221 -0.074805 -0.084772 -0.084095 -0.072329 -0.050765 -0.022277 0.009120 0.038927 0.062928 0.077903 0.082177 0.075873 0.060844 0.040277 0.018060 -0.001966 -0.016719 -0.024410 -0.024799 -0.019124 -0.009729 0.000515 0.008868 0.013305 0.012905 0.007956 -0.000235 -0.009773 -0.018733 -0.025707 -0.030193 -0.032729 -0.034723 -0.038019 -0.044302 -0.054487 -0.068249 -0.083850 -0.098306 -0.107918 -0.109048 -0.098993 -0.076758 -0.043528 -0.002725 0.040418 0.079707 0.109096 0.123864 0.121581 0.102684 0.070502 0.030714 -0.009677 -0.043651 -0.065495 -0.071891 -0.062518 -0.040065 -0.009627 0.022371 0.049512 0.066693 0.071133 0.062869 0.044639 0.021182 -0.001882 -0.019343 -0.027576 -0.025349 -0.014073 0.002548 0.019392 0.031121 0.033437 0.024115 0.003579 -0.025114 -0.056873 -0.085631 -0.105625 -0.112620 -0.104812 -0.083202 -0.051381 -0.014764 0.020546 0.049018 0.066783 0.072345 0.066742 0.053148 0.036020 0.019989 0.008764 0.004286 0.006342 0.012701 0.019743 0.023430 0.020374 0.008770 -0.011049 -0.036539 -0.063402 -0.086452 -0.100703 -0.102441 -0.090033 -0.064309 -0.028416 0.012790 0.053703 0.089038 0.114805 0.128967 0.131653 0.124917 0.112109 0.097015 0.082990 0.072259 0.065552 0.062116 0.060102 0.057180 0.051244 0.041014 0.026394 0.008520 -0.010522 -0.028196 -0.042121 -0.050611 -0.053025 -0.049840 -0.042449 -0.032746 -0.022625 -0.013521 -0.006131 -0.000381 0.004351 0.008843 0.013558 0.018268 0.021878 0.022540 0.018037 0.006383 -0.013527 -0.041373 -0.075127 -0.111148 -0.144652 -0.170507 -0.184186 -0.182679 -0.165166 -0.133286 -0.090937 -0.043630 0.002479 0.041660 0.069591 0.084008 0.084927 0.074394 0.055837 0.033199 0.010060 -0.011047 -0.028949 -0.043742 -0.056316 -0.067657 -0.078131 -0.086960 -0.092073 -0.090402 -0.078599 -0.054007 -0.015668 0.034907 0.093427 0.153111 0.205585 0.242254 0.255889 0.242116 0.200488 0.134871 0.053050 -0.034422 -0.115928 -0.180727 -0.220753 -0.231920 -0.214688 -0.173777 -0.117098 -0.054144 0.005844 0.055541 0.090708 0.110653 0.117911 0.117257 0.114295 0.113951 0.119219 0.130433 0.145210 0.159078 0.166609 0.162818 0.144472 0.111037 0.065034 0.011717 -0.041851 -0.088122 -0.120522 -0.134717 -0.129435 -0.106676 -0.071289 -0.030006 0.009843 0.041670 0.060752 0.064925 0.054747 0.033125 0.004531 -0.025997 -0.053853 -0.075648 -0.089651 -0.095825 -0.095516 -0.090889 -0.084298 -0.077718 -0.072388 -0.068702 -0.066340 -0.064575 -0.062626 -0.059960 -0.056443 -0.052315 -0.048001 -0.043838 -0.039809 -0.035394 -0.029592 -0.021143 -0.008899 0.007743 0.028468 0.051842 0.075369 0.095819 0.109794 0.114408 0.107954 0.090375 0.063455 0.030627 -0.003559 -0.034227 -0.057063 -0.069133 -0.069438 -0.059105 -0.041150 -0.019867 0.000039 0.014403 0.020432 0.017259 0.006095 -0.010049 -0.027001 -0.040309 -0.046170 -0.042238 -0.028126 -0.005529 0.022066 0.050012 0.073362 0.087768 0.090269 0.079824 0.057491 0.026249 -0.009494 -0.044617 -0.074076 -0.093645 -0.100492 -0.093511 -0.073386 -0.042399 -0.004047 0.037466 0.077770 0.112835 0.139384 0.155181 0.159177 0.151530 0.133502 0.107267 0.075646 0.041799 0.008898 -0.020194 -0.043204 -0.058665 -0.066042 -0.065744 -0.059023 -0.047771 -0.034237 -0.020706 -0.009197 -0.001211 0.002420 0.001574 -0.003240 -0.011036 -0.020575 -0.030576 -0.039908 -0.047705 -0.053411 -0.056749 -0.057651 -0.056166 -0.052389 -0.046430 -0.038432 -0.028626 -0.017398 -0.005345 0.006718 0.017806 0.026888 0.033050 0.035669 0.034568 0.030100 0.023133 0.014940 0.007001 0.000748 -0.002690 
