13 420
hipp_sf_0000_BG 0.032682 0.031394 0.028806 0.024919 0.019784 0.013546 0.006465 -0.001076 -0.008609 -0.015634 -0.021699 -0.026464 -0.029758 -0.031592 -0.032137 -0.031662 -0.030465 -0.028788 -0.026774 -0.024445 -0.021730 -0.018528 -0.014783 -0.010558 -0.006076 -0.001704 0.002098 0.004888 0.006356 0.006435 0.005358 0.003657 0.002075 0.001424 0.002403 0.005419 0.010460 0.017056 0.024329 0.031156 0.036380 0.039065 0.038696 0.035314 0.029528 0.022401 0.015239 0.009320 0.005621 0.004609 0.006145 0.009513 0.013592 0.017100 0.018893 0.018213 0.014861 0.009227 0.002199 -0.005058 -0.011368 -0.015816 -0.017946 -0.017845 -0.016090 -0.013575 -0.011264 -0.009927 -0.009936 -0.011172 -0.013063 -0.014757 -0.015376 -0.014296 -0.011372 -0.007043 -0.002287 0.001578 0.003212 0.001598 -0.003635 -0.012041 -0.022345 -0.032644 -0.040769 -0.044739 -0.043219 -0.035861 -0.023457 -0.007859 0.008345 0.022314 0.031523 0.034284 0.030107 0.019830 0.005473 -0.010156 -0.024005 -0.033395 -0.036541 -0.032894 -0.023229 -0.009454 0.005805 0.019761 0.030030 0.035098 0.034585 0.029257 0.020795 0.011379 0.003188 -0.002075 -0.003519 -0.001206 0.003935 0.010390 0.016456 0.020662 0.022107 0.020643 0.016860 0.011893 0.007095 0.003669 0.002346 0.003202 0.005638 0.008549 0.010624 0.010704 0.008111 0.002861 -0.004302 -0.012041 -0.018736 -0.022857 -0.023346 -0.019886 -0.013009 -0.004007 0.005349 0.013199 0.018020 0.018981 0.016149 0.010479 0.003607 -0.002533 -0.006158 -0.006081 -0.002013 0.005317 0.014280 0.022668 0.028165 0.028850 0.023640 0.012572 -0.003153 -0.021349 -0.039243 -0.053986 -0.063191 -0.065374 -0.060221 -0.048631 -0.032522 -0.014452 0.002862 0.017034 0.026415 0.030323 0.029085 0.023880 0.016424 0.008588 0.002012 -0.002195 -0.003620 -0.002558 0.000136 0.003283 0.005675 0.006348 0.004779 0.000977 -0.004543 -0.010891 -0.017002 -0.021849 -0.024642 -0.024958 -0.022799 -0.018555 -0.012912 -0.006703 -0.000758 0.004232 0.007816 0.009823 0.010360 0.009761 0.008502 0.007111 0.006074 0.005760 0.006364 0.007886 0.010137 0.012768 0.015329 0.017343 0.018385 0.018163 0.016576 0.013752 0.010045 0.005992 0.002233 -0.000600 -0.001999 -0.001689 0.000301 0.003617 0.007619 0.011489 0.014365 0.015511 0.014462 0.011126 0.005827 -0.000742 -0.007634 -0.013813 -0.018339 -0.020544 -0.020142 -0.017275 -0.012474 -0.006539 -0.000381 0.005152 0.009429 0.012126 0.013246 0.013068 0.012037 0.010622 0.009194 0.007926 0.006771 0.005493 0.003764 0.001279 -0.002120 -0.006367 -0.011142 -0.015921 -0.020070 -0.022988 -0.024241 -0.023668 -0.021430 -0.017977 -0.013956 -0.010072 -0.006926 -0.004889 -0.004025 -0.004088 -0.004599 -0.004977 -0.004695 -0.003430 -0.001157 0.001827 0.004961 0.007551 0.008937 0.008661 0.006603 0.003036 -0.001402 -0.005822 -0.009258 -0.010871 -0.010124 -0.006906 -0.001573 0.005111 0.012107 0.018297 0.022677 0.024542 0.023592 0.019973 0.014224 0.007163 -0.000269 -0.007168 -0.012810 -0.016734 -0.018780 -0.019065 -0.017916 -0.015783 -0.013152 -0.010469 -0.008090 -0.006259 -0.005096 -0.004605 -0.004687 -0.005145 -0.005696 -0.005992 -0.005650 -0.004299 -0.001648 0.002444 0.007900 0.014383 0.021301 0.027861 0.033172 0.036395 0.036899 0.034397 0.029040 0.021420 0.012498 0.003449 -0.004542 -0.010495 -0.013813 -0.014385 -0.012590 -0.009193 -0.005167 -0.001464 0.001202 0.002506 0.002577 0.001935 0.001336 0.001549 0.003122 0.006195 0.010409 0.014948 0.018697 0.020488 0.019395 0.014977 0.007441 -0.002345 -0.012980 -0.022800 -0.030207 -0.034012 -0.033689 -0.029504 -0.022465 -0.014113 -0.006197 -0.000298 0.002508 0.001870 -0.001780 -0.007349 -0.013352 -0.018274 -0.020924 -0.020712 -0.017777 -0.012925 -0.007414 -0.002616 0.000347 0.000907 -0.000783 -0.003872 -0.007013 -0.008710 -0.007719 -0.003419 0.003961 0.013307 0.022805 0.030309 0.033821 0.031965 0.024360 0.011781 -0.003921 -0.020146 -0.034045 -0.043097 -0.045635 -0.041200 -0.030648 -0.015981 0.000065 0.014588 0.025117 0.030112 0.029254 0.023471 0.014684 0.005347 -0.002126 -0.005901 -0.005128 -0.000106 0.007830 0.016646 0.024123 0.028392 
hipp_sf_0001_CA1 -0.049463 -0.043525 -0.032254 -0.016836 0.001006 0.019126 0.035125 0.046609 0.051506 0.048401 0.036838 0.017514 -0.007688 -0.035869 -0.063477 -0.086826 -0.102690 -0.108844 -0.104482 -0.090376 -0.068769 -0.042980 -0.016812 0.006146 0.023169 0.032878 0.035433 0.032420 0.026426 0.020413 0.017010 0.017887 0.023359 0.032292 0.042359 0.050589 0.054088 0.050770 0.039946 0.022612 0.001366 -0.020035 -0.037413 -0.047035 -0.046422 -0.034943 -0.014028 0.013036 0.041702 0.067044 0.084732 0.091898 0.087721 0.073584 0.052782 0.029825 0.009489 -0.004190 -0.008771 -0.003915 0.008553 0.025045 0.040995 0.051863 0.054136 0.046118 0.028338 0.003481 -0.024136 -0.049453 -0.067714 -0.075465 -0.071287 -0.056103 -0.033002 -0.006604 0.017895 0.035798 0.043882 0.041060 0.028599 0.009840 -0.010523 -0.027449 -0.036639 -0.035485 -0.023668 -0.003295 0.021466 0.045181 0.062216 0.067868 0.059327 0.036297 0.001140 -0.041476 -0.085353 -0.123828 -0.150905 -0.162266 -0.155971 -0.132737 -0.095755 -0.050107 -0.001897 0.042731 0.078518 0.101803 0.110924 0.106255 0.089937 0.065357 0.036503 0.007332 -0.018765 -0.039316 -0.052909 -0.059146 -0.058462 -0.051869 -0.040692 -0.026365 -0.010293 0.006202 0.021889 0.035610 0.046288 0.052964 0.054893 0.051665 0.043324 0.030454 0.014186 -0.003887 -0.021894 -0.037941 -0.050389 -0.058115 -0.060690 -0.058436 -0.052357 -0.043926 -0.034802 -0.026497 -0.020084 -0.015989 -0.013916 -0.012926 -0.011645 -0.008577 -0.002438 0.007525 0.021316 0.038114 0.056341 0.073882 0.088412 0.097768 0.100311 0.095206 0.082583 0.063542 0.040016 0.014504 -0.010270 -0.031728 -0.047775 -0.057053 -0.059089 -0.054310 -0.043937 -0.029781 -0.013965 0.001369 0.014344 0.023575 0.028318 0.028529 0.024817 0.018319 0.010506 0.002952 -0.002908 -0.005984 -0.005688 -0.002011 0.004488 0.012780 0.021542 0.029373 0.035035 0.037656 0.036887 0.032962 0.026662 0.019176 0.011897 0.006156 0.002980 0.002883 0.005751 0.010840 0.016890 0.022339 0.025601 0.025359 0.020818 0.011873 -0.000852 -0.016083 -0.032102 -0.047033 -0.059156 -0.067191 -0.070509 -0.069217 -0.064117 -0.056540 -0.048097 -0.040386 -0.034720 -0.031926 -0.032237 -0.035314 -0.040360 -0.046320 -0.052100 -0.056778 -0.059739 -0.060740 -0.059873 -0.057452 -0.053863 -0.049411 -0.044207 -0.038124 -0.030834 -0.021927 -0.011067 0.001845 0.016536 0.032308 0.048074 0.062491 0.074163 0.081879 0.084840 0.082822 0.076244 0.066124 0.053922 0.041315 0.029921 0.021054 0.015524 0.013551 0.014770 0.018353 0.023194 0.028133 0.032163 0.034586 0.035092 0.033752 0.030933 0.027166 0.023000 0.018873 0.015030 0.011497 0.008116 0.004618 0.000722 -0.003781 -0.008963 -0.014732 -0.020850 -0.026967 -0.032673 -0.037543 -0.041162 -0.043131 -0.043056 -0.040542 -0.035202 -0.026698 -0.014825 0.000389 0.018559 0.038860 0.059989 0.080220 0.097553 0.109956 0.115661 0.113477 0.103039 0.084959 0.060820 0.033003 0.004368 -0.022176 -0.044116 -0.059736 -0.068379 -0.070514 -0.067606 -0.061785 -0.055403 -0.050543 -0.048594 -0.049983 -0.054102 -0.059475 -0.064111 -0.065981 -0.063510 -0.055985 -0.043778 -0.028342 -0.011961 0.002689 0.013084 0.017385 0.014843 0.005990 -0.007430 -0.022789 -0.037093 -0.047577 -0.052276 -0.050422 -0.042605 -0.030643 -0.017198 -0.005208 0.002749 0.005011 0.001213 -0.007620 -0.019260 -0.030734 -0.038948 -0.041344 -0.036465 -0.024299 -0.006331 0.014707 0.035352 0.052074 0.061971 0.063339 0.056016 0.041428 0.022320 0.002249 -0.015088 -0.026527 -0.030007 -0.024903 -0.012090 0.006289 0.027278 0.047697 0.064743 0.076474 0.082101 0.082032 0.077665 0.071001 0.064157 0.058889 0.056217 0.056244 0.058174 0.060538 0.061561 0.059583 0.053459 0.042834 0.028251 0.011074 -0.006765 -0.023123 -0.036048 -0.044130 -0.046748 -0.044160 -0.037424 -0.028181 -0.018339 -0.009730 -0.003800 -0.001395 -0.002664 -0.007110 -0.013735 -0.021279 -0.028472 -0.034261 -0.037976 -0.039397 -0.038730 -0.036501 -0.033395 -0.030086 -0.027089 -0.024659 -0.022769 -0.021139 -0.019341 -0.016917 -0.013514 -0.008987 -0.003455 0.002695 0.008866 0.014355 0.018476 0.020686 
hipp_sf_0002_CA2 -0.018264 -0.008549 0.009063 0.031257 0.053827 0.072421 0.083329 0.084136 0.074154 0.054536 0.028072 -0.001309 -0.029220 -0.051573 -0.065271 -0.068719 -0.062068 -0.047158 -0.027187 -0.006150 0.011825 0.023154 0.025365 0.017473 0.000115 -0.024567 -0.053261 -0.081975 -0.106607 -0.123506 -0.129941 -0.124438 -0.106935 -0.078763 -0.042459 -0.001455 0.040319 0.078866 0.110545 0.132439 0.142646 0.140454 0.126407 0.102230 0.070653 0.035113 -0.000603 -0.032767 -0.058113 -0.074186 -0.079616 -0.074245 -0.059136 -0.036414 -0.008998 0.019772 0.046533 0.068306 0.082821 0.088749 0.085802 0.074696 0.056997 0.034879 0.010824 -0.012681 -0.033421 -0.049672 -0.060344 -0.065041 -0.064046 -0.058238 -0.048958 -0.037835 -0.026592 -0.016849 -0.009927 -0.006687 -0.007403 -0.011712 -0.018630 -0.026665 -0.034011 -0.038808 -0.039446 -0.034847 -0.024700 -0.009577 0.009073 0.029106 0.047976 0.063144 0.072496 0.074722 0.069567 0.057909 0.041624 0.023275 0.005665 -0.008672 -0.017918 -0.021294 -0.019169 -0.012946 -0.004732 0.003139 0.008619 0.010408 0.008233 0.002907 -0.003873 -0.009945 -0.013219 -0.012236 -0.006598 0.002821 0.013952 0.023895 0.029508 0.028109 0.018127 -0.000414 -0.025725 -0.054428 -0.082077 -0.103934 -0.115843 -0.115048 -0.100775 -0.074459 -0.039564 -0.001010 0.035673 0.065313 0.083995 0.089721 0.082694 0.065196 0.041072 0.014947 -0.008668 -0.026192 -0.035550 -0.036410 -0.030038 -0.018827 -0.005621 0.007006 0.017344 0.024889 0.030352 0.035340 0.041798 0.051345 0.064672 0.081148 0.098753 0.114354 0.124284 0.125103 0.114385 0.091334 0.057107 0.014762 -0.031197 -0.075553 -0.113277 -0.140389 -0.154618 -0.155709 -0.145343 -0.126663 -0.103545 -0.079756 -0.058191 -0.040360 -0.026227 -0.014429 -0.002833 0.010731 0.027706 0.048222 0.070821 0.092577 0.109602 0.117835 0.113962 0.096254 0.065139 0.023376 -0.024235 -0.071569 -0.112186 -0.140448 -0.152523 -0.147080 -0.125532 -0.091782 -0.051503 -0.011106 0.023414 0.047543 0.058996 0.058048 0.047353 0.031330 0.015212 0.003978 0.001345 0.009033 0.026428 0.050696 0.077328 0.100991 0.116529 0.119927 0.109062 0.084108 0.047538 0.003738 -0.041704 -0.082879 -0.114474 -0.132561 -0.135145 -0.122384 -0.096488 -0.061303 -0.021688 0.017213 0.050698 0.075115 0.088274 0.089635 0.080241 0.062449 0.039498 0.014994 -0.007610 -0.025477 -0.036718 -0.040580 -0.037443 -0.028669 -0.016314 -0.002750 0.009731 0.019280 0.024767 0.025916 0.023304 0.018194 0.012262 0.007251 0.004616 0.005231 0.009209 0.015870 0.023871 0.031465 0.036852 0.038541 0.035666 0.028170 0.016837 0.003151 -0.010997 -0.023685 -0.033354 -0.039131 -0.041020 -0.039902 -0.037353 -0.035307 -0.035621 -0.039649 -0.047893 -0.059828 -0.073925 -0.087886 -0.099052 -0.104898 -0.103523 -0.094042 -0.076791 -0.053304 -0.026062 0.001940 0.027721 0.048847 0.063849 0.072451 0.075569 0.075060 0.073297 0.072634 0.074872 0.080841 0.090175 0.101327 0.111840 0.118800 0.119420 0.111615 0.094474 0.068540 0.035822 -0.000450 -0.036297 -0.067615 -0.090841 -0.103535 -0.104792 -0.095399 -0.077711 -0.055262 -0.032187 -0.012529 0.000425 0.004689 -0.000103 -0.012650 -0.030224 -0.049156 -0.065480 -0.075642 -0.077136 -0.068963 -0.051842 -0.028113 -0.001358 0.024206 0.044462 0.056125 0.057360 0.048152 0.030372 0.007515 -0.015858 -0.034890 -0.045267 -0.044007 -0.030035 -0.004453 0.029554 0.067182 0.102757 0.130654 0.146243 0.146679 0.131409 0.102305 0.063387 0.020181 -0.021181 -0.054971 -0.076801 -0.084343 -0.077678 -0.059254 -0.033419 -0.005648 0.018422 0.033973 0.037826 0.028968 0.008699 -0.019636 -0.051251 -0.080772 -0.103170 -0.114616 -0.113115 -0.098802 -0.073877 -0.042184 -0.008527 0.022156 0.045612 0.058947 0.061048 0.052683 0.036291 0.015493 -0.005566 -0.022939 -0.033530 -0.035576 -0.028888 -0.014824 0.004001 0.024182 0.042121 0.054616 0.059378 0.055377 0.042990 0.023920 0.000916 -0.022651 -0.043299 -0.057948 -0.064366 -0.061479 -0.049520 -0.029985 -0.005423 0.020917 0.045532 0.065132 0.077083 0.079754 0.072728 0.056858 0.034154 0.007517 -0.019632 -0.043802 -0.061883 -0.071546 
hipp_sf_0003_DG -0.049821 -0.049741 -0.049177 -0.047469 -0.043964 -0.038306 -0.030690 -0.021976 -0.013647 -0.007564 -0.005590 -0.009145 -0.018786 -0.033933 -0.052793 -0.072548 -0.089765 -0.100973 -0.103306 -0.095063 -0.076088 -0.047882 -0.013399 0.023423 0.058325 0.087451 0.108000 0.118662 0.119775 0.113153 0.101639 0.088471 0.076596 0.068072 0.063688 0.062865 0.063873 0.064292 0.061628 0.053936 0.040328 0.021241 -0.001586 -0.025424 -0.047081 -0.063543 -0.072573 -0.073157 -0.065693 -0.051888 -0.034385 -0.016218 -0.000194 0.011649 0.018390 0.020329 0.018808 0.015809 0.013437 0.013381 0.016510 0.022670 0.030736 0.038904 0.045144 0.047708 0.045578 0.038733 0.028185 0.015766 0.003726 -0.005783 -0.011192 -0.011867 -0.008244 -0.001705 0.005774 0.012121 0.015689 0.015686 0.012392 0.007119 0.001896 -0.001038 0.000165 0.006421 0.017352 0.031207 0.045101 0.055531 0.059087 0.053189 0.036721 0.010399 -0.023196 -0.059955 -0.094888 -0.122950 -0.139914 -0.143099 -0.131833 -0.107559 -0.073572 -0.034450 0.004710 0.039099 0.064906 0.079799 0.083125 0.075807 0.060009 0.038647 0.014864 -0.008428 -0.028860 -0.044755 -0.055121 -0.059538 -0.058010 -0.050848 -0.038621 -0.022184 -0.002763 0.017975 0.037901 0.054537 0.065298 0.067860 0.060592 0.042959 0.015804 -0.018587 -0.056673 -0.094105 -0.126367 -0.149499 -0.160773 -0.159168 -0.145567 -0.122594 -0.094138 -0.064628 -0.038213 -0.018000 -0.005504 -0.000420 -0.000767 -0.003359 -0.004524 -0.000904 0.009813 0.028391 0.053861 0.083687 0.114247 0.141511 0.161786 0.172367 0.171975 0.160904 0.140864 0.114584 0.085261 0.055996 0.029320 0.006919 -0.010436 -0.022734 -0.030446 -0.034191 -0.034458 -0.031452 -0.025104 -0.015235 -0.001811 0.014790 0.033585 0.052947 0.070748 0.084668 0.092615 0.093157 0.085869 0.071498 0.051905 0.029768 0.008115 -0.010229 -0.023168 -0.029703 -0.030086 -0.025701 -0.018720 -0.011599 -0.006523 -0.004936 -0.007253 -0.012817 -0.020106 -0.027148 -0.032038 -0.033438 -0.030944 -0.025233 -0.017952 -0.011367 -0.007860 -0.009376 -0.016951 -0.030418 -0.048379 -0.068430 -0.087611 -0.102971 -0.112139 -0.113781 -0.107838 -0.095511 -0.078997 -0.061040 -0.044395 -0.031322 -0.023214 -0.020427 -0.022340 -0.027601 -0.034520 -0.041469 -0.047233 -0.051210 -0.053429 -0.054394 -0.054802 -0.055217 -0.055789 -0.056092 -0.055134 -0.051540 -0.043873 -0.031017 -0.012537 0.011079 0.038354 0.066959 0.094035 0.116649 0.132277 0.139244 0.137011 0.126266 0.108802 0.087203 0.064408 0.043230 0.025936 0.013946 0.007710 0.006770 0.009977 0.015815 0.022742 0.029497 0.035298 0.039905 0.043553 0.046772 0.050148 0.054088 0.058637 0.063390 0.067518 0.069902 0.069346 0.064818 0.055689 0.041903 0.024063 0.003401 -0.018344 -0.039139 -0.056916 -0.069842 -0.076560 -0.076366 -0.069301 -0.056146 -0.038321 -0.017708 0.003586 0.023492 0.040227 0.052500 0.059651 0.061689 0.059238 0.053390 0.045484 0.036854 0.028585 0.021318 0.015142 0.009601 0.003820 -0.003281 -0.012699 -0.025064 -0.040405 -0.058021 -0.076493 -0.093850 -0.107869 -0.116452 -0.118029 -0.111899 -0.098433 -0.079109 -0.056345 -0.033153 -0.012675 0.002322 0.009910 0.009317 0.001058 -0.013160 -0.030741 -0.048653 -0.063952 -0.074277 -0.078229 -0.075562 -0.067164 -0.054824 -0.040850 -0.027605 -0.017061 -0.010446 -0.008056 -0.009266 -0.012708 -0.016602 -0.019137 -0.018851 -0.014914 -0.007268 0.003389 0.015778 0.028319 0.039455 0.047954 0.053124 0.054909 0.053842 0.050878 0.047162 0.043758 0.041430 0.040499 0.040820 0.041862 0.042891 0.043190 0.042287 0.040111 0.037068 0.033998 0.032022 0.032317 0.035845 0.043112 0.053987 0.067635 0.082568 0.096829 0.108258 0.114823 0.114940 0.107745 0.093263 0.072449 0.047091 0.019591 -0.007346 -0.031071 -0.049346 -0.060634 -0.064299 -0.060676 -0.051009 -0.037268 -0.021865 -0.007329 0.004043 0.010478 0.010954 0.005303 -0.005788 -0.020903 -0.038113 -0.055246 -0.070186 -0.081142 -0.086867 -0.086785 -0.081029 -0.070385 -0.056145 -0.039920 -0.023418 -0.008235 0.004326 0.013380 0.018519 0.019814 0.017754 0.013153 0.007026 0.000458 -0.005519 -0.010032 -0.012454 
hipp_sf_0004_CA3 -0.157711 -0.140914 -0.110096 -0.070236 -0.027506 0.011962 0.043252 0.063532 0.072429 0.071853 0.065319 0.056957 0.050435 0.048071 0.050321 0.055764 0.061574 0.064347 0.061076 0.050025 0.031296 0.006931 -0.019465 -0.043497 -0.060966 -0.068832 -0.065923 -0.053214 -0.033618 -0.011329 0.009137 0.023964 0.030892 0.029711 0.022260 0.011944 0.002874 -0.001173 0.002271 0.013676 0.031276 0.051345 0.068924 0.078864 0.076939 0.060813 0.030636 -0.010833 -0.058615 -0.106328 -0.147263 -0.175503 -0.186886 -0.179635 -0.154555 -0.114812 -0.065340 -0.012034 0.039123 0.082843 0.115119 0.133548 0.137395 0.127442 0.105693 0.075017 0.038783 0.000537 -0.036278 -0.068558 -0.093746 -0.110026 -0.116483 -0.113209 -0.101321 -0.082853 -0.060513 -0.037307 -0.016080 0.000943 0.012547 0.018733 0.020710 0.020640 0.021177 0.024891 0.033679 0.048304 0.068149 0.091257 0.114643 0.134835 0.148517 0.153149 0.147441 0.131583 0.107195 0.077013 0.044405 0.012801 -0.014817 -0.036289 -0.050445 -0.057076 -0.056737 -0.050480 -0.039586 -0.025369 -0.009096 0.007988 0.024585 0.039274 0.050517 0.056788 0.056811 0.049880 0.036151 0.016834 -0.005823 -0.028791 -0.048745 -0.062695 -0.068637 -0.066059 -0.056175 -0.041784 -0.026772 -0.015307 -0.010923 -0.015675 -0.029580 -0.050496 -0.074502 -0.096708 -0.112356 -0.117953 -0.112167 -0.096275 -0.074009 -0.050806 -0.032605 -0.024434 -0.029115 -0.046397 -0.072741 -0.101864 -0.125945 -0.137283 -0.130036 -0.101679 -0.053820 0.007832 0.074374 0.135351 0.180788 0.203208 0.199193 0.170143 0.122057 0.064372 0.008072 -0.036519 -0.061801 -0.064381 -0.045661 -0.011396 0.029661 0.067742 0.094230 0.103541 0.094307 0.069610 0.036219 0.003013 -0.021065 -0.029053 -0.017576 0.012342 0.055444 0.103322 0.146187 0.174928 0.183013 0.167820 0.131140 0.078740 0.019134 -0.038185 -0.084622 -0.114092 -0.124020 -0.115550 -0.092976 -0.062544 -0.030966 -0.003959 0.014836 0.024350 0.025921 0.022567 0.017914 0.015066 0.015722 0.019750 0.025303 0.029443 0.029079 0.021965 0.007491 -0.012960 -0.036185 -0.057843 -0.073476 -0.079633 -0.074799 -0.059908 -0.038284 -0.015009 0.004149 0.014014 0.011192 -0.005101 -0.032773 -0.067213 -0.102214 -0.131239 -0.148769 -0.151434 -0.138675 -0.112807 -0.078478 -0.041658 -0.008381 0.016457 0.030012 0.031900 0.024064 0.010131 -0.005546 -0.018942 -0.027241 -0.029359 -0.026001 -0.019256 -0.011856 -0.006292 -0.004031 -0.005017 -0.007590 -0.008862 -0.005434 0.005681 0.026179 0.055828 0.092233 0.131081 0.166817 0.193626 0.206517 0.202290 0.180185 0.142091 0.092271 0.036674 -0.018036 -0.065541 -0.100820 -0.120832 -0.124832 -0.114285 -0.092447 -0.063699 -0.032794 -0.004135 0.018787 0.033741 0.039873 0.037611 0.028411 0.014434 -0.001805 -0.017760 -0.031113 -0.039963 -0.042960 -0.039375 -0.029118 -0.012709 0.008792 0.033916 0.060945 0.088098 0.113716 0.136404 0.155114 0.169144 0.178059 0.181558 0.179334 0.170974 0.155946 0.133700 0.103883 0.066612 0.022751 -0.025896 -0.076566 -0.125721 -0.169451 -0.204049 -0.226640 -0.235754 -0.231696 -0.216609 -0.194187 -0.169064 -0.145965 -0.128803 -0.119891 -0.119445 -0.125508 -0.134327 -0.141126 -0.141131 -0.130629 -0.107845 -0.073446 -0.030533 0.015865 0.059729 0.095210 0.117780 0.125125 0.117601 0.098136 0.071617 0.043873 0.020490 0.005701 0.001587 0.007754 0.021561 0.038808 0.054759 0.065238 0.067575 0.061180 0.047642 0.030321 0.013558 0.001667 -0.002043 0.003986 0.019221 0.041156 0.065862 0.088825 0.105884 0.114053 0.112062 0.100498 0.081552 0.058443 0.034669 0.013269 -0.003734 -0.015602 -0.022813 -0.026702 -0.028935 -0.030937 -0.033460 -0.036376 -0.038743 -0.039131 -0.036100 -0.028704 -0.016880 -0.001613 0.015170 0.030957 0.043183 0.049790 0.049699 0.043061 0.031224 0.016433 0.001323 -0.011670 -0.020838 -0.025551 -0.026336 -0.024680 -0.022605 -0.022117 -0.024668 -0.030763 -0.039796 -0.050171 -0.059654 -0.065887 -0.066942 -0.061772 -0.050468 -0.034259 -0.015272 0.003901 0.020715 0.033147 0.040033 0.041204 0.037403 0.030024 0.020748 0.011181 0.002569 -0.004344 -0.009302 -0.012395 -0.013855 
hipp_sf_0005_HEAD NaN NaN NaN NaN NaN NaN NaN NaN NaN NaN NaN NaN NaN NaN NaN NaN NaN NaN NaN NaN NaN NaN NaN NaN NaN NaN NaN NaN NaN NaN NaN NaN NaN NaN NaN NaN NaN NaN NaN NaN NaN NaN NaN NaN NaN NaN NaN NaN NaN NaN NaN NaN NaN NaN NaN NaN NaN NaN NaN NaN NaN NaN NaN NaN NaN NaN NaN NaN NaN NaN NaN NaN NaN NaN NaN NaN NaN NaN NaN NaN NaN NaN NaN NaN NaN NaN NaN NaN NaN NaN NaN NaN NaN NaN NaN NaN NaN NaN NaN NaN NaN NaN NaN NaN NaN NaN NaN NaN NaN NaN NaN NaN NaN NaN NaN NaN NaN NaN NaN NaN NaN NaN NaN NaN NaN NaN NaN NaN NaN NaN NaN NaN NaN NaN NaN NaN NaN NaN NaN NaN NaN NaN NaN NaN NaN NaN NaN NaN NaN NaN NaN NaN NaN NaN NaN NaN NaN NaN NaN NaN NaN NaN NaN NaN NaN NaN NaN NaN NaN NaN NaN NaN NaN NaN NaN NaN NaN NaN NaN NaN NaN NaN NaN NaN NaN NaN NaN NaN NaN NaN NaN NaN NaN NaN NaN NaN NaN NaN NaN NaN NaN NaN NaN NaN NaN NaN NaN NaN NaN NaN NaN NaN NaN NaN NaN NaN NaN NaN NaN NaN NaN NaN NaN NaN NaN NaN NaN NaN NaN NaN NaN NaN NaN NaN NaN NaN NaN NaN NaN NaN NaN NaN NaN NaN NaN NaN NaN NaN NaN NaN NaN NaN NaN NaN NaN NaN NaN NaN NaN NaN NaN NaN NaN NaN NaN NaN NaN NaN NaN NaN NaN NaN NaN NaN NaN NaN NaN NaN NaN NaN NaN NaN NaN NaN NaN NaN NaN NaN NaN NaN NaN NaN NaN NaN NaN NaN NaN NaN NaN NaN NaN NaN NaN NaN NaN NaN NaN NaN NaN NaN NaN NaN NaN NaN NaN NaN NaN NaN NaN NaN NaN NaN NaN NaN NaN NaN NaN NaN NaN NaN NaN NaN NaN NaN NaN NaN NaN NaN NaN NaN NaN NaN NaN NaN NaN NaN NaN NaN NaN NaN NaN NaN NaN NaN NaN NaN NaN NaN NaN NaN NaN NaN NaN NaN NaN NaN NaN NaN NaN NaN NaN NaN NaN NaN NaN NaN NaN NaN NaN NaN NaN NaN NaN NaN NaN NaN NaN NaN NaN NaN NaN NaN NaN NaN NaN NaN NaN NaN NaN NaN NaN NaN NaN NaN NaN NaN NaN NaN NaN NaN NaN NaN NaN NaN NaN NaN NaN NaN NaN NaN 
hipp_sf_0006_TAIL -0.032629 -0.017023 0.010625 0.043936 0.075050 0.096277 0.101695 0.088392 0.057063 0.011880 -0.040346 -0.091519 -0.133833 -0.161239 -0.170511 -0.161699 -0.137915 -0.104508 -0.067855 -0.034017 -0.007569 0.009170 0.016365 0.016337 0.012782 0.009755 0.010634 0.017324 0.029851 0.046417 0.063881 0.078540 0.087012 0.087016 0.077893 0.060745 0.038204 0.013872 -0.008398 -0.025249 -0.034414 -0.035060 -0.027821 -0.014551 0.002128 0.019372 0.034632 0.046038 0.052603 0.054223 0.051517 0.045573 0.037654 0.028960 0.020454 0.012786 0.006297 0.001073 -0.002991 -0.006117 -0.008597 -0.010743 -0.012840 -0.015068 -0.017426 -0.019633 -0.021076 -0.020823 -0.017733 -0.010683 0.001112 0.017752 0.038350 0.060885 0.082274 0.098720 0.106308 0.101773 0.083290 0.051128 0.007985 -0.041124 -0.089448 -0.129532 -0.154507 -0.159439 -0.142436 -0.105296 -0.053498 0.004507 0.058628 0.098863 0.117132 0.108845 0.073912 0.016954 -0.053336 -0.125603 -0.187761 -0.229081 -0.242075 -0.223799 -0.176346 -0.106445 -0.024248 0.058453 0.130236 0.181910 0.207898 0.206906 0.181806 0.138805 0.086101 0.032334 -0.014877 -0.050040 -0.070367 -0.075785 -0.068453 -0.051953 -0.030379 -0.007527 0.013660 0.031306 0.044509 0.053032 0.056920 0.056180 0.050645 0.040044 0.024260 0.003671 -0.020548 -0.046295 -0.070649 -0.090260 -0.101932 -0.103299 -0.093416 -0.073124 -0.045068 -0.013329 0.017275 0.042087 0.057537 0.061879 0.055583 0.041285 0.023285 0.006693 -0.003614 -0.004003 0.007131 0.028991 0.058460 0.090654 0.119808 0.140329 0.147815 0.139831 0.116322 0.079587 0.033860 -0.015425 -0.062510 -0.102182 -0.130476 -0.145125 -0.145700 -0.133476 -0.111081 -0.082033 -0.050232 -0.019515 0.006713 0.025743 0.035739 0.035852 0.026286 0.008318 -0.015746 -0.042704 -0.068704 -0.089633 -0.101613 -0.101561 -0.087734 -0.060146 -0.020768 0.026567 0.076577 0.123221 0.160579 0.183764 0.189718 0.177742 0.149641 0.109462 0.062854 0.016164 -0.024565 -0.054530 -0.070853 -0.072924 -0.062337 -0.042479 -0.017838 0.006799 0.027124 0.039915 0.043401 0.037339 0.022838 0.002005 -0.022485 -0.047818 -0.071377 -0.090965 -0.104915 -0.112116 -0.112002 -0.104552 -0.090305 -0.070403 -0.046605 -0.021245 0.002921 0.022998 0.036341 0.041014 0.036209 0.022548 0.002156 -0.021532 -0.044241 -0.061541 -0.069621 -0.066023 -0.050162 -0.023526 0.010503 0.047205 0.081332 0.108049 0.123791 0.126885 0.117790 0.098926 0.074114 0.047761 0.023955 0.005672 -0.005734 -0.010674 -0.011046 -0.009643 -0.009370 -0.012455 -0.019851 -0.030958 -0.043736 -0.055178 -0.062040 -0.061660 -0.052667 -0.035421 -0.012081 0.013734 0.037620 0.055245 0.063226 0.059818 0.045285 0.021864 -0.006657 -0.035658 -0.060551 -0.077603 -0.084552 -0.080912 -0.067900 -0.048047 -0.024582 -0.000744 0.020833 0.038517 0.051809 0.061184 0.067718 0.072609 0.076719 0.080261 0.082712 0.082960 0.079654 0.071662 0.058513 0.040706 0.019796 -0.001774 -0.021088 -0.035314 -0.042310 -0.041123 -0.032282 -0.017801 -0.000881 0.014653 0.025059 0.027416 0.020235 0.003823 -0.019666 -0.046533 -0.072127 -0.091635 -0.100940 -0.097390 -0.080339 -0.051378 -0.014186 0.025958 0.062961 0.090845 0.104702 0.101505 0.080659 0.044172 -0.003555 -0.056330 -0.107053 -0.148769 -0.175713 -0.184189 -0.173144 -0.144323 -0.101993 -0.052251 -0.002047 0.041937 0.074349 0.091995 0.094287 0.083226 0.062922 0.038747 0.016271 0.000185 -0.006589 -0.003413 0.008006 0.024038 0.039943 0.050909 0.053105 0.044532 0.025497 -0.001405 -0.031778 -0.060299 -0.081792 -0.092272 -0.089753 -0.074628 -0.049566 -0.018931 0.012138 0.038798 0.057470 0.066526 0.066518 0.059927 0.050490 0.042251 0.038578 0.041348 0.050502 0.064069 0.078652 0.090257 0.095286 0.091447 0.078380 0.057830 0.033337 0.009491 -0.009083 -0.018774 -0.017841 -0.006873 0.011261 0.031965 0.049861 0.059928 0.058572 0.044423 0.018658 -0.015203 -0.051986 -0.085885 -0.111599 -0.125344 -0.125527 -0.112956 -0.090555 -0.062674 -0.034154 -0.009357 0.008621 0.018403 0.020378 0.016365 0.008995 0.000995 -0.005465 -0.009193 -0.010094 -0.008978 -0.007141 -0.005841 
hipp_sf_0007_MISC 0.092970 0.082339 0.062577 0.036424 0.007394 -0.020822 -0.044951 -0.062644 -0.072784 -0.075561 -0.072296 -0.065078 -0.056272 -0.048025 -0.041852 -0.038380 -0.037311 -0.037580 -0.037671 -0.036024 -0.031419 -0.023280 -0.011812 0.002037 0.016792 0.030770 0.042446 0.050775 0.055387 0.056634 0.055453 0.053105 0.050825 0.049495 0.049392 0.050092 0.050552 0.049357 0.045083 0.036693 0.023886 0.007298 -0.011485 -0.030121 -0.045896 -0.056218 -0.059124 -0.053709 -0.040368 -0.020814 0.002159 0.025119 0.044572 0.057559 0.062171 0.057869 0.045560 0.027417 0.006465 -0.013972 -0.030860 -0.041974 -0.046244 -0.043868 -0.036181 -0.025316 -0.013731 -0.003702 0.003114 0.005967 0.005093 0.001581 -0.002922 -0.006621 -0.007981 -0.006068 -0.000740 0.007343 0.016875 0.026198 0.033646 0.037884 0.038145 0.034338 0.027002 0.017131 0.005925 -0.005477 -0.016208 -0.025782 -0.034078 -0.041219 -0.047373 -0.052555 -0.056477 -0.058511 -0.057780 -0.053373 -0.044625 -0.031417 -0.014392 0.004967 0.024445 0.041384 0.053126 0.057514 0.053362 0.040790 0.021340 -0.002170 -0.026043 -0.046289 -0.059297 -0.062476 -0.054734 -0.036700 -0.010651 0.019853 0.050564 0.077249 0.096377 0.105664 0.104374 0.093331 0.074657 0.051287 0.026393 0.002801 -0.017449 -0.033340 -0.044877 -0.052860 -0.058514 -0.063053 -0.067304 -0.071467 -0.075067 -0.077102 -0.076349 -0.071739 -0.062716 -0.049478 -0.033042 -0.015112 0.002226 0.016926 0.027403 0.032870 0.033518 0.030464 0.025509 0.020729 0.017994 0.018532 0.022625 0.029508 0.037511 0.044402 0.047877 0.046078 0.038045 0.023988 0.005333 -0.015487 -0.035436 -0.051416 -0.060819 -0.061990 -0.054509 -0.039240 -0.018147 0.006082 0.030522 0.052500 0.070003 0.081923 0.088111 0.089230 0.086479 0.081237 0.074722 0.067737 0.060548 0.052914 0.044247 0.033850 0.021188 0.006104 -0.011053 -0.029413 -0.047690 -0.064370 -0.077948 -0.087152 -0.091122 -0.089514 -0.082518 -0.070802 -0.055413 -0.037648 -0.018944 -0.000774 0.015425 0.028320 0.036743 0.039777 0.036852 0.027857 0.013236 -0.005960 -0.028086 -0.051021 -0.072376 -0.089782 -0.101213 -0.105287 -0.101491 -0.090274 -0.072983 -0.051650 -0.028656 -0.006351 0.013314 0.029047 0.040334 0.047387 0.050937 0.051936 0.051234 0.049325 0.046224 0.041520 0.034584 0.024899 0.012411 -0.002185 -0.017320 -0.030658 -0.039418 -0.040891 -0.033043 -0.015075 0.012180 0.046150 0.082745 0.116904 0.143388 0.157677 0.156799 0.139931 0.108645 0.066719 0.019554 -0.026712 -0.066235 -0.094440 -0.108761 -0.108992 -0.097208 -0.077253 -0.053918 -0.031977 -0.015265 -0.005994 -0.004430 -0.008991 -0.016719 -0.024038 -0.027598 -0.025055 -0.015590 -0.000095 0.019044 0.038470 0.054605 0.064425 0.066117 0.059463 0.045876 0.028089 0.009567 -0.006231 -0.016573 -0.020008 -0.016640 -0.008065 0.002999 0.013317 0.019825 0.020273 0.013677 0.000489 -0.017525 -0.037679 -0.056937 -0.072517 -0.082426 -0.085795 -0.082972 -0.075351 -0.065005 -0.054192 -0.044873 -0.038314 -0.034876 -0.034010 -0.034449 -0.034543 -0.032647 -0.027483 -0.018396 -0.005457 0.010590 0.028514 0.046851 0.064177 0.079317 0.091466 0.100208 0.105430 0.107201 0.105637 0.100810 0.092739 0.081444 0.067065 0.049997 0.030989 0.011166 -0.008049 -0.025109 -0.038600 -0.047503 -0.051427 -0.050728 -0.046492 -0.040366 -0.034257 -0.029964 -0.028803 -0.031319 -0.037144 -0.045032 -0.053088 -0.059135 -0.061158 -0.057730 -0.048347 -0.033579 -0.015027 0.004925 0.023518 0.038096 0.046580 0.047836 0.041877 0.029857 0.013874 -0.003395 -0.019138 -0.030862 -0.036772 -0.036013 -0.028740 -0.016030 0.000348 0.018251 0.035489 0.050127 0.060695 0.066304 0.066650 0.061942 0.052778 0.040011 0.024632 0.007686 -0.009765 -0.026658 -0.041933 -0.054544 -0.063506 -0.067974 -0.067345 -0.061375 -0.050275 -0.034764 -0.016053 0.004243 0.024268 0.042138 0.056174 0.065113 0.068268 0.065607 0.057734 0.045783 0.031239 0.015718 0.000745 -0.012428 -0.022951 -0.030427 -0.034876 -0.036649 -0.036294 -0.034415 -0.031553 -0.028097 -0.024260 -0.020095 -0.015559 -0.010589 -0.005185 0.000531 0.006297 0.011725 0.016361 0.019755 0.021551 
hipp_sf_0008_SUB -0.006378 0.005602 0.027536 0.055670 0.085080 0.110397 0.126600 0.129768 0.117657 0.090054 0.048827 -0.002305 -0.058264 -0.113284 -0.161661 -0.198475 -0.220192 -0.225049 -0.213190 -0.186545 -0.148467 -0.103219 -0.055360 -0.009157 0.031913 0.065487 0.090448 0.106842 0.115624 0.118283 0.116435 0.111445 0.104161 0.094802 0.083016 0.068096 0.049296 0.026189 -0.001013 -0.031254 -0.062599 -0.092374 -0.117492 -0.134902 -0.142080 -0.137498 -0.120951 -0.093707 -0.058416 -0.018805 0.020815 0.056142 0.083475 0.100225 0.105239 0.098904 0.083005 0.060388 0.034474 0.008731 -0.013810 -0.030922 -0.041361 -0.044869 -0.042007 -0.033885 -0.021852 -0.007226 0.008887 0.025660 0.042495 0.058912 0.074413 0.088393 0.100134 0.108903 0.114126 0.115608 0.113706 0.109410 0.104247 0.100027 0.098429 0.100517 0.106291 0.114393 0.122063 0.125419 0.120045 0.101825 0.067873 0.017387 -0.047764 -0.122873 -0.200741 -0.272524 -0.328986 -0.361955 -0.365739 -0.338234 -0.281511 -0.201734 -0.108392 -0.012955 0.072846 0.138801 0.177783 0.186790 0.167301 0.124878 0.068096 0.007006 -0.048589 -0.090731 -0.114481 -0.118505 -0.104960 -0.078774 -0.046467 -0.014788 0.010565 0.025900 0.029989 0.023986 0.010865 -0.005457 -0.021096 -0.033048 -0.039734 -0.041132 -0.038512 -0.033863 -0.029184 -0.025829 -0.024084 -0.023077 -0.021046 -0.015896 -0.005891 0.009705 0.030210 0.053464 0.076164 0.094534 0.105192 0.106008 0.096743 0.079293 0.057464 0.036275 0.020938 0.015698 0.022817 0.041894 0.069735 0.100789 0.128118 0.144710 0.144878 0.125460 0.086581 0.031790 -0.032437 -0.097774 -0.155473 -0.197870 -0.219694 -0.218909 -0.196955 -0.158346 -0.109735 -0.058637 -0.012077 0.024575 0.048370 0.059025 0.058637 0.050974 0.040514 0.031458 0.026919 0.028434 0.035876 0.047726 0.061605 0.074920 0.085447 0.091731 0.093238 0.090237 0.083519 0.074025 0.062538 0.049521 0.035147 0.019513 0.002952 -0.013667 -0.028771 -0.040144 -0.045240 -0.041713 -0.028063 -0.004235 0.027986 0.064915 0.101310 0.131102 0.148391 0.148530 0.129084 0.090448 0.035995 -0.028324 -0.094847 -0.155415 -0.202679 -0.231269 -0.238612 -0.225236 -0.194525 -0.151996 -0.104254 -0.057851 -0.018261 0.010813 0.027725 0.032724 0.027467 0.014324 -0.004287 -0.026411 -0.050762 -0.076619 -0.103461 -0.130490 -0.156192 -0.178123 -0.193004 -0.197174 -0.187311 -0.161276 -0.118883 -0.062376 0.003529 0.072108 0.135561 0.186243 0.217981 0.227198 0.213613 0.180355 0.133449 0.080756 0.030570 -0.009848 -0.035524 -0.044540 -0.038189 -0.020489 0.002841 0.025701 0.042956 0.051513 0.050908 0.043279 0.032752 0.024368 0.022813 0.031220 0.050311 0.078082 0.110093 0.140306 0.162312 0.170667 0.162071 0.136138 0.095604 0.045910 -0.005734 -0.051630 -0.084953 -0.100942 -0.097679 -0.076333 -0.040837 0.002906 0.048130 0.088380 0.118550 0.135576 0.138706 0.129319 0.110380 0.085670 0.058975 0.033392 0.010881 -0.007867 -0.023276 -0.036501 -0.048932 -0.061718 -0.075407 -0.089782 -0.103903 -0.116331 -0.125456 -0.129853 -0.128583 -0.121376 -0.108667 -0.091510 -0.071397 -0.050028 -0.029114 -0.010213 0.005348 0.016497 0.022404 0.022460 0.016298 0.003838 -0.014615 -0.038269 -0.065769 -0.095192 -0.124141 -0.149950 -0.169980 -0.181972 -0.184382 -0.176650 -0.159325 -0.134024 -0.103225 -0.069909 -0.037124 -0.007540 0.016917 0.035302 0.047703 0.055121 0.059187 0.061790 0.064681 0.069126 0.075675 0.084074 0.093339 0.101969 0.108243 0.110558 0.107737 0.099262 0.085391 0.067145 0.046180 0.024561 0.004478 -0.012046 -0.023420 -0.028689 -0.027634 -0.020783 -0.009309 0.005149 0.020734 0.035632 0.048333 0.057830 0.063737 0.066307 0.066344 0.065014 0.063603 0.063256 0.064748 0.068336 0.073725 0.080154 0.086591 0.092001 0.095608 0.097114 0.096785 0.095398 0.094028 0.093715 0.095087 0.098022 0.101445 0.103337 0.100978 0.091428 0.072149 0.041673 0.000163 -0.050267 -0.105562 -0.160134 -0.207607 -0.241810 -0.257840 -0.253007 -0.227457 -0.184344 -0.129483 -0.070504 -0.015659 0.027538 0.053577 0.059892 0.047306 0.019854 -0.015957 -0.052354 -0.081737 -0.098088 
hipp_sf_0009_ERC 0.033275 0.034260 0.035595 0.036146 0.034522 0.029385 0.019747 0.005225 -0.013823 -0.036282 -0.060396 -0.083995 -0.104782 -0.120630 -0.129862 -0.131442 -0.125089 -0.111278 -0.091166 -0.066446 -0.039151 -0.011448 0.014570 0.037077 0.054684 0.066557 0.072505 0.072990 0.069076 0.062300 0.054467 0.047388 0.042605 0.041118 0.043196 0.048295 0.055118 0.061827 0.066378 0.066922 0.062204 0.051871 0.036617 0.018132 -0.001174 -0.018597 -0.031673 -0.038680 -0.039015 -0.033366 -0.023600 -0.012409 -0.002755 0.002763 0.002494 -0.003870 -0.015170 -0.028974 -0.042067 -0.051123 -0.053431 -0.047513 -0.033498 -0.013146 0.010473 0.033602 0.052582 0.064630 0.068443 0.064474 0.054834 0.042801 0.032077 0.025919 0.026370 0.033748 0.046525 0.061629 0.075119 0.083070 0.082492 0.072050 0.052436 0.026277 -0.002396 -0.029012 -0.049478 -0.061097 -0.063194 -0.057282 -0.046729 -0.035966 -0.029434 -0.030479 -0.040467 -0.058322 -0.080618 -0.102224 -0.117378 -0.120973 -0.109770 -0.083263 -0.043998 0.002742 0.049858 0.089764 0.115859 0.123846 0.112597 0.084396 0.044491 0.000053 -0.041244 -0.072725 -0.089974 -0.091604 -0.079367 -0.057610 -0.032192 -0.009126 0.006759 0.012837 0.009157 -0.001716 -0.015454 -0.027124 -0.032478 -0.029070 -0.016934 0.001336 0.021137 0.036920 0.043516 0.037440 0.017850 -0.013049 -0.050284 -0.087018 -0.115904 -0.130601 -0.127131 -0.104763 -0.066255 -0.017364 0.034258 0.080561 0.114676 0.132232 0.132151 0.116746 0.091115 0.061973 0.036158 0.019167 0.014001 0.020585 0.035870 0.054581 0.070451 0.077658 0.072159 0.052635 0.020840 -0.018697 -0.059564 -0.094745 -0.118022 -0.125194 -0.114874 -0.088714 -0.051013 -0.007820 0.034269 0.069369 0.093358 0.104512 0.103629 0.093633 0.078782 0.063654 0.052154 0.046737 0.047998 0.054691 0.064151 0.072982 0.077864 0.076286 0.067056 0.050489 0.028273 0.003049 -0.022166 -0.044583 -0.062133 -0.073754 -0.079435 -0.080031 -0.076923 -0.071617 -0.065394 -0.059080 -0.052991 -0.047031 -0.040904 -0.034375 -0.027477 -0.020620 -0.014564 -0.010264 -0.008622 -0.010232 -0.015174 -0.022918 -0.032373 -0.042075 -0.050458 -0.056169 -0.058323 -0.056673 -0.051625 -0.044134 -0.035479 -0.027004 -0.019864 -0.014858 -0.012355 -0.012336 -0.014513 -0.018477 -0.023824 -0.030205 -0.037283 -0.044616 -0.051501 -0.056842 -0.059118 -0.056490 -0.047067 -0.029307 -0.002476 0.032929 0.074919 0.119982 0.163355 0.199589 0.223324 0.230172 0.217519 0.185117 0.135314 0.072866 0.004330 -0.062858 -0.121479 -0.165605 -0.191449 -0.197852 -0.186307 -0.160541 -0.125720 -0.087460 -0.050818 -0.019472 0.004770 0.022040 0.034078 0.043577 0.053363 0.065593 0.081148 0.099346 0.118043 0.134084 0.144016 0.144897 0.135029 0.114453 0.085098 0.050542 0.015430 -0.015334 -0.037472 -0.048109 -0.046295 -0.033175 -0.011766 0.013601 0.038072 0.057138 0.067420 0.067225 0.056778 0.038103 0.014581 -0.009707 -0.030747 -0.045297 -0.051432 -0.048820 -0.038715 -0.023663 -0.007016 0.007673 0.017250 0.019452 0.013227 -0.001158 -0.022228 -0.047580 -0.074273 -0.099262 -0.119801 -0.133761 -0.139834 -0.137606 -0.127523 -0.110755 -0.089015 -0.064340 -0.038883 -0.014718 0.006317 0.022754 0.033589 0.038339 0.037073 0.030394 0.019391 0.005539 -0.009443 -0.023764 -0.035754 -0.044051 -0.047762 -0.046570 -0.040768 -0.031211 -0.019187 -0.006222 0.006143 0.016593 0.024224 0.028677 0.030165 0.029410 0.027480 0.025563 0.024719 0.025647 0.028515 0.032897 0.037822 0.041949 0.043824 0.042196 0.036319 0.026188 0.012651 -0.002626 -0.017362 -0.028998 -0.035128 -0.033939 -0.024595 -0.007478 0.015765 0.042387 0.068913 0.091663 0.107336 0.113562 0.109322 0.095154 0.073102 0.046407 0.018992 -0.005171 -0.022714 -0.031411 -0.030521 -0.020858 -0.004603 0.015132 0.034883 0.051449 0.062436 0.066605 0.063990 0.055757 0.043843 0.030466 0.017609 0.006600 -0.002137 -0.009096 -0.015470 -0.022762 -0.032306 -0.044819 -0.060089 -0.076879 -0.093076 -0.106070 -0.113275 -0.112704 -0.103443 -0.085947 -0.062063 -0.034771 -0.007687 0.015587 0.032121 0.040208 0.039676 0.031909 0.019554 0.005980 -0.005409 -0.011868 
hipp_sf_0010_BA35 0.038845 0.036470 0.031797 0.024973 0.016207 0.005772 -0.006000 -0.018702 -0.031830 -0.044770 -0.056793 -0.067070 -0.074730 -0.078943 -0.079037 -0.074624 -0.065710 -0.052769 -0.036747 -0.018993 -0.001110 0.015257 0.028666 0.038105 0.043170 0.044144 0.041962 0.038053 0.034085 0.031654 0.031971 0.035605 0.042340 0.051175 0.060472 0.068234 0.072471 0.071575 0.064651 0.051732 0.033830 0.012821 -0.008831 -0.028460 -0.043630 -0.052536 -0.054300 -0.049121 -0.038234 -0.023703 -0.008073 0.006055 0.016446 0.021590 0.020926 0.014905 0.004875 -0.007179 -0.018988 -0.028401 -0.033741 -0.034069 -0.029316 -0.020254 -0.008331 0.004604 0.016638 0.026111 0.031886 0.033499 0.031196 0.025823 0.018630 0.011009 0.004221 -0.000830 -0.003737 -0.004628 -0.004083 -0.002976 -0.002254 -0.002717 -0.004837 -0.008657 -0.013792 -0.019522 -0.024962 -0.029271 -0.031844 -0.032452 -0.031297 -0.028963 -0.026272 -0.024081 -0.023071 -0.023553 -0.025369 -0.027892 -0.030143 -0.030991 -0.029417 -0.024759 -0.016903 -0.006361 0.005783 0.018050 0.028849 0.036789 0.040970 0.041183 0.037969 0.032532 0.026496 0.021579 0.019229 0.020314 0.024918 0.032304 0.041045 0.049296 0.055161 0.057079 0.054131 0.046231 0.034137 0.019300 0.003568 -0.011172 -0.023352 -0.032001 -0.036878 -0.038448 -0.037712 -0.035924 -0.034279 -0.033637 -0.034349 -0.036217 -0.038600 -0.040622 -0.041439 -0.040479 -0.037609 -0.033169 -0.027879 -0.022627 -0.018212 -0.015090 -0.013215 -0.012008 -0.010470 -0.007437 -0.001901 0.006674 0.018119 0.031476 0.045105 0.056960 0.064987 0.067569 0.063897 0.054204 0.039782 0.022788 0.005843 -0.008458 -0.018053 -0.021814 -0.019753 -0.012985 -0.003471 0.006430 0.014477 0.019030 0.019390 0.015914 0.009898 0.003229 -0.002076 -0.004378 -0.002816 0.002465 0.010333 0.018905 0.025978 0.029519 0.028138 0.021397 0.009927 -0.004711 -0.020358 -0.034716 -0.045823 -0.052441 -0.054254 -0.051859 -0.046543 -0.039910 -0.033469 -0.028266 -0.024670 -0.022351 -0.020462 -0.017960 -0.013991 -0.008221 -0.001024 0.006527 0.012892 0.016447 0.015937 0.010887 0.001843 -0.009611 -0.021108 -0.029962 -0.033756 -0.030914 -0.021126 -0.005516 0.013515 0.032729 0.048708 0.058574 0.060625 0.054720 0.042337 0.026267 0.010017 -0.002970 -0.010075 -0.010100 -0.003532 0.007571 0.020067 0.030485 0.035866 0.034507 0.026424 0.013418 -0.001294 -0.013806 -0.020448 -0.018721 -0.008001 0.010144 0.032120 0.052953 0.067277 0.070482 0.059759 0.034834 -0.001799 -0.045202 -0.088824 -0.125684 -0.149673 -0.156707 -0.145502 -0.117806 -0.078053 -0.032507 0.011937 0.049023 0.074247 0.085577 0.083652 0.071444 0.053467 0.034726 0.019636 0.011130 0.010158 0.015642 0.024894 0.034358 0.040528 0.040792 0.034039 0.020893 0.003531 -0.014857 -0.030830 -0.041498 -0.045176 -0.041753 -0.032687 -0.020632 -0.008810 -0.000252 0.002895 -0.000150 -0.008641 -0.020494 -0.032787 -0.042435 -0.046901 -0.044770 -0.036066 -0.022241 -0.005851 0.010019 0.022426 0.029210 0.029443 0.023611 0.013486 0.001721 -0.008723 -0.015198 -0.015906 -0.010229 0.001192 0.016647 0.033749 0.049939 0.062979 0.071337 0.074384 0.072370 0.066230 0.057244 0.046690 0.035540 0.024295 0.012985 0.001314 -0.011091 -0.024398 -0.038356 -0.052194 -0.064677 -0.074311 -0.079657 -0.079663 -0.073957 -0.063005 -0.048097 -0.031159 -0.014416 0.000009 0.010500 0.016239 0.017346 0.014821 0.010305 0.005714 0.002817 0.002855 0.006268 0.012605 0.020608 0.028469 0.034195 0.036011 0.032709 0.023897 0.010079 -0.007413 -0.026641 -0.045358 -0.061352 -0.072740 -0.078196 -0.077068 -0.069384 -0.055776 -0.037346 -0.015504 0.008169 0.032040 0.054507 0.074059 0.089338 0.099199 0.102805 0.099730 0.090063 0.074485 0.054281 0.031283 0.007698 -0.014126 -0.032006 -0.044232 -0.049825 -0.048700 -0.041692 -0.030434 -0.017090 -0.004009 0.006668 0.013359 0.015282 0.012562 0.006159 -0.002355 -0.011118 -0.018355 -0.022721 -0.023546 -0.020934 -0.015710 -0.009207 -0.002968 0.001595 0.003513 0.002457 -0.001194 -0.006440 -0.011887 -0.016049 -0.017680 -0.016049 -0.011110 -0.003530 0.005437 0.014199 0.021148 0.024984 
hipp_sf_0011_BA36 0.055283 0.050340 0.041018 0.028379 0.013846 -0.000976 -0.014510 -0.025416 -0.032766 -0.036174 -0.035836 -0.032489 -0.027281 -0.021567 -0.016670 -0.013645 -0.013088 -0.015022 -0.018894 -0.023690 -0.028125 -0.030909 -0.031003 -0.027835 -0.021424 -0.012384 -0.001804 0.008961 0.018558 0.025893 0.030333 0.031798 0.030731 0.027952 0.024440 0.021081 0.018453 0.016706 0.015552 0.014385 0.012486 0.009278 0.004553 -0.001384 -0.007703 -0.013177 -0.016427 -0.016247 -0.011918 -0.003442 0.008357 0.021914 0.035164 0.045917 0.052273 0.053004 0.047810 0.037399 0.023358 0.007852 -0.006797 -0.018556 -0.026058 -0.028832 -0.027339 -0.022806 -0.016899 -0.011323 -0.007428 -0.005915 -0.006715 -0.009056 -0.011705 -0.013318 -0.012815 -0.009686 -0.004152 0.002861 0.009924 0.015446 0.018066 0.016990 0.012215 0.004552 -0.004539 -0.013283 -0.020002 -0.023520 -0.023451 -0.020311 -0.015405 -0.010523 -0.007505 -0.007781 -0.011982 -0.019735 -0.029686 -0.039752 -0.047562 -0.050986 -0.048632 -0.040204 -0.026629 -0.009921 0.007193 0.021815 0.031462 0.034582 0.030875 0.021361 0.008173 -0.005876 -0.017860 -0.025321 -0.026741 -0.021798 -0.011380 0.002656 0.017914 0.031968 0.042847 0.049382 0.051357 0.049428 0.044864 0.039160 0.033649 0.029178 0.025957 0.023582 0.021238 0.018005 0.013199 0.006636 -0.001242 -0.009421 -0.016540 -0.021232 -0.022499 -0.020010 -0.014265 -0.006542 0.001342 0.007430 0.010087 0.008412 0.002512 -0.006448 -0.016436 -0.024959 -0.029595 -0.028549 -0.021097 -0.007824 0.009400 0.027725 0.043839 0.054592 0.057621 0.051822 0.037588 0.016765 -0.007672 -0.032153 -0.053138 -0.067731 -0.074140 -0.071926 -0.061984 -0.046294 -0.027495 -0.008381 0.008566 0.021540 0.029590 0.032628 0.031266 0.026560 0.019727 0.011902 0.003982 -0.003417 -0.009918 -0.015280 -0.019291 -0.021708 -0.022256 -0.020703 -0.016987 -0.011338 -0.004360 0.002972 0.009431 0.013746 0.014871 0.012251 0.006017 -0.002953 -0.013128 -0.022578 -0.029349 -0.031868 -0.029307 -0.021810 -0.010532 0.002547 0.014978 0.024329 0.028686 0.027062 0.019631 0.007727 -0.006396 -0.019999 -0.030395 -0.035478 -0.034136 -0.026457 -0.013690 0.002030 0.018130 0.032115 0.042054 0.046911 0.046678 0.042272 0.035232 0.027304 0.020003 0.014270 0.010296 0.007557 0.005046 0.001649 -0.003452 -0.010422 -0.018597 -0.026508 -0.032144 -0.033384 -0.028512 -0.016706 0.001632 0.024774 0.049844 0.073257 0.091330 0.100955 0.100200 0.088708 0.067807 0.040307 0.010018 -0.018927 -0.042801 -0.058929 -0.066128 -0.064845 -0.056989 -0.045485 -0.033645 -0.024494 -0.020181 -0.021581 -0.028182 -0.038254 -0.049252 -0.058387 -0.063212 -0.062129 -0.054701 -0.041727 -0.025055 -0.007205 0.009144 0.021662 0.028800 0.030042 0.025951 0.017997 0.008220 -0.001192 -0.008337 -0.011938 -0.011551 -0.007578 -0.001135 0.006234 0.012885 0.017418 0.018932 0.017179 0.012568 0.006047 -0.001112 -0.007574 -0.012202 -0.014254 -0.013501 -0.010239 -0.005205 0.000576 0.005989 0.010023 0.011942 0.011397 0.008464 0.003632 -0.002289 -0.008288 -0.013297 -0.016343 -0.016675 -0.013869 -0.007887 0.000906 0.011779 0.023710 0.035499 0.045918 0.053852 0.058450 0.059239 0.056185 0.049705 0.040605 0.029965 0.018969 0.008729 0.000112 -0.006389 -0.010714 -0.013222 -0.014589 -0.015650 -0.017201 -0.019815 -0.023690 -0.028577 -0.033803 -0.038382 -0.041202 -0.041251 -0.037845 -0.030801 -0.020524 -0.007992 0.005372 0.017918 0.028035 0.034422 0.036312 0.033609 0.026909 0.017399 0.006660 -0.003598 -0.011822 -0.016860 -0.018137 -0.015723 -0.010283 -0.002936 0.004961 0.012058 0.017228 0.019739 0.019331 0.016207 0.010936 0.004305 -0.002855 -0.009824 -0.016111 -0.021494 -0.026000 -0.029825 -0.033214 -0.036344 -0.039228 -0.041665 -0.043260 -0.043490 -0.041824 -0.037854 -0.031415 -0.022670 -0.012130 -0.000613 0.010861 0.021217 0.029488 0.034962 0.037289 0.036525 0.033110 0.027781 0.021438 0.014996 0.009236 0.004699 0.001626 -0.000038 -0.000589 -0.000459 -0.000111 0.000080 -0.000097 -0.000651 -0.001405 -0.002049 -0.002230 -0.001647 -0.000137 0.002272 0.005352 0.008707 0.011844 0.014273 0.015597 
hipp_sf_0012_PHC 0.056244 0.052930 0.046568 0.037627 0.026672 0.014237 0.000714 -0.013712 -0.029058 -0.045473 -0.063103 -0.081933 -0.101631 -0.121446 -0.140181 -0.156263 -0.167909 -0.173357 -0.171126 -0.160269 -0.140547 -0.112517 -0.077496 -0.037421 0.005385 0.048477 0.089556 0.126677 0.158372 0.183670 0.202035 0.213233 0.217189 0.213873 0.203251 0.185324 0.160258 0.128563 0.091289 0.050161 0.007620 -0.033289 -0.069187 -0.096759 -0.113241 -0.116901 -0.107431 -0.086158 -0.056023 -0.021283 0.013017 0.041745 0.060451 0.066066 0.057420 0.035472 0.003207 -0.034809 -0.073121 -0.106251 -0.129547 -0.139907 -0.136225 -0.119487 -0.092511 -0.059378 -0.024653 0.007428 0.033690 0.052493 0.063899 0.069489 0.071882 0.074073 0.078722 0.087538 0.100907 0.117800 0.136004 0.152594 0.164543 0.169328 0.165406 0.152446 0.131294 0.103679 0.071751 0.037585 0.002771 -0.031793 -0.065844 -0.099462 -0.132600 -0.164599 -0.193820 -0.217542 -0.232203 -0.233986 -0.219656 -0.187487 -0.138065 -0.074745 -0.003623 0.067074 0.128106 0.170697 0.188098 0.176947 0.138122 0.076894 0.002292 -0.074259 -0.140785 -0.186793 -0.205097 -0.193082 -0.153176 -0.092404 -0.021113 0.048902 0.106513 0.143209 0.154511 0.140591 0.105986 0.058498 0.007508 -0.037926 -0.070802 -0.087392 -0.087705 -0.075148 -0.055473 -0.035280 -0.020422 -0.014657 -0.018859 -0.030925 -0.046402 -0.059653 -0.065298 -0.059568 -0.041287 -0.012231 0.023205 0.058944 0.088572 0.106755 0.110424 0.099438 0.076589 0.046942 0.016663 -0.008396 -0.024021 -0.028577 -0.023343 -0.012160 -0.000475 0.005997 0.002705 -0.012560 -0.038996 -0.072793 -0.107818 -0.136829 -0.152962 -0.151176 -0.129323 -0.088647 -0.033581 0.029085 0.091488 0.146156 0.187332 0.211897 0.219726 0.213421 0.197521 0.177388 0.158029 0.143099 0.134301 0.131265 0.131900 0.133087 0.131534 0.124579 0.110753 0.090012 0.063609 0.033694 0.002764 -0.026872 -0.053463 -0.075965 -0.093937 -0.107273 -0.115877 -0.119427 -0.117316 -0.108830 -0.093523 -0.071688 -0.044765 -0.015541 0.011975 0.033056 0.043058 0.038386 0.017404 -0.018925 -0.066868 -0.120292 -0.171570 -0.212862 -0.237521 -0.241350 -0.223428 -0.186318 -0.135605 -0.078845 -0.024134 0.021378 0.052741 0.067933 0.067943 0.056182 0.037415 0.016449 -0.003071 -0.019475 -0.033275 -0.046728 -0.062855 -0.084172 -0.111480 -0.143034 -0.174373 -0.198900 -0.209156 -0.198527 -0.163007 -0.102608 -0.022043 0.069549 0.159860 0.235452 0.284216 0.297752 0.273174 0.213939 0.129488 0.033727 -0.057382 -0.128667 -0.168471 -0.170723 -0.135939 -0.070975 0.012426 0.099969 0.177555 0.233885 0.262404 0.262218 0.237839 0.197862 0.152895 0.113201 0.086564 0.076820 0.083332 0.101476 0.123975 0.142763 0.150922 0.144280 0.122304 0.088133 0.047760 0.008597 -0.022263 -0.039652 -0.041475 -0.029130 -0.007148 0.017855 0.038667 0.049048 0.045045 0.025774 -0.006494 -0.046920 -0.089212 -0.126990 -0.155098 -0.170584 -0.173141 -0.164953 -0.150017 -0.133123 -0.118743 -0.110085 -0.108510 -0.113422 -0.122610 -0.132934 -0.141156 -0.144713 -0.142243 -0.133761 -0.120463 -0.104246 -0.087090 -0.070472 -0.054989 -0.040273 -0.025228 -0.008510 0.010881 0.033061 0.056949 0.080266 0.099879 0.112429 0.115098 0.106337 0.086373 0.057358 0.023119 -0.011487 -0.041455 -0.062583 -0.072293 -0.070121 -0.057785 -0.038801 -0.017721 0.000837 0.013172 0.017279 0.013262 0.003293 -0.008883 -0.018782 -0.022187 -0.016115 0.000457 0.026262 0.057876 0.090293 0.117839 0.135234 0.138614 0.126318 0.099279 0.060970 0.016891 -0.026287 -0.061787 -0.083814 -0.088474 -0.074394 -0.042934 0.002021 0.054648 0.108055 0.155283 0.190284 0.208750 0.208645 0.190404 0.156770 0.112298 0.062642 0.013699 -0.029216 -0.062079 -0.082618 -0.090486 -0.087118 -0.075323 -0.058675 -0.040833 -0.024898 -0.012932 -0.005717 -0.002790 -0.002744 -0.003714 -0.003947 -0.002322 0.001285 0.005907 0.009661 0.010185 0.005247 -0.006614 -0.025565 -0.050188 -0.077531 -0.103505 -0.123572 -0.133612 -0.130774 -0.114159 -0.085158 -0.047364 -0.006043 0.032741 0.063209 0.080933 0.083687 0.071892 0.048572 0.018809 -0.011212 -0.035377 -0.048809 
