13 420
hipp_sf_0000_BG 0.000563 0.001817 0.004080 0.006904 0.009715 0.011915 0.012983 0.012565 0.010532 0.007008 0.002346 -0.002922 -0.008165 -0.012744 -0.016105 -0.017852 -0.017798 -0.015987 -0.012685 -0.008341 -0.003533 0.001109 0.004976 0.007563 0.008529 0.007744 0.005316 0.001582 -0.002928 -0.007557 -0.011609 -0.014452 -0.015614 -0.014871 -0.012289 -0.008235 -0.003323 0.001677 0.005968 0.008869 0.009948 0.009113 0.006651 0.003194 -0.000385 -0.003124 -0.004154 -0.002876 0.000913 0.006946 0.014514 0.022566 0.029883 0.035283 0.037831 0.036999 0.032761 0.025590 0.016375 0.006254 -0.003583 -0.012095 -0.018552 -0.022627 -0.024402 -0.024298 -0.022935 -0.020974 -0.018956 -0.017197 -0.015732 -0.014350 -0.012685 -0.010350 -0.007075 -0.002828 0.002130 0.007253 0.011790 0.014924 0.015927 0.014313 0.009951 0.003111 -0.005561 -0.015139 -0.024555 -0.032763 -0.038888 -0.042340 -0.042867 -0.040554 -0.035765 -0.029055 -0.021063 -0.012424 -0.003697 0.004664 0.012316 0.019007 0.024549 0.028802 0.031669 0.033113 0.033180 0.032029 0.029947 0.027332 0.024657 0.022393 0.020931 0.020488 0.021059 0.022385 0.023994 0.025275 0.025597 0.024439 0.021508 0.016816 0.010696 0.003759 -0.003219 -0.009437 -0.014229 -0.017189 -0.018256 -0.017717 -0.016145 -0.014269 -0.012819 -0.012361 -0.013168 -0.015154 -0.017889 -0.020680 -0.022721 -0.023265 -0.021798 -0.018159 -0.012604 -0.005786 0.001348 0.007710 0.012264 0.014199 0.013082 0.008928 0.002212 -0.006203 -0.015200 -0.023570 -0.030185 -0.034154 -0.034934 -0.032390 -0.026791 -0.018764 -0.009197 0.000875 0.010396 0.018403 0.024136 0.027105 0.027137 0.024394 0.019345 0.012720 0.005423 -0.001569 -0.007320 -0.011061 -0.012285 -0.010825 -0.006885 -0.001019 0.005943 0.013011 0.019184 0.023600 0.025674 0.025184 0.022312 0.017597 0.011850 0.006002 0.000946 -0.002619 -0.004301 -0.004077 -0.002278 0.000490 0.003470 0.005908 0.007205 0.007030 0.005378 0.002570 -0.000817 -0.004071 -0.006483 -0.007493 -0.006802 -0.004440 -0.000764 0.003595 0.007835 0.011124 0.012736 0.012184 0.009297 0.004267 -0.002380 -0.009850 -0.017195 -0.023448 -0.027759 -0.029523 -0.028466 -0.024693 -0.018678 -0.011206 -0.003270 0.004060 0.009793 0.013157 0.013712 0.011427 0.006690 0.000262 -0.006831 -0.013448 -0.018507 -0.021153 -0.020897 -0.017695 -0.011965 -0.004515 0.003580 0.011152 0.017133 0.020726 0.021525 0.019577 0.015360 0.009685 0.003553 -0.002018 -0.006164 -0.008300 -0.008201 -0.006008 -0.002178 0.002616 0.007607 0.012052 0.015331 0.017010 0.016865 0.014868 0.011161 0.006022 -0.000170 -0.006947 -0.013760 -0.019990 -0.024963 -0.027998 -0.028478 -0.025957 -0.020264 -0.011605 -0.000619 0.011633 0.023761 0.034211 0.041497 0.044455 0.042465 0.035610 0.024717 0.011263 -0.002836 -0.015540 -0.025035 -0.030060 -0.030136 -0.025666 -0.017857 -0.008490 0.000426 0.007049 0.010070 0.008978 0.004159 -0.003181 -0.011272 -0.018142 -0.022039 -0.021800 -0.017109 -0.008575 0.002374 0.013776 0.023522 0.029786 0.031394 0.028056 0.020427 0.009971 -0.001340 -0.011422 -0.018490 -0.021412 -0.019909 -0.014592 -0.006809 0.001647 0.008911 0.013427 0.014241 0.011170 0.004804 -0.003645 -0.012619 -0.020536 -0.026103 -0.028547 -0.027728 -0.024109 -0.018606 -0.012361 -0.006479 -0.001803 0.001233 0.002647 0.002850 0.002494 0.002284 0.002791 0.004313 0.006812 0.009936 0.013125 0.015753 0.017291 0.017435 0.016182 0.013829 0.010905 0.008048 0.005861 0.004783 0.004994 0.006378 0.008557 0.010967 0.012976 0.014012 0.013664 0.011763 0.008402 0.003919 -0.001157 -0.006194 -0.010540 -0.013618 -0.014988 -0.014410 -0.011868 -0.007588 -0.002022 0.004180 0.010224 0.015254 0.018447 0.019135 0.016909 0.011723 0.003945 -0.005645 -0.015924 -0.025576 -0.033277 -0.037921 -0.038823 -0.035860 -0.029534 -0.020908 -0.011441 -0.002730 0.003787 0.007108 0.006883 0.003491 -0.002017 -0.008116 -0.013120 -0.015534 -0.014379 -0.009429 -0.001284 0.008714 0.018741 0.026851 0.031383 0.031320 0.026528 0.017808 0.006770 -0.004481 -0.013761 -0.019250 -0.019870 -0.015515 -0.007083 0.003699 0.014622 0.023447 0.028365 
hipp_sf_0001_CA1 -0.149238 -0.135132 -0.108857 -0.073933 -0.034833 0.003807 0.037964 0.064850 0.083257 0.093572 0.097481 0.097439 0.096037 0.095400 0.096763 0.100284 0.105132 0.109806 0.112588 0.112015 0.107253 0.098270 0.085801 0.071091 0.055531 0.040255 0.025846 0.012216 -0.001288 -0.015570 -0.031353 -0.048726 -0.066821 -0.083716 -0.096617 -0.102341 -0.097981 -0.081655 -0.053141 -0.014273 0.031052 0.077266 0.117894 0.146560 0.158050 0.149221 0.119589 0.071453 0.009542 -0.059767 -0.129491 -0.193156 -0.245752 -0.284362 -0.308331 -0.318999 -0.319040 -0.311612 -0.299493 -0.284420 -0.266767 -0.245642 -0.219352 -0.186123 -0.144876 -0.095869 -0.041014 0.016218 0.071305 0.119500 0.156789 0.180752 0.191124 0.189891 0.180897 0.168994 0.158937 0.154254 0.156360 0.164120 0.174012 0.180866 0.179054 0.163890 0.132927 0.086855 0.029776 -0.031259 -0.087378 -0.129516 -0.150188 -0.145076 -0.114085 -0.061609 0.004052 0.072073 0.131000 0.170830 0.184851 0.170888 0.131694 0.074417 0.009239 -0.052546 -0.100629 -0.127550 -0.129967 -0.109091 -0.070223 -0.021510 0.027804 0.069258 0.096809 0.107877 0.103617 0.088392 0.068576 0.050990 0.041289 0.042692 0.055284 0.076054 0.099632 0.119546 0.129720 0.125867 0.106480 0.073204 0.030522 -0.015184 -0.056960 -0.088730 -0.106538 -0.109330 -0.099107 -0.080442 -0.059463 -0.042545 -0.034977 -0.039896 -0.057697 -0.086027 -0.120332 -0.154843 -0.183738 -0.202272 -0.207607 -0.199212 -0.178772 -0.149657 -0.116112 -0.082352 -0.051774 -0.026451 -0.006973 0.007350 0.018020 0.026771 0.035033 0.043569 0.052385 0.060888 0.068247 0.073813 0.077469 0.079783 0.081909 0.085233 0.090864 0.099103 0.109054 0.118513 0.124227 0.122493 0.110019 0.084856 0.047191 -0.000219 -0.052107 -0.101322 -0.139940 -0.160698 -0.158472 -0.131513 -0.082164 -0.016871 0.054576 0.120484 0.169155 0.190925 0.179961 0.135498 0.062243 -0.030149 -0.128471 -0.218020 -0.284970 -0.318665 -0.313424 -0.269551 -0.193360 -0.096200 0.007365 0.101919 0.173706 0.212874 0.215064 0.182097 0.121613 0.045762 -0.030879 -0.093783 -0.130941 -0.134922 -0.104154 -0.043231 0.037835 0.125277 0.203897 0.259662 0.282132 0.266311 0.213597 0.131655 0.033208 -0.066041 -0.150049 -0.205153 -0.222423 -0.199220 -0.139671 -0.053967 0.043418 0.136279 0.209560 0.252031 0.258292 0.229697 0.174039 0.104021 0.034790 -0.019003 -0.046076 -0.040759 -0.004171 0.055915 0.126507 0.191871 0.236579 0.248538 0.221406 0.155919 0.059846 -0.053411 -0.167315 -0.265302 -0.333864 -0.365023 -0.357675 -0.317563 -0.255889 -0.186855 -0.124664 -0.080595 -0.060767 -0.065060 -0.087402 -0.117356 -0.142657 -0.152139 -0.138429 -0.099801 -0.040789 0.028587 0.094836 0.143831 0.163855 0.148226 0.096916 0.016826 -0.079370 -0.175574 -0.255330 -0.304985 -0.316280 -0.287873 -0.225469 -0.140576 -0.048142 0.036398 0.100072 0.134712 0.138233 0.114643 0.072838 0.024500 -0.018417 -0.046069 -0.052473 -0.036307 -0.000657 0.048132 0.102186 0.153955 0.197753 0.230645 0.252543 0.265538 0.272742 0.276971 0.279671 0.280376 0.276859 0.265923 0.244599 0.211412 0.167329 0.116079 0.063699 0.017355 -0.016309 -0.032877 -0.031496 -0.015428 0.008377 0.030695 0.042142 0.035547 0.008007 -0.037911 -0.094177 -0.148642 -0.187517 -0.198492 -0.173858 -0.112887 -0.022873 0.081496 0.180462 0.252811 0.280108 0.250689 0.162545 0.024440 -0.145082 -0.320693 -0.474752 -0.582424 -0.626409 -0.600347 -0.510156 -0.373012 -0.214122 -0.061918 0.057398 0.124861 0.132309 0.083789 -0.005468 -0.112281 -0.210294 -0.275330 -0.290209 -0.248102 -0.153730 -0.022237 0.124012 0.260001 0.363042 0.417150 0.415931 0.363448 0.272948 0.163803 0.057339 -0.027518 -0.077880 -0.089083 -0.065029 -0.016684 0.040853 0.092026 0.124405 0.131395 0.113502 0.077931 0.036632 0.003286 -0.010089 0.003858 0.045858 0.109538 0.182526 0.248886 0.292384 0.299891 0.264228 0.185867 0.073163 -0.058929 -0.191393 -0.304434 -0.380895 -0.409174 -0.385133 -0.312700 -0.203106 -0.072966 0.058440 0.172174 0.252450 0.288826 0.277479 0.221462 0.129980 0.016870 -0.101455 -0.208281 -0.288800 -0.331992 
hipp_sf_0002_CA2 -0.106345 -0.081658 -0.035834 0.024628 0.091355 0.155450 0.208860 0.245516 0.262044 0.257969 0.235403 0.198354 0.151825 0.100917 0.050118 0.002888 -0.038431 -0.072435 -0.098346 -0.115709 -0.124236 -0.123863 -0.115006 -0.098922 -0.078026 -0.055988 -0.037477 -0.027524 -0.030538 -0.049179 -0.083331 -0.129460 -0.180605 -0.227127 -0.258173 -0.263677 -0.236513 -0.174368 -0.080913 0.034091 0.155866 0.266793 0.349339 0.389211 0.378128 0.315615 0.209408 0.074317 -0.070296 -0.203980 -0.308909 -0.373124 -0.392598 -0.371706 -0.321949 -0.259196 -0.200019 -0.157903 -0.140169 -0.146312 -0.168152 -0.191812 -0.201122 -0.181705 -0.124834 -0.030160 0.093376 0.228740 0.353941 0.446510 0.488368 0.470031 0.393185 0.270988 0.125928 -0.014399 -0.122762 -0.177900 -0.169046 -0.098393 0.019102 0.158585 0.290307 0.385731 0.423478 0.393835 0.300857 0.161589 0.002534 -0.145878 -0.255679 -0.307211 -0.293213 -0.220224 -0.107039 0.019493 0.130379 0.200842 0.215723 0.172756 0.082992 -0.031723 -0.143665 -0.225459 -0.256263 -0.226534 -0.140329 -0.014627 0.124191 0.245955 0.323188 0.337060 0.281530 0.164782 0.007647 -0.160628 -0.308369 -0.407924 -0.441216 -0.403236 -0.302784 -0.160355 -0.003679 0.138084 0.240236 0.287278 0.275537 0.213195 0.117837 0.012131 -0.081340 -0.144957 -0.169584 -0.156057 -0.114383 -0.060946 -0.014416 0.008662 -0.002368 -0.049979 -0.128061 -0.223429 -0.318807 -0.396573 -0.442397 -0.448000 -0.412477 -0.341987 -0.248003 -0.144581 -0.045351 0.039112 0.102981 0.145641 0.170957 0.185611 0.197032 0.211411 0.232307 0.260099 0.292330 0.324760 0.352766 0.372682 0.382687 0.383060 0.375737 0.363360 0.348128 0.330806 0.310198 0.283275 0.245941 0.194259 0.125811 0.040834 -0.057188 -0.161658 -0.263746 -0.353803 -0.423035 -0.465022 -0.476773 -0.459077 -0.416108 -0.354415 -0.281572 -0.204815 -0.130005 -0.061105 -0.000255 0.051682 0.094343 0.127140 0.148874 0.157843 0.152449 0.132133 0.098350 0.055245 0.009725 -0.029221 -0.051928 -0.049951 -0.018045 0.044221 0.131664 0.233761 0.336054 0.422475 0.478153 0.492158 0.459579 0.382504 0.269669 0.134828 -0.005810 -0.136543 -0.244908 -0.323623 -0.371347 -0.392153 -0.393893 -0.385882 -0.376478 -0.371122 -0.371296 -0.374609 -0.375921 -0.369196 -0.349557 -0.314995 -0.267272 -0.211763 -0.156245 -0.108943 -0.076308 -0.061114 -0.061371 -0.070393 -0.078058 -0.073019 -0.045385 0.010748 0.095508 0.202655 0.320356 0.433201 0.525055 0.582131 0.595640 0.563449 0.490421 0.387370 0.268918 0.150718 0.046666 -0.033323 -0.084542 -0.107554 -0.107169 -0.090705 -0.065989 -0.039618 -0.015879 0.003487 0.018702 0.030831 0.040512 0.046983 0.047727 0.038896 0.016434 -0.022411 -0.077594 -0.145284 -0.217722 -0.284096 -0.332326 -0.351438 -0.333991 -0.278012 -0.187938 -0.074281 0.047973 0.161969 0.252044 0.306638 0.320405 0.295092 0.239005 0.165159 0.088556 0.023153 -0.020801 -0.038527 -0.031214 -0.005213 0.029832 0.063458 0.086865 0.094843 0.086737 0.066266 0.040295 0.016910 0.003254 0.003666 0.018538 0.044129 0.073355 0.097327 0.107266 0.096364 0.061175 0.002284 -0.075840 -0.165703 -0.258104 -0.343605 -0.413837 -0.462426 -0.485446 -0.481440 -0.451142 -0.397070 -0.323150 -0.234444 -0.136959 -0.037447 0.056935 0.139206 0.203395 0.245538 0.264605 0.263103 0.247062 0.225260 0.207670 0.203347 0.218170 0.252931 0.302322 0.355184 0.396158 0.408569 0.378039 0.296092 0.162955 -0.011184 -0.206879 -0.398168 -0.556907 -0.657943 -0.684059 -0.629664 -0.502357 -0.321954 -0.117068 0.080141 0.239986 0.340817 0.372947 0.340108 0.258126 0.151093 0.045892 -0.033719 -0.072159 -0.065087 -0.019811 0.046993 0.113714 0.159312 0.168585 0.135955 0.066850 -0.023628 -0.114453 -0.183919 -0.215109 -0.200237 -0.142775 -0.056780 0.036462 0.113721 0.155770 0.152536 0.106151 0.031047 -0.049044 -0.106599 -0.117081 -0.065426 0.049378 0.212783 0.396778 0.565277 0.681709 0.717158 0.657214 0.505916 0.285788 0.033809 -0.205926 -0.391311 -0.491152 -0.491911 -0.400758 -0.244175 -0.062345 0.099490 0.200851 0.214880 0.134263 -0.027091 -0.237024 -0.452116 -0.627169 -0.725107 
hipp_sf_0003_DG -0.140000 -0.122678 -0.090397 -0.047452 0.000693 0.048355 0.090545 0.123698 0.146049 0.157631 0.159918 0.155230 0.146066 0.134530 0.121977 0.108957 0.095425 0.081134 0.066063 0.050736 0.036306 0.024351 0.016432 0.013504 0.015380 0.020398 0.025470 0.026549 0.019473 0.001053 -0.029864 -0.071599 -0.119371 -0.165693 -0.201448 -0.217505 -0.206598 -0.165089 -0.094236 -0.000657 0.104215 0.205631 0.287812 0.336584 0.341928 0.299906 0.213591 0.092772 -0.047549 -0.189628 -0.315951 -0.412173 -0.469446 -0.485701 -0.465635 -0.419421 -0.360400 -0.302243 -0.256139 -0.228604 -0.220330 -0.226304 -0.237157 -0.241431 -0.228297 -0.190110 -0.124293 -0.034121 0.071739 0.180839 0.279374 0.354883 0.398687 0.407521 0.384054 0.336180 0.275257 0.213678 0.162314 0.128356 0.114029 0.116431 0.128505 0.140921 0.144420 0.132112 0.101194 0.053730 -0.003701 -0.061389 -0.108619 -0.136066 -0.137920 -0.113291 -0.066574 -0.006682 0.054683 0.105362 0.135191 0.138040 0.113039 0.064728 0.002123 -0.063103 -0.118923 -0.155282 -0.165955 -0.149588 -0.109741 -0.053965 0.007854 0.065515 0.110451 0.137220 0.144255 0.133782 0.110973 0.082580 0.055370 0.034714 0.023620 0.022375 0.028813 0.039102 0.048814 0.054011 0.052098 0.042280 0.025550 0.004262 -0.018550 -0.039929 -0.057621 -0.070443 -0.078327 -0.082076 -0.082950 -0.082210 -0.080786 -0.079134 -0.077331 -0.075337 -0.073307 -0.071835 -0.071989 -0.075109 -0.082369 -0.094233 -0.109950 -0.127284 -0.142607 -0.151411 -0.149200 -0.132569 -0.100248 -0.053827 0.002062 0.060242 0.112133 0.149370 0.165575 0.157900 0.127977 0.081987 0.029759 -0.017005 -0.047058 -0.052044 -0.028521 0.020903 0.087608 0.158276 0.217275 0.249696 0.244451 0.196811 0.109820 -0.005750 -0.132963 -0.251569 -0.341624 -0.387198 -0.379453 -0.318487 -0.213547 -0.081545 0.055864 0.176103 0.259687 0.293674 0.273900 0.205618 0.102408 -0.016385 -0.129198 -0.216103 -0.262248 -0.260279 -0.211331 -0.124476 -0.014790 0.099531 0.200452 0.273141 0.308270 0.303191 0.261876 0.193722 0.111523 0.029048 -0.041326 -0.090515 -0.113876 -0.111502 -0.087689 -0.049781 -0.006653 0.032879 0.061442 0.074110 0.068921 0.046903 0.011678 -0.031236 -0.075308 -0.113906 -0.141161 -0.152681 -0.146064 -0.121170 -0.080131 -0.027085 0.032330 0.091712 0.144739 0.186046 0.211992 0.221177 0.214610 0.195479 0.168526 0.139129 0.112260 0.091515 0.078428 0.072208 0.070004 0.067624 0.060590 0.045283 0.019929 -0.014825 -0.055900 -0.098366 -0.136518 -0.165204 -0.181103 -0.183642 -0.175285 -0.161092 -0.147598 -0.141226 -0.146580 -0.165039 -0.193994 -0.226991 -0.254821 -0.267387 -0.256002 -0.215613 -0.146462 -0.054747 0.047933 0.146335 0.224253 0.267600 0.267305 0.221384 0.135744 0.023467 -0.097318 -0.206621 -0.286224 -0.323047 -0.311583 -0.254905 -0.164023 -0.055739 0.050604 0.136813 0.189241 0.201229 0.174127 0.116719 0.043219 -0.029707 -0.086277 -0.114583 -0.108655 -0.069230 -0.003138 0.078474 0.162639 0.237207 0.293051 0.325403 0.334109 0.322850 0.297610 0.264836 0.229784 0.195440 0.162273 0.128812 0.092835 0.052790 0.009018 -0.035627 -0.075956 -0.105459 -0.117902 -0.109124 -0.078544 -0.029941 0.028771 0.086825 0.132712 0.156675 0.153022 0.121680 0.068573 0.004636 -0.056387 -0.100932 -0.118768 -0.105583 -0.064393 -0.005369 0.055957 0.101805 0.115969 0.087530 0.013652 -0.099204 -0.235966 -0.375498 -0.494519 -0.572139 -0.594070 -0.555625 -0.462853 -0.331535 -0.184199 -0.045754 0.061396 0.121742 0.129672 0.090451 0.018993 -0.063331 -0.133192 -0.170156 -0.160916 -0.102020 -0.000560 0.127304 0.259642 0.373172 0.447890 0.470930 0.438922 0.358381 0.244126 0.116105 -0.004650 -0.100082 -0.158345 -0.175581 -0.155954 -0.110014 -0.051844 0.004324 0.047276 0.071048 0.075802 0.067203 0.054505 0.047847 0.055415 0.081129 0.123391 0.175177 0.225431 0.261457 0.271755 0.248685 0.190375 0.101461 -0.007495 -0.121774 -0.225098 -0.302520 -0.343037 -0.341433 -0.299036 -0.223302 -0.126366 -0.022887 0.072365 0.146750 0.191456 0.202424 0.180461 0.130630 0.061131 -0.018069 -0.096600 -0.164887 -0.215058 -0.241571 
hipp_sf_0004_CA3 0.022656 0.014992 0.001730 -0.013389 -0.025676 -0.030426 -0.023905 -0.004214 0.028138 0.070063 0.116198 0.159656 0.193138 0.210219 0.206599 0.181079 0.136063 0.077432 0.013790 -0.044878 -0.088894 -0.110670 -0.106236 -0.076225 -0.026072 0.034668 0.093806 0.138609 0.158129 0.145339 0.098693 0.022741 -0.072342 -0.172295 -0.261144 -0.324004 -0.349794 -0.333364 -0.276600 -0.188268 -0.082586 0.023246 0.112113 0.170080 0.188933 0.167662 0.112589 0.036101 -0.045792 -0.116597 -0.162577 -0.175454 -0.154025 -0.104367 -0.038581 0.027704 0.078562 0.101103 0.088240 0.040311 -0.034777 -0.122943 -0.206604 -0.268116 -0.293301 -0.274358 -0.211578 -0.113488 0.004606 0.123423 0.223310 0.287957 0.307485 0.280306 0.213394 0.120898 0.021382 -0.065770 -0.124095 -0.143181 -0.120603 -0.062283 0.018785 0.105171 0.178494 0.223036 0.228812 0.193463 0.122637 0.028798 -0.071293 -0.159891 -0.221740 -0.246992 -0.233020 -0.184789 -0.113718 -0.035293 0.034092 0.080419 0.094828 0.075336 0.027192 -0.038200 -0.105555 -0.158713 -0.183802 -0.171937 -0.120955 -0.035864 0.072046 0.187237 0.292706 0.372970 0.416705 0.418565 0.379881 0.308142 0.215426 0.116095 0.024215 -0.048807 -0.095974 -0.115519 -0.110733 -0.088862 -0.059353 -0.031812 -0.014063 -0.010681 -0.022250 -0.045442 -0.073880 -0.099571 -0.114638 -0.112998 -0.091686 -0.051580 0.002594 0.062967 0.119820 0.163225 0.184753 0.178960 0.144396 0.083970 0.004608 -0.083752 -0.169654 -0.241891 -0.291245 -0.311933 -0.302508 -0.266071 -0.209751 -0.143503 -0.078434 -0.024906 0.009255 0.020143 0.008497 -0.020394 -0.057608 -0.092207 -0.113293 -0.112143 -0.084052 -0.029514 0.045501 0.130279 0.211019 0.273166 0.304028 0.295202 0.244367 0.156075 0.041360 -0.083822 -0.201083 -0.292609 -0.344155 -0.347491 -0.301852 -0.214122 -0.097690 0.029804 0.149449 0.244223 0.301758 0.316240 0.289090 0.228358 0.146975 0.060212 -0.017130 -0.073283 -0.101358 -0.100155 -0.073869 -0.030806 0.018564 0.063774 0.096310 0.110952 0.106298 0.084438 0.049934 0.008413 -0.034852 -0.076046 -0.113329 -0.146708 -0.177322 -0.206397 -0.234175 -0.259140 -0.277804 -0.285137 -0.275600 -0.244535 -0.189603 -0.111880 -0.016328 0.088559 0.191908 0.282246 0.349547 0.387127 0.392985 0.370266 0.326727 0.273282 0.221897 0.183248 0.164623 0.168491 0.192033 0.227727 0.264872 0.291745 0.297941 0.276448 0.225040 0.146740 0.049284 -0.056269 -0.157487 -0.242681 -0.302773 -0.332599 -0.331454 -0.302837 -0.253558 -0.192408 -0.128731 -0.071131 -0.026540 0.000289 0.006882 -0.007143 -0.040390 -0.089984 -0.151778 -0.220442 -0.289540 -0.351695 -0.398983 -0.423638 -0.419047 -0.380931 -0.308485 -0.205210 -0.079192 0.057379 0.189484 0.301220 0.378156 0.409687 0.390953 0.323929 0.217428 0.085953 -0.052447 -0.178976 -0.277031 -0.334794 -0.346976 -0.315428 -0.248521 -0.159433 -0.063680 0.023625 0.090290 0.128898 0.137705 0.120480 0.085411 0.043336 0.005676 -0.017539 -0.019224 0.003836 0.050749 0.116911 0.194857 0.275361 0.348598 0.405218 0.437256 0.438871 0.406938 0.341504 0.246100 0.127838 -0.002813 -0.132682 -0.247064 -0.331379 -0.373186 -0.364281 -0.302506 -0.192879 -0.047692 0.114622 0.271816 0.401097 0.482820 0.503955 0.460659 0.359366 0.216081 0.053890 -0.100968 -0.223753 -0.295768 -0.307877 -0.262281 -0.172141 -0.059059 0.051133 0.133464 0.168793 0.147647 0.072127 -0.044531 -0.180665 -0.310633 -0.410085 -0.460966 -0.455209 -0.396347 -0.298676 -0.184175 -0.077790 -0.002112 0.027451 0.005973 -0.059920 -0.153424 -0.251106 -0.327845 -0.362154 -0.340738 -0.261356 -0.133386 0.023987 0.185565 0.325102 0.420396 0.457463 0.432977 0.354524 0.238713 0.107615 -0.015664 -0.111328 -0.166270 -0.175859 -0.143900 -0.080903 -0.001210 0.080320 0.151276 0.203693 0.234745 0.246109 0.242337 0.228770 0.209612 0.186706 0.159312 0.124908 0.080737 0.025599 -0.038674 -0.106577 -0.169392 -0.216748 -0.238963 -0.229597 -0.187572 -0.118251 -0.033087 0.052198 0.120615 0.157474 0.153731 0.108331 0.028952 -0.069114 -0.165800 -0.240268 -0.275272 -0.260927 -0.197058 -0.093572 0.031277 0.154413 0.252536 0.306836 
hipp_sf_0005_HEAD NaN NaN NaN NaN NaN NaN NaN NaN NaN NaN NaN NaN NaN NaN NaN NaN NaN NaN NaN NaN NaN NaN NaN NaN NaN NaN NaN NaN NaN NaN NaN NaN NaN NaN NaN NaN NaN NaN NaN NaN NaN NaN NaN NaN NaN NaN NaN NaN NaN NaN NaN NaN NaN NaN NaN NaN NaN NaN NaN NaN NaN NaN NaN NaN NaN NaN NaN NaN NaN NaN NaN NaN NaN NaN NaN NaN NaN NaN NaN NaN NaN NaN NaN NaN NaN NaN NaN NaN NaN NaN NaN NaN NaN NaN NaN NaN NaN NaN NaN NaN NaN NaN NaN NaN NaN NaN NaN NaN NaN NaN NaN NaN NaN NaN NaN NaN NaN NaN NaN NaN NaN NaN NaN NaN NaN NaN NaN NaN NaN NaN NaN NaN NaN NaN NaN NaN NaN NaN NaN NaN NaN NaN NaN NaN NaN NaN NaN NaN NaN NaN NaN NaN NaN NaN NaN NaN NaN NaN NaN NaN NaN NaN NaN NaN NaN NaN NaN NaN NaN NaN NaN NaN NaN NaN NaN NaN NaN NaN NaN NaN NaN NaN NaN NaN NaN NaN NaN NaN NaN NaN NaN NaN NaN NaN NaN NaN NaN NaN NaN NaN NaN NaN NaN NaN NaN NaN NaN NaN NaN NaN NaN NaN NaN NaN NaN NaN NaN NaN NaN NaN NaN NaN NaN NaN NaN NaN NaN NaN NaN NaN NaN NaN NaN NaN NaN NaN NaN NaN NaN NaN NaN NaN NaN NaN NaN NaN NaN NaN NaN NaN NaN NaN NaN NaN NaN NaN NaN NaN NaN NaN NaN NaN NaN NaN NaN NaN NaN NaN NaN NaN NaN NaN NaN NaN NaN NaN NaN NaN NaN NaN NaN NaN NaN NaN NaN NaN NaN NaN NaN NaN NaN NaN NaN NaN NaN NaN NaN NaN NaN NaN NaN NaN NaN NaN NaN NaN NaN NaN NaN NaN NaN NaN NaN NaN NaN NaN NaN NaN NaN NaN NaN NaN NaN NaN NaN NaN NaN NaN NaN NaN NaN NaN NaN NaN NaN NaN NaN NaN NaN NaN NaN NaN NaN NaN NaN NaN NaN NaN NaN NaN NaN NaN NaN NaN NaN NaN NaN NaN NaN NaN NaN NaN NaN NaN NaN NaN NaN NaN NaN NaN NaN NaN NaN NaN NaN NaN NaN NaN NaN NaN NaN NaN NaN NaN NaN NaN NaN NaN NaN NaN NaN NaN NaN NaN NaN NaN NaN NaN NaN NaN NaN NaN NaN NaN NaN NaN NaN NaN NaN NaN NaN NaN NaN NaN NaN NaN NaN NaN NaN NaN 
hipp_sf_0006_TAIL 0.205363 0.183965 0.145160 0.096024 0.045121 0.000596 -0.031580 -0.048807 -0.052211 -0.046070 -0.036481 -0.029590 -0.029845 -0.038702 -0.054136 -0.071097 -0.082815 -0.082656 -0.066086 -0.032230 0.015362 0.068999 0.118175 0.151677 0.160050 0.137848 0.085174 0.008114 -0.082072 -0.170876 -0.243220 -0.286331 -0.292219 -0.259246 -0.192439 -0.102496 -0.003689 0.088906 0.162250 0.207697 0.222370 0.209322 0.176469 0.134595 0.094854 0.066346 0.054273 0.059041 0.076476 0.099038 0.117740 0.124305 0.113083 0.082310 0.034457 -0.024373 -0.085818 -0.141067 -0.182690 -0.206077 -0.210192 -0.197512 -0.173206 -0.143794 -0.115617 -0.093470 -0.079726 -0.074085 -0.074005 -0.075630 -0.074983 -0.069097 -0.056804 -0.039003 -0.018356 0.001508 0.017035 0.025784 0.027175 0.022750 0.015866 0.010895 0.012099 0.022468 0.042787 0.071188 0.103296 0.132978 0.153534 0.159105 0.145973 0.113490 0.064422 0.004626 -0.057880 -0.114279 -0.156475 -0.178479 -0.177395 -0.153825 -0.111643 -0.057203 0.001854 0.057928 0.104692 0.137990 0.156263 0.160473 0.153580 0.139711 0.123225 0.107860 0.096116 0.088975 0.085968 0.085531 0.085536 0.083869 0.078910 0.069836 0.056686 0.040213 0.021588 0.002035 -0.017491 -0.036496 -0.054971 -0.073230 -0.091612 -0.110132 -0.128159 -0.144237 -0.156107 -0.160968 -0.155951 -0.138740 -0.108231 -0.065086 -0.012064 0.045984 0.102512 0.150041 0.181221 0.190022 0.172881 0.129577 0.063671 -0.017647 -0.104308 -0.184675 -0.247226 -0.282367 -0.284068 -0.251037 -0.187188 -0.101282 -0.005733 0.085241 0.157866 0.201077 0.208412 0.179186 0.118734 0.037615 -0.050074 -0.129043 -0.185383 -0.208946 -0.195107 -0.145581 -0.068159 0.024597 0.117483 0.195226 0.245050 0.258799 0.234253 0.175426 0.091823 -0.003193 -0.094629 -0.168275 -0.212913 -0.221959 -0.194302 -0.134253 -0.050661 0.044605 0.138525 0.218851 0.275763 0.303063 0.298753 0.264989 0.207455 0.134322 0.054949 -0.021461 -0.087082 -0.136410 -0.166819 -0.178697 -0.175130 -0.161216 -0.143079 -0.126742 -0.117016 -0.116580 -0.125435 -0.140826 -0.157706 -0.169703 -0.170427 -0.154932 -0.121024 -0.070136 -0.007547 0.058194 0.116604 0.157184 0.171577 0.155550 0.110352 0.043108 -0.033941 -0.105328 -0.155090 -0.169863 -0.141748 -0.070333 0.036603 0.163948 0.291627 0.398100 0.464366 0.477693 0.434310 0.340474 0.211623 0.069703 -0.060861 -0.157790 -0.205247 -0.196952 -0.137439 -0.041184 0.070258 0.172552 0.243437 0.267155 0.237533 0.159080 0.045874 -0.081521 -0.200437 -0.290858 -0.339507 -0.342402 -0.305335 -0.242185 -0.171453 -0.111817 -0.077702 -0.075880 -0.103872 -0.150544 -0.198760 -0.229530 -0.226702 -0.181134 -0.093380 0.025771 0.157085 0.276655 0.360868 0.391501 0.359816 0.268742 0.132622 -0.025446 -0.178155 -0.299448 -0.369738 -0.379774 -0.332318 -0.241300 -0.128628 -0.019385 0.063559 0.104329 0.097194 0.047439 -0.030200 -0.115141 -0.185744 -0.224204 -0.220429 -0.174056 -0.094182 0.003086 0.098638 0.174975 0.220317 0.231245 0.213241 0.179019 0.145028 0.127003 0.135615 0.173317 0.233192 0.300154 0.354296 0.375673 0.349431 0.270068 0.143798 -0.011671 -0.170004 -0.301258 -0.378045 -0.381516 -0.305874 -0.160352 0.031843 0.237520 0.419675 0.544615 0.588581 0.542506 0.413882 0.225356 0.010299 -0.193744 -0.352393 -0.441048 -0.449464 -0.383347 -0.262713 -0.117377 0.019428 0.117959 0.157958 0.132502 0.048964 -0.073035 -0.206199 -0.321595 -0.394875 -0.411337 -0.368798 -0.277718 -0.158635 -0.037509 0.059952 0.113774 0.113820 0.061700 -0.029878 -0.140074 -0.244529 -0.320560 -0.351834 -0.331521 -0.263335 -0.160283 -0.041513 0.072011 0.162008 0.216581 0.232341 0.214559 0.175385 0.130624 0.095823 0.082596 0.095987 0.133445 0.185604 0.238623 0.277552 0.289912 0.268700 0.214141 0.133810 0.041134 -0.047401 -0.115693 -0.151373 -0.148332 -0.107923 -0.038588 0.045955 0.129554 0.196871 0.236345 0.242278 0.215644 0.163528 0.097361 0.030403 -0.024996 -0.059765 -0.069665 -0.055772 -0.023874 0.017008 0.056592 0.085362 0.096237 0.085593 0.053516 0.003350 -0.059264 -0.127567 -0.194811 -0.255098 -0.303852 -0.337907 -0.355368 
hipp_sf_0007_MISC 0.065470 0.058363 0.044662 0.025375 0.001949 -0.023819 -0.049909 -0.074259 -0.094960 -0.110450 -0.119672 -0.122152 -0.117993 -0.107770 -0.092361 -0.072753 -0.049885 -0.024568 0.002478 0.030486 0.058438 0.084864 0.107746 0.124580 0.132665 0.129587 0.113833 0.085413 0.046325 0.000706 -0.045431 -0.084919 -0.110538 -0.116333 -0.098914 -0.058444 0.000919 0.071289 0.142073 0.201616 0.239207 0.247102 0.222135 0.166602 0.088173 -0.001217 -0.087329 -0.156115 -0.196271 -0.201372 -0.171153 -0.111646 -0.034144 0.046867 0.116395 0.161750 0.174926 0.154065 0.103739 0.033970 -0.041798 -0.109377 -0.156613 -0.175713 -0.164648 -0.127372 -0.072820 -0.012925 0.039928 0.075469 0.087592 0.075476 0.043548 0.000345 -0.043486 -0.077585 -0.094162 -0.089671 -0.065529 -0.027741 0.014480 0.050766 0.071892 0.071805 0.048957 0.006669 -0.047539 -0.103500 -0.150477 -0.179347 -0.184398 -0.164412 -0.122799 -0.066805 -0.005970 0.049801 0.092161 0.115837 0.119445 0.105485 0.079564 0.049039 0.021426 0.002887 -0.002873 0.004884 0.024067 0.050464 0.078803 0.103912 0.121722 0.129905 0.128053 0.117420 0.100346 0.079532 0.057384 0.035563 0.014844 -0.004726 -0.023448 -0.041520 -0.058652 -0.073885 -0.085663 -0.092157 -0.091739 -0.083494 -0.067592 -0.045448 -0.019572 0.006840 0.030491 0.048615 0.059482 0.062670 0.059028 0.050356 0.038868 0.026610 0.014957 0.004344 -0.005703 -0.016255 -0.028466 -0.043004 -0.059614 -0.076928 -0.092632 -0.103956 -0.108398 -0.104494 -0.092436 -0.074341 -0.054065 -0.036532 -0.026704 -0.028389 -0.043151 -0.069603 -0.103269 -0.137125 -0.162747 -0.171881 -0.158137 -0.118445 -0.053970 0.029747 0.123481 0.215753 0.294742 0.350303 0.375716 0.368795 0.332163 0.272621 0.199757 0.124074 0.055036 -0.000585 -0.039728 -0.063226 -0.075162 -0.081540 -0.088600 -0.101141 -0.121231 -0.147590 -0.175770 -0.199098 -0.210181 -0.202631 -0.172653 -0.120143 -0.049074 0.032938 0.115788 0.188531 0.241211 0.266512 0.260921 0.225220 0.164231 0.085911 0.000005 -0.083483 -0.155694 -0.209985 -0.242500 -0.252245 -0.240703 -0.211187 -0.168075 -0.116126 -0.059980 -0.003878 0.048406 0.093537 0.128586 0.151084 0.159219 0.152148 0.130348 0.095893 0.052525 0.005429 -0.039317 -0.075566 -0.098070 -0.103420 -0.090739 -0.061980 -0.021726 0.023519 0.066411 0.100050 0.119215 0.121288 0.106709 0.078833 0.043242 0.006620 -0.024553 -0.045251 -0.052827 -0.047439 -0.031902 -0.011008 0.009540 0.024328 0.029341 0.022735 0.005136 -0.020586 -0.049979 -0.077970 -0.099891 -0.112354 -0.113805 -0.104654 -0.086985 -0.063947 -0.038985 -0.015100 0.005694 0.022602 0.035941 0.046757 0.056273 0.065351 0.074096 0.081733 0.086776 0.087456 0.082284 0.070606 0.052990 0.031310 0.008515 -0.011923 -0.026736 -0.033616 -0.031805 -0.022376 -0.008116 0.006987 0.018556 0.022764 0.017200 0.001467 -0.022637 -0.051400 -0.079897 -0.102955 -0.116200 -0.116936 -0.104688 -0.081270 -0.050381 -0.016813 0.014560 0.039770 0.056514 0.064502 0.065338 0.061945 0.057698 0.055452 0.056723 0.061215 0.066824 0.070144 0.067368 0.055383 0.032817 0.000757 -0.037034 -0.074521 -0.104369 -0.119321 -0.113730 -0.084912 -0.034043 0.033623 0.109301 0.181938 0.239966 0.273262 0.274944 0.242673 0.179217 0.092151 -0.007254 -0.105765 -0.190243 -0.249675 -0.276817 -0.269200 -0.229339 -0.164152 -0.083718 0.000385 0.076856 0.136271 0.172253 0.182071 0.166626 0.129888 0.077956 0.017932 -0.043177 -0.099359 -0.146187 -0.181056 -0.203105 -0.212910 -0.212042 -0.202613 -0.186882 -0.166976 -0.144723 -0.121591 -0.098694 -0.076812 -0.056427 -0.037747 -0.020732 -0.005153 0.009324 0.023003 0.036015 0.048181 0.058940 0.067377 0.072389 0.072958 0.068511 0.059269 0.046515 0.032661 0.021074 0.015637 0.020086 0.037243 0.068271 0.112138 0.165414 0.222504 0.276329 0.319354 0.344833 0.348014 0.327099 0.283738 0.222939 0.152361 0.081115 0.018241 -0.028832 -0.055581 -0.061164 -0.048538 -0.023865 0.004675 0.028450 0.040023 0.034549 0.010673 -0.029273 -0.079792 -0.133362 -0.181959 -0.218658 -0.238990 -0.241774 -0.229261 -0.206577 -0.180567 -0.158303 -0.145555 
hipp_sf_0008_SUB -0.148759 -0.132765 -0.102095 -0.059286 -0.007899 0.047753 0.102931 0.152844 0.193038 0.219785 0.230444 0.223767 0.200120 0.161559 0.111738 0.055621 -0.001027 -0.052307 -0.092968 -0.119184 -0.129200 -0.123702 -0.105828 -0.080740 -0.054811 -0.034505 -0.025157 -0.029866 -0.048728 -0.078605 -0.113520 -0.145645 -0.166748 -0.169831 -0.150650 -0.108793 -0.048074 0.023876 0.096794 0.159545 0.202126 0.217537 0.203132 0.161166 0.098421 0.024963 -0.047730 -0.108891 -0.150416 -0.168253 -0.162946 -0.139245 -0.104883 -0.068798 -0.039186 -0.021823 -0.018986 -0.029209 -0.047877 -0.068506 -0.084373 -0.090130 -0.083001 -0.063316 -0.034263 -0.000953 0.030959 0.056732 0.073725 0.081995 0.084171 0.084632 0.088195 0.098655 0.117550 0.143472 0.172134 0.197195 0.211674 0.209620 0.187647 0.145947 0.088522 0.022558 -0.042952 -0.099016 -0.138485 -0.157502 -0.156211 -0.138564 -0.111281 -0.082184 -0.058329 -0.044361 -0.041505 -0.047417 -0.056956 -0.063663 -0.061595 -0.047060 -0.019796 0.016703 0.055834 0.089371 0.109445 0.110559 0.091127 0.054141 0.006775 -0.041039 -0.078761 -0.097637 -0.092792 -0.064507 -0.018373 0.035773 0.085902 0.120409 0.130713 0.113231 0.070290 0.009741 -0.056665 -0.115770 -0.155842 -0.169096 -0.153350 -0.112430 -0.055240 0.006288 0.059908 0.095802 0.108732 0.099104 0.072700 0.039154 0.009505 -0.006574 -0.003252 0.019887 0.057540 0.099738 0.134047 0.148409 0.134009 0.087495 0.012060 -0.082873 -0.183328 -0.273429 -0.338490 -0.367865 -0.356961 -0.307999 -0.229390 -0.133898 -0.036004 0.050928 0.117081 0.157723 0.173557 0.169889 0.154875 0.137295 0.124389 0.120257 0.125160 0.135827 0.146648 0.151398 0.145059 0.125275 0.093091 0.052813 0.011046 -0.024842 -0.048432 -0.055739 -0.046102 -0.022295 0.010160 0.044280 0.073179 0.091528 0.096564 0.088424 0.069774 0.044857 0.018239 -0.006406 -0.027152 -0.044102 -0.059036 -0.074551 -0.092936 -0.115130 -0.140052 -0.164542 -0.183956 -0.193282 -0.188532 -0.168017 -0.133174 -0.088672 -0.041714 -0.000644 0.026858 0.035574 0.024122 -0.004471 -0.043151 -0.082174 -0.111111 -0.121118 -0.106968 -0.068368 -0.010256 0.058031 0.124569 0.177261 0.206354 0.206503 0.177939 0.126481 0.062378 -0.001775 -0.053593 -0.083393 -0.086089 -0.062092 -0.017042 0.039540 0.096378 0.142853 0.171174 0.177856 0.164181 0.135601 0.100238 0.066852 0.042762 0.032186 0.035368 0.048680 0.065629 0.078540 0.080478 0.066982 0.037196 -0.005861 -0.055928 -0.104898 -0.144637 -0.168814 -0.174317 -0.161939 -0.136179 -0.104208 -0.074244 -0.053685 -0.047438 -0.056796 -0.079116 -0.108357 -0.136363 -0.154599 -0.155985 -0.136412 -0.095666 -0.037545 0.030803 0.100195 0.161076 0.205197 0.226989 0.224369 0.198878 0.155163 0.099959 0.040814 -0.015177 -0.062399 -0.097325 -0.118669 -0.127105 -0.124709 -0.114274 -0.098675 -0.080416 -0.061422 -0.043057 -0.026301 -0.011972 -0.000894 0.006081 0.008205 0.005099 -0.002945 -0.014725 -0.028058 -0.039945 -0.046983 -0.045961 -0.034538 -0.011849 0.021100 0.061355 0.104323 0.144415 0.175950 0.194138 0.195972 0.180844 0.150752 0.110058 0.064796 0.021671 -0.013091 -0.034834 -0.041293 -0.033000 -0.013189 0.012801 0.038504 0.057542 0.064837 0.057609 0.035970 0.002997 -0.035753 -0.073205 -0.102051 -0.116137 -0.111704 -0.088238 -0.048782 0.000401 0.050753 0.092827 0.117925 0.119686 0.095357 0.046483 -0.021115 -0.098122 -0.173138 -0.234527 -0.272361 -0.280155 -0.256050 -0.203253 -0.129601 -0.046335 0.033730 0.098341 0.137850 0.146834 0.124994 0.077170 0.012481 -0.057257 -0.119555 -0.163349 -0.180810 -0.168550 -0.128044 -0.065201 0.010778 0.089047 0.158938 0.211629 0.241385 0.246179 0.227633 0.190365 0.140908 0.086457 0.033680 -0.012171 -0.047751 -0.071662 -0.084117 -0.086389 -0.080180 -0.067123 -0.048487 -0.025163 0.002125 0.032468 0.064420 0.095783 0.123615 0.144503 0.155065 0.152589 0.135659 0.104620 0.061781 0.011259 -0.041504 -0.090494 -0.130017 -0.155554 -0.164456 -0.156322 -0.133035 -0.098427 -0.057664 -0.016449 0.019806 0.046721 0.061492 0.063161 0.052623 0.032369 0.006052 -0.022073 -0.047729 -0.067167 -0.077620 
hipp_sf_0009_ERC -0.246859 -0.224171 -0.182269 -0.127405 -0.067377 -0.010027 0.038213 0.073409 0.094618 0.103709 0.104562 0.101857 0.099756 0.100778 0.105158 0.110835 0.114076 0.110590 0.096864 0.071375 0.035393 -0.006880 -0.048895 -0.082974 -0.101931 -0.100721 -0.077768 -0.035629 0.019184 0.077234 0.127869 0.161274 0.170449 0.152682 0.110207 0.049877 -0.018108 -0.082160 -0.131561 -0.158554 -0.159827 -0.137086 -0.096583 -0.047726 -0.001043 0.034038 0.051131 0.048128 0.027481 -0.004542 -0.039420 -0.068429 -0.084701 -0.084812 -0.069557 -0.043710 -0.014833 0.008595 0.019302 0.013104 -0.009914 -0.045209 -0.084655 -0.118320 -0.136744 -0.133233 -0.105609 -0.057015 0.004472 0.067356 0.119098 0.148833 0.149854 0.121284 0.068556 0.002525 -0.062621 -0.112258 -0.134433 -0.122506 -0.076766 -0.004639 0.080600 0.162373 0.224103 0.252598 0.240831 0.189503 0.107077 0.008247 -0.088875 -0.166265 -0.209497 -0.210555 -0.169362 -0.093752 0.002099 0.100465 0.183476 0.236481 0.250683 0.224549 0.163773 0.079839 -0.012447 -0.097916 -0.163875 -0.202238 -0.210578 -0.191952 -0.153629 -0.105081 -0.055724 -0.012935 0.019234 0.040409 0.053298 0.062369 0.072164 0.085714 0.103447 0.122871 0.139109 0.146142 0.138466 0.112731 0.068967 0.011058 -0.053669 -0.115683 -0.165072 -0.193533 -0.196123 -0.172348 -0.126355 -0.066176 -0.002163 0.055042 0.096581 0.117046 0.115403 0.094967 0.062462 0.026377 -0.005021 -0.025573 -0.032601 -0.027484 -0.015297 -0.003607 -0.000676 -0.013465 -0.045853 -0.097462 -0.163331 -0.234520 -0.299538 -0.346309 -0.364319 -0.346518 -0.290644 -0.199733 -0.081736 0.051652 0.186737 0.309806 0.409018 0.475893 0.506193 0.500118 0.461834 0.398508 0.319033 0.232701 0.148013 0.071800 0.008715 -0.038890 -0.070772 -0.088374 -0.094313 -0.091839 -0.084371 -0.075134 -0.066898 -0.061822 -0.061354 -0.066196 -0.076298 -0.090892 -0.108579 -0.127473 -0.145412 -0.160220 -0.170003 -0.173436 -0.169985 -0.160042 -0.144907 -0.126631 -0.107714 -0.090700 -0.077732 -0.070126 -0.068062 -0.070426 -0.074874 -0.078118 -0.076406 -0.066157 -0.044650 -0.010658 0.035072 0.089607 0.147950 0.203522 0.248975 0.277248 0.282718 0.262273 0.216118 0.148139 0.065720 -0.021026 -0.100544 -0.161486 -0.194471 -0.193679 -0.157990 -0.091435 -0.002839 0.095346 0.188870 0.263889 0.309201 0.318106 0.289572 0.228462 0.144762 0.051912 -0.035472 -0.104109 -0.144334 -0.151737 -0.127871 -0.079885 -0.019146 0.040885 0.087145 0.109355 0.101865 0.064632 0.003143 -0.072660 -0.150247 -0.216790 -0.261441 -0.277162 -0.261810 -0.218277 -0.153729 -0.078111 -0.002258 0.064022 0.113519 0.142573 0.151268 0.142899 0.122870 0.097305 0.071674 0.049726 0.032931 0.020506 0.009973 -0.001915 -0.018109 -0.040327 -0.068442 -0.100336 -0.132230 -0.159425 -0.177271 -0.182155 -0.172308 -0.148250 -0.112803 -0.070666 -0.027648 0.010298 0.038045 0.052105 0.051131 0.036070 0.009919 -0.022809 -0.056830 -0.086900 -0.108559 -0.118698 -0.115889 -0.100435 -0.074162 -0.040017 -0.001521 0.037806 0.074976 0.107944 0.135830 0.158921 0.178463 0.196257 0.214130 0.233372 0.254232 0.275588 0.294869 0.308291 0.311387 0.299786 0.270118 0.220890 0.153151 0.070800 -0.019579 -0.109385 -0.189097 -0.249659 -0.283925 -0.287906 -0.261590 -0.209143 -0.138437 -0.059931 0.014906 0.075388 0.113291 0.124145 0.107885 0.068757 0.014499 -0.045062 -0.099724 -0.140636 -0.161724 -0.160576 -0.138659 -0.100857 -0.054458 -0.007808 0.031113 0.055922 0.062688 0.050292 0.020305 -0.023543 -0.076132 -0.131779 -0.184976 -0.230923 -0.265816 -0.286924 -0.292529 -0.281828 -0.254872 -0.212582 -0.156841 -0.090587 -0.017841 0.056433 0.126668 0.187245 0.233188 0.260872 0.268621 0.257034 0.228969 0.189133 0.143368 0.097742 0.057631 0.026980 0.007880 0.000541 0.003631 0.014888 0.031818 0.052303 0.074950 0.099099 0.124492 0.150725 0.176647 0.199935 0.217012 0.223419 0.214623 0.187115 0.139562 0.073725 -0.005146 -0.088613 -0.166098 -0.226549 -0.260445 -0.261747 -0.229388 -0.167929 -0.087185 -0.000805 0.075984 0.129084 0.148161 0.128692 0.072999 -0.009973 -0.106144 -0.198785 -0.271552 -0.311504 
hipp_sf_0010_BA35 -0.024735 -0.028894 -0.034865 -0.038602 -0.035493 -0.021717 0.004520 0.042164 0.087140 0.132886 0.171517 0.195373 0.198636 0.178650 0.136659 0.077787 0.010242 -0.056107 -0.111497 -0.148019 -0.161019 -0.149864 -0.117927 -0.071845 -0.020176 0.028212 0.065733 0.087312 0.091053 0.078245 0.052755 0.019982 -0.014363 -0.045400 -0.069897 -0.086619 -0.096189 -0.100543 -0.102136 -0.103127 -0.104737 -0.106922 -0.108425 -0.107164 -0.100856 -0.087690 -0.066905 -0.039118 -0.006343 0.028299 0.061103 0.088406 0.107184 0.115499 0.112716 0.099479 0.077485 0.049140 0.017180 -0.015644 -0.046781 -0.073981 -0.095318 -0.109186 -0.114335 -0.109973 -0.095936 -0.072891 -0.042487 -0.007390 0.028881 0.062337 0.089081 0.105965 0.111218 0.104876 0.088909 0.066965 0.043745 0.024103 0.012054 0.009884 0.017575 0.032698 0.050823 0.066399 0.073941 0.069275 0.050589 0.019026 -0.021310 -0.063991 -0.101430 -0.126352 -0.133279 -0.119714 -0.086765 -0.039064 0.016022 0.069747 0.113629 0.141067 0.148578 0.136416 0.108444 0.071279 0.032905 0.001029 -0.018461 -0.022624 -0.011956 0.009858 0.036847 0.062124 0.079401 0.084338 0.075423 0.054220 0.024935 -0.006592 -0.034220 -0.052890 -0.059732 -0.054674 -0.040414 -0.021789 -0.004666 0.005368 0.004256 -0.009631 -0.035124 -0.068486 -0.104191 -0.136055 -0.158495 -0.167634 -0.162021 -0.142847 -0.113622 -0.079398 -0.045740 -0.017663 0.001242 0.009313 0.006891 -0.004041 -0.020508 -0.039328 -0.057826 -0.074318 -0.088253 -0.100015 -0.110451 -0.120270 -0.129478 -0.137023 -0.140750 -0.137692 -0.124664 -0.099011 -0.059352 -0.006140 0.058100 0.128938 0.200574 0.266676 0.321333 0.359958 0.379947 0.380983 0.364927 0.335333 0.296690 0.253574 0.209857 0.168156 0.129603 0.093971 0.060098 0.026498 -0.007988 -0.043668 -0.079705 -0.114132 -0.144167 -0.166751 -0.179198 -0.179808 -0.168311 -0.146055 -0.115884 -0.081745 -0.048096 -0.019237 0.001321 0.011325 0.010016 -0.001881 -0.022397 -0.048709 -0.077595 -0.105859 -0.130663 -0.149707 -0.161294 -0.164285 -0.158024 -0.142275 -0.117235 -0.083615 -0.042783 0.003095 0.050984 0.097039 0.136861 0.165942 0.180268 0.176986 0.155028 0.115555 0.062099 0.000354 -0.062427 -0.118336 -0.159923 -0.181319 -0.179199 -0.153409 -0.107121 -0.046484 0.020209 0.083712 0.135187 0.167532 0.176447 0.161067 0.124069 0.071223 0.010475 -0.049285 -0.099575 -0.133570 -0.147049 -0.138909 -0.111181 -0.068562 -0.017575 0.034502 0.080744 0.115554 0.135358 0.138942 0.127394 0.103713 0.072169 0.037551 0.004417 -0.023518 -0.043788 -0.055330 -0.058411 -0.054349 -0.045129 -0.032969 -0.019931 -0.007622 0.002966 0.011491 0.018174 0.023615 0.028586 0.033801 0.039735 0.046506 0.053820 0.061012 0.067137 0.071127 0.071963 0.068857 0.061398 0.049656 0.034216 0.016129 -0.003198 -0.022186 -0.039284 -0.053186 -0.063002 -0.068361 -0.069430 -0.066843 -0.061538 -0.054562 -0.046860 -0.039100 -0.031592 -0.024284 -0.016876 -0.009002 -0.000434 0.008722 0.017924 0.026199 0.032274 0.034819 0.032745 0.025500 0.013281 -0.002894 -0.021279 -0.039658 -0.055726 -0.067505 -0.073709 -0.073980 -0.068925 -0.059941 -0.048873 -0.037569 -0.027444 -0.019166 -0.012544 -0.006653 -0.000189 0.008042 0.018618 0.031112 0.043954 0.054601 0.060031 0.057456 0.045126 0.023022 -0.006748 -0.039978 -0.070890 -0.093081 -0.100758 -0.089998 -0.059792 -0.012600 0.045727 0.106713 0.160606 0.198087 0.212012 0.198847 0.159497 0.099325 0.027331 -0.045377 -0.107544 -0.149784 -0.166257 -0.155678 -0.121445 -0.070880 -0.013724 0.039790 0.080900 0.103908 0.107078 0.092688 0.066236 0.035005 0.006321 -0.014102 -0.023358 -0.021837 -0.012895 -0.001820 0.005667 0.004986 -0.006008 -0.026360 -0.052120 -0.077230 -0.094980 -0.099703 -0.088293 -0.061190 -0.022548 0.020457 0.059087 0.084937 0.091856 0.077462 0.043870 -0.002539 -0.052309 -0.094813 -0.120486 -0.122886 -0.100145 -0.055463 0.003466 0.066004 0.120755 0.157935 0.171403 0.159908 0.127283 0.081537 0.033041 -0.007788 -0.032803 -0.037914 -0.023969 0.003487 0.035508 0.061827 0.073237 0.063760 0.032103 -0.017920 -0.078111 -0.137583 -0.185084 -0.211414 
hipp_sf_0011_BA36 0.191213 0.171240 0.133398 0.081638 0.021282 -0.041609 -0.100924 -0.151170 -0.188022 -0.208698 -0.212124 -0.198894 -0.171051 -0.131738 -0.084795 -0.034348 0.015552 0.061206 0.099463 0.127826 0.144520 0.148517 0.139575 0.118265 0.086017 0.045134 -0.001239 -0.049236 -0.094490 -0.132481 -0.158966 -0.170474 -0.164781 -0.141308 -0.101344 -0.048064 0.013717 0.078017 0.138361 0.188561 0.223494 0.239768 0.236176 0.213856 0.176129 0.128046 0.075688 0.025340 -0.017343 -0.048064 -0.064382 -0.065935 -0.054348 -0.032870 -0.005799 0.022197 0.046752 0.064371 0.072803 0.071200 0.060039 0.040865 0.015911 -0.012313 -0.041398 -0.069300 -0.094485 -0.115922 -0.132989 -0.145310 -0.152598 -0.154555 -0.150854 -0.141213 -0.125547 -0.104144 -0.077828 -0.048028 -0.016748 0.013615 0.040555 0.061819 0.075781 0.081738 0.080078 0.072261 0.060608 0.047920 0.036990 0.030091 0.028542 0.032433 0.040582 0.050721 0.059917 0.065128 0.063813 0.054474 0.037020 0.012882 -0.015155 -0.043387 -0.067809 -0.084817 -0.091857 -0.087905 -0.073668 -0.051485 -0.024923 0.001852 0.024812 0.040782 0.047987 0.046330 0.037355 0.023894 0.009465 -0.002450 -0.009111 -0.009073 -0.002467 0.009036 0.022578 0.034716 0.042141 0.042379 0.034332 0.018537 -0.002891 -0.026644 -0.048837 -0.065754 -0.074556 -0.073818 -0.063798 -0.046364 -0.024619 -0.002285 0.017025 0.030491 0.036612 0.035450 0.028562 0.018632 0.008893 0.002444 0.001615 0.007496 0.019721 0.036542 0.055174 0.072322 0.084793 0.090060 0.086679 0.074486 0.054544 0.028888 0.000109 -0.029097 -0.056347 -0.079856 -0.098568 -0.112104 -0.120588 -0.124402 -0.123938 -0.119436 -0.110921 -0.098267 -0.081368 -0.060343 -0.035740 -0.008657 0.019252 0.045895 0.068985 0.086343 0.096215 0.097545 0.090140 0.074717 0.052821 0.026647 -0.001205 -0.027985 -0.051033 -0.067966 -0.076829 -0.076201 -0.065293 -0.044049 -0.013245 0.025413 0.069244 0.114629 0.157197 0.192163 0.214839 0.221257 0.208832 0.176945 0.127331 0.064158 -0.006263 -0.076144 -0.137201 -0.181805 -0.204144 -0.201177 -0.173222 -0.124044 -0.060406 0.008869 0.074182 0.126578 0.159078 0.167691 0.151938 0.114808 0.062162 0.001703 -0.058308 -0.110353 -0.148762 -0.170431 -0.175066 -0.164934 -0.144201 -0.118014 -0.091493 -0.068847 -0.052737 -0.043992 -0.041690 -0.043547 -0.046518 -0.047472 -0.043802 -0.033886 -0.017322 0.005074 0.031458 0.059292 0.085733 0.108008 0.123740 0.131171 0.129308 0.117990 0.097898 0.070523 0.038093 0.003445 -0.030161 -0.059318 -0.080821 -0.092064 -0.091455 -0.078757 -0.055297 -0.023972 0.010995 0.044531 0.071391 0.086925 0.087837 0.072782 0.042697 0.000802 -0.047768 -0.096635 -0.139060 -0.168896 -0.181460 -0.174181 -0.146937 -0.102024 -0.043800 0.021942 0.088750 0.150308 0.201150 0.237182 0.255992 0.256932 0.241004 0.210608 0.169215 0.120994 0.070455 0.022094 -0.019949 -0.052218 -0.072252 -0.078864 -0.072338 -0.054497 -0.028605 0.000940 0.029117 0.050938 0.062183 0.060084 0.043827 0.014782 -0.023629 -0.066418 -0.107807 -0.142179 -0.165011 -0.173640 -0.167687 -0.149062 -0.121537 -0.089967 -0.059314 -0.033679 -0.015526 -0.005286 -0.001409 -0.000867 0.000005 0.004509 0.014652 0.030486 0.049900 0.068902 0.082391 0.085232 0.073453 0.045288 0.001847 -0.052745 -0.111812 -0.167103 -0.210147 -0.233698 -0.233038 -0.206858 -0.157567 -0.090965 -0.015323 0.059933 0.125722 0.174707 0.202356 0.207493 0.192264 0.161561 0.122030 0.080871 0.044644 0.018301 0.004571 0.003787 0.014125 0.032173 0.053682 0.074347 0.090484 0.099483 0.100021 0.092020 0.076419 0.054845 0.029261 0.001667 -0.026099 -0.052459 -0.076100 -0.095938 -0.111068 -0.120749 -0.124425 -0.121797 -0.112914 -0.098249 -0.078749 -0.055809 -0.031187 -0.006855 0.015202 0.033185 0.045674 0.051785 0.051273 0.044574 0.032795 0.017656 0.001372 -0.013507 -0.024313 -0.028527 -0.024083 -0.009696 0.014841 0.048429 0.088570 0.131459 0.172287 0.205759 0.226770 0.231161 0.216438 0.182317 0.130985 0.066996 -0.003228 -0.072227 -0.132565 -0.177952 -0.204235 -0.210074 -0.197181 -0.170053 -0.135231 -0.100196 -0.072096 -0.056517 
hipp_sf_0012_PHC 0.015081 0.014305 0.012590 0.009634 0.005054 -0.001528 -0.010372 -0.021481 -0.034480 -0.048517 -0.062244 -0.073899 -0.081496 -0.083129 -0.077331 -0.063445 -0.041915 -0.014421 0.016186 0.046197 0.071559 0.088534 0.094387 0.087976 0.070116 0.043623 0.012999 -0.016221 -0.038367 -0.048631 -0.043991 -0.023891 0.009460 0.051254 0.094698 0.132007 0.155623 0.159465 0.140021 0.097080 0.034000 -0.042558 -0.123396 -0.197955 -0.255725 -0.287710 -0.287733 -0.253412 -0.186652 -0.093595 0.015991 0.129820 0.234560 0.317495 0.368174 0.379815 0.350298 0.282568 0.184378 0.067383 -0.054336 -0.166119 -0.254713 -0.310091 -0.326844 -0.304907 -0.249488 -0.170195 -0.079469 0.009417 0.084476 0.136884 0.162275 0.161236 0.138893 0.103678 0.065482 0.033573 0.014648 0.011436 0.022117 0.040691 0.058254 0.064926 0.052078 0.014392 -0.048644 -0.132145 -0.226273 -0.317686 -0.391715 -0.434903 -0.437412 -0.394853 -0.309203 -0.188622 -0.046209 0.102068 0.239891 0.353099 0.431746 0.471343 0.473130 0.443349 0.391725 0.329476 0.267238 0.213297 0.172423 0.145488 0.129849 0.120381 0.110891 0.095607 0.070452 0.033857 -0.012994 -0.066499 -0.121450 -0.172106 -0.213322 -0.241496 -0.255166 -0.255174 -0.244376 -0.226994 -0.207736 -0.190864 -0.179371 -0.174416 -0.175104 -0.178645 -0.180860 -0.176953 -0.162422 -0.133975 -0.090289 -0.032498 0.035685 0.108257 0.177603 0.235477 0.274166 0.287650 0.272571 0.228859 0.159868 0.071994 -0.026196 -0.125176 -0.215831 -0.290727 -0.345043 -0.377008 -0.387736 -0.380505 -0.359642 -0.329246 -0.292052 -0.248706 -0.197637 -0.135590 -0.058739 0.035867 0.148838 0.277320 0.414527 0.550106 0.671344 0.765038 0.819691 0.827596 0.786376 0.699628 0.576504 0.430278 0.276145 0.128709 -0.000359 -0.103996 -0.180425 -0.232709 -0.267301 -0.291945 -0.313406 -0.335583 -0.358443 -0.378036 -0.387617 -0.379595 -0.347869 -0.289974 -0.208501 -0.111384 -0.010930 0.078265 0.142114 0.169939 0.156837 0.104971 0.023449 -0.073231 -0.167868 -0.243846 -0.288320 -0.294639 -0.263478 -0.202449 -0.124295 -0.044056 0.024144 0.069993 0.088930 0.082726 0.058607 0.027163 -0.000444 -0.015304 -0.012932 0.005705 0.034558 0.064159 0.084165 0.086169 0.066075 0.025453 -0.028487 -0.084325 -0.128964 -0.150679 -0.141972 -0.101552 -0.034937 0.046487 0.127788 0.193671 0.231829 0.235685 0.205893 0.150236 0.081936 0.016715 -0.030713 -0.049943 -0.037222 0.003705 0.062437 0.124273 0.173537 0.197137 0.187531 0.144449 0.074968 -0.008070 -0.088925 -0.152468 -0.187517 -0.189249 -0.160146 -0.109259 -0.049984 0.003138 0.037845 0.047018 0.030311 -0.005816 -0.049674 -0.087167 -0.105192 -0.094858 -0.053748 0.013273 0.094922 0.175833 0.239839 0.273489 0.268980 0.225884 0.151270 0.058213 -0.036976 -0.118175 -0.172774 -0.194178 -0.182948 -0.146386 -0.096666 -0.047987 -0.013383 -0.001908 -0.016806 -0.055018 -0.108107 -0.164314 -0.211261 -0.238653 -0.240388 -0.215616 -0.168571 -0.107272 -0.041453 0.019754 0.069817 0.106030 0.129697 0.145279 0.158738 0.175534 0.198771 0.227983 0.258848 0.283952 0.294413 0.282015 0.241360 0.171538 0.076914 -0.033158 -0.145679 -0.246144 -0.321050 -0.360290 -0.358942 -0.318145 -0.244879 -0.150744 -0.049972 0.042933 0.115500 0.159137 0.170244 0.150458 0.106046 0.046633 -0.016488 -0.072165 -0.111038 -0.126810 -0.117005 -0.083165 -0.030505 0.032880 0.097165 0.152134 0.188586 0.199648 0.181833 0.135716 0.066093 -0.018444 -0.106531 -0.185563 -0.243558 -0.271091 -0.262967 -0.219338 -0.145990 -0.053682 0.043438 0.130119 0.192628 0.221226 0.212042 0.167926 0.098072 0.016426 -0.060868 -0.118538 -0.145151 -0.135426 -0.091372 -0.022019 0.058255 0.132503 0.184555 0.202268 0.180040 0.120055 0.032003 -0.068678 -0.163720 -0.235497 -0.270398 -0.261398 -0.209354 -0.122770 -0.016091 0.093095 0.187401 0.252838 0.281268 0.271638 0.229809 0.167062 0.097630 0.035785 -0.006940 -0.023844 -0.014094 0.017427 0.061386 0.106062 0.139751 0.153055 0.140604 0.101944 0.041466 -0.032528 -0.109407 -0.178095 -0.228923 -0.255133 -0.253819 -0.226202 -0.177276 -0.114918 -0.048659 0.011702 0.057440 0.082044 
