13 420
hipp_sf_0000_BG 0.001605 0.002889 0.005169 0.007912 0.010419 0.011935 0.011770 0.009429 0.004715 -0.002194 -0.010731 -0.019975 -0.028760 -0.035821 -0.039987 -0.040371 -0.036532 -0.028584 -0.017225 -0.003669 0.010499 0.023546 0.033835 0.040078 0.041525 0.038082 0.030325 0.019407 0.006876 -0.005562 -0.016305 -0.024087 -0.028150 -0.028323 -0.025015 -0.019101 -0.011763 -0.004271 0.002213 0.006810 0.009038 0.008855 0.006634 0.003073 -0.000929 -0.004417 -0.006523 -0.006590 -0.004255 0.000502 0.007358 0.015682 0.024612 0.033159 0.040324 0.045225 0.047215 0.045975 0.041565 0.034431 0.025344 0.015301 0.005366 -0.003487 -0.010539 -0.015437 -0.018246 -0.019421 -0.019693 -0.019897 -0.020767 -0.022747 -0.025853 -0.029628 -0.033210 -0.035499 -0.035403 -0.032108 -0.025325 -0.015440 -0.003536 0.008730 0.019393 0.026530 0.028645 0.024993 0.015784 0.002222 -0.013659 -0.029317 -0.042144 -0.049928 -0.051264 -0.045813 -0.034366 -0.018698 -0.001232 0.015417 0.028923 0.037669 0.041015 0.039363 0.034011 0.026838 0.019872 0.014856 0.012885 0.014197 0.018165 0.023470 0.028424 0.031372 0.031066 0.026952 0.019290 0.009097 -0.002081 -0.012495 -0.020571 -0.025231 -0.026098 -0.023550 -0.018604 -0.012673 -0.007248 -0.003577 -0.002416 -0.003901 -0.007558 -0.012452 -0.017419 -0.021342 -0.023383 -0.023142 -0.020705 -0.016572 -0.011501 -0.006311 -0.001693 0.001925 0.004422 0.005945 0.006793 0.007272 0.007562 0.007638 0.007268 0.006098 0.003790 0.000182 -0.004577 -0.009966 -0.015127 -0.019003 -0.020548 -0.018975 -0.013965 -0.005811 0.004575 0.015778 0.026117 0.033957 0.038024 0.037664 0.032985 0.024851 0.014723 0.004382 -0.004407 -0.010231 -0.012280 -0.010474 -0.005446 0.001630 0.009292 0.016097 0.020894 0.023019 0.022366 0.019331 0.014661 0.009234 0.003839 -0.000988 -0.005045 -0.008444 -0.011501 -0.014571 -0.017885 -0.021423 -0.024870 -0.027668 -0.029142 -0.028684 -0.025931 -0.020896 -0.014021 -0.006121 0.001767 0.008591 0.013503 0.016040 0.016220 0.014520 0.011757 0.008883 0.006746 0.005887 0.006405 0.007940 0.009766 0.010989 0.010785 0.008637 0.004495 -0.001167 -0.007431 -0.013124 -0.017083 -0.018435 -0.016821 -0.012517 -0.006410 0.000164 0.005685 0.008772 0.008480 0.004519 -0.002669 -0.011982 -0.021860 -0.030596 -0.036659 -0.038983 -0.037151 -0.031443 -0.022744 -0.012329 -0.001595 0.008215 0.016223 0.022030 0.025702 0.027652 0.028455 0.028641 0.028528 0.028138 0.027212 0.025318 0.022024 0.017082 0.010574 0.002979 -0.004877 -0.011954 -0.017216 -0.019863 -0.019523 -0.016362 -0.011074 -0.004748 0.001359 0.006093 0.008658 0.008797 0.006845 0.003654 0.000392 -0.001738 -0.001787 0.000697 0.005543 0.011966 0.018722 0.024373 0.027599 0.027498 0.023796 0.016923 0.007933 -0.001708 -0.010428 -0.016881 -0.020227 -0.020305 -0.017650 -0.013370 -0.008886 -0.005613 -0.004641 -0.006489 -0.010984 -0.017292 -0.024091 -0.029849 -0.033144 -0.032960 -0.028898 -0.021256 -0.010972 0.000568 0.011791 0.021238 0.027811 0.030955 0.030707 0.027642 0.022709 0.017022 0.011637 0.007362 0.004651 0.003567 0.003840 0.004975 0.006382 0.007508 0.007926 0.007380 0.005774 0.003142 -0.000414 -0.004761 -0.009756 -0.015237 -0.020986 -0.026688 -0.031904 -0.036077 -0.038582 -0.038821 -0.036344 -0.030973 -0.022902 -0.012731 -0.001436 0.009748 0.019500 0.026627 0.030266 0.030043 0.026150 0.019322 0.010727 0.001767 -0.006150 -0.011838 -0.014514 -0.013897 -0.010217 -0.004134 0.003415 0.011391 0.018835 0.024999 0.029421 0.031929 0.032587 0.031608 0.029257 0.025780 0.021363 0.016151 0.010284 0.003967 -0.002483 -0.008614 -0.013875 -0.017688 -0.019568 -0.019247 -0.016774 -0.012566 -0.007380 -0.002210 0.001888 0.003992 0.003520 0.000369 -0.005028 -0.011752 -0.018554 -0.024085 -0.027167 -0.027034 -0.023507 -0.017054 -0.008715 0.000084 0.007809 0.013126 0.015171 0.013734 0.009313 0.003018 -0.003650 -0.009106 -0.012011 -0.011564 -0.007673 -0.000997 0.007178 0.015193 0.021354 0.024280 0.023203 0.018138 0.009905 -0.000023 -0.009802 -0.017575 -0.021853 -0.021808 -0.017453 -0.009645 0.000078 0.009796 0.017589 0.021914 
hipp_sf_0001_CA1 0.091426 0.070217 0.030999 -0.020362 -0.076318 -0.128885 -0.170938 -0.197328 -0.205611 -0.196270 -0.172395 -0.138883 -0.101324 -0.064787 -0.032773 -0.006524 0.015125 0.035333 0.058333 0.088190 0.127496 0.176298 0.231508 0.286979 0.334290 0.364150 0.368178 0.340727 0.280392 0.190858 0.080882 -0.036692 -0.146732 -0.234177 -0.286538 -0.296094 -0.261360 -0.187545 -0.085865 0.028168 0.137225 0.224941 0.278540 0.290817 0.261143 0.195343 0.104480 0.002815 -0.094674 -0.174757 -0.227955 -0.249760 -0.240915 -0.206770 -0.155924 -0.098459 -0.044142 -0.000918 0.026049 0.034704 0.025820 0.002292 -0.031781 -0.071964 -0.114134 -0.154784 -0.191011 -0.220280 -0.240143 -0.248058 -0.241465 -0.218143 -0.176803 -0.117773 -0.043575 0.040792 0.128032 0.209222 0.274931 0.316606 0.327970 0.306169 0.252423 0.172033 0.073714 -0.031625 -0.132454 -0.218239 -0.280844 -0.315452 -0.320894 -0.299367 -0.255660 -0.196083 -0.127349 -0.055623 0.014092 0.078183 0.134293 0.180971 0.217256 0.242361 0.255587 0.256467 0.245119 0.222651 0.191472 0.155342 0.119090 0.087959 0.066720 0.058693 0.064928 0.083750 0.110822 0.139776 0.163330 0.174691 0.168975 0.144334 0.102536 0.048842 -0.008840 -0.061375 -0.100144 -0.118771 -0.114460 -0.088695 -0.047108 0.001456 0.046525 0.077943 0.087789 0.071913 0.030782 -0.030522 -0.103154 -0.176062 -0.237932 -0.279189 -0.293672 -0.279683 -0.240252 -0.182562 -0.116669 -0.053763 -0.004261 0.023907 0.026564 0.003894 -0.039689 -0.096338 -0.156103 -0.208541 -0.244353 -0.256774 -0.242535 -0.202252 -0.140214 -0.063639 0.018482 0.096755 0.162746 0.210158 0.235619 0.239015 0.223296 0.193826 0.157392 0.121021 0.090832 0.071086 0.063616 0.067710 0.080470 0.097568 0.114238 0.126327 0.131162 0.128082 0.118490 0.105430 0.092760 0.084098 0.081783 0.086081 0.094860 0.103824 0.107316 0.099538 0.075959 0.034592 -0.023152 -0.092271 -0.164745 -0.230821 -0.280809 -0.307029 -0.305542 -0.277246 -0.228097 -0.168307 -0.110633 -0.068032 -0.051106 -0.065853 -0.112175 -0.183489 -0.267575 -0.348560 -0.409693 -0.436421 -0.419183 -0.355365 -0.250041 -0.115298 0.031732 0.171809 0.286949 0.363576 0.394891 0.381995 0.333553 0.264079 0.191136 0.132015 0.100498 0.104319 0.143797 0.211887 0.295615 0.378624 0.444324 0.479049 0.474625 0.429873 0.350777 0.249297 0.141088 0.042548 -0.032228 -0.074014 -0.080073 -0.054533 -0.007466 0.047124 0.094036 0.119775 0.115108 0.076766 0.008008 -0.082063 -0.180278 -0.271934 -0.343583 -0.385554 -0.393719 -0.370177 -0.322718 -0.263182 -0.205014 -0.160510 -0.138255 -0.141296 -0.166378 -0.204445 -0.242313 -0.265232 -0.259860 -0.217103 -0.134257 -0.016067 0.125563 0.273155 0.406297 0.504880 0.552362 0.538502 0.461086 0.326358 0.148113 -0.054376 -0.259202 -0.444948 -0.593555 -0.692493 -0.735938 -0.724846 -0.666038 -0.570551 -0.451627 -0.322715 -0.195797 -0.080269 0.017592 0.094617 0.150347 0.186454 0.206134 0.213589 0.213606 0.211207 0.211261 0.217997 0.234398 0.261535 0.297995 0.339600 0.379606 0.409510 0.420456 0.405058 0.359332 0.284298 0.186819 0.079335 -0.021655 -0.098233 -0.134436 -0.119735 -0.051875 0.061599 0.203646 0.349998 0.473144 0.547372 0.553941 0.485290 0.347372 0.159442 -0.048818 -0.242465 -0.387821 -0.459123 -0.443939 -0.346170 -0.185909 0.003967 0.183914 0.315406 0.368668 0.328873 0.199489 0.001980 -0.228151 -0.448268 -0.617110 -0.703150 -0.691110 -0.585221 -0.408525 -0.198305 0.001460 0.149065 0.213639 0.181495 0.058958 -0.128932 -0.343573 -0.540723 -0.679532 -0.730804 -0.682749 -0.543084 -0.337071 -0.101996 0.120707 0.293941 0.392262 0.406483 0.344683 0.229522 0.092581 -0.032924 -0.119377 -0.150336 -0.123270 -0.048946 0.052243 0.156019 0.240585 0.292045 0.307575 0.295601 0.272974 0.259885 0.273791 0.323926 0.407784 0.510574 0.607869 0.670950 0.673649 0.599090 0.444726 0.224369 -0.033381 -0.290131 -0.505110 -0.643440 -0.683459 -0.621448 -0.472677 -0.268474 -0.049896 0.140654 0.268067 0.311549 0.268515 0.154521 -0.000706 -0.160227 -0.288263 -0.358099 -0.357765 -0.292236 -0.181727 -0.056497 0.050576 0.111935 
hipp_sf_0002_CA2 0.464138 0.359417 0.172450 -0.056791 -0.279687 -0.449693 -0.532525 -0.513534 -0.400618 -0.222026 -0.019574 0.161168 0.281497 0.318553 0.270607 0.157416 0.015538 -0.110391 -0.178447 -0.159852 -0.046654 0.145135 0.377784 0.599079 0.753102 0.792267 0.688065 0.438178 0.068400 -0.371106 -0.814533 -1.192359 -1.444105 -1.529353 -1.434854 -1.176405 -0.795234 -0.349782 0.095342 0.480962 0.763167 0.919580 0.951029 0.878631 0.737244 0.566907 0.404245 0.275638 0.193465 0.155935 0.150205 0.157722 0.160339 0.145630 0.110167 0.060045 0.008697 -0.027333 -0.033475 -0.001750 0.066300 0.159116 0.257212 0.337373 0.377963 0.364089 0.291384 0.167518 0.011053 -0.152120 -0.293976 -0.390046 -0.424358 -0.392574 -0.302691 -0.173206 -0.029224 0.102602 0.199200 0.245180 0.235136 0.173764 0.073958 -0.046569 -0.169267 -0.278413 -0.363690 -0.421201 -0.452879 -0.464606 -0.463662 -0.456223 -0.445564 -0.431399 -0.410435 -0.377928 -0.329731 -0.264241 -0.183659 -0.094199 -0.005146 0.073010 0.130928 0.162641 0.167109 0.148681 0.116337 0.081866 0.057389 0.052797 0.073690 0.120263 0.187384 0.265790 0.344113 0.411231 0.458414 0.480800 0.477908 0.453156 0.412574 0.363095 0.310865 0.259978 0.211926 0.165815 0.119227 0.069440 0.014640 -0.045213 -0.108067 -0.170089 -0.226470 -0.272479 -0.304474 -0.320599 -0.320997 -0.307539 -0.283183 -0.251206 -0.214552 -0.175491 -0.135675 -0.096522 -0.059732 -0.027678 -0.003453 0.009580 0.008691 -0.007072 -0.035828 -0.072295 -0.108006 -0.132481 -0.135220 -0.108177 -0.048153 0.041523 0.150560 0.262827 0.358982 0.420193 0.432202 0.388823 0.294015 0.161888 0.014468 -0.122470 -0.224705 -0.274872 -0.266557 -0.206155 -0.111919 -0.010231 0.070214 0.105102 0.080567 -0.002796 -0.129055 -0.269571 -0.388772 -0.451916 -0.433206 -0.322416 -0.128452 0.121143 0.384846 0.615142 0.768255 0.813535 0.740415 0.561329 0.309761 0.033721 -0.214124 -0.387557 -0.456807 -0.415182 -0.280811 -0.093001 0.096145 0.233090 0.274801 0.198657 0.008111 -0.267206 -0.577073 -0.860840 -1.060037 -1.130748 -1.053078 -0.835653 -0.514161 -0.144206 0.210004 0.488730 0.648756 0.671849 0.567889 0.372047 0.136712 -0.080017 -0.226743 -0.269413 -0.197930 -0.027426 0.205930 0.453521 0.665249 0.800403 0.836040 0.771128 0.625672 0.435232 0.242214 0.086047 -0.005501 -0.021945 0.028529 0.122042 0.225498 0.304912 0.333556 0.298029 0.200887 0.059341 -0.099509 -0.245637 -0.353501 -0.408071 -0.408063 -0.365666 -0.302940 -0.245850 -0.217490 -0.232194 -0.291982 -0.386186 -0.494293 -0.591236 -0.653747 -0.666168 -0.624224 -0.535816 -0.418654 -0.295337 -0.187174 -0.108347 -0.061972 -0.039135 -0.021259 0.014707 0.089506 0.214897 0.388802 0.593628 0.798394 0.964381 1.053187 1.035423 0.898086 0.648874 0.316317 -0.054461 -0.409582 -0.696298 -0.872859 -0.916334 -0.826728 -0.626603 -0.356294 -0.065801 0.194931 0.385314 0.481136 0.477993 0.390606 0.248432 0.088667 -0.051717 -0.143231 -0.168996 -0.126899 -0.028630 0.103850 0.243392 0.363061 0.440727 0.462073 0.421722 0.322697 0.174765 -0.007633 -0.207244 -0.405318 -0.582380 -0.718771 -0.795453 -0.795505 -0.706499 -0.523554 -0.252470 0.087979 0.465528 0.836446 1.150345 1.357373 1.416731 1.304913 1.021918 0.593845 0.070903 -0.479248 -0.981907 -1.367715 -1.584659 -1.607303 -1.441286 -1.122045 -0.707907 -0.268858 0.126727 0.424683 0.594355 0.632698 0.562414 0.424656 0.268070 0.136734 0.059807 0.045274 0.079220 0.130747 0.161308 0.136146 0.035013 -0.140554 -0.365336 -0.594588 -0.773493 -0.849850 -0.787071 -0.574425 -0.231938 0.191420 0.626178 0.995798 1.232285 1.290576 1.158508 0.860077 0.451126 0.008304 -0.386420 -0.662366 -0.774316 -0.711209 -0.497535 -0.187201 0.148691 0.437395 0.619942 0.663075 0.565157 0.354933 0.083641 -0.187526 -0.401629 -0.518554 -0.523119 -0.427011 -0.264296 -0.081828 0.073018 0.164211 0.175670 0.114558 0.008560 -0.102090 -0.175766 -0.180966 -0.105270 0.040547 0.224360 0.400110 0.519076 0.542254 0.450831 0.252106 -0.020703 -0.314916 -0.569731 -0.729901 -0.758579 -0.646310 -0.413986 -0.108975 0.204818 0.460768 0.604133 
hipp_sf_0003_DG 0.056472 0.035395 -0.002171 -0.048068 -0.092362 -0.125523 -0.140483 -0.134124 -0.107855 -0.067161 -0.020244 0.023938 0.057765 0.076707 0.080340 0.072380 0.059739 0.050822 0.053441 0.072818 0.110139 0.161964 0.220661 0.275742 0.315866 0.331061 0.314745 0.265115 0.185672 0.084778 -0.025635 -0.131933 -0.220873 -0.281537 -0.306802 -0.294135 -0.245668 -0.167618 -0.069236 0.038489 0.144159 0.237144 0.308502 0.351615 0.362563 0.340270 0.286484 0.205599 0.104322 -0.008843 -0.124305 -0.232293 -0.323887 -0.392066 -0.432623 -0.444765 -0.431272 -0.398118 -0.353572 -0.306899 -0.266853 -0.240219 -0.230677 -0.238184 -0.259005 -0.286377 -0.311703 -0.326041 -0.321625 -0.293156 -0.238659 -0.159768 -0.061466 0.048665 0.161489 0.267482 0.357824 0.425297 0.464895 0.474164 0.453272 0.404906 0.333999 0.247359 0.153163 0.060331 -0.022246 -0.086587 -0.126545 -0.138656 -0.122750 -0.082183 -0.023559 0.044077 0.110521 0.165978 0.202653 0.216076 0.205882 0.175853 0.133203 0.087195 0.047355 0.021641 0.014931 0.028133 0.058118 0.098456 0.140800 0.176600 0.198774 0.202968 0.188162 0.156524 0.112596 0.062070 0.010477 -0.037864 -0.080386 -0.116190 -0.145431 -0.168393 -0.184590 -0.192230 -0.188269 -0.169138 -0.131994 -0.076190 -0.004538 0.076081 0.155043 0.219369 0.255981 0.254437 0.209522 0.123089 0.004606 -0.129860 -0.260173 -0.365754 -0.429616 -0.441965 -0.402542 -0.321145 -0.216073 -0.110722 -0.028967 0.009779 -0.005235 -0.073516 -0.182990 -0.312028 -0.433484 -0.519950 -0.549166 -0.508469 -0.397370 -0.227724 -0.021478 0.193528 0.388805 0.540421 0.633094 0.662375 0.634554 0.564405 0.471377 0.375131 0.291443 0.229345 0.190096 0.168074 0.153280 0.134755 0.104011 0.057643 -0.001532 -0.065049 -0.120921 -0.156761 -0.163115 -0.136174 -0.079184 -0.002199 0.079796 0.149957 0.193132 0.199101 0.164738 0.094634 0.000058 -0.103481 -0.199496 -0.273857 -0.317476 -0.327767 -0.308649 -0.269174 -0.221180 -0.176573 -0.144883 -0.131606 -0.137638 -0.159798 -0.192165 -0.227793 -0.260306 -0.284966 -0.299013 -0.301295 -0.291469 -0.269128 -0.233263 -0.182331 -0.114966 -0.031173 0.066405 0.171630 0.274836 0.363877 0.426200 0.451573 0.434844 0.378013 0.290952 0.190378 0.097069 0.031788 0.010699 0.041338 0.120133 0.232226 0.353846 0.456943 0.515195 0.510128 0.435973 0.302039 0.131883 -0.040762 -0.178622 -0.248783 -0.230178 -0.119007 0.069219 0.301631 0.533723 0.717792 0.812411 0.790972 0.647462 0.398200 0.079073 -0.261213 -0.570522 -0.803358 -0.929534 -0.939620 -0.846053 -0.679715 -0.482777 -0.299392 -0.166273 -0.105207 -0.119090 -0.192277 -0.295060 -0.391205 -0.446767 -0.438180 -0.357791 -0.215626 -0.037050 0.143100 0.288495 0.369562 0.370106 0.290814 0.148883 -0.026083 -0.198899 -0.336723 -0.416243 -0.428465 -0.380038 -0.290886 -0.188764 -0.102102 -0.052866 -0.051162 -0.092854 -0.160763 -0.229131 -0.270257 -0.261686 -0.192187 -0.065064 0.102065 0.281000 0.439370 0.548216 0.588951 0.558013 0.468054 0.345310 0.223680 0.136851 0.110261 0.154790 0.263687 0.413533 0.569109 0.691151 0.745291 0.710158 0.582808 0.380167 0.136093 -0.105388 -0.299261 -0.409131 -0.415161 -0.318604 -0.141873 0.075896 0.286878 0.444514 0.513244 0.475973 0.337671 0.124342 -0.122397 -0.353990 -0.525015 -0.602555 -0.572910 -0.444279 -0.244910 -0.017160 0.191252 0.336949 0.389538 0.337460 0.189895 -0.025558 -0.268849 -0.495786 -0.666915 -0.755167 -0.750752 -0.662397 -0.514803 -0.342959 -0.184576 -0.072222 -0.026775 -0.053448 -0.141121 -0.265000 -0.391970 -0.487512 -0.522756 -0.480308 -0.357728 -0.168072 0.062541 0.299786 0.507443 0.653945 0.717954 0.691976 0.583421 0.412992 0.210792 0.010892 -0.154611 -0.260989 -0.294810 -0.255737 -0.155970 -0.017493 0.132321 0.265913 0.360611 0.402638 0.389364 0.329405 0.240562 0.146013 0.069455 0.030143 0.038754 0.094924 0.186958 0.293848 0.389282 0.446925 0.445976 0.375927 0.239511 0.053189 -0.155086 -0.350513 -0.497748 -0.567701 -0.543560 -0.424812 -0.228383 0.013457 0.258201 0.460373 0.579699 0.588663 0.478016 0.259142 -0.037254 -0.366001 -0.675033 -0.914353 -1.044763 
hipp_sf_0004_CA3 -0.347621 -0.296321 -0.203937 -0.088661 0.027316 0.122591 0.181078 0.195245 0.167371 0.108561 0.035823 -0.032076 -0.078974 -0.094880 -0.077920 -0.034263 0.023883 0.081658 0.125439 0.146249 0.141843 0.116970 0.081780 0.048800 0.029288 0.029929 0.050736 0.084754 0.119686 0.141078 0.136301 0.098323 0.028293 -0.063777 -0.160519 -0.240645 -0.283603 -0.274391 -0.207416 -0.088465 0.065742 0.230397 0.377283 0.480296 0.520612 0.490382 0.394143 0.247659 0.074481 -0.098993 -0.248837 -0.358118 -0.419640 -0.436380 -0.419611 -0.385247 -0.349371 -0.324039 -0.314389 -0.317719 -0.324715 -0.322460 -0.298435 -0.244443 -0.159452 -0.050572 0.068103 0.178556 0.263085 0.308657 0.310294 0.272597 0.208949 0.138516 0.081695 0.055067 0.067066 0.115465 0.187350 0.261718 0.314184 0.322791 0.273591 0.164703 0.007816 -0.173305 -0.347107 -0.480494 -0.545718 -0.526421 -0.421505 -0.245933 -0.028234 0.194835 0.385353 0.511591 0.554097 0.509285 0.389777 0.221490 0.038118 -0.125785 -0.241648 -0.292238 -0.274454 -0.199074 -0.087637 0.032755 0.135510 0.200146 0.216227 0.184876 0.117654 0.033187 -0.047566 -0.106286 -0.131364 -0.120174 -0.079142 -0.021676 0.035450 0.076348 0.089883 0.072276 0.027856 -0.032126 -0.092302 -0.136880 -0.153368 -0.135442 -0.084341 -0.008518 0.078319 0.160252 0.222569 0.254756 0.252415 0.217747 0.158576 0.086237 0.012890 -0.051085 -0.099006 -0.128748 -0.142422 -0.145087 -0.142893 -0.141202 -0.143177 -0.149179 -0.157073 -0.163287 -0.164275 -0.157913 -0.144405 -0.126414 -0.108357 -0.095046 -0.090050 -0.094255 -0.105059 -0.116503 -0.120378 -0.108119 -0.073048 -0.012431 0.071186 0.169753 0.270742 0.359265 0.420874 0.444459 0.424588 0.362778 0.267396 0.152176 0.033669 -0.071848 -0.151340 -0.197255 -0.208571 -0.190490 -0.152894 -0.107948 -0.067421 -0.040320 -0.031324 -0.040313 -0.062994 -0.092401 -0.120820 -0.141647 -0.150732 -0.146914 -0.131698 -0.108238 -0.079988 -0.049437 -0.017328 0.017406 0.056953 0.103387 0.157237 0.216324 0.275248 0.325792 0.358229 0.363334 0.334629 0.270344 0.174578 0.057287 -0.066986 -0.181467 -0.270144 -0.320772 -0.327267 -0.290926 -0.220211 -0.129105 -0.034377 0.047672 0.104289 0.128520 0.120187 0.085404 0.034785 -0.019199 -0.065108 -0.094985 -0.105835 -0.099828 -0.083221 -0.064305 -0.050926 -0.048188 -0.056925 -0.073325 -0.089801 -0.096905 -0.085819 -0.050826 0.008859 0.088345 0.177637 0.263397 0.331538 0.370075 0.371579 0.334713 0.264503 0.171294 0.068656 -0.029300 -0.110575 -0.167341 -0.196979 -0.201923 -0.188420 -0.164570 -0.138145 -0.114735 -0.096658 -0.082858 -0.069754 -0.052785 -0.028192 0.005449 0.046377 0.089714 0.128465 0.155185 0.163908 0.151828 0.120266 0.074654 0.023484 -0.023567 -0.057896 -0.074084 -0.071332 -0.053841 -0.030008 -0.010575 -0.006129 -0.024527 -0.068823 -0.136213 -0.218260 -0.302384 -0.374315 -0.420985 -0.433221 -0.407653 -0.347410 -0.261463 -0.162757 -0.065555 0.017422 0.077434 0.111219 0.121258 0.114782 0.101796 0.092601 0.095385 0.114435 0.149349 0.195381 0.244802 0.288897 0.320103 0.333772 0.329139 0.309286 0.280138 0.248768 0.221443 0.201906 0.190325 0.183189 0.174170 0.155778 0.121409 0.067316 -0.005966 -0.093086 -0.184386 -0.267353 -0.328758 -0.357019 -0.344362 -0.288328 -0.192398 -0.065623 0.078603 0.224381 0.355404 0.456963 0.517569 0.530046 0.492020 0.405880 0.278336 0.119688 -0.057057 -0.237197 -0.405449 -0.547180 -0.649740 -0.703834 -0.704779 -0.653430 -0.556542 -0.426362 -0.279338 -0.134025 -0.008425 0.082832 0.130942 0.134516 0.099918 0.040162 -0.027487 -0.084836 -0.116362 -0.112369 -0.071021 0.001231 0.090960 0.180605 0.252252 0.291566 0.290986 0.251465 0.182304 0.099088 0.020139 -0.037732 -0.063185 -0.053092 -0.013356 0.042445 0.096372 0.130645 0.132364 0.097249 0.031455 -0.049127 -0.122077 -0.163557 -0.154266 -0.084846 0.040562 0.203612 0.374297 0.516424 0.595025 0.584180 0.473560 0.272151 0.008139 -0.275278 -0.527539 -0.700415 -0.757849 -0.683888 -0.486972 -0.199517 0.127340 0.432946 0.658593 0.758990 0.711440 0.520823 0.219284 -0.139412 -0.489859 -0.767383 -0.920415 
hipp_sf_0005_HEAD NaN NaN NaN NaN NaN NaN NaN NaN NaN NaN NaN NaN NaN NaN NaN NaN NaN NaN NaN NaN NaN NaN NaN NaN NaN NaN NaN NaN NaN NaN NaN NaN NaN NaN NaN NaN NaN NaN NaN NaN NaN NaN NaN NaN NaN NaN NaN NaN NaN NaN NaN NaN NaN NaN NaN NaN NaN NaN NaN NaN NaN NaN NaN NaN NaN NaN NaN NaN NaN NaN NaN NaN NaN NaN NaN NaN NaN NaN NaN NaN NaN NaN NaN NaN NaN NaN NaN NaN NaN NaN NaN NaN NaN NaN NaN NaN NaN NaN NaN NaN NaN NaN NaN NaN NaN NaN NaN NaN NaN NaN NaN NaN NaN NaN NaN NaN NaN NaN NaN NaN NaN NaN NaN NaN NaN NaN NaN NaN NaN NaN NaN NaN NaN NaN NaN NaN NaN NaN NaN NaN NaN NaN NaN NaN NaN NaN NaN NaN NaN NaN NaN NaN NaN NaN NaN NaN NaN NaN NaN NaN NaN NaN NaN NaN NaN NaN NaN NaN NaN NaN NaN NaN NaN NaN NaN NaN NaN NaN NaN NaN NaN NaN NaN NaN NaN NaN NaN NaN NaN NaN NaN NaN NaN NaN NaN NaN NaN NaN NaN NaN NaN NaN NaN NaN NaN NaN NaN NaN NaN NaN NaN NaN NaN NaN NaN NaN NaN NaN NaN NaN NaN NaN NaN NaN NaN NaN NaN NaN NaN NaN NaN NaN NaN NaN NaN NaN NaN NaN NaN NaN NaN NaN NaN NaN NaN NaN NaN NaN NaN NaN NaN NaN NaN NaN NaN NaN NaN NaN NaN NaN NaN NaN NaN NaN NaN NaN NaN NaN NaN NaN NaN NaN NaN NaN NaN NaN NaN NaN NaN NaN NaN NaN NaN NaN NaN NaN NaN NaN NaN NaN NaN NaN NaN NaN NaN NaN NaN NaN NaN NaN NaN NaN NaN NaN NaN NaN NaN NaN NaN NaN NaN NaN NaN NaN NaN NaN NaN NaN NaN NaN NaN NaN NaN NaN NaN NaN NaN NaN NaN NaN NaN NaN NaN NaN NaN NaN NaN NaN NaN NaN NaN NaN NaN NaN NaN NaN NaN NaN NaN NaN NaN NaN NaN NaN NaN NaN NaN NaN NaN NaN NaN NaN NaN NaN NaN NaN NaN NaN NaN NaN NaN NaN NaN NaN NaN NaN NaN NaN NaN NaN NaN NaN NaN NaN NaN NaN NaN NaN NaN NaN NaN NaN NaN NaN NaN NaN NaN NaN NaN NaN NaN NaN NaN NaN NaN NaN NaN NaN NaN NaN NaN NaN NaN NaN NaN NaN NaN NaN NaN NaN 
hipp_sf_0006_TAIL 0.283901 0.257966 0.212254 0.157463 0.105996 0.068651 0.051672 0.054945 0.071828 0.090719 0.098003 0.081698 0.034885 -0.041928 -0.140154 -0.244427 -0.335625 -0.394986 -0.408374 -0.369730 -0.282878 -0.161220 -0.025336 0.101019 0.195682 0.242550 0.234805 0.176172 0.079969 -0.033828 -0.142823 -0.226804 -0.271690 -0.271985 -0.231264 -0.160664 -0.075824 0.006957 0.074412 0.118986 0.139930 0.142624 0.136388 0.131410 0.135612 0.152281 0.179078 0.208674 0.230845 0.235465 0.215622 0.169999 0.103869 0.028367 -0.041857 -0.092077 -0.111223 -0.094958 -0.047315 0.019607 0.087916 0.137745 0.151793 0.119550 0.040235 -0.076326 -0.211142 -0.339626 -0.436567 -0.481453 -0.463002 -0.381882 -0.250977 -0.093084 0.063517 0.190723 0.266308 0.278475 0.228271 0.129363 0.005204 -0.115826 -0.206293 -0.245370 -0.223123 -0.142544 -0.018934 0.123219 0.255197 0.349814 0.386820 0.356860 0.263235 0.121175 -0.045183 -0.207435 -0.338224 -0.416181 -0.429549 -0.377886 -0.271597 -0.129523 0.024846 0.167742 0.279213 0.346206 0.364149 0.336870 0.275021 0.193451 0.108101 0.033067 -0.021658 -0.051424 -0.057030 -0.043814 -0.020026 0.005130 0.023378 0.028856 0.018964 -0.005474 -0.040686 -0.080892 -0.119496 -0.150287 -0.168451 -0.171261 -0.158366 -0.131679 -0.094927 -0.052953 -0.010896 0.026625 0.056208 0.076137 0.086565 0.089374 0.087736 0.085434 0.086060 0.092226 0.104938 0.123265 0.144389 0.164053 0.177347 0.179700 0.167878 0.140796 0.099943 0.049328 -0.005102 -0.056463 -0.098176 -0.125220 -0.135113 -0.128438 -0.108765 -0.081982 -0.055157 -0.035147 -0.027243 -0.034124 -0.055336 -0.087395 -0.124490 -0.159635 -0.186019 -0.198290 -0.193492 -0.171505 -0.134914 -0.088370 -0.037608 0.011630 0.054565 0.088015 0.110630 0.122703 0.125676 0.121505 0.112071 0.098784 0.082490 0.063649 0.042720 0.020594 -0.001092 -0.019888 -0.032786 -0.036771 -0.029560 -0.010365 0.019525 0.056514 0.094906 0.127584 0.147043 0.146627 0.121727 0.070745 -0.004386 -0.098197 -0.202224 -0.305991 -0.398303 -0.468635 -0.508443 -0.512222 -0.478189 -0.408543 -0.309271 -0.189552 -0.060797 0.064570 0.174498 0.258734 0.310145 0.325765 0.307400 0.261649 0.199235 0.133659 0.079263 0.048960 0.051953 0.091857 0.165601 0.263414 0.370032 0.467011 0.535851 0.561394 0.534875 0.456003 0.333587 0.184474 0.030892 -0.103407 -0.197486 -0.237256 -0.218354 -0.147274 -0.040433 0.078711 0.183987 0.251460 0.264040 0.214831 0.108512 -0.039509 -0.206048 -0.364586 -0.490307 -0.564721 -0.578918 -0.534839 -0.444341 -0.326314 -0.202523 -0.093100 -0.012670 0.032080 0.042925 0.028678 0.002258 -0.023004 -0.036898 -0.034859 -0.018874 0.003408 0.021123 0.023545 0.003486 -0.040150 -0.101354 -0.167857 -0.223698 -0.252959 -0.243779 -0.191673 -0.101318 0.013721 0.133347 0.234928 0.298078 0.309149 0.264401 0.171097 0.046203 -0.087064 -0.204092 -0.284096 -0.314493 -0.293464 -0.230082 -0.141963 -0.050964 0.022101 0.062495 0.065168 0.036049 -0.009306 -0.049492 -0.062595 -0.031911 0.049309 0.175235 0.327669 0.479161 0.598465 0.657222 0.636427 0.531253 0.353122 0.128453 -0.105755 -0.308703 -0.443576 -0.484781 -0.423145 -0.267997 -0.045681 0.205207 0.440941 0.620720 0.714083 0.706241 0.600350 0.416350 0.186703 -0.050034 -0.256471 -0.403056 -0.472887 -0.463840 -0.387767 -0.267113 -0.129787 -0.003439 0.089699 0.136405 0.133926 0.089191 0.016162 -0.067964 -0.146780 -0.208045 -0.245755 -0.260584 -0.258753 -0.249744 -0.243462 -0.247570 -0.265571 -0.296038 -0.333076 -0.367835 -0.390652 -0.393288 -0.370764 -0.322394 -0.251840 -0.166242 -0.074674 0.013701 0.091346 0.153587 0.199141 0.229889 0.249990 0.264607 0.278518 0.294950 0.314837 0.336634 0.356692 0.370062 0.371561 0.356864 0.323435 0.271142 0.202470 0.122325 0.037476 -0.044265 -0.115029 -0.167887 -0.197769 -0.202185 -0.181653 -0.139775 -0.082920 -0.019514 0.041001 0.089436 0.118180 0.122399 0.100886 0.056399 -0.004618 -0.072938 -0.137976 -0.189501 -0.219368 -0.222933 -0.199885 -0.154314 -0.093972 -0.028852 0.030668 0.075741 0.100678 0.103932 0.088253 0.059979 0.027599 -0.000107 -0.015968 
hipp_sf_0007_MISC -0.098305 -0.098764 -0.100058 -0.102729 -0.107125 -0.113036 -0.119434 -0.124454 -0.125648 -0.120492 -0.107025 -0.084473 -0.053667 -0.017117 0.021309 0.057088 0.085963 0.104906 0.112859 0.111081 0.102954 0.093289 0.087231 0.089023 0.100901 0.122403 0.150288 0.179108 0.202352 0.213916 0.209571 0.188083 0.151688 0.105793 0.057914 0.016061 -0.013069 -0.025689 -0.021921 -0.005923 0.014928 0.031649 0.035739 0.021279 -0.013454 -0.065241 -0.126284 -0.185640 -0.231465 -0.253608 -0.245980 -0.208160 -0.145848 -0.069994 0.005249 0.065370 0.098540 0.098207 0.064674 0.005275 -0.066925 -0.135668 -0.184777 -0.201495 -0.179184 -0.118813 -0.028915 0.075989 0.178178 0.260150 0.307965 0.313821 0.277357 0.205434 0.110494 0.007892 -0.087207 -0.162682 -0.211455 -0.232274 -0.229154 -0.209713 -0.182845 -0.156325 -0.134944 -0.119593 -0.107494 -0.093473 -0.071906 -0.038810 0.006507 0.060678 0.116651 0.165146 0.196858 0.204879 0.186719 0.145384 0.089174 0.030180 -0.018249 -0.044507 -0.041522 -0.008648 0.047811 0.115661 0.179279 0.222976 0.234541 0.208160 0.146022 0.058212 -0.039156 -0.127217 -0.188340 -0.209976 -0.187522 -0.125527 -0.036958 0.059359 0.142614 0.194366 0.202466 0.163687 0.084498 -0.020191 -0.130064 -0.223538 -0.282160 -0.294308 -0.257429 -0.178378 -0.071810 0.042983 0.146072 0.220867 0.257223 0.253045 0.214117 0.152277 0.082417 0.019019 -0.026964 -0.050220 -0.051758 -0.038080 -0.019122 -0.005519 -0.005868 -0.024640 -0.061218 -0.110218 -0.162979 -0.209782 -0.242230 -0.255192 -0.247836 -0.223527 -0.188668 -0.150793 -0.116461 -0.089489 -0.069992 -0.054498 -0.037092 -0.011303 0.027760 0.081591 0.147295 0.217694 0.282582 0.330841 0.352950 0.343262 0.301502 0.233102 0.148238 0.059780 -0.019386 -0.079068 -0.113854 -0.124093 -0.115540 -0.097730 -0.081473 -0.076064 -0.086865 -0.113848 -0.151451 -0.189807 -0.217041 -0.222136 -0.197659 -0.141738 -0.058781 0.041202 0.144555 0.236751 0.305340 0.342410 0.345990 0.320100 0.273458 0.217186 0.162077 0.116094 0.082694 0.060379 0.043553 0.024463 -0.004293 -0.047317 -0.104667 -0.171275 -0.237707 -0.292120 -0.322965 -0.321799 -0.285528 -0.217521 -0.127296 -0.028814 0.062262 0.131731 0.169734 0.172687 0.143843 0.092355 0.031064 -0.026459 -0.068945 -0.089817 -0.088408 -0.069739 -0.042941 -0.018720 -0.006488 -0.011854 -0.035095 -0.070961 -0.109874 -0.140227 -0.151249 -0.135729 -0.091973 -0.024499 0.056685 0.138080 0.205508 0.247097 0.255761 0.230626 0.177089 0.105520 0.028944 -0.039754 -0.090454 -0.117658 -0.121197 -0.105660 -0.078768 -0.049111 -0.023850 -0.006944 0.001661 0.005705 0.011265 0.024751 0.050773 0.090449 0.140609 0.194112 0.241232 0.271808 0.277621 0.254444 0.203245 0.130246 0.045779 -0.037791 -0.108634 -0.157909 -0.181554 -0.181003 -0.162675 -0.136349 -0.112823 -0.101386 -0.107683 -0.132443 -0.171358 -0.216092 -0.256192 -0.281427 -0.284041 -0.260413 -0.211781 -0.143924 -0.065909 0.011762 0.079166 0.128696 0.156169 0.161132 0.146401 0.117033 0.079060 0.038314 -0.000377 -0.033496 -0.058674 -0.074225 -0.078641 -0.070299 -0.047542 -0.009193 0.044654 0.111781 0.187269 0.263453 0.330594 0.378239 0.397064 0.380841 0.328076 0.242904 0.134956 0.018116 -0.091641 -0.178961 -0.231813 -0.243650 -0.214557 -0.151143 -0.065208 0.028543 0.115240 0.182461 0.222185 0.231710 0.213404 0.173432 0.119841 0.060508 0.001449 -0.054089 -0.105600 -0.154435 -0.202352 -0.249988 -0.295715 -0.335268 -0.362316 -0.369878 -0.352257 -0.306984 -0.236232 -0.147264 -0.051686 0.036423 0.103158 0.137644 0.134440 0.094937 0.027349 -0.054730 -0.134955 -0.197479 -0.230111 -0.226706 -0.188229 -0.122286 -0.041236 0.040673 0.110463 0.159145 0.183388 0.185763 0.173552 0.156463 0.143838 0.142089 0.153008 0.173391 0.196068 0.212067 0.213356 0.195415 0.158946 0.110211 0.059838 0.020323 0.002813 0.013969 0.053720 0.114568 0.182708 0.240841 0.272083 0.264090 0.212428 0.122304 0.008151 -0.108980 -0.205739 -0.261622 -0.263793 -0.210460 -0.111986 0.010661 0.129866 0.216992 0.248479 0.211117 0.105315 -0.054411 -0.241902 -0.424322 -0.568626 -0.648189 
hipp_sf_0008_SUB 0.030908 0.033970 0.039863 0.048078 0.057763 0.067686 0.076268 0.081728 0.082331 0.076728 0.064299 0.045439 0.021690 -0.004334 -0.029254 -0.049426 -0.061572 -0.063403 -0.054134 -0.034759 -0.008033 0.021878 0.050005 0.071366 0.081795 0.078654 0.061331 0.031409 -0.007496 -0.050211 -0.090715 -0.122962 -0.141712 -0.143239 -0.125839 -0.090087 -0.038821 0.023136 0.089472 0.153046 0.206656 0.243836 0.259608 0.251110 0.218023 0.162724 0.090125 0.007174 -0.077942 -0.156810 -0.221893 -0.267556 -0.290846 -0.291879 -0.273749 -0.241954 -0.203406 -0.165208 -0.133404 -0.111945 -0.102071 -0.102224 -0.108530 -0.115738 -0.118423 -0.112213 -0.094765 -0.066295 -0.029535 0.010839 0.049216 0.080234 0.099886 0.106307 0.100062 0.083893 0.061996 0.039011 0.018992 0.004587 -0.003354 -0.005683 -0.004392 -0.001769 0.000501 0.002019 0.003933 0.008697 0.019335 0.038421 0.067017 0.103885 0.145223 0.185054 0.216252 0.232018 0.227487 0.201082 0.155280 0.096548 0.034387 -0.020350 -0.057571 -0.070019 -0.054878 -0.014528 0.043748 0.109067 0.169015 0.212060 0.229788 0.218505 0.179850 0.120308 0.049726 -0.020812 -0.081293 -0.124749 -0.148464 -0.154186 -0.147307 -0.135255 -0.125476 -0.123515 -0.131629 -0.148264 -0.168495 -0.185321 -0.191471 -0.181300 -0.152305 -0.105908 -0.047319 0.015472 0.073339 0.117904 0.143221 0.146882 0.130320 0.098259 0.057501 0.015354 -0.021892 -0.050094 -0.067733 -0.075692 -0.076448 -0.072957 -0.067574 -0.061327 -0.053756 -0.043358 -0.028488 -0.008429 0.015714 0.040629 0.061107 0.071055 0.065013 0.039817 -0.004046 -0.061778 -0.124588 -0.181015 -0.219050 -0.228644 -0.204028 -0.145316 -0.058962 0.043101 0.145525 0.232416 0.290414 0.311316 0.293671 0.242973 0.170413 0.090445 0.017712 -0.035995 -0.064060 -0.066160 -0.047932 -0.019314 0.008040 0.023642 0.020678 -0.002449 -0.041856 -0.089250 -0.134019 -0.165817 -0.177008 -0.164379 -0.129723 -0.079191 -0.021631 0.033652 0.079091 0.110463 0.127482 0.133267 0.132866 0.131264 0.131485 0.133334 0.133211 0.125089 0.102461 0.060735 -0.000576 -0.076554 -0.156926 -0.227631 -0.273666 -0.282605 -0.247964 -0.171555 -0.064113 0.056104 0.166616 0.245301 0.275275 0.248984 0.170470 0.055202 -0.072677 -0.185195 -0.256529 -0.268805 -0.216437 -0.107928 0.035365 0.183374 0.303566 0.368001 0.359662 0.276648 0.133233 -0.042552 -0.214380 -0.345051 -0.404316 -0.375440 -0.259081 -0.073605 0.148270 0.365832 0.538424 0.633509 0.633062 0.536982 0.362841 0.142082 -0.086482 -0.284452 -0.421265 -0.479718 -0.458520 -0.371468 -0.243573 -0.105113 0.015000 0.095073 0.124484 0.104813 0.048184 -0.026624 -0.099244 -0.152727 -0.177294 -0.172050 -0.144345 -0.107107 -0.074904 -0.059807 -0.068096 -0.098644 -0.143317 -0.189260 -0.222417 -0.231366 -0.210467 -0.161498 -0.093374 -0.020002 0.043193 0.083168 0.092638 0.072020 0.029472 -0.021036 -0.063156 -0.082270 -0.069258 -0.022986 0.049139 0.132708 0.209632 0.262472 0.278739 0.254145 0.193980 0.112254 0.028748 -0.035379 -0.062435 -0.042380 0.024623 0.127893 0.248255 0.361974 0.445724 0.481503 0.460408 0.384455 0.266057 0.125328 -0.014181 -0.130332 -0.206777 -0.235930 -0.219933 -0.169499 -0.100974 -0.032366 0.020735 0.048415 0.048183 0.024897 -0.011031 -0.046620 -0.069762 -0.072280 -0.051906 -0.012767 0.035668 0.080867 0.110159 0.113605 0.086150 0.028630 -0.052549 -0.146884 -0.242003 -0.326085 -0.389936 -0.428285 -0.440113 -0.428055 -0.397159 -0.353378 -0.302209 -0.247798 -0.192657 -0.137953 -0.084161 -0.031796 0.018056 0.063611 0.102693 0.133362 0.154642 0.167057 0.172767 0.175177 0.178103 0.184685 0.196368 0.212281 0.229227 0.242377 0.246522 0.237572 0.213905 0.177143 0.132082 0.085704 0.045462 0.017244 0.003568 0.002532 0.007916 0.010539 0.000645 -0.029195 -0.081392 -0.151614 -0.228598 -0.295758 -0.334412 -0.328033 -0.266589 -0.149953 0.010546 0.193008 0.368303 0.505383 0.577526 0.568202 0.475256 0.312341 0.107123 -0.103573 -0.280795 -0.391298 -0.414534 -0.347278 -0.204811 -0.018274 0.171368 0.321581 0.397067 0.377253 0.260878 0.066640 -0.170288 -0.405217 -0.592951 -0.696986 
hipp_sf_0009_ERC 0.045552 0.035867 0.017796 -0.006255 -0.033123 -0.059341 -0.081630 -0.097339 -0.104789 -0.103454 -0.093973 -0.077989 -0.057848 -0.036204 -0.015594 0.001973 0.015330 0.024352 0.029987 0.034116 0.039251 0.048095 0.063025 0.085561 0.115912 0.152686 0.192827 0.231844 0.264317 0.284646 0.287949 0.270950 0.232727 0.175134 0.102810 0.022704 -0.056834 -0.127280 -0.181269 -0.213819 -0.223182 -0.211161 -0.182793 -0.145422 -0.107338 -0.076200 -0.057581 -0.053908 -0.064034 -0.083547 -0.105767 -0.123228 -0.129366 -0.120022 -0.094463 -0.055658 -0.009754 0.035170 0.070811 0.090444 0.090418 0.071021 0.036481 -0.005897 -0.047300 -0.079338 -0.095927 -0.094671 -0.077436 -0.049960 -0.020545 0.001874 0.009885 -0.000523 -0.028801 -0.069692 -0.114166 -0.151286 -0.170617 -0.164659 -0.130768 -0.072108 0.002619 0.080653 0.147613 0.190397 0.199940 0.173262 0.114330 0.033531 -0.054172 -0.132054 -0.184864 -0.201811 -0.178716 -0.118869 -0.032420 0.065579 0.158083 0.229338 0.267878 0.268638 0.233785 0.172120 0.097192 0.024541 -0.031377 -0.059953 -0.056350 -0.022226 0.034834 0.103026 0.168783 0.219468 0.245758 0.243267 0.213117 0.161408 0.097739 0.033139 -0.022167 -0.060686 -0.078929 -0.077804 -0.062100 -0.039230 -0.017516 -0.004379 -0.004810 -0.020404 -0.049108 -0.085724 -0.123010 -0.153159 -0.169349 -0.167085 -0.145072 -0.105495 -0.053660 0.002912 0.055771 0.096963 0.120346 0.122580 0.103624 0.066660 0.017484 -0.036549 -0.087816 -0.129746 -0.157913 -0.170730 -0.169581 -0.158390 -0.142666 -0.128221 -0.119789 -0.119830 -0.127777 -0.139907 -0.149930 -0.150203 -0.133393 -0.094263 -0.031218 0.052730 0.149847 0.248510 0.334911 0.395370 0.418839 0.399125 0.336357 0.237382 0.114925 -0.014379 -0.132751 -0.224334 -0.277978 -0.289178 -0.260793 -0.202369 -0.128187 -0.054420 0.004045 0.036469 0.038252 0.011631 -0.035023 -0.089156 -0.136789 -0.165514 -0.167060 -0.138922 -0.084708 -0.013179 0.063779 0.133774 0.186514 0.215826 0.220650 0.204827 0.175770 0.142375 0.112703 0.091990 0.081477 0.078324 0.076609 0.069161 0.049732 0.014965 -0.034355 -0.093111 -0.152800 -0.203399 -0.235717 -0.243651 -0.225778 -0.185870 -0.132157 -0.075487 -0.026801 0.005491 0.017581 0.011246 -0.006508 -0.025141 -0.033203 -0.021316 0.015235 0.074933 0.149931 0.227499 0.292757 0.332094 0.336482 0.303894 0.240216 0.158348 0.075639 0.010152 -0.023417 -0.017239 0.027535 0.100611 0.184442 0.257814 0.300410 0.297337 0.242632 0.140913 0.006786 -0.137945 -0.268686 -0.363164 -0.406123 -0.392583 -0.328932 -0.231574 -0.123419 -0.028946 0.031090 0.044150 0.008623 -0.065856 -0.160548 -0.251778 -0.316211 -0.336093 -0.303319 -0.221427 -0.105079 0.022871 0.136116 0.210414 0.228732 0.184920 0.085141 -0.053220 -0.204935 -0.341875 -0.438479 -0.476638 -0.448998 -0.360086 -0.225086 -0.066607 0.089823 0.220574 0.308078 0.343539 0.327755 0.270038 0.185608 0.092124 0.006154 -0.059674 -0.098337 -0.108665 -0.094329 -0.061959 -0.018966 0.028345 0.075937 0.122255 0.167557 0.212654 0.257516 0.300207 0.336523 0.360494 0.365664 0.346841 0.301849 0.232799 0.146467 0.053589 -0.032850 -0.100043 -0.137961 -0.141579 -0.112172 -0.057363 0.010160 0.075033 0.122257 0.140244 0.123260 0.072716 -0.002966 -0.089905 -0.171440 -0.231381 -0.257205 -0.242539 -0.188448 -0.103290 -0.001179 0.100624 0.184867 0.237388 0.249562 0.219650 0.152863 0.060174 -0.043834 -0.143646 -0.225501 -0.279594 -0.301446 -0.292240 -0.258152 -0.208870 -0.155625 -0.109115 -0.077686 -0.066061 -0.074773 -0.100345 -0.136107 -0.173481 -0.203483 -0.218203 -0.212043 -0.182554 -0.130781 -0.061099 0.019412 0.101956 0.177226 0.236668 0.273641 0.284317 0.268194 0.228158 0.170066 0.101914 0.032683 -0.028937 -0.075782 -0.103187 -0.109553 -0.096413 -0.067981 -0.030278 0.009998 0.046666 0.075074 0.092763 0.099655 0.097762 0.090492 0.081714 0.074798 0.071837 0.073216 0.077611 0.082402 0.084393 0.080656 0.069311 0.050046 0.024267 -0.005153 -0.034457 -0.059791 -0.077992 -0.087215 -0.087246 -0.079449 -0.066373 -0.051122 -0.036653 -0.025172 -0.017759 -0.014308 -0.013778 -0.014658 -0.015524 
hipp_sf_0010_BA35 0.154458 0.136126 0.102748 0.060155 0.015404 -0.024782 -0.055448 -0.074372 -0.082323 -0.082569 -0.079753 -0.078436 -0.081677 -0.090032 -0.101233 -0.110671 -0.112587 -0.101697 -0.074865 -0.032378 0.021503 0.078939 0.129818 0.163747 0.172307 0.151092 0.101040 0.028737 -0.054455 -0.134306 -0.196327 -0.228549 -0.223913 -0.181773 -0.108168 -0.014802 0.083103 0.169645 0.231220 0.259047 0.250742 0.210628 0.148757 0.078827 0.015459 -0.028650 -0.045112 -0.031333 0.009168 0.067617 0.131816 0.188539 0.226013 0.236003 0.215132 0.165234 0.092751 0.007359 -0.079853 -0.158269 -0.219349 -0.257687 -0.271407 -0.261925 -0.233227 -0.190874 -0.140987 -0.089390 -0.041032 0.000283 0.031933 0.052371 0.060995 0.058080 0.044783 0.023205 -0.003606 -0.031773 -0.056934 -0.074807 -0.081925 -0.076398 -0.058540 -0.031159 0.000618 0.030029 0.049816 0.053621 0.037396 0.000505 -0.053724 -0.118183 -0.182936 -0.236798 -0.269286 -0.272580 -0.243101 -0.182384 -0.097049 0.002161 0.102123 0.189537 0.253181 0.285807 0.285296 0.254890 0.202446 0.138882 0.076127 0.024973 -0.006759 -0.015402 -0.001786 0.029277 0.070223 0.112383 0.147699 0.170156 0.176664 0.167258 0.144635 0.113181 0.077769 0.042605 0.010404 -0.017938 -0.043128 -0.066799 -0.090580 -0.115167 -0.139653 -0.161315 -0.175946 -0.178684 -0.165165 -0.132751 -0.081535 -0.014881 0.060681 0.136219 0.201725 0.247765 0.267140 0.256235 0.215769 0.150797 0.069931 -0.016086 -0.096185 -0.160825 -0.203544 -0.221903 -0.217671 -0.196194 -0.165115 -0.132677 -0.105983 -0.089543 -0.084413 -0.088105 -0.095274 -0.099051 -0.092734 -0.071498 -0.033735 0.018247 0.078362 0.137702 0.186168 0.214440 0.215922 0.188238 0.133969 0.060449 -0.021397 -0.098959 -0.160254 -0.196205 -0.202419 -0.180112 -0.135951 -0.080815 -0.027688 0.010938 0.025641 0.012113 -0.027745 -0.085944 -0.149753 -0.204051 -0.234266 -0.229323 -0.184052 -0.100541 0.011851 0.137865 0.258890 0.356210 0.414376 0.424051 0.383790 0.300409 0.187849 0.064751 -0.048828 -0.134931 -0.180810 -0.181058 -0.138368 -0.062821 0.030136 0.122621 0.197578 0.241753 0.247843 0.215453 0.150742 0.064903 -0.028185 -0.114611 -0.182880 -0.225694 -0.240765 -0.230603 -0.201392 -0.161292 -0.118549 -0.079853 -0.049249 -0.027787 -0.013904 -0.004355 0.004569 0.015888 0.031112 0.049941 0.070515 0.090110 0.106050 0.116564 0.121340 0.121615 0.119761 0.118479 0.119827 0.124339 0.130526 0.134913 0.132674 0.118746 0.089198 0.042516 -0.019507 -0.091549 -0.165301 -0.230741 -0.277903 -0.298790 -0.289046 -0.249002 -0.183863 -0.102955 -0.018158 0.058166 0.115363 0.146329 0.148666 0.124902 0.081769 0.028684 -0.024211 -0.068052 -0.096882 -0.108578 -0.104913 -0.090796 -0.072879 -0.057876 -0.050977 -0.054711 -0.068484 -0.088865 -0.110532 -0.127610 -0.135093 -0.130002 -0.112032 -0.083538 -0.048910 -0.013487 0.017706 0.041089 0.055274 0.061252 0.062003 0.061640 0.064307 0.073113 0.089351 0.112183 0.138854 0.165353 0.187349 0.201153 0.204477 0.196805 0.179308 0.154367 0.124848 0.093366 0.061744 0.030829 0.000719 -0.028676 -0.056926 -0.082467 -0.102327 -0.112354 -0.107989 -0.085456 -0.043131 0.017276 0.090068 0.165703 0.231856 0.275306 0.284345 0.251266 0.174391 0.059178 -0.081944 -0.231087 -0.367576 -0.471361 -0.526520 -0.524202 -0.464396 -0.356135 -0.216049 -0.065495 0.073228 0.180832 0.244435 0.259707 0.231364 0.171908 0.098877 0.031160 -0.014879 -0.028688 -0.007570 0.042926 0.110302 0.177842 0.228171 0.246927 0.225784 0.164224 0.069713 -0.043727 -0.158233 -0.255538 -0.320412 -0.343441 -0.322592 -0.263303 -0.177132 -0.079306 0.014319 0.090222 0.139537 0.159296 0.152408 0.126461 0.091675 0.058488 0.035302 0.026854 0.033511 0.051575 0.074447 0.094359 0.104225 0.099220 0.077755 0.041669 -0.004335 -0.053838 -0.100124 -0.137544 -0.162517 -0.173972 -0.173188 -0.163118 -0.147409 -0.129394 -0.111284 -0.093779 -0.076140 -0.056687 -0.033557 -0.005513 0.027422 0.063667 0.100212 0.133127 0.158339 0.172467 0.173541 0.161401 0.137725 0.105667 0.069215 0.032431 -0.001248 -0.029481 -0.051183 -0.066366 -0.075723 -0.080118 
hipp_sf_0011_BA36 0.054378 0.056421 0.060146 0.064829 0.069409 0.072539 0.072719 0.068495 0.058731 0.042902 0.021359 -0.004507 -0.032270 -0.058672 -0.080038 -0.092845 -0.094366 -0.083263 -0.060015 -0.027067 0.011366 0.049822 0.082398 0.103698 0.109763 0.098814 0.071650 0.031632 -0.015789 -0.063908 -0.105835 -0.135618 -0.149203 -0.145082 -0.124491 -0.091149 -0.050579 -0.009142 0.027034 0.053033 0.065870 0.064848 0.051480 0.029055 0.001924 -0.025324 -0.048643 -0.065125 -0.073309 -0.073191 -0.065963 -0.053562 -0.038165 -0.021733 -0.005706 0.009107 0.022443 0.034361 0.044953 0.054098 0.061323 0.065825 0.066646 0.062966 0.054417 0.041349 0.024944 0.007139 -0.009653 -0.022979 -0.030851 -0.032215 -0.027268 -0.017539 -0.005698 0.004889 0.010798 0.009243 -0.001297 -0.020656 -0.046852 -0.076310 -0.104396 -0.126180 -0.137304 -0.134776 -0.117564 -0.086851 -0.045916 0.000354 0.046242 0.086128 0.115396 0.131173 0.132759 0.121677 0.101336 0.076383 0.051843 0.032226 0.020756 0.018844 0.025919 0.039621 0.056319 0.071853 0.082360 0.085016 0.078579 0.063613 0.042370 0.018350 -0.004373 -0.021937 -0.031428 -0.031446 -0.022386 -0.006383 0.013062 0.031710 0.045340 0.050511 0.045169 0.029013 0.003540 -0.028223 -0.062246 -0.094181 -0.120078 -0.137001 -0.143431 -0.139407 -0.126378 -0.106824 -0.083733 -0.060036 -0.038127 -0.019541 -0.004860 0.006169 0.014350 0.020658 0.025885 0.030372 0.033928 0.035915 0.035511 0.032049 0.025360 0.016006 0.005343 -0.004641 -0.011684 -0.013740 -0.009501 0.001173 0.017032 0.035487 0.052969 0.065529 0.069597 0.062742 0.044277 0.015583 -0.019950 -0.057362 -0.090902 -0.114998 -0.125253 -0.119274 -0.097180 -0.061669 -0.017633 0.028629 0.070462 0.101971 0.119016 0.119891 0.105573 0.079494 0.046885 0.013815 -0.013895 -0.031684 -0.037012 -0.029733 -0.012035 0.012042 0.037388 0.058778 0.071799 0.073609 0.063377 0.042370 0.013668 -0.018419 -0.049101 -0.073910 -0.089398 -0.093634 -0.086428 -0.069264 -0.044983 -0.017280 0.009891 0.032904 0.048952 0.056381 0.054830 0.045179 0.029332 0.009868 -0.010359 -0.028638 -0.042755 -0.051259 -0.053596 -0.050107 -0.041898 -0.030602 -0.018074 -0.006077 0.003997 0.011328 0.015739 0.017641 0.017857 0.017367 0.017013 0.017260 0.018038 0.018743 0.018389 0.015891 0.010432 0.001827 -0.009226 -0.021052 -0.031158 -0.036603 -0.034564 -0.022979 -0.001134 0.029919 0.067260 0.106348 0.141620 0.167365 0.178707 0.172535 0.148179 0.107673 0.055556 -0.001808 -0.057265 -0.104072 -0.137059 -0.153491 -0.153493 -0.139922 -0.117724 -0.092894 -0.071261 -0.057327 -0.053427 -0.059350 -0.072516 -0.088654 -0.102822 -0.110556 -0.108870 -0.096903 -0.076068 -0.049662 -0.022058 0.002366 0.020265 0.030123 0.032591 0.030282 0.027077 0.027083 0.033507 0.047703 0.068656 0.093028 0.115805 0.131409 0.135044 0.123967 0.098376 0.061690 0.020117 -0.018456 -0.046009 -0.056091 -0.045292 -0.014156 0.032680 0.087183 0.139356 0.179107 0.198201 0.191873 0.159778 0.106067 0.038575 -0.032716 -0.097610 -0.147632 -0.177546 -0.186156 -0.176230 -0.153587 -0.125577 -0.099292 -0.079941 -0.069729 -0.067524 -0.069346 -0.069576 -0.062589 -0.044407 -0.013983 0.026213 0.070469 0.110937 0.139323 0.148817 0.135790 0.100888 0.049222 -0.010414 -0.067169 -0.110277 -0.131272 -0.125793 -0.094583 -0.043452 0.017814 0.077384 0.123752 0.148061 0.145884 0.118083 0.070581 0.013071 -0.043036 -0.087004 -0.110983 -0.111579 -0.090445 -0.053782 -0.010868 0.028056 0.054078 0.061586 0.049476 0.021362 -0.015284 -0.050841 -0.075746 -0.082696 -0.068375 -0.034319 0.013268 0.064718 0.108873 0.135405 0.137013 0.111013 0.060011 -0.008494 -0.083484 -0.152498 -0.203976 -0.229409 -0.224866 -0.191617 -0.135749 -0.066882 0.003727 0.065309 0.109503 0.131721 0.131708 0.113254 0.083158 0.049685 0.020877 0.003033 -0.000346 0.011022 0.034432 0.064978 0.096687 0.123741 0.141538 0.147404 0.140855 0.123408 0.098042 0.068468 0.038368 0.010767 -0.012349 -0.030149 -0.042823 -0.051273 -0.056737 -0.060445 -0.063366 -0.066095 -0.068859 -0.071618 -0.074195 -0.076398 -0.078091 -0.079218 -0.079775 
hipp_sf_0012_PHC -0.288926 -0.263183 -0.215164 -0.151235 -0.079607 -0.009026 0.052578 0.099233 0.127661 0.137498 0.131003 0.112331 0.086552 0.058629 0.032553 0.010803 -0.005794 -0.017810 -0.026661 -0.033908 -0.040589 -0.046746 -0.051256 -0.052008 -0.046379 -0.031901 -0.006972 0.028553 0.073022 0.122973 0.173463 0.218673 0.252691 0.270321 0.267801 0.243304 0.197177 0.131906 0.051842 -0.037243 -0.128690 -0.215502 -0.290877 -0.348693 -0.383946 -0.393148 -0.374691 -0.329143 -0.259434 -0.170874 -0.070909 0.031405 0.126244 0.204102 0.257008 0.279705 0.270566 0.232077 0.170727 0.096261 0.020357 -0.045098 -0.089863 -0.107009 -0.094097 -0.053629 0.007340 0.078381 0.147477 0.203096 0.236176 0.241653 0.219249 0.173358 0.112078 0.045562 -0.015966 -0.064158 -0.094045 -0.104820 -0.099755 -0.085276 -0.069413 -0.059956 -0.062694 -0.080117 -0.110839 -0.149859 -0.189594 -0.221458 -0.237663 -0.232856 -0.205262 -0.157105 -0.094235 -0.025042 0.041099 0.095543 0.131893 0.147047 0.141573 0.119384 0.086806 0.051261 0.019845 -0.001921 -0.010936 -0.006825 0.008284 0.030438 0.054794 0.076599 0.092034 0.098749 0.096050 0.084745 0.066737 0.044497 0.020538 -0.002988 -0.024526 -0.043177 -0.058606 -0.070883 -0.080292 -0.087180 -0.091850 -0.094494 -0.095136 -0.093569 -0.089275 -0.081349 -0.068468 -0.048973 -0.021104 0.016588 0.064702 0.122391 0.186876 0.253200 0.314396 0.362105 0.387668 0.383523 0.344712 0.270173 0.163554 0.033277 -0.108232 -0.246117 -0.365244 -0.452567 -0.499283 -0.502331 -0.464932 -0.395992 -0.308470 -0.216969 -0.135026 -0.072617 -0.034396 -0.019021 -0.019726 -0.026020 -0.026168 -0.009941 0.028963 0.091328 0.172024 0.260886 0.344704 0.409894 0.445288 0.444446 0.406991 0.338689 0.250252 0.155140 0.066828 -0.003861 -0.050789 -0.073465 -0.076757 -0.069446 -0.061951 -0.063766 -0.081184 -0.115804 -0.164162 -0.218533 -0.268703 -0.304299 -0.317126 -0.302988 -0.262573 -0.201247 -0.127801 -0.052496 0.015147 0.068260 0.103829 0.122897 0.129765 0.130417 0.130580 0.133929 0.140908 0.148483 0.150918 0.141396 0.114108 0.066277 -0.000401 -0.079311 -0.159656 -0.228276 -0.272221 -0.281506 -0.251468 -0.184153 -0.088395 0.021503 0.128244 0.214705 0.267151 0.277830 0.246425 0.180049 0.091800 -0.001826 -0.084129 -0.141342 -0.165083 -0.153654 -0.111959 -0.050125 0.018835 0.081782 0.128036 0.151263 0.150302 0.128843 0.094098 0.054835 0.019265 -0.006731 -0.020667 -0.023598 -0.019398 -0.013399 -0.010768 -0.015049 -0.027214 -0.045457 -0.065730 -0.082875 -0.092031 -0.089948 -0.075866 -0.051741 -0.021758 0.008736 0.034602 0.052225 0.060448 0.060848 0.057293 0.054863 0.058395 0.071005 0.092969 0.121268 0.149930 0.171158 0.176992 0.161183 0.120820 0.057361 -0.023210 -0.111168 -0.194655 -0.261791 -0.302883 -0.312265 -0.289413 -0.239080 -0.170439 -0.095389 -0.026367 0.025912 0.054342 0.056587 0.035312 -0.002533 -0.047217 -0.088196 -0.116165 -0.124788 -0.111802 -0.079296 -0.033165 0.018153 0.065373 0.100170 0.116765 0.113004 0.090743 0.055506 0.015481 -0.019946 -0.041876 -0.043486 -0.021289 0.024162 0.088221 0.162757 0.237332 0.300754 0.342769 0.355643 0.335365 0.282309 0.201237 0.100633 -0.008511 -0.114280 -0.205534 -0.273436 -0.312570 -0.321465 -0.302453 -0.260912 -0.204057 -0.139522 -0.074047 -0.012500 0.042545 0.090624 0.132657 0.169893 0.202797 0.230208 0.249017 0.254513 0.241380 0.205159 0.143843 0.059223 -0.042416 -0.150518 -0.251472 -0.330717 -0.375354 -0.376790 -0.332838 -0.248778 -0.137049 -0.015531 0.095371 0.176335 0.212745 0.197610 0.133171 0.030802 -0.090826 -0.209050 -0.301351 -0.349559 -0.343299 -0.281973 -0.174905 -0.039580 0.101665 0.225850 0.313627 0.352782 0.340270 0.282438 0.193406 0.092000 -0.002102 -0.072209 -0.107664 -0.105507 -0.070474 -0.013433 0.051351 0.109468 0.149398 0.164702 0.154930 0.125131 0.084154 0.042216 0.008333 -0.011772 -0.016808 -0.009894 0.002588 0.012911 0.014205 0.002374 -0.022745 -0.057257 -0.094142 -0.125003 -0.142185 -0.140735 -0.119732 -0.082624 -0.036521 0.009416 0.046096 0.066604 0.067807 0.051054 0.021805 -0.011718 -0.040534 -0.057091 
