13 420
hipp_sf_0000_BG -0.011582 -0.009941 -0.006872 -0.002748 0.001981 0.006889 0.011651 0.016095 0.020186 0.023976 0.027510 0.030741 0.033453 0.035250 0.035604 0.033957 0.029869 0.023161 0.014032 0.003100 -0.008647 -0.019980 -0.029628 -0.036513 -0.039945 -0.039765 -0.036378 -0.030673 -0.023845 -0.017153 -0.011665 -0.008050 -0.006462 -0.006540 -0.007528 -0.008491 -0.008562 -0.007183 -0.004263 -0.000224 0.004079 0.007558 0.009156 0.008121 0.004227 -0.002117 -0.009899 -0.017670 -0.023823 -0.026922 -0.026006 -0.020810 -0.011855 -0.000371 0.011916 0.023096 0.031432 0.035672 0.035262 0.030429 0.022095 0.011675 0.000786 -0.009064 -0.016734 -0.021621 -0.023695 -0.023412 -0.021541 -0.018926 -0.016274 -0.013997 -0.012144 -0.010450 -0.008456 -0.005697 -0.001877 0.002988 0.008519 0.014018 0.018596 0.021365 0.021641 0.019121 0.013971 0.006832 -0.001279 -0.009153 -0.015599 -0.019663 -0.020789 -0.018900 -0.014388 -0.008013 -0.000739 0.006449 0.012718 0.017512 0.020601 0.022063 0.022203 0.021438 0.020179 0.018736 0.017267 0.015783 0.014185 0.012346 0.010178 0.007697 0.005041 0.002458 0.000247 -0.001304 -0.001999 -0.001784 -0.000767 0.000794 0.002547 0.004108 0.005143 0.005422 0.004856 0.003495 0.001503 -0.000891 -0.003446 -0.005948 -0.008242 -0.010228 -0.011847 -0.013058 -0.013810 -0.014036 -0.013659 -0.012617 -0.010899 -0.008585 -0.005857 -0.003002 -0.000371 0.001679 0.002858 0.003012 0.002168 0.000539 -0.001508 -0.003531 -0.005114 -0.005966 -0.006001 -0.005377 -0.004463 -0.003774 -0.003840 -0.005082 -0.007687 -0.011535 -0.016191 -0.020966 -0.025039 -0.027622 -0.028119 -0.026255 -0.022150 -0.016296 -0.009471 -0.002583 0.003505 0.008152 0.011053 0.012283 0.012261 0.011634 0.011109 0.011281 0.012486 0.014721 0.017638 0.020632 0.022985 0.024040 0.023366 0.020877 0.016866 0.011964 0.007009 0.002878 0.000301 -0.000297 0.001116 0.004168 0.008161 0.012216 0.015449 0.017149 0.016916 0.014727 0.010926 0.006142 0.001148 -0.003287 -0.006549 -0.008275 -0.008395 -0.007112 -0.004825 -0.002036 0.000765 0.003176 0.004934 0.005916 0.006110 0.005560 0.004316 0.002397 -0.000213 -0.003545 -0.007596 -0.012278 -0.017374 -0.022534 -0.027294 -0.031140 -0.033595 -0.034309 -0.033135 -0.030160 -0.025698 -0.020229 -0.014302 -0.008429 -0.002984 0.001855 0.006118 0.009998 0.013760 0.017629 0.021687 0.025802 0.029610 0.032565 0.034049 0.033503 0.030577 0.025243 0.017848 0.009089 -0.000074 -0.008584 -0.015460 -0.019980 -0.021798 -0.021004 -0.018092 -0.013853 -0.009207 -0.005028 -0.001973 -0.000381 -0.000226 -0.001168 -0.002657 -0.004083 -0.004925 -0.004871 -0.003888 -0.002213 -0.000283 0.001377 0.002289 0.002141 0.000858 -0.001374 -0.004160 -0.006982 -0.009325 -0.010780 -0.011138 -0.010415 -0.008833 -0.006746 -0.004542 -0.002540 -0.000905 0.000379 0.001503 0.002757 0.004440 0.006750 0.009703 0.013083 0.016460 0.019258 0.020864 0.020762 0.018655 0.014555 0.008814 0.002090 -0.004740 -0.010721 -0.014967 -0.016808 -0.015895 -0.012253 -0.006272 0.001355 0.009741 0.017930 0.025026 0.030302 0.033272 0.033723 0.031716 0.027541 0.021670 0.014683 0.007201 -0.000172 -0.006905 -0.012577 -0.016908 -0.019775 -0.021215 -0.021410 -0.020659 -0.019334 -0.017823 -0.016466 -0.015502 -0.015026 -0.014976 -0.015147 -0.015238 -0.014929 -0.013956 -0.012193 -0.009700 -0.006734 -0.003721 -0.001178 0.000390 0.000603 -0.000693 -0.003374 -0.007025 -0.011003 -0.014536 -0.016872 -0.017420 -0.015874 -0.012286 -0.007065 -0.000913 0.005302 0.010710 0.014604 0.016573 0.016576 0.014948 0.012322 0.009501 0.007290 0.006330 0.006974 0.009218 0.012704 0.016801 0.020736 0.023749 0.025242 0.024894 0.022708 0.018998 0.014310 0.009298 0.004591 0.000669 -0.002218 -0.004082 -0.005155 -0.005819 -0.006485 -0.007488 -0.008991 -0.010936 -0.013053 -0.014915 -0.016029 -0.015953 -0.014403 -0.011327 -0.006941 -0.001713 0.003709 0.008596 0.012254 0.014137 0.013935 0.011620 0.007445 0.001909 -0.004327 -0.010529 -0.015990 -0.020121 -0.022506 -0.022943 -0.021439 -0.018192 -0.013545 -0.007930 -0.001820 0.004320 0.010071 0.015079 0.019065 0.021829 0.023243 
hipp_sf_0001_CA1 -0.041534 -0.061438 -0.096253 -0.137046 -0.172841 -0.192962 -0.189333 -0.158277 -0.101420 -0.025522 0.058738 0.138788 0.202565 0.240832 0.248913 0.227507 0.182419 0.123258 0.061405 0.007654 -0.029955 -0.047666 -0.046579 -0.032149 -0.012722 0.002545 0.005948 -0.006850 -0.035666 -0.075686 -0.118440 -0.153656 -0.171612 -0.165463 -0.133024 -0.077595 -0.007615 0.064819 0.126296 0.164800 0.172236 0.146216 0.090721 0.015464 -0.065918 -0.138507 -0.189009 -0.208346 -0.193371 -0.147361 -0.079181 -0.001315 0.072815 0.131662 0.167875 0.179649 0.170797 0.149554 0.126389 0.111310 0.111301 0.128453 0.159249 0.195172 0.224535 0.235149 0.217246 0.166018 0.083200 -0.022686 -0.137515 -0.243957 -0.324641 -0.365429 -0.358157 -0.302283 -0.205123 -0.080625 0.053057 0.176694 0.273218 0.330426 0.342680 0.311324 0.243841 0.151986 0.049356 -0.051085 -0.139038 -0.208089 -0.255973 -0.283959 -0.295593 -0.295190 -0.286467 -0.271627 -0.251095 -0.223881 -0.188435 -0.143693 -0.090011 -0.029714 0.032920 0.092230 0.142186 0.177581 0.195127 0.194172 0.176858 0.147703 0.112670 0.077965 0.048828 0.028595 0.018222 0.016363 0.019954 0.025131 0.028260 0.026805 0.019862 0.008230 -0.005954 -0.019899 -0.030973 -0.037408 -0.038739 -0.035852 -0.030658 -0.025486 -0.022376 -0.022471 -0.025671 -0.030652 -0.035241 -0.037044 -0.034166 -0.025810 -0.012592 0.003518 0.019636 0.032682 0.040178 0.040935 0.035419 0.025714 0.015027 0.006893 0.004221 0.008458 0.019073 0.033511 0.047679 0.056855 0.056837 0.045078 0.021515 -0.011100 -0.047489 -0.080723 -0.103525 -0.109731 -0.095618 -0.060802 -0.008518 0.054791 0.120509 0.179302 0.222705 0.244548 0.241936 0.215631 0.169763 0.110976 0.047179 -0.013827 -0.065608 -0.103995 -0.127511 -0.137270 -0.136430 -0.129339 -0.120549 -0.113904 -0.111845 -0.115033 -0.122334 -0.131124 -0.137848 -0.138720 -0.130459 -0.110940 -0.079675 -0.038068 0.010616 0.061558 0.108952 0.146785 0.169718 0.173963 0.158011 0.123069 0.073098 0.014389 -0.045295 -0.097916 -0.136499 -0.156373 -0.156061 -0.137608 -0.106232 -0.069317 -0.034906 -0.009981 0.001106 -0.002301 -0.016890 -0.036002 -0.051102 -0.053805 -0.038040 -0.001863 0.051545 0.113994 0.173598 0.217085 0.232684 0.212962 0.156995 0.071308 -0.030714 -0.130945 -0.209816 -0.250177 -0.240921 -0.179603 -0.073429 0.061674 0.203782 0.329026 0.416143 0.450617 0.427527 0.352479 0.240408 0.112471 -0.008328 -0.101857 -0.154902 -0.163695 -0.134345 -0.081122 -0.022952 0.021073 0.036174 0.015329 -0.039088 -0.115851 -0.197504 -0.264470 -0.299711 -0.292879 -0.243000 -0.159055 -0.058285 0.037417 0.106247 0.131315 0.104472 0.028269 -0.084395 -0.212874 -0.333066 -0.422435 -0.464672 -0.452953 -0.391105 -0.292424 -0.176463 -0.064523 0.025121 0.081151 0.101449 0.093124 0.070380 0.050726 0.050441 0.080350 0.142912 0.231302 0.330714 0.421591 0.484068 0.502601 0.469741 0.388184 0.270631 0.137463 0.012746 -0.080583 -0.125296 -0.113266 -0.046956 0.061252 0.191685 0.321350 0.428359 0.495871 0.514746 0.484467 0.412239 0.310643 0.194461 0.077485 -0.029999 -0.122505 -0.199288 -0.263071 -0.318048 -0.367767 -0.413514 -0.453626 -0.483900 -0.498957 -0.494134 -0.467352 -0.420390 -0.359157 -0.292823 -0.231967 -0.186180 -0.161722 -0.159838 -0.176214 -0.201755 -0.224577 -0.232758 -0.217231 -0.174108 -0.105871 -0.021089 0.067297 0.144778 0.198524 0.220341 0.208623 0.168861 0.112524 0.054595 0.010267 -0.008427 0.004709 0.048641 0.115334 0.191529 0.261660 0.311254 0.330035 0.314062 0.266431 0.196426 0.117369 0.043673 -0.012185 -0.042105 -0.043691 -0.020220 0.020655 0.069074 0.115441 0.152574 0.177007 0.189187 0.192559 0.191867 0.191163 0.192102 0.193023 0.189084 0.173467 0.139352 0.082158 0.001465 -0.097937 -0.206195 -0.309796 -0.393964 -0.445558 -0.455807 -0.422270 -0.349551 -0.248590 -0.134669 -0.024548 0.066624 0.127981 0.154615 0.147942 0.114743 0.065164 0.010196 -0.040751 -0.081616 -0.110407 -0.128791 -0.140709 -0.150468 -0.160849 -0.171765 -0.179856 -0.179157 -0.162669 -0.124461 -0.061729 0.023726 0.125031 0.230971 0.327803 0.401786 0.441857 
hipp_sf_0002_CA2 -0.176324 -0.158965 -0.130773 -0.102824 -0.087310 -0.093572 -0.124685 -0.175564 -0.233183 -0.279000 -0.293099 -0.259112 -0.168759 -0.024871 0.157908 0.355032 0.536253 0.671289 0.735729 0.715928 0.611822 0.437063 0.216446 -0.018777 -0.236696 -0.410410 -0.522411 -0.566841 -0.549287 -0.484355 -0.391699 -0.291508 -0.200475 -0.129097 -0.080733 -0.052443 -0.037141 -0.026363 -0.012852 0.007717 0.036215 0.070740 0.108117 0.145637 0.182383 0.219666 0.260374 0.307410 0.361701 0.420461 0.476353 0.518017 0.532046 0.506066 0.432248 0.310320 0.149222 -0.033236 -0.212874 -0.363465 -0.462023 -0.493914 -0.456576 -0.360876 -0.229608 -0.093287 0.016007 0.071452 0.057515 -0.026194 -0.164175 -0.327673 -0.480261 -0.585229 -0.613257 -0.548727 -0.393337 -0.166193 0.099619 0.363295 0.584067 0.728841 0.778124 0.729093 0.595239 0.402826 0.185045 -0.024783 -0.199467 -0.322365 -0.389144 -0.406705 -0.389750 -0.355965 -0.321072 -0.294931 -0.279571 -0.269481 -0.253960 -0.220784 -0.160196 -0.068174 0.051849 0.189204 0.328033 0.450621 0.541144 0.588911 0.590333 0.549206 0.475338 0.381951 0.282584 0.188309 0.105926 0.037526 -0.018609 -0.066140 -0.108493 -0.147055 -0.180321 -0.204260 -0.213801 -0.204971 -0.177021 -0.133829 -0.084035 -0.039715 -0.013805 -0.016862 -0.053998 -0.122836 -0.213148 -0.308415 -0.389102 -0.436950 -0.439290 -0.392334 -0.302547 -0.185681 -0.063575 0.040606 0.107617 0.126613 0.097762 0.032301 -0.050053 -0.125776 -0.173216 -0.177921 -0.136290 -0.056621 0.042776 0.138017 0.205595 0.228416 0.200421 0.128602 0.031799 -0.063518 -0.129575 -0.144238 -0.096894 0.008217 0.152148 0.304980 0.432395 0.503634 0.498984 0.415006 0.266158 0.082306 -0.097462 -0.233393 -0.294110 -0.264040 -0.147488 0.031685 0.234829 0.416730 0.535515 0.562031 0.486572 0.321393 0.098397 -0.137554 -0.338242 -0.462502 -0.485115 -0.402212 -0.231993 -0.010619 0.215788 0.401206 0.509593 0.522361 0.441808 0.289820 0.102189 -0.080063 -0.220312 -0.294713 -0.297386 -0.241276 -0.154528 -0.073270 -0.032520 -0.057325 -0.156209 -0.318429 -0.515677 -0.707841 -0.851534 -0.909489 -0.858739 -0.695818 -0.437890 -0.119629 0.213382 0.513273 0.738658 0.861742 0.872412 0.778654 0.603499 0.379397 0.141438 -0.079058 -0.259268 -0.387112 -0.460877 -0.486694 -0.474815 -0.435817 -0.377743 -0.304824 -0.217928 -0.116369 -0.000328 0.126971 0.258122 0.381861 0.484844 0.554423 0.581650 0.563646 0.504620 0.415169 0.309972 0.204419 0.111047 0.036738 -0.018560 -0.061188 -0.101325 -0.149352 -0.211999 -0.289337 -0.373527 -0.449799 -0.499566 -0.505017 -0.454093 -0.344567 -0.186112 0.000337 0.185981 0.339696 0.434522 0.453640 0.394384 0.269272 0.103690 -0.069377 -0.216438 -0.310838 -0.338655 -0.301757 -0.217232 -0.113269 -0.022344 0.026725 0.016022 -0.056635 -0.176481 -0.314609 -0.434227 -0.499050 -0.481936 -0.371802 -0.177190 0.074424 0.341539 0.576789 0.736643 0.790576 0.727741 0.559684 0.318519 0.050931 -0.190755 -0.358564 -0.417881 -0.353696 -0.172912 0.097591 0.416550 0.736260 1.011148 1.205240 1.297146 1.281827 1.169149 0.979927 0.740634 0.478087 0.215293 -0.030842 -0.249769 -0.435929 -0.586554 -0.699576 -0.772452 -0.802344 -0.787600 -0.730011 -0.637003 -0.522847 -0.408157 -0.317407 -0.274704 -0.298633 -0.397335 -0.565056 -0.781234 -1.012635 -1.218433 -1.357394 -1.395803 -1.314499 -1.113489 -0.813023 -0.450765 -0.075468 0.261660 0.516204 0.658567 0.679136 0.589574 0.419996 0.212652 0.013461 -0.136842 -0.210154 -0.195558 -0.100181 0.053680 0.234378 0.408341 0.547421 0.634629 0.667074 0.655617 0.621461 0.590570 0.587219 0.628144 0.718523 0.850599 1.005129 1.155216 1.271616 1.328320 1.307245 1.201130 1.014189 0.760585 0.461263 0.139997 -0.180439 -0.481133 -0.748475 -0.974063 -1.153395 -1.283939 -1.363299 -1.388112 -1.354083 -1.257196 -1.095808 -0.873047 -0.598782 -0.290514 0.027262 0.325355 0.573535 0.744977 0.820648 0.792781 0.666708 0.460629 0.203245 -0.070358 -0.323908 -0.525332 -0.651388 -0.690783 -0.645260 -0.528537 -0.363342 -0.177139 0.002680 0.153265 0.259694 0.316717 0.328645 0.307492 0.269787 0.232699 0.210238 
hipp_sf_0003_DG -0.076724 -0.072398 -0.065029 -0.056753 -0.049817 -0.045759 -0.044762 -0.045387 -0.044808 -0.039527 -0.026393 -0.003683 0.028059 0.065686 0.103730 0.135316 0.153525 0.152906 0.130806 0.088178 0.029677 -0.037024 -0.102561 -0.157572 -0.194402 -0.208438 -0.198814 -0.168339 -0.122715 -0.069225 -0.015250 0.033072 0.071735 0.099141 0.115768 0.123381 0.124049 0.119278 0.109516 0.094157 0.072050 0.042334 0.005330 -0.036800 -0.079878 -0.118152 -0.145284 -0.155692 -0.145918 -0.115658 -0.068152 -0.009786 0.051068 0.105730 0.147047 0.170931 0.177217 0.169601 0.154634 0.139975 0.132315 0.135470 0.149135 0.168637 0.185831 0.190957 0.175095 0.132637 0.063195 -0.027549 -0.128322 -0.224040 -0.298561 -0.337861 -0.332966 -0.281989 -0.190822 -0.072321 0.055898 0.174575 0.266221 0.318129 0.324379 0.286482 0.212575 0.115430 0.009743 -0.090677 -0.175222 -0.237850 -0.277305 -0.296264 -0.299725 -0.293121 -0.280655 -0.264282 -0.243540 -0.216223 -0.179639 -0.132068 -0.073977 -0.008611 0.058207 0.119067 0.166501 0.194662 0.200719 0.185587 0.153796 0.112500 0.069874 0.033275 0.007643 -0.005465 -0.007968 -0.004449 -0.000663 -0.001743 -0.010595 -0.026903 -0.047026 -0.064854 -0.073417 -0.066845 -0.042189 -0.000595 0.052492 0.108225 0.156163 0.186608 0.192905 0.173151 0.130860 0.074387 0.015197 -0.034658 -0.065264 -0.071157 -0.052652 -0.015852 0.028690 0.068369 0.091463 0.089912 0.061298 0.009555 -0.055775 -0.121598 -0.174162 -0.202146 -0.199226 -0.165540 -0.107704 -0.037364 0.031371 0.085044 0.113811 0.113567 0.086772 0.041805 -0.009004 -0.052189 -0.076180 -0.073863 -0.044099 0.008099 0.072754 0.137177 0.188734 0.217532 0.218401 0.191786 0.143381 0.082668 0.020707 -0.032267 -0.068916 -0.086098 -0.085161 -0.071233 -0.051746 -0.034590 -0.026323 -0.030848 -0.048788 -0.077643 -0.112587 -0.147656 -0.177003 -0.195929 -0.201493 -0.192641 -0.169947 -0.135115 -0.090475 -0.038637 0.017615 0.075208 0.130576 0.179527 0.217368 0.239348 0.241431 0.221217 0.178800 0.117283 0.042745 -0.036452 -0.110930 -0.171924 -0.212919 -0.230897 -0.226893 -0.205655 -0.174474 -0.141398 -0.113269 -0.094058 -0.083925 -0.079288 -0.073915 -0.060811 -0.034438 0.007302 0.061873 0.122082 0.177331 0.215942 0.228047 0.208359 0.158123 0.085691 0.005446 -0.064793 -0.107409 -0.108892 -0.063135 0.026673 0.148058 0.281285 0.403033 0.490981 0.528334 0.507292 0.430690 0.311416 0.169712 0.028943 -0.089249 -0.169326 -0.204809 -0.199152 -0.164376 -0.117813 -0.077732 -0.058893 -0.069077 -0.107406 -0.164831 -0.226656 -0.276469 -0.300518 -0.291435 -0.250404 -0.187190 -0.117998 -0.061648 -0.034954 -0.048433 -0.103377 -0.191052 -0.294252 -0.390911 -0.458958 -0.481311 -0.449832 -0.367311 -0.246991 -0.109699 0.020755 0.122889 0.182320 0.194909 0.167534 0.116313 0.062682 0.028231 0.029510 0.074002 0.158208 0.268288 0.383124 0.479087 0.535421 0.539001 0.487389 0.389485 0.263655 0.133779 0.024142 -0.045677 -0.064758 -0.032791 0.040349 0.137226 0.236968 0.319901 0.371588 0.385376 0.362936 0.312794 0.247326 0.179082 0.117391 0.066139 0.023258 -0.017995 -0.066364 -0.129275 -0.209808 -0.304834 -0.404856 -0.495706 -0.561699 -0.589512 -0.571787 -0.509528 -0.412609 -0.298172 -0.187206 -0.100058 -0.051919 -0.049346 -0.088702 -0.156896 -0.234327 -0.299365 -0.333332 -0.324831 -0.272374 -0.184692 -0.078615 0.024975 0.106182 0.150913 0.154315 0.122001 0.068724 0.014792 -0.018949 -0.016385 0.029622 0.115035 0.225081 0.337286 0.426441 0.470407 0.455398 0.379535 0.253811 0.100185 -0.052788 -0.175863 -0.245236 -0.247543 -0.182630 -0.063473 0.086691 0.239392 0.366942 0.448132 0.472334 0.441144 0.367268 0.270976 0.174992 0.099037 0.055280 0.045743 0.062192 0.088532 0.105068 0.093637 0.042393 -0.050866 -0.177601 -0.319917 -0.454118 -0.555648 -0.604308 -0.588633 -0.508472 -0.375249 -0.209877 -0.038801 0.110967 0.216802 0.264401 0.249986 0.180415 0.071321 -0.056225 -0.179788 -0.279514 -0.341231 -0.358191 -0.331289 -0.267899 -0.179743 -0.080314 0.017585 0.103748 0.171683 0.218871 0.246307 0.257570 0.257676 0.251971 0.245214 0.240911 
hipp_sf_0004_CA3 -0.122217 -0.113301 -0.098489 -0.082825 -0.071676 -0.068799 -0.074753 -0.086135 -0.095945 -0.095079 -0.074630 -0.028484 0.044453 0.139009 0.243857 0.343104 0.419092 0.455856 0.442521 0.375861 0.261443 0.113048 -0.049575 -0.204168 -0.329960 -0.411366 -0.440639 -0.418944 -0.355676 -0.266201 -0.168544 -0.079756 -0.012726 0.025922 0.036468 0.025222 0.002438 -0.020450 -0.033606 -0.030965 -0.011357 0.021603 0.060735 0.097271 0.123055 0.132465 0.123604 0.098549 0.062676 0.023282 -0.012086 -0.037209 -0.048290 -0.044377 -0.027096 0.000147 0.033205 0.068153 0.101914 0.132405 0.158250 0.178206 0.190585 0.192926 0.182120 0.155033 0.109504 0.045485 -0.034034 -0.122629 -0.210787 -0.287042 -0.339758 -0.359211 -0.339554 -0.280211 -0.186369 -0.068421 0.059583 0.182168 0.284912 0.356668 0.391100 0.387258 0.349122 0.284313 0.202297 0.112537 0.023013 -0.060611 -0.135050 -0.198808 -0.251206 -0.291400 -0.317740 -0.327704 -0.318465 -0.287950 -0.236068 -0.165713 -0.083184 0.002230 0.079518 0.137867 0.168825 0.168226 0.137361 0.083073 0.016652 -0.048283 -0.098512 -0.123949 -0.119779 -0.087497 -0.034578 0.027171 0.084229 0.124378 0.139424 0.127020 0.091151 0.041178 -0.010346 -0.050588 -0.069399 -0.061645 -0.028377 0.023440 0.082551 0.136011 0.172136 0.183126 0.166742 0.126663 0.071462 0.012471 -0.038944 -0.074021 -0.088544 -0.083614 -0.065090 -0.041877 -0.023479 -0.017457 -0.027413 -0.052011 -0.085278 -0.118102 -0.140565 -0.144524 -0.125800 -0.085433 -0.029662 0.031355 0.085810 0.122948 0.135565 0.121703 0.085134 0.034510 -0.018607 -0.062378 -0.087356 -0.088573 -0.066550 -0.027021 0.020534 0.065198 0.097176 0.110015 0.101954 0.076119 0.039540 0.001273 -0.029884 -0.047526 -0.049096 -0.036336 -0.014645 0.008441 0.025254 0.029955 0.019961 -0.003505 -0.035850 -0.070385 -0.100073 -0.119283 -0.125073 -0.117692 -0.100164 -0.077114 -0.053182 -0.031472 -0.012518 0.005927 0.028171 0.059099 0.102301 0.158335 0.223615 0.290324 0.347458 0.382862 0.385821 0.349632 0.273537 0.163502 0.031623 -0.105807 -0.231170 -0.328744 -0.387577 -0.403383 -0.379064 -0.323765 -0.250692 -0.174232 -0.107014 -0.057599 -0.029263 -0.020105 -0.024346 -0.034428 -0.043322 -0.046424 -0.042557 -0.033851 -0.024561 -0.019206 -0.020584 -0.028261 -0.038033 -0.042572 -0.033183 -0.002259 0.054191 0.134619 0.231210 0.330647 0.416327 0.471602 0.483359 0.445115 0.358867 0.235213 0.091633 -0.050768 -0.171365 -0.254088 -0.290551 -0.281541 -0.236527 -0.171300 -0.104282 -0.052353 -0.027150 -0.032675 -0.064759 -0.112455 -0.161022 -0.195758 -0.205749 -0.186647 -0.141798 -0.081462 -0.020330 0.026077 0.045226 0.030708 -0.016092 -0.086184 -0.164981 -0.235650 -0.282998 -0.296962 -0.274874 -0.221955 -0.149930 -0.074110 -0.009648 0.032123 0.046388 0.035924 0.010315 -0.016521 -0.029861 -0.017928 0.025058 0.097269 0.189479 0.287056 0.373259 0.433048 0.456517 0.441131 0.392268 0.321951 0.246102 0.180986 0.139695 0.129475 0.150500 0.196302 0.255677 0.315526 0.363887 0.392392 0.397578 0.380781 0.346756 0.301474 0.249790 0.193678 0.131588 0.059128 -0.029065 -0.136793 -0.263831 -0.404291 -0.546390 -0.673891 -0.768996 -0.816126 -0.805696 -0.736953 -0.619095 -0.470250 -0.314411 -0.176870 -0.079144 -0.034494 -0.045082 -0.101473 -0.184658 -0.270201 -0.333633 -0.355879 -0.327508 -0.250804 -0.139188 -0.014092 0.100018 0.181322 0.215723 0.200140 0.143243 0.063438 -0.015453 -0.069806 -0.081831 -0.043882 0.039544 0.152630 0.271708 0.370603 0.426635 0.425903 0.366646 0.259903 0.127304 -0.003498 -0.104739 -0.154476 -0.141195 -0.066122 0.057271 0.206386 0.354484 0.476392 0.553611 0.577722 0.551361 0.486657 0.401585 0.315182 0.242803 0.192547 0.163691 0.147445 0.129790 0.095669 0.033458 -0.061373 -0.184339 -0.322215 -0.455484 -0.562384 -0.623627 -0.626708 -0.568816 -0.457704 -0.310339 -0.149652 -0.000138 0.116721 0.186239 0.202732 0.169809 0.098776 0.005684 -0.092258 -0.180032 -0.247224 -0.289051 -0.305938 -0.301951 -0.282614 -0.252798 -0.215237 -0.170061 -0.115384 -0.048711 0.031315 0.123376 0.222662 0.321037 0.408219 0.473687 0.508838 
hipp_sf_0005_HEAD NaN NaN NaN NaN NaN NaN NaN NaN NaN NaN NaN NaN NaN NaN NaN NaN NaN NaN NaN NaN NaN NaN NaN NaN NaN NaN NaN NaN NaN NaN NaN NaN NaN NaN NaN NaN NaN NaN NaN NaN NaN NaN NaN NaN NaN NaN NaN NaN NaN NaN NaN NaN NaN NaN NaN NaN NaN NaN NaN NaN NaN NaN NaN NaN NaN NaN NaN NaN NaN NaN NaN NaN NaN NaN NaN NaN NaN NaN NaN NaN NaN NaN NaN NaN NaN NaN NaN NaN NaN NaN NaN NaN NaN NaN NaN NaN NaN NaN NaN NaN NaN NaN NaN NaN NaN NaN NaN NaN NaN NaN NaN NaN NaN NaN NaN NaN NaN NaN NaN NaN NaN NaN NaN NaN NaN NaN NaN NaN NaN NaN NaN NaN NaN NaN NaN NaN NaN NaN NaN NaN NaN NaN NaN NaN NaN NaN NaN NaN NaN NaN NaN NaN NaN NaN NaN NaN NaN NaN NaN NaN NaN NaN NaN NaN NaN NaN NaN NaN NaN NaN NaN NaN NaN NaN NaN NaN NaN NaN NaN NaN NaN NaN NaN NaN NaN NaN NaN NaN NaN NaN NaN NaN NaN NaN NaN NaN NaN NaN NaN NaN NaN NaN NaN NaN NaN NaN NaN NaN NaN NaN NaN NaN NaN NaN NaN NaN NaN NaN NaN NaN NaN NaN NaN NaN NaN NaN NaN NaN NaN NaN NaN NaN NaN NaN NaN NaN NaN NaN NaN NaN NaN NaN NaN NaN NaN NaN NaN NaN NaN NaN NaN NaN NaN NaN NaN NaN NaN NaN NaN NaN NaN NaN NaN NaN NaN NaN NaN NaN NaN NaN NaN NaN NaN NaN NaN NaN NaN NaN NaN NaN NaN NaN NaN NaN NaN NaN NaN NaN NaN NaN NaN NaN NaN NaN NaN NaN NaN NaN NaN NaN NaN NaN NaN NaN NaN NaN NaN NaN NaN NaN NaN NaN NaN NaN NaN NaN NaN NaN NaN NaN NaN NaN NaN NaN NaN NaN NaN NaN NaN NaN NaN NaN NaN NaN NaN NaN NaN NaN NaN NaN NaN NaN NaN NaN NaN NaN NaN NaN NaN NaN NaN NaN NaN NaN NaN NaN NaN NaN NaN NaN NaN NaN NaN NaN NaN NaN NaN NaN NaN NaN NaN NaN NaN NaN NaN NaN NaN NaN NaN NaN NaN NaN NaN NaN NaN NaN NaN NaN NaN NaN NaN NaN NaN NaN NaN NaN NaN NaN NaN NaN NaN NaN NaN NaN NaN NaN NaN NaN NaN NaN NaN NaN NaN NaN NaN NaN NaN NaN NaN NaN 
hipp_sf_0006_TAIL 0.118448 0.111651 0.098157 0.078251 0.052517 0.021978 -0.011834 -0.046893 -0.080813 -0.111089 -0.135406 -0.151960 -0.159705 -0.158488 -0.149018 -0.132687 -0.111267 -0.086561 -0.060087 -0.032872 -0.005406 0.022230 0.050099 0.078073 0.105528 0.131162 0.152999 0.168622 0.175594 0.171995 0.156957 0.131065 0.096516 0.056969 0.017074 -0.018249 -0.044647 -0.059137 -0.060703 -0.050546 -0.031926 -0.009600 0.011048 0.025022 0.028679 0.020441 0.001118 -0.026239 -0.056939 -0.085574 -0.107099 -0.117841 -0.116224 -0.103080 -0.081446 -0.055923 -0.031690 -0.013402 -0.004185 -0.004943 -0.014118 -0.027979 -0.041354 -0.048699 -0.045268 -0.028158 0.002976 0.045685 0.095026 0.144327 0.186294 0.214244 0.223240 0.210923 0.177903 0.127657 0.065955 -0.000053 -0.062916 -0.115947 -0.154092 -0.174469 -0.176538 -0.161901 -0.133813 -0.096535 -0.054635 -0.012384 0.026681 0.059989 0.085962 0.103890 0.113711 0.115781 0.110674 0.099073 0.081727 0.059491 0.033395 0.004704 -0.025054 -0.054119 -0.080594 -0.102601 -0.118458 -0.126868 -0.127092 -0.119070 -0.103488 -0.081779 -0.056039 -0.028877 -0.003190 0.018122 0.032479 0.037959 0.033596 0.019598 -0.002571 -0.030270 -0.059963 -0.087667 -0.109521 -0.122401 -0.124464 -0.115515 -0.097109 -0.072334 -0.045292 -0.020347 -0.001266 0.009564 0.011701 0.006829 -0.001489 -0.008489 -0.009192 0.000475 0.022663 0.056914 0.099975 0.146196 0.188481 0.219624 0.233783 0.227800 0.202070 0.160740 0.111176 0.062726 0.025013 0.006061 0.010629 0.039097 0.087143 0.146319 0.205445 0.252569 0.277132 0.271921 0.234436 0.167393 0.078266 -0.022040 -0.121129 -0.207276 -0.271400 -0.308464 -0.318052 -0.304036 -0.273447 -0.234817 -0.196352 -0.164338 -0.142096 -0.129680 -0.124346 -0.121630 -0.116762 -0.106058 -0.087960 -0.063482 -0.035957 -0.010161 0.008959 0.017646 0.014435 0.000717 -0.019397 -0.039898 -0.054219 -0.056790 -0.044452 -0.017386 0.020684 0.063078 0.101460 0.127570 0.135031 0.120833 0.086159 0.036356 -0.019971 -0.072561 -0.111488 -0.129113 -0.121606 -0.089715 -0.038623 0.023070 0.085032 0.137196 0.171647 0.184035 0.174222 0.146066 0.106415 0.063556 0.025456 -0.001802 -0.015086 -0.014576 -0.003379 0.013482 0.030420 0.042673 0.047395 0.044203 0.035090 0.023726 0.014362 0.010597 0.014328 0.025142 0.040292 0.055291 0.064963 0.064717 0.051746 0.025853 -0.010298 -0.051566 -0.091300 -0.122669 -0.140069 -0.140288 -0.123182 -0.091701 -0.051262 -0.008609 0.029592 0.058101 0.074106 0.077652 0.071417 0.059880 0.048093 0.040333 0.038960 0.043742 0.051829 0.058389 0.057774 0.044965 0.016975 -0.026124 -0.080799 -0.140398 -0.196205 -0.239015 -0.260910 -0.256888 -0.225987 -0.171662 -0.101314 -0.025037 0.046180 0.102459 0.136844 0.146564 0.133498 0.103728 0.066281 0.031297 0.007982 0.002749 0.017927 0.051275 0.096426 0.144145 0.184171 0.207279 0.207126 0.181548 0.133007 0.068122 -0.003638 -0.071842 -0.127183 -0.163342 -0.178246 -0.174450 -0.158553 -0.139741 -0.127737 -0.130565 -0.152584 -0.193203 -0.246579 -0.302393 -0.347613 -0.368933 -0.355436 -0.300979 -0.205817 -0.077121 0.071758 0.223200 0.358070 0.458859 0.512629 0.513227 0.462344 0.369229 0.249075 0.120395 0.001847 -0.090891 -0.147625 -0.165074 -0.146978 -0.102883 -0.045893 0.010175 0.053635 0.077210 0.079302 0.064019 0.039959 0.018047 0.008888 0.020189 0.054827 0.109955 0.177355 0.244978 0.299346 0.328325 0.323697 0.282972 0.210079 0.114755 0.010767 -0.086697 -0.163925 -0.211289 -0.225041 -0.207918 -0.168464 -0.119204 -0.074050 -0.045482 -0.042068 -0.066812 -0.116665 -0.183251 -0.254641 -0.317786 -0.361091 -0.376613 -0.361438 -0.318007 -0.253348 -0.177449 -0.101132 -0.033906 0.017742 0.051292 0.068205 0.073065 0.072089 0.071386 0.075374 0.085722 0.101049 0.117427 0.129548 0.132262 0.122111 0.098485 0.064116 0.024769 -0.011807 -0.037465 -0.045440 -0.031937 0.002827 0.054349 0.114421 0.172469 0.217391 0.239542 0.232500 0.194286 0.127812 0.040502 -0.056827 -0.151608 -0.231402 -0.285688 -0.307293 -0.293267 -0.245129 -0.168509 -0.072283 0.032607 0.134481 0.222220 0.286422 0.320297 
hipp_sf_0007_MISC -0.069234 -0.062986 -0.051042 -0.034457 -0.014686 0.006567 0.027539 0.046619 0.062561 0.074653 0.082817 0.087608 0.090090 0.091608 0.093485 0.096692 0.101567 0.107643 0.113635 0.117612 0.117330 0.110669 0.096107 0.073106 0.042352 0.005757 -0.033764 -0.072736 -0.107685 -0.135720 -0.155010 -0.165056 -0.166696 -0.161841 -0.152993 -0.142643 -0.132700 -0.124057 -0.116416 -0.108406 -0.097992 -0.083073 -0.062149 -0.034907 -0.002578 0.032034 0.064877 0.091288 0.106837 0.108210 0.093963 0.064975 0.024514 -0.022131 -0.068400 -0.107468 -0.133335 -0.141824 -0.131283 -0.102902 -0.060562 -0.010258 0.040814 0.085354 0.117062 0.131571 0.127072 0.104543 0.067558 0.021714 -0.026224 -0.069324 -0.101494 -0.118342 -0.117775 -0.100255 -0.068687 -0.027953 0.015839 0.056279 0.087627 0.105686 0.108456 0.096450 0.072629 0.041948 0.010569 -0.015145 -0.029697 -0.029410 -0.013110 0.017600 0.058531 0.103550 0.145581 0.177795 0.194784 0.193505 0.173816 0.138502 0.092771 0.043310 -0.002924 -0.039949 -0.063796 -0.073150 -0.069450 -0.056448 -0.039308 -0.023444 -0.013327 -0.011525 -0.018177 -0.031003 -0.045873 -0.057791 -0.062099 -0.055638 -0.037605 -0.009916 0.023016 0.055062 0.079559 0.090656 0.084558 0.060387 0.020497 -0.029844 -0.083340 -0.131968 -0.168417 -0.187409 -0.186632 -0.167119 -0.133002 -0.090711 -0.047771 -0.011440 0.012555 0.020962 0.013462 -0.007408 -0.036823 -0.068603 -0.096308 -0.114311 -0.118652 -0.107567 -0.081627 -0.043521 0.002449 0.051037 0.096766 0.134591 0.160425 0.171504 0.166578 0.145959 0.111441 0.066125 0.014159 -0.039599 -0.089987 -0.132004 -0.161299 -0.174649 -0.170352 -0.148481 -0.110930 -0.061242 -0.004209 0.054707 0.110030 0.156924 0.191726 0.212278 0.218022 0.209854 0.189796 0.160569 0.125164 0.086497 0.047195 0.009532 -0.024521 -0.053205 -0.074910 -0.088204 -0.091981 -0.085706 -0.069703 -0.045377 -0.015288 0.017012 0.047382 0.071714 0.086648 0.090248 0.082457 0.065229 0.042237 0.018200 -0.002057 -0.014634 -0.017443 -0.010743 0.002831 0.018780 0.031712 0.036601 0.030028 0.011155 -0.017845 -0.052009 -0.084489 -0.107943 -0.116166 -0.105599 -0.076358 -0.032552 0.018260 0.066378 0.101827 0.116387 0.105387 0.068854 0.011757 -0.056746 -0.124938 -0.180745 -0.214082 -0.218847 -0.194179 -0.144683 -0.079579 -0.010940 0.048646 0.088504 0.101904 0.087293 0.048479 -0.006258 -0.065923 -0.119071 -0.156092 -0.171059 -0.162757 -0.134711 -0.094220 -0.050635 -0.013256 0.010703 0.017641 0.008283 -0.012545 -0.037050 -0.056219 -0.061842 -0.048363 -0.014190 0.037804 0.100686 0.164683 0.218975 0.253705 0.261831 0.240482 0.191570 0.121587 0.040623 -0.039184 -0.105509 -0.147695 -0.158322 -0.134263 -0.077126 0.006966 0.108171 0.214174 0.311698 0.388103 0.432887 0.438932 0.403378 0.328034 0.219272 0.087399 -0.054443 -0.191763 -0.310443 -0.398483 -0.447562 -0.454167 -0.420116 -0.352337 -0.261900 -0.162407 -0.067955 0.009008 0.059588 0.079781 0.070995 0.039649 -0.004099 -0.048269 -0.081291 -0.094135 -0.081949 -0.044896 0.011959 0.079687 0.147251 0.203619 0.239844 0.250673 0.235421 0.197919 0.145603 0.087936 0.034511 -0.006780 -0.031135 -0.037542 -0.028665 -0.010000 0.011496 0.028970 0.037092 0.033036 0.016824 -0.008986 -0.040160 -0.071955 -0.100310 -0.122751 -0.138819 -0.149934 -0.158735 -0.168100 -0.180089 -0.195102 -0.211481 -0.225666 -0.232915 -0.228411 -0.208534 -0.171972 -0.120417 -0.058642 0.006099 0.065248 0.110489 0.135351 0.136537 0.114690 0.074441 0.023686 -0.027762 -0.069910 -0.094368 -0.095848 -0.073084 -0.029018 0.029789 0.094391 0.155096 0.203197 0.232470 0.240182 0.227420 0.198733 0.161148 0.122789 0.091349 0.072706 0.069917 0.082754 0.107847 0.139367 0.170124 0.192856 0.201497 0.192204 0.163986 0.118851 0.061467 -0.001579 -0.062808 -0.114978 -0.152142 -0.170491 -0.168847 -0.148765 -0.114235 -0.071041 -0.025892 0.014563 0.044667 0.060517 0.060443 0.045149 0.017491 -0.018041 -0.056075 -0.091201 -0.118775 -0.135568 -0.140154 -0.132981 -0.116135 -0.092857 -0.066893 -0.041821 -0.020467 -0.004516 0.005619 0.010659 0.012103 0.011735 0.011104 
hipp_sf_0008_SUB -0.074170 -0.059047 -0.032467 -0.000901 0.027909 0.046780 0.050789 0.038446 0.012067 -0.022744 -0.058374 -0.086955 -0.102165 -0.100676 -0.082911 -0.052952 -0.017616 0.015064 0.037614 0.044739 0.034438 0.008380 -0.028507 -0.069120 -0.105660 -0.131163 -0.140758 -0.132395 -0.106939 -0.067688 -0.019473 0.032373 0.082945 0.128364 0.165977 0.194181 0.212013 0.218720 0.213488 0.195474 0.164154 0.119892 0.064549 0.001890 -0.062396 -0.121193 -0.166931 -0.192894 -0.194570 -0.170746 -0.124043 -0.060724 0.010255 0.078794 0.135481 0.173331 0.189037 0.183461 0.161219 0.129476 0.096200 0.068288 0.049990 0.042013 0.041517 0.043002 0.039888 0.026399 -0.000698 -0.040928 -0.089834 -0.139674 -0.180964 -0.204535 -0.203643 -0.175635 -0.122800 -0.052186 0.025600 0.098351 0.154563 0.185593 0.187211 0.160237 0.110158 0.045841 -0.022338 -0.084521 -0.133110 -0.163874 -0.176223 -0.172680 -0.157747 -0.136495 -0.113255 -0.090728 -0.069697 -0.049371 -0.028187 -0.004823 0.020919 0.047611 0.072254 0.090877 0.099530 0.095396 0.077711 0.048222 0.011037 -0.028128 -0.063136 -0.088748 -0.101757 -0.101623 -0.090460 -0.072351 -0.052175 -0.034251 -0.021155 -0.013032 -0.007617 -0.000969 0.011256 0.032304 0.063026 0.101130 0.141263 0.175943 0.197189 0.198480 0.176564 0.132654 0.072666 0.006360 -0.054493 -0.098542 -0.117362 -0.107458 -0.071264 -0.016882 0.043468 0.095956 0.128108 0.131560 0.103983 0.049732 -0.020968 -0.094143 -0.155043 -0.191332 -0.195788 -0.167903 -0.114020 -0.045973 0.021488 0.073918 0.100336 0.095628 0.061666 0.006906 -0.055449 -0.110300 -0.143897 -0.146765 -0.115685 -0.054332 0.027550 0.116216 0.196750 0.256025 0.285174 0.281051 0.246439 0.189018 0.119410 0.048768 -0.013511 -0.061467 -0.093313 -0.111150 -0.119790 -0.125067 -0.132059 -0.143675 -0.159931 -0.178042 -0.193263 -0.200224 -0.194397 -0.173318 -0.137263 -0.089244 -0.034345 0.021393 0.072243 0.113891 0.144104 0.162816 0.171662 0.173117 0.169511 0.162201 0.151134 0.134935 0.111478 0.078795 0.036051 -0.015689 -0.073129 -0.130992 -0.182795 -0.222019 -0.243385 -0.243952 -0.223770 -0.185934 -0.136012 -0.080999 -0.028007 0.016991 0.050113 0.070009 0.077755 0.076246 0.069298 0.060691 0.053388 0.049106 0.048302 0.050512 0.054898 0.060804 0.068126 0.077378 0.089435 0.105024 0.124152 0.145652 0.167040 0.184764 0.194837 0.193708 0.179175 0.151068 0.111520 0.064696 0.016036 -0.028860 -0.065414 -0.091039 -0.105628 -0.111436 -0.112343 -0.112700 -0.116029 -0.123936 -0.135544 -0.147631 -0.155476 -0.154232 -0.140491 -0.113616 -0.076471 -0.035271 0.001475 0.024768 0.027261 0.005250 -0.039992 -0.101937 -0.169721 -0.230147 -0.270371 -0.280720 -0.256964 -0.201530 -0.123294 -0.035945 0.044776 0.104388 0.132820 0.126668 0.090057 0.033853 -0.026608 -0.074825 -0.096724 -0.083768 -0.034867 0.043331 0.137849 0.232172 0.309807 0.357803 0.369450 0.345566 0.294092 0.228113 0.162788 0.111893 0.084799 0.084540 0.107419 0.144191 0.182504 0.209992 0.217267 0.200082 0.160174 0.104601 0.043773 -0.011314 -0.051938 -0.073871 -0.078411 -0.071956 -0.064223 -0.065560 -0.084020 -0.122957 -0.179755 -0.246054 -0.309461 -0.356369 -0.375211 -0.359386 -0.309116 -0.231768 -0.140515 -0.051622 0.019042 0.059458 0.064066 0.034930 -0.018844 -0.083278 -0.142793 -0.183791 -0.197720 -0.182882 -0.144568 -0.093501 -0.042968 -0.005347 0.011110 0.004451 -0.020412 -0.052883 -0.079371 -0.086819 -0.066234 -0.015334 0.060371 0.148381 0.231765 0.292918 0.317675 0.298808 0.238075 0.146287 0.041326 -0.055496 -0.123951 -0.149286 -0.125504 -0.056783 0.043297 0.154578 0.254589 0.323307 0.347387 0.322926 0.256158 0.161958 0.060487 -0.027263 -0.084028 -0.099945 -0.074549 -0.016678 0.057649 0.128871 0.178238 0.191894 0.163822 0.097040 0.002836 -0.101741 -0.197537 -0.267290 -0.299100 -0.288668 -0.239884 -0.163726 -0.075779 0.007036 0.069790 0.102260 0.100510 0.067115 0.010100 -0.059071 -0.127941 -0.185415 -0.223535 -0.238407 -0.230206 -0.202399 -0.160488 -0.110612 -0.058353 -0.007961 0.037925 0.078106 0.112372 0.140962 0.164127 0.181886 0.194015 0.200193 
hipp_sf_0009_ERC -0.043874 -0.035997 -0.022465 -0.007080 0.005873 0.012908 0.012436 0.005382 -0.004864 -0.013195 -0.014068 -0.003002 0.022057 0.059891 0.105904 0.152850 0.192245 0.216183 0.219138 0.199318 0.159260 0.105477 0.047205 -0.005487 -0.043826 -0.062242 -0.059602 -0.039512 -0.009584 0.020172 0.039491 0.040079 0.017427 -0.028163 -0.091556 -0.163762 -0.233700 -0.290345 -0.324817 -0.331975 -0.311204 -0.266277 -0.204371 -0.134498 -0.065722 -0.005546 0.041195 0.072755 0.090205 0.096602 0.095869 0.091697 0.086729 0.082202 0.078075 0.073540 0.067707 0.060224 0.051626 0.043281 0.036970 0.034202 0.035506 0.039934 0.044969 0.046938 0.041870 0.026620 -0.000030 -0.036592 -0.078685 -0.119550 -0.151240 -0.166257 -0.159304 -0.128732 -0.077323 -0.012168 0.056405 0.116682 0.157832 0.172135 0.156658 0.114026 0.052059 -0.017660 -0.082020 -0.128962 -0.149848 -0.141143 -0.105027 -0.048831 0.016585 0.079141 0.128037 0.155900 0.160109 0.143062 0.111329 0.073939 0.040213 0.017643 0.010305 0.018158 0.037338 0.061366 0.082926 0.095764 0.096252 0.084217 0.062861 0.037787 0.015406 0.001119 -0.002249 0.004645 0.017663 0.030111 0.034404 0.024057 -0.004462 -0.050499 -0.108910 -0.170810 -0.225246 -0.261433 -0.271067 -0.250198 -0.200225 -0.127784 -0.043540 0.039868 0.110266 0.158255 0.178885 0.172344 0.143544 0.100729 0.053460 0.010456 -0.022210 -0.042151 -0.050733 -0.052196 -0.052086 -0.055421 -0.065070 -0.080768 -0.099029 -0.113984 -0.118953 -0.108343 -0.079405 -0.033367 0.024356 0.085003 0.138180 0.174099 0.185809 0.170910 0.132305 0.077789 0.018515 -0.033339 -0.067212 -0.076504 -0.060100 -0.022702 0.026126 0.074011 0.108483 0.119736 0.102855 0.058967 -0.004918 -0.077358 -0.144923 -0.195061 -0.218785 -0.212558 -0.178973 -0.126076 -0.065493 -0.009778 0.030401 0.048620 0.044056 0.021549 -0.009638 -0.038083 -0.052956 -0.046634 -0.016581 0.033955 0.096573 0.159560 0.210509 0.239131 0.239612 0.211973 0.162114 0.100525 0.039937 -0.007556 -0.033260 -0.033888 -0.012361 0.022814 0.059456 0.084501 0.087076 0.061139 0.007118 -0.067869 -0.151267 -0.227587 -0.281623 -0.301715 -0.282333 -0.225433 -0.140269 -0.041663 0.052904 0.126799 0.167607 0.169666 0.135232 0.074034 0.001285 -0.065414 -0.109670 -0.119651 -0.090509 -0.025389 0.065161 0.165259 0.256796 0.322952 0.351398 0.336577 0.280596 0.192620 0.086897 -0.020115 -0.112957 -0.180016 -0.215483 -0.220035 -0.200167 -0.166357 -0.130496 -0.103146 -0.091218 -0.096551 -0.115673 -0.140773 -0.161653 -0.168232 -0.153048 -0.113218 -0.051448 0.024154 0.101432 0.166430 0.206115 0.211008 0.177225 0.107502 0.011008 -0.098042 -0.202715 -0.286201 -0.334651 -0.339509 -0.298911 -0.217941 -0.107712 0.016528 0.137909 0.240618 0.312272 0.345615 0.339281 0.297556 0.229264 0.146013 0.060171 -0.017078 -0.077269 -0.115574 -0.131012 -0.126008 -0.105460 -0.075556 -0.042567 -0.011858 0.012761 0.029274 0.037343 0.037928 0.032778 0.023959 0.013492 0.003169 -0.005460 -0.011003 -0.012118 -0.007478 0.004142 0.023639 0.051263 0.086276 0.126712 0.169332 0.209826 0.243290 0.264922 0.270804 0.258653 0.228353 0.182160 0.124510 0.061422 -0.000396 -0.054603 -0.096243 -0.122529 -0.133263 -0.130788 -0.119489 -0.104948 -0.092889 -0.088136 -0.093768 -0.110624 -0.137236 -0.170195 -0.204844 -0.236166 -0.259680 -0.272168 -0.272125 -0.259851 -0.237215 -0.207170 -0.173133 -0.138394 -0.105640 -0.076711 -0.052557 -0.033405 -0.019005 -0.008896 -0.002575 0.000467 0.000848 -0.000513 -0.002202 -0.002220 0.001929 0.012926 0.033132 0.063967 0.105321 0.155139 0.209332 0.262086 0.306586 0.336052 0.344935 0.330033 0.291306 0.232186 0.159290 0.081529 0.008739 -0.049913 -0.087489 -0.100481 -0.089420 -0.058758 -0.016029 0.029577 0.068940 0.094723 0.102719 0.092569 0.067694 0.034464 0.000749 -0.025837 -0.039638 -0.038262 -0.023172 0.000537 0.025183 0.042151 0.043823 0.025389 -0.013852 -0.069988 -0.134942 -0.197806 -0.246839 -0.271741 -0.265777 -0.227293 -0.160328 -0.074147 0.018243 0.102334 0.164720 0.195564 0.190454 0.151289 0.086008 0.007192 -0.070212 -0.131621 -0.165503 
hipp_sf_0010_BA35 -0.013869 -0.008967 -0.000337 0.009948 0.019409 0.025749 0.027403 0.023913 0.016058 0.005692 -0.004665 -0.012374 -0.015261 -0.012079 -0.002764 0.011582 0.028949 0.046869 0.062927 0.075221 0.082665 0.085061 0.082952 0.077304 0.069102 0.059003 0.047120 0.033015 0.015907 -0.004967 -0.029925 -0.058472 -0.089108 -0.119374 -0.146155 -0.166188 -0.176676 -0.175851 -0.163383 -0.140510 -0.109858 -0.074994 -0.039789 -0.007749 0.018552 0.037804 0.049996 0.056164 0.057923 0.056919 0.054352 0.050690 0.045662 0.038528 0.028536 0.015460 0.000011 -0.015977 -0.029720 -0.037982 -0.037835 -0.027491 -0.007006 0.021350 0.053201 0.082687 0.103526 0.110306 0.099752 0.071666 0.029296 -0.020996 -0.070764 -0.111036 -0.134095 -0.135134 -0.113397 -0.072548 -0.020133 0.033796 0.078655 0.105498 0.108951 0.088471 0.048645 -0.001565 -0.050542 -0.086336 -0.099159 -0.083517 -0.039527 0.026862 0.104844 0.180729 0.240549 0.272760 0.270504 0.232956 0.165483 0.078586 -0.014176 -0.098820 -0.163615 -0.201233 -0.209941 -0.193612 -0.160563 -0.121507 -0.087065 -0.065392 -0.060426 -0.071143 -0.091958 -0.114176 -0.128155 -0.125696 -0.102117 -0.057543 0.002875 0.069874 0.131942 0.177715 0.198402 0.189704 0.152818 0.094294 0.024790 -0.043039 -0.097043 -0.127972 -0.131246 -0.107753 -0.063522 -0.008363 0.046224 0.089407 0.113169 0.113782 0.092360 0.054382 0.008353 -0.036074 -0.070110 -0.087526 -0.085703 -0.065853 -0.032436 0.008067 0.048665 0.083320 0.108020 0.121245 0.123794 0.118050 0.106953 0.092964 0.077316 0.059752 0.038817 0.012602 -0.020253 -0.059616 -0.103247 -0.146734 -0.184041 -0.208604 -0.214734 -0.199008 -0.161316 -0.105275 -0.037886 0.031557 0.093092 0.137920 0.160050 0.157406 0.132145 0.090104 0.039512 -0.010761 -0.053033 -0.082296 -0.097042 -0.099257 -0.093581 -0.085872 -0.081502 -0.083812 -0.093105 -0.106433 -0.118235 -0.121711 -0.110593 -0.080912 -0.032317 0.031376 0.102585 0.171258 0.226794 0.260201 0.265987 0.243381 0.196574 0.133939 0.066346 0.004979 -0.040915 -0.065806 -0.068838 -0.053728 -0.027655 0.000608 0.022867 0.033496 0.030760 0.017153 -0.001309 -0.016715 -0.021399 -0.010098 0.018406 0.060570 0.108507 0.151503 0.178303 0.179689 0.150758 0.092361 0.011356 -0.080442 -0.168433 -0.238082 -0.277852 -0.281593 -0.249852 -0.189808 -0.113821 -0.036899 0.026401 0.064961 0.073347 0.052823 0.010916 -0.040372 -0.087308 -0.117538 -0.122858 -0.101055 -0.056397 0.001332 0.059049 0.103343 0.123555 0.114269 0.076670 0.018436 -0.047806 -0.107162 -0.145699 -0.153539 -0.127125 -0.070182 0.006870 0.088927 0.159239 0.202834 0.209627 0.176563 0.108350 0.016643 -0.082149 -0.169983 -0.230593 -0.252506 -0.231081 -0.169203 -0.076542 0.032421 0.141149 0.234027 0.298949 0.329063 0.323393 0.286317 0.226119 0.153001 0.077026 0.006418 -0.053457 -0.100322 -0.134479 -0.157816 -0.172648 -0.180725 -0.182671 -0.177977 -0.165486 -0.144215 -0.114206 -0.077153 -0.036569 0.002611 0.034904 0.055468 0.061292 0.052083 0.030610 0.002369 -0.025400 -0.045136 -0.050541 -0.037938 -0.007119 0.038540 0.092729 0.147481 0.194810 0.228327 0.244482 0.243160 0.227484 0.202904 0.175772 0.151754 0.134452 0.124566 0.119792 0.115483 0.105911 0.085834 0.051978 0.004075 -0.054800 -0.118707 -0.180021 -0.231073 -0.265849 -0.281365 -0.278377 -0.261235 -0.236910 -0.213380 -0.197752 -0.194550 -0.204569 -0.224581 -0.247992 -0.266322 -0.271192 -0.256372 -0.219424 -0.162549 -0.092401 -0.018886 0.046830 0.094694 0.117995 0.114961 0.089343 0.049827 0.008360 -0.022293 -0.031255 -0.011948 0.036313 0.107895 0.191714 0.273252 0.337323 0.371063 0.366531 0.322405 0.244421 0.144466 0.038485 -0.056384 -0.124911 -0.156492 -0.147005 -0.099435 -0.023198 0.067689 0.157228 0.230316 0.275359 0.286140 0.262620 0.210597 0.140322 0.064395 -0.004641 -0.056530 -0.084978 -0.088495 -0.070293 -0.037352 0.001142 0.035636 0.057975 0.062781 0.048218 0.016071 -0.028832 -0.079681 -0.128999 -0.169952 -0.197419 -0.208666 -0.203536 -0.184182 -0.154442 -0.119000 -0.082521 -0.048909 -0.020818 0.000532 0.015227 0.024296 0.029185 0.031235 
hipp_sf_0011_BA36 -0.024268 -0.010654 0.014005 0.045029 0.076465 0.102162 0.116890 0.117312 0.102621 0.074734 0.037993 -0.001595 -0.037436 -0.063563 -0.075771 -0.072445 -0.054920 -0.027297 0.004282 0.032771 0.051566 0.055809 0.043394 0.015469 -0.023675 -0.067334 -0.107606 -0.136871 -0.149256 -0.141784 -0.115000 -0.072917 -0.022297 0.028589 0.071508 0.099788 0.109532 0.100282 0.075003 0.039399 0.000713 -0.033751 -0.058062 -0.068789 -0.065567 -0.051032 -0.030132 -0.008987 0.006458 0.011703 0.004626 -0.014100 -0.041175 -0.071371 -0.098592 -0.117072 -0.122458 -0.112583 -0.087775 -0.050693 -0.005761 0.041680 0.086280 0.123496 0.150159 0.164730 0.167250 0.159044 0.142293 0.119580 0.093510 0.066450 0.040387 0.016894 -0.002880 -0.018208 -0.028819 -0.034947 -0.037363 -0.037330 -0.036445 -0.036354 -0.038369 -0.043065 -0.049966 -0.057434 -0.062844 -0.063059 -0.055166 -0.037313 -0.009480 0.026044 0.064637 0.099861 0.124494 0.131917 0.117586 0.080281 0.022818 -0.047995 -0.122232 -0.188450 -0.235751 -0.255909 -0.245111 -0.204938 -0.142308 -0.068344 0.003663 0.060829 0.093269 0.096176 0.070926 0.024961 -0.029595 -0.078322 -0.107438 -0.106687 -0.071584 -0.004548 0.085352 0.183982 0.274783 0.341929 0.373369 0.363151 0.312552 0.229798 0.128447 0.024765 -0.065361 -0.129347 -0.160105 -0.157087 -0.126009 -0.077377 -0.024142 0.020996 0.048076 0.051673 0.031678 -0.007032 -0.055900 -0.104641 -0.143398 -0.164655 -0.164546 -0.143338 -0.105081 -0.056560 -0.005850 0.039222 0.072362 0.089664 0.089899 0.074315 0.046056 0.009417 -0.030890 -0.070303 -0.104769 -0.130898 -0.146014 -0.148183 -0.136325 -0.110408 -0.071709 -0.023018 0.031328 0.085701 0.133784 0.169457 0.187859 0.186390 0.165427 0.128536 0.082062 0.034111 -0.006923 -0.034011 -0.042977 -0.033480 -0.009248 0.022523 0.052555 0.071353 0.071216 0.047931 0.001801 -0.062238 -0.135459 -0.206975 -0.265821 -0.303045 -0.313376 -0.296096 -0.254959 -0.197187 -0.131793 -0.067611 -0.011493 0.032931 0.065660 0.089841 0.110530 0.133039 0.161273 0.196471 0.236677 0.277053 0.310972 0.331620 0.333698 0.314825 0.276268 0.222825 0.161870 0.101775 0.050102 0.011973 -0.010960 -0.020725 -0.022336 -0.022389 -0.027280 -0.041484 -0.066337 -0.099617 -0.136052 -0.168650 -0.190510 -0.196702 -0.185711 -0.160091 -0.126107 -0.092436 -0.068178 -0.060656 -0.073502 -0.105531 -0.150671 -0.199046 -0.238976 -0.259497 -0.252810 -0.216133 -0.152494 -0.070280 0.018397 0.100153 0.163091 0.199235 0.206111 0.187113 0.150579 0.107789 0.070339 0.047494 0.044123 0.059685 0.088491 0.121187 0.147094 0.156878 0.144908 0.110774 0.059577 0.000939 -0.053070 -0.090604 -0.102726 -0.085478 -0.040878 0.023401 0.095576 0.162211 0.210997 0.233278 0.225726 0.190834 0.136123 0.072275 0.010624 -0.039392 -0.072256 -0.087401 -0.089030 -0.084793 -0.083649 -0.093420 -0.118637 -0.159182 -0.210055 -0.262335 -0.305119 -0.328000 -0.323523 -0.289047 -0.227579 -0.147390 -0.060465 0.019866 0.081619 0.116569 0.121875 0.100575 0.060842 0.014184 -0.027023 -0.052116 -0.054315 -0.032007 0.011085 0.066865 0.124713 0.173800 0.205365 0.214468 0.200868 0.168888 0.126319 0.082656 0.047057 0.026477 0.024353 0.040085 0.069375 0.105298 0.139822 0.165447 0.176593 0.170491 0.147425 0.110364 0.064111 0.014224 -0.034028 -0.076466 -0.110397 -0.134620 -0.149089 -0.154421 -0.151421 -0.140776 -0.123015 -0.098724 -0.068915 -0.035417 -0.001098 0.030199 0.054058 0.066209 0.063400 0.044258 0.009883 -0.035966 -0.087227 -0.136390 -0.175732 -0.198704 -0.201188 -0.182355 -0.144954 -0.094904 -0.040298 0.010050 0.048208 0.068577 0.068914 0.050709 0.018865 -0.019272 -0.055336 -0.081524 -0.092055 -0.084208 -0.058764 -0.019775 0.026269 0.071699 0.109106 0.132675 0.139171 0.128415 0.103190 0.068613 0.031140 -0.002608 -0.026965 -0.038089 -0.034445 -0.016856 0.011852 0.047505 0.085374 0.120969 0.150668 0.172109 0.184294 0.187444 0.182668 0.171541 0.155699 0.136525 0.114976 0.091567 0.066475 0.039720 0.011362 -0.018348 -0.048885 -0.079461 -0.109111 -0.136827 -0.161689 -0.182974 -0.200209 -0.213156 -0.221755 -0.226034 
hipp_sf_0012_PHC -0.131892 -0.119181 -0.094616 -0.059799 -0.016874 0.031690 0.083295 0.135318 0.185144 0.230125 0.267549 0.294684 0.308939 0.308193 0.291229 0.258202 0.211013 0.153449 0.090974 0.030150 -0.022292 -0.060580 -0.081021 -0.082872 -0.068747 -0.044401 -0.017882 0.001857 0.006637 -0.009287 -0.047927 -0.106915 -0.179670 -0.256395 -0.325737 -0.376813 -0.401192 -0.394463 -0.357061 -0.294184 -0.214824 -0.130113 -0.051311 0.012140 0.054123 0.072630 0.069705 0.050593 0.022359 -0.007728 -0.033649 -0.051630 -0.060499 -0.061370 -0.056812 -0.049760 -0.042475 -0.035860 -0.029291 -0.021022 -0.009017 0.008019 0.029745 0.053691 0.075397 0.089178 0.089425 0.072119 0.036208 -0.015532 -0.076429 -0.136744 -0.185312 -0.211684 -0.208350 -0.172556 -0.107283 -0.021127 0.072968 0.159924 0.225289 0.257993 0.252559 0.210294 0.139219 0.052724 -0.032810 -0.100944 -0.138113 -0.135997 -0.092875 -0.013749 0.090754 0.206430 0.318063 0.411981 0.478113 0.511193 0.510943 0.481318 0.429049 0.361890 0.286971 0.209622 0.132883 0.057733 -0.016101 -0.089032 -0.160534 -0.228413 -0.288641 -0.335818 -0.364172 -0.368862 -0.347270 -0.299979 -0.231169 -0.148324 -0.061280 0.019225 0.083206 0.122987 0.134353 0.117106 0.074935 0.014668 -0.054929 -0.124564 -0.185775 -0.232010 -0.259289 -0.266397 -0.254654 -0.227380 -0.189196 -0.145319 -0.100932 -0.060713 -0.028502 -0.007094 0.001906 -0.001822 -0.017244 -0.041969 -0.072359 -0.103790 -0.131109 -0.149264 -0.154035 -0.142762 -0.114920 -0.072415 -0.019498 0.037736 0.092194 0.136861 0.165915 0.175670 0.165173 0.136343 0.093626 0.043242 -0.007818 -0.052857 -0.086382 -0.104716 -0.106228 -0.091190 -0.061363 -0.019451 0.031410 0.087999 0.147139 0.205613 0.259973 0.306377 0.340598 0.358308 0.355658 0.330083 0.281166 0.211334 0.126182 0.034234 -0.053913 -0.126984 -0.174777 -0.189938 -0.169429 -0.115362 -0.034979 0.060278 0.156483 0.239455 0.297090 0.321358 0.309597 0.264823 0.195025 0.111549 0.026910 -0.047549 -0.103692 -0.137918 -0.151549 -0.150198 -0.142305 -0.137114 -0.142560 -0.163464 -0.200422 -0.249596 -0.303431 -0.352144 -0.385670 -0.395675 -0.377230 -0.329839 -0.257625 -0.168668 -0.073643 0.015987 0.089848 0.140299 0.163548 0.160076 0.134346 0.093894 0.047984 0.006080 -0.023602 -0.035267 -0.026273 0.002635 0.047574 0.102178 0.158541 0.208308 0.243763 0.258814 0.249755 0.215733 0.158876 0.084072 -0.001605 -0.089748 -0.171666 -0.239505 -0.287275 -0.311642 -0.312334 -0.292090 -0.256114 -0.211129 -0.164162 -0.121292 -0.086583 -0.061432 -0.044472 -0.032076 -0.019365 -0.001548 0.024719 0.060238 0.102716 0.146925 0.185594 0.210889 0.216214 0.197945 0.156712 0.097908 0.031232 -0.030718 -0.074615 -0.088933 -0.066377 -0.005707 0.087438 0.200953 0.317903 0.419159 0.486575 0.506154 0.470615 0.380880 0.246186 0.082772 -0.088637 -0.246120 -0.370037 -0.446090 -0.467427 -0.435460 -0.359262 -0.253714 -0.136753 -0.026254 0.062895 0.121031 0.144882 0.137544 0.107329 0.065776 0.025228 -0.003535 -0.013200 -0.001024 0.030989 0.076819 0.127854 0.174693 0.208962 0.224805 0.219798 0.195147 0.155205 0.106440 0.056091 0.010787 -0.024604 -0.047706 -0.058848 -0.060736 -0.057723 -0.054805 -0.056590 -0.066404 -0.085709 -0.113921 -0.148624 -0.186127 -0.222223 -0.253014 -0.275612 -0.288621 -0.292284 -0.288308 -0.279397 -0.268598 -0.258601 -0.251133 -0.246568 -0.243847 -0.240712 -0.234233 -0.221504 -0.200390 -0.170149 -0.131797 -0.088116 -0.043279 -0.002129 0.030761 0.052066 0.060546 0.057535 0.046972 0.034901 0.028512 0.034845 0.059403 0.104908 0.170474 0.251362 0.339431 0.424238 0.494629 0.540571 0.554895 0.534640 0.481729 0.402837 0.308440 0.211178 0.123827 0.057205 0.018398 0.009618 0.027910 0.065753 0.112461 0.156127 0.185768 0.193270 0.174796 0.131409 0.068783 -0.003901 -0.075695 -0.135918 -0.176108 -0.191552 -0.182104 -0.152172 -0.109868 -0.065517 -0.029776 -0.011730 -0.017288 -0.048164 -0.101603 -0.170874 -0.246423 -0.317452 -0.373649 -0.406749 -0.411682 -0.387142 -0.335502 -0.262176 -0.174550 -0.080745 0.011581 0.096151 0.168598 0.226536 0.269238 0.297045 0.310683 
