13 420
hipp_sf_0000_BG 0.023446 0.029875 0.041314 0.055178 0.068178 0.076917 0.078515 0.071155 0.054453 0.029595 -0.000810 -0.033119 -0.063238 -0.087292 -0.102274 -0.106554 -0.100152 -0.084733 -0.063301 -0.039670 -0.017775 -0.000978 0.008528 0.010089 0.004664 -0.005403 -0.016886 -0.026344 -0.030833 -0.028517 -0.019056 -0.003689 0.015001 0.033608 0.048591 0.057007 0.057128 0.048819 0.033591 0.014324 -0.005301 -0.021538 -0.031334 -0.032950 -0.026323 -0.013083 0.003777 0.020511 0.033391 0.039484 0.037266 0.026951 0.010472 -0.008889 -0.027154 -0.040435 -0.045714 -0.041451 -0.027890 -0.007031 0.017753 0.042346 0.062662 0.075386 0.078553 0.071855 0.056626 0.035528 0.012002 -0.010386 -0.028574 -0.040498 -0.045358 -0.043624 -0.036811 -0.027085 -0.016789 -0.008005 -0.002217 -0.000139 -0.001710 -0.006244 -0.012659 -0.019735 -0.026337 -0.031565 -0.034805 -0.035716 -0.034161 -0.030145 -0.023774 -0.015262 -0.004983 0.006470 0.018234 0.029197 0.038091 0.043669 0.044942 0.041414 0.033277 0.021485 0.007683 -0.006015 -0.017383 -0.024491 -0.026105 -0.021966 -0.012897 -0.000697 0.012177 0.023067 0.029640 0.030357 0.024791 0.013734 -0.000957 -0.016728 -0.030832 -0.040882 -0.045316 -0.043682 -0.036687 -0.025999 -0.013855 -0.002558 0.006014 0.010782 0.011638 0.009395 0.005511 0.001689 -0.000571 -0.000336 0.002546 0.007458 0.013220 0.018452 0.021982 0.023197 0.022242 0.019992 0.017820 0.017186 0.019170 0.024062 0.031127 0.038632 0.044136 0.045029 0.039170 0.025517 0.004562 -0.021528 -0.049142 -0.073799 -0.090982 -0.097047 -0.090045 -0.070248 -0.040268 -0.004705 0.030616 0.059690 0.077456 0.080768 0.069029 0.044338 0.011112 -0.024729 -0.056878 -0.079823 -0.089861 -0.085741 -0.068815 -0.042680 -0.012376 0.016662 0.039695 0.053578 0.057290 0.051986 0.040599 0.027064 0.015374 0.008655 0.008484 0.014576 0.024917 0.036288 0.045060 0.048079 0.043432 0.030924 0.012160 -0.009779 -0.030998 -0.047638 -0.056713 -0.056762 -0.048161 -0.033036 -0.014794 0.002626 0.015607 0.021628 0.019795 0.011007 -0.002276 -0.016602 -0.028315 -0.034380 -0.033070 -0.024366 -0.009980 0.007001 0.022772 0.033623 0.036742 0.030840 0.016448 -0.004145 -0.027322 -0.048837 -0.064640 -0.071657 -0.068374 -0.055118 -0.033974 -0.008376 0.017551 0.039756 0.054986 0.061336 0.058528 0.047878 0.031969 0.014122 -0.002245 -0.014233 -0.019943 -0.018745 -0.011300 0.000649 0.014665 0.028100 0.038582 0.044405 0.044788 0.039946 0.030977 0.019621 0.007914 -0.002179 -0.009097 -0.011924 -0.010518 -0.005499 0.001881 0.009966 0.016981 0.021334 0.021880 0.018111 0.010254 -0.000758 -0.013423 -0.025898 -0.036298 -0.043003 -0.044933 -0.041752 -0.033945 -0.022771 -0.010076 0.001993 0.011337 0.016258 0.015752 0.009689 -0.001151 -0.015200 -0.030355 -0.044326 -0.055013 -0.060840 -0.060994 -0.055526 -0.045291 -0.031763 -0.016741 -0.002034 0.010842 0.020872 0.027643 0.031314 0.032484 0.031988 0.030681 0.029254 0.028122 0.027400 0.026966 0.026578 0.026005 0.025146 0.024072 0.023019 0.022296 0.022160 0.022693 0.023706 0.024725 0.025054 0.023916 0.020647 0.014888 0.006729 -0.003225 -0.013907 -0.023946 -0.031900 -0.036532 -0.037053 -0.033296 -0.025769 -0.015577 -0.004238 0.006582 0.015355 0.020939 0.022735 0.020736 0.015469 0.007830 -0.001113 -0.010320 -0.018933 -0.026357 -0.032252 -0.036469 -0.038951 -0.039640 -0.038434 -0.035194 -0.029827 -0.022386 -0.013181 -0.002839 0.007720 0.017390 0.025074 0.029905 0.031469 0.029929 0.026041 0.021018 0.016263 0.013029 0.012074 0.013408 0.016198 0.018888 0.019512 0.016169 0.007544 -0.006631 -0.025303 -0.046090 -0.065587 -0.079933 -0.085563 -0.079975 -0.062378 -0.034035 0.001761 0.040131 0.075399 0.102086 0.115923 0.114686 0.098663 0.070655 0.035500 -0.000808 -0.032231 -0.053813 -0.062587 -0.058103 -0.042436 -0.019710 0.004789 0.025710 0.038720 0.041354 0.033448 0.017085 -0.003939 -0.024984 -0.041603 -0.050493 -0.050173 -0.041245 -0.026178 -0.008689 0.007140 0.017804 0.021169 0.016927 0.006627 -0.006723 -0.019390 -0.027808 -0.029426 -0.023313 -0.010385 0.006800 0.024621 0.039231 0.047438 
hipp_sf_0001_CA1 0.046778 0.031434 0.002358 -0.037295 -0.082995 -0.129134 -0.169502 -0.197933 -0.209105 -0.199393 -0.167653 -0.115775 -0.048843 0.025209 0.096475 0.154450 0.189698 0.195582 0.169715 0.114851 0.038948 -0.045700 -0.124213 -0.181534 -0.205110 -0.187382 -0.127574 -0.032405 0.084530 0.204690 0.307586 0.374354 0.391272 0.352562 0.261897 0.132244 -0.016006 -0.158375 -0.270537 -0.332698 -0.333303 -0.271340 -0.156753 -0.008850 0.147068 0.284234 0.379266 0.416418 0.390413 0.307294 0.183138 0.040868 -0.094209 -0.199250 -0.258167 -0.264504 -0.222356 -0.145176 -0.052739 0.033097 0.092923 0.113701 0.091268 0.030931 -0.053908 -0.144788 -0.222188 -0.269646 -0.277119 -0.242898 -0.173717 -0.083084 0.011752 0.093515 0.148468 0.169089 0.155295 0.114025 0.057330 -0.000538 -0.046363 -0.070791 -0.070129 -0.046783 -0.008271 0.034863 0.071719 0.093645 0.096158 0.079778 0.049612 0.013850 -0.018414 -0.039476 -0.044870 -0.034319 -0.011580 0.016733 0.043020 0.060773 0.066293 0.059614 0.044390 0.026764 0.013520 0.010005 0.018376 0.036654 0.058887 0.076441 0.080131 0.062710 0.021089 -0.042289 -0.119330 -0.197533 -0.262398 -0.300494 -0.302518 -0.265621 -0.194443 -0.100548 -0.000314 0.088312 0.149524 0.173028 0.156318 0.105346 0.033392 -0.041659 -0.101058 -0.129177 -0.116877 -0.063533 0.022722 0.126589 0.228686 0.309482 0.353225 0.351053 0.302648 0.216111 0.106139 -0.009072 -0.111490 -0.186708 -0.226443 -0.229636 -0.201951 -0.153917 -0.098170 -0.046504 -0.007380 0.015538 0.023566 0.021932 0.017793 0.017895 0.026479 0.043973 0.066785 0.088248 0.100469 0.096581 0.072854 0.030081 -0.026125 -0.086229 -0.138712 -0.172598 -0.179993 -0.158040 -0.109802 -0.043854 0.027378 0.090169 0.132390 0.146112 0.129331 0.086436 0.027299 -0.034811 -0.086045 -0.114906 -0.114675 -0.084804 -0.030997 0.036029 0.102804 0.155909 0.184703 0.183410 0.152145 0.096700 0.027176 -0.044212 -0.105653 -0.148057 -0.166676 -0.161749 -0.138061 -0.103597 -0.067600 -0.038496 -0.022122 -0.020621 -0.032191 -0.051692 -0.071940 -0.085374 -0.085729 -0.069378 -0.036101 0.010851 0.065339 0.119441 0.164814 0.194081 0.201986 0.186179 0.147528 0.089981 0.020030 -0.054095 -0.123415 -0.179235 -0.214147 -0.222919 -0.203193 -0.155927 -0.085502 0.000556 0.092280 0.178373 0.247627 0.290501 0.300616 0.275921 0.219274 0.138277 0.044297 -0.049222 -0.128910 -0.183734 -0.206941 -0.197311 -0.159410 -0.102773 -0.040105 0.015171 0.051563 0.061818 0.044424 0.003955 -0.049816 -0.103917 -0.144866 -0.161534 -0.147560 -0.102822 -0.033621 0.048480 0.128934 0.193155 0.229514 0.231746 0.200270 0.142115 0.069464 -0.002891 -0.060647 -0.093003 -0.094930 -0.068235 -0.021171 0.033319 0.080357 0.106313 0.101741 0.063459 -0.004676 -0.092430 -0.185177 -0.266763 -0.322673 -0.342830 -0.323469 -0.267717 -0.184792 -0.088015 0.007920 0.089838 0.148528 0.180263 0.187102 0.175957 0.156681 0.139606 0.133089 0.141587 0.164668 0.197142 0.230261 0.253711 0.257944 0.236360 0.186875 0.112546 0.021151 -0.076189 -0.167036 -0.239910 -0.286338 -0.302290 -0.288744 -0.251287 -0.198880 -0.142054 -0.090889 -0.053202 -0.033237 -0.031110 -0.043043 -0.062329 -0.080779 -0.090379 -0.084841 -0.060771 -0.018284 0.039017 0.104646 0.170281 0.227068 0.266948 0.283806 0.274302 0.238279 0.178734 0.101409 0.014059 -0.074464 -0.155206 -0.220076 -0.262678 -0.278945 -0.267521 -0.229870 -0.170102 -0.094530 -0.011012 0.071874 0.145732 0.203235 0.238896 0.249634 0.235065 0.197481 0.141525 0.073597 0.001084 -0.068492 -0.128292 -0.172842 -0.198510 -0.203725 -0.188948 -0.156424 -0.109777 -0.053527 0.007408 0.068157 0.124253 0.171891 0.208087 0.230766 0.238792 0.231976 0.211046 0.177611 0.134074 0.083496 0.029407 -0.024461 -0.074485 -0.117484 -0.151035 -0.173722 -0.185277 -0.186583 -0.179526 -0.166714 -0.151097 -0.135532 -0.122378 -0.113158 -0.108353 -0.107365 -0.108632 -0.109908 -0.108638 -0.102394 -0.089292 -0.068336 -0.039640 -0.004489 0.034762 0.074952 0.112484 0.143779 0.165732 0.176126 0.173938 0.159509 0.134540 0.101930 0.065454 0.029341 -0.002216 -0.025546 -0.037932 
hipp_sf_0002_CA2 -0.105108 -0.070208 -0.006865 0.073251 0.155487 0.224994 0.269501 0.281546 0.259721 0.208715 0.138151 0.060505 -0.011482 -0.067344 -0.100872 -0.111150 -0.102444 -0.083007 -0.063059 -0.052393 -0.058108 -0.082956 -0.124643 -0.176222 -0.227501 -0.267154 -0.285098 -0.274654 -0.234017 -0.166760 -0.081258 0.010854 0.096854 0.165323 0.208244 0.222420 0.209918 0.177478 0.135019 0.093560 0.062981 0.050070 0.057250 0.082205 0.118476 0.156865 0.187348 0.201110 0.192272 0.159001 0.103780 0.032839 -0.045121 -0.120610 -0.185089 -0.232406 -0.259660 -0.267348 -0.258812 -0.239146 -0.213851 -0.187539 -0.162985 -0.140727 -0.119289 -0.095931 -0.067752 -0.032847 0.008767 0.054692 0.100290 0.139421 0.165614 0.173446 0.159794 0.124701 0.071630 0.007032 -0.060701 -0.122700 -0.171200 -0.200915 -0.209928 -0.199900 -0.175572 -0.143655 -0.111366 -0.084900 -0.068185 -0.062166 -0.064763 -0.071510 -0.076698 -0.074784 -0.061724 -0.035956 0.001214 0.045881 0.092401 0.134660 0.167438 0.187570 0.194642 0.191056 0.181463 0.171692 0.167423 0.172901 0.189985 0.217745 0.252667 0.289429 0.322016 0.344942 0.354253 0.348100 0.326768 0.292173 0.247011 0.193799 0.134112 0.068256 -0.004499 -0.085147 -0.173813 -0.268580 -0.364619 -0.453942 -0.525993 -0.569070 -0.572403 -0.528498 -0.435274 -0.297482 -0.127016 0.058084 0.235879 0.383712 0.481780 0.516454 0.482705 0.385155 0.237501 0.060388 -0.121907 -0.285385 -0.410105 -0.483158 -0.500300 -0.465999 -0.391950 -0.294411 -0.190938 -0.097176 -0.024333 0.022230 0.043100 0.043708 0.032373 0.017995 0.007954 0.006665 0.015053 0.030991 0.050469 0.069134 0.083737 0.093078 0.098207 0.101822 0.107063 0.116053 0.128636 0.141716 0.149484 0.144554 0.119828 0.070669 -0.003160 -0.096308 -0.197809 -0.292361 -0.362784 -0.393219 -0.372451 -0.296644 -0.170865 -0.008969 0.168216 0.336174 0.470845 0.552877 0.571125 0.524724 0.423272 0.285077 0.133777 -0.006020 -0.113231 -0.174059 -0.184304 -0.149770 -0.084742 -0.008837 0.057112 0.095319 0.094616 0.052637 -0.023786 -0.120050 -0.216735 -0.293476 -0.332982 -0.324440 -0.265658 -0.163577 -0.033074 0.105669 0.230732 0.322286 0.365999 0.355425 0.292996 0.189483 0.062070 -0.068604 -0.181888 -0.260499 -0.293261 -0.276814 -0.216022 -0.123077 -0.015456 0.086936 0.164973 0.203376 0.193180 0.133227 0.030450 -0.101091 -0.242283 -0.371842 -0.469558 -0.519403 -0.512002 -0.446065 -0.328542 -0.173449 0.000433 0.172593 0.324057 0.440265 0.513082 0.541551 0.531281 0.492608 0.437928 0.378765 0.323219 0.274352 0.229877 0.183251 0.125934 0.050308 -0.047410 -0.165009 -0.293429 -0.417557 -0.518632 -0.577833 -0.580358 -0.519116 -0.397166 -0.228285 -0.035377 0.153096 0.308056 0.405189 0.429680 0.379320 0.265263 0.110211 -0.055716 -0.200655 -0.297121 -0.327362 -0.286863 -0.185275 -0.044559 0.105307 0.232205 0.308165 0.314832 0.247012 0.113639 -0.064003 -0.256385 -0.431317 -0.559866 -0.621451 -0.607154 -0.520704 -0.377056 -0.199005 -0.012627 0.157474 0.292166 0.380323 0.419552 0.415183 0.377951 0.321041 0.257219 0.196666 0.145875 0.107664 0.082068 0.067670 0.062866 0.066659 0.078748 0.098957 0.126271 0.157893 0.188745 0.211739 0.218892 0.203101 0.160160 0.090470 -0.000115 -0.100673 -0.196906 -0.273891 -0.319327 -0.326505 -0.296264 -0.237322 -0.164767 -0.096889 -0.050987 -0.039054 -0.064382 -0.119957 -0.189191 -0.249008 -0.274745 -0.245905 -0.151496 0.006285 0.210958 0.433688 0.638014 0.786532 0.848217 0.804874 0.655333 0.416449 0.120586 -0.189961 -0.470539 -0.682182 -0.798508 -0.810085 -0.725402 -0.568325 -0.372633 -0.174850 -0.006931 0.109672 0.167345 0.172455 0.142419 0.100488 0.069530 0.066278 0.097346 0.157891 0.233136 0.302312 0.344028 0.341727 0.287946 0.186351 0.051103 -0.096266 -0.231706 -0.334037 -0.389604 -0.395091 -0.357847 -0.293692 -0.222761 -0.164416 -0.132481 -0.131956 -0.158001 -0.197437 -0.232372 -0.245057 -0.222756 -0.161421 -0.067215 0.044517 0.152649 0.235253 0.274975 0.263515 0.204085 0.111202 0.007790 -0.079809 -0.127789 -0.120434 -0.053974 0.062178 0.207159 0.352990 0.470586 0.536088 
hipp_sf_0003_DG -0.006213 -0.028822 -0.071809 -0.130643 -0.198479 -0.266336 -0.323684 -0.359512 -0.363881 -0.329774 -0.254921 -0.143182 -0.005081 0.142836 0.279907 0.384390 0.437192 0.425658 0.346678 0.208388 0.029978 -0.160593 -0.330759 -0.448766 -0.489433 -0.439187 -0.299344 -0.086883 0.167608 0.424618 0.642311 0.783879 0.824332 0.755395 0.587513 0.348478 0.078804 -0.175378 -0.370627 -0.474174 -0.470036 -0.362079 -0.173378 0.058051 0.286377 0.466603 0.563074 0.556209 0.446129 0.252493 0.010542 -0.235851 -0.442760 -0.574714 -0.611458 -0.551629 -0.412643 -0.226838 -0.034689 0.123520 0.215875 0.225193 0.152306 0.015633 -0.152854 -0.314393 -0.431523 -0.475839 -0.433832 -0.309644 -0.124199 0.089043 0.290836 0.443977 0.520635 0.507703 0.409142 0.244918 0.046821 -0.147909 -0.303834 -0.393961 -0.404510 -0.336927 -0.206884 -0.040601 0.130632 0.276570 0.373494 0.408058 0.378842 0.295515 0.175966 0.042189 -0.084140 -0.185450 -0.250744 -0.276407 -0.265414 -0.225380 -0.166056 -0.096985 -0.025845 0.042206 0.104199 0.158340 0.202763 0.234596 0.249710 0.243324 0.211368 0.152205 0.068204 -0.033400 -0.140748 -0.238857 -0.312184 -0.347766 -0.338237 -0.283983 -0.193833 -0.083962 0.024905 0.111512 0.158512 0.156390 0.105964 0.018829 -0.084467 -0.178261 -0.236916 -0.240237 -0.178047 -0.052935 0.119463 0.312796 0.494534 0.631882 0.697896 0.676625 0.566256 0.379648 0.142165 -0.112749 -0.349387 -0.535834 -0.649146 -0.678686 -0.627112 -0.508944 -0.347150 -0.168543 0.001055 0.140926 0.238133 0.288400 0.295255 0.267821 0.217935 0.157296 0.095302 0.037942 -0.012150 -0.054702 -0.090324 -0.119062 -0.139479 -0.148564 -0.142513 -0.118151 -0.074570 -0.014470 0.055295 0.124218 0.179742 0.209691 0.205009 0.162195 0.084810 -0.016391 -0.124859 -0.221012 -0.285866 -0.304817 -0.270806 -0.186159 -0.062655 0.080244 0.218757 0.329086 0.391858 0.395821 0.340067 0.234320 0.097218 -0.047097 -0.173432 -0.260199 -0.293364 -0.268976 -0.193782 -0.083831 0.038630 0.149400 0.226870 0.256049 0.231315 0.157395 0.048428 -0.074711 -0.188325 -0.270319 -0.304361 -0.283013 -0.209291 -0.096376 0.034496 0.157611 0.247233 0.282197 0.249871 0.148800 -0.010427 -0.206293 -0.409329 -0.586540 -0.706604 -0.745048 -0.688549 -0.537645 -0.307333 -0.025386 0.271457 0.542884 0.751182 0.867202 0.875145 0.775312 0.584317 0.332636 0.059823 -0.191841 -0.384239 -0.489667 -0.495348 -0.405409 -0.239939 -0.031268 0.181881 0.361324 0.476186 0.508256 0.454967 0.329438 0.157617 -0.026935 -0.189588 -0.301251 -0.343776 -0.313122 -0.219687 -0.085808 0.059057 0.184443 0.265054 0.285757 0.244382 0.151830 0.029470 -0.095567 -0.196207 -0.251149 -0.249294 -0.191987 -0.092633 0.026189 0.137490 0.215497 0.240974 0.205136 0.111387 -0.025444 -0.182145 -0.331784 -0.448982 -0.514721 -0.519709 -0.465684 -0.364460 -0.235020 -0.099338 0.022132 0.114360 0.170226 0.191165 0.185920 0.167786 0.151040 0.147370 0.163114 0.197879 0.244780 0.292194 0.326546 0.335491 0.310740 0.249928 0.157153 0.042109 -0.081919 -0.200711 -0.301791 -0.376556 -0.421409 -0.437722 -0.430728 -0.407679 -0.375763 -0.340298 -0.303629 -0.264956 -0.221069 -0.167773 -0.101586 -0.021262 0.071263 0.170734 0.269296 0.357877 0.427894 0.472851 0.489467 0.478050 0.442072 0.387084 0.319280 0.244110 0.165330 0.084738 0.002677 -0.080843 -0.164741 -0.245592 -0.316953 -0.369565 -0.392571 -0.375572 -0.311175 -0.197445 -0.039701 0.148875 0.348103 0.533160 0.678100 0.759982 0.762853 0.680835 0.519694 0.296531 0.037592 -0.225473 -0.460271 -0.638436 -0.739700 -0.754589 -0.685311 -0.544795 -0.354108 -0.138813 0.075035 0.264554 0.412758 0.509968 0.553845 0.548212 0.501098 0.422477 0.322246 0.208785 0.088331 -0.034868 -0.157828 -0.277835 -0.391570 -0.494625 -0.581596 -0.646727 -0.684975 -0.693174 -0.671021 -0.621559 -0.551014 -0.467953 -0.381904 -0.301712 -0.233973 -0.181873 -0.144687 -0.118054 -0.094986 -0.067399 -0.027885 0.028644 0.103733 0.194840 0.295539 0.396425 0.486560 0.555165 0.593294 0.595195 0.559184 0.487913 0.388051 0.269463 0.144050 0.024405 -0.077516 -0.151604 -0.190558 
hipp_sf_0004_CA3 -0.012711 0.016326 0.065977 0.121480 0.165415 0.182098 0.161655 0.102781 0.013506 -0.090254 -0.188082 -0.259623 -0.289298 -0.270080 -0.205426 -0.108896 -0.001461 0.092935 0.152607 0.163006 0.120145 0.031789 -0.083903 -0.202041 -0.296206 -0.344098 -0.332414 -0.259902 -0.137914 0.011691 0.160869 0.281054 0.348980 0.351459 0.288127 0.171590 0.024967 -0.122667 -0.241974 -0.309041 -0.309908 -0.243066 -0.119477 0.039800 0.207849 0.357069 0.464234 0.514455 0.503312 0.436860 0.329640 0.201243 0.072221 -0.039772 -0.122837 -0.172181 -0.189829 -0.182922 -0.161120 -0.133800 -0.107722 -0.085697 -0.066501 -0.045975 -0.018963 0.018459 0.067078 0.123473 0.180103 0.226577 0.251848 0.246839 0.206891 0.133426 0.034388 -0.076717 -0.183076 -0.267702 -0.316826 -0.322848 -0.286214 -0.215767 -0.127435 -0.041432 0.021520 0.044267 0.016782 -0.061484 -0.180973 -0.323282 -0.464146 -0.577631 -0.640779 -0.637843 -0.563329 -0.423240 -0.234265 -0.021039 0.188051 0.365757 0.490643 0.550683 0.545116 0.484196 0.386914 0.277112 0.178754 0.111277 0.085921 0.103751 0.155783 0.225140 0.290845 0.332436 0.334484 0.290059 0.202425 0.084580 -0.043288 -0.157928 -0.237897 -0.268151 -0.243404 -0.169493 -0.062438 0.054674 0.156360 0.220034 0.230815 0.184828 0.090280 -0.033975 -0.162125 -0.266624 -0.323888 -0.319291 -0.250404 -0.127785 0.026876 0.184910 0.316272 0.395463 0.406543 0.346214 0.224346 0.061851 -0.113632 -0.273309 -0.392892 -0.457173 -0.462555 -0.417080 -0.337989 -0.247426 -0.167255 -0.114156 -0.096083 -0.110827 -0.146980 -0.187020 -0.211792 -0.205331 -0.158922 -0.073462 0.040407 0.164430 0.276650 0.356215 0.387996 0.365974 0.294656 0.188188 0.067389 -0.044618 -0.127223 -0.166505 -0.157865 -0.106579 -0.026184 0.064861 0.147466 0.206129 0.232130 0.225011 0.192033 0.145826 0.100832 0.069438 0.058757 0.068829 0.092693 0.118296 0.131771 0.121284 0.080479 0.010674 -0.078798 -0.172232 -0.250852 -0.297049 -0.298566 -0.251657 -0.162444 -0.046091 0.076072 0.180899 0.248308 0.265614 0.230345 0.150888 0.044799 -0.064903 -0.154652 -0.205409 -0.206794 -0.159372 -0.074581 0.027672 0.123244 0.188910 0.207330 0.170768 0.082784 -0.042444 -0.183013 -0.313756 -0.411329 -0.458847 -0.449116 -0.385824 -0.282503 -0.159531 -0.039866 0.055573 0.111916 0.122949 0.091847 0.029980 -0.045853 -0.117114 -0.167309 -0.185075 -0.165998 -0.112850 -0.034333 0.057281 0.149029 0.229970 0.293167 0.336546 0.362533 0.376672 0.385590 0.394873 0.407335 0.422088 0.434597 0.437679 0.423181 0.383949 0.315647 0.218031 0.095446 -0.043560 -0.187358 -0.322889 -0.437479 -0.520522 -0.564748 -0.566942 -0.528062 -0.452863 -0.349152 -0.226857 -0.097057 0.028939 0.140416 0.227992 0.284296 0.304595 0.287334 0.234523 0.151858 0.048444 -0.063940 -0.172057 -0.262820 -0.325086 -0.351376 -0.339196 -0.291684 -0.217396 -0.129161 -0.042145 0.028611 0.070780 0.076994 0.046346 -0.015176 -0.095452 -0.178114 -0.245259 -0.280562 -0.272233 -0.215320 -0.112911 0.024003 0.178019 0.327962 0.452255 0.532463 0.556414 0.520374 0.429867 0.298988 0.148271 0.001448 -0.118393 -0.192624 -0.210220 -0.169695 -0.079483 0.043359 0.175911 0.293204 0.372448 0.396958 0.359094 0.261687 0.117665 -0.052088 -0.222288 -0.367624 -0.467166 -0.508001 -0.487439 -0.413339 -0.302485 -0.177281 -0.061387 0.024893 0.068572 0.066491 0.025889 -0.037150 -0.101077 -0.143459 -0.145848 -0.097972 -0.000366 0.135133 0.287177 0.428715 0.532080 0.574397 0.542242 0.434595 0.263505 0.052269 -0.168537 -0.366428 -0.512750 -0.587691 -0.583598 -0.505986 -0.372094 -0.207294 -0.040133 0.103013 0.202604 0.249043 0.243673 0.197574 0.128512 0.056744 0.000618 -0.027130 -0.021644 0.013603 0.068167 0.127405 0.175969 0.201231 0.195907 0.159336 0.097249 0.020154 -0.059207 -0.128686 -0.179215 -0.206382 -0.210837 -0.197507 -0.173901 -0.147993 -0.126218 -0.112057 -0.105550 -0.103751 -0.101988 -0.095514 -0.081096 -0.058108 -0.028843 0.002051 0.028834 0.046301 0.051343 0.043995 0.027687 0.008604 -0.005724 -0.008255 0.005748 0.037376 0.083560 0.137533 0.190176 0.231968 0.255071 
hipp_sf_0005_HEAD NaN NaN NaN NaN NaN NaN NaN NaN NaN NaN NaN NaN NaN NaN NaN NaN NaN NaN NaN NaN NaN NaN NaN NaN NaN NaN NaN NaN NaN NaN NaN NaN NaN NaN NaN NaN NaN NaN NaN NaN NaN NaN NaN NaN NaN NaN NaN NaN NaN NaN NaN NaN NaN NaN NaN NaN NaN NaN NaN NaN NaN NaN NaN NaN NaN NaN NaN NaN NaN NaN NaN NaN NaN NaN NaN NaN NaN NaN NaN NaN NaN NaN NaN NaN NaN NaN NaN NaN NaN NaN NaN NaN NaN NaN NaN NaN NaN NaN NaN NaN NaN NaN NaN NaN NaN NaN NaN NaN NaN NaN NaN NaN NaN NaN NaN NaN NaN NaN NaN NaN NaN NaN NaN NaN NaN NaN NaN NaN NaN NaN NaN NaN NaN NaN NaN NaN NaN NaN NaN NaN NaN NaN NaN NaN NaN NaN NaN NaN NaN NaN NaN NaN NaN NaN NaN NaN NaN NaN NaN NaN NaN NaN NaN NaN NaN NaN NaN NaN NaN NaN NaN NaN NaN NaN NaN NaN NaN NaN NaN NaN NaN NaN NaN NaN NaN NaN NaN NaN NaN NaN NaN NaN NaN NaN NaN NaN NaN NaN NaN NaN NaN NaN NaN NaN NaN NaN NaN NaN NaN NaN NaN NaN NaN NaN NaN NaN NaN NaN NaN NaN NaN NaN NaN NaN NaN NaN NaN NaN NaN NaN NaN NaN NaN NaN NaN NaN NaN NaN NaN NaN NaN NaN NaN NaN NaN NaN NaN NaN NaN NaN NaN NaN NaN NaN NaN NaN NaN NaN NaN NaN NaN NaN NaN NaN NaN NaN NaN NaN NaN NaN NaN NaN NaN NaN NaN NaN NaN NaN NaN NaN NaN NaN NaN NaN NaN NaN NaN NaN NaN NaN NaN NaN NaN NaN NaN NaN NaN NaN NaN NaN NaN NaN NaN NaN NaN NaN NaN NaN NaN NaN NaN NaN NaN NaN NaN NaN NaN NaN NaN NaN NaN NaN NaN NaN NaN NaN NaN NaN NaN NaN NaN NaN NaN NaN NaN NaN NaN NaN NaN NaN NaN NaN NaN NaN NaN NaN NaN NaN NaN NaN NaN NaN NaN NaN NaN NaN NaN NaN NaN NaN NaN NaN NaN NaN NaN NaN NaN NaN NaN NaN NaN NaN NaN NaN NaN NaN NaN NaN NaN NaN NaN NaN NaN NaN NaN NaN NaN NaN NaN NaN NaN NaN NaN NaN NaN NaN NaN NaN NaN NaN NaN NaN NaN NaN NaN NaN NaN NaN NaN NaN NaN NaN NaN NaN NaN NaN NaN NaN NaN NaN 
hipp_sf_0006_TAIL 0.231594 0.213690 0.179740 0.133332 0.079505 0.024343 -0.025562 -0.063774 -0.084772 -0.084749 -0.062367 -0.019371 0.039100 0.104612 0.166075 0.210953 0.226981 0.204224 0.137181 0.026547 -0.119755 -0.286615 -0.453063 -0.594839 -0.687962 -0.712752 -0.657648 -0.522057 -0.317584 -0.067234 0.197481 0.441184 0.630299 0.738751 0.752636 0.672894 0.515394 0.308282 0.087009 -0.112067 -0.258302 -0.332292 -0.329197 -0.259174 -0.144797 -0.015996 0.096441 0.167442 0.182896 0.142450 0.059252 -0.043308 -0.137141 -0.196056 -0.201953 -0.149211 -0.046283 0.085897 0.218352 0.320395 0.366434 0.341740 0.245885 0.093065 -0.090782 -0.273416 -0.423090 -0.515184 -0.537218 -0.491116 -0.392279 -0.265704 -0.140072 -0.041198 0.013671 0.019396 -0.016435 -0.075906 -0.135565 -0.172430 -0.169767 -0.121247 -0.032516 0.080191 0.194025 0.285114 0.334413 0.332376 0.281326 0.194945 0.094983 0.006017 -0.050516 -0.061521 -0.025432 0.047417 0.137352 0.220247 0.273572 0.282139 0.242127 0.162385 0.062630 -0.031084 -0.092579 -0.102019 -0.051063 0.054524 0.195485 0.342832 0.463933 0.529574 0.520376 0.431131 0.272056 0.066683 -0.153109 -0.353783 -0.507038 -0.595343 -0.614903 -0.575464 -0.497097 -0.404817 -0.322361 -0.266635 -0.244127 -0.250070 -0.270484 -0.286478 -0.279690 -0.237461 -0.156432 -0.043682 0.084884 0.208436 0.306424 0.363744 0.374537 0.343630 0.285244 0.219264 0.166003 0.140800 0.149829 0.188256 0.241260 0.287760 0.305969 0.279410 0.201880 0.080042 -0.067126 -0.212036 -0.324591 -0.379295 -0.361696 -0.272562 -0.128683 0.040045 0.196730 0.305494 0.339594 0.287782 0.157381 -0.026733 -0.227130 -0.401787 -0.513285 -0.537196 -0.467766 -0.319554 -0.124596 0.074359 0.233095 0.315652 0.302378 0.194534 0.014396 -0.199195 -0.398895 -0.538810 -0.584204 -0.518871 -0.348631 -0.100219 0.184133 0.455241 0.666777 0.784280 0.791512 0.692920 0.511831 0.284937 0.054358 -0.140925 -0.272463 -0.327061 -0.308021 -0.232845 -0.128148 -0.023061 0.057337 0.097128 0.092189 0.049973 -0.013307 -0.077238 -0.122355 -0.134660 -0.108529 -0.047478 0.037202 0.129468 0.212338 0.271577 0.298388 0.290614 0.252316 0.192033 0.120295 0.047106 -0.019967 -0.076689 -0.121947 -0.156670 -0.182336 -0.199619 -0.207653 -0.204170 -0.186485 -0.153021 -0.104871 -0.046859 0.012357 0.061318 0.087838 0.081694 0.037311 -0.044235 -0.154457 -0.278243 -0.396142 -0.487732 -0.535411 -0.527800 -0.462023 -0.344369 -0.189181 -0.016198 0.153064 0.299140 0.407839 0.472231 0.493045 0.477486 0.436859 0.383597 0.328417 0.278247 0.235353 0.197766 0.160802 0.119212 0.069358 0.010818 -0.052964 -0.115177 -0.167126 -0.200328 -0.208684 -0.190178 -0.147681 -0.088665 -0.023869 0.034748 0.076318 0.093124 0.081961 0.044550 -0.013038 -0.081739 -0.151311 -0.212161 -0.256816 -0.280782 -0.282711 -0.263963 -0.227803 -0.178505 -0.120613 -0.058515 0.003658 0.061914 0.112255 0.150701 0.173619 0.178365 0.164121 0.132685 0.088937 0.040717 -0.002005 -0.028638 -0.029925 0.000028 0.062097 0.151283 0.256915 0.363982 0.455419 0.514929 0.529832 0.493352 0.405919 0.275205 0.114906 -0.057463 -0.223332 -0.365834 -0.472061 -0.534459 -0.551175 -0.525467 -0.464413 -0.377312 -0.274160 -0.164485 -0.056701 0.042067 0.125850 0.189636 0.229339 0.242051 0.226581 0.184092 0.118612 0.037120 -0.050974 -0.134995 -0.204659 -0.251896 -0.272412 -0.266558 -0.239229 -0.198716 -0.154699 -0.115845 -0.087564 -0.070552 -0.060528 -0.049365 -0.027407 0.013531 0.077220 0.160932 0.254852 0.343326 0.407824 0.431066 0.401402 0.316408 0.184725 0.025519 -0.134520 -0.266194 -0.343817 -0.350961 -0.284584 -0.156510 0.008260 0.176207 0.312057 0.386248 0.381489 0.296906 0.148760 -0.032549 -0.208661 -0.341360 -0.400873 -0.372520 -0.260232 -0.086055 0.114310 0.299039 0.429169 0.477069 0.432523 0.305041 0.121852 -0.078016 -0.252278 -0.364683 -0.392978 -0.333774 -0.203215 -0.033310 0.135272 0.262312 0.317019 0.284868 0.170776 -0.002085 -0.197519 -0.374392 -0.495708 -0.536635 -0.489669 -0.365832 -0.191682 -0.002921 0.163896 0.279572 0.328522 0.311639 0.245178 0.156001 0.074387 0.026181 
hipp_sf_0007_MISC 0.078731 0.084255 0.094417 0.107524 0.121241 0.132831 0.139475 0.138626 0.128382 0.107789 0.077048 0.037552 -0.008247 -0.057156 -0.105656 -0.150370 -0.188459 -0.217883 -0.237463 -0.246758 -0.245791 -0.234743 -0.213707 -0.182624 -0.141441 -0.090487 -0.030982 0.034479 0.101627 0.164573 0.216309 0.249636 0.258400 0.238823 0.190615 0.117615 0.027713 -0.068007 -0.156839 -0.226490 -0.267212 -0.273604 -0.245696 -0.189051 -0.113805 -0.032806 0.040819 0.096173 0.126666 0.131213 0.114292 0.084834 0.054166 0.033449 0.031152 0.051119 0.091653 0.145822 0.202924 0.250786 0.278399 0.278306 0.248200 0.191414 0.116170 0.033803 -0.043653 -0.105949 -0.146612 -0.164019 -0.161305 -0.145196 -0.124043 -0.105585 -0.094970 -0.093539 -0.098664 -0.104666 -0.104596 -0.092398 -0.064923 -0.023245 0.027078 0.076924 0.115517 0.132915 0.122485 0.082768 0.018253 -0.061169 -0.141992 -0.209777 -0.252122 -0.261278 -0.235795 -0.180829 -0.107023 -0.028194 0.041640 0.091242 0.114463 0.111354 0.087855 0.054126 0.021944 0.001767 0.000163 0.018215 0.051271 0.090104 0.123198 0.139629 0.131855 0.097745 0.041362 -0.027701 -0.096296 -0.150562 -0.178996 -0.175042 -0.138614 -0.076204 0.000444 0.076803 0.138606 0.174790 0.179696 0.154054 0.104571 0.042271 -0.020011 -0.070378 -0.100242 -0.105802 -0.088351 -0.053422 -0.009044 0.036392 0.076118 0.106334 0.126610 0.139302 0.148200 0.156822 0.166862 0.177252 0.184128 0.181749 0.164148 0.127095 0.069832 -0.003917 -0.086005 -0.165064 -0.228653 -0.265886 -0.269944 -0.239859 -0.181098 -0.104762 -0.025487 0.041507 0.083589 0.093416 0.070514 0.021387 -0.041926 -0.104531 -0.152015 -0.173696 -0.165053 -0.128768 -0.074133 -0.014946 0.033663 0.058751 0.052642 0.014875 -0.047453 -0.121025 -0.189065 -0.234916 -0.245663 -0.215014 -0.144804 -0.044798 0.069163 0.178287 0.264547 0.314200 0.320399 0.284338 0.214759 0.125951 0.034702 -0.043111 -0.095584 -0.116873 -0.107922 -0.075727 -0.031396 0.012554 0.045019 0.058660 0.051300 0.026120 -0.009333 -0.045030 -0.070811 -0.078657 -0.064426 -0.028690 0.023423 0.083330 0.140735 0.185641 0.210217 0.210169 0.185379 0.139775 0.080482 0.016497 -0.042857 -0.089407 -0.117320 -0.123829 -0.109466 -0.077811 -0.034836 0.012008 0.054853 0.086497 0.101382 0.096381 0.071307 0.029061 -0.024626 -0.081875 -0.133726 -0.171484 -0.188173 -0.179854 -0.146581 -0.092738 -0.026643 0.040625 0.097030 0.131742 0.137276 0.111176 0.056874 -0.016531 -0.095628 -0.164986 -0.210021 -0.219890 -0.189832 -0.122466 -0.027715 0.078707 0.178004 0.251738 0.285341 0.271011 0.209405 0.109769 -0.011571 -0.134080 -0.236732 -0.301839 -0.318291 -0.283553 -0.204067 -0.093983 0.027507 0.139706 0.224127 0.267683 0.264768 0.217883 0.136759 0.036226 -0.066713 -0.155980 -0.219118 -0.249091 -0.244928 -0.211196 -0.156512 -0.091479 -0.026518 0.029977 0.072820 0.100411 0.114325 0.118326 0.117067 0.114829 0.114549 0.117320 0.122412 0.127722 0.130507 0.128179 0.118974 0.102362 0.079133 0.051195 0.021162 -0.008128 -0.034072 -0.054634 -0.068509 -0.075146 -0.074669 -0.067741 -0.055441 -0.039166 -0.020565 -0.001454 0.016286 0.030890 0.040933 0.045580 0.044794 0.039429 0.031146 0.022138 0.014684 0.010613 0.010800 0.014817 0.020853 0.025961 0.026598 0.019396 0.001973 -0.026363 -0.064211 -0.108074 -0.152788 -0.192319 -0.220773 -0.233420 -0.227520 -0.202786 -0.161400 -0.107589 -0.046869 0.014859 0.072169 0.120759 0.157762 0.181720 0.192289 0.189811 0.174922 0.148334 0.110863 0.063694 0.008771 -0.050837 -0.110772 -0.165577 -0.209255 -0.236165 -0.242077 -0.225144 -0.186529 -0.130510 -0.063937 0.004886 0.067689 0.117807 0.151461 0.168440 0.172010 0.168005 0.163296 0.163970 0.173633 0.192270 0.215957 0.237567 0.248340 0.240002 0.206968 0.148085 0.067490 -0.025700 -0.118855 -0.198207 -0.251639 -0.271290 -0.255370 -0.208757 -0.142182 -0.070128 -0.007864 0.031759 0.041068 0.019238 -0.027489 -0.087138 -0.144602 -0.184967 -0.196834 -0.174897 -0.121201 -0.044787 0.040219 0.117654 0.172842 0.195811 0.183485 0.140354 0.077475 0.010011 -0.046144 -0.077903 
hipp_sf_0008_SUB 0.090474 0.063445 0.014610 -0.046618 -0.108482 -0.159164 -0.189037 -0.192435 -0.168601 -0.121655 -0.059638 0.007149 0.068120 0.114300 0.139764 0.142381 0.123788 0.088674 0.043620 -0.004230 -0.048360 -0.083721 -0.107117 -0.117158 -0.113914 -0.098452 -0.072440 -0.037938 0.002605 0.046191 0.089128 0.127035 0.155129 0.168855 0.164756 0.141434 0.100333 0.046091 -0.013726 -0.069576 -0.111489 -0.130936 -0.122673 -0.086125 -0.025980 0.048241 0.123618 0.186077 0.223022 0.225848 0.191805 0.124806 0.034957 -0.063125 -0.152929 -0.219078 -0.250191 -0.240995 -0.193277 -0.115478 -0.021035 0.074206 0.154946 0.209199 0.230299 0.217801 0.177127 0.118111 0.052780 -0.007123 -0.052362 -0.077731 -0.082623 -0.070604 -0.048167 -0.023005 -0.002222 0.009125 0.008854 -0.002245 -0.021000 -0.042906 -0.063344 -0.078646 -0.086765 -0.087434 -0.081837 -0.071940 -0.059726 -0.046555 -0.032849 -0.018184 -0.001725 0.017132 0.038138 0.059805 0.079409 0.093433 0.098361 0.091628 0.072486 0.042517 0.005630 -0.032519 -0.065591 -0.087886 -0.095630 -0.087898 -0.066959 -0.037896 -0.007591 0.016740 0.029127 0.026179 0.007866 -0.022458 -0.058785 -0.093795 -0.120495 -0.133775 -0.131511 -0.114972 -0.088410 -0.057949 -0.030033 -0.009811 0.000156 0.000529 -0.004984 -0.010592 -0.009942 0.002150 0.028202 0.067158 0.114319 0.162169 0.201914 0.225415 0.227054 0.205121 0.162362 0.105565 0.044235 -0.011345 -0.052252 -0.072771 -0.071560 -0.051836 -0.020574 0.013124 0.040117 0.053284 0.049111 0.028426 -0.003855 -0.039929 -0.070957 -0.089143 -0.089563 -0.071333 -0.037836 0.004020 0.045352 0.077298 0.092996 0.089105 0.066516 0.030105 -0.012413 -0.052250 -0.081538 -0.095072 -0.091423 -0.073165 -0.046178 -0.018188 0.003107 0.011895 0.005667 -0.014140 -0.042415 -0.071494 -0.092891 -0.099240 -0.086019 -0.052666 -0.002850 0.056173 0.114962 0.163767 0.194451 0.202066 0.185749 0.148766 0.097717 0.041091 -0.012500 -0.056019 -0.085292 -0.099609 -0.101543 -0.096063 -0.089157 -0.086285 -0.091009 -0.104112 -0.123373 -0.144055 -0.159981 -0.164969 -0.154299 -0.125914 -0.081093 -0.024444 0.036771 0.093861 0.138249 0.163014 0.164177 0.141459 0.098401 0.041812 -0.019334 -0.075366 -0.117472 -0.139101 -0.136956 -0.111443 -0.066507 -0.008909 0.052918 0.110238 0.155375 0.182839 0.190061 0.177617 0.148927 0.109509 0.065924 0.024595 -0.009271 -0.032501 -0.044350 -0.046431 -0.042193 -0.036054 -0.032372 -0.034433 -0.043681 -0.059323 -0.078414 -0.096403 -0.108039 -0.108481 -0.094370 -0.064662 -0.021038 0.032205 0.088784 0.141459 0.183296 0.208894 0.215361 0.202831 0.174425 0.135648 0.093351 0.054446 0.024631 0.007368 0.003306 0.010255 0.023705 0.037771 0.046375 0.044428 0.028790 -0.001173 -0.043504 -0.094049 -0.147210 -0.196895 -0.237480 -0.264605 -0.275679 -0.270046 -0.248838 -0.214583 -0.170709 -0.121038 -0.069369 -0.019212 0.026364 0.064776 0.093952 0.112374 0.119191 0.114375 0.098880 0.074746 0.045050 0.013682 -0.015083 -0.037159 -0.049288 -0.049606 -0.038023 -0.016309 0.012144 0.042864 0.071054 0.092407 0.103827 0.103906 0.093086 0.073452 0.048248 0.021215 -0.004090 -0.024843 -0.039272 -0.046692 -0.047297 -0.041798 -0.031036 -0.015714 0.003684 0.026747 0.052811 0.080586 0.107858 0.131429 0.147368 0.151591 0.140686 0.112807 0.068423 0.010726 -0.054479 -0.119435 -0.175574 -0.214961 -0.231731 -0.223251 -0.190713 -0.139030 -0.075994 -0.010864 0.047342 0.091503 0.117646 0.125514 0.118331 0.101809 0.082636 0.066763 0.057920 0.056692 0.060398 0.063823 0.060648 0.045263 0.014544 -0.030851 -0.085996 -0.142205 -0.188484 -0.213661 -0.208786 -0.169272 -0.096326 0.002695 0.115114 0.224860 0.315129 0.371303 0.383557 0.348646 0.270541 0.159769 0.031612 -0.096509 -0.207951 -0.289534 -0.333496 -0.338417 -0.308974 -0.254646 -0.187687 -0.120775 -0.064799 -0.027184 -0.011005 -0.014984 -0.034265 -0.061745 -0.089636 -0.110939 -0.120573 -0.115977 -0.097180 -0.066391 -0.027298 0.015749 0.058480 0.097245 0.129301 0.152864 0.166994 0.171422 0.166387 0.152558 0.131034 0.103393 0.071735 0.038652 0.007077 -0.019980 -0.039787 -0.050255 
hipp_sf_0009_ERC 0.051007 0.044944 0.033626 0.018535 0.001574 -0.015230 -0.030015 -0.041304 -0.048128 -0.050023 -0.046961 -0.039222 -0.027286 -0.011787 0.006462 0.026367 0.046433 0.064676 0.078645 0.085600 0.082863 0.068310 0.040917 0.001252 -0.048228 -0.103170 -0.157692 -0.205089 -0.238813 -0.253565 -0.246281 -0.216833 -0.168254 -0.106414 -0.039160 0.024951 0.078107 0.114606 0.131868 0.130862 0.115860 0.093534 0.071559 0.057001 0.054800 0.066691 0.090777 0.121868 0.152545 0.174724 0.181422 0.168338 0.134923 0.084686 0.024661 -0.035874 -0.087176 -0.120955 -0.132020 -0.119314 -0.086121 -0.039385 0.011705 0.057581 0.090206 0.104638 0.099916 0.079088 0.048401 0.015828 -0.010720 -0.025112 -0.024263 -0.008684 0.017781 0.048953 0.077793 0.098006 0.105401 0.098684 0.079542 0.051998 0.021245 -0.007750 -0.031487 -0.048728 -0.060607 -0.070059 -0.080691 -0.095426 -0.115265 -0.138551 -0.160968 -0.176337 -0.178076 -0.160999 -0.123010 -0.066255 0.002619 0.073266 0.133397 0.171193 0.177862 0.149772 0.089652 0.006527 -0.085691 -0.170712 -0.233012 -0.260955 -0.249233 -0.200058 -0.122841 -0.032353 0.054261 0.120998 0.156310 0.155496 0.121636 0.064863 0.000100 -0.056244 -0.089921 -0.092022 -0.060998 -0.003055 0.069165 0.139349 0.191113 0.211661 0.194687 0.141877 0.062666 -0.027702 -0.111391 -0.171783 -0.197020 -0.182534 -0.131991 -0.056458 0.028012 0.103845 0.155691 0.173620 0.155084 0.105225 0.035498 -0.039057 -0.103258 -0.145141 -0.158488 -0.143958 -0.108590 -0.063830 -0.022553 0.004189 0.009935 -0.005562 -0.036242 -0.071194 -0.097327 -0.102627 -0.079242 -0.025644 0.052635 0.143911 0.232703 0.303033 0.341926 0.342306 0.304644 0.236945 0.153065 0.069717 0.002823 -0.035995 -0.041978 -0.018290 0.024687 0.071668 0.105916 0.113050 0.084406 0.019200 -0.074977 -0.183453 -0.287293 -0.367044 -0.406645 -0.396662 -0.336226 -0.233262 -0.103013 0.034822 0.159723 0.254022 0.305889 0.311081 0.273180 0.202366 0.113064 0.021003 -0.059688 -0.118788 -0.151299 -0.157619 -0.142663 -0.114250 -0.081169 -0.051368 -0.030622 -0.021890 -0.025351 -0.039013 -0.059601 -0.083466 -0.107274 -0.128334 -0.144581 -0.154315 -0.155892 -0.147557 -0.127548 -0.094513 -0.048141 0.010166 0.076834 0.146056 0.210286 0.261267 0.291442 0.295484 0.271579 0.222171 0.153907 0.076726 0.002216 -0.058488 -0.096824 -0.108521 -0.094520 -0.060872 -0.017602 0.023278 0.050198 0.054426 0.031937 -0.015646 -0.081241 -0.153596 -0.219425 -0.265975 -0.283486 -0.267079 -0.217682 -0.141840 -0.050458 0.043250 0.126175 0.187624 0.221064 0.225009 0.202914 0.162145 0.112316 0.063323 0.023520 -0.001639 -0.010259 -0.003881 0.013296 0.035638 0.057441 0.074126 0.083036 0.083695 0.077547 0.067278 0.055940 0.046089 0.039161 0.035205 0.033018 0.030613 0.025885 0.017302 0.004428 -0.011831 -0.029324 -0.045072 -0.055899 -0.059135 -0.053231 -0.038155 -0.015480 0.011845 0.039999 0.064950 0.083154 0.092144 0.090911 0.080008 0.061368 0.037887 0.012854 -0.010669 -0.030396 -0.045209 -0.055325 -0.062213 -0.068281 -0.076380 -0.089212 -0.108731 -0.135636 -0.169060 -0.206490 -0.243975 -0.276594 -0.299135 -0.306897 -0.296478 -0.266438 -0.217706 -0.153630 -0.079659 -0.002664 0.070015 0.131622 0.177000 0.203353 0.210636 0.201481 0.180655 0.154160 0.128110 0.107623 0.095912 0.093783 0.099616 0.109836 0.119795 0.124856 0.121476 0.108045 0.085308 0.056281 0.025660 -0.001135 -0.019099 -0.024720 -0.016765 0.003388 0.031938 0.063335 0.091301 0.109975 0.114966 0.104095 0.077704 0.038474 -0.009164 -0.059889 -0.108424 -0.150349 -0.182633 -0.203817 -0.213851 -0.213668 -0.204661 -0.188201 -0.165335 -0.136741 -0.102919 -0.064559 -0.022925 0.019866 0.060805 0.096261 0.122518 0.136507 0.136546 0.122919 0.098126 0.066707 0.034619 0.008271 -0.006621 -0.006133 0.011045 0.043235 0.085945 0.132565 0.175478 0.207361 0.222447 0.217497 0.192321 0.149747 0.095071 0.035102 -0.022998 -0.072862 -0.109845 -0.131590 -0.138147 -0.131684 -0.115878 -0.095133 -0.073791 -0.055461 -0.042593 -0.036301 -0.036438 -0.041856 -0.050760 -0.061091 -0.070851 -0.078361 -0.082425 
hipp_sf_0010_BA35 0.096989 0.090830 0.079751 0.065960 0.052145 0.040886 0.034096 0.032606 0.035984 0.042620 0.050046 0.055417 0.056041 0.049861 0.035790 0.013857 -0.014823 -0.048245 -0.083782 -0.118488 -0.149360 -0.173569 -0.188632 -0.192583 -0.184142 -0.162921 -0.129632 -0.086260 -0.036130 0.016215 0.065365 0.105639 0.131865 0.140241 0.129104 0.099434 0.054970 0.001829 -0.052334 -0.099507 -0.132655 -0.146931 -0.140532 -0.115004 -0.074911 -0.026927 0.021484 0.063518 0.094314 0.111783 0.116818 0.112826 0.104707 0.097502 0.095053 0.098966 0.108152 0.119062 0.126557 0.125240 0.110915 0.081832 0.039401 -0.011814 -0.064862 -0.111767 -0.145199 -0.160077 -0.154720 -0.131283 -0.095344 -0.054724 -0.017792 0.008373 0.019536 0.015235 -0.001157 -0.023238 -0.043095 -0.053180 -0.048127 -0.026089 0.010719 0.056393 0.102556 0.140155 0.161421 0.161572 0.139856 0.099729 0.048108 -0.006104 -0.053904 -0.088040 -0.104433 -0.102864 -0.086779 -0.062300 -0.036686 -0.016612 -0.006675 -0.008458 -0.020355 -0.038171 -0.056323 -0.069337 -0.073275 -0.066735 -0.051205 -0.030684 -0.010671 0.003216 0.006664 -0.002216 -0.022331 -0.049751 -0.078511 -0.101874 -0.113779 -0.110134 -0.089674 -0.054212 -0.008252 0.041919 0.089448 0.128151 0.153512 0.163269 0.157496 0.138257 0.108955 0.073590 0.036101 -0.000049 -0.032034 -0.057586 -0.074824 -0.082110 -0.078079 -0.061871 -0.033543 0.005461 0.051975 0.101074 0.146466 0.181329 0.199489 0.196707 0.171801 0.127285 0.069322 0.006900 -0.049680 -0.090736 -0.109181 -0.102107 -0.071600 -0.024571 0.028446 0.075311 0.104717 0.108565 0.083741 0.032911 -0.035880 -0.110730 -0.178245 -0.226241 -0.246217 -0.235072 -0.195694 -0.136288 -0.068601 -0.005431 0.042044 0.066536 0.066010 0.043890 0.008056 -0.031106 -0.063142 -0.079918 -0.077395 -0.056430 -0.022413 0.016127 0.049620 0.069762 0.071481 0.054133 0.021637 -0.018448 -0.056692 -0.083972 -0.093581 -0.082751 -0.053276 -0.011082 0.035128 0.075848 0.102883 0.111152 0.099747 0.072049 0.034885 -0.003068 -0.033239 -0.049045 -0.047280 -0.028702 0.002270 0.038661 0.072576 0.096971 0.107170 0.101803 0.082971 0.055646 0.026469 0.002235 -0.011583 -0.011961 0.001129 0.024826 0.054088 0.082792 0.104988 0.116024 0.113330 0.096743 0.068354 0.031977 -0.007622 -0.045544 -0.077467 -0.100164 -0.111764 -0.111812 -0.101155 -0.081760 -0.056480 -0.028821 -0.002664 0.018054 0.029761 0.029737 0.016628 -0.009105 -0.044934 -0.086322 -0.127171 -0.160643 -0.180273 -0.181180 -0.161134 -0.121249 -0.066078 -0.003054 0.058690 0.109920 0.143025 0.153503 0.140891 0.108920 0.064812 0.017872 -0.022392 -0.048181 -0.054987 -0.042469 -0.014447 0.021992 0.058083 0.085302 0.097206 0.090776 0.066965 0.030356 -0.011984 -0.052170 -0.083291 -0.100901 -0.103875 -0.094428 -0.077338 -0.058558 -0.043594 -0.036045 -0.036685 -0.043300 -0.051335 -0.055168 -0.049704 -0.031858 -0.001558 0.038004 0.080974 0.120128 0.148579 0.161455 0.157132 0.137712 0.108581 0.077158 0.051101 0.036413 0.035913 0.048449 0.069085 0.090232 0.103484 0.101724 0.080997 0.041694 -0.011267 -0.069337 -0.122121 -0.159670 -0.174733 -0.164459 -0.131138 -0.081782 -0.026642 0.023023 0.057413 0.070316 0.060432 0.031562 -0.008364 -0.049188 -0.080921 -0.096064 -0.091320 -0.068299 -0.033071 0.005334 0.037100 0.053968 0.051184 0.028619 -0.009215 -0.054221 -0.096586 -0.127019 -0.138817 -0.129276 -0.100153 -0.057078 -0.008102 0.038241 0.074872 0.097643 0.105986 0.102632 0.092491 0.081021 0.072536 0.068905 0.068993 0.068997 0.063605 0.047662 0.017912 -0.025655 -0.079231 -0.135584 -0.185373 -0.219081 -0.229137 -0.211697 -0.167657 -0.102635 -0.025892 0.051547 0.119150 0.168983 0.197157 0.204302 0.194953 0.176039 0.154856 0.137061 0.125206 0.118182 0.111737 0.099933 0.077165 0.040202 -0.010304 -0.069281 -0.127895 -0.175294 -0.201085 -0.197938 -0.163701 -0.102447 -0.024137 0.057113 0.125828 0.168439 0.176284 0.147649 0.088336 0.010587 -0.069438 -0.135102 -0.172897 -0.175395 -0.142882 -0.083286 -0.010389 0.059259 0.110068 0.130906 0.117586 0.073775 0.010103 -0.058312 -0.115360 -0.147664 
hipp_sf_0011_BA36 0.048757 0.040248 0.025012 0.006229 -0.012217 -0.026565 -0.033973 -0.033085 -0.024274 -0.009498 0.008179 0.025269 0.038598 0.045932 0.046340 0.040258 0.029244 0.015512 0.001390 -0.011191 -0.021019 -0.027706 -0.031566 -0.033324 -0.033772 -0.033489 -0.032692 -0.031288 -0.029073 -0.026021 -0.022548 -0.019634 -0.018736 -0.021478 -0.029172 -0.042283 -0.059997 -0.080031 -0.098780 -0.111835 -0.114784 -0.104158 -0.078310 -0.038020 0.013343 0.070175 0.125483 0.172064 0.203801 0.216800 0.210133 0.186017 0.149377 0.106888 0.065674 0.031953 0.009890 0.000913 0.003608 0.014205 0.027530 0.038194 0.041759 0.035622 0.019438 -0.004979 -0.034230 -0.064205 -0.091037 -0.111901 -0.125475 -0.131968 -0.132754 -0.129718 -0.124530 -0.118055 -0.110055 -0.099296 -0.084019 -0.062657 -0.034592 -0.000740 0.036222 0.072096 0.101840 0.120564 0.124609 0.112472 0.085332 0.047041 0.003534 -0.038209 -0.071468 -0.091047 -0.094247 -0.081320 -0.055311 -0.021343 0.014506 0.046461 0.070171 0.083440 0.086419 0.081254 0.071291 0.060061 0.050310 0.043317 0.038677 0.034576 0.028500 0.018159 0.002380 -0.018275 -0.041368 -0.062965 -0.078494 -0.083856 -0.076551 -0.056513 -0.026434 0.008535 0.041672 0.066000 0.075735 0.067563 0.041445 0.000765 -0.048214 -0.097504 -0.138887 -0.165449 -0.172828 -0.159928 -0.128955 -0.084808 -0.033984 0.016745 0.061581 0.096610 0.120200 0.132855 0.136602 0.134129 0.127905 0.119530 0.109465 0.097194 0.081746 0.062398 0.039331 0.014033 -0.010708 -0.031247 -0.043879 -0.045794 -0.035939 -0.015548 0.011831 0.040859 0.065411 0.079827 0.080153 0.065056 0.036202 -0.002024 -0.043407 -0.081214 -0.109633 -0.125001 -0.126557 -0.116502 -0.099383 -0.080917 -0.066544 -0.060046 -0.062576 -0.072327 -0.084941 -0.094571 -0.095352 -0.082932 -0.055709 -0.015451 0.032860 0.081930 0.123646 0.150790 0.158613 0.145895 0.115248 0.072575 0.025818 -0.016739 -0.048223 -0.064585 -0.065357 -0.053582 -0.034949 -0.016330 -0.004069 -0.002430 -0.012550 -0.032153 -0.056081 -0.077524 -0.089651 -0.087267 -0.068114 -0.033506 0.011844 0.060761 0.105110 0.137500 0.152828 0.149300 0.128724 0.096023 0.058089 0.022258 -0.005241 -0.020523 -0.022687 -0.013763 0.002005 0.019340 0.033261 0.040265 0.039060 0.030711 0.018175 0.005382 -0.003901 -0.007124 -0.003658 0.005026 0.015740 0.024423 0.027223 0.021542 0.006781 -0.015422 -0.041509 -0.066813 -0.086652 -0.097456 -0.097629 -0.087933 -0.071304 -0.052129 -0.035158 -0.024319 -0.021720 -0.027102 -0.037867 -0.049698 -0.057633 -0.057329 -0.046234 -0.024353 0.005565 0.038496 0.068167 0.088433 0.094675 0.084919 0.060403 0.025457 -0.013294 -0.048245 -0.072360 -0.080629 -0.071119 -0.045395 -0.008223 0.033368 0.071489 0.098931 0.110549 0.104206 0.081094 0.045401 0.003419 -0.037713 -0.071351 -0.092503 -0.098603 -0.089764 -0.068516 -0.039135 -0.006722 0.023744 0.048208 0.064052 0.070272 0.067349 0.056886 0.041152 0.022638 0.003713 -0.013576 -0.027579 -0.037039 -0.041069 -0.039169 -0.031307 -0.018039 -0.000617 0.018974 0.038138 0.053956 0.063640 0.065080 0.057373 0.041194 0.018910 -0.005656 -0.027789 -0.042714 -0.046532 -0.037090 -0.014579 0.018283 0.056551 0.093812 0.123282 0.139030 0.137103 0.116318 0.078563 0.028524 -0.027097 -0.080753 -0.125362 -0.155528 -0.168422 -0.164172 -0.145691 -0.117997 -0.087166 -0.059137 -0.038602 -0.028191 -0.028095 -0.036189 -0.048584 -0.060505 -0.067296 -0.065347 -0.052789 -0.029824 0.001342 0.036927 0.072257 0.102577 0.123817 0.133212 0.129658 0.113788 0.087782 0.054962 0.019268 -0.015293 -0.045151 -0.067547 -0.080771 -0.084231 -0.078379 -0.064537 -0.044633 -0.020923 0.004293 0.028915 0.051226 0.069993 0.084491 0.094438 0.099876 0.101009 0.098043 0.091065 0.079990 0.064605 0.044707 0.020307 -0.008130 -0.039483 -0.071862 -0.102644 -0.128680 -0.146666 -0.153631 -0.147466 -0.127391 -0.094269 -0.050673 -0.000692 0.050541 0.097513 0.135093 0.159270 0.167714 0.160099 0.138092 0.105047 0.065442 0.024174 -0.014159 -0.045873 -0.068605 -0.081466 -0.084946 -0.080605 -0.070659 -0.057540 -0.043520 -0.030464 -0.019730 -0.012186 -0.008312 
hipp_sf_0012_PHC 0.118399 0.136862 0.169944 0.210612 0.249847 0.278203 0.287450 0.272038 0.230121 0.163954 0.079583 -0.014122 -0.106953 -0.189080 -0.252704 -0.293331 -0.310413 -0.307219 -0.289962 -0.266330 -0.243730 -0.227599 -0.220155 -0.219871 -0.221818 -0.218831 -0.203285 -0.169100 -0.113537 -0.038376 0.049847 0.140646 0.221326 0.279354 0.304863 0.292785 0.244124 0.166073 0.070899 -0.026218 -0.109973 -0.167787 -0.192139 -0.181885 -0.142288 -0.083753 -0.019525 0.037140 0.075749 0.090675 0.082167 0.056051 0.022220 -0.007742 -0.023257 -0.017169 0.012649 0.062847 0.125361 0.189221 0.242931 0.276899 0.285358 0.267359 0.226667 0.170617 0.108273 0.048342 -0.002614 -0.041274 -0.067706 -0.084609 -0.095878 -0.104944 -0.113375 -0.120133 -0.121753 -0.113414 -0.090640 -0.051177 0.003487 0.067445 0.130816 0.181331 0.206792 0.197863 0.150566 0.067827 -0.040351 -0.158267 -0.267237 -0.349144 -0.390077 -0.383262 -0.330630 -0.242598 -0.136092 -0.031153 0.053144 0.102597 0.110753 0.080126 0.021461 -0.048795 -0.112260 -0.152811 -0.160249 -0.132634 -0.076740 -0.006538 0.059987 0.104961 0.114799 0.083479 0.014200 -0.080981 -0.183442 -0.271755 -0.326092 -0.332336 -0.285027 -0.188534 -0.056217 0.092203 0.234474 0.350039 0.423754 0.448378 0.425373 0.363956 0.278718 0.186398 0.102555 0.038862 0.001509 -0.009037 0.002970 0.030403 0.065426 0.101383 0.133980 0.161524 0.184287 0.203282 0.218903 0.229901 0.233058 0.223713 0.197036 0.149713 0.081555 -0.003457 -0.097088 -0.187868 -0.263088 -0.311371 -0.325248 -0.303103 -0.249968 -0.176904 -0.098998 -0.032354 0.009285 0.017557 -0.008579 -0.062446 -0.130952 -0.197365 -0.244977 -0.260882 -0.239015 -0.181763 -0.099747 -0.009771 0.068657 0.117512 0.124251 0.084751 0.004541 -0.101971 -0.214148 -0.309123 -0.366323 -0.371593 -0.320075 -0.217254 -0.077972 0.076369 0.221832 0.336385 0.403849 0.416613 0.376623 0.294524 0.187216 0.074384 -0.025254 -0.097226 -0.133517 -0.133338 -0.102437 -0.051222 0.007822 0.062817 0.104710 0.128619 0.134121 0.124529 0.105464 0.083100 0.062563 0.046808 0.036235 0.029031 0.022118 0.012384 -0.002114 -0.021321 -0.042910 -0.062660 -0.075371 -0.076113 -0.061504 -0.030739 0.013887 0.067081 0.121270 0.167808 0.198444 0.206789 0.189500 0.146988 0.083527 0.006742 -0.073434 -0.146177 -0.201348 -0.231001 -0.230617 -0.199874 -0.142854 -0.067629 0.014738 0.091674 0.150881 0.182199 0.179279 0.140812 0.071069 -0.020371 -0.119772 -0.211145 -0.278682 -0.309367 -0.295330 -0.235534 -0.136439 -0.011446 0.120881 0.239594 0.324731 0.360718 0.339220 0.260895 0.135701 -0.018368 -0.177968 -0.318085 -0.416098 -0.455545 -0.428916 -0.338992 -0.198480 -0.028007 0.147183 0.301258 0.411862 0.463527 0.449882 0.374332 0.249143 0.093170 -0.071336 -0.222261 -0.340914 -0.414520 -0.437607 -0.412129 -0.346432 -0.253327 -0.147680 -0.043947 0.045933 0.114002 0.156937 0.175881 0.175591 0.163098 0.146165 0.131802 0.125060 0.128275 0.140830 0.159440 0.178875 0.192995 0.195928 0.183194 0.152617 0.104869 0.043542 -0.025263 -0.093795 -0.153836 -0.198015 -0.221028 -0.220554 -0.197664 -0.156641 -0.104197 -0.048235 0.003641 0.045555 0.074446 0.090561 0.097214 0.099852 0.104575 0.116438 0.137896 0.167776 0.201036 0.229449 0.243123 0.232598 0.191085 0.116388 0.012048 -0.112580 -0.243433 -0.363850 -0.457353 -0.510535 -0.515523 -0.471480 -0.384856 -0.268300 -0.138435 -0.012941 0.092504 0.166793 0.205017 0.208821 0.185492 0.146018 0.102551 0.065852 0.043243 0.037469 0.046670 0.065373 0.086228 0.102023 0.107508 0.100581 0.082618 0.057881 0.032238 0.011512 -0.000072 -0.000968 0.007364 0.020945 0.034437 0.042672 0.042115 0.031899 0.014122 -0.006665 -0.024677 -0.034516 -0.032761 -0.019127 0.003149 0.027833 0.047034 0.053084 0.040499 0.007557 -0.042919 -0.103807 -0.164934 -0.215107 -0.244461 -0.246611 -0.220120 -0.168921 -0.101585 -0.029593 0.035036 0.082209 0.105793 0.104751 0.083148 0.049045 0.012534 -0.016604 -0.031091 -0.027682 -0.007711 0.023456 0.057905 0.087212 0.104535 0.106261 0.092816 0.068446 0.040070 0.015462 0.001258 
