13 420
hipp_sf_0000_BG 0.094473 0.083522 0.062950 0.035245 0.003734 -0.027847 -0.055824 -0.077049 -0.089279 -0.091437 -0.083708 -0.067468 -0.045050 -0.019397 0.006357 0.029326 0.047241 0.058727 0.063431 0.061995 0.055886 0.047097 0.037797 0.029958 0.025033 0.023740 0.025968 0.030830 0.036848 0.042234 0.045216 0.044368 0.038863 0.028638 0.014412 -0.002413 -0.019980 -0.036270 -0.049426 -0.058046 -0.061397 -0.059513 -0.053169 -0.043726 -0.032886 -0.022396 -0.013759 -0.007994 -0.005504 -0.006053 -0.008875 -0.012876 -0.016891 -0.019956 -0.021518 -0.021559 -0.020583 -0.019493 -0.019353 -0.021095 -0.025234 -0.031647 -0.039475 -0.047181 -0.052770 -0.054139 -0.049493 -0.037769 -0.018959 0.005719 0.033872 0.062192 0.086917 0.104417 0.111794 0.107420 0.091272 0.065031 0.031890 -0.003905 -0.037694 -0.065143 -0.082930 -0.089277 -0.084222 -0.069573 -0.048571 -0.025292 -0.003924 0.011974 0.020084 0.019705 0.011829 -0.001090 -0.015640 -0.028115 -0.035222 -0.034704 -0.025753 -0.009159 0.012850 0.037008 0.059607 0.077147 0.086930 0.087503 0.078862 0.062399 0.040622 0.016694 -0.006099 -0.024867 -0.037530 -0.043062 -0.041538 -0.034009 -0.022219 -0.008262 0.005782 0.018159 0.027645 0.033653 0.036201 0.035812 0.033336 0.029764 0.026047 0.022952 0.020966 0.020258 0.020676 0.021802 0.023022 0.023631 0.022947 0.020437 0.015823 0.009176 0.000962 -0.007972 -0.016481 -0.023278 -0.027138 -0.027140 -0.022884 -0.014655 -0.003475 0.008964 0.020515 0.028890 0.032047 0.028566 0.017951 0.000787 -0.021287 -0.045798 -0.069813 -0.090413 -0.105170 -0.112539 -0.112089 -0.104523 -0.091481 -0.075176 -0.057941 -0.041768 -0.027964 -0.016969 -0.008401 -0.001290 0.005554 0.013109 0.021791 0.031233 0.040294 0.047270 0.050295 0.047823 0.039089 0.024427 0.005372 -0.015510 -0.035029 -0.049946 -0.057605 -0.056468 -0.046458 -0.029010 -0.006820 0.016662 0.037902 0.053959 0.063040 0.064811 0.060390 0.052037 0.042595 0.034825 0.030764 0.031263 0.035803 0.042626 0.049171 0.052687 0.050914 0.042662 0.028158 0.009079 -0.011738 -0.030856 -0.044942 -0.051468 -0.049249 -0.038707 -0.021802 -0.001638 0.018168 0.034208 0.043965 0.046278 0.041527 0.031479 0.018846 0.006657 -0.002415 -0.006625 -0.005504 0.000093 0.008235 0.016408 0.022117 0.023483 0.019678 0.011112 -0.000663 -0.013323 -0.024314 -0.031457 -0.033461 -0.030252 -0.023016 -0.013972 -0.005899 -0.001536 -0.002970 -0.011151 -0.025634 -0.044598 -0.065153 -0.083848 -0.097305 -0.102836 -0.098929 -0.085510 -0.063949 -0.036793 -0.007319 0.021033 0.045220 0.063045 0.073434 0.076492 0.073346 0.065828 0.056063 0.046047 0.037306 0.030674 0.026240 0.023448 0.021323 0.018765 0.014853 0.009094 0.001568 -0.007053 -0.015614 -0.022696 -0.026906 -0.027171 -0.022999 -0.014641 -0.003128 0.009833 0.022095 0.031412 0.035818 0.033993 0.025540 0.011125 -0.007564 -0.028042 -0.047409 -0.062832 -0.072045 -0.073781 -0.068037 -0.056132 -0.040511 -0.024338 -0.010928 -0.003126 -0.002745 -0.010186 -0.024309 -0.042596 -0.061588 -0.077513 -0.086989 -0.087662 -0.078649 -0.060691 -0.035994 -0.007763 0.020442 0.045423 0.064962 0.078209 0.085760 0.089402 0.091583 0.094728 0.100558 0.109570 0.120817 0.132030 0.140091 0.141745 0.134398 0.116834 0.089656 0.055361 0.017997 -0.017535 -0.046403 -0.064792 -0.070687 -0.064306 -0.048094 -0.026259 -0.003948 0.013768 0.022894 0.021290 0.009052 -0.011567 -0.036671 -0.061569 -0.081755 -0.093813 -0.096051 -0.088751 -0.073969 -0.054969 -0.035431 -0.018604 -0.006634 -0.000179 0.001576 0.000549 -0.000875 -0.000571 0.002690 0.008867 0.016624 0.023675 0.027401 0.025599 0.017160 0.002509 -0.016331 -0.036068 -0.052823 -0.062999 -0.064146 -0.055606 -0.038788 -0.016973 0.005312 0.023240 0.032729 0.031377 0.019051 -0.001994 -0.027516 -0.052122 -0.070378 -0.077943 -0.072484 -0.054192 -0.025756 0.008169 0.041897 0.069850 0.087643 0.092896 0.085601 0.067986 0.043922 0.018015 -0.005390 -0.023080 -0.033524 -0.036997 -0.035267 -0.030953 -0.026717 -0.024496 -0.024970 -0.027395 -0.029825 -0.029681 -0.024499 -0.012687 0.005924 0.029851 0.056151 0.080959 0.100287 0.110868 
hipp_sf_0001_CA1 -0.028295 -0.011456 0.018402 0.054426 0.088138 0.111182 0.117053 0.102457 0.068022 0.018228 -0.039436 -0.095909 -0.142295 -0.171544 -0.179741 -0.166752 -0.136093 -0.094073 -0.048404 -0.006564 0.025733 0.045637 0.053614 0.053153 0.049814 0.049808 0.058449 0.078800 0.110817 0.151206 0.194011 0.231836 0.257451 0.265423 0.253426 0.222922 0.179046 0.129669 0.083814 0.049723 0.032968 0.035013 0.052543 0.077764 0.099655 0.105989 0.085767 0.031604 -0.058387 -0.179623 -0.321203 -0.467232 -0.599122 -0.698495 -0.750193 -0.744854 -0.680613 -0.563580 -0.407018 -0.229355 -0.051342 0.107112 0.229914 0.307036 0.335683 0.320203 0.270799 0.201323 0.126591 0.059744 0.010122 -0.017940 -0.025244 -0.016798 -0.000075 0.017132 0.028787 0.032167 0.028560 0.022953 0.022767 0.035922 0.068634 0.123441 0.197903 0.284301 0.370457 0.441587 0.482857 0.482197 0.432805 0.334882 0.196194 0.031329 -0.140277 -0.297234 -0.419521 -0.491674 -0.505282 -0.460352 -0.365321 -0.235703 -0.091616 0.045390 0.155675 0.224466 0.243962 0.214285 0.143165 0.044472 -0.064134 -0.163999 -0.238292 -0.274399 -0.265564 -0.211613 -0.118696 0.001812 0.135047 0.264733 0.375308 0.453821 0.491384 0.484058 0.433106 0.344633 0.228694 0.097995 -0.033670 -0.153063 -0.249048 -0.313867 -0.343988 -0.340405 -0.308344 -0.256376 -0.195050 -0.135231 -0.086383 -0.055077 -0.043980 -0.051522 -0.072313 -0.098277 -0.120301 -0.130100 -0.121960 -0.093979 -0.048569 0.007925 0.066441 0.117012 0.150828 0.162111 0.149395 0.115926 0.069049 0.018701 -0.024708 -0.052557 -0.059949 -0.046842 -0.018131 0.017421 0.049162 0.067060 0.064166 0.038473 -0.006296 -0.061213 -0.113928 -0.151389 -0.162916 -0.142960 -0.092878 -0.021269 0.057323 0.125150 0.164952 0.163846 0.116570 0.027350 -0.090130 -0.214741 -0.321638 -0.386997 -0.392860 -0.331076 -0.205502 -0.031930 0.164343 0.352888 0.503676 0.592671 0.606404 0.544582 0.420182 0.256986 0.085010 -0.065288 -0.168871 -0.210893 -0.189434 -0.115658 -0.011362 0.095576 0.176926 0.209861 0.181599 0.091995 -0.046380 -0.210678 -0.372197 -0.501880 -0.575791 -0.579499 -0.510537 -0.378548 -0.203150 -0.010069 0.173662 0.324425 0.425778 0.470580 0.461198 0.407927 0.326101 0.232611 0.142616 0.067101 0.011715 -0.023040 -0.040490 -0.045812 -0.044012 -0.038382 -0.029836 -0.017246 0.001398 0.027384 0.059746 0.094316 0.123713 0.138394 0.128589 0.086731 0.009786 -0.099077 -0.229976 -0.367180 -0.491290 -0.582377 -0.623476 -0.603758 -0.520724 -0.380977 -0.199386 0.003195 0.203218 0.378103 0.509580 0.586111 0.603991 0.567032 0.485011 0.371310 0.240308 0.105079 -0.024173 -0.140709 -0.240930 -0.323366 -0.387396 -0.432127 -0.455793 -0.455856 -0.429790 -0.376299 -0.296607 -0.195376 -0.080935 0.035396 0.140828 0.223204 0.273260 0.286530 0.264440 0.214296 0.148100 0.080388 0.025524 -0.005025 -0.004841 0.026299 0.082524 0.153184 0.225082 0.285146 0.322952 0.332579 0.313436 0.269917 0.210040 0.143418 0.079077 0.023614 -0.019873 -0.051895 -0.075743 -0.095989 -0.116753 -0.140203 -0.165707 -0.189859 -0.207403 -0.212802 -0.202047 -0.174211 -0.132300 -0.083109 -0.036047 -0.001134 0.013385 0.003245 -0.030364 -0.080471 -0.135316 -0.180533 -0.202100 -0.189455 -0.138084 -0.050992 0.061337 0.182538 0.293262 0.374806 0.412736 0.399764 0.337260 0.235086 0.109761 -0.018666 -0.130396 -0.209530 -0.246875 -0.241328 -0.199618 -0.134513 -0.061918 0.002473 0.046248 0.062437 0.050348 0.014987 -0.034710 -0.088347 -0.136605 -0.173236 -0.196048 -0.206694 -0.209381 -0.208890 -0.208484 -0.208314 -0.204796 -0.191230 -0.159569 -0.102953 -0.018406 0.091033 0.215367 0.338298 0.439543 0.498473 0.498417 0.430761 0.297916 0.114418 -0.094258 -0.295148 -0.453021 -0.536502 -0.523985 -0.408220 -0.198624 0.079203 0.386824 0.678662 0.909145 1.040074 1.046943 0.923119 0.681139 0.350903 -0.024929 -0.397548 -0.719484 -0.951725 -1.069293 -1.064421 -0.946878 -0.741524 -0.483592 -0.212608 0.033989 0.226465 0.346742 0.390148 0.364802 0.288906 0.186552 0.082864 -0.000613 -0.049491 -0.058510 -0.031623 0.019678 0.079416 0.130900 0.160469 
hipp_sf_0002_CA2 0.566952 0.536946 0.479363 0.398851 0.301862 0.196061 0.089587 -0.009759 -0.095324 -0.162311 -0.208271 -0.233306 -0.239920 -0.232520 -0.216629 -0.197929 -0.181291 -0.169967 -0.165090 -0.165593 -0.168560 -0.169953 -0.165572 -0.152050 -0.127683 -0.092909 -0.050326 -0.004251 0.040119 0.077743 0.104755 0.119241 0.121586 0.114305 0.101383 0.087265 0.075711 0.068792 0.066271 0.065529 0.062112 0.050797 0.026988 -0.011866 -0.065135 -0.128461 -0.193945 -0.251141 -0.288694 -0.296382 -0.267178 -0.198940 -0.095402 0.033783 0.174010 0.307568 0.416114 0.483363 0.497574 0.453426 0.352982 0.205583 0.026710 -0.164010 -0.345353 -0.497191 -0.602982 -0.651694 -0.638953 -0.567299 -0.445593 -0.287685 -0.110588 0.067605 0.229800 0.361732 0.453378 0.499818 0.501484 0.463796 0.396240 0.310984 0.221197 0.139247 0.075001 0.034459 0.018903 0.024740 0.044099 0.066151 0.078995 0.071853 0.037229 -0.027351 -0.118348 -0.226221 -0.336523 -0.431983 -0.495297 -0.512168 -0.474092 -0.380366 -0.238895 -0.065585 0.117679 0.286182 0.416186 0.488752 0.492925 0.427706 0.302437 0.135484 -0.048574 -0.222809 -0.362202 -0.447568 -0.468489 -0.424754 -0.326083 -0.190214 -0.039708 0.101936 0.214175 0.282649 0.301216 0.272492 0.206868 0.120254 0.031008 -0.043377 -0.089227 -0.098803 -0.071267 -0.012393 0.066812 0.152285 0.229438 0.285585 0.311878 0.304468 0.264784 0.198957 0.116579 0.029059 -0.052146 -0.117141 -0.158843 -0.173752 -0.162193 -0.128074 -0.078227 -0.021446 0.032657 0.074879 0.097611 0.095882 0.068144 0.016696 -0.052345 -0.129585 -0.203416 -0.261511 -0.292606 -0.288337 -0.244830 -0.163763 -0.052661 0.075731 0.204978 0.317222 0.395864 0.428240 0.407806 0.335442 0.219581 0.075081 -0.079018 -0.222484 -0.337151 -0.409843 -0.434442 -0.412728 -0.353809 -0.272260 -0.185300 -0.109553 -0.057982 -0.037594 -0.048329 -0.083322 -0.130487 -0.175069 -0.202667 -0.202129 -0.167754 -0.100394 -0.007267 0.099438 0.204865 0.294209 0.355326 0.380701 0.368463 0.322266 0.250172 0.162789 0.071134 -0.015346 -0.090177 -0.150448 -0.196515 -0.230982 -0.257246 -0.277983 -0.293974 -0.303540 -0.302712 -0.286119 -0.248347 -0.185477 -0.096428 0.016207 0.146031 0.283461 0.416980 0.534784 0.626478 0.684525 0.705170 0.688699 0.639045 0.562857 0.468264 0.363594 0.256284 0.152159 0.055145 -0.032618 -0.110374 -0.178219 -0.236597 -0.285926 -0.326422 -0.358088 -0.380805 -0.394437 -0.398882 -0.394024 -0.379632 -0.355249 -0.320192 -0.273716 -0.215388 -0.145626 -0.066279 0.018920 0.104208 0.182112 0.244270 0.282697 0.291296 0.267299 0.212318 0.132672 0.038834 -0.056049 -0.138333 -0.196393 -0.222970 -0.216824 -0.183273 -0.133399 -0.081959 -0.044363 -0.033264 -0.055485 -0.109980 -0.187331 -0.271043 -0.340485 -0.374991 -0.358327 -0.282620 -0.150878 0.022526 0.213645 0.392820 0.529945 0.600169 0.588910 0.495161 0.332340 0.126421 -0.088397 -0.275726 -0.403608 -0.450470 -0.409244 -0.288844 -0.112682 0.085527 0.267873 0.399140 0.453157 0.417447 0.295310 0.105031 -0.123584 -0.354608 -0.552252 -0.686804 -0.739151 -0.703163 -0.585638 -0.404023 -0.182551 0.052321 0.276216 0.470062 0.621762 0.726189 0.783805 0.798467 0.775130 0.718108 0.630319 0.513658 0.370278 0.204311 0.023391 -0.160591 -0.331923 -0.472789 -0.566018 -0.598335 -0.563367 -0.463687 -0.311317 -0.126437 0.065558 0.238165 0.368230 0.439882 0.447126 0.394548 0.296002 0.171530 0.043205 -0.069235 -0.152037 -0.199593 -0.214701 -0.206923 -0.189488 -0.175478 -0.174239 -0.188851 -0.215288 -0.243457 -0.259899 -0.251512 -0.209403 -0.131944 -0.026237 0.092443 0.203197 0.283582 0.314369 0.283953 0.191431 0.047622 -0.126284 -0.302252 -0.450451 -0.544830 -0.568108 -0.515163 -0.394134 -0.224997 -0.035895 0.142045 0.280388 0.358463 0.366846 0.308653 0.198450 0.059085 -0.082846 -0.201983 -0.278642 -0.301893 -0.270793 -0.193647 -0.085628 0.034662 0.148904 0.242300 0.305724 0.336496 0.337773 0.316854 0.282913 0.244707 0.208783 0.178506 0.154023 0.133018 0.111986 0.087597 0.057819 0.022510 -0.016603 -0.056486 -0.093684 -0.125248 -0.149430 -0.165962 -0.175879 -0.180949 -0.182942 
hipp_sf_0003_DG 0.123134 0.142149 0.176273 0.218436 0.259738 0.291135 0.305145 0.297260 0.266788 0.216966 0.154336 0.087488 0.025437 -0.024073 -0.055990 -0.068824 -0.064808 -0.049307 -0.029603 -0.013294 -0.006634 -0.013163 -0.032883 -0.062182 -0.094506 -0.121668 -0.135510 -0.129602 -0.100616 -0.049092 0.020559 0.100825 0.182479 0.256288 0.314695 0.353108 0.370531 0.369389 0.354588 0.332014 0.306791 0.281698 0.256116 0.225765 0.183356 0.120062 0.027559 -0.099753 -0.262812 -0.456630 -0.670037 -0.886534 -1.086175 -1.248218 -1.354103 -1.390268 -1.350335 -1.236286 -1.058421 -0.834114 -0.585546 -0.336784 -0.110655 0.074118 0.205095 0.277344 0.293569 0.263201 0.200627 0.122894 0.047219 -0.011301 -0.041505 -0.037271 0.002171 0.072705 0.166420 0.273145 0.382122 0.483598 0.570056 0.636929 0.682724 0.708542 0.717143 0.711747 0.694828 0.667176 0.627447 0.572361 0.497546 0.398922 0.274371 0.125327 -0.042082 -0.216687 -0.382962 -0.522757 -0.617917 -0.653388 -0.620279 -0.518259 -0.356741 -0.154481 0.062541 0.264733 0.423480 0.515959 0.529299 0.463286 0.330995 0.157104 -0.025931 -0.183273 -0.283744 -0.305439 -0.239860 -0.093767 0.111653 0.344236 0.566292 0.741117 0.839354 0.844043 0.753412 0.580916 0.352517 0.101768 -0.136359 -0.331696 -0.463981 -0.525886 -0.523460 -0.473970 -0.401677 -0.332431 -0.288234 -0.282848 -0.319318 -0.389840 -0.477918 -0.562296 -0.621771 -0.639875 -0.608414 -0.529186 -0.413531 -0.279889 -0.149900 -0.043923 0.023083 0.044456 0.022939 -0.030219 -0.097897 -0.160915 -0.202164 -0.210213 -0.181612 -0.121456 -0.042104 0.039647 0.106322 0.143666 0.143869 0.107446 0.043376 -0.032527 -0.100716 -0.141854 -0.140861 -0.090236 0.007963 0.141925 0.291716 0.432509 0.538831 0.589120 0.569763 0.477934 0.322684 0.124075 -0.089544 -0.285717 -0.432857 -0.505230 -0.487135 -0.375608 -0.181174 0.073488 0.356789 0.632888 0.867022 1.030660 1.105630 1.086550 0.981156 0.808469 0.595136 0.370586 0.161864 -0.010925 -0.137720 -0.219609 -0.267702 -0.300027 -0.337026 -0.396563 -0.489439 -0.616332 -0.766831 -0.920811 -1.051930 -1.132611 -1.139540 -1.058594 -0.888199 -0.640418 -0.339503 -0.018166 0.287744 0.545128 0.728960 0.826044 0.836516 0.772874 0.656832 0.514718 0.372415 0.250884 0.163155 0.113283 0.097324 0.105909 0.127659 0.152509 0.174109 0.190695 0.204294 0.218548 0.235839 0.254609 0.267771 0.262823 0.223913 0.135533 -0.012893 -0.222620 -0.482522 -0.768324 -1.044620 -1.269615 -1.401876 -1.407902 -1.269045 -0.986326 -0.582065 -0.097814 0.411210 0.884266 1.264388 1.507131 1.587205 1.501780 1.269965 0.928650 0.525641 0.111465 -0.268543 -0.580436 -0.805113 -0.938642 -0.989736 -0.975225 -0.914750 -0.825941 -0.721134 -0.606224 -0.481681 -0.345209 -0.195155 -0.033588 0.131879 0.288118 0.418462 0.506192 0.538682 0.511163 0.429077 0.308318 0.173135 0.051977 -0.027886 -0.045888 0.007363 0.127641 0.297265 0.487890 0.665414 0.796038 0.852297 0.817912 0.690548 0.482047 0.216180 -0.075528 -0.359040 -0.603064 -0.783427 -0.885862 -0.906928 -0.853148 -0.738807 -0.582992 -0.406543 -0.229415 -0.068750 0.062251 0.154832 0.204765 0.212278 0.181938 0.122480 0.046422 -0.030765 -0.092115 -0.121313 -0.105334 -0.037189 0.081806 0.240881 0.420257 0.593446 0.731230 0.806756 0.800830 0.706324 0.530694 0.295848 0.035186 -0.211866 -0.406861 -0.519558 -0.533913 -0.451514 -0.291667 -0.087967 0.118052 0.284952 0.379485 0.383061 0.295210 0.133296 -0.071493 -0.280996 -0.458300 -0.575503 -0.619313 -0.593218 -0.515738 -0.415172 -0.322064 -0.261150 -0.244742 -0.269188 -0.315379 -0.353369 -0.350148 -0.278875 -0.127375 0.096203 0.362168 0.623189 0.822868 0.907447 0.838310 0.602607 0.219506 -0.259602 -0.757517 -1.183462 -1.449117 -1.485524 -1.257636 -0.773551 -0.086372 0.712015 1.504483 2.167313 2.590761 2.697891 2.458279 1.894068 1.077200 0.118243 -0.851280 -1.699989 -2.317512 -2.631538 -2.618174 -2.303967 -1.759442 -1.085489 -0.395169 0.205758 0.636163 0.851778 0.850381 0.669305 0.376014 0.053712 -0.215225 -0.364895 -0.357785 -0.190864 0.105068 0.472486 0.839190 1.132943 1.295866 
hipp_sf_0004_CA3 0.084508 0.074768 0.056262 0.030783 0.000656 -0.031574 -0.063432 -0.092690 -0.117409 -0.135870 -0.146442 -0.147485 -0.137372 -0.114697 -0.078663 -0.029607 0.030476 0.097561 0.165530 0.226548 0.271910 0.293288 0.284211 0.241514 0.166450 0.065196 -0.051439 -0.169168 -0.272115 -0.345180 -0.376485 -0.359453 -0.294117 -0.187375 -0.052086 0.094884 0.235322 0.352578 0.434175 0.473623 0.471087 0.432794 0.369287 0.292923 0.215119 0.143974 0.082755 0.029628 -0.021315 -0.077935 -0.147297 -0.232941 -0.332826 -0.438516 -0.535893 -0.607407 -0.635479 -0.606414 -0.514020 -0.362109 -0.165246 0.052572 0.261228 0.429273 0.529372 0.543382 0.466060 0.306638 0.087855 -0.157457 -0.391676 -0.578631 -0.689634 -0.708176 -0.632417 -0.475000 -0.260271 -0.019479 0.215068 0.415722 0.563954 0.652693 0.686164 0.677340 0.643678 0.602126 0.564578 0.534823 0.507703 0.470691 0.407550 0.303232 0.148883 -0.054265 -0.293117 -0.543597 -0.774206 -0.951607 -1.047167 -1.043065 -0.936657 -0.742039 -0.488355 -0.215020 0.035284 0.224516 0.326507 0.332044 0.250718 0.109104 -0.054450 -0.197423 -0.281623 -0.280911 -0.186572 -0.009259 0.222919 0.469777 0.686861 0.834104 0.883634 0.825157 0.667901 0.438740 0.176931 -0.073458 -0.271885 -0.388802 -0.410789 -0.342429 -0.204651 -0.030000 0.144131 0.282861 0.360324 0.364041 0.296434 0.173323 0.019902 -0.134830 -0.263968 -0.347684 -0.376370 -0.351426 -0.283735 -0.190360 -0.090326 -0.000502 0.067531 0.109012 0.125749 0.124330 0.113391 0.100703 0.090863 0.084133 0.076700 0.062188 0.034011 -0.012128 -0.076268 -0.153300 -0.233442 -0.304000 -0.352034 -0.367296 -0.344753 -0.286077 -0.199729 -0.099592 -0.002421 0.075339 0.120672 0.126410 0.092438 0.025476 -0.062444 -0.156437 -0.241586 -0.305500 -0.340116 -0.342422 -0.314076 -0.260148 -0.187409 -0.102632 -0.011360 0.082598 0.176906 0.269851 0.359250 0.441541 0.511398 0.562097 0.586593 0.579096 0.536731 0.460822 0.357412 0.236773 0.111931 -0.003543 -0.098018 -0.163998 -0.199535 -0.208496 -0.199589 -0.184346 -0.174485 -0.179238 -0.203246 -0.245488 -0.299479 -0.354689 -0.398847 -0.420604 -0.411946 -0.369836 -0.296734 -0.199929 -0.089893 0.021928 0.125325 0.213051 0.281677 0.331460 0.365349 0.387474 0.401578 0.409846 0.412454 0.407919 0.394126 0.369667 0.335029 0.293217 0.249516 0.210361 0.181557 0.166304 0.163604 0.167584 0.168085 0.152550 0.108925 0.028945 -0.088949 -0.237858 -0.402398 -0.560614 -0.687629 -0.760356 -0.762328 -0.687609 -0.542836 -0.346845 -0.127812 0.081621 0.250291 0.354322 0.381583 0.333827 0.226039 0.083110 -0.065473 -0.191763 -0.275009 -0.305595 -0.286426 -0.231483 -0.161927 -0.100652 -0.066577 -0.069992 -0.110045 -0.174954 -0.244910 -0.296978 -0.310867 -0.274208 -0.186077 -0.057906 0.088485 0.225346 0.324971 0.365869 0.337731 0.244093 0.102056 -0.060873 -0.212160 -0.320674 -0.362777 -0.326815 -0.215073 -0.042892 0.164767 0.378451 0.569863 0.716776 0.806222 0.835416 0.810417 0.743098 0.647322 0.535396 0.415690 0.291951 0.164364 0.031874 -0.105014 -0.241937 -0.369672 -0.474910 -0.542753 -0.560382 -0.520976 -0.426787 -0.290424 -0.133774 0.015437 0.128849 0.183364 0.166392 0.079182 -0.062648 -0.231672 -0.393901 -0.515631 -0.570458 -0.544877 -0.441211 -0.277144 -0.081933 0.109909 0.266045 0.363193 0.391900 0.358112 0.281199 0.188900 0.110379 0.069041 0.076802 0.131182 0.215945 0.305118 0.369477 0.383923 0.333984 0.219846 0.056883 -0.127502 -0.300026 -0.429245 -0.493009 -0.483827 -0.410817 -0.297665 -0.177008 -0.082493 -0.040381 -0.062723 -0.143808 -0.260866 -0.379015 -0.459435 -0.468928 -0.388670 -0.219995 0.014246 0.273335 0.506710 0.664748 0.709988 0.626284 0.423759 0.138282 -0.174632 -0.450389 -0.628244 -0.663908 -0.539201 -0.266645 0.112007 0.533105 0.922848 1.211083 1.344400 1.295923 1.069909 0.700375 0.244175 -0.229911 -0.653797 -0.971865 -1.149664 -1.178017 -1.072089 -0.865989 -0.604375 -0.333055 -0.090574 0.097575 0.221218 0.284215 0.300380 0.287908 0.263856 0.239971 0.220764 0.204003 0.183186 0.151079 0.103173 0.040039 -0.032063 -0.102440 -0.158670 -0.189925 
hipp_sf_0005_HEAD NaN NaN NaN NaN NaN NaN NaN NaN NaN NaN NaN NaN NaN NaN NaN NaN NaN NaN NaN NaN NaN NaN NaN NaN NaN NaN NaN NaN NaN NaN NaN NaN NaN NaN NaN NaN NaN NaN NaN NaN NaN NaN NaN NaN NaN NaN NaN NaN NaN NaN NaN NaN NaN NaN NaN NaN NaN NaN NaN NaN NaN NaN NaN NaN NaN NaN NaN NaN NaN NaN NaN NaN NaN NaN NaN NaN NaN NaN NaN NaN NaN NaN NaN NaN NaN NaN NaN NaN NaN NaN NaN NaN NaN NaN NaN NaN NaN NaN NaN NaN NaN NaN NaN NaN NaN NaN NaN NaN NaN NaN NaN NaN NaN NaN NaN NaN NaN NaN NaN NaN NaN NaN NaN NaN NaN NaN NaN NaN NaN NaN NaN NaN NaN NaN NaN NaN NaN NaN NaN NaN NaN NaN NaN NaN NaN NaN NaN NaN NaN NaN NaN NaN NaN NaN NaN NaN NaN NaN NaN NaN NaN NaN NaN NaN NaN NaN NaN NaN NaN NaN NaN NaN NaN NaN NaN NaN NaN NaN NaN NaN NaN NaN NaN NaN NaN NaN NaN NaN NaN NaN NaN NaN NaN NaN NaN NaN NaN NaN NaN NaN NaN NaN NaN NaN NaN NaN NaN NaN NaN NaN NaN NaN NaN NaN NaN NaN NaN NaN NaN NaN NaN NaN NaN NaN NaN NaN NaN NaN NaN NaN NaN NaN NaN NaN NaN NaN NaN NaN NaN NaN NaN NaN NaN NaN NaN NaN NaN NaN NaN NaN NaN NaN NaN NaN NaN NaN NaN NaN NaN NaN NaN NaN NaN NaN NaN NaN NaN NaN NaN NaN NaN NaN NaN NaN NaN NaN NaN NaN NaN NaN NaN NaN NaN NaN NaN NaN NaN NaN NaN NaN NaN NaN NaN NaN NaN NaN NaN NaN NaN NaN NaN NaN NaN NaN NaN NaN NaN NaN NaN NaN NaN NaN NaN NaN NaN NaN NaN NaN NaN NaN NaN NaN NaN NaN NaN NaN NaN NaN NaN NaN NaN NaN NaN NaN NaN NaN NaN NaN NaN NaN NaN NaN NaN NaN NaN NaN NaN NaN NaN NaN NaN NaN NaN NaN NaN NaN NaN NaN NaN NaN NaN NaN NaN NaN NaN NaN NaN NaN NaN NaN NaN NaN NaN NaN NaN NaN NaN NaN NaN NaN NaN NaN NaN NaN NaN NaN NaN NaN NaN NaN NaN NaN NaN NaN NaN NaN NaN NaN NaN NaN NaN NaN NaN NaN NaN NaN NaN NaN NaN NaN NaN NaN NaN NaN NaN NaN NaN NaN NaN NaN 
hipp_sf_0006_TAIL 0.697405 0.670984 0.617659 0.537145 0.430501 0.301330 0.156594 0.006670 -0.135566 -0.256532 -0.344322 -0.391140 -0.395205 -0.361607 -0.301790 -0.231652 -0.168560 -0.127867 -0.119658 -0.146456 -0.202441 -0.274420 -0.344429 -0.393453 -0.405526 -0.371325 -0.290487 -0.172109 -0.033291 0.104034 0.217330 0.287902 0.304633 0.266225 0.181503 0.067706 -0.052876 -0.157209 -0.225896 -0.246736 -0.216769 -0.142439 -0.037896 0.078135 0.186239 0.270111 0.319506 0.331772 0.311723 0.269968 0.220131 0.175618 0.146622 0.138013 0.148503 0.171195 0.195346 0.208902 0.201239 0.165531 0.100276 0.009724 -0.096841 -0.206733 -0.306059 -0.382018 -0.424879 -0.429311 -0.394904 -0.325890 -0.230208 -0.118170 -0.000992 0.110555 0.207216 0.281953 0.330305 0.350449 0.343052 0.310992 0.258982 0.193099 0.120229 0.047393 -0.019003 -0.073930 -0.114401 -0.139910 -0.152509 -0.156447 -0.157379 -0.161221 -0.172869 -0.195001 -0.227235 -0.265863 -0.304257 -0.333951 -0.346220 -0.333879 -0.292964 -0.223930 -0.132105 -0.027259 0.077701 0.168688 0.232742 0.260252 0.246713 0.193674 0.108706 0.004368 -0.103649 -0.198911 -0.266745 -0.296467 -0.282963 -0.227392 -0.136917 -0.023525 0.097844 0.211574 0.303668 0.363749 0.386445 0.371990 0.325971 0.258261 0.181338 0.108242 0.050479 0.016212 0.009013 0.027388 0.065155 0.112640 0.158503 0.191891 0.204551 0.192514 0.157015 0.104434 0.045207 -0.008133 -0.043463 -0.051673 -0.028820 0.022598 0.093603 0.170018 0.234907 0.271777 0.267927 0.217302 0.122211 -0.006481 -0.150848 -0.288869 -0.398357 -0.461119 -0.466526 -0.413757 -0.312227 -0.180043 -0.040755 0.081004 0.164135 0.195024 0.170028 0.095985 -0.011360 -0.130702 -0.239582 -0.318948 -0.356906 -0.350880 -0.307727 -0.241809 -0.171455 -0.114595 -0.084543 -0.086862 -0.118024 -0.166162 -0.213780 -0.241819 -0.234192 -0.181780 -0.084979 0.045791 0.191765 0.329395 0.435043 0.489826 0.483581 0.417093 0.302117 0.159151 0.013443 -0.109959 -0.191074 -0.218781 -0.192768 -0.123258 -0.028625 0.068578 0.146323 0.187550 0.183451 0.134962 0.052206 -0.047896 -0.145309 -0.221010 -0.260725 -0.257487 -0.212578 -0.134740 -0.037927 0.061829 0.149719 0.214917 0.252231 0.262393 0.251016 0.226581 0.197965 0.172161 0.152677 0.138994 0.127133 0.111155 0.085172 0.045363 -0.008521 -0.072530 -0.138939 -0.197632 -0.238135 -0.251848 -0.233979 -0.184732 -0.109506 -0.018027 0.077381 0.164045 0.231235 0.272035 0.284415 0.271310 0.239708 0.198962 0.158690 0.126704 0.107395 0.100902 0.103225 0.107245 0.104442 0.086949 0.049527 -0.008953 -0.084834 -0.169960 -0.252905 -0.320938 -0.362366 -0.368831 -0.337111 -0.270082 -0.176604 -0.070319 0.032461 0.115440 0.165116 0.173154 0.137900 0.064732 -0.034842 -0.145228 -0.249546 -0.332686 -0.384035 -0.399320 -0.381200 -0.338440 -0.283822 -0.231187 -0.192219 -0.173656 -0.175555 -0.191043 -0.207696 -0.210313 -0.184573 -0.120798 -0.016992 0.119567 0.272661 0.419452 0.534460 0.594461 0.583341 0.495891 0.339698 0.134623 -0.090148 -0.300979 -0.465709 -0.559439 -0.569049 -0.495491 -0.353389 -0.167991 0.029898 0.209978 0.348231 0.431238 0.458120 0.439755 0.395461 0.347930 0.317569 0.317516 0.350482 0.408116 0.473050 0.523152 0.537016 0.499409 0.405416 0.262285 0.088501 -0.089744 -0.243951 -0.349377 -0.390407 -0.364021 -0.280557 -0.161574 -0.035265 0.069563 0.129608 0.131943 0.076557 -0.023970 -0.147554 -0.267710 -0.359500 -0.404948 -0.396706 -0.339171 -0.246857 -0.140477 -0.041724 0.031957 0.071346 0.077203 0.059401 0.033686 0.016893 0.021845 0.053266 0.105789 0.164658 0.209050 0.217298 0.172770 0.068989 -0.087342 -0.276269 -0.467657 -0.626877 -0.721923 -0.730402 -0.644832 -0.474969 -0.246583 0.003186 0.232936 0.405104 0.493311 0.487399 0.395070 0.239811 0.055605 -0.120388 -0.255522 -0.328071 -0.330960 -0.272097 -0.171373 -0.055131 0.050491 0.125744 0.161516 0.160683 0.136317 0.107302 0.092494 0.104980 0.147909 0.213001 0.282199 0.332104 0.340154 0.291035 0.181702 0.023680 -0.158085 -0.329718 -0.455376 -0.505161 -0.462190 -0.327170 -0.119333 0.126602 0.366918 0.557496 0.662712 
hipp_sf_0007_MISC 0.197855 0.191420 0.177780 0.155773 0.124497 0.084038 0.036064 -0.015926 -0.066817 -0.110561 -0.141234 -0.154232 -0.147360 -0.121531 -0.080888 -0.032256 0.015999 0.055517 0.079579 0.084502 0.070475 0.041631 0.005302 -0.029428 -0.053596 -0.060290 -0.046227 -0.012636 0.034765 0.086736 0.132264 0.160761 0.164268 0.139234 0.087460 0.016012 -0.063934 -0.139106 -0.196644 -0.226603 -0.223951 -0.189667 -0.130675 -0.058616 0.012328 0.068157 0.097785 0.095252 0.060964 0.001716 -0.070549 -0.140996 -0.194760 -0.219859 -0.209588 -0.163932 -0.089704 0.000627 0.091195 0.165681 0.210351 0.216636 0.182750 0.114044 0.022036 -0.077702 -0.168369 -0.234959 -0.266892 -0.259769 -0.215943 -0.143827 -0.056097 0.032819 0.109465 0.163771 0.190682 0.190726 0.169454 0.135904 0.100449 0.072494 0.058505 0.060761 0.077081 0.101535 0.125967 0.141970 0.142880 0.125350 0.090160 0.042113 -0.010980 -0.059977 -0.096380 -0.114186 -0.111217 -0.089623 -0.055481 -0.017551 0.014528 0.032228 0.029891 0.005881 -0.037081 -0.092470 -0.151262 -0.203696 -0.241118 -0.257530 -0.250529 -0.221473 -0.174887 -0.117276 -0.055648 0.003904 0.057253 0.102683 0.140686 0.173183 0.202410 0.229779 0.255021 0.275853 0.288279 0.287476 0.269056 0.230406 0.171772 0.096791 0.012304 -0.072560 -0.147864 -0.204618 -0.236435 -0.240721 -0.219147 -0.177278 -0.123429 -0.066995 -0.016606 0.021498 0.044520 0.053372 0.052111 0.046690 0.043323 0.046844 0.059454 0.080134 0.104865 0.127604 0.141783 0.141966 0.125286 0.092302 0.047063 -0.003643 -0.051706 -0.089448 -0.111319 -0.115140 -0.102591 -0.078835 -0.051343 -0.028180 -0.016161 -0.019278 -0.037784 -0.068149 -0.103905 -0.137190 -0.160648 -0.169218 -0.161420 -0.139778 -0.110303 -0.081092 -0.060379 -0.054462 -0.065996 -0.093068 -0.129310 -0.165050 -0.189316 -0.192250 -0.167427 -0.113549 -0.035132 0.058028 0.152517 0.233794 0.289012 0.309577 0.292922 0.243109 0.170122 0.087972 0.012006 -0.044057 -0.070756 -0.064657 -0.028917 0.027457 0.091498 0.148913 0.186921 0.196744 0.175244 0.125416 0.055679 -0.021872 -0.093859 -0.148171 -0.176169 -0.174136 -0.143719 -0.091350 -0.026802 0.038773 0.094920 0.133657 0.150646 0.145580 0.121787 0.085214 0.043056 0.002325 -0.031328 -0.054364 -0.065573 -0.065807 -0.057354 -0.043160 -0.026094 -0.008426 0.008412 0.023755 0.037425 0.049351 0.059235 0.066379 0.069714 0.068048 0.060436 0.046579 0.027124 0.003763 -0.020902 -0.043741 -0.061621 -0.071992 -0.073384 -0.065712 -0.050316 -0.029726 -0.007205 0.013840 0.030441 0.040540 0.043241 0.038809 0.028426 0.013781 -0.003414 -0.021854 -0.040917 -0.060726 -0.081965 -0.105511 -0.131950 -0.161101 -0.191664 -0.221083 -0.245692 -0.261146 -0.263066 -0.247824 -0.213309 -0.159547 -0.089045 -0.006761 0.080307 0.163903 0.235558 0.287744 0.314980 0.314685 0.287650 0.238017 0.172752 0.100657 0.031082 -0.027495 -0.068762 -0.089544 -0.090258 -0.074778 -0.049699 -0.023120 -0.003148 0.003608 -0.006693 -0.034359 -0.076026 -0.125198 -0.173366 -0.211514 -0.231737 -0.228656 -0.200393 -0.148903 -0.079629 -0.000539 0.079244 0.150965 0.207603 0.244855 0.261547 0.259467 0.242668 0.216460 0.186307 0.156886 0.131472 0.111754 0.098040 0.089743 0.085948 0.085872 0.089076 0.095358 0.104368 0.115108 0.125498 0.132210 0.130930 0.117064 0.086803 0.038315 -0.027221 -0.105051 -0.186998 -0.262410 -0.319831 -0.349117 -0.343591 -0.301765 -0.228203 -0.133254 -0.031578 0.060306 0.127048 0.157460 0.146860 0.098254 0.022012 -0.065938 -0.147117 -0.204132 -0.224206 -0.201883 -0.140305 -0.050777 0.049359 0.140126 0.202908 0.224244 0.198612 0.129628 0.029392 -0.083887 -0.189505 -0.268367 -0.306719 -0.298751 -0.247528 -0.164094 -0.064959 0.031458 0.108653 0.155302 0.167286 0.148072 0.107421 0.058776 0.015945 -0.010127 -0.013779 0.004299 0.037556 0.075476 0.106384 0.120482 0.112373 0.082447 0.036814 -0.014207 -0.058688 -0.086127 -0.090195 -0.070496 -0.032880 0.011788 0.050180 0.069775 0.062096 0.025135 -0.035662 -0.108123 -0.175708 -0.221026 -0.229734 -0.193973 -0.114535 -0.001245 0.128594 0.253390 0.351462 0.405355 
hipp_sf_0008_SUB 0.147786 0.150294 0.152449 0.149432 0.136042 0.108497 0.065963 0.011383 -0.048688 -0.105236 -0.148701 -0.171195 -0.168474 -0.141173 -0.094936 -0.039377 0.013935 0.054026 0.073006 0.067905 0.041418 0.001342 -0.041177 -0.074197 -0.087756 -0.076202 -0.039547 0.016498 0.081823 0.144257 0.192395 0.218260 0.219156 0.198269 0.163860 0.127227 0.099902 0.090741 0.103580 0.136029 0.179708 0.221878 0.248141 0.245588 0.205723 0.126487 0.012957 -0.123440 -0.267007 -0.400687 -0.509158 -0.581467 -0.612636 -0.603977 -0.562119 -0.497038 -0.419620 -0.339339 -0.262587 -0.192003 -0.126896 -0.064559 -0.002082 0.061854 0.125718 0.184744 0.231566 0.257741 0.255797 0.221324 0.154585 0.061251 -0.047975 -0.158780 -0.255455 -0.323447 -0.351747 -0.334630 -0.272454 -0.171405 -0.042297 0.101252 0.244886 0.375400 0.482143 0.557765 0.598317 0.602855 0.572799 0.511299 0.422784 0.312796 0.188024 0.056400 -0.072957 -0.190127 -0.285195 -0.349426 -0.376635 -0.364448 -0.315157 -0.235877 -0.137867 -0.035043 0.058098 0.128792 0.168113 0.172456 0.144087 0.090653 0.023737 -0.043256 -0.097464 -0.128718 -0.131096 -0.103615 -0.050003 0.022316 0.103750 0.184210 0.254588 0.307786 0.339178 0.346556 0.329713 0.289909 0.229419 0.151322 0.059542 -0.040948 -0.143941 -0.242050 -0.327137 -0.391180 -0.427480 -0.431963 -0.404278 -0.348359 -0.272216 -0.186880 -0.104626 -0.036783 0.008411 0.027439 0.022221 -0.000306 -0.029702 -0.054347 -0.064079 -0.052558 -0.018813 0.032419 0.091666 0.146813 0.185863 0.199734 0.184434 0.142097 0.080610 0.011894 -0.050780 -0.095821 -0.115972 -0.109960 -0.082720 -0.044136 -0.006564 0.018254 0.022158 0.002662 -0.036349 -0.085538 -0.132451 -0.164736 -0.173446 -0.155596 -0.115285 -0.063025 -0.013345 0.018821 0.022146 -0.007678 -0.065991 -0.139293 -0.207561 -0.248364 -0.241960 -0.176233 -0.050335 0.123891 0.323180 0.516694 0.671757 0.760351 0.764984 0.682680 0.526146 0.321764 0.104735 -0.087707 -0.223638 -0.282843 -0.260923 -0.170223 -0.037359 0.102186 0.211318 0.258943 0.226401 0.111399 -0.071352 -0.292887 -0.515576 -0.700365 -0.814219 -0.836273 -0.761509 -0.601291 -0.380776 -0.133808 0.103572 0.299662 0.432393 0.492409 0.483467 0.420286 0.324475 0.219531 0.126044 0.058079 0.021410 0.013790 0.026991 0.049958 0.072219 0.086671 0.091124 0.088265 0.084168 0.085804 0.098270 0.122498 0.154094 0.183666 0.198630 0.186124 0.136366 0.045673 -0.081596 -0.232704 -0.387965 -0.523764 -0.616601 -0.647395 -0.605202 -0.489610 -0.311323 -0.090825 0.144667 0.365378 0.543526 0.657454 0.694633 0.653078 0.541030 0.375065 0.177073 -0.029296 -0.222065 -0.383687 -0.502741 -0.574425 -0.599922 -0.584953 -0.537886 -0.467858 -0.383258 -0.290799 -0.195261 -0.099814 -0.006697 0.081986 0.163643 0.234925 0.291896 0.330623 0.348024 0.342770 0.316000 0.271637 0.216181 0.157961 0.105934 0.068240 0.050759 0.055959 0.082257 0.124062 0.172522 0.216882 0.246248 0.251460 0.226746 0.170862 0.087498 -0.015146 -0.125554 -0.230681 -0.318020 -0.377600 -0.403561 -0.395028 -0.356126 -0.295147 -0.223009 -0.151299 -0.090256 -0.047065 -0.024753 -0.021881 -0.033065 -0.050196 -0.064113 -0.066405 -0.050995 -0.015237 0.039653 0.108870 0.184902 0.258814 0.321681 0.365907 0.386231 0.380285 0.348694 0.294781 0.223989 0.143172 0.059872 -0.018358 -0.084535 -0.132774 -0.158777 -0.160302 -0.137585 -0.093633 -0.034282 0.032108 0.095393 0.144831 0.170599 0.165441 0.126130 0.054454 -0.042578 -0.153428 -0.263616 -0.357966 -0.423133 -0.449924 -0.434928 -0.381098 -0.297106 -0.195595 -0.090650 0.004947 0.082084 0.136740 0.170145 0.187604 0.196286 0.202522 0.209331 0.214886 0.212414 0.191735 0.142193 0.056364 -0.066362 -0.217290 -0.377860 -0.521467 -0.617604 -0.637702 -0.561583 -0.383151 -0.113972 0.216294 0.563062 0.873336 1.094550 1.184164 1.118161 0.896678 0.545458 0.112604 -0.338980 -0.742206 -1.037511 -1.183457 -1.164121 -0.991797 -0.704392 -0.357995 -0.016031 0.262867 0.435850 0.483549 0.412927 0.254784 0.056462 -0.128664 -0.252714 -0.283417 -0.210705 -0.048438 0.169052 0.394802 0.579731 0.683522 
hipp_sf_0009_ERC 0.060808 0.060224 0.058172 0.053216 0.043932 0.029550 0.010488 -0.011401 -0.032958 -0.050220 -0.059211 -0.056840 -0.041684 -0.014464 0.021931 0.062897 0.102972 0.136924 0.160805 0.172755 0.173340 0.165343 0.153028 0.141057 0.133279 0.131703 0.135877 0.142872 0.147877 0.145304 0.130178 0.099485 0.053180 -0.005411 -0.069915 -0.131939 -0.182615 -0.214353 -0.222453 -0.206206 -0.169254 -0.119097 -0.065804 -0.020191 0.008207 0.012955 -0.008035 -0.052077 -0.112204 -0.178485 -0.239902 -0.286432 -0.310912 -0.310321 -0.286245 -0.244429 -0.193529 -0.143310 -0.102668 -0.077877 -0.071389 -0.081450 -0.102570 -0.126772 -0.145332 -0.150678 -0.138050 -0.106584 -0.059608 -0.004071 0.050769 0.095171 0.120871 0.122809 0.100286 0.057303 0.002020 -0.054587 -0.100635 -0.125450 -0.121526 -0.085946 -0.021016 0.066005 0.164049 0.260035 0.341022 0.396317 0.419189 0.407886 0.365789 0.300697 0.223394 0.145755 0.078750 0.030688 0.006012 0.004815 0.023144 0.053986 0.088723 0.118761 0.137034 0.139118 0.123774 0.092883 0.050828 0.003506 -0.042805 -0.082499 -0.111406 -0.127177 -0.129262 -0.118571 -0.096963 -0.066730 -0.030212 0.010352 0.052745 0.094544 0.132861 0.164200 0.184578 0.189927 0.176773 0.143053 0.088887 0.017080 -0.066804 -0.154914 -0.238103 -0.307287 -0.354946 -0.376437 -0.370858 -0.341233 -0.293946 -0.237502 -0.180853 -0.131628 -0.094638 -0.070999 -0.058078 -0.050284 -0.040566 -0.022285 0.008960 0.053962 0.109335 0.167910 0.220049 0.255612 0.266183 0.247055 0.198517 0.126159 0.040049 -0.047032 -0.121985 -0.173904 -0.196161 -0.187654 -0.152901 -0.100999 -0.043645 0.007335 0.042422 0.056274 0.048622 0.024032 -0.009416 -0.042187 -0.065631 -0.074033 -0.065920 -0.044313 -0.015884 0.010796 0.027469 0.028367 0.011795 -0.019243 -0.057557 -0.093328 -0.116351 -0.118466 -0.095597 -0.048928 0.015092 0.085934 0.151143 0.198968 0.220920 0.213664 0.179820 0.127489 0.068590 0.016355 -0.017465 -0.025096 -0.004397 0.040677 0.100886 0.163594 0.215340 0.244509 0.243557 0.210348 0.148343 0.065680 -0.026607 -0.116801 -0.194634 -0.252905 -0.288261 -0.301069 -0.294497 -0.273117 -0.241440 -0.202757 -0.158599 -0.108893 -0.052746 0.010412 0.079691 0.151966 0.221739 0.281741 0.324186 0.342399 0.332438 0.294298 0.232374 0.155004 0.073151 -0.001543 -0.058927 -0.092273 -0.099550 -0.083760 -0.052256 -0.015179 0.016646 0.033914 0.030684 0.005484 -0.038520 -0.094294 -0.152448 -0.203124 -0.237864 -0.251072 -0.240791 -0.208717 -0.159513 -0.099666 -0.036175 0.024600 0.077703 0.119856 0.149276 0.165190 0.167279 0.155278 0.128891 0.088059 0.033502 -0.032647 -0.106376 -0.181689 -0.251026 -0.306190 -0.339649 -0.345956 -0.322952 -0.272465 -0.200285 -0.115367 -0.028379 0.050125 0.111532 0.150624 0.166329 0.161633 0.142671 0.117212 0.092903 0.075653 0.068532 0.071417 0.081418 0.093965 0.104238 0.108564 0.105426 0.095803 0.082780 0.070519 0.062880 0.062069 0.067708 0.076603 0.083332 0.081568 0.065816 0.033173 -0.015377 -0.074490 -0.135027 -0.185601 -0.214851 -0.213957 -0.178851 -0.111603 -0.020610 0.080525 0.175263 0.247142 0.282931 0.275283 0.224349 0.137989 0.030513 -0.079810 -0.174005 -0.235777 -0.254381 -0.226439 -0.156396 -0.055563 0.060018 0.172435 0.264942 0.324598 0.344079 0.322402 0.264540 0.180103 0.081438 -0.018468 -0.107885 -0.177772 -0.222569 -0.240376 -0.232609 -0.203322 -0.158383 -0.104660 -0.049294 0.000914 0.040030 0.063460 0.068404 0.054227 0.022712 -0.021940 -0.073441 -0.124120 -0.165970 -0.191896 -0.196949 -0.179304 -0.140734 -0.086439 -0.024209 0.036955 0.088495 0.123878 0.139768 0.136498 0.117743 0.089444 0.058249 0.029828 0.007507 -0.008442 -0.020640 -0.033585 -0.052010 -0.079044 -0.114655 -0.154849 -0.191910 -0.215759 -0.216178 -0.185460 -0.120841 -0.026110 0.088108 0.205587 0.307150 0.374244 0.392744 0.356153 0.267456 0.139141 -0.008727 -0.152091 -0.267435 -0.336373 -0.349305 -0.307356 -0.222129 -0.113284 -0.004417 0.081913 0.128947 0.129265 0.086306 0.013548 -0.068519 -0.136968 -0.171570 -0.159380 -0.097754 0.004868 0.130604 0.255852 0.356289 0.412067 
hipp_sf_0010_BA35 0.457265 0.431396 0.380329 0.305757 0.210941 0.101226 -0.015762 -0.130441 -0.232199 -0.310840 -0.358278 -0.370120 -0.346729 -0.293466 -0.219930 -0.138291 -0.060991 0.001711 0.043812 0.064770 0.069510 0.067173 0.068827 0.084611 0.120933 0.178396 0.250949 0.326548 0.389275 0.422532 0.412657 0.352221 0.242241 0.092809 -0.078103 -0.247486 -0.391274 -0.488695 -0.526130 -0.499704 -0.416066 -0.291192 -0.147439 -0.009411 0.100534 0.166273 0.180629 0.146302 0.074889 -0.015766 -0.105320 -0.175000 -0.211188 -0.207835 -0.167276 -0.099359 -0.019135 0.056356 0.111545 0.135328 0.123036 0.077070 0.006134 -0.076681 -0.156519 -0.219540 -0.255315 -0.258409 -0.228932 -0.172043 -0.096604 -0.013336 0.067141 0.135989 0.187288 0.218492 0.230215 0.225510 0.208838 0.185015 0.158308 0.131863 0.107481 0.085739 0.066324 0.048489 0.031478 0.014851 -0.001344 -0.016555 -0.029825 -0.039963 -0.045749 -0.046118 -0.040341 -0.028171 -0.009981 0.013130 0.039271 0.065770 0.089304 0.106172 0.112730 0.105941 0.083977 0.046779 -0.003578 -0.062786 -0.124589 -0.181427 -0.225410 -0.249477 -0.248555 -0.220528 -0.166816 -0.092443 -0.005533 0.083695 0.164316 0.226238 0.261651 0.266165 0.239431 0.185155 0.110521 0.025096 -0.060578 -0.136486 -0.194498 -0.229376 -0.239289 -0.225786 -0.193244 -0.147930 -0.096830 -0.046459 -0.001851 0.034119 0.060968 0.080385 0.095595 0.110447 0.128397 0.151570 0.180102 0.211878 0.242751 0.267209 0.279393 0.274284 0.248834 0.202815 0.139192 0.063925 -0.014829 -0.087984 -0.147057 -0.185684 -0.200821 -0.193381 -0.168144 -0.132922 -0.097107 -0.069862 -0.058302 -0.066024 -0.092315 -0.132202 -0.177389 -0.217896 -0.244112 -0.248825 -0.228822 -0.185715 -0.125783 -0.058858 0.003565 0.050589 0.074115 0.070499 0.041338 -0.006809 -0.063699 -0.117422 -0.156754 -0.173334 -0.163234 -0.127593 -0.072205 -0.006171 0.060075 0.116926 0.157471 0.178682 0.181680 0.171062 0.153476 0.135810 0.123428 0.118878 0.121362 0.127088 0.130397 0.125381 0.107590 0.075399 0.030705 -0.021229 -0.072759 -0.115444 -0.141861 -0.147231 -0.130467 -0.094414 -0.045213 0.009037 0.060022 0.100932 0.127762 0.139906 0.139918 0.132525 0.123155 0.116360 0.114545 0.117304 0.121565 0.122468 0.114802 0.094593 0.060463 0.014385 -0.038377 -0.090171 -0.132519 -0.157977 -0.161880 -0.143528 -0.106551 -0.058313 -0.008483 0.032939 0.057691 0.060987 0.042514 0.006501 -0.039174 -0.084615 -0.119931 -0.137200 -0.131981 -0.104053 -0.057294 0.001249 0.062832 0.118691 0.161544 0.186640 0.192166 0.179031 0.150159 0.109534 0.061280 0.008985 -0.044587 -0.097408 -0.147839 -0.194198 -0.234461 -0.266225 -0.286990 -0.294685 -0.288282 -0.268283 -0.236880 -0.197702 -0.155125 -0.113319 -0.075264 -0.042009 -0.012432 0.016380 0.048167 0.086152 0.131653 0.183033 0.235345 0.280853 0.310420 0.315522 0.290455 0.234195 0.151415 0.052315 -0.048847 -0.136303 -0.195918 -0.218273 -0.200977 -0.149624 -0.077085 -0.001176 0.058893 0.086569 0.071669 0.012914 -0.081312 -0.194207 -0.303619 -0.386337 -0.422734 -0.400799 -0.318687 -0.185261 -0.018497 0.157921 0.319080 0.443458 0.516726 0.533964 0.499889 0.427143 0.333108 0.236008 0.151206 0.088504 0.050967 0.035436 0.034453 0.039024 0.041437 0.037398 0.026954 0.014006 0.004606 0.004549 0.016999 0.040829 0.070224 0.095730 0.106533 0.093425 0.051673 -0.017011 -0.103990 -0.194998 -0.272986 -0.321952 -0.330832 -0.296513 -0.225135 -0.131281 -0.035077 0.042193 0.083009 0.077922 0.028187 -0.053995 -0.147798 -0.228255 -0.271944 -0.262610 -0.195427 -0.078814 0.066675 0.212308 0.327159 0.384854 0.369596 0.280071 0.130310 -0.052781 -0.234764 -0.380771 -0.462835 -0.465858 -0.390871 -0.254855 -0.087138 0.076886 0.203323 0.267008 0.256791 0.177751 0.049870 -0.096516 -0.227451 -0.312772 -0.332555 -0.281202 -0.168303 -0.016153 0.145430 0.285773 0.379968 0.413948 0.386934 0.310784 0.206504 0.098841 0.010282 -0.044090 -0.059701 -0.042858 -0.008388 0.024806 0.039116 0.023180 -0.024838 -0.096458 -0.174789 -0.238666 -0.268016 -0.249129 -0.178533 -0.064501 0.074228 0.212257 0.322998 0.384539 
hipp_sf_0011_BA36 0.321561 0.316747 0.304596 0.280885 0.241127 0.182253 0.104088 0.010231 -0.091939 -0.192189 -0.279131 -0.342338 -0.374406 -0.372505 -0.339028 -0.281182 -0.209581 -0.136117 -0.071589 -0.023594 0.004843 0.015601 0.014671 0.010435 0.011393 0.023885 0.050309 0.088303 0.131056 0.168748 0.190789 0.188370 0.156764 0.096820 0.015304 -0.076047 -0.162597 -0.229590 -0.265077 -0.262358 -0.221423 -0.149075 -0.057672 0.037245 0.119980 0.177722 0.203006 0.195055 0.159763 0.108314 0.054746 0.012962 -0.006186 0.002863 0.039262 0.095983 0.161317 0.221316 0.262672 0.275420 0.254928 0.202777 0.126369 0.037389 -0.050558 -0.124615 -0.175105 -0.197240 -0.191775 -0.164525 -0.124865 -0.083576 -0.050501 -0.032503 -0.032144 -0.047335 -0.072010 -0.097632 -0.115214 -0.117389 -0.100112 -0.063622 -0.012481 0.045301 0.099886 0.141592 0.162869 0.159833 0.133069 0.087539 0.031631 -0.024467 -0.070712 -0.099115 -0.105221 -0.088891 -0.054255 -0.008854 0.037821 0.076126 0.098015 0.098443 0.076158 0.033769 -0.022884 -0.085898 -0.146762 -0.197796 -0.233320 -0.250332 -0.248633 -0.230414 -0.199467 -0.160220 -0.116825 -0.072517 -0.029335 0.011750 0.050383 0.086228 0.118399 0.145117 0.163724 0.171073 0.164244 0.141421 0.102705 0.050657 -0.009618 -0.070917 -0.124905 -0.163421 -0.179910 -0.170681 -0.135724 -0.078898 -0.007416 0.069307 0.141233 0.199421 0.237538 0.252884 0.246704 0.223744 0.191140 0.156861 0.128052 0.109603 0.103247 0.107372 0.117568 0.127776 0.131795 0.124780 0.104426 0.071552 0.029975 -0.014314 -0.054470 -0.084326 -0.099781 -0.099733 -0.086345 -0.064584 -0.041121 -0.022854 -0.015372 -0.021709 -0.041677 -0.071919 -0.106679 -0.139116 -0.162856 -0.173444 -0.169353 -0.152326 -0.126957 -0.099626 -0.077000 -0.064465 -0.064834 -0.077631 -0.099129 -0.123144 -0.142394 -0.150162 -0.141850 -0.116100 -0.075225 -0.024819 0.027342 0.072901 0.104671 0.118148 0.112470 0.090597 0.058697 0.024846 -0.002664 -0.017051 -0.014437 0.005369 0.038870 0.079633 0.119622 0.150829 0.166856 0.164115 0.142436 0.104973 0.057460 0.007029 -0.039175 -0.075266 -0.097533 -0.104850 -0.098548 -0.081825 -0.058880 -0.033985 -0.010704 0.008596 0.022864 0.032171 0.037289 0.039205 0.038715 0.036215 0.031722 0.025089 0.016335 0.005943 -0.004973 -0.014726 -0.021336 -0.022985 -0.018518 -0.007854 0.007819 0.026159 0.044097 0.058490 0.066877 0.068141 0.062910 0.053588 0.043946 0.038354 0.040796 0.053858 0.077937 0.110833 0.147864 0.182497 0.207409 0.215780 0.202585 0.165627 0.106122 0.028704 -0.059154 -0.148204 -0.228796 -0.292317 -0.332459 -0.346103 -0.333701 -0.299091 -0.248811 -0.191022 -0.134229 -0.085996 -0.051836 -0.034439 -0.033337 -0.045039 -0.063625 -0.081704 -0.091622 -0.086753 -0.062695 -0.018200 0.044331 0.118881 0.196431 0.266124 0.316838 0.338963 0.326114 0.276486 0.193580 0.086119 -0.032923 -0.148071 -0.243667 -0.306373 -0.327443 -0.304336 -0.241345 -0.149069 -0.042769 0.060146 0.143076 0.193110 0.203276 0.173747 0.111757 0.030214 -0.054726 -0.126673 -0.172023 -0.182419 -0.156165 -0.098348 -0.019655 0.065844 0.143484 0.200803 0.229773 0.228057 0.199050 0.150789 0.093973 0.039599 -0.003304 -0.029330 -0.037434 -0.030647 -0.014899 0.002734 0.015888 0.020454 0.015430 0.002928 -0.012641 -0.025943 -0.032301 -0.029043 -0.016294 0.003019 0.023916 0.040691 0.048455 0.044496 0.029085 0.005508 -0.020703 -0.043171 -0.056339 -0.056985 -0.045183 -0.024420 -0.000816 0.018409 0.026846 0.020728 0.000182 -0.030438 -0.063309 -0.088856 -0.098086 -0.084985 -0.048415 0.007009 0.071347 0.131066 0.171777 0.181421 0.153198 0.087569 -0.007172 -0.115997 -0.219743 -0.298766 -0.336900 -0.324918 -0.262739 -0.159869 -0.033931 0.092468 0.195966 0.256918 0.263226 0.212775 0.113963 -0.015777 -0.153169 -0.273368 -0.354488 -0.381506 -0.348807 -0.260941 -0.131496 0.019607 0.169834 0.297999 0.387734 0.429844 0.423193 0.374096 0.294438 0.199035 0.102787 0.018194 -0.046337 -0.087189 -0.105242 -0.104796 -0.092070 -0.073637 -0.055134 -0.040453 -0.031488 -0.028357 -0.029929 -0.034464 -0.040170 -0.045567 -0.049639 -0.051800 
hipp_sf_0012_PHC 0.177238 0.169448 0.152322 0.123564 0.081471 0.026394 -0.038155 -0.105190 -0.164941 -0.206509 -0.220173 -0.199835 -0.144976 -0.061595 0.038220 0.138129 0.220486 0.269819 0.276116 0.237165 0.159396 0.056957 -0.050840 -0.143238 -0.202147 -0.215800 -0.181173 -0.104634 -0.000686 0.110956 0.209333 0.276420 0.300633 0.278942 0.217156 0.128377 0.029977 -0.060208 -0.127629 -0.163910 -0.168267 -0.147200 -0.112581 -0.078602 -0.058315 -0.060542 -0.087838 -0.135952 -0.194867 -0.251161 -0.291136 -0.303999 -0.284403 -0.233771 -0.160159 -0.076674 0.001170 0.058595 0.084550 0.073917 0.028534 -0.043145 -0.127629 -0.208848 -0.270986 -0.301134 -0.291298 -0.239465 -0.149614 -0.030798 0.104448 0.242025 0.368155 0.470971 0.541621 0.574871 0.569226 0.526709 0.452402 0.353855 0.240405 0.122416 0.010428 -0.085787 -0.158209 -0.201508 -0.213773 -0.196883 -0.156363 -0.100674 -0.039982 0.015439 0.056890 0.078702 0.079155 0.060654 0.029068 -0.007630 -0.041190 -0.064971 -0.075488 -0.073261 -0.062748 -0.051361 -0.047735 -0.059641 -0.091966 -0.145248 -0.215077 -0.292544 -0.365658 -0.421448 -0.448338 -0.438287 -0.388270 -0.300806 -0.183459 -0.047441 0.094345 0.229404 0.347433 0.441481 0.508274 0.547762 0.562091 0.554325 0.527300 0.482911 0.422002 0.344858 0.252100 0.145711 0.029817 -0.089040 -0.202309 -0.300493 -0.374674 -0.418152 -0.427834 -0.404999 -0.355242 -0.287553 -0.212710 -0.141307 -0.081851 -0.039335 -0.014592 -0.004562 -0.003393 -0.004088 -0.000331 0.011962 0.033700 0.062497 0.093376 0.120090 0.136737 0.139258 0.126458 0.100312 0.065497 0.028299 -0.004841 -0.028746 -0.040562 -0.040202 -0.030082 -0.014281 0.002655 0.016893 0.026183 0.030157 0.030013 0.027684 0.024760 0.021523 0.016410 0.006152 -0.013392 -0.045854 -0.092784 -0.152317 -0.218516 -0.281687 -0.329743 -0.350445 -0.334075 -0.275983 -0.178358 -0.050761 0.090869 0.226650 0.336240 0.402705 0.415973 0.375124 0.288952 0.174607 0.054498 -0.047965 -0.112962 -0.128242 -0.091669 -0.011765 0.093876 0.202019 0.288389 0.332496 0.321719 0.253813 0.137354 -0.009960 -0.164764 -0.302520 -0.402103 -0.449576 -0.440403 -0.379731 -0.280770 -0.161704 -0.041853 0.062074 0.138859 0.184236 0.200730 0.196048 0.180488 0.164052 0.153949 0.153057 0.159650 0.168370 0.172118 0.164339 0.141092 0.102348 0.052211 -0.002006 -0.051604 -0.088753 -0.108591 -0.110642 -0.099139 -0.082176 -0.069820 -0.071642 -0.094225 -0.139258 -0.202682 -0.275115 -0.343519 -0.393750 -0.413450 -0.394655 -0.335553 -0.240994 -0.121669 0.007872 0.131922 0.236458 0.311511 0.352599 0.360952 0.342559 0.306313 0.261722 0.216746 0.176249 0.141390 0.110059 0.078175 0.041492 -0.002588 -0.053672 -0.107861 -0.158232 -0.196204 -0.213497 -0.204194 -0.166438 -0.103301 -0.022614 0.064263 0.144491 0.206189 0.240737 0.244438 0.219174 0.171917 0.113179 0.054742 0.007161 -0.022431 -0.031760 -0.023764 -0.005825 0.011955 0.019055 0.006912 -0.029129 -0.088699 -0.166333 -0.252453 -0.335158 -0.402444 -0.444389 -0.454844 -0.432338 -0.380028 -0.304793 -0.215690 -0.122164 -0.032396 0.047862 0.115765 0.171121 0.215546 0.251300 0.280135 0.302466 0.317108 0.321617 0.313181 0.289789 0.251391 0.200684 0.143279 0.087127 0.041247 0.013981 0.011141 0.034441 0.080609 0.141437 0.204840 0.256807 0.283909 0.275909 0.227955 0.141905 0.026477 -0.103884 -0.231256 -0.337241 -0.406176 -0.427973 -0.400032 -0.327862 -0.224253 -0.107128 0.003551 0.089264 0.136171 0.137510 0.094707 0.017014 -0.080263 -0.178603 -0.259622 -0.308338 -0.315713 -0.280044 -0.206964 -0.108103 0.001284 0.105229 0.189908 0.245907 0.269464 0.262512 0.231597 0.185946 0.135188 0.087220 0.046710 0.014535 -0.011763 -0.036642 -0.064735 -0.098976 -0.139198 -0.181554 -0.218969 -0.242537 -0.243596 -0.215991 -0.157991 -0.073387 0.028567 0.134417 0.228801 0.297309 0.329325 0.320248 0.272573 0.195566 0.103552 0.013126 -0.060143 -0.104840 -0.115990 -0.096003 -0.054059 -0.004028 0.038640 0.060408 0.052774 0.014342 -0.048629 -0.123355 -0.193120 -0.240814 -0.252673 -0.221427 -0.148172 -0.042541 0.078893 0.195689 0.287467 0.337889 
