13 420
hipp_sf_0000_BG 0.005579 0.004347 0.002327 0.000296 -0.000830 -0.000239 0.002557 0.007563 0.014251 0.021624 0.028384 0.033183 0.034877 0.032763 0.026719 0.017236 0.005338 -0.007603 -0.020109 -0.030845 -0.038828 -0.043548 -0.045001 -0.043612 -0.040090 -0.035251 -0.029838 -0.024398 -0.019221 -0.014359 -0.009706 -0.005110 -0.000492 0.004079 0.008359 0.011971 0.014497 0.015596 0.015125 0.013215 0.010288 0.007001 0.004128 0.002405 0.002366 0.004212 0.007751 0.012408 0.017323 0.021513 0.024061 0.024295 0.021933 0.017134 0.010482 0.002872 -0.004651 -0.011080 -0.015630 -0.017861 -0.017738 -0.015611 -0.012122 -0.008064 -0.004227 -0.001244 0.000504 0.000938 0.000266 -0.001092 -0.002604 -0.003745 -0.004097 -0.003427 -0.001716 0.000852 0.003937 0.007107 0.009919 0.011984 0.013023 0.012893 0.011600 0.009281 0.006182 0.002623 -0.001039 -0.004448 -0.007287 -0.009309 -0.010360 -0.010404 -0.009523 -0.007910 -0.005846 -0.003652 -0.001644 -0.000071 0.000930 0.001362 0.001376 0.001240 0.001284 0.001824 0.003083 0.005123 0.007804 0.010781 0.013549 0.015525 0.016149 0.015002 0.011891 0.006916 0.000470 -0.006799 -0.014081 -0.020523 -0.025360 -0.028026 -0.028234 -0.026007 -0.021666 -0.015760 -0.008987 -0.002086 0.004253 0.009459 0.013126 0.015023 0.015092 0.013415 0.010197 0.005742 0.000431 -0.005280 -0.010884 -0.015840 -0.019616 -0.021745 -0.021886 -0.019897 -0.015877 -0.010188 -0.003432 0.003617 0.010121 0.015304 0.018583 0.019670 0.018630 0.015867 0.012061 0.008036 0.004614 0.002453 0.001927 0.003060 0.005525 0.008718 0.011886 0.014284 0.015325 0.014697 0.012422 0.008845 0.004556 0.000265 -0.003345 -0.005743 -0.006654 -0.006091 -0.004333 -0.001846 0.000824 0.003169 0.004813 0.005575 0.005467 0.004664 0.003428 0.002022 0.000642 -0.000635 -0.001847 -0.003122 -0.004610 -0.006416 -0.008538 -0.010837 -0.013045 -0.014810 -0.015777 -0.015669 -0.014366 -0.011949 -0.008704 -0.005071 -0.001570 0.001305 0.003185 0.003903 0.003522 0.002325 0.000749 -0.000704 -0.001577 -0.001552 -0.000508 0.001451 0.004030 0.006799 0.009285 0.011062 0.011825 0.011438 0.009945 0.007549 0.004561 0.001343 -0.001747 -0.004403 -0.006397 -0.007584 -0.007897 -0.007340 -0.005972 -0.003910 -0.001326 0.001545 0.004408 0.006926 0.008745 0.009549 0.009114 0.007367 0.004417 0.000572 -0.003698 -0.007826 -0.011244 -0.013488 -0.014290 -0.013636 -0.011770 -0.009149 -0.006342 -0.003901 -0.002239 -0.001525 -0.001646 -0.002226 -0.002722 -0.002562 -0.001306 0.001219 0.004830 0.008984 0.012865 0.015543 0.016177 0.014221 0.009588 0.002721 -0.005439 -0.013600 -0.020351 -0.024430 -0.024995 -0.021805 -0.015307 -0.006573 0.002881 0.011381 0.017416 0.019941 0.018593 0.013775 0.006596 -0.001341 -0.008242 -0.012473 -0.012882 -0.009031 -0.001288 0.009230 0.020863 0.031713 0.039995 0.044361 0.044134 0.039423 0.031076 0.020511 0.009439 -0.000454 -0.007810 -0.011825 -0.012372 -0.009990 -0.005755 -0.001060 0.002654 0.004164 0.002678 -0.002029 -0.009583 -0.019083 -0.029247 -0.038624 -0.045816 -0.049691 -0.049540 -0.045183 -0.036986 -0.025807 -0.012882 0.000343 0.012398 0.021985 0.028139 0.030358 0.028662 0.023591 0.016124 0.007539 -0.000774 -0.007519 -0.011694 -0.012745 -0.010657 -0.005948 0.000414 0.007180 0.013042 0.016867 0.017904 0.015924 0.011263 0.004766 -0.002375 -0.008845 -0.013464 -0.015410 -0.014383 -0.010665 -0.005065 0.001246 0.006966 0.010919 0.012299 0.010822 0.006790 0.001022 -0.005308 -0.010911 -0.014638 -0.015710 -0.013869 -0.009424 -0.003185 0.003700 0.009969 0.014485 0.016444 0.015502 0.011821 0.006007 -0.001025 -0.008234 -0.014638 -0.019472 -0.022278 -0.022934 -0.021602 -0.018639 -0.014484 -0.009556 -0.004185 0.001408 0.007088 0.012750 0.018257 0.023387 0.027824 0.031176 0.033050 0.033141 0.031319 0.027704 0.022682 0.016874 0.011046 0.005985 0.002356 0.000581 0.000756 0.002631 0.005658 0.009091 0.012123 0.014038 0.014330 0.012785 0.009501 0.004849 -0.000616 -0.006264 -0.011507 -0.015892 -0.019158 -0.021244 -0.022264 -0.022450 -0.022083 -0.021436 -0.020729 -0.020112 -0.019672 -0.019445 
hipp_sf_0001_CA1 -0.111523 -0.088027 -0.045384 0.008663 0.064657 0.113452 0.148103 0.165195 0.165309 0.152523 0.133102 0.113698 0.099502 0.092819 0.092410 0.093780 0.090353 0.075267 0.043343 -0.007228 -0.073919 -0.149885 -0.225000 -0.287722 -0.327396 -0.336497 -0.312316 -0.257713 -0.180743 -0.093231 -0.008566 0.060817 0.105768 0.122068 0.111079 0.079285 0.036823 -0.004654 -0.034337 -0.044378 -0.031330 0.003327 0.053650 0.110535 0.163563 0.202996 0.221535 0.215514 0.185355 0.135266 0.072285 0.004936 -0.058244 -0.110032 -0.145474 -0.162380 -0.161334 -0.145289 -0.118892 -0.087667 -0.057200 -0.032414 -0.017004 -0.013032 -0.020725 -0.038438 -0.062821 -0.089177 -0.112026 -0.125850 -0.125944 -0.109289 -0.075283 -0.026185 0.032872 0.094378 0.149441 0.189174 0.206253 0.196369 0.159291 0.099274 0.024693 -0.053112 -0.121614 -0.169195 -0.187197 -0.171525 -0.123483 -0.049683 0.039014 0.129300 0.207663 0.262643 0.286679 0.277226 0.236945 0.172985 0.095516 0.015840 -0.055536 -0.110518 -0.144445 -0.156386 -0.148743 -0.126314 -0.095090 -0.061055 -0.029242 -0.003185 0.015188 0.025311 0.027525 0.022619 0.011492 -0.004941 -0.025638 -0.049174 -0.073503 -0.095863 -0.112958 -0.121415 -0.118463 -0.102675 -0.074565 -0.036867 0.005667 0.046943 0.080603 0.101290 0.105822 0.093997 0.068825 0.036065 0.003153 -0.022307 -0.034159 -0.029064 -0.007326 0.027051 0.067102 0.104310 0.130390 0.139077 0.127530 0.097029 0.052824 0.003136 -0.042482 -0.075069 -0.088088 -0.078755 -0.048612 -0.003224 0.048924 0.098083 0.135110 0.153156 0.148849 0.122753 0.079057 0.024596 -0.032554 -0.084588 -0.125298 -0.150952 -0.160612 -0.155885 -0.140239 -0.118082 -0.093827 -0.071156 -0.052590 -0.039403 -0.031829 -0.029420 -0.031444 -0.037159 -0.045939 -0.057207 -0.070264 -0.084103 -0.097304 -0.108090 -0.114564 -0.115072 -0.108604 -0.095118 -0.075669 -0.052292 -0.027634 -0.004415 0.015153 0.029857 0.039734 0.046023 0.050815 0.056485 0.065049 0.077612 0.094058 0.113058 0.132417 0.149645 0.162620 0.170147 0.172255 0.170142 0.165762 0.161165 0.157773 0.155799 0.153989 0.149820 0.140118 0.121980 0.093778 0.055961 0.011417 -0.034758 -0.076103 -0.106107 -0.119707 -0.114632 -0.092237 -0.057584 -0.018670 0.015084 0.034794 0.034109 0.010777 -0.032596 -0.088828 -0.147471 -0.196926 -0.226908 -0.230745 -0.206979 -0.159874 -0.098696 -0.035849 0.015733 0.045395 0.047157 0.021151 -0.026244 -0.083635 -0.136970 -0.172530 -0.179915 -0.154377 -0.097977 -0.019308 0.068173 0.148856 0.208154 0.235476 0.226356 0.183299 0.115183 0.035359 -0.041117 -0.100532 -0.133177 -0.135086 -0.108527 -0.061175 -0.004231 0.050084 0.091080 0.111650 0.109412 0.086778 0.049999 0.007501 -0.032070 -0.061611 -0.076769 -0.076375 -0.062083 -0.037429 -0.006621 0.026576 0.059556 0.091011 0.120525 0.147799 0.171802 0.190192 0.199245 0.194419 0.171467 0.127842 0.064019 -0.015658 -0.102939 -0.186572 -0.254068 -0.294024 -0.298522 -0.265079 -0.197647 -0.106385 -0.006143 0.086101 0.154370 0.186756 0.177792 0.129623 0.051689 -0.041018 -0.130808 -0.200671 -0.237503 -0.234534 -0.192466 -0.119133 -0.027777 0.065670 0.145712 0.200184 0.222333 0.211709 0.173760 0.118280 0.057125 0.001711 -0.039170 -0.060770 -0.062832 -0.049028 -0.025642 0.000167 0.022073 0.035893 0.040228 0.036381 0.027627 0.018101 0.011607 0.010645 0.015876 0.026113 0.038773 0.050628 0.058624 0.060553 0.055416 0.043427 0.025717 0.003872 -0.020521 -0.046156 -0.072049 -0.097331 -0.120902 -0.141106 -0.155588 -0.161467 -0.155842 -0.136560 -0.103049 -0.056996 -0.002620 0.053606 0.103827 0.140145 0.156178 0.148498 0.117603 0.068154 0.008365 -0.051398 -0.100538 -0.130288 -0.135472 -0.115564 -0.074802 -0.021307 0.034610 0.082602 0.114416 0.125544 0.116015 0.090162 0.055443 0.020577 -0.006550 -0.020712 -0.020488 -0.008450 0.009639 0.026411 0.034871 0.030285 0.011499 -0.018625 -0.053800 -0.085773 -0.106330 -0.109347 -0.092403 -0.057538 -0.010964 0.038229 0.080080 0.106009 0.110800 0.093818 0.059196 0.014904 -0.029058 -0.062955 -0.079542 -0.075710 -0.053167 -0.017979 0.020895 0.053762 0.072499 
hipp_sf_0002_CA2 -0.113014 -0.090161 -0.049043 0.002227 0.053875 0.096687 0.124055 0.133349 0.126299 0.108303 0.086840 0.069390 0.061388 0.064716 0.077137 0.092805 0.103761 0.102047 0.081922 0.041647 -0.015641 -0.082201 -0.147087 -0.198378 -0.225764 -0.222883 -0.188880 -0.128818 -0.052829 0.025822 0.093355 0.138197 0.153226 0.137074 0.094210 0.033841 -0.032123 -0.091550 -0.134477 -0.154895 -0.151592 -0.127925 -0.090639 -0.048090 -0.008292 0.022732 0.041944 0.049465 0.047949 0.041398 0.033764 0.027741 0.024036 0.021324 0.016837 0.007431 -0.009207 -0.033546 -0.063693 -0.095533 -0.123508 -0.141858 -0.146022 -0.133833 -0.106195 -0.067072 -0.022746 0.019473 0.052809 0.072472 0.076660 0.066887 0.047551 0.024852 0.005317 -0.005710 -0.005274 0.006583 0.026922 0.050696 0.072005 0.085529 0.087783 0.077914 0.057866 0.031884 0.005517 -0.015649 -0.027217 -0.026881 -0.014822 0.006465 0.032832 0.059439 0.081763 0.096428 0.101671 0.097382 0.084781 0.065847 0.042720 0.017221 -0.009352 -0.036163 -0.062547 -0.087645 -0.110126 -0.128132 -0.139516 -0.142325 -0.135424 -0.119047 -0.095103 -0.067075 -0.039471 -0.016919 -0.003079 0.000339 -0.005802 -0.018024 -0.030837 -0.037905 -0.033556 -0.014265 0.020233 0.066518 0.117907 0.165688 0.200929 0.216485 0.208723 0.178572 0.131582 0.076949 0.025661 -0.011844 -0.027991 -0.019835 0.010155 0.054495 0.102213 0.141195 0.160832 0.154384 0.120513 0.063637 -0.006987 -0.079271 -0.140917 -0.182087 -0.197492 -0.187442 -0.157599 -0.117516 -0.078297 -0.049927 -0.038907 -0.046760 -0.069734 -0.099815 -0.126769 -0.140763 -0.134921 -0.107205 -0.061167 -0.005363 0.048442 0.087900 0.102914 0.088050 0.043963 -0.022504 -0.099571 -0.172863 -0.228312 -0.254991 -0.247260 -0.205773 -0.137155 -0.052463 0.035185 0.113259 0.172160 0.206746 0.216768 0.206192 0.181659 0.150521 0.118970 0.090722 0.066552 0.044755 0.022335 -0.003444 -0.033608 -0.066562 -0.098003 -0.121710 -0.131057 -0.120840 -0.088960 -0.037486 0.027230 0.095474 0.155990 0.198287 0.214923 0.203224 0.165996 0.111054 0.049616 -0.006083 -0.045432 -0.061744 -0.053684 -0.025486 0.014080 0.053782 0.082548 0.092050 0.078646 0.044237 -0.004148 -0.055952 -0.099504 -0.124675 -0.125193 -0.100061 -0.053791 0.004609 0.063645 0.111865 0.140335 0.144500 0.125012 0.087377 0.040506 -0.005441 -0.041433 -0.061591 -0.064413 -0.052925 -0.033759 -0.015394 -0.005993 -0.011349 -0.033421 -0.069793 -0.114168 -0.157772 -0.191331 -0.207159 -0.200901 -0.172516 -0.126325 -0.070107 -0.013473 0.034119 0.065275 0.076099 0.066868 0.041838 0.008264 -0.025140 -0.049959 -0.059703 -0.050987 -0.024092 0.017173 0.066199 0.114751 0.154329 0.177495 0.178982 0.156441 0.110791 0.046155 -0.030566 -0.110419 -0.183373 -0.239457 -0.269984 -0.268759 -0.233124 -0.164696 -0.069611 0.041831 0.156205 0.258618 0.334815 0.373432 0.368007 0.318373 0.231085 0.118708 -0.002011 -0.112836 -0.197159 -0.242973 -0.245103 -0.206253 -0.136573 -0.051797 0.029745 0.090677 0.117995 0.105666 0.055861 -0.021437 -0.110396 -0.192486 -0.250169 -0.270396 -0.247189 -0.182782 -0.087121 0.024169 0.132883 0.221776 0.277771 0.294226 0.271814 0.217917 0.144722 0.066513 -0.003239 -0.054357 -0.081511 -0.084593 -0.067954 -0.038761 -0.004979 0.026539 0.051388 0.068104 0.077788 0.083060 0.086690 0.090355 0.093882 0.095202 0.091027 0.078040 0.054247 0.020070 -0.021183 -0.063661 -0.100114 -0.123591 -0.129274 -0.115972 -0.086837 -0.049061 -0.012537 0.012270 0.016763 -0.003598 -0.047904 -0.109579 -0.177462 -0.237997 -0.278080 -0.287940 -0.263391 -0.206928 -0.127387 -0.038206 0.045353 0.109412 0.144410 0.147104 0.121188 0.076385 0.026235 -0.014947 -0.035235 -0.027690 0.008197 0.066506 0.136303 0.204132 0.256973 0.285002 0.283527 0.253686 0.201812 0.137659 0.071962 0.013948 -0.030611 -0.060347 -0.078069 -0.089462 -0.101097 -0.118297 -0.143423 -0.175038 -0.208165 -0.235580 -0.249790 -0.245184 -0.219787 -0.176123 -0.120940 -0.063814 -0.014957 0.017268 0.028473 0.019502 -0.003547 -0.030598 -0.049879 -0.050726 -0.026242 0.024839 0.097515 0.181327 0.262434 0.326516 0.361848 
hipp_sf_0003_DG -0.178414 -0.148276 -0.092505 -0.019291 0.060967 0.137483 0.200887 0.244647 0.265862 0.265290 0.246670 0.215535 0.177813 0.138529 0.100910 0.066041 0.033122 0.000193 -0.034871 -0.073384 -0.115134 -0.158124 -0.198807 -0.232770 -0.255681 -0.264261 -0.257049 -0.234777 -0.200263 -0.157855 -0.112571 -0.069129 -0.031094 -0.000337 0.023092 0.040673 0.054787 0.067928 0.081948 0.097514 0.113894 0.129110 0.140411 0.144927 0.140359 0.125537 0.100732 0.067671 0.029267 -0.010851 -0.048901 -0.081483 -0.106002 -0.120905 -0.125765 -0.121210 -0.108764 -0.090663 -0.069639 -0.048715 -0.030957 -0.019180 -0.015579 -0.021325 -0.036174 -0.058195 -0.083731 -0.107670 -0.124092 -0.127219 -0.112561 -0.078044 -0.024865 0.042151 0.114853 0.182775 0.234743 0.260820 0.254254 0.213014 0.140588 0.045801 -0.058362 -0.156788 -0.234747 -0.280444 -0.287086 -0.254085 -0.187112 -0.097007 0.002258 0.096152 0.172185 0.222011 0.242626 0.236457 0.210354 0.173764 0.136492 0.106564 0.088660 0.083411 0.087693 0.095787 0.101077 0.097871 0.082885 0.056045 0.020435 -0.018563 -0.054711 -0.082532 -0.098711 -0.102890 -0.097680 -0.087871 -0.079056 -0.076017 -0.081316 -0.094444 -0.111806 -0.127547 -0.135058 -0.128792 -0.105938 -0.067513 -0.018552 0.032695 0.076440 0.103540 0.107694 0.087141 0.045414 -0.009065 -0.064513 -0.108161 -0.128963 -0.120060 -0.080452 -0.015471 0.064059 0.143841 0.208895 0.246533 0.248906 0.214588 0.148870 0.062717 -0.029385 -0.112236 -0.172780 -0.202463 -0.198602 -0.164553 -0.108697 -0.042514 0.021804 0.073688 0.105998 0.115981 0.105259 0.078941 0.044150 0.008325 -0.022288 -0.043677 -0.054446 -0.055569 -0.049655 -0.039995 -0.029649 -0.020811 -0.014573 -0.011068 -0.009900 -0.010638 -0.013211 -0.018031 -0.025819 -0.037177 -0.052068 -0.069400 -0.086891 -0.101322 -0.109174 -0.107518 -0.094940 -0.072229 -0.042615 -0.011403 0.014970 0.030299 0.030116 0.012961 -0.018881 -0.059428 -0.099874 -0.130178 -0.141046 -0.125907 -0.082452 -0.013377 0.073853 0.168204 0.257005 0.328225 0.372618 0.385300 0.366443 0.320967 0.257316 0.185632 0.115734 0.055339 0.008908 -0.022680 -0.041623 -0.052038 -0.058489 -0.064589 -0.072031 -0.080275 -0.086933 -0.088730 -0.082744 -0.067573 -0.044102 -0.015628 0.012695 0.034983 0.046035 0.042667 0.024620 -0.005214 -0.041340 -0.076859 -0.105058 -0.120997 -0.122703 -0.111652 -0.092423 -0.071553 -0.055883 -0.050772 -0.058631 -0.078134 -0.104352 -0.129782 -0.146090 -0.146144 -0.125885 -0.085571 -0.030072 0.031879 0.089359 0.131498 0.149811 0.140100 0.103491 0.046377 -0.020748 -0.085322 -0.135177 -0.160927 -0.157766 -0.126318 -0.072384 -0.005659 0.062265 0.120194 0.159420 0.175205 0.167374 0.139985 0.100192 0.056614 0.017594 -0.010291 -0.023177 -0.020215 -0.003234 0.024036 0.056944 0.090821 0.121628 0.146240 0.162399 0.168474 0.163205 0.145599 0.115077 0.071871 0.017553 -0.044509 -0.108969 -0.168786 -0.216033 -0.243158 -0.244484 -0.217637 -0.164541 -0.091688 -0.009535 0.068988 0.130600 0.164069 0.162410 0.124413 0.055164 -0.034596 -0.130208 -0.215607 -0.276146 -0.301193 -0.285994 -0.232462 -0.148739 -0.047650 0.055626 0.146216 0.212022 0.245548 0.244809 0.213198 0.158447 0.090951 0.021839 -0.038833 -0.083445 -0.107554 -0.109998 -0.092447 -0.058636 -0.013482 0.037704 0.089781 0.138113 0.178708 0.208278 0.224326 0.225307 0.210885 0.182178 0.141900 0.094250 0.044484 -0.001829 -0.039765 -0.066034 -0.079738 -0.082699 -0.079202 -0.075133 -0.076648 -0.088646 -0.113379 -0.149568 -0.192269 -0.233612 -0.264309 -0.275652 -0.261580 -0.220333 -0.155293 -0.074745 0.009448 0.084041 0.137040 0.160202 0.150866 0.112670 0.054964 -0.008990 -0.064693 -0.099384 -0.104691 -0.078374 -0.024782 0.046090 0.120735 0.185003 0.227062 0.239829 0.222315 0.179627 0.121629 0.060600 0.008416 -0.026083 -0.038963 -0.031873 -0.011422 0.012604 0.029730 0.031407 0.013135 -0.024390 -0.075361 -0.130151 -0.177488 -0.207010 -0.211605 -0.188998 -0.142248 -0.079047 -0.010026 0.053534 0.102045 0.129477 0.134336 0.119592 0.091610 0.058401 0.027652 0.005006 -0.006989 -0.009051 -0.004471 0.002218 0.006812 
hipp_sf_0004_CA3 -0.322176 -0.270080 -0.172825 -0.043191 0.102179 0.245314 0.369537 0.461748 0.513987 0.524063 0.495212 0.434911 0.353149 0.260516 0.166467 0.078085 -0.000502 -0.068004 -0.125283 -0.174317 -0.217090 -0.254699 -0.286844 -0.311838 -0.327066 -0.329792 -0.318080 -0.291598 -0.252099 -0.203448 -0.151153 -0.101496 -0.060409 -0.032335 -0.019309 -0.020442 -0.031957 -0.047772 -0.060574 -0.063184 -0.049998 -0.018231 0.031271 0.093813 0.161320 0.223435 0.269122 0.288514 0.274730 0.225323 0.143119 0.036229 -0.082812 -0.198707 -0.295645 -0.359800 -0.381663 -0.357827 -0.291847 -0.193998 -0.079872 0.032003 0.123167 0.178373 0.188318 0.151455 0.074513 -0.028437 -0.138262 -0.234047 -0.296819 -0.313044 -0.277252 -0.193267 -0.073769 0.061782 0.190530 0.290310 0.343698 0.341271 0.283449 0.180549 0.051029 -0.081777 -0.193837 -0.264727 -0.281271 -0.239845 -0.146921 -0.017782 0.126330 0.262059 0.368050 0.428561 0.435916 0.391415 0.304594 0.191074 0.069485 -0.041908 -0.128218 -0.180067 -0.194509 -0.174706 -0.128550 -0.066644 -0.000099 0.061361 0.110665 0.143876 0.159925 0.159821 0.145653 0.119697 0.083885 0.039741 -0.011269 -0.067150 -0.124816 -0.179817 -0.226533 -0.258878 -0.271399 -0.260528 -0.225671 -0.169806 -0.099381 -0.023437 0.047912 0.105369 0.142298 0.156123 0.148916 0.127021 0.099730 0.077270 0.068504 0.078858 0.108919 0.154049 0.205126 0.250294 0.277363 0.276384 0.241836 0.173974 0.079043 -0.031713 -0.144029 -0.243201 -0.316739 -0.356556 -0.360268 -0.331365 -0.278249 -0.212382 -0.145940 -0.089482 -0.050092 -0.030359 -0.028343 -0.038480 -0.053187 -0.064757 -0.067162 -0.057355 -0.035831 -0.006389 0.024844 0.050843 0.065271 0.063865 0.045360 0.011789 -0.031873 -0.078591 -0.120498 -0.150206 -0.161979 -0.152570 -0.121646 -0.071764 -0.007988 0.062786 0.132636 0.193493 0.237971 0.260129 0.256114 0.224657 0.167387 0.088905 -0.003443 -0.100122 -0.190323 -0.263160 -0.309047 -0.321063 -0.296088 -0.235487 -0.145180 -0.035031 0.082422 0.193692 0.286276 0.350452 0.380637 0.376045 0.340555 0.281802 0.209696 0.134661 0.065940 0.010283 -0.028752 -0.050795 -0.058041 -0.054198 -0.043297 -0.028665 -0.012300 0.005234 0.024400 0.045945 0.070038 0.095601 0.120028 0.139435 0.149412 0.146106 0.127365 0.093639 0.048357 -0.002375 -0.050754 -0.088776 -0.109934 -0.110731 -0.091665 -0.057404 -0.016064 0.022294 0.047668 0.052191 0.031850 -0.012570 -0.075505 -0.147651 -0.217785 -0.275019 -0.310978 -0.321441 -0.307096 -0.273214 -0.228345 -0.182302 -0.143883 -0.118855 -0.108635 -0.109990 -0.115814 -0.116851 -0.103957 -0.070443 -0.013953 0.062532 0.150810 0.238700 0.312173 0.357963 0.366128 0.332066 0.257578 0.150792 0.024957 -0.103642 -0.218243 -0.304180 -0.351001 -0.353797 -0.313573 -0.236668 -0.133418 -0.016373 0.101590 0.208924 0.296607 0.358769 0.392751 0.398732 0.379097 0.337729 0.279383 0.209221 0.132523 0.054509 -0.019789 -0.085708 -0.139222 -0.177291 -0.198240 -0.202061 -0.190550 -0.167175 -0.136669 -0.104365 -0.075389 -0.053835 -0.042113 -0.040570 -0.047503 -0.059549 -0.072388 -0.081637 -0.083735 -0.076676 -0.060419 -0.036911 -0.009723 0.016644 0.037640 0.049562 0.050321 0.039918 0.020565 -0.003592 -0.027086 -0.043990 -0.048897 -0.037851 -0.009103 0.036443 0.095167 0.161079 0.226563 0.283400 0.323983 0.342505 0.335970 0.304827 0.253088 0.187879 0.118411 0.054516 0.004951 -0.024248 -0.031054 -0.018095 0.007516 0.035237 0.052907 0.049057 0.015307 -0.051597 -0.148541 -0.265909 -0.388679 -0.498642 -0.577403 -0.609661 -0.586144 -0.505639 -0.375670 -0.211649 -0.034563 0.132382 0.267602 0.354725 0.385269 0.359903 0.288044 0.185889 0.073269 -0.030040 -0.107832 -0.150123 -0.154462 -0.125680 -0.074226 -0.013482 0.043301 0.085787 0.108453 0.111240 0.098867 0.079051 0.060099 0.048492 0.047055 0.054172 0.064225 0.069167 0.060817 0.033336 -0.014763 -0.079581 -0.152085 -0.219633 -0.268497 -0.286803 -0.267269 -0.209076 -0.118443 -0.007735 0.106743 0.207803 0.280644 0.315628 0.309982 0.268062 0.200159 0.120122 0.042361 -0.021115 -0.062945 -0.081501 -0.080584 -0.067868 -0.052511 -0.042515 
hipp_sf_0005_HEAD NaN NaN NaN NaN NaN NaN NaN NaN NaN NaN NaN NaN NaN NaN NaN NaN NaN NaN NaN NaN NaN NaN NaN NaN NaN NaN NaN NaN NaN NaN NaN NaN NaN NaN NaN NaN NaN NaN NaN NaN NaN NaN NaN NaN NaN NaN NaN NaN NaN NaN NaN NaN NaN NaN NaN NaN NaN NaN NaN NaN NaN NaN NaN NaN NaN NaN NaN NaN NaN NaN NaN NaN NaN NaN NaN NaN NaN NaN NaN NaN NaN NaN NaN NaN NaN NaN NaN NaN NaN NaN NaN NaN NaN NaN NaN NaN NaN NaN NaN NaN NaN NaN NaN NaN NaN NaN NaN NaN NaN NaN NaN NaN NaN NaN NaN NaN NaN NaN NaN NaN NaN NaN NaN NaN NaN NaN NaN NaN NaN NaN NaN NaN NaN NaN NaN NaN NaN NaN NaN NaN NaN NaN NaN NaN NaN NaN NaN NaN NaN NaN NaN NaN NaN NaN NaN NaN NaN NaN NaN NaN NaN NaN NaN NaN NaN NaN NaN NaN NaN NaN NaN NaN NaN NaN NaN NaN NaN NaN NaN NaN NaN NaN NaN NaN NaN NaN NaN NaN NaN NaN NaN NaN NaN NaN NaN NaN NaN NaN NaN NaN NaN NaN NaN NaN NaN NaN NaN NaN NaN NaN NaN NaN NaN NaN NaN NaN NaN NaN NaN NaN NaN NaN NaN NaN NaN NaN NaN NaN NaN NaN NaN NaN NaN NaN NaN NaN NaN NaN NaN NaN NaN NaN NaN NaN NaN NaN NaN NaN NaN NaN NaN NaN NaN NaN NaN NaN NaN NaN NaN NaN NaN NaN NaN NaN NaN NaN NaN NaN NaN NaN NaN NaN NaN NaN NaN NaN NaN NaN NaN NaN NaN NaN NaN NaN NaN NaN NaN NaN NaN NaN NaN NaN NaN NaN NaN NaN NaN NaN NaN NaN NaN NaN NaN NaN NaN NaN NaN NaN NaN NaN NaN NaN NaN NaN NaN NaN NaN NaN NaN NaN NaN NaN NaN NaN NaN NaN NaN NaN NaN NaN NaN NaN NaN NaN NaN NaN NaN NaN NaN NaN NaN NaN NaN NaN NaN NaN NaN NaN NaN NaN NaN NaN NaN NaN NaN NaN NaN NaN NaN NaN NaN NaN NaN NaN NaN NaN NaN NaN NaN NaN NaN NaN NaN NaN NaN NaN NaN NaN NaN NaN NaN NaN NaN NaN NaN NaN NaN NaN NaN NaN NaN NaN NaN NaN NaN NaN NaN NaN NaN NaN NaN NaN NaN NaN NaN NaN NaN NaN NaN NaN NaN NaN NaN NaN NaN NaN NaN NaN NaN NaN 
hipp_sf_0006_TAIL -0.041236 -0.028234 -0.004006 0.028223 0.064376 0.100235 0.132157 0.157599 0.175397 0.185716 0.189719 0.189036 0.185173 0.178987 0.170360 0.158142 0.140369 0.114721 0.079103 0.032247 -0.025802 -0.093403 -0.167297 -0.242836 -0.314440 -0.376182 -0.422444 -0.448528 -0.451181 -0.428967 -0.382486 -0.314405 -0.229330 -0.133499 -0.034322 0.060231 0.142365 0.205255 0.243847 0.255545 0.240679 0.202646 0.147655 0.084053 0.021273 -0.031441 -0.066390 -0.078600 -0.066634 -0.032877 0.016803 0.073969 0.128976 0.172560 0.197361 0.199122 0.177350 0.135305 0.079341 0.017713 -0.040914 -0.088974 -0.121250 -0.135648 -0.133351 -0.118376 -0.096616 -0.074588 -0.058127 -0.051268 -0.055517 -0.069623 -0.089852 -0.110708 -0.125935 -0.129628 -0.117268 -0.086530 -0.037762 0.025903 0.098816 0.173385 0.240917 0.292616 0.320665 0.319288 0.285691 0.220760 0.129407 0.020456 -0.094001 -0.199791 -0.282328 -0.328571 -0.329057 -0.279653 -0.182745 -0.047547 0.110599 0.271962 0.415005 0.519459 0.569410 0.555880 0.478413 0.345364 0.172759 -0.018100 -0.203924 -0.363026 -0.478613 -0.541152 -0.549434 -0.510130 -0.435981 -0.342992 -0.247220 -0.161790 -0.094732 -0.048051 -0.018164 0.002441 0.022734 0.050429 0.089663 0.139579 0.194151 0.243290 0.275010 0.278170 0.245211 0.174271 0.070222 -0.055634 -0.187164 -0.306010 -0.394680 -0.439546 -0.433163 -0.375484 -0.273783 -0.141331 0.004870 0.146848 0.268388 0.357263 0.406608 0.415315 0.387484 0.331160 0.256675 0.174954 0.096062 0.028189 -0.022879 -0.053863 -0.063802 -0.053739 -0.026399 0.014066 0.062298 0.111984 0.156234 0.188167 0.201706 0.192500 0.158809 0.102149 0.027475 -0.057221 -0.141931 -0.216160 -0.270708 -0.299359 -0.300140 -0.275823 -0.233533 -0.183465 -0.136925 -0.104073 -0.091815 -0.102294 -0.132320 -0.173894 -0.215749 -0.245619 -0.252798 -0.230439 -0.177139 -0.097458 -0.001240 0.098135 0.186225 0.250250 0.281514 0.277049 0.240173 0.179842 0.108972 0.042032 -0.007574 -0.029873 -0.019974 0.021256 0.087570 0.168649 0.252038 0.325313 0.378070 0.403397 0.398610 0.365204 0.308120 0.234541 0.152507 0.069623 -0.007926 -0.075901 -0.132095 -0.176016 -0.208343 -0.230310 -0.243171 -0.247872 -0.244953 -0.234688 -0.217370 -0.193660 -0.164885 -0.133194 -0.101531 -0.073393 -0.052409 -0.041796 -0.043781 -0.059072 -0.086496 -0.122872 -0.163185 -0.201079 -0.229652 -0.242451 -0.234559 -0.203582 -0.150355 -0.079199 0.002398 0.084699 0.157149 0.210125 0.236705 0.234120 0.204564 0.155118 0.096720 0.042268 0.004166 -0.008239 0.009179 0.054064 0.117560 0.185646 0.241678 0.269691 0.257840 0.201273 0.103776 -0.022230 -0.157473 -0.279127 -0.365053 -0.398153 -0.369955 -0.282647 -0.149076 0.009362 0.166606 0.296821 0.379340 0.402621 0.366407 0.281588 0.167794 0.049190 -0.050636 -0.113609 -0.130867 -0.104419 -0.046388 0.023977 0.084885 0.117160 0.108810 0.057979 -0.026404 -0.126453 -0.219256 -0.282044 -0.297464 -0.257750 -0.166853 -0.039996 0.099281 0.223974 0.309339 0.338215 0.304800 0.216017 0.090170 -0.046851 -0.166987 -0.245895 -0.268024 -0.229793 -0.140212 -0.018833 0.108499 0.215121 0.279089 0.287553 0.239084 0.143501 0.019328 -0.110479 -0.223523 -0.302553 -0.338637 -0.332294 -0.292418 -0.233383 -0.171082 -0.118916 -0.084687 -0.069125 -0.066344 -0.066038 -0.056815 -0.029781 0.018556 0.084821 0.159136 0.227249 0.273914 0.286705 0.259306 0.193459 0.099046 -0.007762 -0.107891 -0.183518 -0.222022 -0.218796 -0.178261 -0.112801 -0.039871 0.022077 0.057898 0.059292 0.026738 -0.030620 -0.097137 -0.154360 -0.185412 -0.179041 -0.132382 -0.051793 0.048438 0.149238 0.231009 0.278037 0.282035 0.244006 0.174003 0.088842 0.008302 -0.049335 -0.071367 -0.053476 -0.000605 0.074248 0.153054 0.216872 0.250142 0.244166 0.199024 0.123501 0.033089 -0.053488 -0.118396 -0.148570 -0.138482 -0.091225 -0.017722 0.065721 0.140926 0.191636 0.206765 0.182441 0.122455 0.037135 -0.059047 -0.150532 -0.223712 -0.269306 -0.283641 -0.268671 -0.230865 -0.179330 -0.123665 -0.072061 -0.030013 0.000138 0.018887 0.028667 0.032709 0.033998 0.034585 0.035372 0.036338 0.037017 
hipp_sf_0007_MISC -0.147444 -0.124838 -0.085408 -0.039249 0.001811 0.027265 0.030712 0.011666 -0.024074 -0.065641 -0.099623 -0.113362 -0.098219 -0.052043 0.019787 0.105060 0.187070 0.248133 0.273526 0.254969 0.192850 0.096658 -0.016541 -0.125321 -0.208163 -0.247880 -0.235284 -0.171290 -0.067000 0.058293 0.180790 0.276836 0.327597 0.322832 0.263002 0.159321 0.031732 -0.094770 -0.194745 -0.246968 -0.238269 -0.165880 -0.037911 0.128060 0.307928 0.474970 0.603983 0.674979 0.675844 0.603676 0.464703 0.272961 0.048076 -0.187438 -0.410935 -0.602114 -0.744982 -0.829184 -0.850681 -0.811813 -0.720808 -0.590792 -0.438372 -0.281846 -0.139172 -0.025852 0.047031 0.074346 0.057727 0.005459 -0.068669 -0.147469 -0.213147 -0.250344 -0.248902 -0.205802 -0.125873 -0.021035 0.091837 0.194083 0.268886 0.304625 0.297290 0.251409 0.179262 0.098488 0.028525 -0.013381 -0.015803 0.024390 0.101248 0.200833 0.304011 0.390365 0.442427 0.449335 0.409137 0.329242 0.224902 0.116040 0.023086 -0.037310 -0.055759 -0.032093 0.024633 0.098085 0.168127 0.215100 0.223991 0.187614 0.108160 -0.003218 -0.128647 -0.247137 -0.338754 -0.388516 -0.389190 -0.342471 -0.258348 -0.152839 -0.044647 0.048548 0.113377 0.142997 0.137841 0.104844 0.055397 0.002559 -0.041828 -0.069514 -0.077221 -0.066805 -0.044291 -0.018051 0.003366 0.013259 0.008210 -0.011345 -0.041451 -0.075720 -0.106829 -0.128068 -0.134569 -0.123973 -0.096476 -0.054342 -0.001099 0.059292 0.123053 0.186843 0.247611 0.302197 0.346889 0.377176 0.387913 0.373961 0.331245 0.258000 0.155899 0.030713 -0.107763 -0.246630 -0.371592 -0.469178 -0.529050 -0.545940 -0.520772 -0.460677 -0.377855 -0.287449 -0.204821 -0.142778 -0.109280 -0.106107 -0.128740 -0.167471 -0.209498 -0.241565 -0.252597 -0.235796 -0.189797 -0.118691 -0.030971 0.062323 0.149818 0.221905 0.272294 0.298733 0.302852 0.289226 0.263995 0.233381 0.202490 0.174633 0.151271 0.132509 0.117895 0.107251 0.101220 0.101364 0.109728 0.128016 0.156604 0.193709 0.235015 0.273938 0.302570 0.313141 0.299715 0.259700 0.194829 0.111296 0.018980 -0.070158 -0.144189 -0.193411 -0.212161 -0.199855 -0.161027 -0.104369 -0.040981 0.017766 0.062298 0.086384 0.087856 0.068410 0.032588 -0.013720 -0.064842 -0.116541 -0.166553 -0.214340 -0.260145 -0.303683 -0.342870 -0.373059 -0.387108 -0.376407 -0.332745 -0.250615 -0.129450 0.024837 0.199475 0.375892 0.532163 0.646469 0.700944 0.685124 0.598276 0.450027 0.259108 0.050352 -0.149500 -0.316392 -0.433023 -0.491599 -0.494692 -0.454077 -0.387773 -0.315960 -0.256634 -0.221923 -0.215838 -0.233917 -0.264788 -0.293269 -0.304276 -0.286641 -0.235978 -0.155929 -0.057528 0.043186 0.128767 0.184343 0.201098 0.178438 0.124357 0.053880 -0.014071 -0.060732 -0.071586 -0.039593 0.033137 0.135597 0.250012 0.355391 0.431755 0.464143 0.445585 0.378435 0.273831 0.149438 0.025986 -0.076651 -0.143047 -0.164764 -0.141415 -0.080136 0.006308 0.102285 0.192287 0.263506 0.307539 0.320963 0.304830 0.263388 0.202452 0.127909 0.044751 -0.043185 -0.132786 -0.220811 -0.302959 -0.373304 -0.424368 -0.447996 -0.436888 -0.386505 -0.296847 -0.173621 -0.028395 0.122468 0.260019 0.365719 0.424675 0.428444 0.376807 0.278082 0.147829 0.006163 -0.125857 -0.230045 -0.294358 -0.314967 -0.296677 -0.251633 -0.196545 -0.149014 -0.123688 -0.129046 -0.165461 -0.224937 -0.292579 -0.349512 -0.376667 -0.358691 -0.287236 -0.162973 0.004030 0.195634 0.388411 0.557348 0.679834 0.739210 0.727313 0.645616 0.504846 0.323211 0.123581 -0.069858 -0.234972 -0.354534 -0.418226 -0.423560 -0.375677 -0.286169 -0.171139 -0.048827 0.062873 0.148707 0.197886 0.205280 0.171852 0.104324 0.014116 -0.084308 -0.175479 -0.245104 -0.282100 -0.280202 -0.238899 -0.163543 -0.064582 0.043997 0.146783 0.229315 0.280293 0.293302 0.267705 0.208591 0.125756 0.031925 -0.059466 -0.136508 -0.190673 -0.217948 -0.219061 -0.198804 -0.164635 -0.124883 -0.086946 -0.055872 -0.033610 -0.019041 -0.008758 0.001647 0.016110 0.036808 0.063381 0.092838 0.120190 0.139642 0.146069 0.136401 0.110598 0.071945 0.026587 -0.017610 -0.052630 -0.071961 
hipp_sf_0008_SUB -0.069980 -0.055471 -0.028853 0.005576 0.042508 0.076701 0.103988 0.122000 0.130445 0.130891 0.126121 0.119236 0.112716 0.107696 0.103618 0.098355 0.088779 0.071630 0.044484 0.006579 -0.040717 -0.093897 -0.147803 -0.196495 -0.234320 -0.256940 -0.262104 -0.249986 -0.223035 -0.185392 -0.141998 -0.097632 -0.056083 -0.019631 0.011049 0.036578 0.058279 0.077454 0.094749 0.109789 0.121164 0.126800 0.124596 0.113171 0.092508 0.064308 0.031942 -0.000035 -0.026714 -0.043830 -0.048699 -0.040888 -0.022421 0.002513 0.028344 0.049199 0.060089 0.057919 0.042126 0.014792 -0.019771 -0.055889 -0.087640 -0.109981 -0.119654 -0.115676 -0.099351 -0.073816 -0.043256 -0.011991 0.016361 0.039446 0.056371 0.067513 0.074030 0.077236 0.078028 0.076515 0.071968 0.063103 0.048598 0.027723 0.000876 -0.030132 -0.062147 -0.091119 -0.112834 -0.123783 -0.121951 -0.107330 -0.082021 -0.049878 -0.015744 0.015534 0.040123 0.055989 0.063283 0.064221 0.062473 0.062201 0.066963 0.078735 0.097293 0.120103 0.142771 0.159944 0.166500 0.158732 0.135271 0.097537 0.049594 -0.002553 -0.052097 -0.092738 -0.119889 -0.131529 -0.128500 -0.114215 -0.093836 -0.073107 -0.057124 -0.049286 -0.050677 -0.059980 -0.073937 -0.088218 -0.098502 -0.101485 -0.095622 -0.081396 -0.061105 -0.038205 -0.016406 0.001278 0.013258 0.019734 0.022575 0.024769 0.029572 0.039562 0.055846 0.077607 0.102125 0.125279 0.142418 0.149412 0.143642 0.124688 0.094560 0.057393 0.018671 -0.015859 -0.041361 -0.054888 -0.055987 -0.046754 -0.031361 -0.015130 -0.003372 -0.000228 -0.007766 -0.025528 -0.050619 -0.078310 -0.103038 -0.119564 -0.124070 -0.114951 -0.093141 -0.061932 -0.026310 0.008024 0.035756 0.052952 0.057752 0.050629 0.034196 0.012605 -0.009315 -0.027009 -0.037037 -0.037658 -0.029064 -0.013237 0.006509 0.026198 0.041933 0.050571 0.050217 0.040479 0.022454 -0.001504 -0.028184 -0.053998 -0.075458 -0.089596 -0.094265 -0.088336 -0.071759 -0.045525 -0.011546 0.027542 0.068619 0.108366 0.143566 0.171411 0.189774 0.197426 0.194150 0.180749 0.158914 0.130986 0.099631 0.067491 0.036853 0.009417 -0.013826 -0.032572 -0.047066 -0.057884 -0.065696 -0.071073 -0.074377 -0.075763 -0.075279 -0.073027 -0.069325 -0.064806 -0.060411 -0.057253 -0.056368 -0.058417 -0.063400 -0.070485 -0.078010 -0.083696 -0.085054 -0.079913 -0.066986 -0.046308 -0.019475 0.010437 0.039265 0.062429 0.075765 0.076362 0.063230 0.037651 0.003114 -0.035164 -0.071092 -0.098748 -0.113451 -0.112630 -0.096329 -0.067239 -0.030235 0.008490 0.042546 0.066493 0.076811 0.072503 0.055218 0.028878 -0.001100 -0.028841 -0.049093 -0.058152 -0.054444 -0.038687 -0.013608 0.016708 0.047672 0.075089 0.095894 0.108608 0.113431 0.111970 0.106705 0.100305 0.094965 0.091900 0.091108 0.091432 0.090901 0.087259 0.078557 0.063674 0.042659 0.016816 -0.011480 -0.039185 -0.063130 -0.080582 -0.089718 -0.089925 -0.081870 -0.067349 -0.048957 -0.029650 -0.012300 0.000695 0.007667 0.007792 0.001058 -0.011860 -0.029786 -0.051224 -0.074494 -0.097821 -0.119373 -0.137279 -0.149665 -0.154744 -0.150970 -0.137258 -0.113235 -0.079465 -0.037599 0.009618 0.058508 0.104809 0.144154 0.172647 0.187422 0.187099 0.172054 0.144436 0.107931 0.067271 0.027594 -0.006274 -0.030493 -0.042725 -0.042424 -0.030850 -0.010817 0.013786 0.038603 0.059463 0.072961 0.076890 0.070459 0.054295 0.030232 0.000953 -0.030448 -0.060904 -0.087753 -0.108993 -0.123407 -0.130555 -0.130668 -0.124481 -0.113048 -0.097593 -0.079396 -0.059732 -0.039859 -0.021010 -0.004381 0.008915 0.017938 0.022045 0.021030 0.015242 0.005649 -0.006184 -0.018223 -0.028185 -0.033841 -0.033340 -0.025511 -0.010081 0.012231 0.039769 0.070147 0.100562 0.128184 0.150531 0.165790 0.173005 0.172120 0.163879 0.149584 0.130804 0.109060 0.085584 0.061168 0.036161 0.010582 -0.015667 -0.042554 -0.069690 -0.096189 -0.120656 -0.141309 -0.156224 -0.163664 -0.162407 -0.152034 -0.133085 -0.107069 -0.076307 -0.043640 -0.012040 0.015786 0.037751 0.052623 0.060119 0.060832 0.056044 0.047437 0.036791 0.025718 0.015476 0.006889 0.000381 -0.003922 -0.006048 
hipp_sf_0009_ERC -0.092600 -0.077244 -0.049313 -0.013751 0.023429 0.056448 0.080949 0.094802 0.098328 0.093915 0.085125 0.075555 0.067735 0.062370 0.058129 0.052054 0.040478 0.020249 -0.010086 -0.049434 -0.093903 -0.137256 -0.171997 -0.190881 -0.188512 -0.162665 -0.115008 -0.051048 0.020722 0.090305 0.148018 0.186238 0.200732 0.191291 0.161538 0.118010 0.068707 0.021472 -0.017445 -0.044335 -0.058321 -0.060971 -0.055395 -0.045105 -0.032940 -0.020366 -0.007311 0.007428 0.025344 0.047193 0.072108 0.097131 0.117364 0.126762 0.119438 0.091196 0.040920 -0.028531 -0.110200 -0.193788 -0.267199 -0.318612 -0.338677 -0.322385 -0.270227 -0.188376 -0.087826 0.017353 0.112333 0.183971 0.222914 0.225002 0.191714 0.129636 0.049086 -0.037783 -0.119030 -0.184736 -0.228277 -0.246895 -0.241552 -0.216204 -0.176713 -0.129669 -0.081343 -0.036942 -0.000218 0.026608 0.042702 0.048391 0.044958 0.034507 0.019900 0.004684 -0.007066 -0.011090 -0.003476 0.018640 0.056349 0.108379 0.170818 0.237303 0.299720 0.349351 0.378299 0.380918 0.354959 0.302173 0.228202 0.141733 0.053069 -0.027636 -0.092111 -0.135325 -0.156176 -0.157386 -0.144608 -0.124975 -0.105395 -0.090991 -0.084023 -0.083542 -0.085839 -0.085570 -0.077306 -0.057111 -0.023791 0.020497 0.070441 0.118531 0.156576 0.177456 0.176687 0.153469 0.110970 0.055760 -0.003453 -0.057534 -0.098698 -0.121955 -0.125950 -0.112999 -0.088369 -0.058973 -0.031798 -0.012421 -0.003947 -0.006573 -0.017858 -0.033582 -0.048966 -0.059942 -0.064154 -0.061473 -0.053904 -0.044943 -0.038555 -0.038045 -0.045112 -0.059312 -0.078077 -0.097270 -0.112151 -0.118501 -0.113658 -0.097196 -0.071110 -0.039459 -0.007564 0.019055 0.035752 0.039609 0.029906 0.008121 -0.022478 -0.057533 -0.092381 -0.122759 -0.145264 -0.157526 -0.158128 -0.146371 -0.122040 -0.085302 -0.036808 0.022005 0.088515 0.158582 0.226470 0.285163 0.327137 0.345516 0.335436 0.295318 0.227751 0.139703 0.041909 -0.052554 -0.130314 -0.180010 -0.194434 -0.172027 -0.117412 -0.040770 0.043869 0.121142 0.177195 0.202310 0.192775 0.151603 0.087943 0.015276 -0.051260 -0.097868 -0.114829 -0.098412 -0.051572 0.016686 0.093145 0.163032 0.212926 0.233333 0.220409 0.176502 0.109428 0.030682 -0.047009 -0.112265 -0.157208 -0.178764 -0.178863 -0.163550 -0.141239 -0.120542 -0.108160 -0.107311 -0.117036 -0.132518 -0.146309 -0.150201 -0.137283 -0.103747 -0.050035 0.018922 0.094417 0.165487 0.220914 0.251301 0.250805 0.218198 0.157068 0.075158 -0.017002 -0.107857 -0.186667 -0.245048 -0.278002 -0.284274 -0.266069 -0.228260 -0.177297 -0.120062 -0.062890 -0.010889 0.032380 0.064902 0.085981 0.095927 0.095747 0.086954 0.071465 0.051591 0.030018 0.009709 -0.006325 -0.015406 -0.015649 -0.006430 0.011285 0.034860 0.060233 0.082488 0.096695 0.098863 0.086822 0.060841 0.023829 -0.018977 -0.060785 -0.094397 -0.113506 -0.113898 -0.094328 -0.056871 -0.006668 0.048902 0.101488 0.143225 0.168123 0.173098 0.158468 0.127805 0.087169 0.043892 0.005138 -0.023465 -0.038858 -0.041028 -0.032861 -0.019385 -0.006570 0.000058 -0.003292 -0.017757 -0.041483 -0.069941 -0.096853 -0.115538 -0.120422 -0.108372 -0.079576 -0.037767 0.010312 0.056106 0.090906 0.107642 0.102457 0.075709 0.032174 -0.019637 -0.068969 -0.104858 -0.118333 -0.104356 -0.063083 -0.000170 0.073997 0.146054 0.202104 0.230387 0.223694 0.181007 0.108024 0.016410 -0.078138 -0.158692 -0.210237 -0.222587 -0.192479 -0.124430 -0.030148 0.073442 0.167205 0.233292 0.258479 0.236698 0.170274 0.069624 -0.048567 -0.164326 -0.258000 -0.313803 -0.322629 -0.283626 -0.204231 -0.098684 0.014665 0.116737 0.191137 0.226967 0.220516 0.175568 0.102331 0.015235 -0.069906 -0.138803 -0.181114 -0.191959 -0.172287 -0.128131 -0.068984 -0.005701 0.051623 0.095350 0.121295 0.128883 0.120535 0.100539 0.073702 0.044161 0.014592 -0.014007 -0.041985 -0.070297 -0.099617 -0.129557 -0.158250 -0.182419 -0.197929 -0.200698 -0.187740 -0.158060 -0.113187 -0.057168 0.003984 0.063282 0.113997 0.150844 0.170873 0.173880 0.162243 0.140265 0.113166 0.085986 0.062639 0.045333 0.034456 0.028921 0.026851 0.026384 
hipp_sf_0010_BA35 -0.137372 -0.107760 -0.054300 0.012803 0.081241 0.139379 0.178818 0.196105 0.193207 0.176619 0.155334 0.138196 0.131282 0.136001 0.148409 0.159965 0.159600 0.136647 0.083939 0.000340 -0.107966 -0.227806 -0.341006 -0.427696 -0.470272 -0.457186 -0.385739 -0.263241 -0.106234 0.062136 0.216114 0.331923 0.392060 0.388454 0.323891 0.211441 0.072042 -0.069273 -0.187742 -0.263025 -0.282390 -0.242414 -0.149013 -0.015937 0.137863 0.291406 0.424787 0.521693 0.571017 0.567482 0.511394 0.407800 0.265386 0.095380 -0.089368 -0.275094 -0.447743 -0.593650 -0.700440 -0.758201 -0.760857 -0.707498 -0.603345 -0.459995 -0.294677 -0.128422 0.016699 0.120909 0.170036 0.158179 0.089129 -0.023838 -0.159879 -0.293963 -0.401136 -0.460889 -0.460805 -0.398741 -0.283123 -0.131268 0.033942 0.188378 0.311099 0.388046 0.414253 0.394188 0.340214 0.269550 0.200435 0.148322 0.122916 0.126645 0.154820 0.197371 0.241663 0.275723 0.291093 0.284662 0.259096 0.221798 0.182714 0.151553 0.135101 0.135324 0.148701 0.166973 0.179130 0.174167 0.143955 0.085540 0.002327 -0.096169 -0.195945 -0.281187 -0.337394 -0.354290 -0.327878 -0.261221 -0.163815 -0.049720 0.065100 0.165639 0.240297 0.282434 0.290785 0.268750 0.222865 0.160889 0.090041 0.015795 -0.058505 -0.131218 -0.201390 -0.267539 -0.326687 -0.374009 -0.403283 -0.408098 -0.383538 -0.327887 -0.243862 -0.138953 -0.024649 0.085391 0.177888 0.242676 0.274963 0.276551 0.255646 0.225189 0.199995 0.193281 0.213352 0.261191 0.329589 0.404077 0.465575 0.494256 0.473844 0.395427 0.259949 0.078782 -0.127814 -0.334094 -0.513438 -0.643265 -0.709239 -0.707918 -0.647298 -0.545149 -0.425472 -0.313805 -0.232335 -0.195760 -0.208731 -0.265290 -0.350383 -0.443033 -0.520512 -0.562641 -0.555379 -0.493086 -0.379111 -0.224747 -0.046893 0.135004 0.302083 0.438703 0.534183 0.583495 0.587008 0.549549 0.479140 0.385745 0.280250 0.173734 0.076967 -0.000052 -0.048683 -0.062477 -0.038204 0.023104 0.115401 0.227512 0.343919 0.446560 0.517480 0.541966 0.511563 0.426325 0.295708 0.137741 -0.023550 -0.162120 -0.254589 -0.284749 -0.246936 -0.147551 -0.004281 0.156890 0.306383 0.416517 0.466712 0.447308 0.361237 0.223149 0.056215 -0.112742 -0.258728 -0.363487 -0.418789 -0.427390 -0.401484 -0.359038 -0.318868 -0.295625 -0.295862 -0.316145 -0.343683 -0.359383 -0.342670 -0.276989 -0.154699 0.019794 0.229483 0.447030 0.639467 0.774403 0.826440 0.782439 0.644483 0.429871 0.168120 -0.104448 -0.351394 -0.542762 -0.660221 -0.699723 -0.671187 -0.595362 -0.498634 -0.406955 -0.340241 -0.308456 -0.310169 -0.333820 -0.361313 -0.373027 -0.353039 -0.293334 -0.196035 -0.073136 0.056151 0.169823 0.248218 0.278665 0.258568 0.196187 0.108953 0.019672 -0.048509 -0.077245 -0.057071 0.010494 0.113277 0.231157 0.340501 0.419360 0.452248 0.433458 0.368198 0.271321 0.163967 0.068893 0.005540 -0.014075 0.012242 0.076658 0.163286 0.251834 0.322069 0.358090 0.351463 0.302574 0.219967 0.117929 0.012947 -0.080085 -0.150998 -0.196112 -0.218263 -0.225161 -0.226545 -0.230903 -0.242605 -0.260215 -0.276444 -0.279795 -0.257557 -0.199446 -0.101007 0.034061 0.193303 0.356859 0.500603 0.600460 0.637031 0.599547 0.488316 0.315102 0.101320 -0.125609 -0.337043 -0.508075 -0.621679 -0.671251 -0.661049 -0.604524 -0.520910 -0.430852 -0.351956 -0.295221 -0.263034 -0.249124 -0.240425 -0.220436 -0.173329 -0.087966 0.039035 0.201787 0.385494 0.568625 0.726464 0.835390 0.877069 0.841803 0.730440 0.554521 0.334662 0.097478 -0.128419 -0.316668 -0.446972 -0.507889 -0.498212 -0.426773 -0.310767 -0.172915 -0.037907 0.071299 0.136810 0.148290 0.104289 0.012258 -0.112710 -0.250216 -0.377621 -0.473392 -0.520271 -0.507818 -0.433966 -0.305376 -0.136540 0.052241 0.237707 0.396906 0.510381 0.564834 0.554840 0.483397 0.361244 0.205076 0.034975 -0.128519 -0.267232 -0.367636 -0.422256 -0.430071 -0.395893 -0.328961 -0.241027 -0.144341 -0.049866 0.033991 0.101987 0.152003 0.184470 0.201488 0.205882 0.200417 0.187323 0.168168 0.144050 0.115957 0.085153 0.053436 0.023173 -0.002909 -0.022132 -0.032344 
hipp_sf_0011_BA36 -0.303533 -0.248379 -0.151313 -0.035523 0.071633 0.145473 0.170218 0.143048 0.074948 -0.011903 -0.089627 -0.131728 -0.120044 -0.049874 0.068056 0.209338 0.341063 0.429314 0.447261 0.381983 0.238374 0.039127 -0.179321 -0.374103 -0.504926 -0.542811 -0.476627 -0.315948 -0.089539 0.160235 0.385936 0.544696 0.606944 0.562385 0.421998 0.215704 -0.013749 -0.219319 -0.358820 -0.402802 -0.339628 -0.176879 0.060966 0.337843 0.613085 0.848531 1.014302 1.092240 1.076648 0.972609 0.792720 0.553349 0.271478 -0.037106 -0.358023 -0.677220 -0.979336 -1.246439 -1.458015 -1.592666 -1.631502 -1.562565 -1.385233 -1.113322 -0.775752 -0.414115 -0.077155 0.187061 0.339863 0.359810 0.247857 0.028558 -0.253285 -0.540117 -0.771990 -0.897802 -0.885174 -0.726911 -0.442652 -0.075279 0.317257 0.673086 0.938265 1.076939 1.077726 0.955087 0.745455 0.499038 0.269094 0.100983 0.023311 0.042981 0.145080 0.297461 0.458876 0.588734 0.656284 0.647199 0.566144 0.434889 0.286502 0.157048 0.076759 0.062710 0.114670 0.215043 0.332876 0.430995 0.474618 0.439506 0.317818 0.120384 -0.125093 -0.379475 -0.600067 -0.749206 -0.801734 -0.749803 -0.604082 -0.391240 -0.148351 0.084469 0.271618 0.388179 0.423556 0.381998 0.280169 0.142511 -0.004407 -0.137271 -0.240018 -0.305723 -0.336244 -0.339963 -0.328404 -0.312665 -0.300549 -0.294989 -0.293997 -0.291925 -0.281534 -0.256180 -0.211527 -0.146334 -0.062251 0.037177 0.147831 0.266125 0.389459 0.515800 0.642499 0.764728 0.874158 0.958451 1.002045 0.988335 0.902979 0.737691 0.493626 0.183439 -0.168697 -0.529448 -0.860840 -1.126237 -1.296652 -1.356129 -1.305013 -1.160322 -0.953023 -0.722610 -0.510015 -0.350214 -0.265984 -0.264055 -0.334390 -0.452682 -0.585517 -0.697068 -0.755965 -0.740935 -0.644184 -0.471964 -0.242433 0.018532 0.282537 0.523681 0.722364 0.867223 0.955064 0.989120 0.976390 0.924921 0.841864 0.732772 0.602225 0.455415 0.299974 0.147255 0.012369 -0.087365 -0.135439 -0.120041 -0.037861 0.103256 0.283710 0.474101 0.639660 0.746436 0.768061 0.691623 0.521292 0.278720 -0.000096 -0.271020 -0.489936 -0.621190 -0.644600 -0.559501 -0.384957 -0.156020 0.083182 0.288101 0.422336 0.464316 0.410720 0.276006 0.088262 -0.117567 -0.307470 -0.455372 -0.547774 -0.585047 -0.579220 -0.548936 -0.512974 -0.484031 -0.464428 -0.444912 -0.406952 -0.328058 -0.188845 0.019917 0.292103 0.604369 0.918359 1.186774 1.362182 1.406728 1.300617 1.047411 0.674845 0.230768 -0.225078 -0.631829 -0.938611 -1.113683 -1.149692 -1.063963 -0.893797 -0.687856 -0.495517 -0.356527 -0.293188 -0.306697 -0.378345 -0.475157 -0.558594 -0.594257 -0.560338 -0.452892 -0.286757 -0.091965 0.093486 0.232756 0.299068 0.282286 0.191630 0.053893 -0.092467 -0.206011 -0.251807 -0.209572 -0.078602 0.121624 0.355325 0.577924 0.745510 0.824192 0.797268 0.668707 0.462207 0.216128 -0.024529 -0.217295 -0.330565 -0.349316 -0.277104 -0.134079 0.048353 0.234845 0.393675 0.502848 0.553430 0.549556 0.505337 0.439647 0.370231 0.308705 0.257711 0.210941 0.155965 0.079080 -0.029149 -0.169169 -0.329900 -0.489209 -0.617518 -0.683853 -0.663040 -0.542398 -0.326302 -0.037434 0.285795 0.595289 0.841670 0.983360 0.994482 0.869920 0.626474 0.299818 -0.062126 -0.408069 -0.692683 -0.884507 -0.970884 -0.958986 -0.872855 -0.747168 -0.619108 -0.520078 -0.468981 -0.468412 -0.504488 -0.550264 -0.571962 -0.536685 -0.420037 -0.212105 0.079348 0.429078 0.797874 1.138705 1.404344 1.555117 1.565431 1.428023 1.155328 0.777807 0.339656 -0.107397 -0.511193 -0.826107 -1.018922 -1.072886 -0.989479 -0.787789 -0.501626 -0.174815 0.144728 0.411396 0.587963 0.650571 0.591968 0.422516 0.168780 -0.130217 -0.428612 -0.680457 -0.846640 -0.900915 -0.834061 -0.655438 -0.391607 -0.082157 0.226613 0.489142 0.667901 0.739281 0.697038 0.552697 0.332890 0.074166 -0.183720 -0.404730 -0.562379 -0.643411 -0.648719 -0.591465 -0.492964 -0.377299 -0.265918 -0.173350 -0.104947 -0.057020 -0.019218 0.021552 0.076670 0.151947 0.245329 0.346743 0.440125 0.507170 0.531897 0.504926 0.426428 0.306974 0.166036 0.028393 -0.080781 -0.141071 
hipp_sf_0012_PHC -0.076679 -0.066365 -0.046807 -0.020026 0.011245 0.043894 0.074820 0.101352 0.121603 0.134719 0.140941 0.141456 0.138037 0.132533 0.126299 0.119707 0.111869 0.100681 0.083226 0.056497 0.018320 -0.031730 -0.091644 -0.156728 -0.219941 -0.272821 -0.306909 -0.315398 -0.294700 -0.245566 -0.173464 -0.088041 -0.001698 0.072530 0.123397 0.143699 0.131868 0.092529 0.035825 -0.024425 -0.073446 -0.098555 -0.091957 -0.052657 0.012937 0.091944 0.167335 0.221264 0.238749 0.210966 0.137458 0.026759 -0.104772 -0.235721 -0.343522 -0.408723 -0.418789 -0.370663 -0.271557 -0.137776 0.008229 0.142019 0.241740 0.292207 0.287716 0.233017 0.142279 0.036232 -0.061910 -0.130977 -0.155909 -0.130592 -0.058925 0.046052 0.164769 0.274934 0.355776 0.391904 0.376060 0.310274 0.205263 0.078258 -0.050274 -0.160348 -0.235901 -0.267349 -0.252824 -0.197963 -0.114387 -0.017245 0.077644 0.156507 0.209683 0.232744 0.226550 0.196346 0.150180 0.097029 0.045008 0.000026 -0.034935 -0.059832 -0.076967 -0.089984 -0.102699 -0.118050 -0.137351 -0.159980 -0.183530 -0.204346 -0.218309 -0.221702 -0.211988 -0.188360 -0.151985 -0.105915 -0.054693 -0.003742 0.041388 0.075775 0.095801 0.099646 0.087545 0.061781 0.026394 -0.013333 -0.051566 -0.082694 -0.102082 -0.106690 -0.095472 -0.069486 -0.031696 0.013506 0.060975 0.105576 0.142904 0.169826 0.184770 0.187711 0.179894 0.163351 0.140364 0.112969 0.082653 0.050273 0.016228 -0.019195 -0.055407 -0.091173 -0.124453 -0.152514 -0.172311 -0.181078 -0.176987 -0.159719 -0.130777 -0.093446 -0.052353 -0.012695 0.020708 0.044347 0.056722 0.058638 0.053006 0.044181 0.036964 0.035497 0.042292 0.057637 0.079521 0.104113 0.126687 0.142787 0.149338 0.145435 0.132588 0.114349 0.095369 0.080116 0.071556 0.070135 0.073364 0.076155 0.071911 0.054147 0.018326 -0.036556 -0.107012 -0.185054 -0.259226 -0.316546 -0.345022 -0.336240 -0.287462 -0.202754 -0.092820 0.026501 0.136870 0.220729 0.264610 0.261794 0.213784 0.130230 0.027291 -0.075285 -0.157826 -0.204427 -0.205947 -0.161725 -0.079667 0.025306 0.134141 0.227296 0.288412 0.307307 0.281712 0.217429 0.126937 0.026759 -0.065859 -0.136254 -0.174992 -0.179351 -0.153383 -0.106618 -0.051742 -0.001754 0.032752 0.045640 0.036223 0.009015 -0.027624 -0.063626 -0.089624 -0.099118 -0.089923 -0.064613 -0.029885 0.004969 0.030169 0.037634 0.022808 -0.014257 -0.068780 -0.132095 -0.193273 -0.241192 -0.266629 -0.263980 -0.232294 -0.175432 -0.101370 -0.020792 0.054742 0.114724 0.151374 0.160812 0.143558 0.104313 0.051116 -0.005966 -0.056389 -0.090670 -0.101732 -0.085855 -0.043162 0.022416 0.103650 0.190934 0.273500 0.340780 0.383770 0.396225 0.375546 0.323232 0.244807 0.149221 0.047741 -0.047507 -0.125188 -0.176346 -0.195686 -0.182349 -0.140014 -0.076301 -0.001554 0.072823 0.136185 0.180310 0.200615 0.196711 0.172183 0.133654 0.089311 0.047180 0.013494 -0.008520 -0.019208 -0.022270 -0.023826 -0.030942 -0.049916 -0.084688 -0.135695 -0.199430 -0.268792 -0.334204 -0.385268 -0.412676 -0.409984 -0.374940 -0.310088 -0.222547 -0.122987 -0.023991 0.061900 0.124140 0.155778 0.154452 0.122648 0.067191 -0.001896 -0.072959 -0.134427 -0.176416 -0.191971 -0.177815 -0.134526 -0.066194 0.020351 0.116571 0.213347 0.302047 0.375399 0.428108 0.457169 0.461899 0.443714 0.405724 0.352194 0.287953 0.217816 0.146065 0.076062 0.010026 -0.050996 -0.106970 -0.158534 -0.206544 -0.251589 -0.293549 -0.331315 -0.362734 -0.384818 -0.394204 -0.387811 -0.363572 -0.321093 -0.262120 -0.190664 -0.112747 -0.035754 0.032516 0.084963 0.116263 0.123737 0.107834 0.072134 0.022861 -0.032022 -0.083978 -0.125134 -0.149369 -0.153072 -0.135469 -0.098474 -0.046124 0.016259 0.083010 0.148975 0.210131 0.263874 0.308955 0.345142 0.372711 0.391938 0.402713 0.404392 0.395930 0.376245 0.344723 0.301729 0.248972 0.189602 0.127986 0.069176 0.018147 -0.021039 -0.045974 -0.056399 -0.054314 -0.043683 -0.029766 -0.018188 -0.013938 -0.020484 -0.039166 -0.069011 -0.106981 -0.148615 -0.188927 -0.223379 -0.248727 -0.263581 -0.268549 -0.265972 -0.259293 -0.252209 -0.247797 
