13 420
hipp_sf_0000_BG 0.001270 0.002682 0.005241 0.008482 0.011840 0.014782 0.016914 0.018058 0.018258 0.017741 0.016814 0.015758 0.014716 0.013638 0.012271 0.010227 0.007088 0.002542 -0.003491 -0.010786 -0.018802 -0.026753 -0.033738 -0.038918 -0.041684 -0.041786 -0.039393 -0.035061 -0.029616 -0.023980 -0.018974 -0.015149 -0.012671 -0.011308 -0.010504 -0.009525 -0.007661 -0.004414 0.000362 0.006402 0.013064 0.019461 0.024653 0.027846 0.028574 0.026801 0.022930 0.017716 0.012098 0.006995 0.003116 0.000818 0.000056 0.000428 0.001308 0.002030 0.002074 0.001223 -0.000372 -0.002215 -0.003589 -0.003735 -0.002061 0.001677 0.007280 0.014095 0.021127 0.027225 0.031317 0.032645 0.030928 0.026434 0.019937 0.012557 0.005534 -0.000038 -0.003431 -0.004438 -0.003404 -0.001146 0.001236 0.002606 0.002049 -0.000926 -0.006269 -0.013389 -0.021275 -0.028697 -0.034463 -0.037655 -0.037817 -0.035040 -0.029938 -0.023520 -0.016986 -0.011493 -0.007934 -0.006783 -0.008018 -0.011149 -0.015328 -0.019522 -0.022704 -0.024032 -0.022985 -0.019421 -0.013574 -0.005984 0.002618 0.011434 0.019724 0.026895 0.032553 0.036519 0.038800 0.039547 0.038990 0.037388 0.034977 0.031941 0.028396 0.024392 0.019928 0.014974 0.009510 0.003557 -0.002777 -0.009275 -0.015589 -0.021257 -0.025730 -0.028451 -0.028943 -0.026916 -0.022364 -0.015634 -0.007439 0.001197 0.009064 0.014946 0.017840 0.017159 0.012891 0.005665 -0.003303 -0.012371 -0.019750 -0.023820 -0.023463 -0.018313 -0.008895 0.003412 0.016560 0.028174 0.035969 0.038176 0.033892 0.023287 0.007613 -0.010983 -0.029816 -0.046127 -0.057559 -0.062564 -0.060655 -0.052454 -0.039542 -0.024124 -0.008601 0.004882 0.014807 0.020512 0.022226 0.020924 0.018030 0.015048 0.013205 0.013178 0.014976 0.017985 0.021173 0.023390 0.023696 0.021630 0.017364 0.011691 0.005851 0.001245 -0.000912 0.000092 0.004251 0.010794 0.018310 0.025027 0.029197 0.029489 0.025314 0.016998 0.005769 -0.006456 -0.017437 -0.025058 -0.027766 -0.024907 -0.016886 -0.005119 0.008218 0.020591 0.029594 0.033394 0.031084 0.022845 0.009904 -0.005700 -0.021498 -0.035038 -0.044309 -0.048067 -0.046002 -0.038727 -0.027605 -0.014456 -0.001221 0.010370 0.019029 0.024043 0.025272 0.023037 0.017948 0.010715 0.001995 -0.007700 -0.018006 -0.028643 -0.039309 -0.049568 -0.058788 -0.066130 -0.070638 -0.071383 -0.067652 -0.059139 -0.046078 -0.029303 -0.010188 0.009508 0.027884 0.043172 0.054010 0.059643 0.060031 0.055835 0.048289 0.038977 0.029570 0.021554 0.016014 0.013494 0.013966 0.016893 0.021374 0.026332 0.030717 0.033677 0.034671 0.033515 0.030369 0.025653 0.019948 0.013880 0.008024 0.002836 -0.001377 -0.004459 -0.006376 -0.007184 -0.007002 -0.005988 -0.004339 -0.002294 -0.000145 0.001757 0.003024 0.003261 0.002119 -0.000634 -0.005048 -0.010939 -0.017868 -0.025156 -0.031951 -0.037324 -0.040404 -0.040513 -0.037291 -0.030789 -0.021506 -0.010358 0.001411 0.012385 0.021157 0.026536 0.027726 0.024460 0.017067 0.006451 -0.006022 -0.018698 -0.029875 -0.038055 -0.042165 -0.041734 -0.036970 -0.028730 -0.018392 -0.007632 0.001852 0.008629 0.011776 0.011050 0.006929 0.000543 -0.006526 -0.012525 -0.015848 -0.015337 -0.010512 -0.001677 0.010111 0.023209 0.035676 0.045611 0.051495 0.052472 0.048504 0.040379 0.029571 0.017962 0.007492 -0.000207 -0.004119 -0.004029 -0.000570 0.004913 0.010626 0.014683 0.015489 0.012071 0.004292 -0.007089 -0.020526 -0.033950 -0.045133 -0.052090 -0.053444 -0.048680 -0.038257 -0.023535 -0.006562 0.010275 0.024642 0.034634 0.039078 0.037695 0.031107 0.020704 0.008374 -0.003829 -0.014018 -0.020774 -0.023332 -0.021657 -0.016385 -0.008662 0.000088 0.008420 0.015103 0.019293 0.020621 0.019197 0.015532 0.010398 0.004676 -0.000803 -0.005372 -0.008606 -0.010336 -0.010628 -0.009716 -0.007933 -0.005637 -0.003156 -0.000751 0.001387 0.003133 0.004409 0.005165 0.005370 0.005009 0.004092 0.002667 0.000833 -0.001258 -0.003405 -0.005382 -0.006969 -0.007979 -0.008298 -0.007899 -0.006849 -0.005293 -0.003432 -0.001483 0.000356 0.001938 0.003181 0.004071 0.004646 0.004972 0.005116 
hipp_sf_0001_CA1 -0.425691 -0.365066 -0.254892 -0.115069 0.029701 0.154850 0.240741 0.276327 0.260923 0.203771 0.121553 0.034442 -0.038392 -0.082837 -0.092590 -0.070029 -0.025114 0.027386 0.071626 0.094502 0.088669 0.054097 -0.002166 -0.067893 -0.128747 -0.171780 -0.188485 -0.176719 -0.141028 -0.091330 -0.040311 -0.000148 0.020611 0.019269 -0.000243 -0.028242 -0.051617 -0.057065 -0.034490 0.020256 0.103919 0.206074 0.310984 0.400722 0.458857 0.473890 0.441694 0.366410 0.259618 0.137967 0.019810 -0.078432 -0.145376 -0.176608 -0.175049 -0.149752 -0.113435 -0.079369 -0.058322 -0.056260 -0.073280 -0.103971 -0.139056 -0.167883 -0.181150 -0.173221 -0.143502 -0.096586 -0.041168 0.011966 0.052398 0.072381 0.068472 0.042126 -0.000823 -0.051656 -0.100821 -0.140060 -0.164103 -0.171564 -0.164871 -0.149312 -0.131483 -0.117552 -0.111787 -0.115680 -0.127853 -0.144705 -0.161576 -0.174064 -0.179133 -0.175695 -0.164543 -0.147676 -0.127259 -0.104563 -0.079253 -0.049296 -0.011567 0.036933 0.097591 0.168849 0.245463 0.318703 0.377579 0.410970 0.410221 0.371623 0.298155 0.199952 0.093214 -0.002357 -0.067207 -0.085943 -0.050874 0.035747 0.161351 0.304785 0.439919 0.540476 0.585149 0.561947 0.470839 0.324070 0.144025 -0.041005 -0.202301 -0.316358 -0.369477 -0.360360 -0.300127 -0.209727 -0.115271 -0.042268 -0.009988 -0.027172 -0.090031 -0.182984 -0.282020 -0.359985 -0.392670 -0.364420 -0.272012 -0.125977 0.050991 0.228229 0.373070 0.457352 0.463127 0.386387 0.238025 0.041843 -0.169992 -0.363106 -0.507432 -0.582750 -0.582178 -0.512920 -0.394216 -0.252971 -0.118022 -0.014270 0.042132 0.046571 0.006245 -0.062033 -0.135960 -0.192834 -0.214516 -0.191206 -0.123293 -0.020952 0.098328 0.213676 0.305331 0.358711 0.367202 0.333143 0.266845 0.183985 0.101978 0.036186 -0.003211 -0.013032 0.002739 0.034398 0.069179 0.094469 0.100856 0.084303 0.047009 -0.003198 -0.054761 -0.095112 -0.113596 -0.103930 -0.065678 -0.004443 0.069242 0.142039 0.200480 0.233609 0.235046 0.204081 0.145621 0.069062 -0.013608 -0.090058 -0.149736 -0.185460 -0.194220 -0.177126 -0.138624 -0.085243 -0.024204 0.037796 0.095381 0.144797 0.183750 0.210951 0.225581 0.226904 0.214167 0.186834 0.145084 0.090392 0.025991 -0.042999 -0.109887 -0.167201 -0.207827 -0.226294 -0.219917 -0.189534 -0.139644 -0.077855 -0.013723 0.042838 0.083245 0.101744 0.096384 0.069299 0.026233 -0.024591 -0.074026 -0.113669 -0.137320 -0.141951 -0.128029 -0.099154 -0.061136 -0.020726 0.015718 0.043355 0.059555 0.064059 0.058615 0.046218 0.030152 0.013082 -0.003603 -0.020049 -0.037750 -0.058970 -0.085931 -0.119953 -0.160752 -0.206067 -0.251710 -0.292041 -0.320788 -0.332070 -0.321416 -0.286616 -0.228248 -0.149783 -0.057277 0.041317 0.137083 0.221201 0.285966 0.325645 0.337076 0.319964 0.276848 0.212790 0.134811 0.051173 -0.029449 -0.098795 -0.149808 -0.177288 -0.178361 -0.152722 -0.102610 -0.032517 0.051335 0.141712 0.231176 0.312891 0.381302 0.432613 0.464974 0.478381 0.474293 0.455076 0.423362 0.381475 0.331018 0.272732 0.206631 0.132404 0.049970 -0.039911 -0.135149 -0.232060 -0.325441 -0.408984 -0.476003 -0.520366 -0.537453 -0.524996 -0.483622 -0.416988 -0.331466 -0.235416 -0.138135 -0.048668 0.025351 0.078631 0.108793 0.116496 0.105108 0.080006 0.047633 0.014467 -0.013896 -0.033435 -0.042053 -0.039566 -0.027379 -0.007941 0.015882 0.041373 0.066359 0.089342 0.109387 0.125796 0.137686 0.143607 0.141342 0.127976 0.100296 0.055477 -0.008049 -0.089718 -0.186142 -0.290811 -0.394322 -0.485191 -0.551210 -0.581168 -0.566686 -0.503856 -0.394367 -0.245865 -0.071401 0.112015 0.285596 0.431380 0.534841 0.587073 0.586157 0.537450 0.452702 0.348124 0.241711 0.150271 0.086677 0.057829 0.063693 0.097584 0.147660 0.199325 0.238111 0.252482 0.236040 0.188706 0.116660 0.031060 -0.054206 -0.125290 -0.171118 -0.185563 -0.168616 -0.126329 -0.069565 -0.011785 0.033650 0.056138 0.049918 0.015150 -0.042193 -0.111591 -0.180132 -0.235107 -0.266490 -0.268835 -0.242188 -0.191863 -0.127169 -0.059360 0.000714 0.044771 0.068609 0.072666 0.061544 0.042613 0.024060 0.012811 
hipp_sf_0002_CA2 0.327270 0.288772 0.219024 0.131095 0.041299 -0.033993 -0.081512 -0.093611 -0.069639 -0.015945 0.055459 0.129258 0.189728 0.223579 0.222193 0.182897 0.109076 0.009215 -0.104853 -0.220076 -0.324249 -0.407634 -0.463901 -0.490324 -0.487357 -0.457798 -0.405853 -0.336321 -0.254093 -0.163969 -0.070750 0.020604 0.104905 0.176919 0.231858 0.266116 0.278074 0.268758 0.242108 0.204698 0.164857 0.131308 0.111558 0.110361 0.128604 0.162902 0.206017 0.248103 0.278533 0.287974 0.270286 0.223849 0.152039 0.062738 -0.033031 -0.123071 -0.196183 -0.244111 -0.262872 -0.253234 -0.220264 -0.172093 -0.118172 -0.067418 -0.026613 0.000597 0.013973 0.016190 0.011772 0.005731 0.002231 0.003610 0.009937 0.019201 0.028027 0.032743 0.030497 0.020144 0.002702 -0.018776 -0.039855 -0.055775 -0.062668 -0.058645 -0.044518 -0.023959 -0.003046 0.010745 0.009925 -0.011491 -0.056634 -0.124840 -0.211313 -0.307465 -0.401915 -0.481986 -0.535488 -0.552512 -0.526960 -0.457575 -0.348313 -0.207981 -0.049204 0.113173 0.263985 0.389706 0.480166 0.529774 0.538067 0.509494 0.452490 0.377977 0.297557 0.221712 0.158304 0.111659 0.082364 0.067808 0.063315 0.063627 0.064380 0.063256 0.060513 0.058778 0.062121 0.074621 0.098774 0.134149 0.176665 0.218756 0.250492 0.261486 0.243236 0.191383 0.107366 -0.000995 -0.120215 -0.233153 -0.321993 -0.371640 -0.372851 -0.324409 -0.233824 -0.116332 0.007719 0.116601 0.191360 0.219534 0.197648 0.131946 0.037142 -0.066568 -0.157660 -0.217734 -0.235336 -0.208328 -0.144303 -0.058934 0.027401 0.093987 0.124215 0.109124 0.049301 -0.045284 -0.157453 -0.266514 -0.352666 -0.401145 -0.405201 -0.367277 -0.298159 -0.214317 -0.134065 -0.073422 -0.042596 -0.043894 -0.071465 -0.112925 -0.152441 -0.174525 -0.167679 -0.127039 -0.055435 0.037318 0.136708 0.226809 0.293764 0.328655 0.329116 0.299348 0.248619 0.188667 0.130710 0.082823 0.048343 0.025691 0.009600 -0.006591 -0.028244 -0.057080 -0.089877 -0.118630 -0.132228 -0.119296 -0.071523 0.013368 0.129813 0.264334 0.397368 0.506727 0.571985 0.578864 0.522606 0.409518 0.256265 0.086961 -0.071383 -0.194125 -0.263849 -0.273767 -0.228926 -0.144945 -0.044551 0.047330 0.108859 0.125806 0.094327 0.021431 -0.076933 -0.179689 -0.265465 -0.317347 -0.326482 -0.293765 -0.229268 -0.149595 -0.073825 -0.018994 0.003824 -0.008040 -0.048414 -0.103919 -0.157244 -0.191280 -0.193131 -0.157095 -0.085944 0.009748 0.114023 0.209119 0.279341 0.314351 0.311142 0.274293 0.214528 0.145966 0.082768 0.035986 0.011313 0.008233 0.020680 0.038949 0.052352 0.051908 0.032430 -0.006472 -0.060642 -0.122733 -0.184240 -0.237636 -0.278041 -0.303997 -0.317201 -0.321329 -0.320343 -0.316823 -0.310842 -0.299748 -0.278981 -0.243703 -0.190812 -0.120740 -0.038457 0.046711 0.122556 0.176509 0.198655 0.184516 0.136869 0.066027 -0.011621 -0.076638 -0.110540 -0.099924 -0.039768 0.064891 0.199388 0.341989 0.468104 0.555287 0.587959 0.560786 0.479927 0.361840 0.229824 0.109046 0.021104 -0.020657 -0.014042 0.031571 0.097392 0.159529 0.194495 0.184718 0.122804 0.013602 -0.126427 -0.272428 -0.396288 -0.472593 -0.484111 -0.425628 -0.305303 -0.143243 0.032383 0.190874 0.304980 0.356101 0.337617 0.255719 0.127629 -0.022321 -0.167855 -0.286023 -0.361447 -0.388702 -0.372412 -0.325153 -0.263774 -0.205020 -0.161506 -0.138939 -0.135187 -0.141340 -0.144445 -0.131225 -0.091878 -0.023047 0.070741 0.177502 0.280024 0.359402 0.399102 0.388688 0.326381 0.219912 0.085475 -0.055025 -0.177872 -0.261823 -0.291954 -0.262332 -0.177061 -0.049534 0.099910 0.247458 0.369769 0.447709 0.469244 0.431082 0.338850 0.205897 0.050969 -0.104782 -0.240992 -0.340989 -0.394021 -0.396537 -0.352400 -0.272065 -0.170860 -0.066640 0.022886 0.082780 0.103112 0.080490 0.018665 -0.071935 -0.175683 -0.274098 -0.348716 -0.384069 -0.370286 -0.304882 -0.193385 -0.048648 0.111080 0.265042 0.393322 0.480078 0.516070 0.500026 0.438567 0.344733 0.235386 0.128004 0.037498 -0.026332 -0.060196 -0.067345 -0.056255 -0.038300 -0.024937 -0.025039 -0.042943 -0.077634 -0.123212 -0.170489 -0.209333 -0.231191 
hipp_sf_0003_DG -0.185146 -0.153524 -0.097038 -0.027670 0.040069 0.092404 0.119350 0.116870 0.087655 0.040339 -0.012625 -0.057949 -0.084628 -0.086485 -0.063536 -0.021898 0.027749 0.072740 0.101446 0.106001 0.084119 0.039558 -0.018832 -0.079254 -0.129764 -0.161046 -0.168513 -0.153217 -0.121390 -0.082725 -0.047847 -0.025585 -0.020735 -0.032848 -0.056355 -0.081985 -0.099141 -0.098640 -0.075140 -0.028658 0.035221 0.106509 0.173073 0.223478 0.249688 0.248995 0.224666 0.185141 0.141943 0.106803 0.088672 0.091369 0.112456 0.143648 0.172714 0.186459 0.174089 0.130179 0.056506 -0.037741 -0.137476 -0.224688 -0.282236 -0.297634 -0.265970 -0.191277 -0.086018 0.031251 0.139560 0.219756 0.258382 0.250364 0.199906 0.119431 0.026786 -0.058654 -0.120137 -0.147022 -0.136876 -0.095732 -0.036505 0.024049 0.069130 0.085590 0.066721 0.013549 -0.065592 -0.157059 -0.244961 -0.314549 -0.355189 -0.362243 -0.337528 -0.288308 -0.225156 -0.159259 -0.099829 -0.052253 -0.017375 0.007986 0.029476 0.053092 0.083087 0.120475 0.162537 0.203442 0.235836 0.252939 0.250597 0.228714 0.191636 0.147353 0.105655 0.075713 0.063658 0.070833 0.093176 0.121994 0.145973 0.154025 0.138262 0.096386 0.032843 -0.041633 -0.112056 -0.162446 -0.179583 -0.156402 -0.094209 -0.003128 0.099437 0.192070 0.253723 0.268252 0.228138 0.136528 0.007090 -0.138361 -0.274018 -0.375180 -0.423223 -0.409393 -0.336607 -0.218870 -0.078430 0.058729 0.168086 0.231384 0.240019 0.196325 0.112541 0.007744 -0.096528 -0.180972 -0.232472 -0.246487 -0.227363 -0.186597 -0.139520 -0.101209 -0.082638 -0.087945 -0.113486 -0.148840 -0.179545 -0.190859 -0.171670 -0.117584 -0.032461 0.072007 0.178602 0.268251 0.324252 0.336070 0.301836 0.228959 0.132699 0.032996 -0.049746 -0.098989 -0.105539 -0.069423 0.000260 0.087449 0.172720 0.237561 0.268367 0.259293 0.213350 0.141538 0.060247 -0.012457 -0.060813 -0.074730 -0.051807 0.002402 0.075880 0.153005 0.218079 0.258729 0.268393 0.247383 0.202338 0.144247 0.085578 0.037208 0.005896 -0.007124 -0.006125 0.000507 0.002670 -0.008658 -0.038918 -0.088369 -0.151773 -0.219439 -0.279367 -0.319987 -0.332829 -0.314518 -0.267598 -0.200039 -0.123516 -0.050911 0.006409 0.040880 0.050092 0.036909 0.008367 -0.026346 -0.058324 -0.081178 -0.092545 -0.094482 -0.092694 -0.094766 -0.107874 -0.136520 -0.180895 -0.236266 -0.293591 -0.341236 -0.367422 -0.362851 -0.322887 -0.248804 -0.147787 -0.031668 0.085316 0.189258 0.269206 0.319085 0.338517 0.332378 0.309229 0.279014 0.250578 0.229609 0.217469 0.211197 0.204654 0.190527 0.162689 0.118321 0.059253 -0.007835 -0.072452 -0.122389 -0.146409 -0.136939 -0.092145 -0.016889 0.077694 0.175964 0.260555 0.315612 0.329826 0.298634 0.225134 0.119531 -0.002782 -0.124084 -0.227555 -0.300208 -0.334947 -0.331370 -0.295201 -0.236540 -0.167356 -0.098788 -0.038862 0.008914 0.045780 0.076792 0.108978 0.149021 0.201040 0.264980 0.335999 0.405014 0.460307 0.489865 0.483953 0.437376 0.350936 0.231755 0.092365 -0.051277 -0.182470 -0.286643 -0.353848 -0.380393 -0.369313 -0.329572 -0.274173 -0.217546 -0.172723 -0.148844 -0.149485 -0.172120 -0.208811 -0.247986 -0.276961 -0.284692 -0.264230 -0.214384 -0.140252 -0.052500 0.034494 0.105302 0.146417 0.148969 0.110653 0.036495 -0.061734 -0.167389 -0.261777 -0.327451 -0.351379 -0.327372 -0.257349 -0.151139 -0.024867 0.101817 0.209171 0.280812 0.306568 0.284180 0.219555 0.125508 0.019265 -0.080808 -0.158590 -0.203065 -0.210082 -0.182706 -0.130100 -0.065205 -0.001730 0.048922 0.080095 0.091197 0.087587 0.079067 0.077308 0.092793 0.131952 0.195175 0.276154 0.362789 0.439476 0.490345 0.502751 0.470256 0.394426 0.284995 0.158308 0.034301 -0.067371 -0.131275 -0.149357 -0.122639 -0.061060 0.018538 0.095891 0.151533 0.170881 0.147306 0.083538 -0.008917 -0.112225 -0.206026 -0.271774 -0.296680 -0.276412 -0.215960 -0.128469 -0.032327 0.052896 0.110721 0.131329 0.113623 0.065318 0.001047 -0.061115 -0.103920 -0.115067 -0.090222 -0.034258 0.039606 0.112595 0.164519 0.178360 0.144286 0.062212 -0.057707 -0.196778 -0.331349 -0.437519 -0.495983 
hipp_sf_0004_CA3 0.116399 0.132042 0.159656 0.192753 0.223537 0.244706 0.251118 0.240924 0.215886 0.180811 0.142217 0.106563 0.078469 0.059380 0.047018 0.035815 0.018257 -0.013132 -0.063605 -0.134337 -0.221362 -0.315628 -0.404244 -0.472741 -0.507915 -0.500679 -0.448307 -0.355549 -0.234320 -0.101937 0.021806 0.118191 0.173062 0.179559 0.139532 0.063317 -0.032091 -0.126164 -0.198643 -0.233300 -0.220918 -0.160936 -0.061432 0.062503 0.191670 0.306343 0.389820 0.431250 0.427221 0.381860 0.305499 0.212261 0.117121 0.033060 -0.031090 -0.071728 -0.090356 -0.092350 -0.085030 -0.075506 -0.068836 -0.066924 -0.068368 -0.069262 -0.064681 -0.050460 -0.024777 0.010880 0.051627 0.090014 0.117617 0.126981 0.113483 0.076627 0.020453 -0.047073 -0.115582 -0.174422 -0.214889 -0.232083 -0.225958 -0.201304 -0.166675 -0.132465 -0.108578 -0.102182 -0.116077 -0.148016 -0.191136 -0.235410 -0.269783 -0.284530 -0.273295 -0.234392 -0.171076 -0.090748 -0.003311 0.080955 0.153493 0.209064 0.246506 0.268485 0.280349 0.288365 0.297795 0.311288 0.327980 0.343540 0.351169 0.343322 0.313768 0.259490 0.181975 0.087562 -0.013267 -0.107551 -0.182128 -0.226077 -0.232806 -0.201359 -0.136684 -0.048790 0.049005 0.142393 0.218483 0.267842 0.285796 0.272786 0.233784 0.176953 0.111882 0.047780 -0.008027 -0.051016 -0.079727 -0.095390 -0.101094 -0.100770 -0.098216 -0.096381 -0.097022 -0.100715 -0.107132 -0.115438 -0.124660 -0.133893 -0.142345 -0.149218 -0.153556 -0.154167 -0.149717 -0.139031 -0.121565 -0.097913 -0.070190 -0.042124 -0.018730 -0.005559 -0.007616 -0.028149 -0.067581 -0.122875 -0.187526 -0.252291 -0.306570 -0.340226 -0.345494 -0.318571 -0.260561 -0.177511 -0.079497 0.021087 0.111724 0.182012 0.225488 0.240660 0.231041 0.204181 0.169925 0.138263 0.117252 0.111460 0.121244 0.142996 0.170276 0.195529 0.211982 0.215259 0.204345 0.181684 0.152411 0.122925 0.099166 0.085034 0.081353 0.085651 0.092806 0.096428 0.090637 0.071779 0.039663 -0.002026 -0.046292 -0.084262 -0.107212 -0.108712 -0.086398 -0.042937 0.014082 0.073371 0.122039 0.148173 0.143329 0.104440 0.034682 -0.056867 -0.156748 -0.249522 -0.320563 -0.358695 -0.358152 -0.319498 -0.249341 -0.158959 -0.062138 0.027321 0.097924 0.142216 0.157627 0.146358 0.114430 0.070165 0.022473 -0.020698 -0.053467 -0.072535 -0.077109 -0.068389 -0.048815 -0.021336 0.011126 0.045925 0.080647 0.112905 0.140107 0.159382 0.167750 0.162558 0.142104 0.106285 0.057067 -0.001390 -0.063051 -0.120782 -0.167446 -0.197107 -0.206103 -0.193726 -0.162366 -0.117062 -0.064566 -0.012098 0.033913 0.068845 0.090456 0.098897 0.096229 0.085590 0.070249 0.052822 0.034818 0.016651 -0.001951 -0.021273 -0.040927 -0.059395 -0.073988 -0.081307 -0.078127 -0.062490 -0.034717 0.001993 0.041606 0.076058 0.096720 0.096278 0.070607 0.020192 -0.049288 -0.127458 -0.200838 -0.255260 -0.278688 -0.263831 -0.209978 -0.123612 -0.017566 0.091159 0.184552 0.247103 0.268936 0.247907 0.190186 0.109138 0.022708 -0.050200 -0.093609 -0.097819 -0.061491 0.007974 0.095891 0.183288 0.250863 0.283060 0.271425 0.216539 0.128079 0.023001 -0.077829 -0.153849 -0.189027 -0.175219 -0.113973 -0.016398 0.098867 0.209208 0.292374 0.330772 0.314841 0.244877 0.130955 -0.009000 -0.152601 -0.277155 -0.363783 -0.400718 -0.385180 -0.323521 -0.229676 -0.122276 -0.021024 0.056963 0.100140 0.104337 0.073102 0.016578 -0.050786 -0.113209 -0.156644 -0.171372 -0.153662 -0.106246 -0.037582 0.039899 0.112196 0.166329 0.192648 0.186476 0.148815 0.086059 0.008778 -0.070150 -0.137751 -0.183098 -0.199066 -0.183396 -0.138943 -0.073078 0.003620 0.079155 0.142076 0.183293 0.197443 0.183601 0.145228 0.089391 0.025398 -0.036881 -0.088723 -0.123959 -0.139851 -0.137265 -0.120146 -0.094409 -0.066480 -0.041813 -0.023679 -0.012518 -0.005980 0.000349 0.011666 0.032431 0.064933 0.108298 0.158210 0.207432 0.247109 0.268565 0.265259 0.234464 0.178257 0.103578 0.021260 -0.055832 -0.115206 -0.147232 -0.147183 -0.116396 -0.062261 0.003019 0.064678 0.108240 0.122407 0.101406 0.046286 -0.035093 -0.129440 -0.220506 -0.292175 -0.331575 
hipp_sf_0005_HEAD NaN NaN NaN NaN NaN NaN NaN NaN NaN NaN NaN NaN NaN NaN NaN NaN NaN NaN NaN NaN NaN NaN NaN NaN NaN NaN NaN NaN NaN NaN NaN NaN NaN NaN NaN NaN NaN NaN NaN NaN NaN NaN NaN NaN NaN NaN NaN NaN NaN NaN NaN NaN NaN NaN NaN NaN NaN NaN NaN NaN NaN NaN NaN NaN NaN NaN NaN NaN NaN NaN NaN NaN NaN NaN NaN NaN NaN NaN NaN NaN NaN NaN NaN NaN NaN NaN NaN NaN NaN NaN NaN NaN NaN NaN NaN NaN NaN NaN NaN NaN NaN NaN NaN NaN NaN NaN NaN NaN NaN NaN NaN NaN NaN NaN NaN NaN NaN NaN NaN NaN NaN NaN NaN NaN NaN NaN NaN NaN NaN NaN NaN NaN NaN NaN NaN NaN NaN NaN NaN NaN NaN NaN NaN NaN NaN NaN NaN NaN NaN NaN NaN NaN NaN NaN NaN NaN NaN NaN NaN NaN NaN NaN NaN NaN NaN NaN NaN NaN NaN NaN NaN NaN NaN NaN NaN NaN NaN NaN NaN NaN NaN NaN NaN NaN NaN NaN NaN NaN NaN NaN NaN NaN NaN NaN NaN NaN NaN NaN NaN NaN NaN NaN NaN NaN NaN NaN NaN NaN NaN NaN NaN NaN NaN NaN NaN NaN NaN NaN NaN NaN NaN NaN NaN NaN NaN NaN NaN NaN NaN NaN NaN NaN NaN NaN NaN NaN NaN NaN NaN NaN NaN NaN NaN NaN NaN NaN NaN NaN NaN NaN NaN NaN NaN NaN NaN NaN NaN NaN NaN NaN NaN NaN NaN NaN NaN NaN NaN NaN NaN NaN NaN NaN NaN NaN NaN NaN NaN NaN NaN NaN NaN NaN NaN NaN NaN NaN NaN NaN NaN NaN NaN NaN NaN NaN NaN NaN NaN NaN NaN NaN NaN NaN NaN NaN NaN NaN NaN NaN NaN NaN NaN NaN NaN NaN NaN NaN NaN NaN NaN NaN NaN NaN NaN NaN NaN NaN NaN NaN NaN NaN NaN NaN NaN NaN NaN NaN NaN NaN NaN NaN NaN NaN NaN NaN NaN NaN NaN NaN NaN NaN NaN NaN NaN NaN NaN NaN NaN NaN NaN NaN NaN NaN NaN NaN NaN NaN NaN NaN NaN NaN NaN NaN NaN NaN NaN NaN NaN NaN NaN NaN NaN NaN NaN NaN NaN NaN NaN NaN NaN NaN NaN NaN NaN NaN NaN NaN NaN NaN NaN NaN NaN NaN NaN NaN NaN NaN NaN NaN NaN NaN NaN NaN NaN NaN NaN NaN NaN NaN NaN NaN 
hipp_sf_0006_TAIL 0.040642 0.065181 0.108725 0.161330 0.210664 0.244504 0.253194 0.231573 0.179984 0.104175 0.014144 -0.077825 -0.159503 -0.220960 -0.256259 -0.264274 -0.248527 -0.216098 -0.175910 -0.136751 -0.105488 -0.085809 -0.077754 -0.078068 -0.081269 -0.081144 -0.072344 -0.051706 -0.019041 0.022766 0.068339 0.110916 0.143744 0.161435 0.161036 0.142593 0.109126 0.066065 0.020258 -0.021211 -0.052185 -0.068374 -0.067925 -0.051573 -0.022390 0.014783 0.054105 0.089564 0.115767 0.128592 0.125663 0.106618 0.073160 0.028900 -0.020998 -0.070372 -0.112766 -0.142244 -0.154231 -0.146265 -0.118537 -0.074103 -0.018666 0.040070 0.093450 0.133165 0.152603 0.148010 0.119227 0.069844 0.006695 -0.061250 -0.124411 -0.174280 -0.204919 -0.213995 -0.203123 -0.177428 -0.144415 -0.112340 -0.088434 -0.077324 -0.079999 -0.093541 -0.111704 -0.126216 -0.128580 -0.111964 -0.072832 -0.011930 0.065566 0.150805 0.232770 0.300273 0.344017 0.358343 0.342298 0.299827 0.239037 0.170697 0.106249 0.055731 0.025997 0.019566 0.034312 0.064014 0.099653 0.131181 0.149426 0.147767 0.123288 0.077223 0.014641 -0.056537 -0.126978 -0.187553 -0.230844 -0.252277 -0.250714 -0.228440 -0.190581 -0.144093 -0.096519 -0.054740 -0.023926 -0.006834 -0.003566 -0.011767 -0.027233 -0.044773 -0.059204 -0.066277 -0.063415 -0.050120 -0.028014 -0.000495 0.027920 0.052448 0.068954 0.074749 0.069136 0.053590 0.031533 0.007720 -0.012656 -0.025000 -0.026276 -0.015730 0.004802 0.031067 0.057056 0.076053 0.081883 0.070134 0.039125 -0.009591 -0.071291 -0.138721 -0.203214 -0.256077 -0.289992 -0.300185 -0.285127 -0.246666 -0.189572 -0.120608 -0.047325 0.023160 0.085181 0.135138 0.171624 0.195105 0.207267 0.210232 0.205862 0.195318 0.178988 0.156770 0.128615 0.095145 0.058140 0.020720 -0.012884 -0.037965 -0.050258 -0.046946 -0.027490 0.005935 0.048561 0.093722 0.134040 0.162857 0.175619 0.170892 0.150778 0.120580 0.087761 0.060386 0.045351 0.046795 0.065013 0.096162 0.132834 0.165404 0.183924 0.180153 0.149334 0.091331 0.010887 -0.083060 -0.178887 -0.264319 -0.328588 -0.364303 -0.368657 -0.343769 -0.296102 -0.235106 -0.171370 -0.114672 -0.072296 -0.047930 -0.041325 -0.048743 -0.064029 -0.080078 -0.090368 -0.090249 -0.077756 -0.053833 -0.021955 0.012710 0.044412 0.067942 0.079582 0.077695 0.062897 0.037831 0.006612 -0.025910 -0.054919 -0.076331 -0.087310 -0.086559 -0.074392 -0.052608 -0.024193 0.007081 0.037144 0.062154 0.079013 0.085835 0.082289 0.069763 0.051288 0.031180 0.014412 0.005792 0.009048 0.026001 0.055984 0.095676 0.139429 0.180089 0.210209 0.223434 0.215818 0.186772 0.139435 0.080336 0.018368 -0.036771 -0.076375 -0.094414 -0.088766 -0.061703 -0.019535 0.028571 0.072358 0.102484 0.112367 0.099462 0.065732 0.017188 -0.037398 -0.088319 -0.126931 -0.147374 -0.147663 -0.129930 -0.099772 -0.064879 -0.033266 -0.011503 -0.003355 -0.009111 -0.025747 -0.047854 -0.069070 -0.083685 -0.088001 -0.081134 -0.065069 -0.043973 -0.022944 -0.006537 0.002560 0.004338 0.001549 -0.000990 0.002288 0.016082 0.042715 0.081129 0.126677 0.171827 0.207648 0.225782 0.220449 0.190014 0.137713 0.071312 0.001736 -0.059105 -0.100811 -0.116793 -0.105832 -0.072535 -0.026545 0.019385 0.052050 0.060644 0.039197 -0.011952 -0.085964 -0.170676 -0.250921 -0.311511 -0.340295 -0.330642 -0.282843 -0.204143 -0.107389 -0.008591 0.076121 0.133521 0.155686 0.141319 0.095753 0.029696 -0.043009 -0.108103 -0.153583 -0.171770 -0.160440 -0.122836 -0.066637 -0.002183 0.059661 0.109527 0.141090 0.151860 0.143167 0.119428 0.086940 0.052496 0.022155 0.000358 -0.010453 -0.009759 0.001461 0.021324 0.047602 0.078105 0.110814 0.143797 0.174998 0.202036 0.222164 0.232454 0.230226 0.213640 0.182310 0.137762 0.083588 0.025187 -0.030897 -0.077955 -0.110233 -0.123967 -0.118112 -0.094609 -0.058107 -0.015190 0.026755 0.060812 0.081697 0.086604 0.075560 0.051260 0.018429 -0.017156 -0.049758 -0.074686 -0.089035 -0.092035 -0.084985 -0.070818 -0.053427 -0.036888 -0.024738 -0.019439 -0.022073 -0.032308 -0.048594 -0.068504 -0.089168 -0.107708 -0.121615 -0.129053 
hipp_sf_0007_MISC -0.662055 -0.565494 -0.387610 -0.156117 0.093770 0.325542 0.507632 0.618477 0.649500 0.605509 0.502596 0.364066 0.215360 0.079037 -0.029133 -0.102261 -0.142297 -0.158039 -0.161810 -0.165650 -0.177964 -0.201407 -0.232453 -0.262672 -0.281356 -0.278766 -0.249186 -0.192980 -0.117123 -0.034035 0.041036 0.093481 0.112847 0.095534 0.046034 -0.023661 -0.096380 -0.153382 -0.178446 -0.161559 -0.101365 -0.005792 0.109304 0.223242 0.314712 0.366189 0.367610 0.318531 0.228293 0.114149 -0.002249 -0.099275 -0.159723 -0.174247 -0.143152 -0.076153 0.009803 0.094167 0.157108 0.183574 0.166283 0.107017 0.016015 -0.090379 -0.193244 -0.275021 -0.323018 -0.331747 -0.303657 -0.248150 -0.179189 -0.112053 -0.059986 -0.031484 -0.028780 -0.047808 -0.079591 -0.112686 -0.136064 -0.141770 -0.126738 -0.093368 -0.048763 -0.002834 0.034253 0.054688 0.055047 0.037273 0.008363 -0.021171 -0.039713 -0.037304 -0.008086 0.048090 0.125306 0.212543 0.295778 0.360786 0.396027 0.395005 0.357609 0.290142 0.204052 0.113646 0.033286 -0.025347 -0.055332 -0.055533 -0.030390 0.011427 0.059153 0.102351 0.133067 0.147243 0.145121 0.130574 0.109594 0.088340 0.071249 0.059697 0.051551 0.041737 0.023691 -0.008657 -0.058873 -0.126492 -0.206412 -0.289423 -0.363818 -0.417787 -0.442063 -0.432217 -0.390041 -0.323621 -0.245993 -0.172593 -0.117978 -0.092512 -0.099750 -0.135137 -0.186407 -0.235699 -0.263054 -0.250624 -0.186761 -0.069102 0.094041 0.284379 0.476396 0.641713 0.754252 0.795211 0.756862 0.644369 0.475198 0.276187 0.078756 -0.086825 -0.197033 -0.239446 -0.215002 -0.137698 -0.031755 0.073198 0.148017 0.169835 0.126661 0.019848 -0.136021 -0.315820 -0.488602 -0.623438 -0.695230 -0.689384 -0.604458 -0.452313 -0.255796 -0.044436 0.150940 0.303642 0.395539 0.419693 0.380765 0.293260 0.178052 0.057997 -0.046446 -0.120726 -0.158184 -0.160254 -0.134970 -0.094267 -0.050754 -0.014729 0.007903 0.016417 0.014660 0.009323 0.007580 0.014757 0.032619 0.058726 0.087018 0.109459 0.118342 0.108632 0.079760 0.036352 -0.012339 -0.054228 -0.077064 -0.071358 -0.032910 0.035687 0.124973 0.220052 0.303306 0.357832 0.370915 0.336776 0.258013 0.145392 0.016022 -0.109743 -0.212047 -0.275148 -0.290206 -0.256675 -0.182081 -0.080270 0.031446 0.135618 0.217751 0.268545 0.284871 0.269386 0.228990 0.172578 0.108687 0.043608 -0.019592 -0.080954 -0.142522 -0.206601 -0.273899 -0.342111 -0.405374 -0.454839 -0.480269 -0.472354 -0.425177 -0.338251 -0.217558 -0.075271 0.071890 0.205383 0.308127 0.367660 0.378473 0.343019 0.271142 0.178025 0.081089 -0.003513 -0.064039 -0.095278 -0.099188 -0.083933 -0.061555 -0.044825 -0.043987 -0.064163 -0.103992 -0.155847 -0.207564 -0.245306 -0.256907 -0.234918 -0.178653 -0.094740 0.003986 0.101012 0.179583 0.226269 0.233883 0.203091 0.142345 0.066132 -0.008078 -0.063544 -0.087792 -0.075231 -0.028263 0.043352 0.124712 0.199095 0.251623 0.272482 0.258965 0.215911 0.154451 0.089344 0.035537 0.004692 0.002499 0.027350 0.070691 0.118970 0.156738 0.170219 0.150545 0.095936 0.012324 -0.087710 -0.187476 -0.269631 -0.319812 -0.329638 -0.298458 -0.233455 -0.148095 -0.059275 0.016221 0.065180 0.080608 0.063009 0.020047 -0.035307 -0.087709 -0.122815 -0.130363 -0.106304 -0.053556 0.018737 0.097262 0.167415 0.216371 0.235695 0.222945 0.181975 0.121918 0.055122 -0.005486 -0.049018 -0.068688 -0.062920 -0.035317 0.006396 0.052192 0.091849 0.116887 0.121940 0.105323 0.068777 0.016554 -0.045853 -0.112953 -0.180172 -0.244222 -0.302899 -0.354459 -0.396817 -0.426910 -0.440496 -0.432537 -0.398176 -0.334100 -0.239970 -0.119527 0.018991 0.163333 0.298670 0.409772 0.483562 0.511533 0.491518 0.428399 0.333528 0.222926 0.114523 0.024977 -0.033328 -0.054503 -0.040143 0.001151 0.055614 0.107202 0.140927 0.146001 0.118131 0.060521 -0.016656 -0.098207 -0.166938 -0.207140 -0.207884 -0.165462 -0.084508 0.022447 0.136907 0.237513 0.303740 0.319562 0.276418 0.174987 0.025460 -0.153719 -0.338445 -0.502432 -0.621054 -0.674949 -0.652854 -0.553300 -0.384935 -0.165490 0.080462 0.324603 0.538421 0.696758 0.780907 
hipp_sf_0008_SUB -0.382790 -0.320642 -0.207186 -0.061950 0.090708 0.226331 0.325001 0.374897 0.374071 0.330115 0.257846 0.175577 0.100824 0.046410 0.017831 0.012435 0.020563 0.028349 0.021520 -0.010714 -0.072578 -0.160188 -0.261933 -0.360705 -0.437525 -0.475759 -0.464980 -0.403614 -0.299749 -0.169881 -0.035819 0.079616 0.157222 0.185397 0.162620 0.097912 0.009142 -0.080482 -0.147042 -0.170717 -0.139825 -0.053267 0.079076 0.238067 0.398795 0.535111 0.624337 0.651233 0.610519 0.507512 0.356862 0.179699 -0.000178 -0.160316 -0.283074 -0.357946 -0.382425 -0.361389 -0.305287 -0.227612 -0.142229 -0.061104 0.007190 0.058001 0.090225 0.105286 0.105824 0.094485 0.073123 0.042580 0.003038 -0.045232 -0.100988 -0.161317 -0.221373 -0.274687 -0.314039 -0.332730 -0.325974 -0.292083 -0.233161 -0.155095 -0.066818 0.021063 0.098010 0.155335 0.187668 0.193821 0.176874 0.143473 0.102491 0.063303 0.034030 0.020083 0.023276 0.041666 0.070111 0.101425 0.127877 0.142727 0.141521 0.122883 0.088702 0.043689 -0.005578 -0.051912 -0.088829 -0.111675 -0.118358 -0.109578 -0.088535 -0.060205 -0.030328 -0.004311 0.013740 0.021717 0.019804 0.010339 -0.002697 -0.014477 -0.020256 -0.016256 -0.000376 0.027395 0.064921 0.108217 0.152041 0.190693 0.218877 0.232500 0.229295 0.209164 0.174202 0.128417 0.077162 0.026403 -0.018103 -0.051582 -0.070867 -0.074800 -0.064352 -0.042456 -0.013591 0.016830 0.043182 0.060359 0.064426 0.053117 0.026121 -0.014867 -0.066343 -0.123400 -0.180301 -0.231156 -0.270625 -0.294566 -0.300559 -0.288228 -0.259317 -0.217505 -0.167952 -0.116641 -0.069577 -0.031958 -0.007442 0.002390 -0.001745 -0.016954 -0.038646 -0.061291 -0.079350 -0.088204 -0.084936 -0.068802 -0.041306 -0.005867 0.032878 0.069981 0.101127 0.123409 0.135777 0.139063 0.135566 0.128310 0.120137 0.112872 0.106764 0.100380 0.090999 0.075456 0.051265 0.017737 -0.023182 -0.066609 -0.105129 -0.129898 -0.132295 -0.105822 -0.047870 0.039070 0.147054 0.263381 0.372287 0.457414 0.504612 0.504553 0.454657 0.359881 0.232197 0.088777 -0.050815 -0.167908 -0.247892 -0.282659 -0.271851 -0.222675 -0.148335 -0.065392 0.009414 0.062255 0.084602 0.074476 0.036328 -0.020347 -0.083336 -0.140453 -0.182078 -0.202982 -0.203048 -0.186800 -0.161891 -0.136942 -0.119267 -0.113027 -0.118234 -0.130853 -0.143939 -0.149536 -0.140869 -0.114283 -0.070447 -0.014507 0.044870 0.097375 0.133419 0.146445 0.134616 0.101476 0.055378 0.007770 -0.029308 -0.045968 -0.036840 -0.002513 0.050310 0.110021 0.162442 0.193830 0.193887 0.158130 0.089102 -0.003878 -0.106384 -0.201650 -0.273850 -0.311227 -0.308401 -0.267390 -0.197128 -0.111610 -0.027041 0.041381 0.082403 0.090764 0.067961 0.021618 -0.036350 -0.092361 -0.133994 -0.152410 -0.143894 -0.110240 -0.057949 0.003491 0.063846 0.114358 0.149479 0.167764 0.171795 0.167205 0.161105 0.160288 0.169640 0.191104 0.223376 0.262346 0.302125 0.336367 0.359564 0.368013 0.360288 0.337150 0.301017 0.255179 0.202995 0.147298 0.090136 0.032847 -0.023593 -0.078149 -0.129410 -0.175512 -0.214382 -0.244227 -0.264130 -0.274536 -0.277423 -0.276040 -0.274188 -0.275184 -0.280761 -0.290197 -0.299993 -0.304259 -0.295844 -0.268045 -0.216522 -0.140997 -0.046259 0.057853 0.157628 0.237715 0.283997 0.286572 0.242165 0.155413 0.038646 -0.089912 -0.209241 -0.299351 -0.345085 -0.339101 -0.283383 -0.188926 -0.073619 0.041275 0.135315 0.192885 0.206157 0.176379 0.113238 0.032438 -0.047945 -0.111513 -0.147076 -0.150880 -0.127025 -0.085993 -0.041666 -0.007532 0.006978 -0.000862 -0.026123 -0.057241 -0.078822 -0.075590 -0.036575 0.041500 0.152482 0.281213 0.406145 0.503650 0.553103 0.541635 0.467438 0.340817 0.182661 0.020558 -0.116662 -0.204819 -0.229428 -0.188781 -0.094350 0.031611 0.160795 0.264881 0.321572 0.319310 0.259602 0.156446 0.032962 -0.084020 -0.170199 -0.209456 -0.197617 -0.143447 -0.066600 0.007036 0.051585 0.047587 -0.012904 -0.123758 -0.265395 -0.408574 -0.520569 -0.572424 -0.545685 -0.437086 -0.260084 -0.042803 0.177270 0.360768 0.474552 0.498703 0.430877 0.287055 0.098456 -0.094776 -0.251805 -0.339550 
hipp_sf_0009_ERC -0.287180 -0.255709 -0.195328 -0.111116 -0.010517 0.096995 0.200537 0.288748 0.351017 0.378874 0.367331 0.315939 0.229277 0.116731 -0.008550 -0.131396 -0.236843 -0.312483 -0.350511 -0.349075 -0.312652 -0.251305 -0.178924 -0.110729 -0.060478 -0.037888 -0.046773 -0.084251 -0.141197 -0.203887 -0.256515 -0.284146 -0.275529 -0.225256 -0.134857 -0.012635 0.127721 0.269465 0.395620 0.491772 0.548305 0.561710 0.534744 0.475480 0.395492 0.307555 0.223341 0.151544 0.096760 0.059273 0.035716 0.020381 0.006850 -0.010423 -0.034909 -0.067406 -0.106110 -0.147262 -0.186175 -0.218351 -0.240421 -0.250690 -0.249210 -0.237404 -0.217392 -0.191258 -0.160459 -0.125584 -0.086518 -0.042971 0.004779 0.055168 0.104906 0.148996 0.181301 0.195611 0.187011 0.153250 0.095789 0.020210 -0.064174 -0.145545 -0.211475 -0.251149 -0.257512 -0.228869 -0.169593 -0.089726 -0.003480 0.073120 0.125052 0.141027 0.115629 0.050424 -0.046183 -0.160336 -0.275107 -0.373408 -0.440882 -0.468223 -0.452489 -0.397191 -0.311169 -0.206546 -0.096197 0.008711 0.100602 0.176428 0.237483 0.288218 0.334342 0.380705 0.429483 0.479090 0.524136 0.556432 0.566857 0.547671 0.494733 0.409101 0.297603 0.172187 0.048108 -0.058702 -0.134576 -0.170761 -0.165206 -0.123088 -0.055950 0.020425 0.088987 0.134655 0.147169 0.122982 0.065818 -0.014210 -0.102734 -0.184067 -0.244335 -0.274176 -0.270445 -0.236629 -0.181885 -0.118969 -0.061491 -0.021099 -0.005176 -0.015515 -0.048212 -0.094757 -0.144050 -0.184866 -0.208239 -0.209253 -0.187868 -0.148682 -0.099686 -0.050376 -0.009648 0.016051 0.023895 0.014972 -0.006330 -0.033642 -0.060296 -0.080931 -0.092653 -0.095483 -0.091996 -0.086296 -0.082599 -0.083811 -0.090471 -0.100366 -0.108918 -0.110284 -0.098899 -0.071097 -0.026399 0.031880 0.096895 0.159382 0.209439 0.238564 0.241537 0.217695 0.171312 0.110950 0.047908 -0.005941 -0.040476 -0.049331 -0.031158 0.010110 0.066062 0.125506 0.176704 0.209691 0.218209 0.200864 0.161305 0.107402 0.049620 -0.001062 -0.035267 -0.046964 -0.034500 -0.000792 0.047343 0.100524 0.148522 0.182029 0.194151 0.181406 0.144103 0.086107 0.014110 -0.063424 -0.137437 -0.199413 -0.242325 -0.261347 -0.254287 -0.221766 -0.167147 -0.096248 -0.016818 0.062196 0.131588 0.182974 0.209903 0.208854 0.179939 0.127128 0.057896 -0.017746 -0.088741 -0.144777 -0.178069 -0.184805 -0.165916 -0.126999 -0.077320 -0.028063 0.009864 0.028047 0.022323 -0.006279 -0.051676 -0.103931 -0.151307 -0.182747 -0.190274 -0.170762 -0.126704 -0.065774 0.000744 0.060323 0.101858 0.118033 0.106869 0.072094 0.022258 -0.031233 -0.076697 -0.104811 -0.110676 -0.094851 -0.063112 -0.024987 0.008588 0.027930 0.026980 0.004794 -0.034200 -0.081247 -0.125385 -0.156124 -0.166052 -0.152713 -0.119298 -0.073927 -0.027681 0.008191 0.025218 0.020088 -0.004131 -0.038293 -0.068994 -0.081542 -0.063437 -0.007558 0.085692 0.207827 0.343495 0.473267 0.577424 0.639922 0.651668 0.612364 0.530487 0.421393 0.303960 0.196486 0.112792 0.059383 0.034318 0.028062 0.026110 0.012805 -0.024542 -0.092174 -0.187863 -0.300854 -0.413802 -0.506315 -0.559332 -0.559368 -0.501685 -0.391671 -0.244127 -0.080582 0.074766 0.199627 0.277733 0.301628 0.273592 0.204550 0.111295 0.012687 -0.074301 -0.137808 -0.172927 -0.181829 -0.172257 -0.154859 -0.140058 -0.135258 -0.143049 -0.160812 -0.181763 -0.197097 -0.198652 -0.181375 -0.144942 -0.094116 -0.037737 0.013377 0.049101 0.062552 0.051858 0.020702 -0.022527 -0.066753 -0.100909 -0.116627 -0.110236 -0.083548 -0.043233 0.001083 0.039511 0.064681 0.073892 0.070025 0.060943 0.057453 0.070312 0.107007 0.169124 0.251051 0.340415 0.420277 0.472665 0.482671 0.442180 0.352304 0.223907 0.075982 -0.067836 -0.183921 -0.253456 -0.266325 -0.223210 -0.135402 -0.022347 0.092549 0.186896 0.243988 0.256080 0.225562 0.163766 0.087738 0.015738 -0.037410 -0.064001 -0.065256 -0.050787 -0.035826 -0.036889 -0.066918 -0.131125 -0.224624 -0.332531 -0.432641 -0.500175 -0.513566 -0.459958 -0.339103 -0.164654 0.037603 0.234315 0.391072 0.479482 0.483297 0.402212 0.252435 0.063833 -0.125850 -0.278516 -0.363413 
hipp_sf_0010_BA35 -0.096091 -0.080035 -0.050098 -0.010326 0.033929 0.076736 0.112356 0.135952 0.144133 0.135273 0.109585 0.068985 0.016785 -0.042703 -0.104585 -0.163787 -0.215400 -0.254978 -0.278815 -0.284200 -0.269683 -0.235332 -0.182938 -0.116109 -0.040188 0.038067 0.111072 0.171225 0.211885 0.228352 0.218697 0.184271 0.129760 0.062716 -0.007409 -0.070598 -0.117770 -0.142197 -0.140575 -0.113544 -0.065544 -0.004027 0.061858 0.122845 0.171109 0.201501 0.212215 0.204782 0.183399 0.153763 0.121667 0.091702 0.066338 0.045607 0.027469 0.008750 -0.013556 -0.040962 -0.072484 -0.104253 -0.129894 -0.141659 -0.132124 -0.096083 -0.032236 0.055751 0.159119 0.264927 0.357927 0.423069 0.448190 0.426347 0.357317 0.247927 0.111113 -0.036167 -0.175762 -0.291385 -0.371310 -0.410179 -0.409585 -0.377345 -0.325613 -0.268255 -0.218014 -0.184059 -0.170380 -0.175356 -0.192509 -0.212262 -0.224289 -0.219920 -0.194106 -0.146528 -0.081647 -0.007723 0.064939 0.126118 0.167702 0.185183 0.178331 0.150946 0.109802 0.063062 0.018549 -0.017730 -0.042501 -0.055426 -0.058602 -0.055537 -0.049915 -0.044467 -0.040242 -0.036439 -0.030820 -0.020566 -0.003324 0.021851 0.053914 0.089795 0.124920 0.154176 0.173087 0.178906 0.171349 0.152776 0.127773 0.102207 0.081980 0.071764 0.074011 0.088456 0.112224 0.140505 0.167620 0.188239 0.198450 0.196468 0.182815 0.159995 0.131748 0.102107 0.074490 0.051042 0.032370 0.017679 0.005245 -0.006953 -0.020630 -0.036799 -0.055664 -0.076816 -0.099624 -0.123660 -0.148978 -0.176133 -0.205870 -0.238570 -0.273603 -0.308813 -0.340358 -0.363026 -0.371070 -0.359420 -0.325022 -0.267970 -0.192109 -0.104873 -0.016288 0.062722 0.122413 0.156234 0.162295 0.143905 0.108977 0.068350 0.033345 0.013079 0.012149 0.029271 0.057257 0.084452 0.097380 0.084086 0.037431 -0.042439 -0.147067 -0.260494 -0.361814 -0.429091 -0.443825 -0.395065 -0.282248 -0.116078 0.082817 0.287299 0.468545 0.601355 0.668839 0.665522 0.598188 0.484291 0.348229 0.216278 0.111244 0.047968 0.030630 0.052410 0.097564 0.145418 0.175404 0.172000 0.128487 0.048683 -0.053728 -0.158129 -0.241518 -0.283667 -0.271771 -0.203543 -0.088104 0.055553 0.202185 0.325219 0.401948 0.417885 0.369391 0.264072 0.118913 -0.043369 -0.198953 -0.327484 -0.415653 -0.459069 -0.462127 -0.436023 -0.395464 -0.354891 -0.325095 -0.310973 -0.310872 -0.317594 -0.320735 -0.309728 -0.276853 -0.219459 -0.140920 -0.050092 0.040544 0.117611 0.169774 0.190213 0.178069 0.138569 0.081820 0.020602 -0.032340 -0.066882 -0.077420 -0.063721 -0.030581 0.013546 0.058603 0.095155 0.116307 0.118920 0.103936 0.075818 0.041339 0.008053 -0.017181 -0.029302 -0.025604 -0.005717 0.028843 0.075353 0.130530 0.190966 0.253256 0.313866 0.368887 0.413854 0.443843 0.453915 0.439912 0.399439 0.332807 0.243632 0.138886 0.028264 -0.077084 -0.166253 -0.230372 -0.264117 -0.266589 -0.241357 -0.195633 -0.138747 -0.080271 -0.028208 0.012340 0.039720 0.055402 0.062872 0.066061 0.067741 0.068314 0.065356 0.054066 0.028543 -0.016406 -0.083381 -0.170916 -0.272845 -0.378739 -0.475392 -0.549090 -0.588173 -0.585350 -0.539217 -0.454634 -0.341855 -0.214584 -0.087389 0.026949 0.119578 0.186735 0.229706 0.253639 0.265560 0.272105 0.277567 0.282748 0.284917 0.278885 0.258897 0.220853 0.164243 0.093242 0.016613 -0.053662 -0.104763 -0.125907 -0.111058 -0.060787 0.017195 0.109055 0.197255 0.263896 0.294288 0.279989 0.220614 0.124038 0.004903 -0.118236 -0.226537 -0.304472 -0.342668 -0.339382 -0.300362 -0.237173 -0.164423 -0.096544 -0.044861 -0.015564 -0.008985 -0.020252 -0.041044 -0.061967 -0.074918 -0.074857 -0.060613 -0.034566 -0.001419 0.033557 0.066266 0.094993 0.120745 0.146616 0.176378 0.212711 0.255612 0.301505 0.343381 0.372052 0.378264 0.355185 0.300618 0.218320 0.117989 0.013781 -0.078400 -0.144286 -0.174547 -0.167184 -0.128411 -0.071691 -0.015041 0.022862 0.026950 -0.010560 -0.087950 -0.193824 -0.309093 -0.410771 -0.476784 -0.490769 -0.445782 -0.346068 -0.206463 -0.049496 0.099192 0.216138 0.284897 0.299356 0.264794 0.196443 0.115858 0.045927 0.005610 
hipp_sf_0011_BA36 -1.074374 -0.943604 -0.702100 -0.386399 -0.043139 0.278984 0.537398 0.702444 0.761585 0.720320 0.599786 0.431662 0.251471 0.091678 -0.024066 -0.084471 -0.091375 -0.057773 -0.003696 0.049030 0.081955 0.083979 0.053322 -0.002825 -0.070758 -0.134145 -0.178346 -0.194125 -0.179863 -0.141775 -0.092104 -0.045769 -0.016290 -0.012023 -0.033647 -0.073559 -0.117411 -0.147463 -0.147032 -0.104991 -0.019236 0.101758 0.239783 0.370070 0.466216 0.505826 0.475661 0.375115 0.217186 0.026612 -0.164557 -0.323085 -0.421153 -0.442059 -0.383780 -0.259627 -0.095784 0.073815 0.214211 0.296405 0.303122 0.232186 0.096781 -0.077415 -0.257631 -0.410764 -0.510076 -0.540405 -0.500835 -0.404281 -0.274169 -0.138978 -0.025911 0.044916 0.064473 0.036148 -0.025810 -0.100329 -0.165042 -0.201977 -0.202052 -0.167306 -0.110311 -0.050882 -0.010846 -0.008087 -0.051313 -0.136820 -0.248129 -0.358705 -0.437278 -0.454659 -0.390570 -0.238940 -0.010446 0.268398 0.559533 0.820208 1.011035 1.103569 1.085827 0.964581 0.763932 0.520461 0.275983 0.069421 -0.070489 -0.130173 -0.112889 -0.036836 0.069762 0.175432 0.252536 0.283069 0.261947 0.197111 0.106557 0.013090 -0.061865 -0.103903 -0.109334 -0.086079 -0.051532 -0.027943 -0.036437 -0.091151 -0.194957 -0.337857 -0.498542 -0.648811 -0.759882 -0.809119 -0.785576 -0.692977 -0.549336 -0.383178 -0.227143 -0.110394 -0.051575 -0.054019 -0.104418 -0.175430 -0.231775 -0.238560 -0.170004 -0.016543 0.211377 0.483893 0.756761 0.979970 1.108168 1.110707 0.979089 0.730066 0.403569 0.055672 -0.252086 -0.464900 -0.545915 -0.484098 -0.297043 -0.028031 0.262175 0.507209 0.648279 0.646001 0.488486 0.194045 -0.192017 -0.605872 -0.977169 -1.242158 -1.355319 -1.297268 -1.077467 -0.731403 -0.313006 0.115998 0.497513 0.786974 0.959828 1.013520 0.964916 0.844070 0.685976 0.522275 0.374793 0.252225 0.150500 0.056453 -0.046332 -0.171122 -0.322769 -0.494940 -0.670548 -0.825292 -0.933419 -0.974266 -0.937936 -0.828640 -0.664771 -0.475571 -0.295054 -0.154517 -0.075359 -0.063902 -0.109471 -0.186300 -0.258965 -0.290210 -0.249503 -0.120429 0.094747 0.374416 0.681103 0.968420 1.190079 1.309063 1.305054 1.178536 0.950732 0.659407 0.351459 0.073860 -0.135112 -0.252582 -0.274362 -0.214281 -0.099844 0.034660 0.155996 0.238998 0.271214 0.254259 0.201718 0.134236 0.073112 0.034005 0.022342 0.031586 0.044820 0.039329 -0.006921 -0.108447 -0.266762 -0.467679 -0.682234 -0.871270 -0.992864 -1.011116 -0.904431 -0.671471 -0.333376 0.068405 0.478425 0.836573 1.088659 1.196201 1.143464 0.940369 0.620677 0.235795 -0.154560 -0.493028 -0.734531 -0.853574 -0.847606 -0.735920 -0.554491 -0.347930 -0.160271 -0.026473 0.033711 0.018372 -0.057722 -0.167671 -0.279207 -0.362151 -0.394924 -0.368792 -0.289031 -0.172930 -0.045209 0.068010 0.145286 0.174625 0.155911 0.100530 0.028341 -0.037242 -0.074919 -0.070614 -0.020876 0.066169 0.172530 0.274320 0.347100 0.371399 0.337213 0.246471 0.112953 -0.040343 -0.185806 -0.296812 -0.353116 -0.344904 -0.274661 -0.156476 -0.012979 0.129426 0.245993 0.318567 0.338985 0.310254 0.245294 0.163576 0.086428 0.032064 0.011448 0.025906 0.067017 0.118803 0.161736 0.177659 0.154525 0.089865 -0.007843 -0.120265 -0.222631 -0.288812 -0.297007 -0.234857 -0.102853 0.084744 0.301759 0.514480 0.687728 0.791479 0.806722 0.729364 0.571389 0.358982 0.127933 -0.082813 -0.238242 -0.313641 -0.299040 -0.200901 -0.040760 0.148861 0.330453 0.468246 0.534366 0.513297 0.403889 0.218659 -0.019302 -0.281045 -0.537063 -0.762054 -0.938252 -1.056792 -1.117042 -1.124333 -1.086834 -1.012501 -0.906948 -0.772777 -0.610526 -0.420893 -0.207533 0.020486 0.247461 0.451693 0.608174 0.692958 0.688389 0.588007 0.399909 0.147532 -0.132677 -0.396572 -0.599798 -0.706101 -0.694750 -0.565448 -0.339483 -0.056592 0.232127 0.474035 0.625649 0.662007 0.582669 0.412862 0.199238 0.000776 -0.123538 -0.127900 0.009011 0.277079 0.633933 1.010842 1.324593 1.493352 1.453559 1.174550 0.667843 -0.011094 -0.769395 -1.490915 -2.055642 -2.361009 -2.341211 -1.980835 -1.320070 -0.450223 0.499953 1.384901 2.066334 2.436504 
hipp_sf_0012_PHC -0.181001 -0.136890 -0.056572 0.045639 0.151709 0.243218 0.304683 0.326211 0.304986 0.245342 0.157472 0.055100 -0.047341 -0.137429 -0.206805 -0.252162 -0.275050 -0.280625 -0.275710 -0.266678 -0.257677 -0.249627 -0.240201 -0.224774 -0.198068 -0.156052 -0.097616 -0.025539 0.053509 0.129988 0.193343 0.234280 0.246934 0.230435 0.189444 0.133518 0.075360 0.028325 0.003662 0.008121 0.042415 0.100907 0.172607 0.243295 0.298332 0.325598 0.317925 0.274546 0.201253 0.109243 0.012916 -0.072923 -0.135864 -0.168122 -0.167780 -0.138809 -0.089933 -0.032623 0.021311 0.062004 0.083225 0.083150 0.064124 0.031551 -0.007767 -0.047401 -0.082754 -0.111861 -0.135388 -0.155876 -0.176471 -0.199525 -0.225437 -0.252098 -0.275088 -0.288620 -0.287013 -0.266329 -0.225754 -0.168350 -0.100951 -0.033132 0.024534 0.062607 0.074819 0.059570 0.020516 -0.033909 -0.091981 -0.140909 -0.169327 -0.169563 -0.139192 -0.081567 -0.005202 0.077864 0.154385 0.212433 0.243630 0.244644 0.217671 0.169857 0.111795 0.055451 0.011936 -0.010423 -0.007382 0.020772 0.069611 0.131646 0.197817 0.259051 0.307582 0.337835 0.346773 0.333771 0.300162 0.248656 0.182831 0.106803 0.025122 -0.057185 -0.134552 -0.200961 -0.250291 -0.276973 -0.276883 -0.248318 -0.192802 -0.115491 -0.024987 0.067528 0.149755 0.210139 0.239803 0.234173 0.193971 0.125323 0.038926 -0.051612 -0.131993 -0.189599 -0.215576 -0.206271 -0.163747 -0.095313 -0.012177 0.072500 0.145775 0.196924 0.218922 0.209202 0.169619 0.105706 0.025465 -0.062051 -0.148071 -0.225139 -0.287718 -0.332370 -0.357584 -0.363421 -0.351103 -0.322707 -0.280983 -0.229315 -0.171717 -0.112780 -0.057465 -0.010696 0.023224 0.041285 0.042377 0.027675 0.000681 -0.033154 -0.067197 -0.094660 -0.109717 -0.108477 -0.089631 -0.054644 -0.007446 0.046280 0.100087 0.147787 0.184340 0.206427 0.212649 0.203374 0.180338 0.146151 0.103872 0.056754 0.008200 -0.038121 -0.078125 -0.107274 -0.120794 -0.114201 -0.084114 -0.029211 0.048905 0.145162 0.251047 0.355306 0.445306 0.508889 0.536381 0.522386 0.466970 0.375943 0.260122 0.133652 0.011678 -0.092194 -0.168161 -0.211740 -0.224238 -0.212088 -0.185177 -0.154561 -0.130026 -0.118056 -0.120623 -0.135048 -0.154955 -0.172065 -0.178397 -0.168374 -0.140321 -0.097012 -0.045139 0.006171 0.047451 0.071091 0.073133 0.054234 0.019563 -0.022350 -0.061539 -0.088869 -0.098109 -0.087331 -0.059315 -0.020871 0.018761 0.050048 0.065342 0.060580 0.036129 -0.003426 -0.050460 -0.096168 -0.132647 -0.154676 -0.160791 -0.153377 -0.137797 -0.120769 -0.108430 -0.104577 -0.109544 -0.120020 -0.129861 -0.131730 -0.119130 -0.088354 -0.039818 0.021580 0.087203 0.146406 0.188850 0.206879 0.197384 0.162677 0.110139 0.050688 -0.003625 -0.042333 -0.058961 -0.052547 -0.027893 0.005551 0.035943 0.051955 0.045656 0.014718 -0.036616 -0.098041 -0.155132 -0.192320 -0.196272 -0.158946 -0.079637 0.034427 0.169121 0.305860 0.424968 0.509262 0.547132 0.534500 0.475289 0.380363 0.265199 0.146841 0.040765 -0.041694 -0.094888 -0.119137 -0.119811 -0.105521 -0.085897 -0.069467 -0.062095 -0.066232 -0.081044 -0.103238 -0.128294 -0.151708 -0.169935 -0.180829 -0.183557 -0.178112 -0.164701 -0.143261 -0.113343 -0.074450 -0.026737 0.028122 0.086251 0.141353 0.185188 0.208775 0.204163 0.166402 0.095263 -0.003771 -0.119581 -0.236698 -0.337659 -0.406026 -0.429499 -0.402455 -0.327357 -0.214664 -0.081207 0.052721 0.166969 0.245134 0.277433 0.262243 0.206033 0.121712 0.025786 -0.065054 -0.137160 -0.182299 -0.198694 -0.190561 -0.166344 -0.136108 -0.108751 -0.089711 -0.079703 -0.074771 -0.067599 -0.049736 -0.014166 0.042426 0.118265 0.206317 0.295416 0.372408 0.424850 0.443609 0.424793 0.370571 0.288719 0.191030 0.090984 0.001224 -0.068592 -0.113107 -0.131525 -0.126873 -0.104550 -0.070627 -0.030394 0.012450 0.055794 0.098351 0.138461 0.172928 0.196366 0.201419 0.179986 0.125268 0.034190 -0.090446 -0.238724 -0.393825 -0.533902 -0.635445 -0.677608 -0.646625 -0.539375 -0.365208 -0.145466 0.089410 0.304801 0.467998 0.554279 0.551783 0.464098 0.309992 0.120201 -0.068156 -0.218504 -0.301728 
