13 420
hipp_sf_0000_BG 0.039795 0.039238 0.038141 0.036544 0.034516 0.032169 0.029650 0.027123 0.024743 0.022612 0.020741 0.019018 0.017206 0.014961 0.011886 0.007607 0.001858 -0.005437 -0.014113 -0.023750 -0.033705 -0.043192 -0.051393 -0.057580 -0.061233 -0.062119 -0.060325 -0.056231 -0.050441 -0.043664 -0.036596 -0.029803 -0.023644 -0.018240 -0.013501 -0.009190 -0.005022 -0.000763 0.003690 0.008261 0.012704 0.016650 0.019693 0.021485 0.021826 0.020727 0.018421 0.015334 0.012011 0.009015 0.006823 0.005741 0.005850 0.006999 0.008846 0.010931 0.012774 0.013971 0.014273 0.013626 0.012183 0.010262 0.008286 0.006699 0.005882 0.006089 0.007396 0.009692 0.012691 0.015971 0.019032 0.021359 0.022485 0.022050 0.019841 0.015826 0.010163 0.003191 -0.004592 -0.012578 -0.020113 -0.026564 -0.031404 -0.034279 -0.035061 -0.033871 -0.031066 -0.027186 -0.022873 -0.018760 -0.015367 -0.013011 -0.011753 -0.011395 -0.011531 -0.011638 -0.011201 -0.009834 -0.007374 -0.003938 0.000100 0.004180 0.007681 0.010074 0.011058 0.010657 0.009253 0.007531 0.006361 0.006619 0.008988 0.013793 0.020882 0.029605 0.038884 0.047371 0.053669 0.056565 0.055247 0.049441 0.039467 0.026188 0.010873 -0.005006 -0.019986 -0.032818 -0.042603 -0.048861 -0.051521 -0.050846 -0.047324 -0.041550 -0.034139 -0.025670 -0.016689 -0.007728 0.000652 0.007842 0.013201 0.016121 0.016141 0.013077 0.007144 -0.000975 -0.010139 -0.018857 -0.025497 -0.028560 -0.026971 -0.020333 -0.009088 0.005463 0.021304 0.035986 0.047017 0.052288 0.050455 0.041208 0.025370 0.004796 -0.017904 -0.039776 -0.057997 -0.070320 -0.075407 -0.073007 -0.063926 -0.049831 -0.032905 -0.015444 0.000529 0.013565 0.022947 0.028693 0.031405 0.032030 0.031575 0.030855 0.030330 0.030054 0.029749 0.028965 0.027290 0.024540 0.020880 0.016846 0.013241 0.010954 0.010718 0.012884 0.017267 0.023104 0.029155 0.033920 0.035941 0.034133 0.028051 0.018052 0.005296 -0.008419 -0.020958 -0.030247 -0.034666 -0.033386 -0.026555 -0.015306 -0.001581 0.012202 0.023582 0.030490 0.031620 0.026651 0.016294 0.002144 -0.013630 -0.028678 -0.040896 -0.048773 -0.051626 -0.049658 -0.043848 -0.035705 -0.026936 -0.019103 -0.013335 -0.010158 -0.009463 -0.010618 -0.012681 -0.014667 -0.015813 -0.015762 -0.014640 -0.013002 -0.011665 -0.011469 -0.013007 -0.016414 -0.021250 -0.026507 -0.030770 -0.032475 -0.030242 -0.023199 -0.011233 0.004881 0.023526 0.042450 0.059103 0.071067 0.076477 0.074370 0.064890 0.049310 0.029853 0.009350 -0.009214 -0.023190 -0.030695 -0.030913 -0.024219 -0.012086 0.003182 0.018865 0.032300 0.041334 0.044675 0.042080 0.034354 0.023166 0.010711 -0.000696 -0.009046 -0.012977 -0.011989 -0.006493 0.002297 0.012622 0.022501 0.030088 0.033969 0.033363 0.028198 0.019059 0.007023 -0.006560 -0.020310 -0.033014 -0.043761 -0.051988 -0.057449 -0.060124 -0.060115 -0.057549 -0.052531 -0.045157 -0.035574 -0.024073 -0.011179 0.002296 0.015271 0.026498 0.034721 0.038900 0.038418 0.033252 0.024049 0.012078 -0.000930 -0.013054 -0.022500 -0.027915 -0.028637 -0.024815 -0.017385 -0.007891 0.001805 0.009890 0.014947 0.016227 0.013791 0.008485 0.001757 -0.004650 -0.009063 -0.010226 -0.007567 -0.001313 0.007552 0.017490 0.026728 0.033618 0.036973 0.036299 0.031885 0.024723 0.016282 0.008181 0.001835 -0.001851 -0.002680 -0.001207 0.001389 0.003558 0.003732 0.000677 -0.006208 -0.016716 -0.029821 -0.043828 -0.056654 -0.066197 -0.070709 -0.069102 -0.061146 -0.047507 -0.029627 -0.009486 0.010720 0.028923 0.043467 0.053314 0.058120 0.058188 0.054326 0.047638 0.039302 0.030376 0.021675 0.013712 0.006729 0.000772 -0.004202 -0.008234 -0.011294 -0.013273 -0.014013 -0.013382 -0.011355 -0.008084 -0.003924 0.000579 0.004766 0.007971 0.009649 0.009492 0.007501 0.004008 -0.000375 -0.004857 -0.008614 -0.010939 -0.011375 -0.009804 -0.006463 -0.001897 0.003145 0.007853 0.011512 0.013626 0.014005 0.012781 0.010366 0.007351 0.004375 0.001988 0.000540 0.000108 0.000491 0.001260 0.001859 0.001729 0.000438 -0.002214 -0.006143 -0.010978 -0.016123 -0.020864 -0.024499 -0.026471 
hipp_sf_0001_CA1 -0.599052 -0.518745 -0.373068 -0.188830 0.000757 0.162791 0.271206 0.311753 0.284410 0.202784 0.090691 -0.023260 -0.111884 -0.155065 -0.143666 -0.080907 0.018961 0.134303 0.241149 0.318487 0.352618 0.339662 0.285734 0.204896 0.115447 0.035493 -0.021155 -0.047808 -0.045887 -0.023902 0.005208 0.027679 0.032550 0.014448 -0.025136 -0.078319 -0.132898 -0.175459 -0.194764 -0.184558 -0.145171 -0.083515 -0.011537 0.056483 0.107134 0.130798 0.123643 0.088240 0.032723 -0.031256 -0.091234 -0.136656 -0.160955 -0.162552 -0.144604 -0.113663 -0.077650 -0.043710 -0.016530 0.002489 0.015016 0.024650 0.035231 0.049111 0.065910 0.082143 0.091869 0.088233 0.065509 0.021091 -0.043104 -0.120288 -0.199653 -0.268335 -0.314052 -0.327835 -0.306183 -0.252096 -0.174691 -0.087426 -0.005291 0.058414 0.094983 0.102205 0.084818 0.053363 0.021698 0.003710 0.009987 0.045216 0.106919 0.185843 0.267923 0.337394 0.380341 0.387873 0.358186 0.297044 0.216539 0.132421 0.060600 0.013606 -0.002156 0.012250 0.048675 0.093908 0.132858 0.152189 0.143538 0.105577 0.044438 -0.027631 -0.095071 -0.142657 -0.159151 -0.140119 -0.089259 -0.017896 0.057267 0.117688 0.147033 0.134867 0.079156 -0.012981 -0.126465 -0.241164 -0.335920 -0.392859 -0.401073 -0.358909 -0.274369 -0.163558 -0.047467 0.052207 0.117382 0.137146 0.109839 0.043264 -0.047010 -0.140872 -0.217765 -0.260803 -0.260108 -0.214691 -0.132551 -0.028993 0.076463 0.163944 0.217091 0.226156 0.189763 0.115008 0.015929 -0.089322 -0.182017 -0.246397 -0.272538 -0.257998 -0.207968 -0.133931 -0.051136 0.024580 0.079996 0.107078 0.104456 0.077500 0.037025 -0.003098 -0.028946 -0.029534 0.000796 0.061079 0.143781 0.236192 0.322893 0.388796 0.422141 0.416863 0.373823 0.300671 0.210334 0.118446 0.040240 -0.012485 -0.033668 -0.024101 0.008900 0.053194 0.094551 0.119833 0.119958 0.091996 0.039917 -0.026178 -0.092225 -0.143324 -0.167156 -0.156959 -0.113395 -0.044862 0.033863 0.104432 0.148620 0.152164 0.107941 0.017805 -0.107329 -0.249199 -0.385405 -0.493458 -0.554890 -0.558590 -0.502717 -0.394862 -0.250440 -0.089735 0.065800 0.197184 0.290788 0.339923 0.344939 0.311960 0.250676 0.171815 0.084924 -0.003042 -0.088049 -0.168279 -0.242728 -0.309606 -0.365121 -0.403087 -0.415592 -0.394649 -0.334432 -0.233547 -0.096664 0.065021 0.234785 0.392770 0.519378 0.598949 0.622917 0.591700 0.514792 0.408968 0.294895 0.192853 0.118490 0.079562 0.074434 0.092711 0.117906 0.131571 0.117956 0.068123 -0.017486 -0.128663 -0.247414 -0.351901 -0.421494 -0.441794 -0.408417 -0.328631 -0.220348 -0.108599 -0.020189 0.022324 0.005988 -0.069070 -0.188924 -0.328125 -0.454593 -0.536131 -0.547212 -0.474574 -0.320428 -0.102553 0.148771 0.396360 0.603095 0.738797 0.785599 0.740737 0.616247 0.435764 0.229209 0.026612 -0.147551 -0.278280 -0.361474 -0.402674 -0.413618 -0.407572 -0.394704 -0.378704 -0.355539 -0.314678 -0.242500 -0.127033 0.037204 0.245532 0.481661 0.719022 0.924764 1.065687 1.114872 1.057567 0.894979 0.645044 0.339888 0.020404 -0.271008 -0.498057 -0.636976 -0.680406 -0.637981 -0.533508 -0.399407 -0.269601 -0.172410 -0.124939 -0.130114 -0.176944 -0.243836 -0.304177 -0.332870 -0.312373 -0.236908 -0.113935 0.037380 0.190309 0.316372 0.391489 0.401138 0.343403 0.229281 0.080259 -0.076283 -0.212782 -0.307076 -0.346672 -0.330830 -0.270108 -0.183554 -0.094247 -0.024210 0.010190 0.001399 -0.048211 -0.127409 -0.218986 -0.303733 -0.364578 -0.389988 -0.375918 -0.326007 -0.250083 -0.161437 -0.073576 0.002770 0.061723 0.102987 0.131172 0.153956 0.179608 0.214517 0.261321 0.318084 0.378673 0.434206 0.475192 0.493821 0.485854 0.451668 0.396238 0.328065 0.257341 0.193790 0.144675 0.113441 0.099262 0.097562 0.101361 0.103092 0.096448 0.077842 0.047145 0.007561 -0.035286 -0.074833 -0.105235 -0.122808 -0.126921 -0.120132 -0.107538 -0.095511 -0.090107 -0.095529 -0.112994 -0.140273 -0.172021 -0.200830 -0.218800 -0.219292 -0.198484 -0.156423 -0.097314 -0.028990 0.038364 0.093991 0.128520 0.135721 0.113745 0.065590 -0.001288 -0.076165 -0.146827 -0.201640 -0.231529 
hipp_sf_0002_CA2 0.331711 0.317257 0.287958 0.243413 0.183851 0.110842 0.027844 -0.059623 -0.144301 -0.218020 -0.272906 -0.302756 -0.304275 -0.277908 -0.228045 -0.162507 -0.091368 -0.025308 0.026206 0.056559 0.063129 0.047697 0.016045 -0.023187 -0.060176 -0.085782 -0.093267 -0.079517 -0.045562 0.003703 0.060530 0.115838 0.160956 0.189231 0.197215 0.185209 0.157076 0.119390 0.080089 0.046910 0.025895 0.020251 0.029762 0.050846 0.077242 0.101184 0.114853 0.111842 0.088387 0.044152 -0.017565 -0.090230 -0.165025 -0.232181 -0.282497 -0.308790 -0.307053 -0.277124 -0.222756 -0.151076 -0.071496 0.005743 0.071168 0.117553 0.141014 0.141549 0.122896 0.091746 0.056418 0.025252 0.004998 -0.000482 0.009057 0.030241 0.056823 0.081042 0.095342 0.094103 0.075015 0.039791 -0.005965 -0.053748 -0.093842 -0.117377 -0.118328 -0.095047 -0.050948 0.005829 0.063779 0.110166 0.133561 0.126236 0.085956 0.016741 -0.071584 -0.164998 -0.247788 -0.305451 -0.327434 -0.309154 -0.252901 -0.167419 -0.066247 0.034840 0.120792 0.180043 0.206520 0.200523 0.168321 0.120578 0.069978 0.028558 0.005306 0.004530 0.025278 0.061900 0.105564 0.146350 0.175425 0.186833 0.178510 0.152352 0.113396 0.068350 0.023889 -0.014866 -0.045298 -0.067477 -0.083555 -0.096574 -0.109046 -0.121702 -0.132796 -0.138194 -0.132276 -0.109474 -0.066068 -0.001804 0.079130 0.168075 0.252931 0.320113 0.357070 0.354843 0.310118 0.226298 0.113302 -0.013915 -0.137874 -0.241636 -0.311807 -0.340880 -0.328452 -0.281057 -0.210679 -0.132248 -0.060660 -0.007927 0.018970 0.019097 -0.002687 -0.037174 -0.073056 -0.099483 -0.108358 -0.095897 -0.063161 -0.015501 0.038898 0.090979 0.132820 0.159212 0.168475 0.162368 0.145172 0.122217 0.098255 0.076106 0.055916 0.035215 0.009758 -0.025067 -0.072617 -0.133587 -0.205160 -0.280988 -0.352016 -0.408025 -0.439543 -0.439739 -0.405856 -0.339890 -0.248349 -0.141141 -0.029846 0.074282 0.162154 0.228159 0.270707 0.291937 0.296713 0.291170 0.281179 0.271062 0.262858 0.256243 0.249075 0.238385 0.221512 0.197084 0.165589 0.129372 0.092104 0.057834 0.029921 0.010108 -0.001978 -0.008755 -0.014039 -0.021953 -0.035662 -0.056259 -0.082094 -0.108772 -0.129862 -0.138226 -0.127691 -0.094709 -0.039636 0.032714 0.113383 0.190475 0.251054 0.283378 0.279069 0.234768 0.152963 0.041805 -0.086056 -0.215412 -0.330856 -0.419116 -0.470973 -0.482408 -0.454847 -0.394493 -0.310937 -0.215361 -0.118695 -0.030063 0.044223 0.101008 0.140002 0.163016 0.172969 0.172922 0.165373 0.151946 0.133490 0.110501 0.083698 0.054532 0.025460 -0.000160 -0.018540 -0.026231 -0.021005 -0.002619 0.026740 0.062501 0.098282 0.126930 0.141842 0.138315 0.114627 0.072618 0.017602 -0.042401 -0.098015 -0.140176 -0.161829 -0.159300 -0.133070 -0.087791 -0.031503 0.025785 0.073909 0.104392 0.111966 0.095476 0.057982 0.006065 -0.051540 -0.105678 -0.148535 -0.175054 -0.183723 -0.176581 -0.158464 -0.135657 -0.114275 -0.098736 -0.090675 -0.088562 -0.088111 -0.083417 -0.068554 -0.039280 0.005564 0.063301 0.127542 0.189217 0.238327 0.266079 0.266945 0.240174 0.190380 0.127020 0.062782 0.011179 -0.016212 -0.012290 0.023803 0.086082 0.162500 0.236996 0.292462 0.314071 0.292290 0.224984 0.118138 -0.014964 -0.155989 -0.284806 -0.383103 -0.437677 -0.442718 -0.400672 -0.321493 -0.220480 -0.115154 -0.021820 0.047455 0.086849 0.097390 0.086064 0.063699 0.042102 0.031144 0.036432 0.058109 0.091026 0.126233 0.153415 0.163693 0.152098 0.119122 0.070934 0.018182 -0.026398 -0.051028 -0.047887 -0.015370 0.040980 0.109144 0.172830 0.214802 0.220640 0.182125 0.099495 -0.017966 -0.153216 -0.284411 -0.388972 -0.447976 -0.449960 -0.393350 -0.287021 -0.148810 -0.002284 0.127619 0.219220 0.258083 0.239581 0.169555 0.062960 -0.059180 -0.173899 -0.260648 -0.305038 -0.301254 -0.252721 -0.170966 -0.072972 0.022392 0.098107 0.142186 0.149697 0.123296 0.072263 0.010305 -0.047363 -0.087049 -0.099143 -0.079747 -0.031139 0.038926 0.118858 0.195427 0.256083 0.290982 0.294400 0.265378 0.207589 0.128549 0.038380 -0.051644 -0.130540 -0.188895 -0.219868 
hipp_sf_0003_DG -0.084173 -0.057999 -0.012577 0.039894 0.084865 0.108931 0.103103 0.065062 -0.000108 -0.080915 -0.161920 -0.227134 -0.263546 -0.263990 -0.228687 -0.165127 -0.086330 -0.007902 0.055431 0.093021 0.100480 0.080403 0.041471 -0.003809 -0.042167 -0.062717 -0.059435 -0.032414 0.012369 0.064696 0.112721 0.145924 0.157689 0.146888 0.118113 0.080518 0.045562 0.024203 0.024223 0.048306 0.093323 0.150967 0.209577 0.256706 0.281820 0.278506 0.245702 0.187695 0.112948 0.032073 -0.044512 -0.108694 -0.156029 -0.186086 -0.201758 -0.207771 -0.208853 -0.208081 -0.205858 -0.199822 -0.185707 -0.158923 -0.116426 -0.058347 0.011110 0.083812 0.148934 0.195072 0.212755 0.196782 0.147793 0.072658 -0.016484 -0.104384 -0.175605 -0.217583 -0.223171 -0.192074 -0.130874 -0.051615 0.030731 0.101368 0.148648 0.166283 0.154301 0.118587 0.069146 0.017521 -0.025997 -0.054729 -0.066971 -0.066071 -0.059226 -0.055316 -0.062303 -0.084863 -0.122804 -0.170695 -0.218794 -0.255084 -0.267961 -0.248946 -0.194814 -0.108630 0.000523 0.119101 0.231570 0.323281 0.383107 0.405311 0.390275 0.343985 0.276460 0.199511 0.124372 0.059711 0.010431 -0.022559 -0.041641 -0.051138 -0.055706 -0.058922 -0.062406 -0.065683 -0.066752 -0.063154 -0.053189 -0.036905 -0.016540 0.003739 0.018773 0.023773 0.015775 -0.005240 -0.035887 -0.069765 -0.098661 -0.114340 -0.110516 -0.084541 -0.038388 0.021352 0.084505 0.139207 0.174268 0.181499 0.157495 0.104467 0.029941 -0.054640 -0.136103 -0.202074 -0.243297 -0.255274 -0.238896 -0.199960 -0.147720 -0.092820 -0.045077 -0.011603 0.004364 0.003693 -0.009310 -0.028265 -0.046412 -0.058202 -0.060438 -0.052712 -0.037093 -0.017209 0.003001 0.020500 0.034016 0.044303 0.053769 0.065553 0.082329 0.105163 0.132753 0.161298 0.185053 0.197500 0.192867 0.167641 0.121714 0.058862 -0.013592 -0.085899 -0.147569 -0.189291 -0.204674 -0.191450 -0.151889 -0.092346 -0.022030 0.048714 0.110275 0.155402 0.180279 0.184863 0.172465 0.148726 0.120229 0.093088 0.071797 0.058570 0.053252 0.053769 0.056948 0.059479 0.058795 0.053645 0.044288 0.032282 0.019973 0.009841 0.003870 0.003102 0.007455 0.015810 0.026312 0.036772 0.045047 0.049308 0.048139 0.040504 0.025620 0.002865 -0.028232 -0.067832 -0.115495 -0.169820 -0.228134 -0.286362 -0.339189 -0.380569 -0.404530 -0.406172 -0.382666 -0.334036 -0.263534 -0.177487 -0.084590 0.005277 0.082488 0.139138 0.170247 0.174493 0.154322 0.115433 0.065740 0.014012 -0.031538 -0.064474 -0.080954 -0.080031 -0.063437 -0.034954 0.000468 0.037642 0.071947 0.099878 0.119288 0.129363 0.130407 0.123547 0.110472 0.093258 0.074295 0.056273 0.042145 0.034994 0.037743 0.052715 0.081091 0.122386 0.174084 0.231558 0.288368 0.336949 0.369611 0.379694 0.362684 0.317068 0.244757 0.150974 0.043628 -0.067737 -0.173223 -0.263850 -0.332616 -0.375168 -0.390006 -0.378246 -0.343050 -0.288888 -0.220810 -0.143885 -0.062872 0.017853 0.094205 0.162241 0.218093 0.258077 0.279002 0.278659 0.256341 0.213277 0.152799 0.080152 0.001916 -0.074874 -0.143766 -0.199860 -0.240483 -0.265423 -0.276634 -0.277471 -0.271630 -0.262039 -0.249992 -0.234741 -0.213718 -0.183337 -0.140251 -0.082745 -0.011948 0.067506 0.147576 0.217778 0.266880 0.285050 0.266021 0.208824 0.118656 0.006642 -0.111574 -0.218207 -0.296286 -0.332642 -0.320372 -0.260271 -0.160938 -0.037493 0.090892 0.204208 0.284992 0.321258 0.308453 0.250083 0.156934 0.045041 -0.067174 -0.162072 -0.225684 -0.249817 -0.233043 -0.180463 -0.102373 -0.012143 0.076241 0.150506 0.201886 0.226105 0.223479 0.198208 0.157100 0.108054 0.058612 0.014855 -0.019198 -0.041673 -0.052484 -0.052718 -0.043974 -0.027835 -0.005587 0.021757 0.053224 0.087524 0.122741 0.156207 0.184625 0.204460 0.212521 0.206605 0.186040 0.151983 0.107385 0.056597 0.004685 -0.043408 -0.083683 -0.113709 -0.132920 -0.142513 -0.144986 -0.143401 -0.140567 -0.138312 -0.137018 -0.135544 -0.131551 -0.122164 -0.104831 -0.078184 -0.042688 -0.000929 0.042567 0.081968 0.111127 0.124736 0.119427 0.094584 0.052693 -0.000863 -0.058559 -0.111899 -0.152806 -0.174983 
hipp_sf_0004_CA3 0.448165 0.410957 0.340369 0.243570 0.130165 0.011010 -0.103080 -0.202550 -0.280100 -0.331312 -0.354888 -0.352466 -0.328111 -0.287555 -0.237334 -0.183927 -0.133018 -0.088948 -0.054393 -0.030291 -0.015972 -0.009468 -0.007941 -0.008167 -0.007028 -0.001952 0.008744 0.025646 0.048197 0.074821 0.103200 0.130671 0.154694 0.173290 0.185401 0.191077 0.191448 0.188475 0.184514 0.181760 0.181683 0.184580 0.189341 0.193509 0.193636 0.185904 0.166895 0.134368 0.087883 0.029133 -0.038093 -0.108345 -0.175268 -0.232549 -0.274880 -0.298752 -0.302927 -0.288499 -0.258541 -0.217429 -0.169983 -0.120619 -0.072695 -0.028180 0.012293 0.049033 0.082676 0.113513 0.140980 0.163433 0.178323 0.182738 0.174215 0.151609 0.115813 0.070101 0.019965 -0.027604 -0.065281 -0.086820 -0.088431 -0.069809 -0.034569 0.010067 0.054334 0.087587 0.100261 0.085766 0.041934 -0.028293 -0.117122 -0.213078 -0.302932 -0.374006 -0.416444 -0.425002 -0.399987 -0.347167 -0.276638 -0.200853 -0.132203 -0.080598 -0.051551 -0.045117 -0.055938 -0.074359 -0.088436 -0.086418 -0.059235 -0.002479 0.082494 0.188585 0.304085 0.414713 0.506153 0.566601 0.588830 0.571371 0.518592 0.439681 0.346745 0.252433 0.167553 0.099193 0.049690 0.016676 -0.005847 -0.025647 -0.050021 -0.083673 -0.127195 -0.176503 -0.223383 -0.257089 -0.266677 -0.243610 -0.184093 -0.090624 0.027620 0.155715 0.275130 0.366729 0.414107 0.406621 0.341555 0.224954 0.070947 -0.100365 -0.266111 -0.404377 -0.497785 -0.536299 -0.518727 -0.452686 -0.353025 -0.239030 -0.130925 -0.046332 0.002685 0.011459 -0.016854 -0.072272 -0.140175 -0.204220 -0.249400 -0.264675 -0.244706 -0.190426 -0.108421 -0.009339 0.094300 0.190394 0.269207 0.324612 0.354456 0.360090 0.345271 0.314779 0.273118 0.223624 0.168165 0.107457 0.041840 -0.027753 -0.098960 -0.167593 -0.227834 -0.273066 -0.297159 -0.295938 -0.268433 -0.217598 -0.150223 -0.075994 -0.005828 0.050200 0.084901 0.095522 0.084439 0.058766 0.028932 0.006463 0.001429 0.020097 0.063309 0.125977 0.197841 0.265396 0.314596 0.333817 0.316427 0.262436 0.178837 0.078536 -0.021934 -0.105483 -0.157686 -0.169528 -0.139104 -0.071941 0.020105 0.121132 0.214186 0.284328 0.321176 0.320421 0.284061 0.219385 0.136997 0.048359 -0.036574 -0.111104 -0.172579 -0.222095 -0.263270 -0.300439 -0.336765 -0.372783 -0.405740 -0.429941 -0.438030 -0.422904 -0.379806 -0.308071 -0.212071 -0.101084 0.011965 0.112648 0.187661 0.227362 0.227689 0.191032 0.125855 0.045138 -0.036046 -0.103332 -0.145653 -0.157105 -0.137728 -0.093072 -0.032686 0.032108 0.090656 0.135108 0.161789 0.171570 0.169194 0.161765 0.156788 0.160215 0.174953 0.200151 0.231406 0.261805 0.283543 0.289731 0.275973 0.241368 0.188720 0.123953 0.054859 -0.010491 -0.065337 -0.105459 -0.129811 -0.140443 -0.141784 -0.139475 -0.139042 -0.144701 -0.158542 -0.180234 -0.207259 -0.235562 -0.260432 -0.277393 -0.282907 -0.274776 -0.252227 -0.215733 -0.166712 -0.107238 -0.039877 0.032302 0.105594 0.175494 0.236667 0.283167 0.308989 0.308935 0.279663 0.220715 0.135263 0.030348 -0.083545 -0.193598 -0.286339 -0.349618 -0.374539 -0.356973 -0.298347 -0.205539 -0.089856 0.034713 0.153656 0.254104 0.326605 0.366203 0.372641 0.349745 0.304156 0.243749 0.176103 0.107353 0.041629 -0.018840 -0.073092 -0.120512 -0.159931 -0.189061 -0.204479 -0.202199 -0.178740 -0.132411 -0.064482 0.020139 0.112956 0.202796 0.277463 0.325867 0.340199 0.317679 0.261467 0.180467 0.087982 -0.000587 -0.070575 -0.110902 -0.116330 -0.088684 -0.036728 0.025321 0.080402 0.111861 0.106746 0.058504 -0.031450 -0.153595 -0.291666 -0.425277 -0.533332 -0.597628 -0.605983 -0.554361 -0.447611 -0.298711 -0.126685 0.046448 0.199128 0.313546 0.378216 0.389445 0.351496 0.275495 0.177302 0.074750 -0.015277 -0.079450 -0.109903 -0.105171 -0.070068 -0.014576 0.048037 0.103555 0.139223 0.145879 0.119473 0.061786 -0.019772 -0.113235 -0.203877 -0.276457 -0.317606 -0.317995 -0.273957 -0.188310 -0.070230 0.065844 0.202136 0.320045 0.402871 0.438359 0.420660 0.351390 0.239593 0.100591 -0.046148 -0.179809 -0.281271 -0.335946 
hipp_sf_0005_HEAD NaN NaN NaN NaN NaN NaN NaN NaN NaN NaN NaN NaN NaN NaN NaN NaN NaN NaN NaN NaN NaN NaN NaN NaN NaN NaN NaN NaN NaN NaN NaN NaN NaN NaN NaN NaN NaN NaN NaN NaN NaN NaN NaN NaN NaN NaN NaN NaN NaN NaN NaN NaN NaN NaN NaN NaN NaN NaN NaN NaN NaN NaN NaN NaN NaN NaN NaN NaN NaN NaN NaN NaN NaN NaN NaN NaN NaN NaN NaN NaN NaN NaN NaN NaN NaN NaN NaN NaN NaN NaN NaN NaN NaN NaN NaN NaN NaN NaN NaN NaN NaN NaN NaN NaN NaN NaN NaN NaN NaN NaN NaN NaN NaN NaN NaN NaN NaN NaN NaN NaN NaN NaN NaN NaN NaN NaN NaN NaN NaN NaN NaN NaN NaN NaN NaN NaN NaN NaN NaN NaN NaN NaN NaN NaN NaN NaN NaN NaN NaN NaN NaN NaN NaN NaN NaN NaN NaN NaN NaN NaN NaN NaN NaN NaN NaN NaN NaN NaN NaN NaN NaN NaN NaN NaN NaN NaN NaN NaN NaN NaN NaN NaN NaN NaN NaN NaN NaN NaN NaN NaN NaN NaN NaN NaN NaN NaN NaN NaN NaN NaN NaN NaN NaN NaN NaN NaN NaN NaN NaN NaN NaN NaN NaN NaN NaN NaN NaN NaN NaN NaN NaN NaN NaN NaN NaN NaN NaN NaN NaN NaN NaN NaN NaN NaN NaN NaN NaN NaN NaN NaN NaN NaN NaN NaN NaN NaN NaN NaN NaN NaN NaN NaN NaN NaN NaN NaN NaN NaN NaN NaN NaN NaN NaN NaN NaN NaN NaN NaN NaN NaN NaN NaN NaN NaN NaN NaN NaN NaN NaN NaN NaN NaN NaN NaN NaN NaN NaN NaN NaN NaN NaN NaN NaN NaN NaN NaN NaN NaN NaN NaN NaN NaN NaN NaN NaN NaN NaN NaN NaN NaN NaN NaN NaN NaN NaN NaN NaN NaN NaN NaN NaN NaN NaN NaN NaN NaN NaN NaN NaN NaN NaN NaN NaN NaN NaN NaN NaN NaN NaN NaN NaN NaN NaN NaN NaN NaN NaN NaN NaN NaN NaN NaN NaN NaN NaN NaN NaN NaN NaN NaN NaN NaN NaN NaN NaN NaN NaN NaN NaN NaN NaN NaN NaN NaN NaN NaN NaN NaN NaN NaN NaN NaN NaN NaN NaN NaN NaN NaN NaN NaN NaN NaN NaN NaN NaN NaN NaN NaN NaN NaN NaN NaN NaN NaN NaN NaN NaN NaN NaN NaN NaN NaN NaN NaN NaN NaN NaN NaN NaN NaN 
hipp_sf_0006_TAIL 0.708739 0.638767 0.508848 0.337289 0.147533 -0.035805 -0.190951 -0.302318 -0.362585 -0.373193 -0.343261 -0.287203 -0.221611 -0.162018 -0.120185 -0.102373 -0.108842 -0.134546 -0.170762 -0.207222 -0.234262 -0.244556 -0.234145 -0.202663 -0.152833 -0.089493 -0.018449 0.054543 0.124450 0.187214 0.239640 0.279085 0.303159 0.309639 0.296702 0.263457 0.210645 0.141289 0.061025 -0.022069 -0.098267 -0.157528 -0.191183 -0.193637 -0.163713 -0.105313 -0.027170 0.058332 0.137120 0.195831 0.224197 0.216955 0.174895 0.104820 0.018402 -0.069844 -0.145108 -0.194849 -0.210919 -0.190834 -0.138016 -0.060963 0.028410 0.116942 0.192453 0.245629 0.271238 0.268521 0.240773 0.194277 0.136878 0.076523 0.020030 -0.027687 -0.063886 -0.087792 -0.100082 -0.102239 -0.095978 -0.082890 -0.064347 -0.041653 -0.016335 0.009571 0.033368 0.051778 0.061268 0.058589 0.041400 0.008847 -0.038050 -0.096302 -0.161184 -0.226766 -0.286651 -0.334796 -0.366259 -0.377787 -0.368141 -0.338159 -0.290568 -0.229627 -0.160651 -0.089497 -0.022057 0.036218 0.080764 0.108304 0.117195 0.107692 0.082068 0.044540 0.000933 -0.041917 -0.077006 -0.098148 -0.100956 -0.083649 -0.047495 0.003230 0.061822 0.120207 0.170329 0.205608 0.222209 0.219838 0.201893 0.174897 0.147298 0.127834 0.123800 0.139526 0.175418 0.227730 0.289160 0.350146 0.400608 0.431804 0.437914 0.417044 0.371456 0.306983 0.231779 0.154668 0.083452 0.023526 -0.022917 -0.056945 -0.082235 -0.103879 -0.126937 -0.155071 -0.189586 -0.229060 -0.269665 -0.306077 -0.332756 -0.345307 -0.341594 -0.322356 -0.291179 -0.253823 -0.217058 -0.187240 -0.168969 -0.164092 -0.171280 -0.186276 -0.202757 -0.213636 -0.212547 -0.195195 -0.160320 -0.110085 -0.049800 0.012934 0.069508 0.111778 0.133440 0.131088 0.104775 0.057994 -0.002874 -0.069557 -0.133126 -0.185280 -0.219470 -0.231710 -0.220970 -0.189128 -0.140498 -0.081052 -0.017433 0.044061 0.098402 0.142511 0.175611 0.199187 0.216560 0.232142 0.250458 0.275114 0.307872 0.348006 0.392086 0.434266 0.467069 0.482586 0.473898 0.436482 0.369348 0.275658 0.162686 0.041042 -0.076721 -0.177939 -0.251797 -0.291058 -0.293271 -0.261197 -0.202368 -0.127846 -0.050376 0.017716 0.066515 0.090023 0.086927 0.060488 0.017606 -0.032742 -0.081364 -0.120652 -0.145956 -0.156297 -0.154291 -0.145329 -0.136222 -0.133585 -0.142317 -0.164448 -0.198604 -0.240148 -0.281964 -0.315705 -0.333265 -0.328197 -0.296837 -0.238966 -0.157925 -0.060217 0.045322 0.148613 0.239528 0.309044 0.350225 0.358963 0.334435 0.279241 0.199239 0.103053 0.001279 -0.094578 -0.173380 -0.225717 -0.245193 -0.229452 -0.180733 -0.105804 -0.015198 0.078213 0.161140 0.221988 0.252809 0.250715 0.218438 0.163874 0.098639 0.035858 -0.012406 -0.037580 -0.036352 -0.011384 0.029222 0.073669 0.109078 0.124455 0.113367 0.075717 0.018181 -0.046887 -0.103925 -0.137546 -0.136154 -0.095009 -0.018029 0.082156 0.186020 0.270587 0.313884 0.299546 0.220623 0.081791 -0.100604 -0.300753 -0.487546 -0.629939 -0.702554 -0.690426 -0.591996 -0.419731 -0.198216 0.039934 0.259620 0.429220 0.525877 0.539150 0.472388 0.341636 0.172341 -0.005465 -0.162560 -0.275489 -0.330199 -0.323755 -0.263929 -0.166880 -0.053490 0.054855 0.140212 0.191007 0.203485 0.181520 0.134985 0.077119 0.021536 -0.020522 -0.042136 -0.041559 -0.021908 0.010125 0.046154 0.078127 0.100040 0.109011 0.105545 0.093020 0.076584 0.061778 0.053204 0.053536 0.063070 0.079832 0.100195 0.119793 0.134508 0.141310 0.138762 0.127141 0.108166 0.084458 0.058877 0.033891 0.011119 -0.008871 -0.026519 -0.043006 -0.059872 -0.078609 -0.100323 -0.125518 -0.154019 -0.185012 -0.217163 -0.248768 -0.277886 -0.302458 -0.320397 -0.329683 -0.328488 -0.315338 -0.289329 -0.250343 -0.199250 -0.138010 -0.069660 0.001872 0.072091 0.136382 0.190504 0.231049 0.255799 0.263932 0.256032 0.233945 0.200499 0.159167 0.113720 0.067933 0.025348 -0.010886 -0.038145 -0.054444 -0.058573 -0.050259 -0.030322 -0.000793 0.035081 0.072991 0.107930 0.134732 0.148770 0.146679 0.126999 0.090593 0.040744 -0.017134 -0.076159 -0.128920 -0.168557 -0.189804 
hipp_sf_0007_MISC -0.075163 -0.050931 -0.007167 0.047644 0.102866 0.147766 0.173545 0.174983 0.151354 0.106447 0.047714 -0.015278 -0.072771 -0.116700 -0.142188 -0.148328 -0.138139 -0.117708 -0.094724 -0.076732 -0.069471 -0.075652 -0.094419 -0.121596 -0.150653 -0.174152 -0.185379 -0.179776 -0.155884 -0.115600 -0.063693 -0.006721 0.048420 0.095969 0.132466 0.157348 0.172850 0.183219 0.193451 0.207824 0.228581 0.255082 0.283639 0.308096 0.321053 0.315492 0.286442 0.232331 0.155711 0.063167 -0.035588 -0.129283 -0.207017 -0.260158 -0.283838 -0.277742 -0.246044 -0.196500 -0.138906 -0.083228 -0.037804 -0.007958 0.004701 0.002185 -0.010696 -0.027681 -0.042602 -0.050797 -0.050074 -0.041037 -0.026742 -0.011787 -0.001069 0.001481 -0.006099 -0.023308 -0.047284 -0.073473 -0.096702 -0.112391 -0.117621 -0.111816 -0.096882 -0.076769 -0.056583 -0.041427 -0.035260 -0.040008 -0.055132 -0.077728 -0.103123 -0.125820 -0.140574 -0.143366 -0.132068 -0.106691 -0.069195 -0.022941 0.028036 0.079764 0.128902 0.173029 0.210636 0.240881 0.263231 0.277155 0.281980 0.276996 0.261788 0.236699 0.203264 0.164453 0.124570 0.088757 0.062138 0.048762 0.050560 0.066591 0.092777 0.122285 0.146537 0.156720 0.145506 0.108663 0.046189 -0.037289 -0.132984 -0.229253 -0.313500 -0.374342 -0.403615 -0.397808 -0.358658 -0.292761 -0.210284 -0.123041 -0.042322 0.023092 0.068311 0.092876 0.100342 0.097054 0.090374 0.086796 0.090350 0.101646 0.117783 0.133112 0.140681 0.134040 0.108981 0.064813 0.004892 -0.063747 -0.131587 -0.188412 -0.225311 -0.236480 -0.220445 -0.180448 -0.123916 -0.061098 -0.003175 0.039821 0.060840 0.057068 0.030366 -0.013165 -0.064381 -0.112804 -0.148507 -0.163806 -0.154480 -0.120312 -0.064913 0.005091 0.081293 0.154927 0.218169 0.265148 0.292485 0.299371 0.287220 0.259053 0.218759 0.170422 0.117807 0.064075 0.011728 -0.037291 -0.081410 -0.119259 -0.149583 -0.171271 -0.183480 -0.185833 -0.178594 -0.162781 -0.140150 -0.113040 -0.084099 -0.055928 -0.030724 -0.009978 0.005702 0.016619 0.023855 0.029012 0.033873 0.040044 0.048639 0.060062 0.073907 0.089007 0.103594 0.115569 0.122820 0.123557 0.116614 0.101672 0.079379 0.051342 0.019986 -0.011708 -0.040569 -0.063639 -0.078586 -0.084046 -0.079846 -0.067062 -0.047892 -0.025351 -0.002841 0.016361 0.029593 0.035203 0.032783 0.023194 0.008384 -0.008960 -0.025866 -0.039555 -0.047841 -0.049411 -0.043924 -0.031947 -0.014761 0.005911 0.028182 0.050220 0.070393 0.087316 0.099837 0.107004 0.108053 0.102450 0.089998 0.070978 0.046271 0.017405 -0.013526 -0.044107 -0.071968 -0.095230 -0.112919 -0.125226 -0.133528 -0.140112 -0.147618 -0.158290 -0.173199 -0.191627 -0.210784 -0.226010 -0.231467 -0.221267 -0.190823 -0.138172 -0.064945 0.023250 0.117215 0.205327 0.275321 0.316405 0.321306 0.287842 0.219665 0.125979 0.020239 -0.081991 -0.165615 -0.218558 -0.233799 -0.210477 -0.153865 -0.074218 0.015283 0.101055 0.171604 0.219474 0.242278 0.242626 0.227002 0.203871 0.181468 0.165759 0.159040 0.159483 0.161715 0.158283 0.141653 0.106281 0.050259 -0.023845 -0.109163 -0.195690 -0.272180 -0.328365 -0.356983 -0.355191 -0.325035 -0.272883 -0.207969 -0.140377 -0.078931 -0.029470 0.006111 0.029853 0.046778 0.063238 0.084975 0.115357 0.154233 0.197675 0.238686 0.268733 0.279721 0.265998 0.225874 0.162339 0.082764 -0.002341 -0.081263 -0.143289 -0.180716 -0.190220 -0.173329 -0.135905 -0.086793 -0.035947 0.007519 0.036960 0.049145 0.044388 0.025892 -0.001470 -0.032568 -0.063281 -0.091258 -0.116032 -0.138490 -0.159881 -0.180685 -0.199709 -0.213712 -0.217729 -0.206095 -0.173937 -0.118802 -0.041974 0.050893 0.150078 0.243076 0.316676 0.359436 0.364055 0.329100 0.259684 0.166875 0.065883 -0.026657 -0.095794 -0.131135 -0.128908 -0.092747 -0.033044 0.035066 0.094677 0.130481 0.131863 0.095101 0.024249 -0.069501 -0.169834 -0.258321 -0.317858 -0.335860 -0.306620 -0.232411 -0.123135 0.005377 0.134090 0.243987 0.319223 0.349642 0.332273 0.271572 0.178444 0.068255 -0.041774 -0.135351 -0.199600 -0.226896 -0.215790 -0.170940 -0.102110 -0.022439 0.053724 0.113102 0.145536 
hipp_sf_0008_SUB -0.473556 -0.419149 -0.320277 -0.194714 -0.064312 0.049550 0.130318 0.169446 0.167735 0.134575 0.085303 0.037320 0.005895 0.000618 0.023320 0.067910 0.122134 0.170807 0.199740 0.199394 0.167406 0.109368 0.037662 -0.031381 -0.081346 -0.099710 -0.081003 -0.028398 0.046683 0.126879 0.192629 0.226533 0.217345 0.162720 0.070084 -0.044592 -0.159875 -0.253158 -0.305269 -0.304420 -0.248694 -0.146553 -0.015298 0.122188 0.241733 0.322322 0.349843 0.319427 0.236007 0.113089 -0.029929 -0.171283 -0.290497 -0.371505 -0.404728 -0.387857 -0.325396 -0.227215 -0.106545 0.022146 0.145005 0.250132 0.328347 0.373457 0.382202 0.354082 0.291204 0.198200 0.082160 -0.047548 -0.179743 -0.302263 -0.403201 -0.472397 -0.502963 -0.492509 -0.443786 -0.364498 -0.266230 -0.162622 -0.067069 0.009585 0.060930 0.086022 0.089347 0.079695 0.068155 0.065658 0.080569 0.116842 0.173130 0.243028 0.316385 0.381391 0.426993 0.445090 0.432080 0.389424 0.323163 0.242529 0.158003 0.079266 0.013501 -0.035609 -0.068009 -0.086589 -0.095901 -0.100672 -0.104483 -0.108952 -0.113610 -0.116447 -0.114958 -0.107344 -0.093519 -0.075614 -0.057785 -0.045343 -0.043398 -0.055357 -0.081657 -0.119117 -0.161116 -0.198635 -0.221995 -0.222931 -0.196547 -0.142703 -0.066484 0.022402 0.111221 0.186512 0.236635 0.254027 0.236720 0.188778 0.119556 0.041926 -0.030181 -0.084419 -0.112334 -0.110878 -0.082839 -0.036136 0.017875 0.066709 0.099215 0.107714 0.089397 0.046752 -0.013032 -0.079531 -0.141108 -0.187092 -0.209700 -0.205371 -0.175284 -0.125023 -0.063484 -0.001244 0.051278 0.085574 0.096403 0.082568 0.047007 -0.003780 -0.060838 -0.114223 -0.154571 -0.174540 -0.169907 -0.140171 -0.088571 -0.021535 0.052358 0.123738 0.183894 0.226106 0.246612 0.245050 0.224300 0.189744 0.148084 0.105943 0.068533 0.038665 0.016336 -0.001008 -0.017560 -0.037760 -0.064752 -0.099028 -0.137631 -0.174167 -0.199717 -0.204554 -0.180350 -0.122433 -0.031585 0.085074 0.214424 0.338959 0.439492 0.498484 0.503377 0.449283 0.340412 0.189923 0.018090 -0.150895 -0.292963 -0.388277 -0.424643 -0.399553 -0.320482 -0.203362 -0.069556 0.058060 0.159150 0.219309 0.232156 0.199800 0.131665 0.042012 -0.053228 -0.139623 -0.206724 -0.249393 -0.267797 -0.266190 -0.250895 -0.228069 -0.201846 -0.173324 -0.140639 -0.100057 -0.047754 0.018235 0.096467 0.181426 0.263967 0.332869 0.377125 0.388462 0.363440 0.304594 0.220259 0.123070 0.027410 -0.053622 -0.111014 -0.141759 -0.149384 -0.142928 -0.134579 -0.136476 -0.157452 -0.200486 -0.261528 -0.330026 -0.391117 -0.429012 -0.430834 -0.389995 -0.308307 -0.196238 -0.071184 0.045961 0.135218 0.181962 0.180384 0.135151 0.060822 -0.020934 -0.085795 -0.111982 -0.085097 -0.001555 0.130178 0.290835 0.453862 0.590496 0.675350 0.691348 0.632994 0.507329 0.332407 0.133671 -0.060964 -0.226253 -0.343926 -0.405279 -0.411628 -0.372650 -0.303146 -0.219058 -0.133728 -0.055275 0.014354 0.078507 0.143461 0.215243 0.296542 0.384550 0.470373 0.540240 0.578267 0.570179 0.507062 0.388252 0.222565 0.027506 -0.173492 -0.355244 -0.495537 -0.579363 -0.601720 -0.568341 -0.494163 -0.399872 -0.307268 -0.234487 -0.192146 -0.181278 -0.193509 -0.213438 -0.222680 -0.204626 -0.148851 -0.054129 0.070640 0.207846 0.334629 0.427644 0.468081 0.445840 0.361916 0.228487 0.066654 -0.097668 -0.238838 -0.336449 -0.379129 -0.366396 -0.308223 -0.222468 -0.130802 -0.054040 -0.007917 -0.000190 -0.029636 -0.087053 -0.157942 -0.226153 -0.277617 -0.303285 -0.300639 -0.273493 -0.230234 -0.181028 -0.134749 -0.096435 -0.065943 -0.038138 -0.004563 0.043840 0.113662 0.206436 0.317231 0.434847 0.543684 0.626879 0.670036 0.664662 0.610472 0.515960 0.397031 0.273914 0.167008 0.092576 0.059254 0.066197 0.103321 0.153630 0.197146 0.215574 0.196656 0.137196 0.044048 -0.067221 -0.175732 -0.260027 -0.303096 -0.296525 -0.242806 -0.155224 -0.055244 0.032056 0.083567 0.083505 0.027333 -0.076674 -0.208656 -0.341012 -0.444100 -0.492607 -0.471228 -0.378395 -0.227194 -0.043200 0.140396 0.289398 0.375590 0.382643 0.309665 0.171633 -0.003448 -0.180095 -0.322487 -0.401728 
hipp_sf_0009_ERC -0.474403 -0.418275 -0.314205 -0.177212 -0.026670 0.116853 0.234898 0.313988 0.347584 0.336798 0.289762 0.219803 0.142761 0.073969 0.025435 0.003762 0.009145 0.035644 0.072630 0.107132 0.126594 0.121532 0.087551 0.026330 -0.054603 -0.143273 -0.225566 -0.287968 -0.320223 -0.317353 -0.280646 -0.217414 -0.139539 -0.061117 0.004367 0.046731 0.061141 0.049068 0.017943 -0.020423 -0.052366 -0.065344 -0.050756 -0.006021 0.064515 0.150065 0.235235 0.302853 0.337284 0.327576 0.269824 0.168275 0.034944 -0.112220 -0.252279 -0.364814 -0.433356 -0.448089 -0.407345 -0.317640 -0.192265 -0.048769 0.094180 0.219920 0.316325 0.377283 0.402900 0.398489 0.372624 0.334747 0.292879 0.251926 0.212948 0.173503 0.128944 0.074321 0.006418 -0.074598 -0.164334 -0.254385 -0.333600 -0.390170 -0.414109 -0.399581 -0.346563 -0.261442 -0.156360 -0.047379 0.048209 0.114930 0.141941 0.125061 0.067621 -0.020055 -0.122430 -0.221471 -0.299782 -0.343575 -0.344927 -0.302928 -0.223558 -0.118347 -0.002142 0.109581 0.203325 0.269634 0.304261 0.308296 0.287321 0.249835 0.205326 0.162390 0.127266 0.103032 0.089536 0.083999 0.082082 0.079123 0.071280 0.056324 0.033976 0.005753 -0.025542 -0.056551 -0.084085 -0.105675 -0.119853 -0.126129 -0.124729 -0.116214 -0.101123 -0.079747 -0.052128 -0.018246 0.021638 0.066627 0.114922 0.163769 0.209649 0.248696 0.277267 0.292522 0.292881 0.278264 0.250032 0.210673 0.163302 0.111113 0.056913 0.002860 -0.049550 -0.099275 -0.145372 -0.186647 -0.221444 -0.247681 -0.263161 -0.266116 -0.255842 -0.233242 -0.201097 -0.163918 -0.127336 -0.097113 -0.077948 -0.072347 -0.079852 -0.096847 -0.117064 -0.132772 -0.136415 -0.122394 -0.088579 -0.037187 0.025248 0.088883 0.142406 0.175370 0.180535 0.155686 0.104486 0.036098 -0.036420 -0.098694 -0.138052 -0.146376 -0.122112 -0.070970 -0.005064 0.059407 0.105523 0.119358 0.093281 0.028085 -0.066574 -0.173614 -0.271616 -0.339008 -0.358486 -0.320763 -0.226820 -0.088150 0.075136 0.238003 0.375261 0.466442 0.499778 0.474433 0.400506 0.296787 0.186716 0.093407 0.034762 0.019759 0.046670 0.103637 0.171464 0.228028 0.253366 0.234307 0.167645 0.061136 -0.067917 -0.196211 -0.299352 -0.357079 -0.357674 -0.300565 -0.196584 -0.065787 0.066700 0.175897 0.242139 0.255075 0.215637 0.135576 0.034668 -0.063754 -0.137970 -0.172586 -0.161768 -0.110294 -0.032222 0.052496 0.122683 0.160803 0.156947 0.111030 0.032736 -0.060771 -0.148815 -0.211945 -0.236339 -0.216883 -0.158228 -0.073586 0.018410 0.098064 0.149149 0.162545 0.138154 0.084617 0.016926 -0.047509 -0.093391 -0.111553 -0.101495 -0.071764 -0.038033 -0.019275 -0.032898 -0.089954 -0.191612 -0.327760 -0.478194 -0.616249 -0.714139 -0.748902 -0.707632 -0.590806 -0.412898 -0.200058 0.014762 0.198232 0.323328 0.374818 0.352411 0.270840 0.156846 0.043661 -0.035855 -0.056007 -0.003547 0.119629 0.296934 0.500557 0.697175 0.854694 0.948574 0.966422 0.909933 0.793826 0.642099 0.482490 0.340383 0.233517 0.168620 0.140648 0.134733 0.130300 0.106396 0.046980 -0.055015 -0.195737 -0.361003 -0.529226 -0.675998 -0.779270 -0.823949 -0.804927 -0.727871 -0.607693 -0.465069 -0.321888 -0.196654 -0.100915 -0.037490 -0.000833 0.020609 0.040672 0.071330 0.119124 0.183066 0.254513 0.319060 0.360023 0.362675 0.318251 0.226728 0.097716 -0.050843 -0.195914 -0.313890 -0.385419 -0.399491 -0.355868 -0.265330 -0.147640 -0.027651 0.069644 0.124074 0.124256 0.069744 -0.029043 -0.153056 -0.278502 -0.381553 -0.442872 -0.451063 -0.404381 -0.310437 -0.184077 -0.043955 0.091384 0.207083 0.294465 0.351998 0.384615 0.401666 0.414031 0.431099 0.458293 0.495664 0.537822 0.575150 0.595990 0.589274 0.547024 0.466209 0.349595 0.205480 0.046420 -0.112733 -0.257082 -0.373787 -0.453676 -0.492168 -0.489451 -0.450025 -0.381792 -0.294918 -0.200652 -0.110241 -0.033976 0.019634 0.044588 0.038034 0.000781 -0.062422 -0.142973 -0.229013 -0.306608 -0.361483 -0.381142 -0.357068 -0.286596 -0.174070 -0.030921 0.125480 0.274151 0.393703 0.465907 0.478984 0.429997 0.325816 0.182405 0.022466 -0.128193 -0.244962 -0.308611 
hipp_sf_0010_BA35 -0.432843 -0.365403 -0.242882 -0.087576 0.072634 0.209669 0.300591 0.331815 0.301385 0.218889 0.103108 -0.022072 -0.132575 -0.208876 -0.239583 -0.223186 -0.167704 -0.088390 -0.004078 0.066985 0.110926 0.120858 0.097832 0.050021 -0.009584 -0.066359 -0.107374 -0.124087 -0.113864 -0.080038 -0.030596 0.024116 0.074073 0.111964 0.134743 0.143997 0.145089 0.145339 0.151731 0.168744 0.196849 0.232062 0.266671 0.290963 0.295542 0.273682 0.223143 0.147026 0.053426 -0.046022 -0.138404 -0.212077 -0.258938 -0.275912 -0.265345 -0.234233 -0.192493 -0.150677 -0.117681 -0.098934 -0.095472 -0.104066 -0.118324 -0.130460 -0.133306 -0.122062 -0.095407 -0.055722 -0.008428 0.039357 0.080489 0.109365 0.123013 0.121454 0.107298 0.084711 0.058064 0.030643 0.003767 -0.023451 -0.053641 -0.090151 -0.135737 -0.191348 -0.255332 -0.323306 -0.388745 -0.444147 -0.482486 -0.498568 -0.489942 -0.457107 -0.402987 -0.331809 -0.247717 -0.153562 -0.050232 0.063181 0.188372 0.326153 0.474596 0.627509 0.773818 0.898214 0.983180 1.012140 0.973168 0.862457 0.686701 0.463673 0.220615 -0.009523 -0.193454 -0.303589 -0.323592 -0.252251 -0.104756 0.089076 0.289486 0.453640 0.543441 0.532806 0.412967 0.194687 -0.093148 -0.408397 -0.703113 -0.932203 -1.061612 -1.074456 -0.973887 -0.782132 -0.535896 -0.279065 -0.054162 0.105727 0.182942 0.177984 0.108486 0.004692 -0.097569 -0.164920 -0.173804 -0.115634 0.001329 0.153742 0.308208 0.428497 0.483438 0.453840 0.336995 0.147824 -0.083572 -0.317476 -0.512102 -0.631618 -0.653040 -0.570658 -0.397129 -0.161088 0.098234 0.338276 0.520876 0.618979 0.621098 0.532758 0.374776 0.178841 -0.018648 -0.183257 -0.288421 -0.319548 -0.275661 -0.168488 -0.019343 0.145413 0.299362 0.420486 0.494301 0.515228 0.486133 0.416372 0.318929 0.207365 0.093247 -0.015429 -0.114621 -0.203509 -0.282972 -0.353802 -0.415167 -0.463783 -0.494038 -0.499064 -0.472523 -0.410681 -0.314241 -0.189466 -0.048230 0.093132 0.216049 0.302674 0.339038 0.317830 0.240221 0.116362 -0.035645 -0.192189 -0.327665 -0.418507 -0.447079 -0.404764 -0.293714 -0.126925 0.073425 0.279145 0.460231 0.589449 0.646558 0.621509 0.516086 0.343725 0.127534 -0.103179 -0.317295 -0.486493 -0.589329 -0.614157 -0.560439 -0.438283 -0.266369 -0.068652 0.129538 0.305313 0.441331 0.527709 0.562505 0.550833 0.502897 0.431435 0.349125 0.266485 0.190610 0.124919 0.069805 0.023906 -0.014427 -0.045900 -0.069632 -0.083275 -0.083852 -0.069073 -0.038746 0.004165 0.053169 0.098790 0.129977 0.136147 0.109408 0.046465 -0.050254 -0.172582 -0.307767 -0.440589 -0.556022 -0.641859 -0.690712 -0.700949 -0.676339 -0.624510 -0.554595 -0.474656 -0.389554 -0.299838 -0.201984 -0.090023 0.041817 0.196059 0.369322 0.550804 0.722467 0.861111 0.942082 0.943997 0.853512 0.669141 0.403190 0.081254 -0.260817 -0.582059 -0.842745 -1.010785 -1.066944 -1.007863 -0.846290 -0.608477 -0.329259 -0.045813 0.208681 0.410215 0.547014 0.619964 0.640470 0.626347 0.596753 0.567334 0.546678 0.534819 0.524058 0.501806 0.454710 0.372994 0.253954 0.103708 -0.063236 -0.226538 -0.364143 -0.457009 -0.493331 -0.471277 -0.399564 -0.295701 -0.182268 -0.082044 -0.013097 0.015081 0.003477 -0.036913 -0.087845 -0.128258 -0.139361 -0.109234 -0.035878 0.071991 0.196580 0.314763 0.403070 0.442838 0.424351 0.349063 0.229407 0.086247 -0.055456 -0.171801 -0.244783 -0.265765 -0.236873 -0.170048 -0.084053 -0.000173 0.062397 0.090411 0.078856 0.031203 -0.042315 -0.127889 -0.211922 -0.284432 -0.341227 -0.384290 -0.420307 -0.457742 -0.503244 -0.558359 -0.617506 -0.667850 -0.691298 -0.668284 -0.582577 -0.426012 -0.201998 0.073122 0.371382 0.657114 0.892823 1.045933 1.095028 1.034306 0.875244 0.645036 0.382009 0.128840 -0.075130 -0.201005 -0.235452 -0.182831 -0.063908 0.088596 0.236720 0.344927 0.387188 0.352100 0.245035 0.086934 -0.090018 -0.248941 -0.355740 -0.386065 -0.330362 -0.196075 -0.006555 0.203099 0.392478 0.523373 0.566946 0.509247 0.354065 0.122593 -0.150016 -0.420599 -0.645371 -0.787456 -0.823267 -0.746618 -0.569897 -0.322088 -0.044004 0.218471 0.421984 0.532908 
hipp_sf_0011_BA36 -0.244109 -0.220621 -0.179162 -0.129604 -0.084069 -0.054314 -0.049123 -0.072229 -0.121191 -0.187480 -0.257780 -0.316280 -0.347564 -0.339556 -0.285987 -0.187931 -0.054091 0.100206 0.255188 0.389620 0.484108 0.524189 0.502714 0.421138 0.289525 0.125267 -0.049279 -0.209884 -0.333807 -0.402950 -0.406354 -0.341704 -0.215651 -0.042916 0.155681 0.356001 0.533784 0.667847 0.742839 0.751188 0.693965 0.580554 0.427151 0.254307 0.083859 -0.064303 -0.175147 -0.240625 -0.260678 -0.242930 -0.201090 -0.152331 -0.114039 -0.100519 -0.120226 -0.174032 -0.254902 -0.349052 -0.438448 -0.504200 -0.530255 -0.506678 -0.431874 -0.313293 -0.166403 -0.012075 0.127169 0.231376 0.287015 0.289721 0.245333 0.168982 0.082318 0.009373 -0.028182 -0.015483 0.052257 0.168318 0.315212 0.467500 0.596185 0.673890 0.679837 0.603700 0.447603 0.225897 -0.037215 -0.311735 -0.566807 -0.775595 -0.919177 -0.988785 -0.986041 -0.921286 -0.810472 -0.671356 -0.519871 -0.367443 -0.219784 -0.077335 0.062870 0.204462 0.348904 0.493314 0.629601 0.745187 0.825260 0.856066 0.828512 0.741179 0.601981 0.427936 0.242921 0.073750 -0.054703 -0.124361 -0.127741 -0.069844 0.032366 0.152885 0.261506 0.329632 0.335934 0.270670 0.137789 -0.045667 -0.252771 -0.451906 -0.612886 -0.712779 -0.740208 -0.697260 -0.598614 -0.468081 -0.333305 -0.219779 -0.145444 -0.117058 -0.129107 -0.165509 -0.203721 -0.220361 -0.197081 -0.125388 -0.009284 0.134902 0.281537 0.400982 0.466051 0.458258 0.372474 0.218948 0.022146 -0.183425 -0.359641 -0.472141 -0.497176 -0.426500 -0.269295 -0.050687 0.192859 0.420353 0.593938 0.685856 0.683345 0.590525 0.426972 0.223354 0.015123 -0.164396 -0.290061 -0.348906 -0.341332 -0.279410 -0.182817 -0.073467 0.029874 0.115702 0.181710 0.234113 0.284625 0.345868 0.426411 0.526734 0.637201 0.738697 0.805914 0.812686 0.738205 0.572716 0.321325 0.004912 -0.342252 -0.677874 -0.959005 -1.149961 -1.229141 -1.193292 -1.058258 -0.855959 -0.628129 -0.418051 -0.261950 -0.181813 -0.181138 -0.244513 -0.341138 -0.431594 -0.476475 -0.445085 -0.322414 -0.112914 0.159716 0.456734 0.731685 0.939405 1.044850 1.029991 0.897380 0.669709 0.385490 0.091750 -0.164747 -0.346000 -0.429325 -0.410733 -0.304587 -0.139750 0.046861 0.217890 0.342738 0.402913 0.394535 0.327652 0.222711 0.105102 -0.000927 -0.077615 -0.117169 -0.122681 -0.106419 -0.085991 -0.079349 -0.099840 -0.152452 -0.232118 -0.324458 -0.408775 -0.462626 -0.466952 -0.410599 -0.293265 -0.126193 0.069525 0.266697 0.437029 0.556346 0.608962 0.590337 0.507513 0.377317 0.222769 0.068470 -0.064045 -0.160051 -0.213767 -0.228521 -0.215023 -0.188208 -0.163387 -0.152571 -0.161730 -0.189558 -0.227938 -0.263971 -0.283082 -0.272525 -0.224528 -0.138440 -0.021439 0.112344 0.244088 0.353497 0.422356 0.437760 0.394456 0.295883 0.153783 -0.013528 -0.183894 -0.334578 -0.445521 -0.502090 -0.496947 -0.430796 -0.311990 -0.155112 0.021183 0.196731 0.352453 0.472637 0.546628 0.569765 0.543503 0.474754 0.374592 0.256539 0.134658 0.021740 -0.072212 -0.140993 -0.182607 -0.199052 -0.195555 -0.179389 -0.158487 -0.140071 -0.129520 -0.129629 -0.140369 -0.159143 -0.181476 -0.201980 -0.215420 -0.217686 -0.206522 -0.181895 -0.145978 -0.102773 -0.057468 -0.015636 0.017588 0.038231 0.044049 0.034858 0.012620 -0.018702 -0.053516 -0.085173 -0.106698 -0.111629 -0.094919 -0.053777 0.011647 0.097871 0.198103 0.302749 0.400414 0.479322 0.528958 0.541690 0.514062 0.447509 0.348271 0.226496 0.094616 -0.034705 -0.150667 -0.246026 -0.318012 -0.368243 -0.401601 -0.424336 -0.441794 -0.456364 -0.466186 -0.465054 -0.443671 -0.392107 -0.302972 -0.174568 -0.013221 0.165954 0.340295 0.482870 0.567336 0.573502 0.492436 0.329912 0.107228 -0.141117 -0.372754 -0.544988 -0.623173 -0.588262 -0.441834 -0.207326 0.073121 0.345937 0.556325 0.659505 0.630738 0.471937 0.213247 -0.091138 -0.372460 -0.560634 -0.598771 -0.456114 -0.136632 0.318768 0.837282 1.325962 1.688264 1.842401 1.737990 1.367651 0.771041 0.030166 -0.743503 -1.428008 -1.912575 -2.117981 -2.011719 -1.614954 -0.999777 -0.277045 0.423084 0.974402 1.277423 
hipp_sf_0012_PHC -0.262904 -0.157594 0.027611 0.247666 0.448172 0.577831 0.600278 0.502639 0.298849 0.026985 -0.258837 -0.500231 -0.647348 -0.669915 -0.564023 -0.353158 -0.083229 0.187338 0.400265 0.510057 0.493860 0.356357 0.128655 -0.138585 -0.386255 -0.559693 -0.620548 -0.555009 -0.376644 -0.123242 0.151593 0.390239 0.543627 0.581846 0.500478 0.321328 0.087432 -0.146509 -0.326131 -0.409239 -0.374869 -0.227688 0.003186 0.270588 0.519485 0.698671 0.771445 0.723005 0.563053 0.323177 0.049712 -0.206272 -0.399605 -0.500009 -0.497565 -0.403642 -0.247278 -0.068005 0.093158 0.202482 0.240177 0.203543 0.106132 -0.026670 -0.164435 -0.279165 -0.351677 -0.375464 -0.357252 -0.314276 -0.269089 -0.243250 -0.251500 -0.297826 -0.374346 -0.463255 -0.541279 -0.585551 -0.579434 -0.516885 -0.404295 -0.259358 -0.107225 0.025156 0.115187 0.149834 0.128701 0.064263 -0.020795 -0.098506 -0.141710 -0.129939 -0.053816 0.082952 0.264363 0.465414 0.657112 0.812047 0.909339 0.937943 0.897763 0.798516 0.656832 0.492399 0.324127 0.167193 0.031503 -0.078281 -0.161459 -0.219352 -0.253434 -0.264183 -0.250998 -0.213203 -0.151735 -0.070893 0.020572 0.109589 0.180385 0.217395 0.208887 0.150429 0.047234 -0.085382 -0.223822 -0.340164 -0.407574 -0.406062 -0.327320 -0.177455 0.023149 0.243008 0.445260 0.594812 0.665452 0.645375 0.539878 0.370553 0.171057 -0.019728 -0.165723 -0.241174 -0.236042 -0.158103 -0.031261 0.109557 0.225859 0.283785 0.261302 0.152849 -0.029519 -0.258702 -0.498216 -0.709702 -0.860617 -0.930463 -0.914284 -0.822750 -0.678975 -0.512882 -0.354467 -0.227519 -0.145146 -0.108048 -0.105753 -0.120379 -0.131895 -0.123550 -0.086145 -0.020165 0.064671 0.152240 0.224431 0.266013 0.268685 0.233323 0.169844 0.094761 0.027037 -0.016703 -0.026408 -0.001199 0.050319 0.112141 0.164858 0.190588 0.177653 0.123847 0.037467 -0.064172 -0.158434 -0.222421 -0.238222 -0.197129 -0.101821 0.033990 0.188385 0.335867 0.452742 0.522010 0.536649 0.500603 0.427264 0.335904 0.246925 0.177085 0.135843 0.123654 0.132571 0.148956 0.157556 0.145912 0.107984 0.046063 -0.029506 -0.102743 -0.156008 -0.174561 -0.150582 -0.085650 0.008974 0.114362 0.207831 0.267864 0.278920 0.235035 0.141377 0.013409 -0.126172 -0.252022 -0.341251 -0.377928 -0.356019 -0.280200 -0.164442 -0.028793 0.104856 0.217035 0.294051 0.329795 0.325724 0.289216 0.230863 0.161487 0.089636 0.020175 -0.045784 -0.109757 -0.174006 -0.239580 -0.304919 -0.365517 -0.414785 -0.445914 -0.454209 -0.439190 -0.405757 -0.363958 -0.327212 -0.309295 -0.320724 -0.365434 -0.438622 -0.526438 -0.607798 -0.658098 -0.654163 -0.579400 -0.428035 -0.207444 0.062030 0.349876 0.620338 0.838538 0.976580 1.018410 0.962470 0.821643 0.620543 0.390767 0.165120 -0.028005 -0.168998 -0.249354 -0.271670 -0.247502 -0.193747 -0.128457 -0.067053 -0.019707 0.009664 0.022795 0.025214 0.023801 0.024463 0.030551 0.042378 0.057833 0.073804 0.087859 0.099610 0.111277 0.127213 0.152491 0.190938 0.243183 0.305347 0.368855 0.421546 0.449968 0.442341 0.391538 0.297295 0.167088 0.015347 -0.138896 -0.275458 -0.376813 -0.431401 -0.435690 -0.394526 -0.319702 -0.227095 -0.133067 -0.050993 0.011290 0.052505 0.077260 0.093901 0.111497 0.136768 0.171788 0.213065 0.252247 0.278291 0.280506 0.251665 0.190352 0.101880 -0.002518 -0.108061 -0.199789 -0.266072 -0.301359 -0.307408 -0.292651 -0.269806 -0.252316 -0.250538 -0.268695 -0.303455 -0.344587 -0.377650 -0.388077 -0.365647 -0.308159 -0.223237 -0.127635 -0.043979 0.004410 -0.000497 -0.066116 -0.185947 -0.339309 -0.494409 -0.614313 -0.664623 -0.621229 -0.476346 -0.241390 0.054149 0.367762 0.651964 0.863678 0.972921 0.968903 0.862140 0.682072 0.470657 0.273333 0.129340 0.063554 0.081644 0.169623 0.297850 0.428515 0.524833 0.559792 0.522367 0.419772 0.275194 0.121604 -0.006878 -0.083908 -0.097963 -0.055674 0.019437 0.092637 0.126813 0.092352 -0.024327 -0.215751 -0.453289 -0.692223 -0.881061 -0.973069 -0.937459 -0.767593 -0.484174 -0.132494 0.225913 0.525543 0.710547 0.746728 0.629252 0.384266 0.063949 -0.264051 -0.530615 -0.679589 
