13 420
hipp_sf_0000_BG 0.042774 0.035925 0.023154 0.006173 -0.012791 -0.031325 -0.047186 -0.058605 -0.064498 -0.064554 -0.059207 -0.049483 -0.036788 -0.022665 -0.008564 0.004331 0.015199 0.023611 0.029482 0.032987 0.034464 0.034316 0.032945 0.030716 0.027942 0.024893 0.021806 0.018889 0.016312 0.014194 0.012581 0.011433 0.010631 0.009998 0.009339 0.008491 0.007369 0.005994 0.004490 0.003061 0.001926 0.001262 0.001139 0.001489 0.002102 0.002676 0.002887 0.002480 0.001351 -0.000402 -0.002485 -0.004460 -0.005852 -0.006270 -0.005538 -0.003770 -0.001393 0.000916 0.002358 0.002190 -0.000088 -0.004578 -0.010907 -0.018244 -0.025428 -0.031171 -0.034319 -0.034087 -0.030253 -0.023231 -0.014023 -0.004047 0.005129 0.012088 0.015847 0.016048 0.013034 0.007767 0.001634 -0.003853 -0.007366 -0.008038 -0.005643 -0.000628 0.005988 0.012840 0.018519 0.021870 0.022237 0.019597 0.014549 0.008175 0.001796 -0.003318 -0.006222 -0.006491 -0.004302 -0.000374 0.004201 0.008205 0.010572 0.010618 0.008189 0.003687 -0.002014 -0.007762 -0.012367 -0.014842 -0.014604 -0.011575 -0.006191 0.000699 0.008006 0.014604 0.019528 0.022131 0.022162 0.019764 0.015411 0.009784 0.003641 -0.002311 -0.007510 -0.011594 -0.014403 -0.015961 -0.016429 -0.016053 -0.015128 -0.013955 -0.012825 -0.011986 -0.011628 -0.011847 -0.012621 -0.013784 -0.015027 -0.015919 -0.015972 -0.014730 -0.011879 -0.007345 -0.001370 0.005477 0.012353 0.018265 0.022253 0.023582 0.021921 0.017461 0.010924 0.003479 -0.003460 -0.008491 -0.010514 -0.008962 -0.003957 0.003683 0.012563 0.020971 0.027195 0.029861 0.028212 0.022259 0.012788 0.001201 -0.010760 -0.021360 -0.029204 -0.033501 -0.034177 -0.031837 -0.027579 -0.022697 -0.018356 -0.015309 -0.013720 -0.013145 -0.012667 -0.011156 -0.007596 -0.001401 0.007375 0.017957 0.028962 0.038650 0.045295 0.047562 0.044834 0.037389 0.026394 0.013706 0.001517 -0.008079 -0.013510 -0.014051 -0.009964 -0.002441 0.006657 0.015197 0.021236 0.023434 0.021333 0.015451 0.007161 -0.001620 -0.008848 -0.012805 -0.012475 -0.007764 0.000466 0.010581 0.020508 0.028156 0.031840 0.030598 0.024358 0.013919 0.000746 -0.013351 -0.026587 -0.037541 -0.045387 -0.049974 -0.051746 -0.051531 -0.050267 -0.048723 -0.047291 -0.045909 -0.044112 -0.041216 -0.036569 -0.029811 -0.021073 -0.011047 -0.000916 0.007858 0.013848 0.015994 0.013899 0.007989 -0.000488 -0.009641 -0.017279 -0.021330 -0.020271 -0.013473 -0.001382 0.014500 0.031849 0.047918 0.060036 0.066108 0.065018 0.056867 0.042984 0.025712 0.008012 -0.007048 -0.016827 -0.019565 -0.014680 -0.002858 0.014073 0.033468 0.052313 0.067717 0.077370 0.079876 0.074924 0.063263 0.046510 0.026836 0.006579 -0.012124 -0.027639 -0.039012 -0.046016 -0.049064 -0.049017 -0.046949 -0.043907 -0.040719 -0.037882 -0.035547 -0.033586 -0.031718 -0.029665 -0.027277 -0.024615 -0.021963 -0.019753 -0.018452 -0.018402 -0.019687 -0.022039 -0.024827 -0.027132 -0.027902 -0.026160 -0.021226 -0.012900 -0.001571 0.011783 0.025715 0.038527 0.048554 0.054463 0.055501 0.051653 0.043663 0.032916 0.021193 0.010346 0.001962 -0.002938 -0.004082 -0.001986 0.002161 0.006748 0.010087 0.010765 0.007954 0.001593 -0.007575 -0.018142 -0.028299 -0.036201 -0.040326 -0.039787 -0.034507 -0.025238 -0.013416 -0.000879 0.010488 0.019109 0.024000 0.024923 0.022389 0.017500 0.011676 0.006339 0.002600 0.001035 0.001594 0.003648 0.006169 0.007996 0.008126 0.005957 0.001439 -0.004904 -0.012079 -0.018844 -0.023967 -0.026485 -0.025903 -0.022278 -0.016193 -0.008617 -0.000694 0.006492 0.012112 0.015724 0.017294 0.017131 0.015744 0.013675 0.011340 0.008942 0.006450 0.003668 0.000362 -0.003589 -0.008070 -0.012667 -0.016694 -0.019307 -0.019686 -0.017239 -0.011784 -0.003654 0.006306 0.016849 0.026536 0.034000 0.038205 0.038645 0.035436 0.029284 0.021322 0.012872 0.005168 -0.000891 -0.004903 -0.006998 -0.007754 -0.008006 -0.008591 -0.010113 -0.012757 -0.016227 -0.019807 -0.022535 -0.023456 -0.021885 -0.017623 -0.011054 -0.003121 0.004847 0.011405 0.015299 0.015755 0.012667 0.006643 -0.001096 -0.008966 -0.015342 -0.018899 
hipp_sf_0001_CA1 -0.116396 -0.112536 -0.105769 -0.097760 -0.090462 -0.085627 -0.084365 -0.086872 -0.092389 -0.099393 -0.105966 -0.110237 -0.110774 -0.106820 -0.098317 -0.085718 -0.069659 -0.050590 -0.028511 -0.002905 0.027088 0.062257 0.102789 0.147743 0.194719 0.239839 0.278117 0.304195 0.313327 0.302407 0.270810 0.220837 0.157618 0.088441 0.021593 -0.035061 -0.075496 -0.096642 -0.098935 -0.086194 -0.064791 -0.042303 -0.025887 -0.020732 -0.028906 -0.048855 -0.075680 -0.102129 -0.120129 -0.122545 -0.104788 -0.065965 -0.009309 0.058195 0.126918 0.186225 0.226313 0.239911 0.223519 0.177973 0.108252 0.022605 -0.068828 -0.155605 -0.228511 -0.280750 -0.308638 -0.311731 -0.292436 -0.255245 -0.205776 -0.149820 -0.092558 -0.038056 0.010949 0.052979 0.087567 0.114911 0.135536 0.150022 0.158850 0.162336 0.160671 0.153991 0.142490 0.126522 0.106693 0.083947 0.059620 0.035463 0.013603 -0.003591 -0.013739 -0.014800 -0.005494 0.014265 0.043026 0.077645 0.113426 0.144586 0.165052 0.169469 0.154274 0.118607 0.064857 -0.001336 -0.071700 -0.136533 -0.186309 -0.213427 -0.213754 -0.187650 -0.140208 -0.080615 -0.020686 0.027196 0.052372 0.047978 0.012406 -0.050181 -0.130399 -0.215190 -0.290110 -0.341907 -0.360923 -0.342859 -0.289542 -0.208577 -0.111938 -0.013794 0.072023 0.134399 0.166746 0.167894 0.141970 0.097306 0.044671 -0.004817 -0.041663 -0.059494 -0.055836 -0.032092 0.007186 0.055509 0.105838 0.151853 0.188857 0.214183 0.227131 0.228516 0.220042 0.203691 0.181296 0.154378 0.124244 0.092231 0.059973 0.029527 0.003267 -0.016490 -0.028029 -0.030834 -0.026031 -0.016516 -0.006657 -0.001568 -0.006066 -0.023510 -0.054794 -0.097747 -0.147116 -0.195221 -0.233176 -0.252499 -0.246778 -0.213056 -0.152656 -0.071233 0.021982 0.115604 0.197946 0.258922 0.291668 0.293556 0.266451 0.216167 0.151288 0.081583 0.016359 -0.036947 -0.073699 -0.092391 -0.094382 -0.083179 -0.063472 -0.040150 -0.017512 0.001216 0.014016 0.019936 0.018799 0.010893 -0.003217 -0.022712 -0.046380 -0.072421 -0.098286 -0.120715 -0.136022 -0.140653 -0.131918 -0.108759 -0.072340 -0.026286 0.023565 0.069909 0.105146 0.122759 0.118637 0.092057 0.046092 -0.012687 -0.075193 -0.131344 -0.171838 -0.189845 -0.182289 -0.150457 -0.099813 -0.039045 0.021472 0.071515 0.102781 0.110291 0.093156 0.054603 0.001294 -0.057908 -0.113472 -0.156727 -0.181125 -0.183055 -0.162104 -0.120795 -0.063925 0.002335 0.071379 0.136990 0.193937 0.238312 0.267629 0.280739 0.277665 0.259403 0.227742 0.185122 0.134497 0.079176 0.022636 -0.031726 -0.080853 -0.122274 -0.154275 -0.175957 -0.187162 -0.188289 -0.180050 -0.163249 -0.138646 -0.106972 -0.069086 -0.026241 0.019650 0.065840 0.108802 0.144538 0.169171 0.179709 0.174828 0.155472 0.125091 0.089363 0.055391 0.030447 0.020500 0.028798 0.054851 0.094071 0.138239 0.176778 0.198667 0.194632 0.159205 0.092200 -0.000744 -0.108713 -0.217141 -0.310233 -0.373744 -0.397590 -0.377768 -0.317189 -0.225237 -0.116134 -0.006398 0.088090 0.154855 0.186889 0.183611 0.150571 0.097996 0.038500 -0.015536 -0.054375 -0.072644 -0.070038 -0.050910 -0.022909 0.005002 0.024681 0.030616 0.021028 -0.001939 -0.032932 -0.064806 -0.090382 -0.104132 -0.103399 -0.088905 -0.064460 -0.035965 -0.009973 0.007824 0.013870 0.007454 -0.009238 -0.031743 -0.054409 -0.071693 -0.079350 -0.075262 -0.059730 -0.035212 -0.005617 0.024646 0.051604 0.072437 0.085799 0.091738 0.091271 0.085794 0.076517 0.064107 0.048650 0.029933 0.007950 -0.016541 -0.041616 -0.064100 -0.079894 -0.084694 -0.074958 -0.048897 -0.007241 0.046437 0.105992 0.163556 0.210829 0.240579 0.248017 0.231762 0.194168 0.140928 0.080028 0.020249 -0.030447 -0.066341 -0.084862 -0.086827 -0.075971 -0.057902 -0.038728 -0.023683 -0.016053 -0.016624 -0.023759 -0.034040 -0.043300 -0.047770 -0.045062 -0.034753 -0.018443 0.000696 0.018763 0.032114 0.038250 0.036383 0.027530 0.014153 -0.000579 -0.013674 -0.023120 -0.028395 -0.030525 -0.031702 -0.034535 -0.041159 -0.052421 -0.067399 -0.083387 -0.096379 -0.101973 -0.096468 -0.077903 -0.046771 -0.006209 0.038403 0.080375 0.112983 0.130798 
hipp_sf_0002_CA2 -0.478196 -0.423306 -0.321763 -0.188632 -0.043268 0.093891 0.204577 0.275436 0.299771 0.278055 0.217207 0.128860 0.027052 -0.074204 -0.162978 -0.230809 -0.273242 -0.289573 -0.281993 -0.254448 -0.211518 -0.157576 -0.096353 -0.030919 0.036066 0.101991 0.164053 0.219245 0.264626 0.297799 0.317428 0.323605 0.317898 0.302980 0.281903 0.257160 0.229788 0.198808 0.161214 0.112618 0.048504 -0.034158 -0.135302 -0.250566 -0.370909 -0.483248 -0.572160 -0.622414 -0.621898 -0.564367 -0.451415 -0.293180 -0.107529 0.082275 0.251059 0.375820 0.439650 0.434784 0.364158 0.241177 0.087668 -0.069610 -0.203305 -0.289891 -0.313377 -0.267705 -0.157432 0.003332 0.193477 0.388422 0.563956 0.699721 0.781793 0.803998 0.767896 0.681581 0.557646 0.410788 0.255492 0.104186 -0.033902 -0.153127 -0.251130 -0.328067 -0.385615 -0.425982 -0.451119 -0.462237 -0.459643 -0.442866 -0.410988 -0.363100 -0.298801 -0.218681 -0.124731 -0.020644 0.088057 0.194144 0.289087 0.363814 0.409775 0.420234 0.391598 0.324551 0.224700 0.102490 -0.027748 -0.149635 -0.247240 -0.307892 -0.324770 -0.298742 -0.238964 -0.161961 -0.089167 -0.043233 -0.043685 -0.102722 -0.221991 -0.391072 -0.588112 -0.782693 -0.940541 -1.029336 -1.024601 -0.914560 -0.703022 -0.409662 -0.067529 0.281838 0.594885 0.832965 0.968481 0.989153 0.899664 0.720430 0.483778 0.228286 -0.007643 -0.191797 -0.302719 -0.332088 -0.284675 -0.176075 -0.028839 0.132097 0.283760 0.408459 0.495584 0.541748 0.549537 0.525397 0.477300 0.412826 0.338072 0.257531 0.174786 0.093609 0.018946 -0.042675 -0.083638 -0.096634 -0.076704 -0.023395 0.057594 0.153879 0.247338 0.316608 0.340799 0.303765 0.198063 0.027705 -0.191041 -0.431154 -0.658605 -0.837779 -0.937644 -0.937520 -0.831321 -0.629392 -0.357500 -0.053062 0.240762 0.482066 0.637059 0.685520 0.623915 0.465629 0.238342 -0.020915 -0.272076 -0.478563 -0.612877 -0.660322 -0.620363 -0.505533 -0.338296 -0.146584 0.041083 0.200009 0.312574 0.369903 0.371902 0.325929 0.244541 0.142906 0.036394 -0.061295 -0.139275 -0.189938 -0.208917 -0.194802 -0.148840 -0.074753 0.021328 0.130924 0.243460 0.346903 0.428870 0.478191 0.486704 0.450960 0.373426 0.262817 0.133326 0.002722 -0.110450 -0.190126 -0.225825 -0.214959 -0.163830 -0.086994 -0.005007 0.059131 0.084222 0.055033 -0.034416 -0.179106 -0.363183 -0.562076 -0.746228 -0.885799 -0.955509 -0.938790 -0.830505 -0.637816 -0.379083 -0.081061 0.225073 0.508120 0.740955 0.903668 0.985332 0.984290 0.907094 0.766495 0.578985 0.362395 0.133967 -0.090883 -0.299074 -0.479821 -0.624306 -0.725377 -0.777522 -0.777220 -0.723625 -0.619379 -0.471256 -0.290333 -0.091441 0.108172 0.290875 0.441080 0.547636 0.605707 0.617719 0.593085 0.546677 0.496222 0.459071 0.448889 0.472901 0.530232 0.611686 0.701064 0.777822 0.820617 0.811113 0.737372 0.596203 0.394051 0.146259 -0.125153 -0.394803 -0.637745 -0.833085 -0.966791 -1.033237 -1.035264 -0.982835 -0.890598 -0.774894 -0.650791 -0.529734 -0.418215 -0.317678 -0.225582 -0.137341 -0.048643 0.042391 0.133733 0.219021 0.288331 0.330030 0.333361 0.291235 0.202616 0.073969 -0.080646 -0.240963 -0.383255 -0.484027 -0.524017 -0.491827 -0.386460 -0.218263 -0.008002 0.215863 0.421334 0.577796 0.660913 0.656658 0.563788 0.394302 0.171779 -0.072172 -0.302772 -0.487449 -0.600854 -0.628673 -0.569640 -0.435417 -0.248416 -0.037944 0.164628 0.330864 0.439578 0.479783 0.451823 0.366592 0.243062 0.104630 -0.025024 -0.125816 -0.184235 -0.194940 -0.160809 -0.091546 -0.001227 0.094696 0.182303 0.251493 0.297263 0.319818 0.323600 0.315521 0.302873 0.291359 0.283704 0.279109 0.273641 0.261432 0.236385 0.193983 0.132794 0.055294 -0.032163 -0.120259 -0.198333 -0.256371 -0.286979 -0.286902 -0.257805 -0.206109 -0.141931 -0.077303 -0.024019 0.008487 0.014817 -0.005471 -0.047868 -0.103850 -0.162544 -0.212820 -0.245415 -0.254673 -0.239609 -0.204080 -0.156053 -0.106100 -0.065395 -0.043578 -0.046857 -0.076691 -0.129276 -0.195924 -0.264285 -0.320205 -0.349940 -0.342356 -0.290808 -0.194381 -0.058329 0.106362 0.284229 0.457221 0.606969 0.717129 0.775476 
hipp_sf_0003_DG -0.121458 -0.106392 -0.079574 -0.046915 -0.015654 0.007203 0.016371 0.009412 -0.012767 -0.046121 -0.084333 -0.120127 -0.146744 -0.159255 -0.155439 -0.136042 -0.104412 -0.065593 -0.025130 0.012149 0.043086 0.066687 0.084063 0.097851 0.111300 0.127225 0.147116 0.170589 0.195316 0.217443 0.232376 0.235761 0.224426 0.197065 0.154536 0.099720 0.036998 -0.028516 -0.091783 -0.148526 -0.195633 -0.231239 -0.254504 -0.265211 -0.263329 -0.248708 -0.221016 -0.179960 -0.125744 -0.059634 0.015538 0.095115 0.172732 0.240868 0.291775 0.318659 0.316879 0.284938 0.225049 0.143124 0.048166 -0.048871 -0.136575 -0.204661 -0.245395 -0.254619 -0.232224 -0.182003 -0.110956 -0.028172 0.056496 0.133746 0.195934 0.237836 0.256993 0.253648 0.230348 0.191320 0.141752 0.087084 0.032395 -0.018048 -0.061080 -0.094753 -0.118310 -0.132035 -0.137016 -0.134836 -0.127247 -0.115836 -0.101764 -0.085597 -0.067285 -0.046306 -0.021974 0.006151 0.037819 0.071724 0.105330 0.134972 0.156267 0.164814 0.157067 0.131235 0.087991 0.030820 -0.034141 -0.098815 -0.154379 -0.192770 -0.208235 -0.198610 -0.166065 -0.117095 -0.061696 -0.011805 0.020741 0.026398 -0.000168 -0.058794 -0.143461 -0.242962 -0.342533 -0.426174 -0.479288 -0.491151 -0.456783 -0.377881 -0.262631 -0.124447 0.020163 0.154210 0.262869 0.335709 0.368121 0.361760 0.323933 0.266106 0.201814 0.144348 0.104635 0.089623 0.101423 0.137271 0.190282 0.250778 0.307968 0.351672 0.373822 0.369558 0.337778 0.281139 0.205539 0.119227 0.031660 -0.047714 -0.110610 -0.150879 -0.165204 -0.153468 -0.118757 -0.067013 -0.006365 0.053817 0.104027 0.135803 0.142825 0.121800 0.073016 0.000455 -0.088564 -0.184203 -0.275286 -0.350709 -0.400883 -0.419014 -0.402045 -0.351108 -0.271434 -0.171721 -0.063055 0.042480 0.133299 0.199733 0.235180 0.236860 0.206074 0.147968 0.070834 -0.014958 -0.098264 -0.168550 -0.217197 -0.238577 -0.230768 -0.195817 -0.139500 -0.070586 0.000326 0.062265 0.105478 0.122921 0.111435 0.072420 0.011849 -0.060422 -0.131989 -0.189725 -0.221840 -0.219847 -0.180125 -0.104784 -0.001656 0.116625 0.234371 0.335136 0.404235 0.431058 0.410811 0.345381 0.243170 0.117912 -0.013339 -0.132743 -0.224311 -0.276247 -0.282615 -0.244103 -0.167784 -0.065945 0.045810 0.150861 0.233937 0.283179 0.291652 0.258104 0.186943 0.087467 -0.027489 -0.143276 -0.245292 -0.320745 -0.360120 -0.358212 -0.314627 -0.233734 -0.124090 0.002588 0.132763 0.252615 0.349570 0.413675 0.438645 0.422460 0.367444 0.279818 0.168796 0.045359 -0.079109 -0.194122 -0.291144 -0.364253 -0.410353 -0.428965 -0.421692 -0.391523 -0.342138 -0.277391 -0.201041 -0.116761 -0.028348 0.060005 0.143525 0.216921 0.274760 0.312158 0.325659 0.314122 0.279375 0.226420 0.163044 0.098818 0.043611 0.005853 -0.009104 -0.000172 0.029009 0.070519 0.113460 0.145940 0.157349 0.140493 0.093146 0.018677 -0.074397 -0.173877 -0.266083 -0.338358 -0.381365 -0.390703 -0.367524 -0.318022 -0.251937 -0.180396 -0.113581 -0.058735 -0.018947 0.007048 0.024013 0.038546 0.057002 0.083522 0.118651 0.158894 0.197343 0.225248 0.234178 0.218270 0.176030 0.111232 0.032652 -0.047343 -0.115106 -0.158430 -0.169103 -0.144734 -0.089446 -0.013247 0.069801 0.144255 0.196254 0.216174 0.200431 0.152066 0.080038 -0.002625 -0.081392 -0.142981 -0.177736 -0.181173 -0.154438 -0.103668 -0.038453 0.030192 0.091905 0.138656 0.165756 0.172047 0.159377 0.131600 0.093402 0.049299 0.003020 -0.042624 -0.085461 -0.123452 -0.154231 -0.174907 -0.182297 -0.173577 -0.147213 -0.103900 -0.047212 0.016326 0.077887 0.127674 0.156743 0.158914 0.132368 0.080491 0.011703 -0.061793 -0.126155 -0.168557 -0.179795 -0.156305 -0.101114 -0.023480 0.062744 0.141740 0.198798 0.223227 0.210466 0.162975 0.089700 0.004228 -0.077960 -0.142569 -0.179244 -0.183429 -0.156976 -0.107395 -0.045988 0.014709 0.063580 0.093092 0.100514 0.087985 0.061471 0.028936 -0.001804 -0.024993 -0.038166 -0.042420 -0.041696 -0.041298 -0.046058 -0.058642 -0.078468 -0.101512 -0.121106 -0.129526 -0.120009 -0.088685 -0.035938 0.033161 0.109508 0.181586 0.237713 0.268422 
hipp_sf_0004_CA3 0.137503 0.124023 0.099977 0.070476 0.041579 0.018799 0.005733 0.003166 0.008852 0.018061 0.024769 0.023210 0.009444 -0.017461 -0.054914 -0.097115 -0.136153 -0.163670 -0.172735 -0.159506 -0.124291 -0.071766 -0.010246 0.049851 0.098050 0.125943 0.128957 0.107367 0.066336 0.014960 -0.035522 -0.073965 -0.091584 -0.083759 -0.051033 0.000911 0.062289 0.121067 0.165247 0.185151 0.175260 0.135245 0.070028 -0.011140 -0.096371 -0.173272 -0.231107 -0.262584 -0.264941 -0.240183 -0.194444 -0.136640 -0.076698 -0.023711 0.015645 0.038146 0.044347 0.038184 0.025945 0.014847 0.011492 0.020490 0.043497 0.078843 0.121793 0.165385 0.201697 0.223310 0.224706 0.203369 0.160382 0.100426 0.031156 -0.037940 -0.097032 -0.137538 -0.153565 -0.142945 -0.107688 -0.053767 0.009765 0.072180 0.122791 0.152697 0.156273 0.132130 0.083396 0.017243 -0.056255 -0.125751 -0.180463 -0.211902 -0.215196 -0.189800 -0.139472 -0.071544 0.004348 0.077845 0.139446 0.181834 0.200711 0.195067 0.166871 0.120342 0.060974 -0.005426 -0.073513 -0.138845 -0.197962 -0.248182 -0.287245 -0.312994 -0.323243 -0.315926 -0.289541 -0.243778 -0.180162 -0.102500 -0.016943 0.068445 0.144632 0.202934 0.236481 0.241538 0.218385 0.171536 0.109189 0.041963 -0.018860 -0.063279 -0.084314 -0.079199 -0.049781 -0.002039 0.055187 0.111997 0.159391 0.190986 0.204142 0.200259 0.184215 0.163060 0.144275 0.133968 0.135409 0.148209 0.168324 0.188881 0.201634 0.198750 0.174535 0.126752 0.057265 -0.028114 -0.120527 -0.209512 -0.284701 -0.337428 -0.361970 -0.356213 -0.321685 -0.263021 -0.187033 -0.101615 -0.014704 0.066525 0.136147 0.189668 0.223985 0.237243 0.228731 0.198869 0.149319 0.083151 0.004940 -0.079315 -0.162547 -0.237293 -0.296598 -0.335028 -0.349566 -0.340197 -0.310007 -0.264718 -0.211716 -0.158727 -0.112404 -0.077120 -0.054228 -0.041964 -0.036033 -0.030748 -0.020496 -0.001187 0.028634 0.067287 0.110188 0.150791 0.182039 0.198003 0.195347 0.174273 0.138715 0.095719 0.054116 0.022762 0.008716 0.015742 0.043470 0.087383 0.139649 0.190626 0.230707 0.252147 0.250479 0.225264 0.180029 0.121463 0.058055 -0.001501 -0.049803 -0.081845 -0.095547 -0.091662 -0.073165 -0.044340 -0.009811 0.026234 0.060470 0.090465 0.114392 0.130588 0.137168 0.131895 0.112393 0.076732 0.024221 -0.043770 -0.123248 -0.207496 -0.287580 -0.353463 -0.395555 -0.406432 -0.382372 -0.324361 -0.238321 -0.134454 -0.025773 0.073926 0.152275 0.200317 0.213876 0.194056 0.146788 0.081553 0.009535 -0.058381 -0.113391 -0.149970 -0.166318 -0.164002 -0.146982 -0.120269 -0.088595 -0.055380 -0.022256 0.010816 0.044886 0.081058 0.119513 0.158820 0.195741 0.225629 0.243334 0.244427 0.226425 0.189711 0.137889 0.077446 0.016747 -0.035448 -0.071639 -0.087053 -0.080611 -0.055168 -0.016963 0.025602 0.063599 0.089282 0.097502 0.086545 0.058232 0.017284 -0.029863 -0.076515 -0.117115 -0.148248 -0.169065 -0.181046 -0.187210 -0.190975 -0.194993 -0.200245 -0.205631 -0.208177 -0.203785 -0.188375 -0.159115 -0.115441 -0.059597 0.003447 0.066734 0.122555 0.163933 0.186034 0.187196 0.169341 0.137687 0.099794 0.064152 0.038592 0.028847 0.037550 0.063839 0.103652 0.150596 0.197205 0.236317 0.262276 0.271757 0.264071 0.240946 0.205889 0.163305 0.117584 0.072365 0.030098 -0.008048 -0.041952 -0.072121 -0.099206 -0.123610 -0.145281 -0.163725 -0.178218 -0.188116 -0.193161 -0.193664 -0.190516 -0.184998 -0.178442 -0.171861 -0.165625 -0.159324 -0.151848 -0.141688 -0.127398 -0.108079 -0.083777 -0.055651 -0.025856 0.002851 0.027719 0.046666 0.058838 0.064906 0.067003 0.068274 0.072132 0.081355 0.097253 0.119106 0.144028 0.167346 0.183437 0.186888 0.173730 0.142485 0.094779 0.035356 -0.028558 -0.088434 -0.135967 -0.164624 -0.170919 -0.155127 -0.121273 -0.076378 -0.029101 0.011972 0.040018 0.051327 0.045999 0.027838 0.003466 -0.019197 -0.032745 -0.032032 -0.015457 0.014485 0.051552 0.086944 0.111121 0.115891 0.096347 0.052223 -0.011614 -0.085698 -0.157464 -0.213449 -0.241803 -0.234628 -0.189694 -0.111167 -0.009189 0.101642 0.204654 0.283912 0.326954 
hipp_sf_0005_HEAD NaN NaN NaN NaN NaN NaN NaN NaN NaN NaN NaN NaN NaN NaN NaN NaN NaN NaN NaN NaN NaN NaN NaN NaN NaN NaN NaN NaN NaN NaN NaN NaN NaN NaN NaN NaN NaN NaN NaN NaN NaN NaN NaN NaN NaN NaN NaN NaN NaN NaN NaN NaN NaN NaN NaN NaN NaN NaN NaN NaN NaN NaN NaN NaN NaN NaN NaN NaN NaN NaN NaN NaN NaN NaN NaN NaN NaN NaN NaN NaN NaN NaN NaN NaN NaN NaN NaN NaN NaN NaN NaN NaN NaN NaN NaN NaN NaN NaN NaN NaN NaN NaN NaN NaN NaN NaN NaN NaN NaN NaN NaN NaN NaN NaN NaN NaN NaN NaN NaN NaN NaN NaN NaN NaN NaN NaN NaN NaN NaN NaN NaN NaN NaN NaN NaN NaN NaN NaN NaN NaN NaN NaN NaN NaN NaN NaN NaN NaN NaN NaN NaN NaN NaN NaN NaN NaN NaN NaN NaN NaN NaN NaN NaN NaN NaN NaN NaN NaN NaN NaN NaN NaN NaN NaN NaN NaN NaN NaN NaN NaN NaN NaN NaN NaN NaN NaN NaN NaN NaN NaN NaN NaN NaN NaN NaN NaN NaN NaN NaN NaN NaN NaN NaN NaN NaN NaN NaN NaN NaN NaN NaN NaN NaN NaN NaN NaN NaN NaN NaN NaN NaN NaN NaN NaN NaN NaN NaN NaN NaN NaN NaN NaN NaN NaN NaN NaN NaN NaN NaN NaN NaN NaN NaN NaN NaN NaN NaN NaN NaN NaN NaN NaN NaN NaN NaN NaN NaN NaN NaN NaN NaN NaN NaN NaN NaN NaN NaN NaN NaN NaN NaN NaN NaN NaN NaN NaN NaN NaN NaN NaN NaN NaN NaN NaN NaN NaN NaN NaN NaN NaN NaN NaN NaN NaN NaN NaN NaN NaN NaN NaN NaN NaN NaN NaN NaN NaN NaN NaN NaN NaN NaN NaN NaN NaN NaN NaN NaN NaN NaN NaN NaN NaN NaN NaN NaN NaN NaN NaN NaN NaN NaN NaN NaN NaN NaN NaN NaN NaN NaN NaN NaN NaN NaN NaN NaN NaN NaN NaN NaN NaN NaN NaN NaN NaN NaN NaN NaN NaN NaN NaN NaN NaN NaN NaN NaN NaN NaN NaN NaN NaN NaN NaN NaN NaN NaN NaN NaN NaN NaN NaN NaN NaN NaN NaN NaN NaN NaN NaN NaN NaN NaN NaN NaN NaN NaN NaN NaN NaN NaN NaN NaN NaN NaN NaN NaN NaN NaN NaN NaN NaN NaN NaN NaN NaN NaN NaN NaN NaN NaN NaN 
hipp_sf_0006_TAIL 0.267960 0.269775 0.271714 0.270884 0.264059 0.248667 0.223664 0.190021 0.150716 0.110179 0.073338 0.044486 0.026246 0.018904 0.020284 0.026202 0.031413 0.030810 0.020592 -0.000897 -0.032857 -0.072343 -0.115109 -0.156763 -0.193936 -0.225140 -0.251067 -0.274217 -0.297929 -0.325030 -0.356473 -0.390327 -0.421457 -0.442069 -0.443092 -0.416165 -0.355815 -0.261339 -0.137901 0.003481 0.147186 0.275320 0.370747 0.420230 0.417057 0.362580 0.266313 0.144475 0.017237 -0.094857 -0.174597 -0.211222 -0.202322 -0.154142 -0.080212 0.001426 0.071861 0.115088 0.121184 0.088250 0.022745 -0.061832 -0.147643 -0.216038 -0.251203 -0.243213 -0.189894 -0.097172 0.022136 0.150800 0.270420 0.364757 0.422532 0.439159 0.417129 0.365050 0.295581 0.222736 0.159124 0.113651 0.090136 0.087023 0.098203 0.114684 0.126741 0.126053 0.107420 0.069724 0.015988 -0.047408 -0.112157 -0.169760 -0.213200 -0.238204 -0.243890 -0.232678 -0.209552 -0.180854 -0.152887 -0.130629 -0.116809 -0.111524 -0.112434 -0.115480 -0.115940 -0.109606 -0.093809 -0.068120 -0.034546 0.002768 0.038309 0.066257 0.081635 0.081332 0.064800 0.034283 -0.005469 -0.047947 -0.085969 -0.112914 -0.123868 -0.116498 -0.091470 -0.052343 -0.004957 0.043592 0.086189 0.116945 0.132203 0.131119 0.115725 0.090439 0.061126 0.033894 0.013860 0.004130 0.005203 0.014932 0.029043 0.042121 0.048861 0.045318 0.029891 0.003822 -0.028920 -0.062357 -0.089693 -0.104749 -0.103328 -0.084235 -0.049711 -0.005180 0.041661 0.082249 0.108763 0.115628 0.100595 0.065190 0.014427 -0.044133 -0.101789 -0.150270 -0.183149 -0.196813 -0.190819 -0.167581 -0.131521 -0.087890 -0.041567 0.003883 0.046681 0.086736 0.125044 0.162756 0.200203 0.236146 0.267498 0.289628 0.297220 0.285506 0.251592 0.195533 0.120890 0.034562 -0.054125 -0.134914 -0.198418 -0.237838 -0.250238 -0.237060 -0.203783 -0.158743 -0.111399 -0.070374 -0.041735 -0.027860 -0.027150 -0.034649 -0.043406 -0.046266 -0.037675 -0.015065 0.020507 0.064603 0.110490 0.150786 0.179279 0.192453 0.190346 0.176496 0.156971 0.138690 0.127439 0.126074 0.133388 0.143970 0.149180 0.139082 0.104945 0.041760 -0.049835 -0.162715 -0.283812 -0.396040 -0.481291 -0.523939 -0.514133 -0.450184 -0.339482 -0.197681 -0.046227 0.091341 0.193634 0.245358 0.240186 0.181954 0.083933 -0.033719 -0.147828 -0.236648 -0.283998 -0.282269 -0.233732 -0.149861 -0.048852 0.048172 0.121501 0.156847 0.148227 0.099163 0.021960 -0.064752 -0.139733 -0.183344 -0.181438 -0.128172 -0.027219 0.108819 0.260661 0.405786 0.522404 0.593198 0.608166 0.566085 0.474387 0.347555 0.204397 0.064753 -0.053757 -0.138374 -0.182818 -0.187692 -0.159693 -0.109890 -0.051448 0.002764 0.042248 0.060332 0.054835 0.027901 -0.014833 -0.065545 -0.115725 -0.157599 -0.185272 -0.195447 -0.187674 -0.164156 -0.129193 -0.088390 -0.047757 -0.012834 0.012063 0.024376 0.023575 0.011137 -0.009768 -0.034835 -0.059367 -0.079084 -0.090899 -0.093502 -0.087656 -0.076124 -0.063185 -0.053822 -0.052670 -0.062928 -0.085435 -0.118112 -0.155924 -0.191424 -0.215842 -0.220556 -0.198721 -0.146737 -0.065301 0.040221 0.160178 0.281800 0.390949 0.474202 0.520908 0.524877 0.485394 0.407383 0.300691 0.178605 0.055856 -0.053554 -0.138343 -0.191439 -0.210752 -0.199138 -0.163600 -0.113917 -0.060948 -0.014912 0.016074 0.027006 0.016428 -0.013714 -0.058699 -0.112002 -0.166401 -0.215046 -0.252335 -0.274498 -0.279861 -0.268791 -0.243393 -0.207023 -0.163722 -0.117625 -0.072432 -0.030983 0.005025 0.035151 0.060130 0.081620 0.101778 0.122724 0.145968 0.171886 0.199367 0.225707 0.246835 0.257864 0.253935 0.231214 0.187885 0.124930 0.046514 -0.040152 -0.125539 -0.199026 -0.250483 -0.271926 -0.258978 -0.211826 -0.135464 -0.039147 0.064916 0.163417 0.244034 0.297392 0.318518 0.307533 0.269426 0.212966 0.148939 0.088069 0.039010 0.006817 -0.007819 -0.008415 -0.001671 0.004207 0.001481 -0.015265 -0.047791 -0.093667 -0.146654 -0.197939 -0.237953 -0.258407 -0.254098 -0.224114 -0.172171 -0.105993 -0.035869 0.027342 0.074319 0.099088 0.100142 0.080642 0.047649 0.010566 -0.020907 -0.038859 
hipp_sf_0007_MISC -0.123547 -0.137776 -0.161580 -0.186802 -0.203808 -0.203927 -0.181725 -0.136580 -0.073173 -0.000751 0.068689 0.122921 0.152149 0.151230 0.120940 0.068004 0.003850 -0.057656 -0.103020 -0.121873 -0.109095 -0.065837 0.000741 0.078978 0.155118 0.216108 0.252181 0.258693 0.236839 0.193134 0.137788 0.082375 0.037299 0.009622 0.001702 0.010915 0.030477 0.051168 0.063528 0.060054 0.036901 -0.005258 -0.061370 -0.123086 -0.180506 -0.224191 -0.247003 -0.245381 -0.219823 -0.174506 -0.116196 -0.052729 0.008566 0.062154 0.105023 0.136739 0.158888 0.174094 0.184910 0.192884 0.198037 0.198890 0.193006 0.177892 0.152003 0.115568 0.070990 0.022694 -0.023583 -0.061901 -0.087384 -0.097340 -0.091961 -0.074421 -0.050321 -0.026592 -0.010083 -0.006131 -0.017443 -0.043515 -0.080725 -0.123078 -0.163415 -0.194847 -0.212079 -0.212355 -0.195834 -0.165349 -0.125626 -0.082181 -0.040149 -0.003332 0.026337 0.048821 0.065521 0.078497 0.089588 0.099693 0.108397 0.114062 0.114352 0.107065 0.091034 0.066837 0.037113 0.006333 -0.019956 -0.036284 -0.038557 -0.025194 0.002177 0.038685 0.076899 0.108139 0.124182 0.119020 0.090282 0.040029 -0.025317 -0.095913 -0.160170 -0.206862 -0.227247 -0.216803 -0.176219 -0.111431 -0.032682 0.047227 0.115177 0.160041 0.174625 0.156905 0.110319 0.043087 -0.033289 -0.106063 -0.163431 -0.196465 -0.200464 -0.175514 -0.126189 -0.060515 0.011594 0.080092 0.136447 0.174879 0.193012 0.191886 0.175369 0.149148 0.119507 0.092145 0.071221 0.058791 0.054675 0.056751 0.061557 0.065080 0.063569 0.054226 0.035692 0.008244 -0.026274 -0.064765 -0.103362 -0.137989 -0.164929 -0.181300 -0.185409 -0.176922 -0.156865 -0.127448 -0.091749 -0.053301 -0.015642 0.018115 0.045637 0.065600 0.077763 0.082873 0.082432 0.078358 0.072608 0.066831 0.062107 0.058831 0.056751 0.055141 0.053076 0.049723 0.044599 0.037705 0.029522 0.020862 0.012606 0.005397 -0.000617 -0.005924 -0.011620 -0.019179 -0.030085 -0.045369 -0.065188 -0.088524 -0.113125 -0.135713 -0.152454 -0.159627 -0.154361 -0.135303 -0.103063 -0.060334 -0.011635 0.037303 0.080406 0.112237 0.128901 0.128712 0.112481 0.083384 0.046418 0.007538 -0.027342 -0.053326 -0.067305 -0.068376 -0.057860 -0.038925 -0.015905 0.006559 0.024364 0.034650 0.036225 0.029661 0.017065 0.001592 -0.013187 -0.023949 -0.028167 -0.024489 -0.012873 0.005506 0.028528 0.053524 0.077699 0.098521 0.114009 0.122912 0.124751 0.119770 0.108811 0.093141 0.074276 0.053806 0.033232 0.013838 -0.003418 -0.017971 -0.029674 -0.038764 -0.045780 -0.051416 -0.056352 -0.061077 -0.065749 -0.070130 -0.073618 -0.075393 -0.074639 -0.070812 -0.063883 -0.054488 -0.043927 -0.033988 -0.026617 -0.023469 -0.025465 -0.032436 -0.042965 -0.054512 -0.063803 -0.067469 -0.062791 -0.048416 -0.024871 0.005272 0.037644 0.066760 0.087011 0.093809 0.084644 0.059831 0.022752 -0.020489 -0.061997 -0.093440 -0.107606 -0.099844 -0.069115 -0.018404 0.045609 0.113597 0.175177 0.220752 0.243258 0.239466 0.210583 0.162015 0.102333 0.041623 -0.010435 -0.046414 -0.062515 -0.059214 -0.041046 -0.015566 0.008294 0.022149 0.019963 -0.000636 -0.037784 -0.085694 -0.135769 -0.178305 -0.204441 -0.207961 -0.186585 -0.142511 -0.082079 -0.014647 0.049104 0.099105 0.127693 0.130936 0.109237 0.067137 0.012376 -0.045584 -0.097272 -0.134832 -0.153250 -0.150993 -0.129979 -0.094919 -0.052227 -0.008718 0.029622 0.058579 0.076204 0.082814 0.080549 0.072627 0.062495 0.053045 0.046074 0.042071 0.040340 0.039396 0.037518 0.033318 0.026180 0.016493 0.005619 -0.004378 -0.011168 -0.012657 -0.007444 0.004851 0.023464 0.046568 0.071537 0.095327 0.114910 0.127673 0.131728 0.126102 0.110789 0.086692 0.055479 0.019383 -0.019010 -0.056981 -0.091877 -0.121300 -0.143272 -0.156392 -0.159951 -0.154013 -0.139428 -0.117769 -0.091191 -0.062201 -0.033391 -0.007144 0.014629 0.030679 0.040510 0.044348 0.043014 0.037710 0.029780 0.020490 0.010866 0.001621 -0.006824 -0.014246 -0.020485 -0.025321 -0.028393 -0.029200 -0.027178 -0.021849 -0.012994 -0.000809 0.014001 0.030234 0.046297 0.060428 0.070956 0.076577 
hipp_sf_0008_SUB -0.135187 -0.135405 -0.135243 -0.133624 -0.129210 -0.120705 -0.107190 -0.088446 -0.065194 -0.039183 -0.013090 0.009800 0.026115 0.033049 0.029031 0.014282 -0.008884 -0.036131 -0.061576 -0.078664 -0.081297 -0.065051 -0.028229 0.027466 0.096830 0.171693 0.242060 0.297687 0.329816 0.332752 0.304966 0.249486 0.173475 0.087039 0.001488 -0.072644 -0.127416 -0.158789 -0.167158 -0.156999 -0.135707 -0.111863 -0.093299 -0.085360 -0.089728 -0.104072 -0.122580 -0.137270 -0.139802 -0.123409 -0.084525 -0.023784 0.053837 0.139745 0.223195 0.293163 0.340267 0.358336 0.345349 0.303561 0.238863 0.159534 0.074684 -0.007269 -0.079782 -0.138827 -0.182913 -0.212579 -0.229542 -0.235778 -0.232794 -0.221264 -0.201125 -0.172063 -0.134212 -0.088853 -0.038835 0.011415 0.056402 0.090491 0.109071 0.109692 0.092867 0.062324 0.024578 -0.012126 -0.039337 -0.050068 -0.040271 -0.009791 0.037424 0.093932 0.150118 0.195973 0.222977 0.225694 0.202770 0.157123 0.095311 0.026213 -0.040671 -0.096973 -0.136860 -0.157855 -0.160911 -0.149782 -0.129865 -0.106821 -0.085281 -0.067940 -0.055226 -0.045582 -0.036261 -0.024401 -0.008101 0.012783 0.036329 0.058812 0.075471 0.081603 0.073711 0.050432 0.013008 -0.034811 -0.087440 -0.138524 -0.182192 -0.214170 -0.232526 -0.237851 -0.232856 -0.221471 -0.207674 -0.194331 -0.182345 -0.170319 -0.154854 -0.131418 -0.095605 -0.044504 0.022149 0.101326 0.186751 0.269668 0.340227 0.389215 0.409799 0.398931 0.358102 0.293287 0.214064 0.132060 0.058999 0.004728 -0.024410 -0.026582 -0.004639 0.034528 0.081324 0.125223 0.156621 0.168456 0.157299 0.123759 0.072166 0.009637 -0.055276 -0.114072 -0.159670 -0.187413 -0.195577 -0.185344 -0.160292 -0.125556 -0.086836 -0.049437 -0.017515 0.006383 0.021443 0.028406 0.029158 0.026209 0.022157 0.019230 0.018962 0.022033 0.028258 0.036691 0.045815 0.053772 0.058600 0.058466 0.051880 0.037880 0.016180 -0.012723 -0.047514 -0.086109 -0.125803 -0.163518 -0.196126 -0.220828 -0.235515 -0.239064 -0.231499 -0.213993 -0.188683 -0.158317 -0.125813 -0.093774 -0.064080 -0.037622 -0.014247 0.007076 0.027888 0.049740 0.073677 0.099793 0.126996 0.153024 0.174740 0.188686 0.191776 0.182011 0.159079 0.124676 0.082491 0.037800 -0.003284 -0.034775 -0.051854 -0.051773 -0.034463 -0.002697 0.038225 0.081264 0.118770 0.143759 0.151130 0.138592 0.107121 0.060863 0.006477 -0.047975 -0.094396 -0.126043 -0.138690 -0.131337 -0.106367 -0.069086 -0.026756 0.012713 0.042174 0.056499 0.053448 0.034018 0.002197 -0.035801 -0.072677 -0.101345 -0.116154 -0.113812 -0.093869 -0.058693 -0.012976 0.037118 0.084986 0.124606 0.151387 0.162702 0.158076 0.139026 0.108648 0.071042 0.030703 -0.008018 -0.041346 -0.066361 -0.081156 -0.084913 -0.077917 -0.061551 -0.038250 -0.011393 0.014915 0.036202 0.048144 0.047195 0.031254 0.000255 -0.043485 -0.095242 -0.148304 -0.194795 -0.226842 -0.237885 -0.223918 -0.184402 -0.122647 -0.045542 0.037384 0.115418 0.178428 0.218583 0.231735 0.218155 0.182484 0.132873 0.079462 0.032476 0.000304 -0.012062 -0.003934 0.021013 0.055538 0.090322 0.115861 0.124370 0.111343 0.076445 0.023578 -0.039882 -0.104501 -0.160579 -0.199933 -0.217350 -0.211410 -0.184571 -0.142520 -0.092958 -0.044091 -0.003134 0.024875 0.037759 0.036283 0.023679 0.004768 -0.015115 -0.031150 -0.039824 -0.039366 -0.029797 -0.012657 0.009484 0.033568 0.056540 0.075689 0.088833 0.094378 0.091315 0.079241 0.058435 0.030000 -0.003985 -0.040387 -0.075124 -0.103500 -0.120813 -0.123146 -0.108216 -0.076097 -0.029610 0.025761 0.082505 0.132209 0.167003 0.181066 0.171869 0.140871 0.093487 0.038252 -0.014684 -0.055470 -0.076501 -0.074004 -0.048896 -0.006733 0.043299 0.090161 0.123164 0.134148 0.119185 0.079458 0.021089 -0.046017 -0.110118 -0.159938 -0.186872 -0.186622 -0.159931 -0.112294 -0.052696 0.008297 0.060695 0.097015 0.113564 0.110844 0.093005 0.066539 0.038517 0.014837 -0.001126 -0.009147 -0.011915 -0.014024 -0.020444 -0.034883 -0.058440 -0.088927 -0.121040 -0.147384 -0.160120 -0.152878 -0.122478 -0.070043 -0.001212 0.074631 0.145986 0.201389 0.231646 
hipp_sf_0009_ERC 0.248658 0.141382 -0.051302 -0.290206 -0.526948 -0.713888 -0.813786 -0.807107 -0.695497 -0.500751 -0.259613 -0.015614 0.190209 0.327705 0.383330 0.362055 0.285198 0.184802 0.095916 0.048569 0.061187 0.136870 0.263194 0.415458 0.562501 0.673681 0.725445 0.706048 0.617504 0.474470 0.300514 0.122732 -0.033982 -0.151722 -0.222422 -0.248292 -0.239934 -0.212779 -0.182808 -0.162625 -0.158789 -0.170921 -0.192661 -0.214070 -0.224761 -0.216910 -0.187388 -0.138536 -0.077469 -0.014178 0.040998 0.079866 0.098182 0.096379 0.079084 0.053647 0.028129 0.009314 0.001246 0.004638 0.017208 0.034771 0.052683 0.067184 0.076245 0.079697 0.078659 0.074513 0.067821 0.057595 0.041249 0.015319 -0.023186 -0.075194 -0.138228 -0.205817 -0.267972 -0.312785 -0.328884 -0.308206 -0.248405 -0.154209 -0.037285 0.085540 0.195406 0.275270 0.313613 0.307096 0.261488 0.190522 0.112853 0.047746 0.010454 0.008387 0.039029 0.090176 0.142571 0.174399 0.166674 0.108274 -0.000593 -0.147388 -0.309061 -0.456419 -0.560155 -0.597242 -0.556263 -0.440445 -0.267637 -0.067141 0.125994 0.278037 0.363495 0.370390 0.302745 0.179715 0.031556 -0.106742 -0.202775 -0.233452 -0.189722 -0.078324 0.079753 0.253714 0.409296 0.515655 0.551343 0.508195 0.392419 0.222820 0.026676 -0.165734 -0.326748 -0.435934 -0.482858 -0.467631 -0.399375 -0.293195 -0.166497 -0.035550 0.086995 0.193207 0.279619 0.345920 0.393188 0.422257 0.432751 0.423012 0.390879 0.335015 0.256281 0.158674 0.049457 -0.061633 -0.163963 -0.247970 -0.307000 -0.338543 -0.344500 -0.330423 -0.303916 -0.272620 -0.242355 -0.215896 -0.192741 -0.169921 -0.143610 -0.111061 -0.072273 -0.030853 0.006269 0.030290 0.032839 0.008576 -0.042637 -0.114631 -0.195298 -0.268498 -0.317156 -0.326887 -0.289300 -0.204164 -0.079866 0.068032 0.219848 0.355785 0.459943 0.523384 0.545507 0.533390 0.499268 0.456788 0.416997 0.385140 0.359135 0.330202 0.285576 0.212659 0.103581 -0.041062 -0.210356 -0.383797 -0.534639 -0.635275 -0.663506 -0.608239 -0.473221 -0.277752 -0.054007 0.158667 0.321370 0.403603 0.389798 0.282949 0.104441 -0.110007 -0.317496 -0.476706 -0.556417 -0.541924 -0.437970 -0.267555 -0.066879 0.122460 0.262298 0.325856 0.303072 0.202243 0.047676 -0.126020 -0.281639 -0.387337 -0.423058 -0.384082 -0.281014 -0.136406 0.021057 0.163330 0.269124 0.327953 0.341282 0.320671 0.283570 0.247944 0.227201 0.226722 0.242872 0.264666 0.277601 0.268534 0.230263 0.164505 0.082378 0.002165 -0.055146 -0.071467 -0.036891 0.046747 0.165084 0.293570 0.402543 0.463918 0.457927 0.378273 0.234365 0.049986 -0.141452 -0.304062 -0.407450 -0.433656 -0.381428 -0.266769 -0.119547 0.023111 0.125186 0.159965 0.116197 0.000743 -0.162908 -0.339953 -0.492212 -0.586873 -0.604020 -0.541189 -0.413904 -0.252057 -0.092952 0.027348 0.082379 0.061391 -0.028204 -0.162623 -0.307302 -0.424992 -0.484465 -0.467794 -0.374503 -0.221641 -0.039749 0.134322 0.266057 0.331370 0.322242 0.248600 0.135963 0.019430 -0.064631 -0.087257 -0.033926 0.091668 0.267992 0.460112 0.627223 0.731560 0.746712 0.663489 0.492070 0.259991 0.006474 -0.225627 -0.398461 -0.486534 -0.481255 -0.391789 -0.242199 -0.065661 0.102863 0.233831 0.308642 0.322395 0.283458 0.210182 0.125699 0.052145 0.005650 -0.006782 0.012056 0.051322 0.095687 0.129687 0.141764 0.126992 0.087915 0.033403 -0.024053 -0.071821 -0.100451 -0.105982 -0.090690 -0.062167 -0.031023 -0.007908 -0.000629 -0.012152 -0.039970 -0.076976 -0.113568 -0.140381 -0.150930 -0.143427 -0.121309 -0.092337 -0.066506 -0.053323 -0.059156 -0.085366 -0.127689 -0.177062 -0.221666 -0.249711 -0.252238 -0.225284 -0.170853 -0.096511 -0.013697 0.064790 0.127500 0.166587 0.179085 0.166963 0.136010 0.093952 0.048322 0.004698 -0.034241 -0.068618 -0.100308 -0.131315 -0.162103 -0.190444 -0.211215 -0.217290 -0.201366 -0.158276 -0.087158 0.007167 0.114098 0.218599 0.303835 0.354547 0.360421 0.318651 0.235026 0.123214 0.002309 -0.106876 -0.185970 -0.222745 -0.213510 -0.163658 -0.086235 0.001138 0.080277 0.136456 0.161496 0.155238 0.125062 0.083621 0.045354 0.022661 
hipp_sf_0010_BA35 -0.066342 -0.074779 -0.088353 -0.101312 -0.106956 -0.099427 -0.075375 -0.035080 0.017234 0.074010 0.125761 0.162991 0.178195 0.167507 0.131634 0.075839 0.008999 -0.058090 -0.114785 -0.152605 -0.166751 -0.156824 -0.126619 -0.083051 -0.034500 0.011053 0.047658 0.072453 0.085910 0.091255 0.093227 0.096511 0.104228 0.116883 0.132017 0.144686 0.148643 0.137955 0.108671 0.060123 -0.004470 -0.078263 -0.151899 -0.215243 -0.259373 -0.278371 -0.270535 -0.238697 -0.189594 -0.132398 -0.076736 -0.030637 0.001139 0.018005 0.023477 0.024151 0.027941 0.041989 0.070728 0.114538 0.169344 0.227247 0.278087 0.311613 0.319770 0.298609 0.249368 0.178477 0.096443 0.015825 -0.051262 -0.095611 -0.112819 -0.104182 -0.076417 -0.040220 -0.007973 0.008937 0.002620 -0.029518 -0.084059 -0.152109 -0.220971 -0.276639 -0.306587 -0.302310 -0.261107 -0.186743 -0.088886 0.018572 0.119955 0.200537 0.249034 0.259405 0.231656 0.171542 0.089305 -0.002278 -0.090116 -0.162864 -0.212478 -0.235020 -0.230676 -0.203070 -0.158125 -0.102746 -0.043622 0.013645 0.064976 0.107832 0.140926 0.163786 0.176378 0.178881 0.171695 0.155629 0.132178 0.103717 0.073499 0.045367 0.023174 0.010022 0.007472 0.014945 0.029494 0.046074 0.058325 0.059756 0.045135 0.011782 -0.039502 -0.104118 -0.174079 -0.239135 -0.288433 -0.312429 -0.304696 -0.263267 -0.191252 -0.096569 0.009170 0.112451 0.200001 0.260906 0.288320 0.280480 0.240841 0.177345 0.100965 0.023812 -0.042850 -0.090336 -0.113728 -0.112360 -0.089560 -0.051750 -0.007115 0.035887 0.069922 0.089831 0.093222 0.080539 0.054670 0.020219 -0.017384 -0.052784 -0.081439 -0.100145 -0.107274 -0.102774 -0.087972 -0.065254 -0.037691 -0.008666 0.018479 0.040748 0.055760 0.061984 0.058915 0.047189 0.028592 0.005938 -0.017205 -0.036931 -0.049527 -0.052048 -0.042837 -0.021908 0.008900 0.046060 0.084767 0.119599 0.145318 0.157679 0.154124 0.134219 0.099765 0.054547 0.003768 -0.046743 -0.091414 -0.125747 -0.146943 -0.154224 -0.148806 -0.133552 -0.112362 -0.089433 -0.068504 -0.052243 -0.041859 -0.036998 -0.035942 -0.036051 -0.034360 -0.028229 -0.015917 0.003009 0.027507 0.055164 0.082538 0.105703 0.120892 0.125137 0.116804 0.095944 0.064375 0.025510 -0.016077 -0.055275 -0.087158 -0.107702 -0.114383 -0.106567 -0.085619 -0.054719 -0.018401 0.018110 0.049666 0.071945 0.082060 0.078940 0.063414 0.038001 0.006444 -0.026922 -0.057856 -0.082824 -0.099447 -0.106702 -0.104874 -0.095273 -0.079816 -0.060545 -0.039213 -0.017006 0.005538 0.028419 0.051919 0.076264 0.101313 0.126348 0.150038 0.170570 0.185943 0.194344 0.194519 0.186050 0.169464 0.146156 0.118128 0.087611 0.056661 0.026816 -0.001096 -0.026954 -0.051160 -0.074314 -0.096833 -0.118628 -0.138925 -0.156286 -0.168842 -0.174696 -0.172403 -0.161413 -0.142366 -0.117149 -0.088693 -0.060534 -0.036207 -0.018623 -0.009536 -0.009229 -0.016474 -0.028790 -0.042917 -0.055425 -0.063296 -0.064391 -0.057679 -0.043220 -0.021936 0.004755 0.035308 0.068320 0.102606 0.137068 0.170402 0.200752 0.225438 0.240921 0.243072 0.227786 0.191854 0.133936 0.055431 -0.039011 -0.141495 -0.241539 -0.327318 -0.387375 -0.412498 -0.397435 -0.342105 -0.252022 -0.137806 -0.013777 0.104137 0.200866 0.264597 0.288668 0.272631 0.222243 0.148409 0.065240 -0.012417 -0.071532 -0.103056 -0.103331 -0.074482 -0.023765 0.037982 0.098483 0.146321 0.172977 0.174235 0.150717 0.107497 0.052908 -0.003178 -0.051261 -0.083924 -0.097046 -0.090315 -0.066999 -0.033064 0.004135 0.037316 0.060586 0.070393 0.065941 0.049078 0.023702 -0.005132 -0.032204 -0.053027 -0.064499 -0.065217 -0.055463 -0.036916 -0.012199 0.015614 0.043432 0.068454 0.088332 0.101218 0.105751 0.101031 0.086644 0.062745 0.030179 -0.009401 -0.053490 -0.098807 -0.141531 -0.177692 -0.203671 -0.216727 -0.215453 -0.200073 -0.172506 -0.136160 -0.095493 -0.055404 -0.020543 0.005324 0.019812 0.022177 0.013330 -0.004393 -0.027655 -0.052629 -0.075535 -0.093087 -0.102820 -0.103255 -0.093902 -0.075161 -0.048129 -0.014400 0.024133 0.065429 0.107417 0.148067 0.185451 0.217797 0.243558 0.261477 0.270668 
hipp_sf_0011_BA36 -0.144235 -0.148970 -0.155627 -0.159347 -0.154559 -0.136596 -0.103188 -0.055483 0.001692 0.060412 0.111012 0.143959 0.151856 0.131159 0.083230 0.014462 -0.064575 -0.140847 -0.201104 -0.234250 -0.233364 -0.196982 -0.129386 -0.039842 0.059061 0.153650 0.231539 0.283691 0.305774 0.298570 0.267409 0.220765 0.168334 0.119018 0.079208 0.051729 0.035616 0.026746 0.019139 0.006635 -0.015456 -0.049065 -0.092735 -0.141773 -0.189122 -0.226779 -0.247426 -0.245940 -0.220457 -0.172778 -0.108060 -0.033859 0.041242 0.109134 0.163500 0.200697 0.220042 0.223511 0.214933 0.198917 0.179760 0.160581 0.142846 0.126376 0.109775 0.091136 0.068836 0.042200 0.011864 -0.020239 -0.051261 -0.078083 -0.098056 -0.109638 -0.112775 -0.108930 -0.100751 -0.091462 -0.084127 -0.080976 -0.082926 -0.089444 -0.098739 -0.108252 -0.115291 -0.117668 -0.114164 -0.104719 -0.090317 -0.072606 -0.053374 -0.034038 -0.015292 0.002974 0.021468 0.041041 0.062131 0.084272 0.105823 0.124052 0.135591 0.137195 0.126640 0.103535 0.069828 0.029832 -0.010309 -0.043655 -0.063821 -0.066384 -0.050019 -0.017090 0.026479 0.072101 0.110043 0.131307 0.129483 0.102205 0.051871 -0.014555 -0.086665 -0.152460 -0.200595 -0.222578 -0.214468 -0.177739 -0.119113 -0.049364 0.018662 0.072452 0.102181 0.102549 0.073767 0.021483 -0.044305 -0.111151 -0.166469 -0.199824 -0.204757 -0.179820 -0.128644 -0.059089 0.018345 0.092487 0.153467 0.194308 0.211871 0.207025 0.184063 0.149557 0.110898 0.074862 0.046455 0.028241 0.020241 0.020347 0.025110 0.030700 0.033820 0.032379 0.025823 0.015081 0.002191 -0.010280 -0.019876 -0.024814 -0.024341 -0.018856 -0.009766 0.000841 0.010648 0.017578 0.020183 0.017914 0.011209 0.001421 -0.009409 -0.018885 -0.024646 -0.024769 -0.018123 -0.004637 0.014566 0.037201 0.060040 0.079307 0.091227 0.092660 0.081726 0.058305 0.024305 -0.016396 -0.058376 -0.095440 -0.121642 -0.132383 -0.125402 -0.101425 -0.064327 -0.020711 0.021092 0.052431 0.065946 0.057063 0.025075 -0.026437 -0.089969 -0.155232 -0.210889 -0.246582 -0.254875 -0.232729 -0.182209 -0.110252 -0.027525 0.053444 0.120502 0.164057 0.178789 0.164550 0.126291 0.073019 0.016014 -0.033360 -0.065784 -0.075672 -0.062069 -0.028624 0.017342 0.066434 0.109127 0.137631 0.147314 0.137414 0.110940 0.073810 0.033470 -0.002713 -0.028908 -0.041860 -0.041298 -0.029690 -0.011429 0.008316 0.024807 0.034745 0.036844 0.031894 0.022333 0.011460 0.002510 -0.002187 -0.001762 0.003038 0.010106 0.016562 0.019512 0.016788 0.007485 -0.007813 -0.027159 -0.047685 -0.066224 -0.079964 -0.086990 -0.086583 -0.079242 -0.066434 -0.050179 -0.032566 -0.015342 0.000347 0.014009 0.025666 0.035602 0.044079 0.051115 0.056412 0.059427 0.059589 0.056568 0.050509 0.042161 0.032818 0.024099 0.017586 0.014425 0.014991 0.018714 0.024129 0.029152 0.031525 0.029337 0.021491 0.008007 -0.009916 -0.030105 -0.049827 -0.066317 -0.077297 -0.081366 -0.078161 -0.068282 -0.053005 -0.033890 -0.012391 0.010387 0.033743 0.057192 0.080135 0.101470 0.119309 0.130935 0.133080 0.122508 0.096838 0.055396 -0.000095 -0.065210 -0.133053 -0.195055 -0.242259 -0.266876 -0.263811 -0.231847 -0.174197 -0.098265 -0.014603 0.064779 0.128450 0.167553 0.177366 0.158109 0.114832 0.056387 -0.006298 -0.062314 -0.102785 -0.122428 -0.120316 -0.099742 -0.067217 -0.030852 0.001503 0.023960 0.033760 0.031667 0.021532 0.009149 0.000687 0.001082 0.012756 0.034974 0.063962 0.093776 0.117698 0.129829 0.126516 0.107274 0.074986 0.035340 -0.004375 -0.036828 -0.056220 -0.059509 -0.047015 -0.022277 0.008791 0.039255 0.062698 0.074601 0.073253 0.059998 0.038776 0.015084 -0.005396 -0.018171 -0.020996 -0.014381 -0.001430 0.012938 0.023200 0.024588 0.014282 -0.007830 -0.039005 -0.074129 -0.106728 -0.130284 -0.139555 -0.131643 -0.106567 -0.067254 -0.018974 0.031654 0.077849 0.113811 0.135583 0.141512 0.132235 0.110277 0.079368 0.043676 0.007123 -0.027089 -0.056688 -0.080288 -0.097167 -0.106995 -0.109604 -0.104895 -0.092893 -0.073930 -0.048870 -0.019293 0.012472 0.043488 0.070540 0.090591 0.101267 
hipp_sf_0012_PHC -0.154928 -0.148643 -0.136421 -0.118965 -0.097337 -0.072946 -0.047516 -0.023003 -0.001462 0.015147 0.025202 0.027681 0.022411 0.010248 -0.006871 -0.026032 -0.043646 -0.055912 -0.059407 -0.051702 -0.031902 -0.000982 0.038168 0.081042 0.122154 0.155914 0.177612 0.184324 0.175538 0.153372 0.122273 0.088246 0.057709 0.036186 0.027107 0.030955 0.044981 0.063570 0.079241 0.084115 0.071571 0.037786 -0.017195 -0.089063 -0.169673 -0.248228 -0.313028 -0.353465 -0.361891 -0.334991 -0.274405 -0.186484 -0.081219 0.029430 0.133472 0.220730 0.284233 0.320924 0.331595 0.320128 0.292258 0.254173 0.211265 0.167311 0.124218 0.082340 0.041225 0.000538 -0.039127 -0.075793 -0.106162 -0.126222 -0.132247 -0.121958 -0.095536 -0.056186 -0.010061 0.034521 0.068456 0.083579 0.074378 0.039328 -0.018467 -0.091506 -0.168987 -0.238589 -0.288613 -0.310060 -0.298253 -0.253680 -0.181904 -0.092567 0.002311 0.090382 0.160995 0.206802 0.224689 0.215892 0.185363 0.140560 0.089954 0.041565 0.001790 -0.025293 -0.038108 -0.037318 -0.025259 -0.005285 0.018822 0.043264 0.064433 0.078981 0.083859 0.076451 0.054879 0.018474 -0.031655 -0.092146 -0.157182 -0.218743 -0.267416 -0.293726 -0.289808 -0.251145 -0.177987 -0.076106 0.043388 0.165253 0.272254 0.347904 0.379343 0.359813 0.290209 0.179364 0.042923 -0.099055 -0.225355 -0.317165 -0.361269 -0.352261 -0.293372 -0.195727 -0.076190 0.045799 0.151776 0.227508 0.265332 0.265144 0.233883 0.183655 0.128918 0.083323 0.056860 0.053896 0.072474 0.104974 0.139978 0.164901 0.168823 0.144928 0.092042 0.014978 -0.076368 -0.168940 -0.249060 -0.305028 -0.329271 -0.319609 -0.279417 -0.216704 -0.142336 -0.067822 -0.003124 0.045047 0.074133 0.085683 0.084444 0.076828 0.069156 0.066068 0.069469 0.078233 0.088690 0.095778 0.094543 0.081652 0.056515 0.021768 -0.017033 -0.052458 -0.076772 -0.083696 -0.069975 -0.036390 0.012027 0.066663 0.116781 0.151505 0.161952 0.143092 0.094959 0.022959 -0.062823 -0.149218 -0.222182 -0.269242 -0.281724 -0.256352 -0.195922 -0.108924 -0.008160 0.091380 0.175022 0.230836 0.251562 0.235696 0.187550 0.116317 0.034293 -0.045360 -0.110934 -0.154112 -0.171214 -0.163508 -0.136594 -0.098980 -0.060181 -0.028705 -0.010347 -0.007117 -0.017002 -0.034596 -0.052447 -0.062837 -0.059601 -0.039621 -0.003659 0.043650 0.094629 0.140085 0.171186 0.181320 0.167541 0.131302 0.078307 0.017506 -0.040585 -0.085883 -0.110687 -0.111152 -0.088018 -0.046436 0.005071 0.056298 0.097355 0.120572 0.121932 0.101762 0.064548 0.017942 -0.028830 -0.066814 -0.089063 -0.091914 -0.075569 -0.043894 -0.003512 0.037598 0.071684 0.092667 0.097177 0.084977 0.058768 0.023438 -0.015027 -0.050722 -0.078852 -0.096399 -0.102353 -0.097513 -0.083966 -0.064422 -0.041593 -0.017745 0.005460 0.026881 0.045620 0.060715 0.070916 0.074682 0.070422 0.056940 0.033983 0.002714 -0.034044 -0.071911 -0.105449 -0.129006 -0.137739 -0.128631 -0.101247 -0.058071 -0.004286 0.052975 0.105787 0.146795 0.170490 0.174152 0.158267 0.126330 0.084072 0.038297 -0.004446 -0.039057 -0.062703 -0.075102 -0.078238 -0.075587 -0.071062 -0.067927 -0.067952 -0.070985 -0.075066 -0.077021 -0.073414 -0.061599 -0.040629 -0.011782 0.021437 0.053851 0.079598 0.093370 0.091615 0.073440 0.041004 -0.000698 -0.044652 -0.083071 -0.108848 -0.116912 -0.105238 -0.075285 -0.031802 0.017987 0.065644 0.102994 0.123552 0.123637 0.102984 0.064768 0.015044 -0.038259 -0.086641 -0.122363 -0.139629 -0.135423 -0.109900 -0.066292 -0.010371 0.050422 0.108062 0.155061 0.185487 0.195754 0.185067 0.155500 0.111671 0.060067 0.008112 -0.036922 -0.068991 -0.084198 -0.081401 -0.062408 -0.031694 0.004326 0.038380 0.063603 0.074765 0.069244 0.047549 0.013267 -0.027573 -0.067631 -0.099670 -0.117994 -0.119607 -0.104854 -0.077398 -0.043490 -0.010689 0.013743 0.024422 0.019069 -0.000894 -0.030542 -0.062415 -0.088089 -0.100014 -0.093250 -0.066702 -0.023572 0.029101 0.081749 0.124185 0.147726 0.147079 0.121576 0.075488 0.017302 -0.041891 -0.090599 -0.119264 -0.122242 -0.099010 -0.054325 0.002694 0.060404 0.107006 0.132966 
