13 420
hipp_sf_0000_BG -0.041596 -0.040479 -0.038261 -0.034973 -0.030660 -0.025385 -0.019230 -0.012311 -0.004787 0.003118 0.011109 0.018812 0.025781 0.031529 0.035568 0.037469 0.036933 0.033846 0.028342 0.020820 0.011934 0.002547 -0.006356 -0.013787 -0.018882 -0.021020 -0.019927 -0.015723 -0.008929 -0.000400 0.008779 0.017445 0.024514 0.029138 0.030817 0.029465 0.025408 0.019324 0.012126 0.004816 -0.001666 -0.006577 -0.009469 -0.010225 -0.009050 -0.006403 -0.002897 0.000815 0.004145 0.006654 0.008096 0.008422 0.007743 0.006283 0.004301 0.002040 -0.000324 -0.002692 -0.005045 -0.007412 -0.009839 -0.012359 -0.014963 -0.017602 -0.020189 -0.022622 -0.024806 -0.026675 -0.028194 -0.029358 -0.030170 -0.030614 -0.030640 -0.030147 -0.028994 -0.027024 -0.024109 -0.020192 -0.015335 -0.009734 -0.003716 0.002296 0.007852 0.012553 0.016130 0.018502 0.019803 0.020362 0.020641 0.021136 0.022266 0.024272 0.027144 0.030597 0.034106 0.036996 0.038565 0.038228 0.035640 0.030779 0.023978 0.015876 0.007322 -0.000766 -0.007555 -0.012431 -0.015091 -0.015569 -0.014202 -0.011534 -0.008196 -0.004764 -0.001662 0.000912 0.002979 0.004735 0.006453 0.008370 0.010587 0.013005 0.015312 0.017030 0.017612 0.016570 0.013596 0.008665 0.002084 -0.005531 -0.013327 -0.020350 -0.025696 -0.028659 -0.028853 -0.026273 -0.021291 -0.014598 -0.007093 0.000255 0.006536 0.011015 0.013204 0.012888 0.010110 0.005134 -0.001621 -0.009635 -0.018337 -0.027133 -0.035427 -0.042631 -0.048187 -0.051587 -0.052422 -0.050431 -0.045562 -0.038011 -0.028240 -0.016958 -0.005051 0.006510 0.016796 0.025044 0.030753 0.033750 0.034190 0.032506 0.029313 0.025282 0.021023 0.016986 0.013412 0.010337 0.007650 0.005182 0.002805 0.000518 -0.001517 -0.002982 -0.003473 -0.002607 -0.000143 0.003916 0.009259 0.015277 0.021141 0.025943 0.028868 0.029367 0.027293 0.022961 0.017116 0.010819 0.005250 0.001488 0.000288 0.001928 0.006124 0.012076 0.018593 0.024314 0.027955 0.028548 0.025625 0.019301 0.010253 -0.000403 -0.011319 -0.021151 -0.028788 -0.033523 -0.035144 -0.033921 -0.030514 -0.025806 -0.020722 -0.016055 -0.012342 -0.009810 -0.008397 -0.007830 -0.007743 -0.007791 -0.007746 -0.007539 -0.007245 -0.007026 -0.007041 -0.007358 -0.007892 -0.008399 -0.008510 -0.007832 -0.006064 -0.003114 0.000815 0.005205 0.009277 0.012111 0.012825 0.010766 0.005681 -0.002176 -0.012023 -0.022632 -0.032504 -0.040107 -0.044130 -0.043726 -0.038665 -0.029400 -0.017006 -0.003020 0.010803 0.022771 0.031515 0.036197 0.036622 0.033232 0.027003 0.019258 0.011425 0.004802 0.000358 -0.001398 -0.000456 0.002742 0.007415 0.012611 0.017375 0.020910 0.022681 0.022475 0.020393 0.016799 0.012234 0.007318 0.002663 -0.001208 -0.003899 -0.005172 -0.004941 -0.003270 -0.000353 0.003501 0.007884 0.012310 0.016244 0.019146 0.020527 0.020018 0.017435 0.012841 0.006576 -0.000752 -0.008314 -0.015164 -0.020363 -0.023127 -0.022959 -0.019755 -0.013842 -0.005955 0.002858 0.011387 0.018439 0.023030 0.024529 0.022755 0.017992 0.010923 0.002498 -0.006239 -0.014332 -0.021067 -0.026074 -0.029343 -0.031176 -0.032064 -0.032536 -0.033006 -0.033647 -0.034343 -0.034703 -0.034164 -0.032141 -0.028197 -0.022204 -0.014440 -0.005601 0.003276 0.010979 0.016343 0.018488 0.017018 0.012143 0.004693 -0.003993 -0.012276 -0.018504 -0.021309 -0.019872 -0.014087 -0.004604 0.007269 0.019791 0.031096 0.039525 0.043927 0.043855 0.039642 0.032314 0.023385 0.014550 0.007353 0.002897 0.001636 0.003312 0.007037 0.011504 0.015284 0.017145 0.016330 0.012733 0.006934 0.000092 -0.006297 -0.010713 -0.011941 -0.009350 -0.003052 0.006078 0.016534 0.026448 0.033927 0.037407 0.035943 0.029395 0.018461 0.004549 -0.010462 -0.024560 -0.035942 -0.043311 -0.046076 -0.044403 -0.039147 -0.031643 -0.023440 -0.016003 -0.010463 -0.007437 -0.006971 -0.008588 -0.011442 -0.014517 -0.016854 -0.017740 -0.016831 -0.014194 -0.010259 -0.005700 -0.001280 0.002310 0.004590 0.005368 0.004764 0.003165 0.001135 -0.000699 -0.001764 -0.001638 -0.000110 0.002801 0.006867 0.011696 0.016797 0.021653 0.025777 0.028767 0.030336 
hipp_sf_0001_CA1 -0.058948 -0.041557 -0.010076 0.029498 0.069588 0.102428 0.121489 0.122669 0.105027 0.070933 0.025611 -0.023827 -0.069677 -0.105011 -0.124872 -0.127082 -0.112506 -0.084766 -0.049456 -0.013030 0.018411 0.040207 0.049896 0.047507 0.035363 0.017446 -0.001531 -0.017142 -0.026148 -0.027110 -0.020602 -0.008982 0.004194 0.015000 0.020021 0.017106 0.005851 -0.012307 -0.034360 -0.056335 -0.074081 -0.084091 -0.084182 -0.073913 -0.054656 -0.029321 -0.001796 0.023779 0.043761 0.055628 0.058375 0.052614 0.040374 0.024662 0.008880 -0.003787 -0.010898 -0.011108 -0.004295 0.008525 0.025479 0.044217 0.062336 0.077748 0.088956 0.095190 0.096415 0.093226 0.086666 0.078020 0.068595 0.059539 0.051695 0.045488 0.040867 0.037283 0.033714 0.028759 0.020788 0.008175 -0.010417 -0.035712 -0.067522 -0.104513 -0.144131 -0.182703 -0.215773 -0.238630 -0.246994 -0.237740 -0.209559 -0.163412 -0.102676 -0.032912 0.038733 0.104437 0.156795 0.189916 0.200344 0.187638 0.154497 0.106393 0.050758 -0.004144 -0.050483 -0.082047 -0.095157 -0.089151 -0.066365 -0.031635 0.008599 0.047415 0.078550 0.097385 0.101591 0.091360 0.069192 0.039315 0.006848 -0.023124 -0.046399 -0.060282 -0.063911 -0.058233 -0.045678 -0.029607 -0.013654 -0.001079 0.005761 0.005739 -0.000939 -0.012851 -0.027656 -0.042489 -0.054406 -0.060785 -0.059656 -0.049914 -0.031422 -0.005008 0.027630 0.064078 0.101406 0.136400 0.165809 0.186609 0.196263 0.192973 0.175895 0.145302 0.102656 0.050578 -0.007302 -0.066616 -0.122637 -0.170720 -0.206777 -0.227715 -0.231798 -0.218874 -0.190427 -0.149462 -0.100196 -0.047611 0.003099 0.047122 0.080582 0.100993 0.107545 0.101171 0.084390 0.060926 0.035150 0.011426 -0.006558 -0.016356 -0.017142 -0.009831 0.003104 0.018081 0.031081 0.038411 0.037448 0.027199 0.008589 -0.015616 -0.041246 -0.063461 -0.077667 -0.080430 -0.070226 -0.047867 -0.016489 0.018898 0.052254 0.077588 0.090078 0.087018 0.068395 0.036976 -0.002136 -0.042392 -0.076986 -0.100109 -0.108018 -0.099722 -0.077124 -0.044610 -0.008144 0.025936 0.052190 0.067134 0.069900 0.062319 0.048454 0.033645 0.023290 0.021612 0.030674 0.049867 0.075969 0.103778 0.127187 0.140478 0.139555 0.122857 0.091759 0.050349 0.004654 -0.038559 -0.073131 -0.094743 -0.101761 -0.095519 -0.079975 -0.060818 -0.044199 -0.035372 -0.037511 -0.050974 -0.073159 -0.098998 -0.121988 -0.135544 -0.134415 -0.115859 -0.080340 -0.031607 0.023875 0.078017 0.122531 0.150399 0.157110 0.141442 0.105645 0.055013 -0.003067 -0.060390 -0.109293 -0.143852 -0.160709 -0.159413 -0.142238 -0.113560 -0.078935 -0.044066 -0.013859 0.008282 0.020822 0.024094 0.019988 0.011417 0.001694 -0.006060 -0.009374 -0.006704 0.002502 0.017887 0.038394 0.062507 0.088477 0.114496 0.138800 0.159726 0.175740 0.185480 0.187825 0.182014 0.167780 0.145494 0.116252 0.081879 0.044827 0.007949 -0.025820 -0.053834 -0.074105 -0.085594 -0.088381 -0.083674 -0.073637 -0.061077 -0.049019 -0.040248 -0.036881 -0.040039 -0.049675 -0.064576 -0.082546 -0.100737 -0.116075 -0.125724 -0.127508 -0.120238 -0.103896 -0.079646 -0.049673 -0.016882 0.015504 0.044382 0.067180 0.082174 0.088669 0.087019 0.078485 0.064955 0.048597 0.031481 0.015264 0.000982 -0.011008 -0.020938 -0.029405 -0.037070 -0.044353 -0.051200 -0.056971 -0.060505 -0.060339 -0.055063 -0.043722 -0.026185 -0.003387 0.022628 0.048886 0.071892 0.088183 0.094943 0.090557 0.074987 0.049882 0.018399 -0.015267 -0.046549 -0.071257 -0.086275 -0.090061 -0.082870 -0.066641 -0.044584 -0.020546 0.001724 0.019254 0.030346 0.034798 0.033814 0.029630 0.024948 0.022292 0.023440 0.029036 0.038462 0.049994 0.061189 0.069427 0.072473 0.068950 0.058629 0.042465 0.022413 0.001046 -0.018919 -0.035082 -0.045731 -0.050030 -0.048034 -0.040531 -0.028775 -0.014194 0.001859 0.018253 0.034104 0.048696 0.061336 0.071229 0.077407 0.078775 0.074280 0.063161 0.045233 0.021128 -0.007599 -0.038524 -0.068612 -0.094623 -0.113608 -0.123400 -0.122987 -0.112699 -0.094151 -0.069954 -0.043249 -0.017160 0.005727 0.023742 0.036307 0.043859 0.047569 0.048909 0.049195 
hipp_sf_0002_CA2 0.185545 0.177939 0.164143 0.146573 0.127930 0.110378 0.094856 0.080719 0.065834 0.047145 0.021588 -0.012860 -0.056256 -0.106136 -0.157515 -0.203488 -0.236358 -0.249075 -0.236715 -0.197675 -0.134330 -0.053001 0.036804 0.123735 0.196312 0.244681 0.262119 0.246022 0.198223 0.124622 0.034213 -0.062295 -0.154011 -0.231315 -0.286995 -0.316955 -0.320415 -0.299656 -0.259383 -0.205850 -0.145890 -0.085994 -0.031538 0.013737 0.047963 0.071080 0.084481 0.090437 0.091378 0.089162 0.084456 0.076385 0.062554 0.039501 0.003572 -0.047913 -0.115405 -0.196049 -0.283073 -0.365889 -0.431038 -0.463947 -0.451291 -0.383602 -0.257627 -0.077945 0.142583 0.383765 0.620416 0.825798 0.975616 1.051884 1.045948 0.960056 0.807129 0.608713 0.391432 0.182593 0.005747 -0.122958 -0.196945 -0.219506 -0.202212 -0.161817 -0.116336 -0.081125 -0.065818 -0.072734 -0.097064 -0.128730 -0.155461 -0.166333 -0.154930 -0.121385 -0.072797 -0.021906 0.015701 0.025211 -0.003759 -0.074337 -0.181066 -0.310398 -0.442979 -0.557254 -0.633661 -0.658524 -0.626838 -0.543354 -0.421751 -0.282071 -0.146958 -0.037470 0.030691 0.049804 0.021161 -0.045632 -0.134830 -0.227687 -0.305880 -0.354540 -0.364351 -0.332446 -0.262063 -0.161232 -0.040885 0.087119 0.211677 0.323561 0.415903 0.484173 0.525864 0.540135 0.527608 0.490400 0.432323 0.359070 0.278183 0.198599 0.129718 0.080068 0.055809 0.059417 0.088920 0.137943 0.196686 0.253695 0.298103 0.321850 0.321363 0.298258 0.258855 0.212564 0.169480 0.137764 0.121451 0.119277 0.124864 0.128316 0.118889 0.088120 0.032631 -0.044143 -0.131845 -0.214882 -0.275641 -0.298596 -0.274365 -0.202755 -0.093972 0.032439 0.150854 0.234458 0.260770 0.216620 0.101448 -0.071877 -0.279006 -0.488521 -0.667929 -0.790000 -0.838108 -0.809405 -0.715141 -0.578028 -0.427226 -0.292046 -0.195735 -0.150721 -0.156350 -0.199582 -0.258467 -0.307566 -0.324069 -0.293201 -0.211676 -0.088426 0.057543 0.201634 0.319433 0.392387 0.412078 0.382071 0.316931 0.238629 0.171226 0.135078 0.141963 0.192287 0.275049 0.370574 0.455380 0.508011 0.514437 0.471706 0.388936 0.285364 0.185855 0.114905 0.090531 0.119516 0.195170 0.298216 0.400693 0.472048 0.486094 0.427249 0.294629 0.103005 -0.119663 -0.337649 -0.514718 -0.621651 -0.642416 -0.577647 -0.444650 -0.273922 -0.102916 0.031636 0.101221 0.091297 0.004131 -0.141849 -0.315961 -0.481596 -0.603601 -0.655186 -0.622986 -0.509317 -0.331292 -0.117115 0.099565 0.286031 0.416307 0.475315 0.460697 0.382150 0.258645 0.114252 -0.026455 -0.142503 -0.219422 -0.250561 -0.236831 -0.185201 -0.106475 -0.012931 0.083682 0.173485 0.249081 0.305576 0.340235 0.352074 0.341588 0.310673 0.262702 0.202575 0.136556 0.071765 0.015292 -0.026927 -0.051223 -0.057012 -0.047017 -0.026774 -0.003447 0.015816 0.025586 0.023486 0.010759 -0.008132 -0.026852 -0.039177 -0.041135 -0.032705 -0.018556 -0.007499 -0.010655 -0.038662 -0.098533 -0.190946 -0.308706 -0.436912 -0.554983 -0.640292 -0.672709 -0.639121 -0.536890 -0.375405 -0.175225 0.035160 0.224405 0.364235 0.435014 0.429757 0.355695 0.232995 0.090830 -0.038417 -0.125636 -0.150817 -0.106988 -0.001449 0.145935 0.307021 0.451299 0.552178 0.592299 0.566783 0.483760 0.362163 0.227316 0.105350 0.017675 -0.023287 -0.016259 0.029242 0.095564 0.161207 0.205712 0.214046 0.179558 0.104923 0.000988 -0.116064 -0.228515 -0.320910 -0.383019 -0.411326 -0.408839 -0.383407 -0.345103 -0.303393 -0.264852 -0.231963 -0.203240 -0.174540 -0.141116 -0.099777 -0.050501 0.002979 0.053820 0.093787 0.115599 0.115246 0.093626 0.056988 0.015970 -0.016626 -0.028831 -0.012593 0.033826 0.104754 0.187664 0.265333 0.319188 0.333150 0.297130 0.209410 0.077399 -0.083423 -0.252143 -0.406063 -0.524600 -0.592629 -0.602643 -0.555364 -0.458812 -0.326178 -0.173062 -0.014753 0.135886 0.269549 0.380567 0.466135 0.525105 0.556839 0.560551 0.535359 0.481050 0.399259 0.294641 0.175527 0.053696 -0.056912 -0.142391 -0.191571 -0.198604 -0.164773 -0.098989 -0.016703 0.062703 0.119564 0.137918 0.108971 0.033238 -0.079149 -0.210129 -0.337104 -0.437351 -0.492568 
hipp_sf_0003_DG -0.029484 -0.025127 -0.016180 -0.002358 0.016351 0.039335 0.065086 0.091105 0.114063 0.130216 0.136027 0.128879 0.107731 0.073575 0.029562 -0.019273 -0.066659 -0.106045 -0.131688 -0.139688 -0.128775 -0.100674 -0.059964 -0.013434 0.030986 0.065529 0.083907 0.082419 0.060621 0.021452 -0.029222 -0.083586 -0.133182 -0.170337 -0.189447 -0.187884 -0.166379 -0.128804 -0.081408 -0.031646 0.013169 0.047143 0.066776 0.071444 0.063327 0.046788 0.027357 0.010507 0.000492 -0.000533 0.007070 0.020549 0.035421 0.046500 0.049113 0.040231 0.019288 -0.011505 -0.047404 -0.081929 -0.108043 -0.119494 -0.112056 -0.084412 -0.038506 0.020723 0.086160 0.149747 0.203871 0.242630 0.262737 0.263881 0.248481 0.220911 0.186382 0.149718 0.114332 0.081614 0.050880 0.019894 -0.014169 -0.053537 -0.098743 -0.147894 -0.196521 -0.238110 -0.265243 -0.271149 -0.251342 -0.204984 -0.135645 -0.051230 0.036978 0.116043 0.173573 0.199983 0.190382 0.145680 0.072678 -0.016930 -0.108491 -0.186915 -0.239331 -0.257360 -0.238584 -0.186923 -0.111844 -0.026564 0.054414 0.117942 0.154556 0.160037 0.135944 0.089036 0.029734 -0.030032 -0.079160 -0.109420 -0.116823 -0.102074 -0.070079 -0.028642 0.013310 0.047611 0.068432 0.073257 0.063099 0.041957 0.015703 -0.009339 -0.027768 -0.036157 -0.033562 -0.021432 -0.002981 0.017771 0.037056 0.052224 0.062256 0.067797 0.070748 0.073547 0.078348 0.086302 0.097148 0.109188 0.119670 0.125449 0.123775 0.112996 0.092998 0.065288 0.032695 -0.001217 -0.032887 -0.059442 -0.079176 -0.091710 -0.097813 -0.098941 -0.096655 -0.092069 -0.085504 -0.076434 -0.063766 -0.046357 -0.023637 0.003849 0.034150 0.063989 0.089215 0.105574 0.109610 0.099492 0.075563 0.040448 -0.001323 -0.044117 -0.082268 -0.111161 -0.128101 -0.132755 -0.127058 -0.114617 -0.099740 -0.086336 -0.076953 -0.072184 -0.070614 -0.069308 -0.064731 -0.053877 -0.035306 -0.009814 0.019452 0.047520 0.068651 0.077698 0.071465 0.049704 0.015498 -0.025109 -0.064204 -0.093600 -0.106593 -0.099489 -0.072533 -0.029997 0.020622 0.070148 0.109700 0.132649 0.136117 0.121657 0.094931 0.064443 0.039561 0.028289 0.035275 0.060531 0.099188 0.142374 0.179072 0.198563 0.192930 0.159062 0.099683 0.023146 -0.058027 -0.129570 -0.178391 -0.195348 -0.177300 -0.127970 -0.057390 0.019962 0.088005 0.132280 0.142897 0.116604 0.057523 -0.023593 -0.111447 -0.189209 -0.241832 -0.259009 -0.237169 -0.180126 -0.098265 -0.006442 0.078946 0.143138 0.175779 0.172761 0.136785 0.076591 0.005043 -0.063501 -0.115988 -0.143081 -0.140736 -0.110678 -0.059749 0.001676 0.061829 0.109808 0.137496 0.140810 0.120107 0.079735 0.026926 -0.029703 -0.081702 -0.122099 -0.146254 -0.152187 -0.140398 -0.113332 -0.074680 -0.028682 0.020400 0.068600 0.112360 0.148515 0.174266 0.187242 0.185690 0.168789 0.137023 0.092474 0.038917 -0.018370 -0.073145 -0.119009 -0.150382 -0.163460 -0.156939 -0.132369 -0.093997 -0.048135 -0.002127 0.036896 0.063220 0.073514 0.067328 0.047072 0.017455 -0.015478 -0.045524 -0.067470 -0.077992 -0.076144 -0.063349 -0.042933 -0.019310 0.002990 0.020241 0.030217 0.032526 0.028533 0.020934 0.013068 0.008150 0.008568 0.015395 0.028203 0.045186 0.063551 0.080087 0.091776 0.096337 0.092602 0.080673 0.061855 0.038397 0.013103 -0.011095 -0.031553 -0.046242 -0.053966 -0.054453 -0.048339 -0.037050 -0.022612 -0.007409 0.006087 0.015605 0.019352 0.016261 0.006177 -0.010061 -0.030648 -0.052989 -0.074010 -0.090561 -0.099885 -0.100051 -0.090300 -0.071220 -0.044720 -0.013780 0.017971 0.046802 0.069439 0.083554 0.088092 0.083375 0.070974 0.053383 0.033544 0.014344 -0.001850 -0.013518 -0.020131 -0.022102 -0.020570 -0.017075 -0.013199 -0.010249 -0.009035 -0.009785 -0.012178 -0.015488 -0.018786 -0.021141 -0.021799 -0.020282 -0.016440 -0.010423 -0.002629 0.006357 0.015820 0.024955 0.032893 0.038732 0.041594 0.040709 0.035536 0.025908 0.012150 -0.004840 -0.023601 -0.042225 -0.058577 -0.070590 -0.076599 -0.075633 -0.067612 -0.053401 -0.034694 -0.013749 0.006994 0.025323 0.039618 0.049100 0.053900 0.054943 0.053677 0.051689 0.050316 
hipp_sf_0004_CA3 0.066276 0.070339 0.076310 0.080509 0.078825 0.067977 0.046609 0.015913 -0.020403 -0.056813 -0.087186 -0.106208 -0.110662 -0.100237 -0.077641 -0.047974 -0.017511 0.007824 0.023895 0.029352 0.025906 0.017814 0.010664 0.009772 0.018593 0.037546 0.063610 0.090800 0.111487 0.118242 0.105801 0.072642 0.021776 -0.039496 -0.100860 -0.151062 -0.180324 -0.182570 -0.156932 -0.108163 -0.045831 0.017566 0.069174 0.098482 0.099545 0.072239 0.022242 -0.040232 -0.102696 -0.153109 -0.182457 -0.186599 -0.166968 -0.129979 -0.085286 -0.043329 -0.012737 0.001773 0.000514 -0.011328 -0.025072 -0.030828 -0.020135 0.011689 0.064072 0.130965 0.201967 0.264565 0.306981 0.320970 0.303891 0.259547 0.197543 0.131265 0.074905 0.040198 0.033601 0.054595 0.095534 0.143120 0.181240 0.194566 0.172135 0.110114 0.013128 -0.106215 -0.229512 -0.336082 -0.407064 -0.429263 -0.397935 -0.317913 -0.202828 -0.072585 0.050406 0.145466 0.197497 0.199687 0.154527 0.073006 -0.027838 -0.128440 -0.210583 -0.260828 -0.272830 -0.248127 -0.195311 -0.127853 -0.061062 -0.008874 0.018877 0.018188 -0.008690 -0.054123 -0.107000 -0.155204 -0.188113 -0.198603 -0.184193 -0.147167 -0.093731 -0.032472 0.027501 0.078336 0.114769 0.134796 0.139628 0.133034 0.120282 0.106962 0.097937 0.096623 0.104676 0.122058 0.147375 0.178346 0.212239 0.246186 0.277339 0.302914 0.320192 0.326577 0.319798 0.298240 0.261387 0.210240 0.147595 0.078038 0.007583 -0.057028 -0.109305 -0.144060 -0.158346 -0.152062 -0.128071 -0.091789 -0.050276 -0.011013 0.019406 0.036408 0.038173 0.025809 0.002958 -0.025092 -0.052573 -0.074448 -0.087403 -0.090422 -0.084851 -0.073957 -0.062117 -0.053837 -0.052815 -0.061273 -0.079657 -0.106760 -0.140170 -0.176911 -0.214084 -0.249334 -0.281037 -0.308184 -0.330028 -0.345630 -0.353504 -0.351488 -0.336966 -0.307426 -0.261249 -0.198554 -0.121851 -0.036292 0.050624 0.129935 0.192571 0.230962 0.240583 0.221100 0.176840 0.116420 0.051539 -0.004911 -0.041078 -0.048327 -0.022938 0.033028 0.111888 0.201542 0.287522 0.355537 0.394041 0.396356 0.361940 0.296555 0.211299 0.120661 0.039957 -0.017389 -0.042216 -0.031228 0.012462 0.079940 0.158122 0.232101 0.287780 0.314315 0.305920 0.262754 0.190725 0.100299 0.004542 -0.083216 -0.151681 -0.193435 -0.206007 -0.192019 -0.158406 -0.114902 -0.072096 -0.039424 -0.023484 -0.026963 -0.048352 -0.082476 -0.121698 -0.157551 -0.182472 -0.191294 -0.182229 -0.157155 -0.121178 -0.081569 -0.046293 -0.022432 -0.014796 -0.025008 -0.051218 -0.088491 -0.129796 -0.167377 -0.194246 -0.205497 -0.199185 -0.176615 -0.141981 -0.101449 -0.061866 -0.029360 -0.008116 0.000433 -0.002163 -0.011749 -0.022481 -0.028080 -0.023183 -0.004501 0.028438 0.073105 0.124396 0.175551 0.219420 0.249786 0.262509 0.256266 0.232741 0.196246 0.152854 0.109230 0.071377 0.043569 0.027645 0.022807 0.025934 0.032341 0.036811 0.034689 0.022831 0.000214 -0.031883 -0.070161 -0.109963 -0.146175 -0.174186 -0.190715 -0.194360 -0.185767 -0.167407 -0.143025 -0.116859 -0.092815 -0.073721 -0.060818 -0.053562 -0.049769 -0.046062 -0.038544 -0.023561 0.001559 0.037936 0.084803 0.139485 0.197675 0.253968 0.302582 0.338148 0.356458 0.355060 0.333626 0.294021 0.240077 0.177095 0.111149 0.048293 -0.006226 -0.048616 -0.076967 -0.091404 -0.093919 -0.087954 -0.077775 -0.067756 -0.061695 -0.062264 -0.070670 -0.086590 -0.108342 -0.133267 -0.158229 -0.180120 -0.196308 -0.204933 -0.205039 -0.196545 -0.180104 -0.156909 -0.128506 -0.096674 -0.063365 -0.030698 -0.000961 0.023447 0.040165 0.047149 0.043045 0.027589 0.001949 -0.031119 -0.067384 -0.101563 -0.128040 -0.141785 -0.139302 -0.119428 -0.083781 -0.036725 0.015196 0.064305 0.103147 0.125902 0.129584 0.114746 0.085533 0.049011 0.013881 -0.011195 -0.019338 -0.006901 0.025693 0.073909 0.129910 0.184057 0.226840 0.250805 0.252113 0.231363 0.193490 0.146756 0.101005 0.065549 0.047139 0.048442 0.067381 0.097486 0.129217 0.151980 0.156430 0.136560 0.091138 0.024147 -0.055861 -0.137401 -0.208335 -0.258331 -0.280979 -0.275108 -0.245031 -0.199633 -0.150511 -0.109535 -0.086351 
hipp_sf_0005_HEAD NaN NaN NaN NaN NaN NaN NaN NaN NaN NaN NaN NaN NaN NaN NaN NaN NaN NaN NaN NaN NaN NaN NaN NaN NaN NaN NaN NaN NaN NaN NaN NaN NaN NaN NaN NaN NaN NaN NaN NaN NaN NaN NaN NaN NaN NaN NaN NaN NaN NaN NaN NaN NaN NaN NaN NaN NaN NaN NaN NaN NaN NaN NaN NaN NaN NaN NaN NaN NaN NaN NaN NaN NaN NaN NaN NaN NaN NaN NaN NaN NaN NaN NaN NaN NaN NaN NaN NaN NaN NaN NaN NaN NaN NaN NaN NaN NaN NaN NaN NaN NaN NaN NaN NaN NaN NaN NaN NaN NaN NaN NaN NaN NaN NaN NaN NaN NaN NaN NaN NaN NaN NaN NaN NaN NaN NaN NaN NaN NaN NaN NaN NaN NaN NaN NaN NaN NaN NaN NaN NaN NaN NaN NaN NaN NaN NaN NaN NaN NaN NaN NaN NaN NaN NaN NaN NaN NaN NaN NaN NaN NaN NaN NaN NaN NaN NaN NaN NaN NaN NaN NaN NaN NaN NaN NaN NaN NaN NaN NaN NaN NaN NaN NaN NaN NaN NaN NaN NaN NaN NaN NaN NaN NaN NaN NaN NaN NaN NaN NaN NaN NaN NaN NaN NaN NaN NaN NaN NaN NaN NaN NaN NaN NaN NaN NaN NaN NaN NaN NaN NaN NaN NaN NaN NaN NaN NaN NaN NaN NaN NaN NaN NaN NaN NaN NaN NaN NaN NaN NaN NaN NaN NaN NaN NaN NaN NaN NaN NaN NaN NaN NaN NaN NaN NaN NaN NaN NaN NaN NaN NaN NaN NaN NaN NaN NaN NaN NaN NaN NaN NaN NaN NaN NaN NaN NaN NaN NaN NaN NaN NaN NaN NaN NaN NaN NaN NaN NaN NaN NaN NaN NaN NaN NaN NaN NaN NaN NaN NaN NaN NaN NaN NaN NaN NaN NaN NaN NaN NaN NaN NaN NaN NaN NaN NaN NaN NaN NaN NaN NaN NaN NaN NaN NaN NaN NaN NaN NaN NaN NaN NaN NaN NaN NaN NaN NaN NaN NaN NaN NaN NaN NaN NaN NaN NaN NaN NaN NaN NaN NaN NaN NaN NaN NaN NaN NaN NaN NaN NaN NaN NaN NaN NaN NaN NaN NaN NaN NaN NaN NaN NaN NaN NaN NaN NaN NaN NaN NaN NaN NaN NaN NaN NaN NaN NaN NaN NaN NaN NaN NaN NaN NaN NaN NaN NaN NaN NaN NaN NaN NaN NaN NaN NaN NaN NaN NaN NaN NaN NaN NaN NaN NaN NaN NaN NaN NaN NaN NaN NaN NaN NaN 
hipp_sf_0006_TAIL -0.198980 -0.178389 -0.140273 -0.090159 -0.034954 0.018346 0.063881 0.097807 0.118662 0.127177 0.125611 0.116853 0.103512 0.087287 0.068755 0.047634 0.023419 -0.003813 -0.032712 -0.060323 -0.082272 -0.093521 -0.089536 -0.067625 -0.028091 0.025125 0.084551 0.140123 0.180840 0.196839 0.181467 0.132903 0.054925 -0.043370 -0.148940 -0.246994 -0.323625 -0.368330 -0.375915 -0.347371 -0.289535 -0.213606 -0.132822 -0.059787 -0.004011 0.029812 0.042445 0.039547 0.030051 0.023869 0.029436 0.051651 0.090670 0.141815 0.196601 0.244660 0.276100 0.283789 0.265031 0.222284 0.162741 0.096892 0.036364 -0.008463 -0.030563 -0.027634 -0.002466 0.037769 0.083108 0.122912 0.148042 0.152624 0.135054 0.098064 0.047889 -0.007238 -0.058885 -0.100113 -0.126689 -0.137588 -0.134732 -0.122087 -0.104394 -0.085863 -0.069174 -0.055005 -0.042184 -0.028397 -0.011230 0.010749 0.037166 0.065524 0.091480 0.109692 0.115029 0.103865 0.075140 0.030919 -0.023703 -0.081367 -0.133721 -0.172957 -0.193263 -0.191898 -0.169666 -0.130681 -0.081512 -0.029884 0.016774 0.052621 0.074281 0.081153 0.075117 0.059771 0.039389 0.017876 -0.002039 -0.019199 -0.033945 -0.047632 -0.061883 -0.077818 -0.095459 -0.113492 -0.129443 -0.140246 -0.143035 -0.135989 -0.118977 -0.093841 -0.064225 -0.034951 -0.011080 0.003143 0.005228 -0.004954 -0.025049 -0.050604 -0.075898 -0.095027 -0.103032 -0.096816 -0.075669 -0.041299 0.002625 0.051290 0.099732 0.143782 0.180738 0.209648 0.231144 0.246898 0.258854 0.268437 0.275949 0.280314 0.279247 0.269823 0.249312 0.216091 0.170398 0.114734 0.053785 -0.006165 -0.058242 -0.096212 -0.115699 -0.115128 -0.096173 -0.063597 -0.024486 0.013011 0.041190 0.054268 0.049526 0.027893 -0.006189 -0.045588 -0.081880 -0.107049 -0.115173 -0.103765 -0.074476 -0.033022 0.011713 0.049243 0.069441 0.064558 0.030891 -0.030206 -0.112205 -0.204231 -0.292728 -0.363681 -0.405030 -0.408822 -0.372722 -0.300589 -0.201987 -0.090699 0.017519 0.107548 0.167425 0.190334 0.175701 0.129203 0.061702 -0.012720 -0.079243 -0.124875 -0.140638 -0.122988 -0.074237 -0.001930 0.082668 0.166673 0.237857 0.286670 0.307654 0.300020 0.267338 0.216465 0.155979 0.094472 0.039040 -0.005716 -0.038051 -0.058770 -0.070405 -0.076129 -0.078693 -0.079654 -0.079081 -0.075775 -0.067934 -0.054049 -0.033774 -0.008508 0.018496 0.042572 0.058555 0.061976 0.050257 0.023593 -0.014701 -0.058534 -0.100037 -0.131047 -0.144776 -0.137308 -0.108589 -0.062667 -0.007091 0.048438 0.093914 0.120998 0.124711 0.104501 0.064429 0.012441 -0.041145 -0.085648 -0.112105 -0.115029 -0.093471 -0.051194 0.004081 0.062189 0.112479 0.145839 0.156368 0.142398 0.106686 0.055775 -0.001319 -0.054791 -0.095778 -0.117790 -0.117605 -0.095508 -0.054900 -0.001413 0.058212 0.117251 0.169899 0.211796 0.240163 0.253599 0.251684 0.234560 0.202644 0.156571 0.097376 0.026837 -0.052128 -0.135206 -0.216679 -0.289763 -0.347295 -0.382664 -0.390843 -0.369308 -0.318676 -0.242897 -0.148946 -0.046051 0.055436 0.145332 0.214892 0.257838 0.271028 0.254680 0.212155 0.149389 0.074063 -0.005329 -0.080397 -0.143672 -0.189246 -0.213218 -0.213949 -0.192129 -0.150672 -0.094439 -0.029791 0.036017 0.095571 0.142125 0.170408 0.177320 0.162392 0.127908 0.078639 0.021185 -0.036980 -0.088627 -0.127853 -0.150943 -0.156828 -0.147074 -0.125379 -0.096697 -0.066167 -0.038069 -0.015037 0.002302 0.015201 0.026191 0.038183 0.053454 0.072811 0.095109 0.117295 0.134969 0.143379 0.138616 0.118753 0.084641 0.040161 -0.008183 -0.052263 -0.083768 -0.095794 -0.084258 -0.048852 0.006690 0.075069 0.146574 0.210694 0.257870 0.281070 0.276872 0.245876 0.192389 0.123478 0.047608 -0.026849 -0.092930 -0.145973 -0.183967 -0.207325 -0.218203 -0.219572 -0.214280 -0.204328 -0.190531 -0.172601 -0.149604 -0.120652 -0.085610 -0.045636 -0.003381 0.037220 0.071530 0.095056 0.104373 0.097903 0.076393 0.042956 0.002665 -0.038240 -0.073370 -0.097244 -0.106183 -0.098879 -0.076552 -0.042668 -0.002312 0.038677 0.074636 0.100923 0.114533 0.114429 0.101559 0.078583 0.049399 0.018546 -0.009431 -0.030552 -0.041889 
hipp_sf_0007_MISC -0.170660 -0.157247 -0.131422 -0.095216 -0.051715 -0.004996 0.040081 0.078286 0.104620 0.115058 0.107291 0.081335 0.039834 -0.012047 -0.067196 -0.117532 -0.155263 -0.174190 -0.170819 -0.145059 -0.100325 -0.043016 0.018577 0.075731 0.120843 0.148781 0.157747 0.149491 0.128807 0.102424 0.077514 0.060124 0.053865 0.059135 0.073048 0.090085 0.103343 0.106110 0.093434 0.063356 0.017529 -0.038922 -0.098260 -0.151573 -0.190467 -0.208681 -0.203281 -0.175201 -0.129009 -0.071967 -0.012584 0.041021 0.082612 0.108872 0.119784 0.118299 0.109391 0.098732 0.091292 0.090176 0.095966 0.106678 0.118349 0.126090 0.125347 0.113079 0.088574 0.053716 0.012638 -0.029142 -0.065918 -0.093032 -0.107879 -0.110448 -0.103268 -0.090792 -0.078351 -0.070920 -0.071975 -0.082705 -0.101738 -0.125443 -0.148733 -0.166170 -0.173126 -0.166743 -0.146479 -0.114146 -0.073447 -0.029145 0.013923 0.051763 0.081848 0.103339 0.116876 0.124027 0.126578 0.125860 0.122325 0.115470 0.104148 0.087175 0.064054 0.035591 0.004219 -0.026131 -0.050620 -0.064463 -0.064060 -0.048022 -0.017836 0.022045 0.064762 0.102203 0.126538 0.131835 0.115407 0.078580 0.026682 -0.031784 -0.086660 -0.128058 -0.148301 -0.143499 -0.114413 -0.066418 -0.008566 0.048096 0.092608 0.116183 0.113863 0.085449 0.035511 -0.027515 -0.092925 -0.149738 -0.188676 -0.203742 -0.193124 -0.159283 -0.108247 -0.048303 0.011620 0.063551 0.101736 0.123368 0.128676 0.120440 0.103095 0.081643 0.060634 0.043402 0.031690 0.025665 0.024269 0.025749 0.028222 0.030127 0.030463 0.028815 0.025194 0.019795 0.012771 0.004115 -0.006305 -0.018574 -0.032481 -0.047287 -0.061608 -0.073480 -0.080627 -0.080878 -0.072673 -0.055499 -0.030174 0.001129 0.035126 0.067916 0.095605 0.114949 0.123863 0.121701 0.109261 0.088515 0.062164 0.033121 0.004053 -0.022920 -0.046316 -0.065191 -0.078927 -0.086997 -0.088830 -0.083852 -0.071702 -0.052595 -0.027701 0.000589 0.028658 0.051982 0.065789 0.065964 0.050011 0.017859 -0.027704 -0.081139 -0.134850 -0.180384 -0.209940 -0.217887 -0.201965 -0.163899 -0.109250 -0.046485 0.014568 0.064599 0.096626 0.107373 0.097893 0.073306 0.041677 0.012278 -0.006417 -0.008541 0.007912 0.040700 0.083874 0.129141 0.167726 0.192336 0.198753 0.186711 0.159847 0.124749 0.089306 0.060772 0.043980 0.040151 0.046581 0.057301 0.064572 0.060873 0.040918 0.003221 -0.049187 -0.109080 -0.166383 -0.210256 -0.231473 -0.224566 -0.189247 -0.130760 -0.059052 0.013075 0.072478 0.108300 0.114164 0.089469 0.039487 -0.025737 -0.093455 -0.150812 -0.187414 -0.197320 -0.180061 -0.140485 -0.087496 -0.031992 0.015524 0.047147 0.059095 0.052275 0.031785 0.005525 -0.017752 -0.030471 -0.027908 -0.009130 0.022966 0.062483 0.101988 0.134240 0.153773 0.157966 0.147388 0.125367 0.096955 0.067546 0.041545 0.021398 0.007225 -0.002877 -0.011962 -0.023048 -0.037943 -0.056416 -0.075938 -0.092105 -0.099636 -0.093736 -0.071468 -0.032798 0.018965 0.077487 0.134435 0.181007 0.209643 0.215523 0.197527 0.158436 0.104323 0.043281 -0.016235 -0.067070 -0.104661 -0.127699 -0.138004 -0.139690 -0.137835 -0.136984 -0.139861 -0.146607 -0.154724 -0.159737 -0.156427 -0.140318 -0.109062 -0.063387 -0.007345 0.052207 0.106803 0.148000 0.169068 0.166394 0.140271 0.094907 0.037650 -0.022397 -0.076074 -0.115824 -0.136956 -0.138277 -0.121987 -0.092914 -0.057277 -0.021296 0.010058 0.033874 0.049563 0.058528 0.063387 0.066974 0.071383 0.077310 0.083848 0.088771 0.089235 0.082685 0.067751 0.044869 0.016477 -0.013296 -0.039382 -0.056805 -0.061759 -0.052494 -0.029790 0.003076 0.040877 0.077382 0.106493 0.123349 0.125158 0.111609 0.084797 0.048703 0.008363 -0.031080 -0.065249 -0.091155 -0.107473 -0.114456 -0.113551 -0.106852 -0.096516 -0.084310 -0.071343 -0.058050 -0.044359 -0.029999 -0.014806 0.001036 0.016903 0.031796 0.044543 0.054065 0.059621 0.060972 0.058412 0.052661 0.044664 0.035347 0.025421 0.015275 0.005003 -0.005460 -0.016126 -0.026746 -0.036669 -0.044843 -0.049956 -0.050706 -0.046147 -0.036006 -0.020894 -0.002353 0.017319 0.035412 0.049272 0.056786 
hipp_sf_0008_SUB -0.039450 -0.048760 -0.063771 -0.078277 -0.085236 -0.078836 -0.056326 -0.019128 0.027086 0.073415 0.109645 0.126622 0.118526 0.084486 0.029131 -0.038096 -0.104758 -0.157977 -0.187172 -0.186366 -0.155514 -0.100568 -0.032220 0.036391 0.092505 0.126475 0.133795 0.115977 0.080063 0.036923 -0.001311 -0.024064 -0.024761 -0.002357 0.038412 0.088086 0.134617 0.166101 0.173481 0.152643 0.105411 0.039262 -0.034196 -0.101632 -0.150742 -0.172776 -0.164266 -0.127640 -0.070584 -0.004339 0.058682 0.107444 0.134449 0.137083 0.117885 0.083744 0.044221 0.009405 -0.012251 -0.015637 0.000065 0.031367 0.071344 0.111144 0.141826 0.156115 0.149744 0.122149 0.076427 0.018615 -0.043515 -0.101896 -0.149551 -0.181691 -0.196361 -0.194564 -0.179892 -0.157771 -0.134455 -0.115954 -0.107035 -0.110433 -0.126366 -0.152417 -0.183792 -0.213944 -0.235510 -0.241447 -0.226242 -0.187021 -0.124361 -0.042643 0.050186 0.143486 0.225364 0.284500 0.312092 0.303554 0.259647 0.186764 0.096237 0.002698 -0.078270 -0.132794 -0.151224 -0.129986 -0.072393 0.011779 0.107945 0.199310 0.269936 0.307706 0.306593 0.267788 0.199442 0.115057 0.030846 -0.037439 -0.077555 -0.083117 -0.054768 0.000054 0.068670 0.135714 0.186159 0.208202 0.195435 0.147903 0.071886 -0.021501 -0.118545 -0.205524 -0.271113 -0.308136 -0.314389 -0.292431 -0.248508 -0.190917 -0.128229 -0.067750 -0.014549 0.028828 0.061993 0.085885 0.101784 0.110458 0.111692 0.104315 0.086700 0.057559 0.016806 -0.033803 -0.090444 -0.147520 -0.198442 -0.236732 -0.257192 -0.256883 -0.235675 -0.196248 -0.143568 -0.083933 -0.023854 0.031015 0.076637 0.110939 0.133691 0.146031 0.149794 0.146860 0.138707 0.126258 0.110049 0.090605 0.068872 0.046514 0.025938 0.009991 0.001364 0.001870 0.011802 0.029568 0.051786 0.073858 0.090940 0.099103 0.096378 0.083416 0.063525 0.042020 0.024976 0.017648 0.022926 0.040225 0.065146 0.090068 0.105622 0.102783 0.075146 0.020834 -0.056409 -0.147298 -0.238332 -0.314167 -0.360592 -0.367497 -0.331176 -0.255446 -0.151258 -0.034836 0.075331 0.162041 0.212748 0.222014 0.192535 0.134480 0.063286 -0.003650 -0.050658 -0.067096 -0.049542 -0.002402 0.063177 0.131857 0.187554 0.217020 0.212776 0.174760 0.110322 0.032601 -0.042371 -0.099188 -0.126427 -0.119129 -0.079853 -0.018099 0.051759 0.113557 0.152782 0.159598 0.130843 0.070580 -0.010869 -0.099160 -0.178920 -0.236838 -0.264207 -0.258396 -0.223017 -0.166810 -0.101570 -0.039605 0.008695 0.036683 0.042339 0.028099 -0.000209 -0.035011 -0.068776 -0.095531 -0.111787 -0.116740 -0.111796 -0.099647 -0.083199 -0.064677 -0.045139 -0.024507 -0.002047 0.022888 0.050128 0.078222 0.104431 0.125217 0.137128 0.137838 0.127047 0.106959 0.082137 0.058717 0.043101 0.040420 0.053138 0.080153 0.116668 0.154924 0.185688 0.200213 0.192233 0.159557 0.104856 0.035455 -0.037911 -0.103110 -0.149019 -0.167799 -0.156553 -0.118014 -0.060086 0.005668 0.066285 0.109933 0.128208 0.117698 0.080538 0.023831 -0.041890 -0.104835 -0.154280 -0.182571 -0.186403 -0.167160 -0.130281 -0.083856 -0.036799 0.003016 0.030221 0.042778 0.042008 0.031895 0.017876 0.005428 -0.001224 0.000015 0.008788 0.022573 0.037437 0.049062 0.053780 0.049387 0.035560 0.013832 -0.012830 -0.040715 -0.066132 -0.086071 -0.098638 -0.103185 -0.100164 -0.090796 -0.076661 -0.059345 -0.040217 -0.020383 -0.000772 0.017700 0.033993 0.046901 0.055147 0.057618 0.053667 0.043401 0.027846 0.008940 -0.010708 -0.028228 -0.041002 -0.047163 -0.045956 -0.037875 -0.024532 -0.008300 0.008202 0.022643 0.033420 0.039884 0.042325 0.041724 0.039345 0.036310 0.033256 0.030187 0.026564 0.021597 0.014660 0.005691 -0.004543 -0.014431 -0.021780 -0.024305 -0.020250 -0.008963 0.008726 0.030462 0.052708 0.071420 0.082936 0.084863 0.076759 0.060421 0.039671 0.019657 0.005786 0.002514 0.012250 0.034637 0.066382 0.101708 0.133359 0.153966 0.157500 0.140511 0.102892 0.048017 -0.017794 -0.086347 -0.148988 -0.198047 -0.228045 -0.236439 -0.223783 -0.193329 -0.150203 -0.100358 -0.049555 -0.002585 0.037157 0.067688 0.088154 0.098368 
hipp_sf_0009_ERC -0.051610 -0.074237 -0.113120 -0.157014 -0.192461 -0.206998 -0.192179 -0.145713 -0.072245 0.017423 0.108482 0.185170 0.234038 0.246711 0.221550 0.163859 0.084630 -0.001866 -0.081074 -0.141056 -0.174667 -0.180545 -0.162748 -0.129206 -0.089389 -0.051803 -0.021923 -0.001054 0.013626 0.027879 0.048407 0.080550 0.126288 0.183066 0.243762 0.297859 0.333571 0.340457 0.311917 0.247002 0.151088 0.035250 -0.085566 -0.195200 -0.279200 -0.327400 -0.335623 -0.306177 -0.247067 -0.170141 -0.088578 -0.014294 0.044211 0.083124 0.103496 0.110370 0.111096 0.113277 0.122813 0.142473 0.171275 0.204766 0.236089 0.257543 0.262270 0.245699 0.206451 0.146551 0.070976 -0.013327 -0.098682 -0.177908 -0.245292 -0.297146 -0.331919 -0.349927 -0.352845 -0.343127 -0.323500 -0.296614 -0.264882 -0.230439 -0.195149 -0.160581 -0.127893 -0.097656 -0.069658 -0.042811 -0.015245 0.015337 0.051073 0.093207 0.141371 0.193098 0.243734 0.286874 0.315309 0.322353 0.303321 0.256808 0.185500 0.096244 -0.000697 -0.093141 -0.168966 -0.218219 -0.234912 -0.218123 -0.172157 -0.105694 -0.030088 0.042850 0.103129 0.144429 0.165137 0.168354 0.160867 0.151324 0.148006 0.156709 0.179189 0.212536 0.249611 0.280464 0.294434 0.282477 0.239228 0.164367 0.062997 -0.055023 -0.176651 -0.287804 -0.375632 -0.430488 -0.447235 -0.425702 -0.370281 -0.288834 -0.191222 -0.087766 0.012024 0.100281 0.171099 0.220440 0.245798 0.245844 0.220258 0.169821 0.096772 0.005266 -0.098268 -0.205105 -0.304706 -0.385769 -0.437737 -0.452523 -0.426129 -0.359774 -0.260226 -0.139190 -0.011752 0.105877 0.198954 0.256629 0.273766 0.251771 0.198262 0.125632 0.048763 -0.017664 -0.061758 -0.076420 -0.060392 -0.018183 0.041067 0.105529 0.163040 0.203382 0.220084 0.211422 0.180483 0.134351 0.082620 0.035556 0.002278 -0.010746 -0.000637 0.031601 0.081416 0.141526 0.203050 0.256723 0.294047 0.308236 0.294902 0.252474 0.182367 0.088909 -0.020945 -0.138126 -0.252195 -0.352311 -0.428373 -0.472241 -0.478892 -0.447304 -0.380901 -0.287402 -0.178005 -0.065970 0.035229 0.113915 0.162013 0.176347 0.159140 0.117597 0.062612 0.006790 -0.037839 -0.062032 -0.061015 -0.035344 0.009246 0.062973 0.113903 0.150266 0.162726 0.146202 0.100888 0.032289 -0.049706 -0.132536 -0.203136 -0.250152 -0.265814 -0.247153 -0.196384 -0.120420 -0.029666 0.063680 0.147502 0.211510 0.248597 0.255632 0.233637 0.187368 0.124439 0.054128 -0.013926 -0.070987 -0.110275 -0.127738 -0.122445 -0.096594 -0.055139 -0.005069 0.045571 0.088818 0.117945 0.128468 0.118852 0.090796 0.048991 0.000386 -0.046976 -0.085351 -0.108690 -0.113777 -0.100859 -0.073641 -0.038592 -0.003680 0.023231 0.036015 0.031598 0.010670 -0.022394 -0.060402 -0.094862 -0.117831 -0.123706 -0.110567 -0.080748 -0.040476 0.001369 0.035154 0.052644 0.048961 0.023897 -0.017733 -0.066802 -0.111550 -0.139907 -0.141983 -0.112212 -0.050698 0.036548 0.138544 0.241274 0.330236 0.393103 0.421934 0.414518 0.374563 0.310729 0.234712 0.158802 0.093425 0.045174 0.015746 0.001945 -0.003242 -0.008787 -0.023377 -0.053280 -0.100774 -0.163452 -0.234548 -0.304185 -0.361286 -0.395742 -0.400396 -0.372473 -0.314176 -0.232373 -0.137465 -0.041668 0.042949 0.106319 0.141812 0.147055 0.124028 0.078516 0.019041 -0.044500 -0.102273 -0.145805 -0.168994 -0.168737 -0.145147 -0.101380 -0.043120 0.022201 0.086366 0.141426 0.180727 0.199816 0.197083 0.174057 0.135249 0.087544 0.039163 -0.001660 -0.028093 -0.035969 -0.024650 0.002712 0.039613 0.077313 0.106453 0.118902 0.109465 0.077105 0.025405 -0.037884 -0.102145 -0.155849 -0.188770 -0.194038 -0.169589 -0.118712 -0.049539 0.026430 0.096505 0.149223 0.176547 0.175369 0.148024 0.101690 0.046832 -0.005005 -0.043577 -0.061984 -0.057970 -0.034203 0.002503 0.042823 0.077060 0.097296 0.099101 0.082428 0.051524 0.013890 -0.021452 -0.046006 -0.053685 -0.042153 -0.013319 0.027075 0.070685 0.108307 0.131763 0.135513 0.117681 0.080308 0.028820 -0.029127 -0.085151 -0.131662 -0.163093 -0.176628 -0.172333 -0.152759 -0.122162 -0.085568 -0.047912 -0.013405 0.014785 0.034556 0.044705 
hipp_sf_0010_BA35 -0.192047 -0.191487 -0.188202 -0.178559 -0.158673 -0.125822 -0.079693 -0.023101 0.038035 0.095511 0.140317 0.164467 0.162770 0.134153 0.082191 0.014717 -0.057460 -0.122465 -0.169526 -0.190930 -0.183379 -0.148459 -0.092140 -0.023429 0.047506 0.111342 0.161288 0.194106 0.210286 0.213354 0.208544 0.201164 0.195056 0.191548 0.189122 0.183882 0.170706 0.144779 0.103135 0.045815 -0.023652 -0.098592 -0.170284 -0.229601 -0.268801 -0.283076 -0.271505 -0.237182 -0.186495 -0.127709 -0.069195 -0.017689 0.022992 0.052513 0.073711 0.091512 0.111328 0.137331 0.171015 0.210421 0.250228 0.282713 0.299397 0.293005 0.259304 0.198383 0.115056 0.018284 -0.080322 -0.168600 -0.236111 -0.276109 -0.286781 -0.271502 -0.238023 -0.196793 -0.158734 -0.132964 -0.124925 -0.135317 -0.160036 -0.191122 -0.218502 -0.232150 -0.224211 -0.190652 -0.132122 -0.053863 0.035268 0.124438 0.202784 0.261256 0.294013 0.299130 0.278537 0.237276 0.182297 0.121097 0.060486 0.005734 -0.039803 -0.074567 -0.098325 -0.111548 -0.114833 -0.108566 -0.092899 -0.068020 -0.034611 0.005691 0.050013 0.094289 0.133681 0.163320 0.179237 0.179236 0.163517 0.134837 0.098148 0.059721 0.025940 0.001992 -0.009253 -0.007913 0.002849 0.017423 0.028915 0.030630 0.017581 -0.012291 -0.057463 -0.112884 -0.170743 -0.221817 -0.257134 -0.269620 -0.255429 -0.214685 -0.151515 -0.073372 0.010191 0.089066 0.154156 0.198680 0.219003 0.214890 0.189200 0.147120 0.095142 0.039989 -0.012311 -0.057075 -0.091276 -0.113536 -0.123879 -0.123367 -0.113716 -0.096983 -0.075372 -0.051121 -0.026468 -0.003593 0.015470 0.029003 0.035830 0.035543 0.028675 0.016739 0.002095 -0.012353 -0.023611 -0.029101 -0.027124 -0.017199 -0.000180 0.021864 0.045983 0.068833 0.087220 0.098588 0.101376 0.095181 0.080732 0.059693 0.034385 0.007469 -0.018334 -0.040447 -0.056589 -0.064879 -0.063950 -0.053091 -0.032449 -0.003225 0.032162 0.070045 0.105702 0.133795 0.149063 0.147185 0.125674 0.084602 0.027000 -0.041248 -0.112039 -0.176190 -0.224898 -0.251277 -0.251658 -0.226387 -0.179908 -0.120075 -0.056771 -0.000094 0.041556 0.063093 0.063725 0.047070 0.020360 -0.007122 -0.026069 -0.029204 -0.012941 0.021739 0.069373 0.121101 0.166508 0.195858 0.202240 0.183154 0.141186 0.083600 0.020929 -0.035175 -0.074349 -0.089709 -0.079322 -0.046651 0.000129 0.049816 0.090503 0.112060 0.108242 0.077986 0.025634 -0.039972 -0.107295 -0.164445 -0.201535 -0.212583 -0.196550 -0.157355 -0.102871 -0.043171 0.011584 0.053143 0.076649 0.081292 0.070074 0.048754 0.024292 0.003152 -0.010138 -0.013854 -0.009202 0.000267 0.009792 0.014768 0.012013 0.000618 -0.017794 -0.039460 -0.059387 -0.072558 -0.075129 -0.065323 -0.043842 -0.013695 0.020476 0.053399 0.080250 0.097547 0.103677 0.098949 0.085224 0.065251 0.041924 0.017658 -0.005935 -0.028021 -0.048205 -0.066030 -0.080501 -0.089836 -0.091571 -0.083047 -0.062182 -0.028342 0.016961 0.069766 0.123921 0.171936 0.206301 0.221015 0.212969 0.182859 0.135344 0.078355 0.021627 -0.025272 -0.054995 -0.064111 -0.054013 -0.030803 -0.004093 0.015046 0.016603 -0.005941 -0.053804 -0.122162 -0.200685 -0.275320 -0.330978 -0.354598 -0.337968 -0.279670 -0.185741 -0.068846 0.053888 0.163973 0.244981 0.285593 0.281664 0.236888 0.161935 0.072250 -0.015016 -0.084327 -0.124642 -0.131287 -0.106490 -0.058497 0.000478 0.057003 0.099266 0.119415 0.114924 0.088746 0.048294 0.003517 -0.035445 -0.060512 -0.067319 -0.055945 -0.030615 0.001517 0.032169 0.053887 0.061709 0.054168 0.033452 0.004722 -0.025204 -0.049474 -0.062744 -0.062292 -0.048463 -0.024410 0.004797 0.033426 0.056401 0.070364 0.074254 0.069301 0.058476 0.045570 0.034155 0.026682 0.023947 0.025011 0.027594 0.028784 0.025890 0.017198 0.002440 -0.017124 -0.039010 -0.060113 -0.077433 -0.088734 -0.092961 -0.090342 -0.082157 -0.070262 -0.056534 -0.042390 -0.028523 -0.014941 -0.001266 0.012792 0.026954 0.040053 0.050014 0.054191 0.050001 0.035730 0.011294 -0.021266 -0.057721 -0.092122 -0.117742 -0.128350 -0.119540 -0.089842 -0.041336 0.020401 0.087046 0.148873 0.196438 0.222278 
hipp_sf_0011_BA36 -0.165333 -0.158665 -0.145137 -0.124604 -0.097349 -0.064506 -0.028347 0.007684 0.039264 0.061802 0.071264 0.065054 0.042740 0.006454 -0.039181 -0.087602 -0.131296 -0.163027 -0.177086 -0.170307 -0.142644 -0.097173 -0.039526 0.023146 0.083470 0.135142 0.173945 0.198311 0.209294 0.210004 0.204627 0.197259 0.190835 0.186380 0.182761 0.177001 0.165066 0.142978 0.107972 0.059451 -0.000492 -0.067108 -0.133603 -0.192207 -0.235493 -0.257675 -0.255642 -0.229504 -0.182560 -0.120709 -0.051420 0.017519 0.079222 0.128675 0.163277 0.182896 0.189460 0.186217 0.176847 0.164625 0.151804 0.139324 0.126878 0.113266 0.096929 0.076511 0.051318 0.021564 -0.011627 -0.046429 -0.080683 -0.112291 -0.139559 -0.161397 -0.177359 -0.187539 -0.192371 -0.192435 -0.188301 -0.180494 -0.169542 -0.156098 -0.141046 -0.125533 -0.110864 -0.098262 -0.088521 -0.081649 -0.076609 -0.071275 -0.062673 -0.047514 -0.022955 0.012565 0.058588 0.112220 0.168163 0.219295 0.257737 0.276257 0.269760 0.236547 0.179080 0.104014 0.021433 -0.056635 -0.118198 -0.153409 -0.156426 -0.126624 -0.068912 0.006961 0.088008 0.160248 0.211177 0.232001 0.219212 0.175192 0.107723 0.028508 -0.049038 -0.112279 -0.151667 -0.162421 -0.145280 -0.106178 -0.054952 -0.003337 0.037346 0.058345 0.055086 0.027921 -0.018068 -0.074166 -0.129751 -0.174310 -0.199350 -0.199838 -0.174951 -0.128018 -0.065734 0.003162 0.069462 0.125002 0.163859 0.183032 0.182558 0.165098 0.135153 0.098082 0.059145 0.022739 -0.008082 -0.031748 -0.048033 -0.057712 -0.062130 -0.062782 -0.060990 -0.057711 -0.053482 -0.048466 -0.042570 -0.035578 -0.027285 -0.017599 -0.006615 0.005329 0.017632 0.029431 0.039647 0.047088 0.050612 0.049342 0.042903 0.031630 0.016683 0.000014 -0.015854 -0.028223 -0.034745 -0.033971 -0.025809 -0.011747 0.005241 0.021140 0.031659 0.033168 0.023628 0.003302 -0.024967 -0.056006 -0.083131 -0.099405 -0.099112 -0.079154 -0.040050 0.013728 0.074202 0.131128 0.173807 0.193156 0.183621 0.144513 0.080469 0.000877 -0.081671 -0.153632 -0.203040 -0.221813 -0.207345 -0.163064 -0.097792 -0.024023 0.044542 0.095710 0.121205 0.118269 0.090106 0.045095 -0.005080 -0.047977 -0.073085 -0.074064 -0.050075 -0.005909 0.049114 0.103217 0.144763 0.164802 0.159007 0.128587 0.079963 0.023306 -0.029750 -0.068699 -0.086483 -0.081025 -0.055628 -0.018167 0.020759 0.050286 0.061812 0.051019 0.018934 -0.028204 -0.080266 -0.125438 -0.152833 -0.154950 -0.129413 -0.079634 -0.014236 0.054642 0.113779 0.151560 0.160307 0.137816 0.087746 0.018835 -0.056890 -0.126509 -0.178693 -0.205779 -0.205014 -0.178761 -0.133677 -0.079087 -0.024939 0.020204 0.050724 0.064760 0.064159 0.053651 0.039477 0.027833 0.023465 0.028735 0.043302 0.064444 0.087884 0.108875 0.123282 0.128395 0.123326 0.108948 0.087435 0.061587 0.034135 0.007218 -0.017853 -0.040509 -0.060582 -0.077863 -0.091715 -0.100889 -0.103637 -0.098102 -0.082900 -0.057716 -0.023750 0.016149 0.057750 0.096060 0.126202 0.144348 0.148478 0.138784 0.117607 0.088893 0.057299 0.027142 0.001454 -0.018635 -0.034019 -0.047204 -0.061450 -0.079677 -0.103401 -0.131976 -0.162358 -0.189485 -0.207222 -0.209679 -0.192631 -0.154698 -0.098005 -0.028159 0.046513 0.116313 0.171860 0.205759 0.213933 0.196313 0.156774 0.102327 0.041750 -0.016055 -0.063624 -0.096116 -0.111880 -0.112339 -0.101269 -0.083657 -0.064444 -0.047435 -0.034610 -0.025974 -0.019929 -0.014038 -0.005962 0.005693 0.020832 0.037775 0.053621 0.064989 0.068918 0.063721 0.049559 0.028579 0.004591 -0.017663 -0.033484 -0.039190 -0.032898 -0.014914 0.012326 0.044761 0.077504 0.105769 0.125707 0.134978 0.132956 0.120569 0.099841 0.073297 0.043390 0.012095 -0.019229 -0.049729 -0.078752 -0.105477 -0.128640 -0.146459 -0.156820 -0.157701 -0.147732 -0.126732 -0.096058 -0.058640 -0.018646 0.019197 0.050476 0.071977 0.082359 0.082453 0.075062 0.064311 0.054655 0.049779 0.051644 0.059921 0.071966 0.083381 0.089050 0.084419 0.066745 0.035994 -0.004831 -0.050058 -0.092352 -0.124172 -0.139377 -0.134616 -0.110198 -0.070220 -0.021901 0.025757 0.063722 0.084726 
hipp_sf_0012_PHC -0.145453 -0.122785 -0.080655 -0.025006 0.036355 0.094879 0.142486 0.172669 0.181332 0.167262 0.132168 0.080327 0.017907 -0.047917 -0.109901 -0.161609 -0.198106 -0.216404 -0.215643 -0.196996 -0.163372 -0.118945 -0.068613 -0.017426 0.029944 0.069644 0.098964 0.116515 0.122258 0.117378 0.104042 0.085040 0.063390 0.041932 0.022985 0.008099 -0.002048 -0.007608 -0.009388 -0.008592 -0.006517 -0.004283 -0.002643 -0.001908 -0.001982 -0.002503 -0.003025 -0.003184 -0.002816 -0.001963 -0.000797 0.000539 0.002096 0.004238 0.007658 0.013253 0.021881 0.034026 0.049481 0.067119 0.084863 0.099880 0.109018 0.109416 0.099160 0.077855 0.046948 0.009716 -0.029143 -0.064261 -0.090572 -0.104316 -0.103858 -0.090141 -0.066641 -0.038796 -0.013009 0.004612 0.009507 -0.000350 -0.023937 -0.057296 -0.094241 -0.127558 -0.150445 -0.157896 -0.147749 -0.121149 -0.082340 -0.037808 0.005046 0.039429 0.060548 0.066573 0.058972 0.042135 0.022374 0.006511 0.000366 0.007458 0.028216 0.059855 0.096941 0.132536 0.159642 0.172666 0.168565 0.147449 0.112516 0.069349 0.024740 -0.014699 -0.043824 -0.059895 -0.062952 -0.055586 -0.042175 -0.027782 -0.016965 -0.012773 -0.016140 -0.025802 -0.038720 -0.050912 -0.058478 -0.058576 -0.050142 -0.034190 -0.013635 0.007307 0.023997 0.032343 0.029651 0.015182 -0.009677 -0.041651 -0.076146 -0.108036 -0.132487 -0.145684 -0.145340 -0.130925 -0.103630 -0.066094 -0.021994 0.024428 0.068834 0.107201 0.136160 0.153266 0.157208 0.147948 0.126791 0.096334 0.060287 0.023113 -0.010481 -0.036179 -0.050726 -0.052513 -0.041950 -0.021533 0.004469 0.030678 0.051552 0.062417 0.060430 0.045231 0.019166 -0.013029 -0.045023 -0.070051 -0.082220 -0.077706 -0.055600 -0.018226 0.029140 0.079115 0.123458 0.154479 0.166362 0.156135 0.124135 0.073903 0.011551 -0.055256 -0.118472 -0.170817 -0.206671 -0.222634 -0.217695 -0.193066 -0.151798 -0.098273 -0.037706 0.024286 0.082048 0.130197 0.163954 0.179529 0.174578 0.148677 0.103710 0.044047 -0.023631 -0.090931 -0.148773 -0.188730 -0.204462 -0.192991 -0.155509 -0.097501 -0.028078 0.041443 0.099494 0.136389 0.146223 0.128138 0.086642 0.030889 -0.027015 -0.074335 -0.100245 -0.098031 -0.066515 -0.010371 0.060735 0.134047 0.196248 0.236109 0.246705 0.226709 0.180520 0.117193 0.048414 -0.014016 -0.060652 -0.086262 -0.090698 -0.078589 -0.057962 -0.038123 -0.027315 -0.030690 -0.049088 -0.078888 -0.112969 -0.142541 -0.159401 -0.158069 -0.137277 -0.100454 -0.055049 -0.010862 0.022256 0.036784 0.029433 0.002086 -0.038441 -0.081824 -0.116515 -0.132381 -0.123101 -0.087748 -0.031197 0.036780 0.103533 0.156241 0.184691 0.183532 0.153469 0.101147 0.037738 -0.023465 -0.069893 -0.092371 -0.087021 -0.055972 -0.006763 0.049436 0.100353 0.135313 0.147509 0.135346 0.102572 0.057209 0.009555 -0.030246 -0.054515 -0.059674 -0.046867 -0.021433 0.008599 0.034616 0.049614 0.049934 0.036144 0.012858 -0.012460 -0.031393 -0.036727 -0.024332 0.005680 0.048798 0.096996 0.140446 0.169677 0.177651 0.161308 0.122205 0.066125 0.001771 -0.061159 -0.114036 -0.151040 -0.170177 -0.173353 -0.165525 -0.153167 -0.142430 -0.137473 -0.139365 -0.145840 -0.151940 -0.151409 -0.138478 -0.109598 -0.064694 -0.007609 0.054388 0.111943 0.155518 0.177425 0.173531 0.144254 0.094601 0.033252 -0.029127 -0.081964 -0.116817 -0.128922 -0.117943 -0.087786 -0.045560 0.000071 0.040742 0.070054 0.084683 0.084741 0.073336 0.055506 0.036798 0.021856 0.013356 0.011512 0.014257 0.018013 0.018831 0.013609 0.001080 -0.017686 -0.039371 -0.059089 -0.071471 -0.071923 -0.057747 -0.028883 0.011898 0.059395 0.106868 0.147239 0.174337 0.183952 0.174489 0.147136 0.105531 0.055062 0.001935 -0.047773 -0.088920 -0.117853 -0.132649 -0.133091 -0.120432 -0.097053 -0.066095 -0.031119 0.004179 0.036227 0.061825 0.078409 0.084341 0.079169 0.063818 0.040609 0.013076 -0.014471 -0.037591 -0.052470 -0.056657 -0.049612 -0.032931 -0.010155 0.013832 0.033734 0.044910 0.044378 0.031519 0.008317 -0.020951 -0.050518 -0.074297 -0.087153 -0.086023 -0.070624 -0.043595 -0.010022 0.023572 0.050554 0.065546 
